solver_type L2R_LR
nr_class 5
label 3 1 5 4 2
nr_feature 4914
bias 1.000000000000000
w
0.1981116797121426 -0.07604603609162588 0.09136596685817810 -0.1387479313158641 -0.1573462815230452 
0.1772821219206988 0.4393971859595977 -0.04741286054072733 -0.3395229645071052 -0.01519708213854168 
-0.2369627252979486 0.09826859234797167 0.5581471876673860 -0.1413884393382451 -0.09568569387348214 
0.1978117486094792 0.2026530342880711 -0.05660980481942458 -0.4179297023058030 -0.01155755467830840 
0.03358647583634458 0.2017919094423894 0.2615674589986441 -0.2895632810876477 -0.1172796872903491 
-0.1834472154599222 -0.4236041252960871 -0.1505401562932248 0.5724684767907156 -0.2236091646205311 
-0.1313234718594973 -0.4016655500752187 -0.6450770375929947 0.6500690042979432 -0.3370938899446184 
0.02344588819208808 0.2197393547423719 0.4317593464316329 -0.4234986622240912 -0.1433317510862570 
0.4161099828730924 0.3290950563865153 -0.1596861546465316 -0.5281058591538652 -0.1881664237465777 
-0.3864505810487319 0.5897239500834696 -0.4021043912157139 -0.07680431362317966 -0.05804068904525282 
-0.007031292407339827 -1.215860827114621 -0.2548402947619052 1.354371345392463 -0.1632510102126793 
-0.2837192466401807 0.05341096813374548 -0.5994597357851853 0.4669051857940188 -0.4527639779702075 
-0.5079784823401436 -0.02826853208714068 -0.6016471655887771 0.2382627934608269 -0.02151341964807079 
0.09580092456388356 -0.06869287671459920 -0.08894886576432312 -0.3736939938344417 0.6055754296532816 
-0.2805757311591678 -0.5291974571197943 -0.01699093699765000 0.3428072818768887 -0.2720670644896598 
-0.8465843354072263 -0.8955095060927155 1.007263804861419 0.5526104774573086 -0.4058981008991695 
0.3398577529918213 0.2006752111787115 -0.1379738754689052 -0.5967445966874615 0.4512277186408141 
-0.4830599479791078 -0.2044273989939579 0.06663268178934803 0.1434038464469768 -0.2479028707287371 
-0.09283188080829292 -0.1950229615637880 -0.2080863461180544 0.3940419927331492 -0.2155705528696844 
-0.1602263737603064 -0.1443599592838792 0.1974512872380682 0.02907149060563685 -0.4549434431785440 
-0.3834858865000451 -0.1010057169526445 -0.2104934843048307 0.4288587572869859 0.01663722952540049 
0.3088435667746414 -0.3049972296160002 -0.2603937820915220 -0.3089714397484520 0.2156759253559458 
0.06038499672070223 -0.003849510667068000 -0.003986231891809229 -0.1130520522018054 0.0005386578588693547 
-0.2893093481944624 0.2986640554895313 -0.4275471209558168 0.2772893094393532 -0.1442682784303950 
-0.01922343495542251 -0.3337565247624208 -0.2524950548489423 0.4676467213914699 -0.1582547802757549 
-0.1242672239660780 0.1498249358966711 -0.06742903523679966 -0.05847768119371443 -0.01614878820325087 
0.3127102282964521 -0.2241926840422128 -0.1870660578445747 -0.2917786299774402 0.1474794419451109 
0.3203653886131188 0.4712437459665470 -0.1214506641210855 -0.9087345834904288 0.09822817284554525 
-0.7409572915686725 0.3119937681508275 0.1909305932280299 0.07348765601018759 0.03925386197870481 
-0.5977509341870214 0.08714618905107260 0.03559960115763014 0.3495631120104365 -0.1068380226514114 
0.2617114028344552 -0.006733243291899484 -0.003813321896910203 -0.2375468073181208 -0.003425672993764224 
0 0 0 0 0 
-0.3552334817862685 -0.1620791854116244 -0.01942800487970938 0.2036297117036934 0.2545156565409111 
-0.2011750949628889 0.004880227644102792 -0.2474779574863542 -0.07390036741142764 0.5418738520916587 
-0.2931182197943553 -0.02727721857946014 -0.03234590344212084 0.2392765131176962 -0.01235722050017342 
0.1043486485800872 -0.06462909511099443 -0.1331672355024520 -0.05361614734293834 -0.2355208536770274 
0.2982334160971328 -0.06021917223788621 -0.04622851618358182 -0.4106748177841195 0.09651665018898284 
-0.4745636194776671 -0.2798115165916276 0.3157865646072963 0.3289563638487806 -0.06203636465074598 
0.02431780956542520 -0.004697537709780340 -0.01294850592965960 -0.02178305341875022 -0.004328175881059503 
0.2431337904428929 -0.008443463386697351 -0.01955736770249332 -0.1435928549763935 -0.003022132249238189 
-0.3986003475622229 -0.06393492675945928 -0.1773383824657896 0.6486425076649150 -0.03735088037319144 
0.1739742941031132 -0.005164702427306080 -0.01541670847580499 -0.1672942695644142 -0.0006266172615736890 
0.2547866023759545 -0.008280137261782264 -0.01065291704098253 -0.3717350835155483 -0.007913038534664670 
0.1215173583166348 -0.005432116195912137 -0.004468327962482714 -0.1204602532578399 -0.0002084805739568298 
-0.03420714987123018 0.1217091258699554 -0.003331583741432696 -0.05186104899496399 -0.0005324329960815386 
0.2046401437464750 -0.007426583168380445 -0.002735084734594377 -0.2097364126832752 7.182876656772219e-05 
-0.1709156386972073 -0.08844432286907718 -0.1688173054361950 0.3614614160053287 -0.1322425693947354 
-0.2842653167618029 -0.04617597982081604 -0.01976933614781957 0.2520700353855453 -0.05408402181784270 
0 0 0 0 0 
-0.1164549212938565 -0.1901724240334276 0.2975405549019255 0.2205022869556952 -0.4254915259623126 
0 0 0 0 0 
0.07013480570424865 -0.002131068001618525 -0.0005692174595716347 -0.06049975714296733 0.0001759315624726039 
0.08780765017890438 -0.001112858100245790 -0.001964985243203322 -0.05852007885742028 1.442113591894648e-05 
0.04348941123707461 -0.2446600848483893 -0.05916550950797153 0.3866289523071663 -0.1369528730616531 
0.3300964555221458 -0.002121882232199482 -0.009267809138263649 -0.3847079156033968 -0.001662277781532259 
0 0 0 0 0 
0.2003529580832602 -0.002970366757986546 -0.004180430143632786 -0.1653201138748650 -0.001683905172284587 
0 0 0 0 0 
0.5912899146030116 0.5711921356059646 -0.4225782279924192 -1.011648227858463 0.5473195548137708 
0.3924671611305847 -0.6482408870486870 -1.006992464493817 0.4170365087722207 -0.3292405445521287 
0.7770048592999833 -0.4505441770084732 -0.7752895632194011 -0.7270359530769058 0.3063278292216228 
-0.3455106629900934 0.6166473225157254 -0.6113635730240066 0.4740401208182801 -0.2898847205777831 
-0.8993280795456986 0.6108016657033773 -1.389238184582587 0.6127849831210320 -0.7302555514813688 
-0.6372057184095261 -0.4981999413441390 0.2233167022821211 0.5294404775939865 -0.5911350605671623 
-0.3171472119318637 -0.6633587906504823 0.4049306518916928 0.02435211706965924 -0.2474945362674319 
-1.092689759921358 -0.9354163066272229 0.1472171913862714 0.6967493305238983 -0.4893524332281093 
-0.7301628099492710 -0.1868258787212744 -0.9043537838524391 1.068253290175791 -0.6325360661268470 
-0.1973705823603906 -0.3189512574471632 0.3865931726237109 -0.3023323948032331 -0.1736467059230285 
-0.2648025493558657 -0.1992824597307131 0.3404480570019849 0.09650606120922815 -0.09169663127521871 
-0.2069404326696445 -0.2257529365697287 0.9050219494592453 -0.3497615019117291 -0.07495715736101469 
-0.2504678197546950 -0.3242259593159635 0.2634496528493781 -0.08462268608654810 0.1381692310285125 
-0.1807895302376101 -0.01006789370373391 -0.07970519931345652 0.1721027533408834 -0.008328340242740855 
0 0 0 0 0 
-0.2519076424953730 -0.2120229194085231 0.1261255935978066 0.3800281832791208 -0.06016617446455114 
0.03675452383037158 0.1019281440740587 -0.005075210968020258 -0.1332932571909001 -0.0002473665394192181 
0 0 0 0 0 
0.2920272980456554 0.06208825244800380 0.07839469456161816 -0.4167745139472524 -0.005366790847878543 
-0.002963861979902295 -0.003088603010189693 0.06792611872125773 -0.06365167630352230 -0.01746709917465446 
-0.01296008851278383 0.09637106731465578 -0.004023852774108551 -0.1323503895701821 -0.001604224071931103 
-0.1465756313675556 -0.1904987663987669 -0.1232316277312731 0.5026027459740149 -0.05220365155542080 
-0.04190905951560223 -0.01641925516679199 0.1715955987342327 -0.1067180710480202 -0.08022748759503210 
-0.4087479018113934 -0.2340710720600407 -0.2236015057794042 0.7459442088587934 -0.09935475357822521 
-0.1577059388050983 -0.03114821045064405 -0.04478232450114383 0.1598600165611871 -0.08246460658551096 
-0.03453273590201780 -0.05307633421750322 -0.05444209259286056 0.09007401989389721 -0.03337114122815581 
-0.05101738435065868 -0.1123917663395750 -0.03409488915397698 0.2220176719575505 -0.02516934202662870 
0.3644062007011870 -0.01741686420387007 -0.04971217958871460 -0.2812541111984883 -0.01181326628302389 
-0.05260806966615816 -0.03827932377822554 0.2517215595747157 -0.1563734313161284 -0.03385600108663571 
-0.009849692462264595 -0.02625111552018618 -0.1637349565564198 -0.2120617721617950 0.5111615428538926 
-0.01980878672337466 -0.004951311025151062 -0.2002178065521440 0.2022083759757989 -0.04647214489792993 
-0.1183189860581989 0.3419690772507027 -0.01040752517458219 -0.05405757787662226 -0.003097681070168875 
0.1400170983981784 -0.01504105113602552 -0.07615615254754747 -0.08992434157656695 -0.02226215758353883 
-0.03232063516062493 -0.01912267676602029 -0.04203947238734207 0.04644679184804285 -0.03108758425138626 
-0.1543997133744430 -0.1024839589956771 -0.07479351443396623 0.1479467242174644 -0.03004127572649105 
-0.1991938646520103 -0.03473000683847570 -0.02116833770108638 0.1748406781501907 -0.03204709790746464 
-0.09154264695054835 -0.04645677097907270 0.1706925233535583 0.03142736925190209 -0.01788205811107509 
-0.1897862288665511 0.1879357773723020 -0.02796372481700172 0.08632657371771475 -0.02457186223038584 
0 0 0 0 0 
0.003240105602113987 -0.05159519691854833 -0.05448398775460375 -0.02747997082035288 -0.03735186164868443 
0 0 0 0 0 
-0.001168849612423702 -0.007995763901363510 0.1579972727379846 -0.09871121768305922 -0.007186577595680497 
-0.8604001007103969 -0.3150014651923574 -0.09339244189315755 0.9438676395332454 -0.01912372195397438 
-0.007254853918363943 -0.003205002725898981 -0.005866319102992547 -0.01110123373680991 -0.002471343305588093 
-0.008743540344504995 -0.0003742403994221300 -0.05196839969860526 0.1132462232090610 -0.08380399130095050 
-0.07822699062679447 -0.1871709938488242 -0.1193474357256092 0.2490633044819595 -0.03909481723197127 
-0.07111042843673437 -0.06882083947146374 -0.1359008486783383 0.2112823088609420 -0.1706164629264459 
-0.007004419921094430 -0.04870269131928544 -0.1260498259307311 0.1270440295953744 -0.01423433362848937 
0 0 0 0 0 
0 0 0 0 0 
0.5236766018540681 -0.1718807870719544 0.2766096205609973 -0.3599079358348210 -0.1363133020418024 
-0.006239134210170218 -0.007968209697104725 0.2774703123623047 -0.3599869203870587 -0.001284900790109556 
0.6886310937340421 -0.04108171422344299 -0.03526951729026284 -0.6201139491285867 -0.02961910200833885 
-0.04511075113607614 0.3854596805589353 -0.003473429698768153 -0.4346650772897126 -0.002030958798875274 
0.03875719537330212 0.03608109251968161 -0.02568633180601273 -0.06728418165210606 -0.006530540592966144 
-0.007262938955646489 -0.04028912055692329 0.4178356857830636 -0.4458333027442761 -0.004001321733368037 
-0.008629687196809043 -0.04798978316371873 0.2765730663673826 -0.2282831870838248 -0.02373511361189660 
0.1875796469643813 -0.0004601365747967102 -0.001469911203569348 -0.2410264031866223 -0.0006013564013051471 
-0.0005711413792926337 0.05063286896645458 -0.01142106020541537 -0.1357555629151947 -0.002766826633868963 
0.03399447041528204 -0.004299319352187583 -0.006040322023004610 -0.03020878912449894 -0.002994594953474643 
-0.1218705483263904 0.5109622878643437 -0.1327829998547088 -0.02508576006035245 -0.1673634554811821 
-0.6868540729473003 -0.05299952490086068 -0.09834997232815211 0.9912720182693026 -0.03382607871514577 
-0.001733181991157799 -0.0007091776668794094 0.2241228676588153 -0.2649839302140567 -0.03286971966513033 
0.1014901178322824 -0.04640950627454889 -0.2818098854531717 -0.1301116443742910 0.6138570280172718 
-0.003154556378754075 -0.02417072916040915 0.06021872974723684 -0.04989977254083896 -0.002872104294721668 
-0.003078635384743881 0.2065346623586204 -0.01143335875784626 -0.2682139000636873 -0.01343450772378065 
-0.003157366014095963 0.1292610764508226 -0.03314938422448416 -0.1075848020025913 -0.009907300308416682 
0 0 0 0 0 
0 0 0 0 0 
0.5621058364480659 -0.1201808423659254 -0.01339856186935995 -0.3186804128081599 -0.0009065699570113969 
-0.04923159522047248 -0.3108715746392614 -0.1216830431611366 0.2165326920352187 -0.008088110551180859 
-0.02737061267715435 -0.2446393664049545 -0.1521723179524558 0.3438965047465465 -0.04238199040417987 
-0.001239780980570837 0.1612914072297845 -0.05890091504182363 -0.1260716086937636 -0.01042411300639688 
0 0 0 0 0 
0.1268068961059966 -0.002488292820877432 -0.07654686123401531 -0.7034966551909794 0.5358071264217767 
0.03588240120830775 -0.001387808747073146 -0.0001181620008252650 -0.03367683550189322 0.0001280366071484430 
0 0 0 0 0 
-0.002229955920670804 0.3046426904224862 -0.01269954883598088 -0.1838266328565138 -0.003434726250412653 
-0.04506655863945279 -0.3490574084942221 -0.06394554846982453 0.4385204138550667 -0.01886853250414785 
-0.02606701941552632 -0.1207504692317471 -0.06106096902186690 0.1450928788619376 -0.06703056109262123 
0 0 0 0 0 
0.2695629843311694 -0.01140849055808498 -0.009793196184975166 -0.2825518698366394 -0.009752152636286844 
-0.1117419715480909 -0.05733104580101917 0.03582929046205006 -0.1207421609430661 0.06527173554553199 
-0.04842455160199319 0.7700631767588432 -0.1501594113160565 -0.3277331922557048 -0.1956851886949033 
0 0 0 0 0 
0.02350910893122464 -0.0003343595847520494 -0.0009076756242342909 -0.06406548796050422 0.0001473110546099010 
0.1471196561686200 0.3602688390309121 -0.02586022963082552 -0.3365459274837393 -0.008379768246835482 
0.2492564959324545 -0.01137771328727759 -0.004105413586895827 -0.2022043020996973 -0.004316490547407379 
-0.03390766344156712 0.5918037427775285 -0.1810682967758745 -0.07142914176203219 -0.3601602911685726 
-0.1476615026079604 0.05802735164861941 -0.04313273426396318 0.4337111467297344 -0.01540902295006377 
-0.004522133625618613 0.08302683266224027 -0.007958556884861550 -0.1483409286909317 -0.005929383773531048 
-0.07949667572248546 -0.04864142951218334 -0.2303540938522285 0.3438618180654088 -0.03372723699060679 
-0.001908455112848943 0.1342640203126512 -0.002632505987348349 -0.2298266061719649 -0.001509835400135425 
-0.02562467767766139 -0.03782160599553242 -0.2867316304235518 0.3974179923214654 -0.07302934300502896 
-0.5377059259644043 -0.2151734908022538 -0.06397882570058469 0.7111313226132403 -0.1017505737666508 
-0.04942914635152786 -0.4983890604402348 1.064701297143476 -0.3774718499361399 -0.2006457840874812 
-0.001081245642000490 -0.002342507994354756 -0.007883447779708676 -0.1119373950369658 0.05297520858517021 
0 0 0 0 0 
0 0 0 0 0 
0.1349888037875034 0.1257311767030201 -0.002210406915249870 -0.3120783944946970 -0.002842253143953052 
-0.001541337580761200 -0.01645508666347155 0.1662942997859618 -0.1700325830156990 -0.009147801873585519 
-0.01720581636715840 0.2532523547489033 -0.02561417214262347 -0.1036641318345479 -0.02622162477903376 
0.3767323594348480 0.2617564322501550 -0.01995605902774900 -0.4202368049811441 -0.01704370817823521 
0.5412647112574459 0.03758703647822689 -0.008822498684743132 -0.6016675147302805 -0.009283929510212380 
-0.003089094545335301 -0.07606857892643504 -0.05516797312770240 -0.4336446589065811 0.6721380436011403 
0.1420786348507490 -0.0007921654475411180 -0.003389460243252133 -0.1331060234610205 -0.001165241155914643 
0 0 0 0 0 
0.2342265596966431 0.06836955010200553 -0.03972089420244644 -0.1718356513156038 -0.004809547668136719 
-0.4186458711193044 -0.01957030869836605 -0.01653682067747623 0.2927297025789592 -0.009551475334414530 
0 0 0 0 0 
0 0 0 0 0 
0.1548686024324252 -0.0007243209660204227 -0.003438260660707806 -0.1916923691288525 0.0002894551561542058 
-0.002157393441497706 -0.02235585755526655 0.07814611311091150 -0.07037889341486937 -0.003549226674363974 
0.5378851899196033 -0.02041290983685577 -0.03004255734970823 -0.4729145597426042 -0.01227760180983387 
0 0 0 0 0 
0 0 0 0 0 
0.09694384245668130 -0.007151287607199587 -0.001617503283829468 -0.1136312243762931 0.0002934236390751634 
-0.02966495070215275 0.04778405172344252 -0.06717393131972295 -0.2129669227232694 0.1690385387374779 
-0.007186686694454116 -0.02052478294911203 0.1499975168588522 -0.07033694188436948 -0.03871347665539145 
-0.1492170254677649 -0.05715798816422576 -0.1629679516543263 0.3570705766638957 -0.1179541188434839 
0 0 0 0 0 
0 0 0 0 0 
0 0 0 0 0 
-0.1122853915491850 -0.05695958257368399 -0.01583224544314570 0.04071862464455464 -0.03119857842232493 
-0.7246652082024610 -0.1356955910588268 -0.05682537140766523 0.6783247018825835 -0.03177068316680316 
-0.4672381328489320 -0.008693932826451325 -0.007478335162662029 0.5752568900434201 -0.008960669004502096 
-0.01279259360120123 -0.04052314089081927 -0.02125459093490831 -0.05399526814038547 0.1074504239078940 
-0.02836847736609770 -0.1190688128855603 0.2005041640985302 -0.1591954505455401 -0.06025639292490330 
0.01852507492255699 -0.0004894898042437949 -0.001445243440068527 -0.02518754633300899 0.0001629421091558703 
-0.003697311056907664 -0.02077342647281617 0.1970071696256155 -0.1923015582441499 -0.02342729072587233 
-0.004176053609803566 -0.008364480085680425 0.05723328153327693 -0.03933608466603788 -0.003765627975013250 
-0.3776793743102260 -0.01752705013725176 -0.009105265180433461 0.3185684751397104 -0.009571543385510837 
0 0 0 0 0 
0.3009299988706248 -0.05947205200791776 -0.05047944981039639 -0.1455162449424323 -0.03212890849215971 
-0.01758585498777802 -0.02353537226221394 -0.007240479726002681 0.03425861534392129 -0.01235688936076067 
-0.02088254043232066 -0.1750367437729349 -0.1348997798076779 0.4223717098429530 -0.02721701508921609 
0.01934990424279504 -0.005887111400993682 -0.01389949660954382 -0.01413577054082543 -2.963328029232623e-05 
-0.1476308583268148 0.2174839971509016 -0.007842709052010968 -0.1698615973086750 -0.01076418920235000 
0.4039064349148345 -0.02397356266561105 -0.007771023674704536 -0.3001520726026737 -0.009745831077580508 
0 0 0 0 0 
-0.01776159415331698 -0.02011721258205795 0.08686156895836014 -0.06151602826155857 -0.004586606441050701 
-0.07306167640322103 -0.04769746093564339 -0.07539622315460619 0.1509894045167721 -0.02542750598569598 
-0.4134636064381123 -0.09360077759210358 -0.1592497601793121 0.5513690668300063 -0.08629104892992034 
-0.01992194124934510 -0.08788971191695295 -0.3982067931195419 0.3590983979483284 -0.03343429050881162 
-0.01152785155625447 -0.04947637726236386 -0.006623879934687536 -0.04506730173502031 0.08904233026625080 
-0.01556557238076815 0.09166154085255863 -0.01226772592905155 -0.09850233990800422 -0.02886423304906597 
0.1504681587847507 -0.009748430289415015 -0.006333199832582502 -0.1426640680221293 -0.004998035068878894 
-0.01361019353352294 -0.4292617580121667 0.05900566838268286 0.3289470660520399 -0.06181502592864180 
-0.1820449084780303 -0.1231962343031274 -0.2111034394804821 0.4818256709199236 -0.1126360583316927 
-0.07093563844047351 0.04181576295992139 -0.1472790371418135 -0.06286661082632371 0.3019841315126587 
-0.02455144538085120 -0.08732669903449020 -0.01623672083838386 -0.3748961943003044 0.3068302636853900 
-0.02520834593331351 -0.09141441793366867 -0.1525726439941109 0.4215643932902308 -0.08594582066153729 
-0.002475953152737610 0.04622440492512337 -0.005933506735462849 -0.1078596982958491 -0.0009485045250199990 
-0.01703605678575338 -0.09320939984380863 -0.01135654306740266 0.06897139984670132 -0.02388069067192743 
-0.02215212242074506 -0.1538673885537842 -0.09787904246053590 0.1600682353330794 -0.02900987596249584 
-0.4085123761977774 -0.02064106745264052 -0.02145361547903106 0.3491512243186595 -0.006074445988098518 
-0.02686306407339129 -0.01209366074139423 0.4464757656142658 -0.2492344956496596 -0.003071352028224186 
-0.06555352420892756 6.176400516231736e-05 0.2368037611075902 -0.2279927419405627 -0.04126517767143846 
-0.04400503992727690 0.1408636319955967 -0.08609923210025777 0.06990189919613686 -0.1189505277363875 
-0.06662909945887328 0.2654016529392770 -0.1182360382934337 -0.5929416007383187 0.2753713596986970 
0.04549521963448777 -0.1067313588860511 0.02134465075190316 0.1653685097618377 -0.1312070728378527 
-0.1018221264150800 0.1154420878073069 0.03277898736793002 0.03424316883328607 -0.04888000935479274 
0 0 0 0 0 
0 0 0 0 0 
0.1557179850473739 0.4287801456202246 -0.008344936496369386 -0.3447913400078561 -0.003735306747037758 
0 0 0 0 0 
0.08219060698709622 0.3482188072718397 -0.005458102283899672 -0.3736723602989901 -0.005081414373097971 
-0.001134718941440041 -0.0004978160839389874 0.08834294654979205 -0.2450008004214108 -0.009642400370747444 
0.2252871289891766 -0.007054099895100598 -0.003190136810883443 -0.2057885777643186 -0.004840987943344194 
-0.07179968172353227 -0.005451974095133812 -0.009976931596415753 -0.01506903017060966 -0.01772123956284933 
-0.1990939838422604 -0.04110980722082122 -0.06178364233016564 0.1383309587681430 -0.05285257673242048 
-0.4134162347623719 -0.4606689144864316 -0.03098970464974743 0.8865240206988798 -0.005157929258122558 
-0.01656786818067578 -0.04104833377673935 -0.03590995319627239 0.09009676771434644 -0.01971544585839989 
-0.01264241245080686 -0.1473876746236367 0.3392987336403373 -0.06518482523289323 -0.05198243978043764 
-0.01465571862414251 0.1327252818209838 -0.04176887392014850 -0.07918004407996132 -0.08374639530671601 
0.1646775933518557 -0.009783714833237096 -0.003123263212173339 -0.1467914759148264 -0.0008900533428807732 
-0.3279684207495664 -0.006743954390463717 -0.01237456178328052 0.2295693006570538 -0.002906606171735402 
-0.09292751432457047 0.1805634165837879 -0.2241953601028862 0.2930388075128486 -0.2098289595038319 
0 0 0 0 0 
-0.001250360849485080 -0.05808062326060155 0.1636266418555868 -0.06942294244698310 -0.06496402150410580 
-0.01332804718624249 0.2659782268376463 -0.2884663108886767 0.1863971587119877 -0.07099821080845398 
0.2023606243942368 0.3267409977172883 -0.06047179850806159 -0.3322659678426666 -0.1103771342781551 
0.1645427678218340 -0.02321736828634712 0.08563766273567003 -0.2215843617522242 -0.01736555368239925 
-0.04085465022188535 -0.001988562561911197 -0.04271371315004718 0.1427901840714108 -0.02661443985532426 
0 0 0 0 0 
0 0 0 0 0 
0 0 0 0 0 
-0.03420714987123018 0.1217091258699554 -0.003331583741432696 -0.05186104899496399 -0.0005324329960815386 
0 0 0 0 0 
-0.01439892508822446 0.1215134980555599 -0.4674905586260349 -0.2262488526052185 0.7816057217489163 
0 0 0 0 0 
0 0 0 0 0 
0.1112895955073473 -0.02171006474813442 0.07080643982490181 -0.3074001315981577 -0.002012295773373099 
0.09941537540563498 -0.02150096913015017 0.2479122193221926 -0.3851650636223820 -0.005090291141727470 
-0.04679758870235433 -0.04927593207598140 -0.05316418969590910 -0.1381057953374556 0.4416246093828400 
-0.01087786942748233 -0.05422733254281049 0.09209519875508022 0.1809158311381334 -0.1447486571182654 
-0.4773767683892542 0.1244490523080140 -0.03835309147991620 0.2245702795794373 -0.05681182793267627 
-0.02379935311176702 0.1603420287033363 -0.001625752459359214 -0.09535661160939520 -0.0002924290162834602 
0 0 0 0 0 
-0.07077691894918371 -0.04445909819599350 -0.08862027774075365 0.2040820188872318 -0.07688336803123191 
0 0 0 0 0 
-0.07691792891413610 -0.02080356229583959 -0.05780286081780343 0.1011042993548376 -0.04650817744931006 
0.1789628712498803 -0.001346298752216894 -0.004232008680577884 -0.1426056146477207 -0.0009383908686441488 
0 0 0 0 0 
-0.05517112562183284 -0.09381806879259086 0.5219503742991001 -0.6477939358693121 0.1361996709004364 
0.08518828171894200 -0.001303048102162164 -0.001760777127465210 -0.1036151880812022 -0.0006402459113755501 
0 0 0 0 0 
0 0 0 0 0 
0 0 0 0 0 
-0.01787978893312176 -0.005669934022046695 0.1314054687502320 -0.09062274001206581 -0.006121519715836207 
0.1323626889799394 -0.002840130196289582 -0.001953420583266752 -0.1284941265765395 -0.002214878447574540 
0.08606577532559746 -0.0006818712150800318 -0.01182459373352939 -0.09975220718809578 -0.0001997350615288821 
-0.04770800645254155 -0.01899253227784454 -0.06680899782734832 -0.2582998048307973 0.4280165728434083 
-0.02520905768317219 0.3544751092218811 -0.03397926333919213 -0.3446307554956626 -0.003279118751059491 
0 0 0 0 0 
-0.05047794035285153 0.1462393351793717 0.3337909843530940 -0.1685103384029547 -0.003594058020032432 
0.1495950478416222 0.2659031437130082 -0.03028131705072834 -0.2721038185604743 -0.006068352589084477 
-0.05326687957055309 -0.07359130057455432 -0.02541251634189700 0.1067779504721810 -0.05700643402941744 
-0.06051985021976186 -0.06282976813828271 -0.002982018369610321 0.2285788843501775 -0.004219014705615864 
-0.04968793259490326 -0.04464443988857522 -0.03470036537587620 0.06104052416996671 -0.05877678092990696 
-0.09139127616890279 -0.9789292382877932 -0.01055211683933743 1.020180171805835 -0.002146543160238896 
-0.01428543550342649 0.4364650963501922 -0.09419122558236753 -0.2700350889808584 -0.007187005420929508 
-0.01188432508073446 -0.01682065941335587 0.1003613284205091 -0.07176974183043996 -0.004685571245219884 
0 0 0 0 0 
-0.01689069001670729 -0.02093485252709016 -0.1926791815908177 0.2358904956860595 -0.08724366278022257 
-0.001692735658763940 0.3206566892784891 -0.003658587607251285 -0.3683520164092514 -0.04279022840368824 
-0.001928996948891480 0.1142403305960176 -0.002149132835778626 -0.2479899734750629 -0.004683143150734059 
0 0 0 0 0 
-0.01825975651978010 -0.02901822726040039 0.4129643780992727 -0.3712255346376042 -0.02524134142612207 
-0.02835387443594898 -0.4439145362412226 -0.1821390874501264 0.8354784083787431 -0.04395607329898729 
0 0 0 0 0 
0.1488703416495417 -0.007530133944189383 -0.001319645811828593 -0.1099711106715884 -0.0004696611395787167 
-0.004059114654808241 -0.002193557245727113 0.1739129212765183 -0.1199982493419385 -0.02606570823604288 
0 0 0 0 0 
-0.001908561686837266 -0.01602918693247907 0.1455300009148437 -0.1400586889708742 -0.006571319379310721 
-0.01499186745224351 -0.01308408512464516 -0.02148753571264690 0.04112206054450652 -0.007181561721340702 
-0.01819664910477457 -0.02714652617003021 -0.07904043072470630 0.05184116096409830 -0.03705299490173367 
-0.01941316121644829 -0.02537506186566071 -0.05630437295324618 0.03784395024984334 -0.03457664839552368 
-0.02389305853768277 -0.006773897181704661 -0.1021620051664979 0.09755169680511971 -0.01574156152671956 
-0.01021320924326551 -0.09385587497277185 -0.1579557600604778 0.2320348747171366 -0.01006311270796782 
-0.006269906578101612 0.3882328121778437 -0.3648766771547866 0.06272312070068241 -0.1953760779438662 
-0.01595972342396885 -0.04621300067713704 -0.1423768720546575 0.1657729507767088 -0.02102285162078035 
-0.006655916122142312 -0.4317881417198559 -0.06702094323276067 0.7627140569992210 -0.1852844123867218 
0 0 0 0 0 
0 0 0 0 0 
-0.03279304849071195 -0.01930077236580582 0.6087661454061051 -0.4512555545284828 -0.03044263601741505 
0 0 0 0 0 
-0.02951803466373157 -0.01117200693572227 -0.06684717697368380 0.1354282081349036 -0.01221994648443681 
0.03843733896737833 -0.002966876554716585 -0.0006879787845135055 -0.02983331513994014 0.0001185061468432474 
0.1308237277960012 -0.008852246481547059 -0.004807298471586078 -0.1144216111547781 -0.001235319859600445 
-0.007995988922583516 -0.05941560096742730 -0.003247687670107662 0.03418394163900203 -0.006205958357513722 
-0.0008651931600635723 0.07044220531788312 -0.0004951977885696316 -0.1614264683087760 -0.001211824846567407 
0.1008046131968492 -0.004037505946153955 -0.004894946017221146 -0.08141602413784182 -0.0009090996713645576 
-0.01332124952569769 -0.2426552240979214 -0.07456776910627681 0.3948802009774334 -0.1111982790090217 
0 0 0 0 0 
0.07013480570424865 -0.002131068001618525 -0.0005692174595716347 -0.06049975714296733 0.0001759315624726039 
-0.3659963243286631 -0.1431637656755476 -0.09934222254131046 0.4474366780540400 -0.1287537242751468 
-0.02419974226724224 -0.06046091913428871 -0.02418715247318854 0.1499498436204709 -0.03564805770747349 
0 0 0 0 0 
0 0 0 0 0 
0 0 0 0 0 
-0.007285680257300177 -0.003206571728048389 0.06800718459354722 -0.1262949164172277 -0.003738179794977552 
-0.06976210087098063 -0.05972517338185839 -0.1452693461008306 0.2375987495893859 -0.2324812581409591 
0 0 0 0 0 
-0.03205640655957415 -0.04858263014866849 -0.03851017463804056 -0.3020492329435670 0.4939982504031608 
0.2634285649156223 -0.002414372717894558 -0.003983515412243240 -0.1747261022103519 -0.001480665229925062 
0 0 0 0 0 
-0.06450919487002578 -0.01282346218150124 -0.05109740578804212 0.1411260681459090 -0.01868242986870843 
0 0 0 0 0 
-0.001024925105368017 -0.01535230588433306 0.1367667635678460 -0.1648987549971811 -0.02953255716001385 
-0.04863049124232609 -0.01587983127610293 -0.05592537750045852 0.1089609473101320 -0.02546782943954854 
-0.005301899539031071 -0.1470449391331320 -0.4350057083909521 0.4852752837030074 -0.09432426264828629 
-0.05486849647301501 -0.03068961807050538 -0.1724053757991006 0.2626040812668385 -0.01530991309768669 
0.04792655678244005 -0.002800090176619479 -0.002285186615719719 -0.06338178116414710 0.0002921859023188478 
0.07136879881661708 -0.0008274787419645469 -0.002072409443501233 -0.08519009658522860 -0.0005511366263676689 
0 0 0 0 0 
-0.2431518417335560 -0.02170297784374442 -0.02883476447611543 0.2308461882126373 -0.007892622434072955 
-0.02879245963761079 -0.09756387778417010 -0.04166792974830088 0.1994290136621854 -0.1375299097924827 
0 0 0 0 0 
0 0 0 0 0 
0 0 0 0 0 
0 0 0 0 0 
0.08780765017890438 -0.001112858100245790 -0.001964985243203322 -0.05852007885742028 1.442113591894648e-05 
0.1053660327492259 -0.02032718292074771 -0.01480280062354717 -0.09587511627152422 -0.007707251453684450 
0.1988917874374569 -0.0006772694981191443 -0.001267071107423904 -0.5989259342354657 -0.002176186781125960 
0.3672730844901662 -0.003407043161734175 -0.006911300500300218 -0.3736980978376478 -0.002950921725640135 
-0.007067516062100050 -0.05391352686362236 0.4273955294275842 -0.1681868441242813 -0.02059369353283885 
-0.003929335260550016 -0.001777469265947511 0.2737990178794420 -0.3366128318992127 -0.03116491131717639 
-0.01491098688646050 -0.06996383142135254 -0.001746685903200859 0.06131826105863834 -0.006658460962691933 
-0.01244879991059474 -0.01953404995759430 -0.03958552965366519 0.05748604229095937 -0.05332149883507656 
-0.01911049462763027 -0.09425901296991294 -0.01771286405057067 0.08614187890996293 -0.02565409937581371 
-0.01346383649351091 -0.4549599064188672 -0.4368875325823391 0.7641585557315964 -0.1947940338998042 
-0.01749870950140136 -0.01040799875589912 -0.08175704694661630 0.1597779637544073 -0.03426548203937369 
-0.01973019544383803 -0.1298342082694972 -0.02675961600988854 0.1184613655204692 -0.02049504249998567 
0 0 0 0 0 
-0.006403453141645187 -0.05783967656864569 0.3872162749708242 -0.2162179661787128 -0.01735219802588564 
0 0 0 0 0 
-0.03051815448005663 -0.1516171817184269 -0.05565007295780324 -0.03374447797244058 0.1931044401309810 
-0.007163794293276350 0.08639060184706658 -0.02402105392760312 -0.06905605351047770 -0.01494200829818241 
-0.001675407987608077 -0.02916443270021125 0.4050361080948531 -0.1055077949409127 -0.1886699614659611 
0 0 0 0 0 
-0.02522440788988647 -0.02802094553464486 -0.09390675784475015 0.1331929448079055 -0.01996599729827655 
-0.02235653616486629 -0.005690923091535355 -0.08569821465460357 0.05305788509291638 -0.007936143073250178 
-0.006552323491948841 -0.1930813908253296 -0.01824511860277578 0.1106224743261054 -0.03723365262792037 
-0.0007350072188712321 -0.1211660413015850 -0.01233806492476931 0.07668985166058698 -0.01075672415274461 
-0.0003143937673784800 0.1144716448854388 -0.03820722804172948 -0.1545603837590608 -0.008152283236317810 
-0.006181838468092349 0.1838886625399865 -0.003454626061261331 -0.03813907239773817 -0.0002546075000299694 
0.1983477899628280 4.799257855111724e-05 -0.001055813534874647 -0.07700136939741954 -0.0002454702740031849 
-0.001896904039732390 -0.03182551912032094 -0.01993765891282577 -0.1103704194513855 0.2087889914625311 
0.1107787031374276 -0.002296044488196662 -0.0002661784555362643 -0.1147424178921244 0.0001697991500082855 
-0.04426380865915287 -0.01587111694280203 0.1205983098101413 -0.1479176688893422 -0.01619771706019754 
-0.004031800135803718 -0.06216032852505520 -0.04181447084235383 0.07908242243739556 -0.01057353949720537 
0 0 0 0 0 
-0.02038561176456440 0.09218646934266835 -0.008098178148523554 -0.03614160965502399 -0.05762675580841108 
-0.009763117799534045 0.3823300899710027 -0.04178376951336793 -0.04781444470003517 -0.1406285648741722 
0 0 0 0 0 
-0.03272033741671045 -0.007429842803544447 -0.01926577965138082 0.08790792611900340 -0.02353716139133510 
-0.1351454688176811 -0.01164719439655731 -0.03846108650006233 0.2232222157985492 -0.06421003106412015 
0.6155137880910270 -0.001367857247297874 -0.01286327082368474 -0.7179105413986260 -0.005108304493980910 
-0.01015600395457734 -0.01621012192859276 0.1300409062448110 -0.1389590264693856 -0.004580709941772850 
-0.02019270095805262 0.4264477891033043 -0.01273530973180827 -0.1703244522968812 -0.005835461590385320 
-0.1729014302825190 -0.006022615712145562 -0.01285894468924047 0.2818919742743792 -0.002285163343623705 
-0.0007634957510004900 0.4414444232934062 -0.03187313069917824 -0.4519561257524007 -0.006091471744754890 
0 0 0 0 0 
0 0 0 0 0 
-0.002800830127691300 0.1366924652591860 -0.03068744479520930 -0.05585569937119582 -0.005071844402510856 
-0.0009668308592717024 -0.009708990964172711 0.06561935563956715 -0.03616422314871544 -0.01880472000022968 
-0.003215140540426499 -0.01165557776701748 0.04123734150606172 -0.01255272006423925 -0.02604782667204268 
0 0 0 0 0 
-0.02529776826780857 -0.03667560607032809 -0.2431642565854290 0.2173592120406349 -0.08566860802670560 
-0.002616617527551693 -0.01198764862585683 0.05183305367302590 -0.03102839008917286 -0.01728421741442216 
-0.002436055822497615 -0.002694931332265462 -0.06019156026597660 0.08777296053425551 -0.03168822871050272 
-0.04425364755939954 -0.05763554563363232 -0.003852857739712445 0.1159440250188911 -0.002131497652645991 
-0.01727845523038032 -0.03431907558319061 -0.01517682671009216 0.07313049773312451 -0.04582851355759330 
-0.005487487255722184 -0.06753283597721875 -0.004274791844270049 -0.1243741228086236 -0.009013411634363117 
-0.01501084520414408 -0.03262791534243115 -0.03742880676023681 0.07087794051938111 -0.04079738196265427 
-0.05235862945851812 -0.1166034326472376 -0.05464061529122302 0.2167483554274960 -0.06024013236964582 
-0.008181897729919695 -0.03606122428892887 -0.05830425064474606 0.1522856750144134 -0.01670358023233342 
0 0 0 0 0 
0.2785476862399746 -0.002009026823042656 -0.006019344756597428 -0.3108769145153731 -0.001628580027748743 
0 0 0 0 0 
-0.01063299710955080 -0.02832415152367556 0.05515412261230538 -0.03924143955061920 -0.009887199510040471 
-0.001308884509849674 -0.003107691482988497 0.01825033750236027 -0.01461222277369945 -0.009028044647866460 
0 0 0 0 0 
-0.0006779878908569410 0.1525170558633056 -0.001211877218603927 -0.2523107794930911 -0.001178486886805404 
-0.001595680915344239 0.1506278414192511 -0.005735134295492114 -0.2199380825262624 -0.001904498201757172 
-0.006746451622113413 0.4813758591058363 -0.001307943128954730 -0.5546136674403759 -0.002904349243934575 
-0.001424013068829948 0.1814051906755813 -0.0009297092337794143 -0.1564122874626260 -0.0004840332185665818 
-0.1119418691319611 -0.1726052996316177 -0.05912420828030011 0.2265293597182899 -0.08844808506800272 
-0.003253205246309957 -0.1984753259520383 -0.03165220657358351 0.2198214551156928 -0.02430916261981108 
-0.001345599259952407 0.2916901997039725 -0.01461243418402381 -0.2131768546581063 -0.01012184379619289 
-0.0008065695665276499 0.03605672660110289 -0.0009305477749415783 -0.1807197518148682 -0.002835619204295790 
0 0 0 0 0 
0.1130684403948654 -0.006031072239790269 -0.001112335850760875 -0.1025355606649096 -0.002546484310211086 
-0.1012479064901771 -0.02172370901918494 -0.03329398684150202 0.1963066955165009 -0.001020230348747284 
-0.02606314335270383 -0.04981737785344193 -0.1872432669319219 0.3270195127097860 -0.01978837890358331 
-0.02290530120454962 -0.02596120846154212 0.2380436581879326 -0.1550392152655852 -0.02172229227315055 
-0.003704157587261210 -0.01114257185865204 0.03647103172518244 -0.05162255707605055 -0.002462505248248645 
-0.1528825761011823 -0.09559901658791053 -0.01996016376479428 0.2586707658992284 -0.03744045660054671 
0 0 0 0 0 
-0.009130146318366500 -0.1548256199886348 -0.1363384524303200 0.2352480531899124 -0.05064916947776459 
-0.03317940483122206 -0.007741279219577017 -0.04801426382046974 0.08440979246357928 -0.008082005052731070 
-0.002874461400344657 -0.03963515861207189 -0.2028472254178811 0.2422159757416960 -0.01829444456566558 
-0.01426307552285256 -0.01636167922242394 -0.1234900257619184 0.09236604309302543 -0.07234049976289457 
0 0 0 0 0 
-0.004127435831318907 -0.4094058456521105 -0.005822988879904328 0.4999540982782445 -0.0006845100964740217 
-0.004405329286984248 -0.09111228427891305 -0.1224628845124126 0.1629849422414752 -0.02098342261598385 
-0.002704845774479704 -0.05450865291739383 0.09107593895342132 -0.08930270121779457 -0.002200860791803345 
-0.003289204401626923 -0.02154372449878476 0.05107542343221619 -0.01311932039912805 -0.01906278139830273 
-0.0009255740170376469 -0.06820355993466252 0.3009298019286985 -0.1568027456377635 -0.006102261298783904 
0.4535872740828302 -0.01894878090791934 -0.003770922197162057 -0.3339042529296064 -0.005354847506694307 
-0.01506065584374363 0.2201199888513707 -0.08056961942572553 -0.2632764936945141 0.1124865820468011 
0 0 0 0 0 
0 0 0 0 0 
-0.2090487913437437 -0.01146844655263936 -0.02596823205676460 0.2220580940074446 -0.01430631042031538 
-0.01992069353136873 -0.2588155459507747 -0.2980760881762611 0.6613187309808952 -0.07275518371755657 
-0.003704060151073811 -0.01097587791065694 -0.03275102268933942 -0.2831156962620508 0.2853377561730515 
0.08572074534698208 -0.001333218479934182 -0.002480574606112993 -0.1115293943065308 -0.001679530091312618 
-0.01318050588650059 0.2593015573530789 -0.04999865633205910 -0.01961352177160624 -0.1455564658287304 
-0.03378642617872563 -0.1033321497158791 -0.1311041029250812 0.3023320784157154 -0.01045486451707965 
-0.03370152097184545 -0.1611423772679447 -0.01429392958282233 0.1815442591142796 -0.01555242913771184 
-0.006680018019202354 -0.002192340578587150 0.2324551084768459 -0.2223880678708958 -0.02623712767404095 
0.2003529580832602 -0.002970366757986546 -0.004180430143632786 -0.1653201138748650 -0.001683905172284587 
0.2677526245667187 -0.01298665830664438 -0.01202030511221013 -0.1568006739186436 -0.003208913849622271 
-0.0006412632160311914 -0.01620597858794024 0.1225294861525934 -0.1378363638183553 -0.002185470488792295 
-0.02653532042615565 -0.04491105336503765 0.09283527112893647 -0.02865749462707874 -0.006973108416119778 
-0.08735289105834174 -0.07680370666289008 0.7047560441781376 -0.2848279193147372 -0.05807267887621510 
-0.05731469237308360 -0.1477204324561521 -0.2228414097045524 0.6890406235073293 -0.09147255452797812 
0 0 0 0 0 
-0.02085749157277164 -0.03074783315933841 -0.04041121321371055 0.1764177569896753 -0.005132996929924638 
-0.07284244322179871 -0.2858288250127672 -0.007962347438310985 0.4718493416690536 -0.0007249536438716044 
-0.003941960059371774 -0.04880477338486658 -0.03756181156466942 0.2982025514920129 -0.02063482640234830 
-0.005954682777874584 -0.1340431402909725 -0.02360105016392255 0.2179229920268210 -0.01887616727343991 
-0.5223355619656206 -0.007069975546313249 -0.002791285784242528 0.5085820981357461 -0.001143560105080144 
0 0 0 0 0 
0.03699941012889530 -0.0006084289782020603 -0.001484612735165033 -0.05584701541039838 0.0001952467518725800 
-0.02848687504281122 -0.009496748538517322 -0.02793036149902937 -0.09904777766159349 0.2107582004515949 
0 0 0 0 0 
-0.001587897201949060 0.1247924727960228 -0.04141410094800416 -0.1292751806451038 -0.007357300095236433 
0 0 0 0 0 
0.01741754152949473 -0.002549182069547691 -0.002025830468704476 -0.009689415975067521 -0.0005238716811998573 
0.09927929063515464 -0.0007727815389561902 -0.0004436468479612478 -0.1134029067052693 3.876267742348777e-05 
0 0 0 0 0 
-0.02348778526730585 -0.01395288755791852 -0.008274771953192159 0.01941315937202210 -0.01453591303852372 
-0.01987556257717061 -0.9662302049223200 -0.007013857211233649 0.8736524827410744 -0.01514917994361948 
-0.01279196781445860 -0.07216004792230511 -0.05034081864065479 0.06725208149127351 -0.02425428540114003 
-0.001312721207441905 0.1608530620650847 -0.0006407637040675481 -0.1398239547802092 -0.001351677969398628 
-0.1771418965118596 -0.01815419619591074 -0.01277795557915386 0.2255665222608454 -0.04838737647886329 
0.2082154593354126 -0.001001404877102384 -0.01034059055465382 -0.1746135718683722 -0.0006808541863923881 
-0.04315252823798157 -0.07040335241704353 -0.1180857062226228 0.2552783410791649 -0.06553435914570513 
0 0 0 0 0 
-0.005468158688974854 0.2055952731034677 -0.004199356070307411 -0.2302069224159079 -0.001320672438474093 
0.1535208151042040 -0.003814840057578730 -0.0008965162375771504 -0.1219075411563129 -0.0006577378264511864 
-0.05969113755282181 -0.02304000591369636 -0.2784697468028310 0.4390013308335292 -0.04473769756143319 
-0.0009379144677224729 -0.01609401948960231 0.3054081682994969 -0.1805271443271918 -0.01460843770452894 
-0.01482952390555293 -0.02752250943358190 -0.05802184831102628 0.09817622057505057 -0.02150541651777884 
0.8743766062165278 -0.003784501168281889 -0.003580952107651137 -0.8944999806884996 -0.003894971373964602 
-0.08983373179250426 -0.01572055633133020 0.06489655277687065 0.02041410595242442 -0.007433063740175480 
0 0 0 0 0 
-0.0004883829478953776 0.02969779426041112 -0.001536986725980740 -0.1579475695176773 -0.004611720931193984 
0 0 0 0 0 
-0.01491539978399887 0.2011673851570275 -0.03331738015369596 -0.06674777009942980 -0.005233914799189126 
0 0 0 0 0 
0 0 0 0 0 
0 0 0 0 0 
0.1983623364925684 -0.002086610456759841 -0.001592220929039901 -0.2017803054578366 -0.0005243045940533891 
-0.4819197971518786 -0.02738775353992014 -0.008889821715190888 0.5684184940382662 -0.01265247393343129 
0 0 0 0 0 
0 0 0 0 0 
-0.3186251286554516 -0.003579640383302843 -0.08077867602608048 0.4221401221350048 -0.0007191050460268846 
-0.002506666011911909 -0.008433209494963052 0.02679074731816719 -0.02062841668157833 -0.004919044141666072 
-0.002602127868728338 -0.01154292193812566 0.01371773033175073 -0.005715947374999603 -0.02219557255126083 
-0.01146997978353851 -0.01959044152233003 -0.02280292492499558 -0.1380593792699056 0.3829848142835745 
-0.1362768890255549 -0.01595043230915103 -0.01968075057674648 0.06540593876500936 -0.007536785991811712 
-0.02689318058252934 -0.06553858683272383 -0.1512503995018783 0.1149219577370334 0.002289726507423914 
-0.08332640446775331 -0.002392893892381593 -0.005639997827439476 0.04533772272604985 0.0001303484938094091 
-0.1202564620455276 -0.01436787961418433 -0.008105994156365318 0.1471098214266727 -0.003477315903846376 
-0.1301512063402199 -0.02788522636562064 -0.1597030794516915 0.3249790350180682 -0.01776823984298430 
-0.009724690816919960 -0.002610470868998535 -0.1756443508887645 0.2659194083482150 -0.1554203619126649 
-0.003119049378733551 0.1431730793591629 -0.02389546743746206 -0.1035630055492968 -0.001934861002252725 
-0.002846636749999495 -0.003066478013427795 0.06029859252855799 -0.05647946891958194 -0.01685724770153039 
-0.06005415910875719 0.2860164003483087 -0.001041328675224713 -0.1741907653311032 -0.0002480132204092767 
0 0 0 0 0 
-0.08455335988396488 -0.04891015389047260 -0.08036292921011556 0.2500254627067755 -0.007773352354918139 
-0.01297262077621609 -0.01495244429167363 0.3631417036225642 -0.2476821225115515 -0.04572004662663880 
0.1463448273753583 -0.004207904259229037 -0.001585065516955901 -0.1362421030101384 -0.003091639935710147 
0 0 0 0 0 
0.3669856879689086 -0.01849566071358359 -0.03674210583966512 -0.1802678191590691 -0.009682784597291580 
-0.1664764533407521 -0.06930368328288217 -0.1030105435925755 0.3842068131061618 -0.02525384825641252 
-0.02504492856175365 -0.005586568970696252 -0.1592242696130122 0.1622946040493909 -0.02933458522701867 
-0.1442240146665096 -0.01084574844441652 -0.001008603763749478 0.06827546540894078 -0.0005116634501530215 
-0.05610808934594734 -0.01338060463451362 -0.08774453296575455 0.1726794597762547 -0.009183148345662232 
-0.007914357013168024 -0.04437258516074974 0.1881280462963753 -0.1010678084882039 -0.01522361211248564 
-0.04300521317818357 0.1281597143597477 -0.01827509465232927 0.06855342559219191 -0.02557351967794023 
-0.01247161922245903 -0.1209045942280690 -0.02240561911340577 0.07696193418255902 -0.02075894120477038 
-0.02239194759582165 -0.3106810845005663 -0.06388557261683796 0.4583839755694928 -0.009041914086600536 
0 0 0 0 0 
-0.9289884860915315 -1.027038380706468 -0.5470966752061445 1.557391857641440 -0.2398717884667087 
0.002557826812671996 -0.8837536842193011 -0.9264409044574266 0.6242365030831926 -0.6702575346805797 
-0.6558604509971738 0.5792194947418092 -0.3651473689297987 -0.6135447158855811 -0.03193694854886825 
-0.4685783137409394 0.08421774368798177 0.7292617644414076 -1.266404550187106 -0.03286807387667622 
-0.0001869558438775936 -0.2907049506120533 -0.5587501294925908 0.4704820822775617 -0.3886118390932692 
-0.3083397053685604 -0.1809735928686595 -0.2952642529342591 0.6302599397137433 -0.2702943161551485 
-0.07307566629392775 -0.07854261159970538 -0.2256303228940410 0.3089863264479798 -0.1034785789273474 
-0.1034310635973593 -0.08794351623748402 -0.1779403210656804 0.2577291007089849 -0.2017040471778322 
-0.4946382495192394 -0.1397543650980825 0.05872032005069864 0.3295109337417088 -0.2241426682465179 
0.3608560592045946 -0.1262804026422079 -0.03223413254722168 -0.7778754143614384 0.3572261546083457 
-0.6790059063855637 0.2204341536662111 0.5133515924563320 -0.8184322136096882 0.002241564279119179 
-0.04568338003237297 0.05551086327234026 -0.2512624347339525 0.1812176023856109 -0.1432953638351167 
0.5062113757140922 -0.1714707313166007 -0.1097323194481209 -0.1417558747896147 -0.03318289516470892 
0 0 0 0 0 
-0.1382243880677480 -0.4955208987264445 -0.1041289428929644 0.4556131995648645 -0.1461767801959088 
-0.04435803201837894 -0.005902336931611447 -0.05393565567735243 0.1009266737541812 -0.1663941428415487 
-0.08917526208742892 -0.08510023524751910 -0.2015737190540768 0.2754426998392292 -0.2670579065364828 
-0.01426307552285256 -0.01636167922242394 -0.1234900257619184 0.09236604309302543 -0.07234049976289457 
-0.006680018019202354 -0.002192340578587150 0.2324551084768459 -0.2223880678708958 -0.02623712767404095 
1.337564623238860 -0.2479454741952278 -0.2220814056367101 -1.108833093097210 -0.1557455994120659 
-0.006575456094086688 -0.1122792781278716 -0.02219823648576073 0.07415420223868247 -0.02081517705317509 
1.582923789030584 0.1689453960909450 -0.3546558631212672 -1.361437212087706 -0.3275590232100751 
-0.2136055369089935 0.5441879697876936 0.1195130017245903 -0.07192741213145501 -0.1842200803096675 
0 0 0 0 0 
-0.3483229796420794 0.4062113344540460 -0.9089292016369463 0.1849137634132379 -0.5659782059991842 
-0.06537525179472767 -0.07433340149865547 1.244478740544417 -1.204976856442146 -0.1643060628307455 
-0.2219751643298796 -0.3428834128759122 -0.7721587312185576 1.156757466420151 0.008414071239112300 
-0.2537626325927884 -0.3362669266024166 -0.5521112857622922 0.4981492183104341 -0.2520197677766072 
0.3297255689336849 -0.2491007890332818 -0.5575513086394949 0.7224767084530050 -0.1193167158236393 
-0.06685337106264273 -0.07219901098352350 -0.09648156498020263 0.1365208117419401 -0.06445872547954207 
-0.05101738435065868 -0.1123917663395750 -0.03409488915397698 0.2220176719575505 -0.02516934202662870 
0 0 0 0 0 
-0.006708285922626848 -0.01437194629068973 -0.07002880796925902 -0.09589814728930823 0.2647311533091970 
-0.3106744089351150 0.1442353144494455 0.06442535046106329 -0.03844525500465596 -0.4342975304007055 
-0.1991938646520103 -0.03473000683847570 -0.02116833770108638 0.1748406781501907 -0.03204709790746464 
-0.08438435013975674 -0.009816224280701363 -0.07614007994448080 0.1434836046098963 -0.009695861067999093 
-0.003106811974238872 0.1997947201889504 -0.006101962425085888 -0.2101087867583141 -0.01860962310713145 
0 0 0 0 0 
-0.2728660125831864 -0.4059008237266640 1.413559176459797 -1.023701169244624 0.2258572780150071 
-0.02204898791306624 -0.06366570892768558 -0.2053352725220755 0.2809739648442027 -0.1638453543151175 
-0.02546455949235606 0.03986125089085034 -0.1772957442199430 -0.003882051972672896 -0.04465927268479346 
-0.1430263460300232 -0.3929695045982836 0.3251586426361026 0.1593614827249182 -0.1101995439451564 
0.1677351598929430 -0.01313291212441081 0.2620536038864997 -0.5272811899514728 -0.001911518051683245 
-0.008919868685611915 -0.02123396061599144 0.3741203845176675 -0.3353208720984262 -0.07158319632052178 
-0.2503043810476092 2.188900010814582 -0.5961409191597828 -1.324251071479477 -0.09296671571749231 
0 0 0 0 0 
-0.4186458711193044 -0.01957030869836605 -0.01653682067747623 0.2927297025789592 -0.009551475334414530 
-0.1029420289523350 -0.3743288840303959 0.2067083306143068 0.3920881666671320 -0.1891711464181566 
0 0 0 0 0 
-0.02984555957783239 -0.1061950289587508 -0.03055646230492579 0.09149650742855847 -0.02246367215973440 
-0.02606701941552632 -0.1207504692317471 -0.06106096902186690 0.1450928788619376 -0.06703056109262123 
-0.03595158287507386 -0.1061803934744830 -0.09134088948528152 -0.4055278149851305 0.6166295567914236 
-0.1597776029647730 -0.09690309030779401 -0.2808548444846603 0.4446816599462736 0.2155050683971880 
-0.02012933455502941 0.4424042182982820 -0.01430025061831479 -0.1632904252968515 -0.07922614422373986 
-0.004522133625618613 0.08302683266224027 -0.007958556884861550 -0.1483409286909317 -0.005929383773531048 
-0.08234875929987535 -0.1660722472310922 0.6007839146211849 -0.3206305025509654 -0.1054555988405625 
-0.001908455112848943 0.1342640203126512 -0.002632505987348349 -0.2298266061719649 -0.001509835400135425 
-0.05286985583295240 -0.04048480911316665 -0.05512752059773862 -0.1237683914018529 0.2029028367144920 
-0.07476163488990642 -0.1291025775735500 0.2705914380462958 0.04485037466490469 -0.04754724674860567 
0 0 0 0 0 
-0.2593859927304983 0.09090775059462591 -0.1665535157942483 -0.07314141236227302 -0.1544122446992487 
0 0 0 0 0 
-0.04703864160479628 0.05229751862082244 1.050313406944589 -0.8233849255681650 -0.1746054461154596 
0 0 0 0 0 
-0.07461290262629570 0.1676929272219047 -0.08058834303221384 0.1025284537173356 -0.2040833368570616 
0 0 0 0 0 
-0.04030016903313073 -0.2865918419761783 0.1250516190738258 -0.2684155968426545 0.3656936897191916 
-0.06730381029306737 -0.006055172386211589 -0.4456245542828017 0.4780778869982492 -0.02663698822661694 
0 0 0 0 0 
-0.006116551225123808 -0.02808848686392341 -0.1254614556344037 0.1251041237980249 -0.05848408399773698 
-0.01730739901389165 -0.1709642975328711 -0.003808842357438860 0.1462091706015542 -0.0007102747538693325 
-0.01279259360120123 -0.04052314089081927 -0.02125459093490831 -0.05399526814038547 0.1074504239078940 
-0.01030461428688657 -0.009626195811011873 -0.01185657787509206 -0.1445719202181584 0.1235539562866307 
-0.06242960153798182 -0.2004076677724733 -0.04432136861056885 0.2803674430204690 -0.06802780917355017 
-0.05954191755085152 -0.001089805183311665 -0.007666863187760440 0.02954860255516372 -0.008885940801643406 
0.01934990424279504 -0.005887111400993682 -0.01389949660954382 -0.01413577054082543 -2.963328029232623e-05 
0 0 0 0 0 
-0.4105282274799324 -0.08639485330831694 -0.1513237853894242 0.5113989021652597 -0.1301520831349240 
-0.02798140895771639 -0.2595987311990121 -0.06080520849884979 -0.1534188881850615 0.3753409708232121 
0.1504681587847507 -0.009748430289415015 -0.006333199832582502 -0.1426640680221293 -0.004998035068878894 
-0.01297262077621609 -0.01495244429167363 0.3631417036225642 -0.2476821225115515 -0.04572004662663880 
-0.02215212242074506 -0.1538673885537842 -0.09787904246053590 0.1600682353330794 -0.02900987596249584 
-0.4085123761977774 -0.02064106745264052 -0.02145361547903106 0.3491512243186595 -0.006074445988098518 
-0.02686306407339129 -0.01209366074139423 0.4464757656142658 -0.2492344956496596 -0.003071352028224186 
-0.04400503992727690 0.1408636319955967 -0.08609923210025777 0.06990189919613686 -0.1189505277363875 
-0.01680459810134327 -0.02059865716364174 -0.02282161855310236 -0.06983460857233010 0.1416811042613511 
-0.1532150120415778 -0.1757923669841592 -0.1814155511512217 0.4969555840110341 -0.1083432307459006 
0 0 0 0 0 
-0.01656786818067578 -0.04104833377673935 -0.03590995319627239 0.09009676771434644 -0.01971544585839989 
-0.01063723332891839 -0.04183686861939799 -0.04256698212909617 0.08985532566746353 -0.01311597151218570 
-0.01465571862414251 0.1327252818209838 -0.04176887392014850 -0.07918004407996132 -0.08374639530671601 
-0.1167643475041976 -0.1379209762996173 -0.5646391050166363 0.8147756242238184 -0.1050202285070403 
0 0 0 0 0 
0 0 0 0 0 
-0.4026229240897976 -0.006569305849060217 -0.02962065210718956 0.3799538664489771 -0.01098720435957290 
-0.04085465022188535 -0.001988562561911197 -0.04271371315004718 0.1427901840714108 -0.02661443985532426 
0 0 0 0 0 
0 0 0 0 0 
-0.01152393903127308 -0.05208256263625920 0.1201756221462880 -0.1014239583466128 -0.008323315669603565 
0 0 0 0 0 
-0.07924466573776094 -0.2562696809286272 -0.1549963015944335 -0.2414325839542465 0.7806220739161048 
-0.1476948478633198 -0.06526266049183309 -0.1464231385585571 0.3051863182420694 -0.1233915454805420 
-0.001675407987608077 -0.02916443270021125 0.4050361080948531 -0.1055077949409127 -0.1886699614659611 
0 0 0 0 0 
-0.001641646075768708 -0.003785326476895657 0.3034436957033971 -0.4346767799069487 -0.01974787801143779 
0.08606577532559746 -0.0006818712150800318 -0.01182459373352939 -0.09975220718809578 -0.0001997350615288821 
0.3638491074152013 -0.2101224208135319 -0.08398081026735557 -0.1895238974260015 0.3904139770041259 
-0.03355770946407843 0.2433436567805144 -0.1046587941792041 0.04973128509430695 -0.2313537595414695 
-0.009137215746086436 -0.03101588149699079 0.3439593383977874 -0.1385190162407244 -0.003558984778871976 
-0.1137867297903149 -0.1364210687128370 -0.02839453471150732 0.3353568348223585 -0.06122544873503330 
-0.05121963428075538 -0.1226604165016598 -0.008729467219708423 0.1722484634533150 -0.01686497575443990 
0.05179207446177613 -0.005165842660655378 -0.006044341102146080 -0.05418618920289293 2.411760295806687e-05 
-0.01428543550342649 0.4364650963501922 -0.09419122558236753 -0.2700350889808584 -0.007187005420929508 
0 0 0 0 0 
-0.03411027409932556 -0.04572067695931174 -0.1289134657846563 0.1645932302397481 -0.3041371126647489 
-0.01318050588650059 0.2593015573530789 -0.04999865633205910 -0.01961352177160624 -0.1455564658287304 
-0.1057934552164731 -0.06193355700846723 -0.07748031927778691 0.1861870567291332 -0.02845591536095583 
0 0 0 0 0 
-0.1234304987167874 -0.05918148645942288 -0.1604846584640906 0.1898582567930517 -0.07086006895706765 
-0.01461882787058359 -0.1021581231718524 -0.4666661756067081 0.4970041069318973 -0.05830803282449181 
0 0 0 0 0 
-0.04172029339479010 -0.06347140252091880 -0.4079446201717405 0.4140877396606024 -0.1606682042809682 
0 0 0 0 0 
0 0 0 0 0 
0 0 0 0 0 
-0.05205174613998004 0.4280796162582454 -0.003037482015143435 -0.2249562094435771 -0.003501184326404741 
-0.08351448411497987 -0.1968204630443072 -0.1241176539537513 0.4207695182708759 -0.2616693726778817 
-0.01571941291918127 -0.04379249934472205 -0.03566720483654341 0.03695862481608053 -0.02877789997745141 
-0.1898450230638122 -0.1006473949722277 -0.04774784264334084 0.2678017475178308 -0.06105727606818678 
-0.02419974226724224 -0.06046091913428871 -0.02418715247318854 0.1499498436204709 -0.03564805770747349 
0 0 0 0 0 
-0.0007200122407036036 -0.01517788177865747 0.1882119545137462 -0.1867309759947393 -0.01796164191730551 
-0.0002467532091624721 -0.03147729171538963 0.2043968365443440 -0.1021892489676451 -0.04563265371545648 
0 0 0 0 0 
0 0 0 0 0 
-0.01935263214420064 -0.005591747014500848 -0.01213402458660818 -0.1068317636323222 0.1789288262150338 
-0.03378642617872563 -0.1033321497158791 -0.1311041029250812 0.3023320784157154 -0.01045486451707965 
-0.001218882003462621 -0.005121045067190673 0.2574135359850152 -0.2663026439733510 -0.01468759973206540 
0.2194836040066953 -0.02121140549145447 -0.01675696004650478 -0.1756506542815291 -0.08300131169502274 
0 0 0 0 0 
-0.006215034291569149 -0.02812575232542407 -0.01838257611028225 -0.06533491076342378 0.1608759704359909 
-0.07092355241693869 -0.03303025846297546 -0.008291770718770118 0.09874005344983515 -0.003302378780484669 
-0.01244879991059474 -0.01953404995759430 -0.03958552965366519 0.05748604229095937 -0.05332149883507656 
-0.01749870950140136 -0.01040799875589912 -0.08175704694661630 0.1597779637544073 -0.03426548203937369 
-0.01973019544383803 -0.1298342082694972 -0.02675961600988854 0.1184613655204692 -0.02049504249998567 
-0.006403453141645187 -0.05783967656864569 0.3872162749708242 -0.2162179661787128 -0.01735219802588564 
-0.02181572794095336 -0.02066088066596148 -0.03118737631971703 -0.03791004085201503 0.08700617155702772 
-0.02235653616486629 -0.005690923091535355 -0.08569821465460357 0.05305788509291638 -0.007936143073250178 
0.2492564959324545 -0.01137771328727759 -0.004105413586895827 -0.2022043020996973 -0.004316490547407379 
-0.02436656440222262 -0.01316500156011771 0.2206478200190002 -0.04186835779806936 -0.002891572869051585 
-0.004031800135803718 -0.06216032852505520 -0.04181447084235383 0.07908242243739556 -0.01057353949720537 
0.6155137880910270 -0.001367857247297874 -0.01286327082368474 -0.7179105413986260 -0.005108304493980910 
0 0 0 0 0 
0 0 0 0 0 
0 0 0 0 0 
-0.04426380865915287 -0.01587111694280203 0.1205983098101413 -0.1479176688893422 -0.01619771706019754 
-0.1023878845473939 -0.2012112586860489 -0.1215056934697526 0.4357254363786930 -0.09907700229574251 
-0.05235862945851812 -0.1166034326472376 -0.05464061529122302 0.2167483554274960 -0.06024013236964582 
-0.3623610383253034 -0.06605298101654684 -0.005444180807148379 0.3242353782011652 -0.007278377268720801 
-0.04869609086133783 0.1890085627293108 -0.05110353398202356 0.08475401640951380 -0.08908950481597767 
-0.01116132684025917 -0.02239197928812466 -0.01042191863336797 -0.1364744102323610 0.1843497143096497 
-0.02606314335270383 -0.04981737785344193 -0.1872432669319219 0.3270195127097860 -0.01978837890358331 
-0.02290530120454962 -0.02596120846154212 0.2380436581879326 -0.1550392152655852 -0.02172229227315055 
-0.0002467532091624721 -0.03147729171538963 0.2043968365443440 -0.1021892489676451 -0.04563265371545648 
0 0 0 0 0 
-0.1528825761011823 -0.09559901658791053 -0.01996016376479428 0.2586707658992284 -0.03744045660054671 
-0.08534161736460834 -0.03869001746597541 -0.02899026602993052 0.09679130556275695 -0.06925186770220049 
-0.02520834593331351 -0.09141441793366867 -0.1525726439941109 0.4215643932902308 -0.08594582066153729 
-0.03317940483122206 -0.007741279219577017 -0.04801426382046974 0.08440979246357928 -0.008082005052731070 
-0.002874461400344657 -0.03963515861207189 -0.2028472254178811 0.2422159757416960 -0.01829444456566558 
-0.01426307552285256 -0.01636167922242394 -0.1234900257619184 0.09236604309302543 -0.07234049976289457 
-0.004405329286984248 -0.09111228427891305 -0.1224628845124126 0.1629849422414752 -0.02098342261598385 
0 0 0 0 0 
-0.003704060151073811 -0.01097587791065694 -0.03275102268933942 -0.2831156962620508 0.2853377561730515 
0 0 0 0 0 
0 0 0 0 0 
-0.03370152097184545 -0.1611423772679447 -0.01429392958282233 0.1815442591142796 -0.01555242913771184 
0.2677526245667187 -0.01298665830664438 -0.01202030511221013 -0.1568006739186436 -0.003208913849622271 
0 0 0 0 0 
-0.001864287950783528 0.3965350603769242 -0.05616626160855626 -0.2022461115140784 -0.1471311578273423 
-0.1390455275755916 -0.07496251062219654 -0.02526064797060839 0.2356351654468536 -0.02324802099515397 
-0.02848687504281122 -0.009496748538517322 -0.02793036149902937 -0.09904777766159349 0.2107582004515949 
0 0 0 0 0 
-0.01279196781445860 -0.07216004792230511 -0.05034081864065479 0.06725208149127351 -0.02425428540114003 
0 0 0 0 0 
-0.1771418965118596 -0.01815419619591074 -0.01277795557915386 0.2255665222608454 -0.04838737647886329 
-0.0006412632160311914 -0.01620597858794024 0.1225294861525934 -0.1378363638183553 -0.002185470488792295 
0 0 0 0 0 
0 0 0 0 0 
-0.06032400738928742 -0.006258396779023413 -0.06184288986504227 0.1688381307762674 -0.007573527257264553 
-0.05643752841610163 -0.02548372354932870 -0.05727147789532267 0.1127716222387767 -0.01896873938570588 
0 0 0 0 0 
0 0 0 0 0 
0.2084826974895207 -0.01824472316247145 -0.01782376100842440 -0.08781443003823429 -0.002822776883083402 
0 0 0 0 0 
0 0 0 0 0 
-0.01354666302491995 -0.008787097990971660 -0.007972693664412637 -0.1646903414680879 0.1891550889139947 
0 0 0 0 0 
0 0 0 0 0 
-0.01270377441537350 -0.04299088313416764 -0.02637615005143238 -0.1952174693112448 0.3150694241881269 
-0.0005456701890581700 -0.002591706232528710 0.1020888492406109 -0.1126668671799805 -0.01536853712896153 
-0.1202564620455276 -0.01436787961418433 -0.008105994156365318 0.1471098214266727 -0.003477315903846376 
-0.009724690816919960 -0.002610470868998535 -0.1756443508887645 0.2659194083482150 -0.1554203619126649 
0 0 0 0 0 
0.3638442814292708 -0.03037482994308004 -0.1304482544268259 -0.2964314440315560 0.2367476049474040 
-0.04744052124869717 -0.03474516158610888 -0.2060860721516758 0.2546014817507000 -0.1155504044952339 
0 0 0 0 0 
-0.08355880210118447 -0.02012457247966527 -0.1701136201352143 0.3050220907659139 -0.1019696385151809 
0 0 0 0 0 
-0.01247161922245903 -0.1209045942280690 -0.02240561911340577 0.07696193418255902 -0.02075894120477038 
-0.02239194759582165 -0.3106810845005663 -0.06388557261683796 0.4583839755694928 -0.009041914086600536 
0 0 0 0 0 
0.5144112137218187 -0.6515236401340632 -0.6597416625212803 0.1128810702830401 -0.7768723728910988 
-0.4153840277538541 -0.1786750373476151 0.03095967247623502 0.09516994490946913 -1.045064604724634 
-0.4950517446275963 0.2818141918757935 -0.6683294474863114 -0.1871735412551560 -0.1364281928804670 
-0.1728513877656906 -0.2145093834373061 0.7774541660671118 -0.5222664513084050 -0.2696966643686597 
-0.2537626325927884 -0.3362669266024166 -0.5521112857622922 0.4981492183104341 -0.2520197677766072 
-0.3974749862730144 -0.1452724122648913 -0.05054731266583134 0.4142363961725655 -0.6244809708011908 
-0.3106744089351150 0.1442353144494455 0.06442535046106329 -0.03844525500465596 -0.4342975304007055 
-0.4653065816473206 -0.1752513557717365 -0.2746954473209555 -0.3731308056313137 0.8545404269670878 
-0.5538490414777676 -0.6279891775452740 -0.6341743020614903 0.8182356424540873 0.4160114347332041 
-0.02915245613551626 0.03213170328327536 0.1559942080214476 -0.1987085248561077 -0.1583025023886175 
-0.3792648943462442 -0.5100663271873338 -0.1653007025836118 0.4188936311475522 0.04171129154569439 
-0.07171804346920740 -0.2493963426793932 -0.1314808519557424 0.3064646055080759 -0.09587150735012268 
-0.001908455112848943 0.1342640203126512 -0.002632505987348349 -0.2298266061719649 -0.001509835400135425 
-0.1331568325204950 -0.1118595982452142 -0.2929910935147221 0.2923241761734741 -0.1473240965824792 
-0.01571941291918127 -0.04379249934472205 -0.03566720483654341 0.03695862481608053 -0.02877789997745141 
0 0 0 0 0 
-0.06829048912166778 -0.2653371702858219 -0.7336750075420635 0.2358838027686851 0.4576075892248078 
-0.05579729239568925 -0.1058958545890359 0.1247373335418665 0.05870908280104403 0.2625445327502194 
0.02180762098423517 -0.002437302265811005 -0.001877150732270775 -0.03475515277426984 -0.0002915493081695290 
1.366706107374748 -0.2516404604428132 -0.3360731704607268 -1.163873455317031 -0.1010672282271901 
0.3722880926741580 0.3450329124655224 -0.05822577861954312 -0.5791486832954534 -0.07182417641870290 
-0.3790828614066738 0.2289097117516888 -0.08606771635633050 0.4284885842032755 -0.4721656766564585 
-0.4650094696275803 -0.08299182176378053 -0.1485066739694835 0.2944068213255330 0.2360462151977427 
0.4552834774644716 0.4829470357464099 0.1001631188255035 -0.3221971621814996 -0.06409573601765242 
-0.4001897349799214 -0.02106854768897738 -0.03282024073485854 0.4886895008317009 -0.005368941960982677 
0.06949089635364886 0.3439238513471417 -0.09584851847124043 -0.2154532162829310 -0.2995447062042831 
-0.02590553479689178 0.1043988672377268 -0.002893562255523584 -0.06086653775736832 -0.0003674450102450776 
-0.001425301158652793 0.07760360499475322 -0.01288380190586969 -0.03966198925822409 -0.002759101392907510 
0.6165366817157228 0.5601770140203600 -0.1412321577179300 -0.6351503305666314 -0.2107984260670016 
-0.03768664490102722 0.5264957083829650 -0.1209155132774538 -0.3915454439970727 0.1142417492791898 
0.3529611070047060 -1.189938172553925 -0.05312144747674732 0.7493779779197930 -0.4433367087946752 
0.1048943130787385 -0.2763584126590989 -0.1584723279238751 0.08044254059094748 0.2530931011897468 
-0.01222564025790605 -0.009956615824624978 -0.01361223904606469 0.02712443009935917 -0.009423600445394599 
-0.1128703365875359 -0.02666552354611182 -0.01801732677253088 0.09360918035517668 -0.01348166411036955 
-0.01222564025790605 -0.009956615824624978 -0.01361223904606469 0.02712443009935917 -0.009423600445394599 
-0.01222564025790605 -0.009956615824624978 -0.01361223904606469 0.02712443009935917 -0.009423600445394599 
-0.01222564025790605 -0.009956615824624978 -0.01361223904606469 0.02712443009935917 -0.009423600445394599 
-0.4107374387887206 -0.2373210016469396 0.02264170304212410 0.4176197067741899 -0.04147597453596724 
-0.05101738435065868 -0.1123917663395750 -0.03409488915397698 0.2220176719575505 -0.02516934202662870 
-0.05101738435065868 -0.1123917663395750 -0.03409488915397698 0.2220176719575505 -0.02516934202662870 
-0.04072473544133881 0.2224888217078098 -0.2054281589970801 -0.06066744501993068 -0.1128181713317672 
-0.07181251544839469 -0.2485077207662972 0.1253429054913519 0.2792284970311453 -0.1148629159089123 
0.4723212954351047 0.2534478313122250 -0.02748072320930336 -0.3165237368919245 -0.1201681601466634 
-0.3386855572300686 0.5727025580580160 -0.009155943295423383 -0.4237624921880683 0.5903420914902843 
-0.9900288402868846 -0.08468247630553111 -0.1221285387241740 0.9177447200204067 -0.05757727712553116 
-0.1174251854738119 0.2346262027013891 -0.1208583079299156 0.004377538328103619 -0.2016319724850984 
-0.008678561637734390 -0.01207346994734840 -0.07575416802701268 0.08212553286545848 -0.02219893377454775 
-0.008678561637734390 -0.01207346994734840 -0.07575416802701268 0.08212553286545848 -0.02219893377454775 
0.05163678223014628 -0.005248352530094331 -0.004341145318648637 -0.03550882454141885 -0.001749245248420709 
-0.0007344757830614561 -0.2385711937687071 -0.04890826000480367 0.1062897622862560 -0.02790223303858053 
0.04832721085303206 -0.4350232227273402 -0.1250631466239252 0.4015422933931735 -0.02415955244507166 
-0.08438435013975674 -0.009816224280701363 -0.07614007994448080 0.1434836046098963 -0.009695861067999093 
-0.003106811974238872 0.1997947201889504 -0.006101962425085888 -0.2101087867583141 -0.01860962310713145 
-0.02367099281113984 0.1212802971098435 -0.0008574157648993559 -0.1112874549539308 -0.0002226548523237097 
-0.007158296810791604 -0.03664054669837133 0.2468326032980391 -0.1120562353579942 -0.008186197043075997 
0 0 0 0 0 
-0.04131119312097140 -0.02350663312547725 -0.0007617065022552017 0.04239715523159564 -0.0008203354140299919 
0.06528655256371531 -0.07558548193470475 -0.3678236198463095 -0.03488376355411484 -0.1878077534672678 
-0.001168849612423702 -0.007995763901363510 0.1579972727379846 -0.09871121768305922 -0.007186577595680497 
-0.05480440883930755 -0.0006936587462722475 -0.0005290875172891348 0.02926537999405329 0.0008126400417211386 
-0.05480440883930755 -0.0006936587462722475 -0.0005290875172891348 0.02926537999405329 0.0008126400417211386 
-0.03108251151811373 -0.07754880715489793 -0.02137477557482970 0.1361713269829160 -0.04297016419597204 
-0.1256880865709578 0.1322214741701639 -0.02173747648081412 0.02549339452033200 -0.02751549443941525 
-0.007254853918363943 -0.003205002725898981 -0.005866319102992547 -0.01110123373680991 -0.002471343305588093 
-0.2781810084193438 -0.5371957730240043 -0.02872552142471804 0.9826459843106481 -0.01160290231279128 
-0.007254853918363943 -0.003205002725898981 -0.005866319102992547 -0.01110123373680991 -0.002471343305588093 
-0.007254853918363943 -0.003205002725898981 -0.005866319102992547 -0.01110123373680991 -0.002471343305588093 
0.1431185216514984 -0.3829844880925336 0.3050516710834498 -0.2524749946117673 -0.09579801911568796 
-0.03579687955870522 -0.1462665691034555 -0.1677177556790320 0.3264730432575598 -0.1517642434209721 
0.07551519006914145 -0.003882013115338167 -0.003460674894321579 -0.06336511793975565 0.0003951083553305492 
0.2115406876959107 0.1033671071745029 -0.01329535592716515 -0.3513267080778092 -0.008255457978103314 
0.007051047721198521 -0.01487993999216650 -0.02457327108278293 0.1076924560198376 -0.008162785390393203 
0 0 0 0 0 
-0.005326737540521223 -0.002871455831919109 0.07902368941776328 -0.03785211367478545 -0.01722510900177445 
0.07590711503027762 -0.006863531285191813 0.07645603520582908 -0.09947433486732193 -0.01781669396997655 
-0.006239134210170218 -0.007968209697104725 0.2774703123623047 -0.3599869203870587 -0.001284900790109556 
-0.05049278176956976 -0.06560375533073705 0.2736174546225922 -0.2440428953681675 -0.003416398442755546 
0.08127610594009767 -0.001968180677962286 -0.001386231130073077 -0.07659709115630230 -0.002564755238728648 
0.4880195689377727 0.1945761871277452 0.8584733948427411 -0.9319782615457203 -0.2499742869284992 
-0.005802623058485694 -0.04502560625319833 0.2258193862283031 -0.1801663802536043 -0.006998661524166338 
0.1875796469643813 -0.0004601365747967102 -0.001469911203569348 -0.2410264031866223 -0.0006013564013051471 
0.2711676078055124 -0.005119545081323255 -0.008819426710713263 -0.3145430273414867 -0.005577104353386733 
-0.01820905730443161 -0.003946227849589246 0.1371877630334712 0.3128414054106401 -0.3433674036268283 
0.3860355146661894 -0.01515379606678272 -0.01241255991489828 -0.4161266716772525 -0.008033126432519388 
0.04471505896633680 -0.02098535282163545 -0.03309292004456967 0.02154980637932648 -0.01441013232841089 
-0.06438876841248134 -0.01932391151453665 -0.03001975168856306 0.1288134314534073 -0.01358866090352829 
0.03489052222267330 -0.02009669305349283 -0.03046339853652430 0.01541052474813801 -0.01354989822610480 
0.4228575278083722 -0.02879656919564930 -0.1003526316976856 -0.4027902990318829 -0.01404125473178038 
-0.2539105920162589 -0.007244022784134370 -0.07538261943130409 0.2871323749732108 -0.007492503341468325 
-0.001733181991157799 -0.0007091776668794094 0.2241228676588153 -0.2649839302140567 -0.03286971966513033 
-0.004121387238025778 -0.03387972012458186 0.1258380853868040 -0.08606399568955439 -0.02167682429495135 
-0.002902657195577948 0.1297779989452188 -0.004921522967208689 -0.1301640359642517 -0.003591921742139279 
-0.0009058618136946813 0.05989574224037311 -0.02181312693794853 -0.05591838869841524 -0.001185916584285516 
0 0 0 0 0 
0.4063762374327750 -0.03449645056268695 -0.03398743277741068 -0.2441744610111744 -0.03948329792239690 
-0.01787043065202920 -0.1594405230538648 -0.07125455684355347 0.1847301541803756 -0.06935205450950800 
-0.01715696206642542 -0.1138187374446779 -0.02968044151448242 0.06590193155554708 -0.05791816553782250 
0 0 0 0 0 
0 0 0 0 0 
0.1084404747666895 -0.001026258197930248 -0.008645985315164988 -0.09416007824153053 2.594216958240399e-05 
0.1084404747666895 -0.001026258197930248 -0.008645985315164988 -0.09416007824153053 2.594216958240399e-05 
-0.4001023523479365 -0.009312515045166765 -0.005764274619401777 0.2577315635486952 -0.004830054352369041 
-0.001239780980570837 0.1612914072297845 -0.05890091504182363 -0.1260716086937636 -0.01042411300639688 
0 0 0 0 0 
0.1250373187442194 -0.06334708480167435 -0.05908238451064096 -0.02663959532766901 -0.008783737556347558 
0.02513624429510996 -0.05958857936847029 -0.002785555549128255 -0.005375102685435932 -0.002937110527816431 
0.5100027633559744 -0.01222442929110922 -0.006541779589444171 -0.4809499262466480 -0.006826964172675931 
-0.004934801695150507 0.2501340375050923 0.07837639011744045 -0.2731293340743084 -0.005635587042215998 
-0.02374912852448791 -0.2771040151007584 -0.06011852860968359 0.2963504555706416 -0.01213492596981094 
0.1129098464885097 -0.007930967342356213 -0.01582249727249543 -0.1214537769052640 -0.004553676788452032 
0.2299769421036987 0.02351685541594371 -0.6264178214139149 0.2801225927054112 0.4517122515061467 
0 0 0 0 0 
0.02350910893122464 -0.0003343595847520494 -0.0009076756242342909 -0.06406548796050422 0.0001473110546099010 
-0.05862839641211896 -0.1488598285103039 -0.05294464456220112 0.2778544341709901 -0.02700213250897199 
0.1508020324088437 -0.008508905768479498 -0.007926273208402446 -0.1972360838072141 0.0009970322427276862 
0.2831554401936748 0.3544227366244726 -0.03405659171840645 -0.5718083100414620 -0.07608535156965805 
-0.2968213090759410 0.03626914449981912 -0.05525712295695617 0.3717032969146318 -0.01569728131893741 
-0.02248408068517200 0.6332022835348545 0.2115472108728229 -0.6364492673500001 -0.01041620813940214 
0.07402413938171849 -0.05245626956976208 -0.2312506100898057 0.2219542769090959 -0.03438497481705797 
-0.001908455112848943 0.1342640203126512 -0.002632505987348349 -0.2298266061719649 -0.001509835400135425 
-0.001908455112848943 0.1342640203126512 -0.002632505987348349 -0.2298266061719649 -0.001509835400135425 
-0.7021770266547943 -0.01579883493097660 -0.02155352354245240 0.8270134485522218 -0.008522487262760732 
-0.02562467767766139 -0.03782160599553242 -0.2867316304235518 0.3974179923214654 -0.07302934300502896 
-0.3635460930287632 -0.2498833154903656 0.3214977717844391 0.2305737964363959 -0.09509551879863404 
-0.04989170615121952 -0.006316781998490959 -0.02730641390520418 0.09853942308649839 -0.05886136333320938 
-0.2101291312189692 0.1689960645041163 -0.07596922156653500 0.1469463523590940 -0.06855929184072984 
0.3016970331433856 -0.02495129844310845 0.1535777427074450 -0.1772609605867307 -0.1305473865034631 
-0.0007511757487954800 0.1664804509939916 -0.02101808675691172 -0.1551969789280885 -0.01580673380856614 
-0.01637208965885011 -0.02153082585145512 -0.003382402531065564 -0.02004567066298647 -0.0003144860492607848 
-0.002123039524285794 0.1281237226091045 -0.0006807728895896086 -0.1400176474629708 -0.001220808341571346 
-0.0007602669697253821 -0.01172151684399743 0.1522783530865775 -0.1452638154448151 -0.005363019877104764 
-0.0007602669697253821 -0.01172151684399743 0.1522783530865775 -0.1452638154448151 -0.005363019877104764 
0 0 0 0 0 
0 0 0 0 0 
-0.06465844694390134 0.1393305953972687 -0.004790528104340107 -0.02517256033987582 -2.979083110474787e-06 
0 0 0 0 0 
0.06219540623391320 -0.01174834704137927 -0.01969271226647715 -0.001923645926870628 -0.004999468295673324 
-0.05730669996202477 0.001709335891409890 0.3085269792742038 -0.5918968601003974 0.4418881973861182 
-0.001832685838485985 0.1229935847127002 -0.05154867920521141 -0.3974001435489865 0.3182080187985419 
0.2308714312483397 0.1882022601780380 0.2871375041475894 -0.4930549904458886 -0.04647516286516198 
0.1420786348507490 -0.0007921654475411180 -0.003389460243252133 -0.1331060234610205 -0.001165241155914643 
-0.1427110354700876 -0.004232413041555614 -0.006502213073118448 0.1197413198694049 0.0008745982285940186 
-0.4778878773154532 -0.04028761436621163 -0.003737302440100142 0.7035787442598561 -0.001687125819143710 
0 0 0 0 0 
-0.002157393441497706 -0.02235585755526655 0.07814611311091150 -0.07037889341486937 -0.003549226674363974 
0.07146018694481684 -0.09416618094690941 0.1401756440112859 -0.1221770403200135 -0.1304927673764924 
0.01219098496294389 -0.004910419068314516 -0.002922515975980647 -0.01197565778826592 -0.004709125885225944 
0.01219098496294389 -0.004910419068314516 -0.002922515975980647 -0.01197565778826592 -0.004709125885225944 
-0.04400503992727690 0.1408636319955967 -0.08609923210025777 0.06990189919613686 -0.1189505277363875 
0 0 0 0 0 
0 0 0 0 0 
0.3684761425852300 0.06650997116275872 -0.1657262771837979 -0.2119667704246856 -0.03933385641450374 
0.07110375357741645 -0.002064700078882195 -0.009144399007719543 -0.05312589728464649 -0.001015844557990369 
0.07110375357741645 -0.002064700078882195 -0.009144399007719543 -0.05312589728464649 -0.001015844557990369 
-0.1207687515868649 -0.05420130582932668 -0.04116037738909832 0.2334356430020186 -0.01607031236853637 
-0.01612897321801115 -0.08257096278042217 0.4149746052519655 -0.1611120524899919 -0.1155763753291268 
-0.002007584455644796 -0.03258171264514360 -0.02463738067940272 -0.1914414942856830 0.3381232909940322 
0.07165536282489060 -0.02533155657281061 -0.004224218453647565 -0.1292845047604824 -0.004052045125305855 
0.08247572428431690 -0.005129611158396948 -0.003020837965741147 -0.04633386475813793 -0.006728758322602535 
-0.004889279551245181 0.06706335610654729 0.03235557599112250 -0.07695749291082425 -0.02120795263331579 
-0.008421482498404123 -0.07581558387552077 -3.806200289610410e-05 0.06923223731134685 -0.0002831017570257152 
-0.01730739901389165 -0.1709642975328711 -0.003808842357438860 0.1462091706015542 -0.0007102747538693325 
-0.4250445202122796 0.009069585745516230 -0.03142722186075674 0.2787487270326582 -0.004759281335797777 
-0.001542793689740961 0.2511893581756276 -0.01470473853710166 -0.3848304017406906 -0.002085344827056330 
-0.4672381328489320 -0.008693932826451325 -0.007478335162662029 0.5752568900434201 -0.008960669004502096 
-0.4672381328489320 -0.008693932826451325 -0.007478335162662029 0.5752568900434201 -0.008960669004502096 
-0.01720581636715840 0.2532523547489033 -0.02561417214262347 -0.1036641318345479 -0.02622162477903376 
-0.01720581636715840 0.2532523547489033 -0.02561417214262347 -0.1036641318345479 -0.02622162477903376 
-0.001392556217271064 -0.0006986229412596352 0.06492377666319513 -0.07644633649699706 -0.002326833642961465 
-0.001392556217271064 -0.0006986229412596352 0.06492377666319513 -0.07644633649699706 -0.002326833642961465 
0.1216305901787467 -0.006041901118687711 -0.009935013692096251 -0.1596482043939595 -0.0003572278809890646 
0.2020547741460231 -0.004793362070458350 -0.001900939768766585 -0.1467577085787679 -0.002328196034743589 
-0.3847316171213260 -0.01505908882270990 -0.01147930691369198 0.3432272100005929 -0.007517643937140529 
-0.03231861646398764 0.07845221527897772 -0.1127750097329533 -0.06547523119209460 -0.03108826489147423 
-0.01758585498777802 -0.02353537226221394 -0.007240479726002681 0.03425861534392129 -0.01235688936076067 
0 0 0 0 0 
0.1518252453821051 -0.008621108841604793 -0.001219066932879295 -0.1045529054923221 -0.003288196320161837 
-0.1242289977494834 -0.04059869771841169 -0.08048621969355352 0.1811402002000885 -0.02496441499254741 
-0.04123690190896504 -0.04078091458853809 0.0001979399049401838 0.06243905046975611 -0.03644051321645765 
-0.01546290842547060 -0.2443911213444350 -0.1497298519018529 0.3182337703604107 -0.09638152360167844 
0.03806986127055165 -0.01053942456575327 -0.003692971035517797 -0.02597611835708876 -0.004417752120584684 
0.06123544734358019 0.09341162614660362 -0.01416576597792501 -0.1834507981205140 0.07990494469938950 
-0.09182629895094790 -0.001995371855525838 -0.002166396620125735 0.07009198111992128 0.0006854063233408302 
-0.2709514155357493 -0.07885090253991288 -0.1137731425386624 0.3801491191059191 -0.01810747537408471 
-0.4928321599189805 -0.008437859066851598 -0.008828470225294977 0.1656226030360281 -0.004642265490541508 
0 0 0 0 0 
0.4551994359467123 -0.04561120740763809 -0.03339312914779026 -0.3861368791748758 0.05169123500181842 
0 0 0 0 0 
-0.3355335585621100 -0.04076823046235513 -0.006660802731450325 0.4446181943175338 -0.01178768945702847 
-0.002475953152737610 0.04622440492512337 -0.005933506735462849 -0.1078596982958491 -0.0009485045250199990 
-0.002475953152737610 0.04622440492512337 -0.005933506735462849 -0.1078596982958491 -0.0009485045250199990 
-0.01703605678575338 -0.09320939984380863 -0.01135654306740266 0.06897139984670132 -0.02388069067192743 
-0.02215212242074506 -0.1538673885537842 -0.09787904246053590 0.1600682353330794 -0.02900987596249584 
-0.04901518649413636 -0.1659610492951784 0.3485967231537300 -0.08916626031658023 -0.03208122799072002 
-0.02686306407339129 -0.01209366074139423 0.4464757656142658 -0.2492344956496596 -0.003071352028224186 
-0.04400503992727690 0.1408636319955967 -0.08609923210025777 0.06990189919613686 -0.1189505277363875 
0.07404328342193157 -0.02019776635548160 -0.02335931547569285 -0.4857476538196406 0.5306801872941760 
-0.3523760457700400 0.3938282107407725 -0.03360229244364532 -0.2093614372173450 -0.06336220606992428 
-0.4211811175543702 -0.008209198080484922 -0.01710288694603306 0.3931621645749114 -0.006490038121418425 
-0.4211811175543702 -0.008209198080484922 -0.01710288694603306 0.3931621645749114 -0.006490038121418425 
-0.01726215901081304 -0.1009682304265817 -0.1241855723636967 0.1085233885783156 0.1440419108666120 
-0.01286318694606973 -0.09882837626761576 -0.1040697058252940 0.3521493914567307 -0.09582141307988544 
-0.01054979972353560 -0.02478288387347824 0.2461437516067122 -0.1788813121441160 -0.004534448337188937 
0 0 0 0 0 
0 0 0 0 0 
0.1983477899628280 4.799257855111724e-05 -0.001055813534874647 -0.07700136939741954 -0.0002454702740031849 
0.1343028395399405 -0.02417050991816068 0.3582541172655653 -0.5040895184078853 -0.009281264681387930 
0 0 0 0 0 
0.1650235044859247 -0.005342682815464971 -0.004431240399830047 -0.1084643844924299 -0.002639252202073162 
0.1650235044859247 -0.005342682815464971 -0.004431240399830047 -0.1084643844924299 -0.002639252202073162 
0 0 0 0 0 
-0.005743788680124032 0.2674863961169053 0.2227304221985379 -0.4253760876346478 -0.02860012218806588 
0.1092845459259269 -0.002004738686361868 -0.001536236914025423 -0.1055059215118333 -0.001678420845900541 
0.2581855518307892 -0.4331794502476723 0.08143837784117189 0.03679508140163615 -0.01737042119791641 
-0.003357957943951777 -0.008169360372650251 0.1033591278243454 -0.08873480655929682 -0.003005714082590920 
-0.06896145472854505 -0.3064741556338215 -0.008987374052745831 0.4058644137157517 -0.01586361994915142 
-0.01280748538387164 -0.04699239046913245 -0.003127996148198500 0.07430690700903979 -0.009346611249003453 
-0.02194470112995807 -0.07800827196612324 0.3408313422495889 -0.06421210923168465 -0.01290559602787543 
-0.007103126632813912 -0.4592976070892376 -0.004301034380208959 0.5975721768051498 -0.001592955894760695 
-0.04187821237938021 -0.3164110448895635 -0.05805043249617081 0.4620438867424667 -0.01157945914924894 
-0.01537573086484611 0.1175474000423263 0.1464430805935977 -0.2659110200747006 -0.1017080372240215 
-0.003390034478754177 0.1790420832600377 -0.002660343631273285 -0.2718834480357719 -0.002579353351108758 
-0.3279684207495664 -0.006743954390463717 -0.01237456178328052 0.2295693006570538 -0.002906606171735402 
-0.1467679343533699 -0.1092874984679874 0.3956582735175397 -0.08580569947469648 -0.1052013203427272 
0 0 0 0 0 
-0.001823385029704389 -0.01337808375522350 0.1297803748004956 -0.1069819200234814 -0.06609982530342016 
-0.004723855878192959 0.1202620422009708 -0.0006092838727500559 -0.1716299332698301 0.0001019513134167484 
-0.01360436148955448 0.04353235230713118 -0.05080472421205103 -0.1444766963513947 -0.01384457940921050 
-0.001069511652700151 0.3837176824034964 -0.04785782923806695 -0.2998135827778513 -0.01084010719593767 
0.1739742941031132 -0.005164702427306080 -0.01541670847580499 -0.1672942695644142 -0.0006266172615736890 
-0.001326869344841647 0.1207193911250224 -0.0008046704986521226 -0.1323623597681688 -0.001341451380890723 
-0.001326869344841647 0.1207193911250224 -0.0008046704986521226 -0.1323623597681688 -0.001341451380890723 
-0.002071139938698902 0.1728434974742422 -0.002020820659920383 -0.2624467854386575 -0.001534794059244675 
0.02322831433472242 -0.001992025075796154 -0.001022487916590124 -0.03437210710291210 0.0001577900682324236 
-0.01225853553354234 -0.1177394555658500 -0.2406084816506098 0.4862107414898390 -0.06015810361251631 
0.04518413398056657 -0.001421390399104721 -0.0008357167051334673 -0.05027919951390042 0.0001736790235313675 
-0.03420714987123018 0.1217091258699554 -0.003331583741432696 -0.05186104899496399 -0.0005324329960815386 
-0.03420714987123018 0.1217091258699554 -0.003331583741432696 -0.05186104899496399 -0.0005324329960815386 
0 0 0 0 0 
0.08088840545436306 -0.001872062018243229 -0.001525420971017478 -0.07495995375633707 1.696966790480962e-05 
0.2046401437464750 -0.007426583168380445 -0.002735084734594377 -0.2097364126832752 7.182876656772219e-05 
0.06266005862726337 -0.002470723163668042 -0.002181648712496674 -0.07242671943353177 0.0001200784708258597 
0.1005182566332857 -0.005711519545163024 -0.007322077629726077 -0.02289087994122714 -0.001592454970479823 
0.1557184061784421 0.2803147601522033 0.1473421620075963 -0.4739078533429885 -0.1027728772306269 
0.1496678236814955 -0.005121372031391229 -0.002782078716446705 -0.1661066514917445 0.0002818090706391465 
0.1154077565699698 -0.0002014817546000560 -0.0002749753405818274 -0.1990390069456329 0.0001043246784244928 
0.03027851246174882 -0.001908820159853456 -0.001807968586221117 -0.05017580347863607 -0.001991108896675282 
-0.08649440066649043 0.008217191558232967 -0.01138766050879206 -0.07042800276579529 -0.01128563372993007 
0.01588770134670502 -0.003192510690318837 -0.001043653641382854 -0.02942283432480095 -0.002362265950799776 
-0.003023010284073988 0.06910208191998977 -0.02341694881688558 -0.01578230366631460 -0.05091987099846049 
-0.02065790008167472 0.1419410521094654 -0.002448697900501766 -0.06700964397328465 -0.0001012118790918029 
-0.02379935311176702 0.1603420287033363 -0.001625752459359214 -0.09535661160939520 -0.0002924290162834602 
-0.05256199107646326 -0.01365781951558204 -0.007727238424207173 0.06995455323064460 -0.009261854433504257 
0 0 0 0 0 
-0.6557709361665980 -0.002886582717107856 -0.01439123599989798 0.5327849653405864 -0.002557785538855000 
-0.07110248858219910 0.06507283736283047 -0.09718542329656926 -0.08234141604793077 -0.09872903716999185 
0 0 0 0 0 
0.1789628712498803 -0.001346298752216894 -0.004232008680577884 -0.1426056146477207 -0.0009383908686441488 
-0.02119180020000658 -0.03332294392184639 0.03463294855734368 0.1030543299853927 -0.01647874666002547 
0.08518828171894200 -0.001303048102162164 -0.001760777127465210 -0.1036151880812022 -0.0006402459113755501 
-0.001318691625296472 0.1586842991093898 -0.03971246638339058 -0.09248418627336620 -0.007570681582397221 
-0.001318691625296472 0.1586842991093898 -0.03971246638339058 -0.09248418627336620 -0.007570681582397221 
-0.03627997005935182 -0.005703068977107420 -0.003601832359549106 0.007146142663999159 -0.004677111236071377 
0 0 0 0 0 
0 0 0 0 0 
0 0 0 0 0 
0.04789454188252904 -0.003396163401026253 -0.001135458175961143 -0.02982668848359905 0.0001613371861604296 
0 0 0 0 0 
0 0 0 0 0 
0 0 0 0 0 
-0.001641646075768708 -0.003785326476895657 0.3034436957033971 -0.4346767799069487 -0.01974787801143779 
0.1980157715460736 0.1828301784153604 -0.02584615296787423 -0.2645548226065588 -0.0008055548593636633 
0.3764476638375459 -0.02309279175235075 -0.06815368716919900 -0.4892741216717592 0.4275931383635131 
0.4358749234331680 -0.1958274262454677 -0.03012031836966684 0.04699285398604555 -0.04193077172034192 
0 0 0 0 0 
-0.06567840786099177 0.2284766156984417 -0.008350259588754797 -0.02717244920109593 1.380988328197045e-05 
-0.06567840786099177 0.2284766156984417 -0.008350259588754797 -0.02717244920109593 1.380988328197045e-05 
-0.0006133132806566224 -0.01553036757301076 0.1648017826401848 -0.07496739061079868 -0.05404028036942361 
-0.0007810706110358176 -0.004733569819474121 0.01401594669938427 -0.02476876757088385 -0.003784781996480755 
-0.02311632976383552 -0.0008611839629066176 -0.004194444637863280 0.04581335160618152 -0.007458479392645824 
-0.05121963428075538 -0.1226604165016598 -0.008729467219708423 0.1722484634533150 -0.01686497575443990 
-0.05121963428075538 -0.1226604165016598 -0.008729467219708423 0.1722484634533150 -0.01686497575443990 
-0.06051985021976186 -0.06282976813828271 -0.002982018369610321 0.2285788843501775 -0.004219014705615864 
-0.06051985021976186 -0.06282976813828271 -0.002982018369610321 0.2285788843501775 -0.004219014705615864 
0.05179207446177613 -0.005165842660655378 -0.006044341102146080 -0.05418618920289293 2.411760295806687e-05 
-0.09139127616890279 -0.9789292382877932 -0.01055211683933743 1.020180171805835 -0.002146543160238896 
-0.02520834593331351 -0.09141441793366867 -0.1525726439941109 0.4215643932902308 -0.08594582066153729 
-0.01274720660676360 -0.01123792690737038 -0.01243093478193372 0.01954553414749077 -0.007597409123927064 
-0.07446294311178785 -0.01766698407364861 0.2587697897278384 -0.2063667783043431 -0.002322440588835861 
-0.01689069001670729 -0.02093485252709016 -0.1926791815908177 0.2358904956860595 -0.08724366278022257 
0.03470241730464244 -0.001198922255999011 -0.0007139507264762620 -0.03721387684697889 0.0002540112934409937 
-0.01825975651978010 -0.02901822726040039 0.4129643780992727 -0.3712255346376042 -0.02524134142612207 
0 0 0 0 0 
0.1488703416495417 -0.007530133944189383 -0.001319645811828593 -0.1099711106715884 -0.0004696611395787167 
0.1488703416495417 -0.007530133944189383 -0.001319645811828593 -0.1099711106715884 -0.0004696611395787167 
-0.01073847332707598 -0.0003388378497773074 0.02044030496562127 -0.02608460817816370 -0.006024018173048757 
0.5452941387326482 -0.006340774244597425 -0.006000787891384862 -0.6635221087045361 -0.003755818413170287 
0.03098821870300513 -0.0003430836039208428 -0.001446660453174784 -0.03691794338412810 0.0001623250690287587 
0.09197866486156175 -0.03465002245240607 -0.01514052420418214 -0.1672720326689921 -0.005373495604900622 
-0.01499186745224351 -0.01308408512464516 -0.02148753571264690 0.04112206054450652 -0.007181561721340702 
-0.01499186745224351 -0.01308408512464516 -0.02148753571264690 0.04112206054450652 -0.007181561721340702 
0.05526308916179816 -0.02765490296690077 -0.03118777788479252 -0.0005441407814551300 -0.01103188842267758 
-0.08582068839556455 -0.006659898423731975 -0.02513985478613807 0.1001731455791101 0.0007695743401896910 
-0.08582068839556455 -0.006659898423731975 -0.02513985478613807 0.1001731455791101 0.0007695743401896910 
-0.08582068839556455 -0.006659898423731975 -0.02513985478613807 0.1001731455791101 0.0007695743401896910 
-0.01021320924326551 -0.09385587497277185 -0.1579557600604778 0.2320348747171366 -0.01006311270796782 
-0.5192220899583626 -0.07814802959366916 -0.05338501877551711 0.2863577008874529 -0.02042421042300486 
0.1130684403948654 -0.006031072239790269 -0.001112335850760875 -0.1025355606649096 -0.002546484310211086 
0.09828904398191238 -0.003440091120115982 -0.003445840045892590 -0.08608814615492781 -0.0003662706421892535 
-0.05015169119978526 -0.02302546388575716 0.06682494223173910 -0.03899173262979994 -0.001316717602478577 
-0.004118161062622571 -0.02150858299353437 0.07108141516548362 -0.1083611246525248 -0.002116620451797592 
-0.004118161062622571 -0.02150858299353437 0.07108141516548362 -0.1083611246525248 -0.002116620451797592 
0.03080597272555586 -0.004913610156698852 -0.005004287108641520 -0.03340992264136376 -0.004646419227172252 
0.08194434905123621 -0.005632605168109052 -0.001737164853287508 -0.08164094878982603 -0.0003907823597230317 
-0.01074615691319780 -0.05820077062139713 -0.002667393548302990 0.02830173281645729 -0.003065147134964874 
-0.007995988922583516 -0.05941560096742730 -0.003247687670107662 0.03418394163900203 -0.006205958357513722 
-0.0003782244623195753 -0.02091609739656145 0.2102903531595242 -0.1663767889382358 -0.003706368038299150 
-0.06231881594177623 -0.02052973021384733 -0.02023589892200653 0.07138553430331482 -0.008397720574773070 
0 0 0 0 0 
-0.0008651931600635723 0.07044220531788312 -0.0004951977885696316 -0.1614264683087760 -0.001211824846567407 
0.1008046131968492 -0.004037505946153955 -0.004894946017221146 -0.08141602413784182 -0.0009090996713645576 
-0.001578088475399386 0.1798156711953007 -0.0005455910475372960 -0.2205343213515152 -0.0008863653110641548 
-0.05318823353561760 0.4961219431843364 -0.003610492630796103 -0.3188130266076351 -0.005481840369549751 
-0.05205174613998004 0.4280796162582454 -0.003037482015143435 -0.2249562094435771 -0.003501184326404741 
-0.007584674903934693 -0.05094221453927768 -0.05734435225505551 0.1791123499974450 -0.09128078303275473 
0.07013480570424865 -0.002131068001618525 -0.0005692174595716347 -0.06049975714296733 0.0001759315624726039 
-0.06510577158476372 -0.3550942444344120 -0.01416135894908953 0.3926872393441502 -0.008142101463545380 
-0.002557005938163018 -0.07175489947802961 -0.03638470499356954 0.09924700765909497 -0.01199212682143116 
-0.003738677242702070 -0.2670547397530023 -0.01576050578200203 0.2628092045535496 -0.01986197748388106 
-0.01571941291918127 -0.04379249934472205 -0.03566720483654341 0.03695862481608053 -0.02877789997745141 
-0.07468534613544586 -0.02874741493561155 -0.05794424848631900 0.1166705076190253 -0.01488798890477425 
-0.04150594130422379 -0.02100613571603453 -0.009929984665849267 0.03226071515544604 -0.006805983852043174 
-0.02419974226724224 -0.06046091913428871 -0.02418715247318854 0.1499498436204709 -0.03564805770747349 
0.04732239773695603 -0.1411850851354572 0.1953161887544134 -0.05676651504234024 -0.05188706566883521 
0.3514729853314432 -0.0009102692140770487 -0.0008529771810989376 -0.4536689625889175 -0.0005761573924708005 
-0.0007200122407036036 -0.01517788177865747 0.1882119545137462 -0.1867309759947393 -0.01796164191730551 
0 0 0 0 0 
0 0 0 0 0 
-0.03215908312149093 -0.009491657109613283 -0.0005500012884921400 0.01518692704273338 -0.0003327424993391573 
-0.03215908312149093 -0.009491657109613283 -0.0005500012884921400 0.01518692704273338 -0.0003327424993391573 
-0.03215908312149093 -0.009491657109613283 -0.0005500012884921400 0.01518692704273338 -0.0003327424993391573 
-0.2321904382115120 -0.01286170978990864 -0.003180878466620117 0.2239338674443945 -0.0002723306152783555 
-0.3808860982474248 -0.009894128601231521 -0.002778893946085326 0.3959837418864199 -0.0002091068062872771 
-0.01935263214420064 -0.005591747014500848 -0.01213402458660818 -0.1068317636323222 0.1789288262150338 
-0.01935263214420064 -0.005591747014500848 -0.01213402458660818 -0.1068317636323222 0.1789288262150338 
0.2634285649156223 -0.002414372717894558 -0.003983515412243240 -0.1747261022103519 -0.001480665229925062 
-0.03241972308624128 -0.01846723248983059 -0.008586481703590903 0.02772919761887922 -0.007006475977252920 
-0.06450919487002578 -0.01282346218150124 -0.05109740578804212 0.1411260681459090 -0.01868242986870843 
-0.05260806966615816 -0.03827932377822554 0.2517215595747157 -0.1563734313161284 -0.03385600108663571 
0 0 0 0 0 
0 0 0 0 0 
-0.0004792549163098469 -0.01276059965180434 0.03467791432723507 -0.05223188781720059 -0.01416402003105232 
-0.007829019255158476 -0.005666401791907852 0.09229047360789280 -0.1531686546460512 -0.003096348677391117 
-0.007829019255158476 -0.005666401791907852 0.09229047360789280 -0.1531686546460512 -0.003096348677391117 
-0.02400905775630255 -0.02688942017250436 -0.05903942006135075 0.09132456393076556 -0.01253735667087682 
-0.01063895853676248 -0.01404083232253411 -0.04246042907912325 0.07501500048166615 -0.002500316738767494 
-0.01063895853676248 -0.01404083232253411 -0.04246042907912325 0.07501500048166615 -0.002500316738767494 
-0.005301899539031071 -0.1470449391331320 -0.4350057083909521 0.4852752837030074 -0.09432426264828629 
-0.005301899539031071 -0.1470449391331320 -0.4350057083909521 0.4852752837030074 -0.09432426264828629 
-0.0007522443806102695 -0.007553265679467069 0.02819075857087098 -0.04027686530815701 -0.01065304563446376 
-0.0007522443806102695 -0.007553265679467069 0.02819075857087098 -0.04027686530815701 -0.01065304563446376 
0.2704808077267222 -0.004882334032436416 -0.001609473678984723 -0.1993848370712344 -0.003534564678295368 
-0.0006196788728758441 -0.005452381117242123 0.08523791102752921 -0.07495584554716630 -0.01163771082301629 
0.02671917341134079 0.05939465299276991 -0.01358620494649245 -0.1526877764513924 -0.003160771724863410 
-0.6180889594015777 0.3780642188937216 -0.08009135340360979 0.5559979879723497 -0.1531342654830592 
-0.6162246714507942 -0.01847084148320272 -0.02392509179505354 0.7582440994864280 -0.006003107655716921 
0 0 0 0 0 
0.07811028595696817 -0.003100780571232380 -0.01512612730266327 -0.03512847048396366 -0.0003828800471650267 
0 0 0 0 0 
0.2167355442135112 -0.004527947966145452 -0.001510277034353607 -0.2143592123767400 -0.002304199979668260 
0 0 0 0 0 
0.08780765017890438 -0.001112858100245790 -0.001964985243203322 -0.05852007885742028 1.442113591894648e-05 
0.07025495661404167 -0.01457081784225561 -0.009700242172145617 -0.04166620132596165 -0.003850326701336883 
0 0 0 0 0 
0.3634768024461303 -0.1205665026497508 -0.06349814064911143 -0.1532362656834865 -0.02868407566576182 
-0.007067516062100050 -0.05391352686362236 0.4273955294275842 -0.1681868441242813 -0.02059369353283885 
0.1285028720623399 -0.005129379919869580 -0.002029734075887031 -0.08394692131991799 -0.001157395372935150 
0.08716214745557477 0.1721258367564930 -0.01219808812058039 -0.1139382434821483 -0.001192468614095606 
-0.07092355241693869 -0.03303025846297546 -0.008291770718770118 0.09874005344983515 -0.003302378780484669 
-0.07092355241693869 -0.03303025846297546 -0.008291770718770118 0.09874005344983515 -0.003302378780484669 
-0.04838597117429038 -0.4386412007674392 -0.1218782656931192 0.4706294395182376 -0.07888933774823496 
-0.01973019544383803 -0.1298342082694972 -0.02675961600988854 0.1184613655204692 -0.02049504249998567 
0.3694079721164503 -0.01015975075177420 -0.002444047899153157 -0.3114100944411847 -0.003106713312381699 
-0.007163794293276350 0.08639060184706658 -0.02402105392760312 -0.06905605351047770 -0.01494200829818241 
-0.001675407987608077 -0.02916443270021125 0.4050361080948531 -0.1055077949409127 -0.1886699614659611 
0.08344374078105686 -0.005791639379964392 -0.0005556090002391458 -0.08516925472228996 -0.0002984683746786759 
-0.02706184741894452 -0.01490763032865992 -0.5463416229602415 -0.02564583676368461 0.7874237838718100 
-0.03281309658701117 -0.001305457221299211 -0.004057046266366119 0.02597718578036826 0.0006397880910188093 
-0.01213474420663726 0.07464658308426514 -0.04323795334200174 -0.1029914509292208 -0.008646033865305961 
-0.01182035043925878 -0.03982506180117369 -0.005030725300272254 0.05156893282983997 -0.0004937506289881497 
-0.006552323491948841 -0.1930813908253296 -0.01824511860277578 0.1106224743261054 -0.03723365262792037 
-0.0007350072188712321 -0.1211660413015850 -0.01233806492476931 0.07668985166058698 -0.01075672415274461 
-0.0003143937673784800 0.1144716448854388 -0.03820722804172948 -0.1545603837590608 -0.008152283236317810 
0.1983477899628280 4.799257855111724e-05 -0.001055813534874647 -0.07700136939741954 -0.0002454702740031849 
-0.01695755988347602 0.1882944697310498 -0.1005072783385513 -0.3736469131458995 0.3212755735093322 
0.1181318346885685 -0.0003766129095461095 -0.01056693317308351 -0.1266635430207249 -0.0003512122978048121 
-0.02436656440222262 -0.01316500156011771 0.2206478200190002 -0.04186835779806936 -0.002891572869051585 
0.1107787031374276 -0.002296044488196662 -0.0002661784555362643 -0.1147424178921244 0.0001697991500082855 
0.1160025830632497 -0.005049361208738730 -0.001653899896858021 -0.1002826562524852 -0.003162567097443653 
0.09996468034665298 -0.005331382571512841 -0.005581880222475876 -0.04677210883043689 -0.004894298772056912 
0.09996468034665298 -0.005331382571512841 -0.005581880222475876 -0.04677210883043689 -0.004894298772056912 
