solver_type L2R_LR
nr_class 5
label 5 1 3 2 4
nr_feature 4213
bias 1.000000000000000
w
-0.5462847247788594 -0.4470258636400662 -1.220450095811098 -0.6003133752732245 1.967325279056615 
-0.1837153458863768 -0.1914699592952856 -0.5708504787976778 -0.2338994325237816 0.8343479392112434 
-0.06153395280650406 0.0001516358718106417 0.1902357864766151 -0.01756190372824489 -0.07074719940559680 
-0.01501294341867545 -0.009510279090191276 0.04722744375023096 -0.001274984783364503 -0.007084128384464212 
-0.3894908896851146 -0.2032596141345606 -0.4227576850159976 0.1066809467780784 0.7860801191976310 
-0.1123603057813787 0.2189787038293775 -1.342233884106725 -0.1048743954511331 1.131613418964579 
-0.02554822047453401 -0.005135879770901428 0.06205721782564622 -0.002352849219660461 -0.04263570562491999 
-0.4291837634245861 -0.6044020212813073 -0.9658116917737475 -0.2165539498460788 1.450722018919266 
-0.7965696684566470 -0.7865113008664508 -1.018257036691355 -0.5796484928440108 1.782957553713046 
0.7443848453229798 0.2205474913045613 0.2897409099176713 -0.2876179822559052 -0.9941429462169397 
-0.3304414289403668 0.2399756242374498 0.1050758676657784 -0.03451648545562875 -0.1243733100190671 
-0.002405616570502409 -0.02171132838299046 0.02826256043628282 -0.002188625500939548 -0.02380896714115616 
0.08215706677911218 0.01208567786088502 -0.009056238777335330 0.06237944104118219 -0.2627093597195465 
-0.007157913665084137 -0.02073561263225714 0.03256718213844777 6.653105078470965e-05 -0.003516886322694666 
-0.3015948191719515 0.07270727570672929 0.2671451385250506 0.09951969711474450 -0.3054329662270642 
-0.009943015520002768 -0.02667977445652062 0.1103617057471310 -0.01274406790712757 -0.07713147615078755 
-0.5592596051608387 0.6099223681033001 0.3269141387824486 0.3530701758349024 -1.192140165797575 
0.001503215917491791 0.03460531703122302 -0.04821631829269299 -6.159621502428817e-05 -0.007130278963660254 
-0.003671775614480045 -0.004719882600331767 0.01185563469997178 -1.485670721293030e-05 -0.009357828795569727 
-0.01762157457090043 -0.02059341102306176 0.03282761907444993 -0.001500812953431237 -0.01275019267058626 
-0.08536316187599925 -0.1343579372324439 0.2255333024843113 0.007729762355286993 -0.1952902831418510 
-0.1421107306603533 0.2595336995528539 -0.1001350066883417 -0.04567823270200755 -0.1921981435135051 
0.1732741058072040 -0.1137258393100988 0.03078853918739957 0.1931774181167451 -0.4310577849272176 
-0.04446406279734113 -0.04125998199810606 0.1860754825236807 -0.005138014284831531 -0.07926640635090709 
0.08982267021882703 -0.1578740471131375 0.04863566744710948 0.09395821057125495 -0.05866384970430302 
-0.2885681130796446 0.3879715212246517 -0.01898899533035444 -0.05901616486256773 -0.1503679363247267 
0.06743517493361790 0.05908355226724279 0.4334139721148290 -0.3925182806854669 -0.3643224224707763 
-0.01620470637419115 -0.005623173653792368 0.04513899214701365 -0.001784035975528819 -0.04710785600797600 
-0.04033149583397343 -0.02113616161345193 0.04677808833597061 0.0001848312363101970 -0.004294958986285837 
-0.2864948894489806 -0.2481239980719321 7.091607746258569e-05 0.7467112445610300 -0.1399079773531169 
-0.2434346844630857 0.02312667481702115 0.1312510475890862 0.2642421236511706 -0.2321307908158805 
0.7223681403272321 -0.01410740355177474 -0.3686049355770042 0.1304401230704689 -1.021009062191361 
-0.1596202884998508 -0.02187103924184526 0.2744906739258328 0.08808349040661936 -0.3242669461388981 
-0.05346690429426741 -0.1618021913617740 0.01047657104114880 0.2493778628616468 -0.2461300539140028 
0.3879291722200260 -0.2065421366680768 0.4702458855682024 -0.3536538561054228 -0.2840085946328857 
0.2561168752267862 -0.1154693775305733 0.1266702395239035 -0.06454171646087756 -0.06798736300546318 
1.096662750681567 -0.3642621431410716 -0.06981651760117459 -0.09703196283100138 -0.5403514073796194 
-0.03814650969698066 0.3576632559409360 0.05336976936413768 -0.4246619958288521 -0.05598198787997130 
-0.3251996144972233 0.2257172590028079 -0.1173138223873720 0.1520302378138018 -0.3160131223713770 
-0.04416749224974002 -0.02982141022588748 0.1408837817047754 -0.02309201835095207 -0.09679322954210609 
-0.01514264372813893 -0.005978831018795159 0.03612670455013092 -0.002590576576254560 -0.02740655559942480 
0.8434421624786473 -0.2493215173145257 -0.04512906996614687 -0.06416145888661418 -0.5542349402107601 
-0.01356893236473725 -0.05265450346833200 0.06488222805512530 -0.004687334472977230 -0.02817575212415526 
-0.2881415721868844 0.2540153943887291 0.5971573664224156 -0.2497256871399942 -0.2277486152313110 
-0.08384072771459171 0.1725319481519138 0.1925270201474123 -0.08817131990247573 -0.2260878427110193 
-0.01279305077389514 -0.02080797921973896 0.1333213913743824 -0.02288452826812323 -0.1677980812500023 
-0.5639336128081580 -0.9629251308360162 1.211025122676963 0.2054086739133715 -0.2308819882549567 
-0.9215633071397141 0.4645115226509484 -0.5707264379805497 -0.4251223517353099 0.8696429336806781 
-0.4684829993248533 0.2632732723214608 -0.06431136902571952 0.2748257153949318 -0.3943048988961329 
-1.371684813354379 -0.5595119968442162 0.06802737087555104 0.4121643129363409 0.2768334831602912 
0.7383667776176185 -1.037574227593924 -0.2971346101264741 -0.3063892866945730 0.2882267929977238 
0.3052970791144781 -1.166319535536693 -0.2784650817704398 0.09874030409730943 0.6985698563306069 
-0.7496607500714526 0.5969509695433998 0.2289647194336335 -0.1465785068455748 -1.081225576228755 
0.6986101666364262 -0.2628887410100056 -0.1419016272444550 -0.1746794941067716 -0.1415627258268531 
0.6531886304947226 -0.2108293085052163 -0.06895757434888221 -0.07764070918927854 -0.3542226635868892 
0.7440012273403769 -0.5132630724540245 -0.1076064881322043 -0.2590459678617734 -0.3501761488600904 
-1.607883556998122 2.680762927372311 -1.035029904646944 -0.7080158975674236 -0.5431107778439771 
0.7733318217291228 -0.2532016934432158 -0.3650853628992904 -0.4110575391827213 -0.1821543877041239 
0.2626543722107430 -0.1968621852825988 -0.1443116890041562 0.07058184930678137 -0.1141509451236739 
-0.03801182206699037 -0.03769556861204473 -0.3327403971594298 -0.02330504238059947 0.2739289204264462 
0.2397347303104644 -0.01672812317157088 -0.03745459999987789 -0.009060870456273778 -0.09497343070368781 
0.2897466101348734 -0.03727619528988019 -0.008924541191566583 -0.04587850046593427 -0.1091496191867127 
0 0 0 0 0 
-0.001647309038275326 0.08814155787362657 0.01647202191838376 -0.003440370749764533 -0.04813542358250751 
-0.08078901055284074 0.1882399074442737 0.07654659383021122 -0.03106577071306113 -0.1225048339643585 
-0.1523384057902220 -0.2112877428197899 -0.1069781695635726 -0.05574480575908367 0.4004673348659120 
-0.03647923552839286 -0.05125977515203639 0.5463007851212325 -0.02944224076569854 -0.5537426349794946 
-0.2677775681907391 0.4972287795923725 -0.08809857168221973 -0.1324474986861164 0.08699779361669352 
-0.05397642121143573 -0.3429328758241570 -0.02766812118990413 -0.04250390853420159 0.2689107949827180 
0.04063109129861667 -0.005164391433999558 -0.002126795024963711 -0.007047166012184960 -0.05009826918789120 
0.3709772362322226 -0.1888063965376626 -0.04053228265980208 -0.1076996763230928 -0.1882211060056912 
0 0 0 0 0 
-0.004742054010254009 0.1135216152101636 1.363288468198129e-05 -0.1171628488413893 -0.1073198006639970 
0 0 0 0 0 
-0.004450976598565862 0.04635370048159018 0.01832001837771857 -0.005878116351734222 -0.07163558877942505 
-0.06361275520217448 -0.2433744804178703 -0.06400258801187649 -0.04553020208676181 0.2917625639981058 
-0.05245770636555283 -0.03428869498883972 -0.01144164738787967 0.2237719525605643 -0.05641097822090874 
-0.004808516277169288 -0.02956533910537999 0.1821846970902733 -0.008027031192165225 -0.1283565474165880 
-0.03791930866133100 -0.1088407384004650 0.4503378968588696 -0.001749978023565232 -0.1442381149264275 
-0.3046313411180483 -0.1992765063892735 -0.03214347334096726 -0.06190301407610543 0.7211963030740858 
-0.1926444917416983 -0.3062999034174040 -0.03504597159045741 -0.2060229010319190 0.3588587882076097 
-0.2298762464041194 -0.2748764268837401 -0.02638319813134455 -0.07190481539038203 0.4277995696164237 
0.2417455464337054 -0.01271333843271311 -0.2760835996812325 -0.005997500778689362 -0.02383461098434537 
0 0 0 0 0 
0 0 0 0 0 
-0.03665395711625281 -0.03126630524184842 -0.4963331552404563 -0.009750367984666233 0.5643978826349253 
-0.07990565897204627 -0.08359268119632380 -0.06662929783847354 -0.09968608049115430 0.1920385108216302 
0 0 0 0 0 
-0.06311341806145221 -0.06652976244104328 -0.1134683951826154 -0.1234046635739519 0.1475878259606513 
-0.003938393945366542 -0.04071620453704498 0.2493733873796852 -0.01137799999216142 -0.1429547789525242 
-0.003197315062787927 -0.0004417877357179450 0.03193393902966284 -0.0002518584310974594 -0.03304280568245699 
0 0 0 0 0 
-0.01781984147291079 -0.02275513000822897 0.06991910298729966 -0.004502626490753328 -0.01804709420059312 
0.03528434012253935 -0.02251071463902651 0.06797627505938375 -0.01132852824347997 -0.08050848510652119 
0 0 0 0 0 
-0.07001147310233823 -0.05235433018284749 0.1884445856513427 -0.01207003708908416 -0.09750052307626807 
0.1615599373827219 -0.06053375653926708 0.1290087244169724 -0.1162705224930751 -0.1988881212974840 
-0.1000049511409732 0.07786520171799140 -0.1159744084037428 -0.2116083264387846 0.2602192914737690 
-0.2069954316189132 0.2236387579609651 -0.01436938374082091 0.3019289979467061 -0.1628838842887896 
0.01815212334386585 0.6694178793185480 -0.1473752566150430 -0.4318023636684565 -0.1516215822874311 
-0.03978450532176853 -0.02954443975150618 -0.4847852802319552 -0.01362448804921004 0.5311917655337203 
-0.2370981658614147 -0.1700447308744718 0.01825580228755374 -0.09767117667502020 0.4311690898760578 
-0.004120816608547101 -0.0004318222263449496 0.01884313207893688 -0.0004305801195650116 -0.03565934849928750 
-0.1423435167638660 -0.1792739216670699 -0.4832186502320917 -0.04971282046929239 0.6883513997614247 
-0.09643973981060483 0.2357448552154444 -0.001041395735910668 -0.09341309303838133 -0.06343721546129272 
0 0 0 0 0 
-0.004130879519584570 0.002420054067666507 0.08135998545146869 -0.002009095788027805 -0.02818496711828170 
0 0 0 0 0 
-0.01758912360751555 -0.02633349790069050 0.1197858417258516 -0.009591663853905188 -0.06231604101224259 
-0.07395969148996633 -0.08597142250402268 0.2833198862350569 -0.03371338997870828 -0.07631494019355523 
0.1304198505563159 -0.08308349814450341 0.1651218700088074 -0.07219829458727509 -0.1770165118579616 
0 0 0 0 0 
0.1077166092148538 -0.01021170123390659 -0.003379683578279879 -0.03864535977152302 -0.06422511863102467 
-0.1062696978244040 -0.003341132240372986 0.06513803744065055 0.2239896803824025 -0.2858714634093341 
0 0 0 0 0 
0.2086088008210783 -0.06517913012482217 -0.01746016576254546 -0.01319794535869552 -0.05676611655076014 
0 0 0 0 0 
0.06336163262824843 -0.01228769778904854 -0.008785277552171792 -0.01711489703128079 -0.04771671826324100 
0 0 0 0 0 
0 0 0 0 0 
-0.002022430790158314 -0.003559930483274278 0.06609607204659589 -0.002968115031626305 -0.1161348570634187 
0 0 0 0 0 
-0.005902579693439550 -0.01805281388826598 0.1473563305478580 -0.01317342653904514 -0.1221373551833249 
0 0 0 0 0 
0 0 0 0 0 
-0.5998786970108902 -0.2548731395597133 0.002550097499871881 -0.1308261379143813 0.5733602545669589 
-0.1097891711444099 -0.1813460773146025 -0.1929904056432408 -0.05977585151703291 0.2921926820859955 
-0.1663608644673436 -0.01977483167098756 -0.3338666363585384 -0.04371895347107529 0.6415537184283588 
-0.02143861610759233 -0.04966675726828403 -0.1797924595364304 -0.07153014735666141 0.2691111412333860 
0 0 0 0 0 
0.02224687133263641 -0.003934116060975990 -0.0008330162599598737 -0.006673558275385486 -0.03916446569062330 
0 0 0 0 0 
0.04153201693237653 -0.03988841607144866 -0.03578119917864016 -0.2023025393223029 0.07861491995156633 
0.1588751744577643 -0.01287654245565058 -0.01135863985624117 -0.02185440388356356 -0.1244586251198995 
-0.1771474560082824 -0.02222560183991845 -0.8323298775395922 -0.1810608108570622 0.7271843829131553 
-0.06002415336911733 -0.1166361700804102 -0.05054328067707496 -0.09637152794368865 0.1492858103389489 
-0.1041250872142779 -0.1144766372071576 -0.1523810698949835 -0.05617976508996470 0.2651454911946083 
-0.07780822306444175 -0.01322593694677456 0.3491447309126363 -0.001799942533543342 -0.2031096078275341 
-0.4118220539540775 -0.05271240383707024 -0.01076565027553100 0.7311129942679288 -0.3180714624794549 
-0.2634687996474068 -0.01025003080422835 -0.08296878492229341 -0.08591738374441966 0.2643363001771660 
-0.06596302378219952 0.2702310652815131 -0.2085172522415433 -0.01345622657126692 0.1713425776217995 
-0.2971707532871940 -0.06613843547435592 0.01742475856698492 -0.06216094549363076 0.3440508867995477 
-0.09383009841040252 -0.05779701450709685 -0.08327145322093985 -0.1068559034459973 0.1501340013630293 
0.07651072551381250 -0.006523666870016422 -0.002901334058489472 -0.009272400492482530 -0.06834047911967980 
0 0 0 0 0 
-0.007064857786279512 -0.01116324574488415 0.1048745826310124 -0.001013809726403176 -0.06861315960672930 
-0.08374974377710712 -0.04117913186235463 -0.2572714981017301 -0.002290989273645020 0.3453039243964100 
0.1070283115160263 -0.03277620274694533 -0.0002509774772819677 -0.006237882728381877 -0.06994584035503504 
-0.009161982271162095 -0.06330751884772227 -0.1441925686031912 -0.007451284515719520 0.1581552141157574 
0 0 0 0 0 
-0.1422753015435561 -0.1195454078682173 -0.01898878715120840 -0.02228136683100600 0.2315044563223529 
-0.1711436656536239 -0.003267274339724972 -0.1421279284998018 -0.2123286653524878 0.2890262645622454 
-0.2327584639505168 -0.06977536518901209 -0.008850467498355559 -0.02712205208692861 0.3418021028116421 
0.1515912659278614 -0.03060776974336556 -0.01396720351585596 -0.01254147613352303 -0.07977198586818803 
0 0 0 0 0 
-0.1404876119023405 -0.006420626046370221 0.4084149665693301 -0.008877645937239330 -0.2055244721936746 
-0.01001108930659803 -0.01635419647357847 0.3281682691512521 -0.005110045993790302 -0.2193431445854342 
0 0 0 0 0 
0 0 0 0 0 
0.05133491244597651 -0.0009190241661005761 -0.002185544262756105 -0.02174154929778569 -0.05345107861828485 
0 0 0 0 0 
0 0 0 0 0 
0 0 0 0 0 
0.8583870478795703 -0.2364373917114183 -0.1726717433442855 -0.2876496234827681 -0.1879705273962320 
-0.1695595842854512 -0.1280208714297856 -0.02072695798195719 0.3873392439523192 -0.03012382117516007 
0 0 0 0 0 
0.2216122187415924 -0.1258131488747023 -0.06738881112060666 -0.07219781318098831 -0.03041637460725480 
-0.04294982103400193 0.1146453093691580 -0.1447729707869410 -0.001177193450239680 0.002358354023520110 
0.8425946330849234 -0.1496393039049261 -0.2109162796999634 -0.2030852789797743 -0.05273764231370485 
0.1956118960622961 -0.07104577050360716 -0.03036831403534002 -0.01778814980358256 -0.03658986151271961 
-0.01829559754787600 -0.004153933242504385 0.02490916980680647 -0.0005174837984565649 -0.01301507567407953 
-0.1246778556206330 -0.05225983732384670 -0.1444224945938428 0.3507739129404525 -0.01693777299017365 
-0.06112948908379461 0.1486532630366549 -0.07614592535032602 -0.04162275779909222 -0.01397784545392563 
0 0 0 0 0 
0 0 0 0 0 
0 0 0 0 0 
0 0 0 0 0 
0.01859822819213721 -0.01827228300647597 -0.005024912234194877 -0.01057363373148655 -0.004743754432354744 
-0.03670866594750011 -0.01976020622651091 0.2088338566912089 -0.02283929264250198 -0.1289329624578518 
0.07675210552848245 -0.08982895876966403 -0.004111997994138557 -0.004855964547749475 -0.01343740302685763 
-0.008159068027071257 0.08484808251867937 -0.2259476291199425 -0.01438872593059161 -0.005855340525106952 
-0.02111937920465478 0.09705972178837251 -0.1410682566805054 -0.01278305552424806 -0.01671681625659412 
-0.5182613457335241 -0.1446969152023294 -0.1553426894213916 1.111422075720204 -0.08812138789934719 
0.007954726958725815 -0.005621434416001791 -0.003313746787147106 -0.008117034562066416 -0.002981850148137875 
0 0 0 0 0 
0.09943817671040228 -0.01497639065646571 -0.07005735399974919 -0.03700401133131728 -0.01255654594012567 
0 0 0 0 0 
0.05165354431129589 -0.02506726367672434 -0.02562101030316515 -0.02094147685011083 -0.01415664151017501 
0.02522681324609294 -0.04051587298598167 -0.02668599682750588 -0.007198481588412721 -0.006627588004464992 
0 0 0 0 0 
0 0 0 0 0 
0.04366741162217794 -0.006582894434796314 -0.03354698654515183 -0.03276325191754096 -0.009476581170388352 
-0.01296330972847105 0.3884929441909121 -0.2439955921095612 -0.004695515402097464 -0.05963615561487137 
0 0 0 0 0 
0 0 0 0 0 
0.03410413275227276 -0.01847305747242789 -0.01308411500901400 -0.03599220875508773 -0.004643750401351412 
0 0 0 0 0 
-0.03745542671744097 -0.08714734090903899 0.2252039362215500 -0.007358506230540633 -0.03327921777858742 
-0.2153209007002382 -0.1003260998533034 -0.02333517128883560 0.2985824229342246 -0.01652558960855304 
0.1264288509578122 -0.05810647790979435 -0.01177130242752455 -0.08560362025131053 -0.03839996354313702 
0 0 0 0 0 
0 0 0 0 0 
0 0 0 0 0 
-0.02885354973631894 0.4243087860871356 -0.009995413137783439 -0.1989069640950503 -0.02386638210263201 
-0.1176650552192690 0.08212183972637390 -0.01083073581962897 -0.01085485273102118 -0.002116298223367605 
-0.1650226894769777 -0.1518874506456227 0.7646789525833487 -0.1419489731875849 -0.1649318956182587 
0 0 0 0 0 
0.3039032748122626 0.03021291559150291 -0.02984115179314149 -0.09701897046354442 -0.07478458770462518 
0 0 0 0 0 
0.1616928047403468 -0.1017495708434060 -0.04178270352457766 -0.03618860935123577 -0.02150068092580329 
-0.005349764569699377 0.01804612257303965 -0.01354447574831944 -0.001639077349631478 -0.01751199096616182 
-0.009358479263617630 -0.006895627362603518 0.02128185246165710 -0.001285170483238626 -0.006178370059333655 
-0.04818878026347432 0.06780501779622083 -0.02280875071962885 -0.03753973805647368 -0.003657782876813939 
0 0 0 0 0 
0 0 0 0 0 
0.2266335111549878 -0.05781296976094745 -0.03542391541992303 -0.1667779440123750 -0.01684944407286750 
0 0 0 0 0 
0.2635617544931558 -0.002598635573741341 -0.08201893750493004 -0.1270428201901500 -0.04061219748874400 
0 0 0 0 0 
0 0 0 0 0 
-0.2498215656953768 0.2286706008420657 -0.003461641643088464 -0.005292532000636475 -0.01011550643769531 
0 0 0 0 0 
-0.1249462777515081 0.1565587801064111 0.02098902816515488 -0.04392487553738065 -0.03462740324637838 
-0.1023699692159535 0.1354212071566293 -0.01782062918265179 -0.07351624311229477 -0.03588997864622868 
0 0 0 0 0 
-0.004064738672506794 -0.02299675645234248 0.07759417436477578 -0.01351607081869540 -0.05553930654171334 
-0.02197872143098254 -0.008769055466625330 0.02972711969560471 -0.0002684238752584311 -0.009513216637089800 
0.04969172621210668 -0.04999692214956739 -0.01944399416873199 -0.01604528356863560 -0.008603277892632506 
0 0 0 0 0 
-0.007549916335695733 -0.005714431627589463 0.01836648171990290 -4.571342036672641e-05 -0.006008005628379493 
0 0 0 0 0 
0 0 0 0 0 
0 0 0 0 0 
-0.07790960863461248 0.01387615181459835 0.1493462141122685 -0.02007174579913833 -0.02704332676887884 
-0.1615038517637911 -0.1147992581281846 0.3805829621305035 -0.1263800662461304 -0.1242958181394697 
0.04162726316414882 -0.03653944941412486 -0.006380335487856694 -0.006218071614212489 -0.03025886489242262 
-0.07535313747126997 -0.06194765304006943 0.03984837713483930 -0.008304839395673533 -0.02085018658272936 
0.5314626618840266 -0.06369588087773252 -0.1202220674486332 -0.3376698174094207 -0.04366192036620797 
0 0 0 0 0 
0 0 0 0 0 
0 0 0 0 0 
0 0 0 0 0 
0.01863239304476849 -0.01097480859786430 -0.002143462252413256 -0.01597746317370057 -0.01058472427730692 
0 0 0 0 0 
0 0 0 0 0 
0 0 0 0 0 
0 0 0 0 0 
0 0 0 0 0 
-0.06272995240921590 0.2176547293786360 -0.04778505547461053 -0.02468784286387270 -0.01844565531276130 
0.07444089933258964 -0.005104472590592248 -0.02565981727503993 -0.04501412312276128 -0.01803973515930893 
0 0 0 0 0 
0 0 0 0 0 
0 0 0 0 0 
-0.007157913665084137 -0.02073561263225714 0.03256718213844777 6.653105078470965e-05 -0.003516886322694666 
-0.002645468726595254 0.04238789166188397 -0.05522003155698698 -0.004339155777406732 -0.005350179558437630 
-0.02702020957407979 -0.1944536540340150 0.2076300490117149 -0.02946410549511855 -0.03226449574550315 
0 0 0 0 0 
-0.1045437572002047 -0.09375491188458847 -0.04798234854516866 0.2504213234241510 -0.02260451367820938 
0 0 0 0 0 
0 0 0 0 0 
-0.0006447985509662980 0.01707854726263877 -0.02806332241196558 -0.001619858645673850 -0.01087173132850864 
0 0 0 0 0 
0 0 0 0 0 
0 0 0 0 0 
0 0 0 0 0 
-0.02760915049774882 -0.2652732449286503 0.3012855453407053 -0.006486707629743678 -0.005415133797749192 
-0.004103227476607480 -0.006824026656676321 0.04179041726485424 -0.01413211152536203 -0.02500556241853063 
0 0 0 0 0 
0 0 0 0 0 
0 0 0 0 0 
0 0 0 0 0 
0 0 0 0 0 
0.001276840469764745 0.03383428400954713 -0.07149096398554204 -0.0002652033026766849 -0.005890521547943646 
-0.09668105572033882 0.1472181309055269 -0.02869524611155522 0.1088812947682781 -0.1444675303328146 
-0.01406729104168155 0.1351453121028896 -0.05621295877140564 -0.002892908667701965 -0.007868659097574891 
0 0 0 0 0 
-0.001774925885829217 0.02042519333409925 -0.04370032608466776 -0.007821853798419555 -0.003643382927894423 
0 0 0 0 0 
0 0 0 0 0 
-0.02020535728752310 -0.3787375778778331 0.5580156894241953 -0.01647053645389134 -0.006717693130890183 
0 0 0 0 0 
0 0 0 0 0 
0 0 0 0 0 
0 0 0 0 0 
0 0 0 0 0 
-0.01426319854422214 -0.009870592731110522 0.07619119872877586 -0.006189397652048991 -0.05378682649331469 
-0.002840632689676311 -0.0009824625631278120 0.009524572075371879 -0.0005233187928380997 -0.009927351841639330 
-0.2956835635298957 0.4363932515683408 -0.1154594307953999 -0.1846991434930846 -0.03458778797437905 
-0.2625782752248766 1.071204813843346 -0.1311986732426657 -0.6474007471234073 -0.1214363663946305 
0.2744069180933810 -0.07355574962302916 -0.006683254960873204 -0.05400063255962685 -0.02082612763446059 
0 0 0 0 0 
-0.6720596542195052 0.1665291078775733 -0.05864136423403485 0.6767208259853580 -0.03983492677663700 
-0.05667299456128968 -0.08713869414736611 0.5867928094789032 -0.1397299628618254 -0.3089713083640720 
-0.6908059448198433 -0.2547470866898199 -0.3454509827744758 1.130309036119025 -0.1594327048266376 
0 0 0 0 0 
-0.004252595741418315 -0.006056365485774995 0.02266232888985639 -0.0007145072404867042 -0.005366459618601927 
0 0 0 0 0 
0.02272425324790846 -0.01722525133904920 -0.004491932181015692 -0.008970305005321812 -0.001946432878708425 
-0.003364646141760754 0.04669671981119775 -0.09355663884621629 -0.01588214379089553 -0.03803615297928339 
0.04745505400615891 -0.02246638410509632 -0.01952766757479332 -0.02235198732922052 -0.002517982642222464 
-0.02822798702671227 -0.04281024388159418 0.1816146566696035 -0.02743423651364690 -0.09820566618060643 
-0.1003014526579020 0.3733777318266495 -0.2074385608165480 -0.1314386755058510 -0.05494366883459816 
-0.005216395621338081 -0.04929627602951089 0.05572678350606738 -0.02276904478720235 -0.01460290832506441 
-0.1690800965710989 -0.01919032935449605 -0.1055688753095405 0.2145745356434911 -0.05986579273793188 
0 0 0 0 0 
0 0 0 0 0 
-0.04142788431823909 0.09446535375986433 -0.02180361310200984 -0.04339414857947439 -0.01017643661589517 
0 0 0 0 0 
0 0 0 0 0 
0 0 0 0 0 
-0.01653828341974561 0.1472569484368978 -0.2776412855187913 -0.01979105903205959 -0.003319927543362817 
0 0 0 0 0 
0 0 0 0 0 
-0.03134254446953130 0.08270958786782191 -0.03128644782130948 -0.1307069671741402 -0.004580974901108655 
-0.1322032812003319 0.3732437437387466 -0.01406350742035941 -0.06132377028969883 -0.02863157517762360 
-0.002223084057038148 0.02830098261744069 -0.05444279887101926 -0.005413057872862065 -0.001626910188994836 
0 0 0 0 0 
-0.004927403575751671 -0.04073252602428085 0.07039809913554311 -0.003007514712583374 -0.009999171976296743 
0 0 0 0 0 
0 0 0 0 0 
0.2885042532286819 -0.09536092059515051 -0.1268507817851188 -0.08085688327855200 -0.03185391882369753 
0.02851725232368443 -0.005050336441214581 -0.01501651201730868 -0.03896203282899684 -0.0006332022661972754 
0.1978085591982101 -0.02682386254392499 -0.02316760382507452 -0.02993554685816780 -0.01228102948420363 
0.7310991548316843 -0.3078318926487278 -0.2318664747094114 -0.2148444965012634 -0.1308297891346566 
0.2237266854936263 -0.09546998555814543 -0.004850877675540374 -0.1855138902160084 -0.03364153194375614 
-0.07828769877730496 0.07272956957740359 -0.02268969793970768 -0.04396305900163978 -0.01420714113165056 
0 0 0 0 0 
0 0 0 0 0 
-0.1528985547040250 0.1183287744637546 -0.07543291641840012 0.3743529189576828 -0.04780327852481017 
0 0 0 0 0 
-0.3741687496380396 -0.3844074093760301 -0.03538929151987860 0.8383636648448953 -0.01981947364170968 
0 0 0 0 0 
0 0 0 0 0 
-0.1485653903152900 -0.2175656598603259 -0.06905487130825505 0.2838266417501084 -0.01119160197941728 
-0.02123751746682765 0.04010970234185004 -0.03011527287324236 -0.0003599022696394465 -0.009019925968772415 
0.1959060714098753 -0.08685007842198063 -0.01596933714574959 -0.1109410905849501 -0.06055072495918779 
0.001503215917491791 0.03460531703122302 -0.04821631829269299 -6.159621502428817e-05 -0.007130278963660254 
0 0 0 0 0 
0 0 0 0 0 
0 0 0 0 0 
-0.001402114372371442 -0.01485040798182006 0.03262599730830314 -0.006983352478140538 -0.02200395768248519 
-0.007007247968845218 -0.02380525148552138 0.05126387044815074 -0.01048450524625368 -0.03952749642657982 
-0.002590695676831933 -0.003876285773831320 0.01861725456168962 -0.002809960563151815 -0.02811229250980399 
-0.002027504680601711 -0.01169183888816184 0.02106020682345337 -0.001186783629850723 -0.007163710472124918 
-0.001053076407962216 -0.01691428295223957 0.03549792346745259 -0.006387784980800717 -0.02300835278430268 
-0.004010530682348386 0.004182833440926532 -0.01231387978013286 -0.01212305245721049 -0.01686804966885484 
-0.01705586718731763 -0.1285709393274592 0.2081292173613770 -0.03505248508316054 -0.2020048985570990 
0.3089011357653016 -0.04642819569396481 -0.04109128830076358 -0.1428147173914533 -0.02329420286737456 
-0.1039595165316876 0.07751455470503585 -0.01289520515627272 -0.01437577933476719 -0.01338875315540831 
-0.01847132220194625 0.08410091764200231 -0.07164351572101997 -0.006371200439557039 -0.01706974720818518 
0 0 0 0 0 
-0.07192241642671961 0.06284061659556459 -0.007324392584046687 -0.01111933352452186 -0.02513181847580492 
-0.06343808466878774 0.1618125219160618 -0.02424195932011047 -0.1186566939642200 -0.03098401790965095 
-0.04192058088342494 -0.2253580145965379 -0.05290512993574457 0.2892344803778791 -0.06007071600734923 
0.05186432972368887 -0.02525066621290048 -0.004791251290911400 -0.02583322298344746 -0.01909585284551646 
0.1083826685473635 -0.006931534203262187 -0.03569826584900659 -0.06481757042111466 -0.01775334084775338 
-0.04856738912474251 -0.0006881276204894252 0.2391597946880781 -0.06429889382026699 -0.08746868699907273 
0 0 0 0 0 
-0.04492565646614643 -0.05693539629883185 -0.003867659967531052 0.09579855236388944 -0.008848616228460874 
-0.009392981157366241 -0.001866725204598171 0.02994418313453177 -0.0003757556836577411 -0.009819327735090323 
0 0 0 0 0 
0 0 0 0 0 
0 0 0 0 0 
0 0 0 0 0 
-0.04693019732261697 -0.01408043244733018 -0.02441346698932002 0.1234821430234364 -0.005794522530728346 
0.03316043372356969 -0.01757834575689267 -0.003406936500702496 -0.02814920337508698 -0.01226739974932883 
0 0 0 0 0 
0 0 0 0 0 
0.1400597895527388 -0.01011424644248573 -0.06602265148821562 -0.05973940763486258 -0.04459027754115422 
0 0 0 0 0 
0 0 0 0 0 
0 0 0 0 0 
0 0 0 0 0 
0 0 0 0 0 
0 0 0 0 0 
-0.005945719234421476 0.2786803401538111 -0.2120530860073258 -0.0008868581481228817 -0.01941709249844928 
0 0 0 0 0 
0 0 0 0 0 
0 0 0 0 0 
-0.01160046673861177 -0.003053722352104840 0.01038423478609766 -7.592726987310449e-05 -0.003048227508921740 
-0.01044022595257098 -0.01914136093848236 0.1316050850575790 -0.005189738923610685 -0.05848890078061264 
0 0 0 0 0 
0 0 0 0 0 
0 0 0 0 0 
0 0 0 0 0 
0.01554799047015828 -0.03771037145696095 0.03637756832133659 -0.004853438870256134 -0.01991716822022183 
0 0 0 0 0 
0 0 0 0 0 
-0.05811469830546878 0.02274383812806541 0.05468203607307751 -0.01200251243437848 -0.02539155460821441 
0 0 0 0 0 
-0.01512829073516405 -0.09175527753500441 0.1483669035082011 -0.03538664279831003 -0.03249269552941350 
0 0 0 0 0 
0 0 0 0 0 
-0.03340036038465518 -0.03667288434245523 0.08584272726036586 -0.01227901039176354 -0.03730747382704931 
-0.02172870114598133 0.01658799480579375 -0.004550644820418000 -0.007078731037015795 -0.007839513775832368 
-0.1258135403355636 0.4252445153790860 -0.04032555356966677 -0.1278507797474004 -0.06386387348624875 
0 0 0 0 0 
0 0 0 0 0 
0 0 0 0 0 
-0.01725042940019336 -0.006702576234209948 0.05371985329918405 -0.001633067127788949 -0.03900938448898660 
0.3239663139451872 -0.1140931148051581 -0.005065512607845045 -0.06955852656688329 -0.02971141316167608 
-0.02328682482465349 0.2592392166969929 -0.04262860222643405 -0.1033720038895035 -0.03305483598158685 
-0.003857381672871226 0.003468491643376819 -0.01511034111130422 -0.007771103618705013 -0.01227086473182125 
0 0 0 0 0 
0 0 0 0 0 
0 0 0 0 0 
-0.01318793900465797 0.04741847227436698 -0.04516496301690158 -0.04564697597851989 -0.04042485372360901 
-0.01426333606452411 -0.04060293759854061 0.1054499629480111 -0.007226303490422146 -0.04469673061389628 
0 0 0 0 0 
0 0 0 0 0 
0 0 0 0 0 
0 0 0 0 0 
0 0 0 0 0 
0 0 0 0 0 
0.1809648015806286 -0.08283642476243581 0.02337550204788826 -0.09309162313383983 -0.02135198879579099 
-0.03136879800036375 -0.003055468365298982 0.01611348562211240 2.484732479244786e-05 -0.001242042445673064 
0 0 0 0 0 
-0.03533491270720088 -0.05136451113157105 -0.02748004843056119 0.05656787152521040 -0.01367756896423541 
-0.06460022819290497 -0.05512095684940949 -0.04206656332922890 0.4522934952969543 -0.01062004691575163 
-0.01227360071983749 -0.0004496124426095535 0.02736932412113474 -0.0005717092644407400 -0.005841654465146806 
-0.002123168863124912 -0.003099626356652727 0.02879670179558821 -0.002244173193482529 -0.01923012481260093 
-0.02798309864083130 -0.06766502710115950 -0.02472992242752715 0.07792523985892730 -0.01574520793161248 
-0.1131636523878427 -0.06391755166364912 -0.05687994649068212 0.3605084191782990 -0.02050441782514248 
0.02199145959999932 -0.03829398210642240 -0.006451726521823091 -0.006023870582593722 -0.009850198174596205 
-0.1121028328632218 -0.006021375528835692 0.3309231526277058 -0.05144338898568375 -0.1167484915588513 
0.2946598298650262 -0.1111549097444431 -0.01497005311307390 -0.02207154342751445 -0.1931531876208364 
-0.03735362400828226 -0.01568470613389985 0.3116408536719640 -0.03330585273521366 -0.1265710080516190 
0 0 0 0 0 
0.07111255319928247 -0.02679554282885682 -0.01218873479843153 -0.03708657899583739 -0.006211360765917121 
0.3579270248648507 -0.1411684630162413 -0.04797062872126794 -0.06725081024475182 -0.1262027927271852 
0.1601954277207546 -0.07085090815197573 -0.01126929350630505 -0.07613028970522517 -0.003410628966038042 
-0.004609532103346495 0.02488806252809216 -0.02432930981535264 -0.01058173468886475 -0.001434594567046759 
0 0 0 0 0 
0.06853173699655414 -0.08314997779111093 -0.006032046086266136 -0.02323746953688793 -0.01519860038047492 
0.3833526986648590 -0.01319421128107634 -0.4579117326734283 -0.003865355833345580 -0.05009753322887865 
0 0 0 0 0 
-0.01060972848585369 -0.01055734000502871 0.09955526721439496 -0.001149271702011524 -0.007365631376098698 
0 0 0 0 0 
0.1165167447499170 -0.03040690069057587 -0.02138645182244545 -0.1036524394918642 -0.03745029409685808 
0.3133767628091703 -0.01977995402844199 -0.1982969141002723 -0.02657054274235369 -0.06355216689404591 
0 0 0 0 0 
0 0 0 0 0 
0 0 0 0 0 
0 0 0 0 0 
-0.2279089263975659 -0.02400986232169930 0.3518579678998550 -0.01048570597175037 -0.05361700810132672 
0 0 0 0 0 
-0.02621922839457229 -0.1040564681352386 0.2380768009223340 -0.03037563256087184 -0.06386298039828882 
-0.05860296338636949 -0.01390672932694894 -0.009723028950179935 0.05660370553282881 -0.005977515790409176 
0 0 0 0 0 
-0.002603557519579977 0.02453729160078361 -0.01842764522849208 -0.0009394937071956257 -0.008852976515635292 
0.002477842096625250 0.06862026568483734 -0.1283549296615187 -0.0005272326385118033 -0.01137499067230580 
-0.1088891349863553 0.3653624382390528 -0.03685569354695230 -0.04324041724575746 -0.04862467837498575 
0 0 0 0 0 
-0.009955378871723448 0.01680398065648216 -0.02655634376651863 -0.006067257588364577 -0.01073576227415360 
0 0 0 0 0 
0 0 0 0 0 
-0.001505612426299254 -0.01759968495521982 0.03875929224224958 -0.007842605692924401 -0.02195075221476969 
0 0 0 0 0 
-0.05744893971166070 0.1497392613959475 -0.005992575102089250 -0.02072155024636740 -0.04893013122111754 
-0.06568415430554530 -0.1428352103147428 -0.05734502767095850 0.2686417208470886 -0.03049142016786812 
-0.009430936915837055 0.05784836652590161 -0.08115224802412835 -0.002884814015033429 -0.02095306099267678 
-0.003417934388528262 -0.007176579158709956 0.01148606245461795 -0.002317463339901717 -0.005357116122442019 
0 0 0 0 0 
-0.01198712839973771 -0.004005163581542450 0.01894810038753762 7.502314487833287e-05 -0.005630518460313753 
-0.1138415347327345 0.2643469853279219 -0.008849441760092152 -0.01517132880259945 -0.02599427113792055 
-0.01458250306429909 -0.02689892250076623 0.1313739752572384 -0.01647394547109753 -0.01649821457051888 
-0.06670887557783770 0.09324221438241997 -0.02719015648812458 -0.01614637202790551 -0.005601336702212711 
-0.01120989312214902 -0.01204191582228277 0.04083278456108731 -0.006805587758341150 -0.03031276437234602 
0 0 0 0 0 
-0.07246909594205095 -0.04867386422372611 -0.1040902400468245 0.2654108871455539 -0.01448787487362571 
-0.02229224635574531 -0.03297144420837001 0.1164152076578919 -0.01813867960390205 -0.1050140849225447 
0 0 0 0 0 
0 0 0 0 0 
0 0 0 0 0 
0.4356591642581313 -0.07118065966744641 -0.009756363315179248 -0.2486432402629125 -0.01852263438569197 
0 0 0 0 0 
0 0 0 0 0 
-0.007261937110821613 -0.01229046519303910 0.04910676211370318 -0.003710464747623507 -0.01261318821294004 
0.03440003749352853 -0.003316239493050193 -0.02287019029995784 -0.04186176421645819 -0.01300147215220720 
0.1671693584424797 -0.03910851931751951 -0.1421118000316936 -0.01015052002093791 -0.02542894037696685 
-0.07368094059492294 -0.007544027283018319 0.08871149514201208 -0.001643316498463259 -0.01517850034676613 
-0.08833887879251348 0.3297729088291658 -0.04931063115819535 -0.09514361724341311 -0.01533986418632226 
0 0 0 0 0 
0.2593435729170683 -0.1419669665584856 -0.04645490369081453 -0.07885747882469443 -0.01168201516937307 
0 0 0 0 0 
0.01882647913224935 -0.01284741501458694 -0.01851472248237674 -0.01555968455429214 -0.008423670922699555 
-0.01153086989065793 -0.01459317053287743 0.04310409370952974 -0.002324120732463782 -0.01813948673258667 
0.06907626268207026 -0.08389087733005407 -0.01718229028066329 -0.01649200548293757 -0.03966032719291551 
-0.07462245558558064 -0.02296018211570303 0.2376101897226028 -0.01956538241448798 -0.07949090125455695 
0.09202593979954421 -0.04301523748851842 -0.05132647662969658 -0.09913285966044450 -0.03047540187388356 
0 0 0 0 0 
0 0 0 0 0 
0.04019290213333457 -0.003930343702788602 -0.02669336188507305 -0.04197046734669489 -0.01466220467107863 
-0.008384854552305214 -0.001061275802596583 0.02392741667533901 -0.001179299688657815 -0.01506047960937892 
0.3042876040926990 -0.3306338337384495 -0.03568558424191283 0.3590335112229333 -0.03059315237781099 
0 0 0 0 0 
0.05364075244367447 -0.06436662111441176 -0.009510204172206093 -0.005952948846669300 -0.01756624521313784 
-0.1465900284632275 0.4343901814365918 -0.03052263134412547 -0.1721817234671002 -0.01248042619993107 
-0.02498860621094821 -0.03216047775999190 0.1201851161172369 -0.02990745426726708 -0.01454147719776926 
0 0 0 0 0 
0 0 0 0 0 
-0.006484825517268819 -0.002860078666307810 0.02490136946480647 -0.0003538287641099566 -0.01289862335349553 
0 0 0 0 0 
0 0 0 0 0 
-0.01375024779908519 0.008402574692632794 -0.01418976105964364 -0.004073070503690015 -0.002291287020764153 
-0.1314856998096736 -0.2280116334312460 -0.04528471876017369 0.2661798817281774 -0.05474805979594821 
0 0 0 0 0 
-0.008022933479959301 0.1004233169431644 -0.02895562812346123 -0.08102657702447012 -0.01403852316050837 
-0.01980091815489359 0.1019198736808151 -0.1171851990517751 -0.009286765664687889 -0.02552669692198625 
-0.03977644361161423 0.1560376186835317 -0.006782119266773461 -0.08079983076393120 -0.03882962365864546 
-0.008549183126282583 -0.02749509363423652 -0.01361499254309460 0.02419676615788616 -0.007554026484171565 
-0.003831519471202213 -0.005518246295327921 0.02299818472851948 -0.0005969098722938518 -0.006406870600748199 
-0.02181149604232741 0.03581319908335404 -0.007255241713055339 -0.02385227511013132 -0.01454468264534617 
0 0 0 0 0 
0 0 0 0 0 
0 0 0 0 0 
0 0 0 0 0 
-0.04416749224974002 -0.02982141022588748 0.1408837817047754 -0.02309201835095207 -0.09679322954210609 
0 0 0 0 0 
0 0 0 0 0 
0.3758224752290154 0.009912977380828445 -0.2054365501129798 -0.005225025591242170 -0.02242440609575527 
0 0 0 0 0 
0.09364894204067248 -0.01280917571564467 -0.01756643106106696 -0.01739664936294565 -0.01699054151356608 
0 0 0 0 0 
0 0 0 0 0 
0.2598081377198579 -0.04444894471074299 -0.07734774767495269 -0.08177192560427116 -0.05322079963876837 
0.02966522323618165 -0.009975760286590888 -0.008064385503665750 -0.01567364020405268 -0.007218533366310507 
-0.03968815288717747 -0.01297631358164337 0.2585748250460208 -0.02817917651521661 -0.1797635538621995 
-0.2905427089415242 0.0002322174107302292 -0.04417197501785419 0.2089168055371354 -0.04964437974585014 
0 0 0 0 0 
-0.004430314747052548 -0.02342135214614800 0.02612144063338022 -0.0004826080859617824 -0.005452488934876310 
0 0 0 0 0 
-0.02554200259772165 0.08741086226546396 -0.06404351175338100 -0.01342348013498873 -0.01337512460617459 
0 0 0 0 0 
0 0 0 0 0 
0 0 0 0 0 
0 0 0 0 0 
0 0 0 0 0 
-0.0002249973090017723 -0.003973035608168411 0.02179802186109502 7.210734135509682e-05 -0.02062358007913865 
-0.001663699125826313 0.02246164686537146 -0.02277810544207971 -0.001852097722243696 -0.01353244339599451 
0 0 0 0 0 
-0.5277788467222914 0.2171463999754867 -0.1727095445489630 -0.2543095224937325 0.2074711000578993 
0.5352712933597477 -0.2895822669426165 -0.8092740700751361 0.03856662160160366 -1.124069784828027 
-0.06215126362891996 -0.3326093740909976 0.1053311425609181 0.2901859577977581 -0.2085748664879175 
-0.5025164707971095 0.5873233594464775 -0.4137326525321681 -0.2329149349892113 -0.3674375595176484 
-0.7525556963825569 -0.3230538263765173 1.115878885421177 -0.5909014143518818 -0.5592763846835868 
0.4504958038560759 -0.05376115807192496 -1.008553966836506 0.4063178154673985 -0.9162956480838463 
-0.2809231172852770 -0.4065876544849456 -0.1578770277276246 -0.1496923876693725 0.6349330421965851 
-0.03791930866133100 -0.1088407384004650 0.4503378968588696 -0.001749978023565232 -0.1442381149264275 
-0.1613684284487559 -0.2498956085450180 -0.2969650380519789 -0.2675877557915044 0.6104354623939652 
0.2280927777958905 -0.2170110829768960 0.02539788899315625 -0.1388553618799444 -0.03633205767792445 
0 0 0 0 0 
-0.2634687996474068 -0.01025003080422835 -0.08296878492229341 -0.08591738374441966 0.2643363001771660 
-0.2649737640640265 -0.06106428884682183 -0.2253993817207417 -0.3191845687984851 0.4391602659252747 
0 0 0 0 0 
0 0 0 0 0 
0 0 0 0 0 
0.1400597895527388 -0.01011424644248573 -0.06602265148821562 -0.05973940763486258 -0.04459027754115422 
-0.008022933479959301 0.1004233169431644 -0.02895562812346123 -0.08102657702447012 -0.01403852316050837 
-0.03801182206699037 -0.03769556861204473 -0.3327403971594298 -0.02330504238059947 0.2739289204264462 
-0.1650419855739215 0.07946476023828423 -0.001457632218243722 -0.1449856448292404 0.1210679623838250 
0.2897466101348734 -0.03727619528988019 -0.008924541191566583 -0.04587850046593427 -0.1091496191867127 
0 0 0 0 0 
0.04439246856758156 0.3658368906415503 -0.4574582962195822 -0.2257011859628351 0.1710654823493394 
-0.2856715682390123 0.1273777795562385 0.2581478006112009 -0.2412261828299046 -0.2944152033934424 
-0.4594211907248387 -0.3694118793313513 1.062034165598868 -0.6260590195213546 -0.3698552895635721 
-0.1357585023727879 0.9463444471730221 -0.01335787848191620 -0.2442909725651595 -0.2525425921553298 
-0.05397642121143573 -0.3429328758241570 -0.02766812118990413 -0.04250390853420159 0.2689107949827180 
0.9229988029861786 -0.6356930745490516 -0.4002770224560541 0.06409001041236874 -0.7378328658290563 
0 0 0 0 0 
-0.05245770636555283 -0.03428869498883972 -0.01144164738787967 0.2237719525605643 -0.05641097822090874 
0.1025407847066480 0.06505149435071121 -0.3566237588513264 -0.5456214311778759 0.06951947874381023 
-1.017062417564578 -0.1597028285438493 -0.1288283213066875 0.3605342802425622 0.7741754515433544 
0.6517030491760625 -0.3509654587441483 -0.1943773516297688 -0.1802132820668251 0.2205275485048439 
-0.009323364679177670 -0.06428808319985432 -0.5419943831494188 -0.02546675346353128 0.3605103566697679 
-0.2793754671966713 0.1701454251173359 -0.1019247432715117 -0.1444937743867525 0.3368825575954320 
-0.09141354569177026 0.3495857405122824 -0.1401758042190250 -0.1722090867754702 -0.1346727707240972 
-0.1554126461951831 -0.1434296070679241 -0.1690377674121036 -0.2202942157314303 0.3411787622432668 
0.4356591642581313 -0.07118065966744641 -0.009756363315179248 -0.2486432402629125 -0.01852263438569197 
-0.3777067756786977 0.2501363411972278 -0.1344177754448314 0.1999976000657056 -0.03128852131951231 
0 0 0 0 0 
-0.3032324491501172 -0.3957057079512549 0.7008878765567136 -0.1559689823928902 -0.2072428480234438 
-0.1000049511409732 0.07786520171799140 -0.1159744084037428 -0.2116083264387846 0.2602192914737690 
-0.06630475834342780 -0.07459632875407451 -0.01961616979649412 0.1445334002382501 -0.01185853555872551 
0.08552318977973263 -0.1107915186101791 -0.03691263124173146 0.05296842006080955 -0.06096502975776031 
-0.2179305696271675 -0.1641224404497065 -0.009577077440102560 -0.09754840357030092 0.4383400065446343 
-1.075912771636539 2.038918935322462 -0.5320573289155159 0.06084679250272201 -0.6345014682158031 
0.09370053356483288 -0.4096546456794783 -0.1308055880593682 0.3304815908969116 -0.09615258583274386 
0 0 0 0 0 
0 0 0 0 0 
0 0 0 0 0 
0.4388020289165684 -0.2184397962992626 -0.06455387956950237 -0.09290756850250047 -0.08834192618808477 
0 0 0 0 0 
0 0 0 0 0 
-0.005902579693439550 -0.01805281388826598 0.1473563305478580 -0.01317342653904514 -0.1221373551833249 
0 0 0 0 0 
-0.2818423652817374 -0.3238635890926360 0.5282124451478448 0.01822393181166474 0.2760631841211224 
0.1948666104151240 -0.01629727633642780 -0.001457972112265225 -0.05468735269082919 -0.1334842962593049 
-0.1538542517795198 -0.1744331845875071 -0.1338147338980148 -0.2032274313896859 0.2994198117019782 
-0.1041250872142779 -0.1144766372071576 -0.1523810698949835 -0.05617976508996470 0.2651454911946083 
0 0 0 0 0 
-0.1044261099482315 -0.01910400759014682 -0.003528562500901041 0.2093706638382077 -0.08358759216267064 
0.1282057717389688 -0.1474437568606516 0.07229904694727847 -0.01660762326204138 -0.1237610347452236 
-0.7878347173278908 0.8191494549131203 0.1224090925988550 -0.3170360862161361 -0.1620777324412123 
-0.3134189671971799 -0.1228126822079423 -0.1611167156510102 -0.2346100321834938 0.5205307208845983 
-0.2327584639505168 -0.06977536518901209 -0.008850467498355559 -0.02712205208692861 0.3418021028116421 
-0.2012480032916640 -0.01602512303722153 -0.002864844079451273 0.3371021001430197 -0.1618907528516239 
-0.1161590300207800 -0.03393746968328036 0.3237960254560734 0.1795301842929111 -0.2919362620505945 
0 0 0 0 0 
0.6796828796884503 -0.2403925177275711 -0.3475189318382235 -0.3936608898197756 -0.1651638461905579 
0 0 0 0 0 
-0.01829559754787600 -0.004153933242504385 0.02490916980680647 -0.0005174837984565649 -0.01301507567407953 
-0.1405762617479952 -0.2023698233089056 0.09643597574641603 0.3351155829128527 -0.04398657860395783 
0 0 0 0 0 
0 0 0 0 0 
0.2266335111549878 -0.05781296976094745 -0.03542391541992303 -0.1667779440123750 -0.01684944407286750 
0.07675210552848245 -0.08982895876966403 -0.004111997994138557 -0.004855964547749475 -0.01343740302685763 
0 0 0 0 0 
0 0 0 0 0 
0 0 0 0 0 
0 0 0 0 0 
0 0 0 0 0 
0.2721982050101527 -0.2393167341550654 0.05639072433285259 -0.09161162377124756 -0.1456810194364854 
-0.09248164375068449 -0.2322172995742132 0.4412656864777416 0.04766514064643156 -0.04252293504536425 
0 0 0 0 0 
-0.01988315140610143 -0.4119326117942297 -0.08856903641282553 0.3580309473394671 -0.04160018265692335 
0 0 0 0 0 
-0.1561726236547044 0.2158614251264211 -0.02102807270415543 -0.02268918136358213 -0.02710604795126138 
0 0 0 0 0 
0 0 0 0 0 
0 0 0 0 0 
0 0 0 0 0 
0 0 0 0 0 
0 0 0 0 0 
0.04162726316414882 -0.03653944941412486 -0.006380335487856694 -0.006218071614212489 -0.03025886489242262 
-0.04117323523027697 -0.01636226285811730 0.07072815002027380 -0.01117328773575297 -0.01939254319000083 
-0.08555497580989373 -0.03173582967092520 -0.09395407441269803 0.1968595732988017 -0.02180385717454573 
0 0 0 0 0 
0.3423587378118155 -0.03120782807983251 -0.08426065612156401 -0.1761342381267932 -0.01650643336287666 
0 0 0 0 0 
-0.09520525065665802 -0.01341583777872256 0.1305187313490260 -0.03840408661846891 -0.05224474524067389 
0 0 0 0 0 
0 0 0 0 0 
-0.01556331825128700 -0.03164448229019249 0.1308087762638353 -0.01414178183334200 -0.01609293246476788 
0 0 0 0 0 
0 0 0 0 0 
0 0 0 0 0 
0 0 0 0 0 
-0.1045437572002047 -0.09375491188458847 -0.04798234854516866 0.2504213234241510 -0.02260451367820938 
0 0 0 0 0 
0 0 0 0 0 
0 0 0 0 0 
0 0 0 0 0 
0 0 0 0 0 
0 0 0 0 0 
0 0 0 0 0 
0 0 0 0 0 
0 0 0 0 0 
0 0 0 0 0 
-0.03622953952973184 0.2905663024705037 -0.05833999878393144 -0.09034480131836908 -0.01350548266940170 
0.8927739239732360 -0.3627315006105620 -0.1123603649120791 -0.2689104326236041 -0.1035502978409004 
-0.06778349521054743 -0.09695512229090150 -0.02478522407505847 0.1409236834871453 -0.01839970895811252 
-0.1788338492059622 0.5217352316441809 -0.09702728375875173 -0.2207045710069070 -0.05103067827050088 
-0.1516033168337101 0.1128072833599031 -0.07435152514008332 0.1835924690224265 -0.05911822875789038 
0 0 0 0 0 
0 0 0 0 0 
0 0 0 0 0 
-0.04142788431823909 0.09446535375986433 -0.02180361310200984 -0.04339414857947439 -0.01017643661589517 
0 0 0 0 0 
0 0 0 0 0 
0 0 0 0 0 
-0.05453666146265217 -0.08035483153618290 -0.02846587803463848 0.09717970275825467 -0.01972368490226907 
0 0 0 0 0 
0.1978085591982101 -0.02682386254392499 -0.02316760382507452 -0.02993554685816780 -0.01228102948420363 
0 0 0 0 0 
0 0 0 0 0 
-0.04384880939553881 -0.1494702306578478 -0.05622459216914932 0.1518436785964543 -0.008205706258231164 
-0.005216395621338081 -0.04929627602951089 0.05572678350606738 -0.02276904478720235 -0.01460290832506441 
0 0 0 0 0 
-0.05887280901537655 -0.01861064035019001 -0.05339160834665234 0.05205991817330294 -0.01478459601802470 
-0.3389097078089130 -0.4804455395991301 -0.1277562244119252 0.9490343322699175 -0.09090637629514355 
0 0 0 0 0 
0 0 0 0 0 
0 0 0 0 0 
0 0 0 0 0 
0 0 0 0 0 
-0.1324621387962812 -0.06422484434691222 -0.004416795023163915 0.1745194619079503 -0.01101623558996146 
0 0 0 0 0 
0 0 0 0 0 
0 0 0 0 0 
-0.005945719234421476 0.2786803401538111 -0.2120530860073258 -0.0008868581481228817 -0.01941709249844928 
0 0 0 0 0 
0 0 0 0 0 
0 0 0 0 0 
-0.06519104181885968 0.3244347298455818 -0.006651907177446879 -0.1306329847820245 -0.01187368939808850 
-0.01778457347462928 -0.1145861067889258 -0.04539598592172726 0.1324695754591180 -0.007950621011457590 
0 0 0 0 0 
0 0 0 0 0 
0 0 0 0 0 
0 0 0 0 0 
-0.06951486273668271 0.1154589767843207 -0.01256643694933925 -0.06076442165140470 -0.01793270966355611 
-0.01237582632104097 -0.1196290027864720 0.1874342001910651 -0.08254212796216652 -0.03069935128251337 
-0.01318793900465797 0.04741847227436698 -0.04516496301690158 -0.04564697597851989 -0.04042485372360901 
0 0 0 0 0 
0 0 0 0 0 
0 0 0 0 0 
-0.03533491270720088 -0.05136451113157105 -0.02748004843056119 0.05656787152521040 -0.01367756896423541 
-0.02798309864083130 -0.06766502710115950 -0.02472992242752715 0.07792523985892730 -0.01574520793161248 
0.2166048785756042 -0.03528179350668894 -0.03440674053229423 -0.08994217619755634 -0.03766161155629868 
0 0 0 0 0 
-0.2003191431078657 -0.06168290848087505 -0.01757978862084650 0.09064424041165302 -0.02484541039983503 
0 0 0 0 0 
0 0 0 0 0 
0.09955218644823624 -0.04806088947223249 -0.002456952946785251 -0.08561362237070047 -0.01691484672677151 
0.1691591290012343 -0.06266235906942785 -0.004379675466447694 -0.07324788267492610 -0.05236403111169923 
0 0 0 0 0 
0.3846697475259957 -0.008140069376666220 -0.06719316964674237 -0.3335788071113464 -0.01335551490141307 
-0.1047165809197512 -0.06809542920247817 -0.01283027913910574 0.1319829631536541 -0.002985895721186118 
0 0 0 0 0 
-0.1131371945030756 -0.03483903284614373 0.4179116553573507 -0.009966882019047659 -0.1284227057357162 
-0.2020364779686561 -0.02358379827113101 -0.04253250591045885 0.4115692650423409 -0.04657006865401318 
0.1868091283712675 -0.07246799049771442 -0.04341268838980159 -0.1130773846582152 -0.05025403952403734 
0.3133767628091703 -0.01977995402844199 -0.1982969141002723 -0.02657054274235369 -0.06355216689404591 
0 0 0 0 0 
0 0 0 0 0 
0 0 0 0 0 
0.2829486637779974 0.2709982060920924 0.01817818357321181 -0.3202524006450080 -0.05297188358514313 
-0.1088891349863553 0.3653624382390528 -0.03685569354695230 -0.04324041724575746 -0.04862467837498575 
0 0 0 0 0 
-0.0006675190187608474 -0.05616731200657845 0.008550522411962934 -0.0008312948585471294 -0.009447883691296906 
0 0 0 0 0 
0 0 0 0 0 
0 0 0 0 0 
-0.06568415430554530 -0.1428352103147428 -0.05734502767095850 0.2686417208470886 -0.03049142016786812 
-0.009430936915837055 0.05784836652590161 -0.08115224802412835 -0.002884814015033429 -0.02095306099267678 
0 0 0 0 0 
0 0 0 0 0 
-0.01458250306429909 -0.02689892250076623 0.1313739752572384 -0.01647394547109753 -0.01649821457051888 
-0.07246909594205095 -0.04867386422372611 -0.1040902400468245 0.2654108871455539 -0.01448787487362571 
-0.007503791305955698 -0.06442774646828300 0.1465084616867538 -0.07530187893847728 -0.03990833703820871 
0.2744069180933810 -0.07355574962302916 -0.006683254960873204 -0.05400063255962685 -0.02082612763446059 
0 0 0 0 0 
0 0 0 0 0 
-0.08833887879251348 0.3297729088291658 -0.04931063115819535 -0.09514361724341311 -0.01533986418632226 
0.09202593979954421 -0.04301523748851842 -0.05132647662969658 -0.09913285966044450 -0.03047540187388356 
0 0 0 0 0 
0 0 0 0 0 
0 0 0 0 0 
0.2028405802124776 -0.1552880985478581 -0.02383536036439444 -0.02100361248047060 -0.008493898856845372 
0 0 0 0 0 
0 0 0 0 0 
0 0 0 0 0 
0.3815539246863292 -0.09559773760392840 -0.1338136333585092 -0.005377744875932055 -0.02121181116122050 
0 0 0 0 0 
0.2598081377198579 -0.04444894471074299 -0.07734774767495269 -0.08177192560427116 -0.05322079963876837 
0.2561487041264046 -0.06192578585112579 -0.01956181317950153 -0.02369637471015423 -0.09432915530027294 
-0.2905427089415242 0.0002322174107302292 -0.04417197501785419 0.2089168055371354 -0.04964437974585014 
0 0 0 0 0 
-0.1121028328632218 -0.006021375528835692 0.3309231526277058 -0.05144338898568375 -0.1167484915588513 
-0.008153835407323368 -0.1224990782732549 0.1903356779061368 -0.005167823075476693 -0.05156809057518150 
0 0 0 0 0 
0 0 0 0 0 
0 0 0 0 0 
-0.03498219187576294 -0.006206419655073645 0.07926295862926101 -0.04762842102033717 -0.009720524110496023 
0 0 0 0 0 
0 0 0 0 0 
0 0 0 0 0 
-0.5583782557794330 -0.8837868193242637 0.4091654172956635 -0.4215861444939181 0.4064214700157329 
-0.1650419855739215 0.07946476023828423 -0.001457632218243722 -0.1449856448292404 0.1210679623838250 
-0.5539686904265926 0.4223688877789187 -0.2581267320456709 -0.1314756537535625 -0.6177961561298304 
0.2363012524285604 -0.1601752366729113 -0.4785207489340798 -0.9318608912729922 -0.3165668106114295 
-0.2290442400271366 0.3081181076535389 -0.2468043557492174 0.7179732152313327 -0.9204130331653221 
-0.2643509727893061 0.1707859747747294 0.2216267929085936 -0.3340459900766210 0.1039374798917782 
0.1025407847066480 0.06505149435071121 -0.3566237588513264 -0.5456214311778759 0.06951947874381023 
0.02820082059799556 -0.06957855514266020 -0.04367536145646436 -0.2282159497008259 0.1364582567285455 
0.2774338364091051 -0.5349887531281720 -0.1777933710326931 0.3401312167206478 -0.2700888077335796 
0.9081192712238666 -0.3493999576394105 -0.3973119557158817 -0.5129563460922033 -0.2456767506070178 
-0.6685353890015585 -0.6316937173103817 0.1225388778293763 0.5774703147008582 0.4818058633602195 
-0.7036303992051220 0.4111234857664445 -0.2260513795691976 0.2703820808851859 -0.1557575361663189 
0 0 0 0 0 
0.09202593979954421 -0.04301523748851842 -0.05132647662969658 -0.09913285966044450 -0.03047540187388356 
0 0 0 0 0 
-0.009430936915837055 0.05784836652590161 -0.08115224802412835 -0.002884814015033429 -0.02095306099267678 
-0.03801182206699037 -0.03769556861204473 -0.3327403971594298 -0.02330504238059947 0.2739289204264462 
-0.03801182206699037 -0.03769556861204473 -0.3327403971594298 -0.02330504238059947 0.2739289204264462 
0.4085801474834606 -0.5357548987996604 0.4281781411930090 0.3834081362582552 -0.6835432721083046 
0.2397347303104644 -0.01672812317157088 -0.03745459999987789 -0.009060870456273778 -0.09497343070368781 
0.2397347303104644 -0.01672812317157088 -0.03745459999987789 -0.009060870456273778 -0.09497343070368781 
0.2397347303104644 -0.01672812317157088 -0.03745459999987789 -0.009060870456273778 -0.09497343070368781 
0.2397347303104644 -0.01672812317157088 -0.03745459999987789 -0.009060870456273778 -0.09497343070368781 
-0.2157031148498416 0.05247134748962544 0.2004332880116866 -0.1035668035692586 0.1422062804118355 
-0.002237221315441529 0.1417402432529858 -0.1409924505229726 0.01148442248847029 -0.06917388581771314 
0.2275992365603877 -0.1424557716906159 -0.04055121028656323 -0.05627553347354843 -0.04574681971919638 
0.2397347303104644 -0.01672812317157088 -0.03745459999987789 -0.009060870456273778 -0.09497343070368781 
0.2897466101348734 -0.03727619528988019 -0.008924541191566583 -0.04587850046593427 -0.1091496191867127 
0.0006021967503250644 0.09948221482474963 -0.02659131644584380 0.0002036011964112047 -0.01424754919630161 
0.6340533868336280 -0.03264227264805399 0.2801433898750030 -0.4152910986218434 -0.7603129361848138 
-0.07744566342411639 0.3576528035517692 0.08379389429585456 -0.4210840013618478 -0.3947009749571908 
-0.05399809805220951 0.01456457547291667 0.4898073293532917 -0.01138877345799109 -0.2407583952523646 
-0.1470188339679002 0.05138415706282037 -0.1499570733167980 -0.06591400102805715 0.3805490242432973 
0.001331930559938919 0.06515593854354068 -0.01783104986116153 -8.242170401439426e-05 -0.06966896808159245 
-0.05388171791719655 -0.05844183757096119 -0.3941112509029201 -0.1791078069908175 0.2954123923061086 
-0.03720284597886184 0.3054197059178472 -0.001031194989883280 -0.1353297821723850 -0.05574350286604637 
-0.03720284597886184 0.3054197059178472 -0.001031194989883280 -0.1353297821723850 -0.05574350286604637 
-0.003122174059471020 -0.02796010271200316 -0.8604933014161681 -0.02021794944326258 0.6834950163621157 
0.3001961696938666 0.09841453001114084 -0.1692353764198628 -0.3807329341028410 -0.2417478446518254 
-0.3170204933336693 0.3855737570028887 -0.4043051916577239 0.2140373801199213 -0.2039517778999397 
-0.08417171780717200 0.1292383042083190 0.2518632027897726 -0.01541069006432335 -0.1520197884486340 
0 0 0 0 0 
0.2674601471409588 -0.2237317008111359 0.3287667598584385 -0.07183799059228962 -0.2457015165771359 
-0.06970210665760714 0.2166159551680393 -0.002331270354249480 0.08994577370227579 -0.1729327071866514 
-0.06970210665760714 0.2166159551680393 -0.002331270354249480 0.08994577370227579 -0.1729327071866514 
0 0 0 0 0 
0 0 0 0 0 
-0.3359955578430204 0.1956113840255897 0.01084294533974717 -0.09253479236012967 0.1449612608419625 
-0.001911493121640847 0.05436694420903190 -0.01361109884540223 -0.002211542098490834 -0.04077287386231682 
-0.4448338879039808 -0.4240297740032889 0.9843845608352415 -0.1515939967730822 -0.4500637269881030 
-0.05245770636555283 -0.03428869498883972 -0.01144164738787967 0.2237719525605643 -0.05641097822090874 
-0.06962192402295297 -0.07071425665761429 -0.04114607952102680 0.03079499565189757 0.001173536241334806 
-0.001885918168457781 -0.02189092505389717 0.1597178299478392 -0.006590403415425000 -0.1123335159476001 
0.06570011328736919 -0.2746415103187979 0.6188951039496515 -0.1543926020392627 -0.1921535054060465 
-0.1436402649962931 -0.1588027822479701 -0.01667690382872521 -0.08738915266149426 0.2161425105183018 
-0.04900422674540520 -0.1474971211694339 -0.01836906776173220 -0.1186337483704247 0.1427162776893079 
0 0 0 0 0 
0 0 0 0 0 
0.02605052194390217 -0.005066531485421204 -0.009150530738245753 -0.03588385404839085 -0.007505415498988049 
-0.1430343897528978 0.4488652652232256 -0.5468386103036933 -0.07151826949975443 0.3305620574391172 
-0.1516337999559969 -0.01224963720521059 -0.07566790520101406 -0.1175908868921231 0.3627074724618157 
0 0 0 0 0 
0.001320600565655509 0.06526027677270071 -0.008326971247276670 0.0001012514507329912 -0.05032795283425312 
0.1007603689995598 -0.04935806878840520 -0.5561076950959639 -0.05274330433421531 0.5031290635102232 
0 0 0 0 0 
0 0 0 0 0 
0 0 0 0 0 
-0.02116699068303923 -0.006882359954598596 -0.6831200377949223 -0.001975358369092375 0.6691667616029577 
-0.07990565897204627 -0.08359268119632380 -0.06662929783847354 -0.09968608049115430 0.1920385108216302 
0 0 0 0 0 
-0.6800699307202560 -0.6108951671490167 0.6204605451811165 0.4070750981203124 0.1570869518319776 
-0.003197315062787927 -0.0004417877357179450 0.03193393902966284 -0.0002518584310974594 -0.03304280568245699 
0.1106436579231968 0.07294553227980540 -0.001718746859003422 -0.1235945046935357 -0.07211311002570753 
-0.02146985045843578 -0.01495515011303823 0.1297980999162569 -0.005929283617775780 -0.1103190032437947 
-0.06153395280650406 0.0001516358718106417 0.1902357864766151 -0.01756190372824489 -0.07074719940559680 
-0.01501294341867545 -0.009510279090191276 0.04722744375023096 -0.001274984783364503 -0.007084128384464212 
-0.004712114058477442 -0.001815084439466468 0.08225841749245310 -0.0009557862755344270 -0.07588233608362437 
0 0 0 0 0 
-0.004379529475259356 -0.01191346504040242 0.05286177172212016 -0.005983872747097897 -0.06003079245145591 
-0.08456713826430700 0.09777293319195890 0.01209320727707751 -0.008538507781256904 -0.1333550212019503 
-0.001933449408970177 -0.004519126063187996 0.03205611188882970 -0.002398744473766036 -0.03758901079964595 
0.2548767035988735 -0.2212998805293355 0.4027273009801043 -0.02335158228958278 -0.2430989403612504 
-0.1000049511409732 0.07786520171799140 -0.1159744084037428 -0.2116083264387846 0.2602192914737690 
-0.1000049511409732 0.07786520171799140 -0.1159744084037428 -0.2116083264387846 0.2602192914737690 
-0.03985054637201391 -0.06756631602521782 0.007089472618899214 0.4078910401945263 -0.1311587653744617 
-0.08815375666865713 0.05708543863240761 -0.01114970839287667 0.2892896908760962 -0.1631499481676547 
-0.1823933336128411 -0.1514312689860173 0.09436553743247160 0.1854914584230319 0.05404718947228035 
-0.02392967750272947 -0.02624380671198509 -0.5125228532887934 -0.01341641281900317 0.5349757786052982 
-0.02392967750272947 -0.02624380671198509 -0.5125228532887934 -0.01341641281900317 0.5349757786052982 
-0.2271693852254407 -0.1766796847380100 -0.01864527857717546 -0.06702100689418497 0.3913065377522099 
-0.2179305696271675 -0.1641224404497065 -0.009577077440102560 -0.09754840357030092 0.4383400065446343 
-0.004120816608547101 -0.0004318222263449496 0.01884313207893688 -0.0004305801195650116 -0.03565934849928750 
-0.002629727187583203 -0.005865559458864896 0.03501067159159043 -0.001363891811092297 -0.01629699582116627 
-0.0007388460837528943 -0.002305101050493407 0.06357514145087827 -0.003492742413908326 -0.07985336138185048 
-0.01086036798957053 -0.01295319159836409 -1.511684716360182 -0.008938589748635008 1.319592236923048 
-0.09643973981060483 0.2357448552154444 -0.001041395735910668 -0.09341309303838133 -0.06343721546129272 
0 0 0 0 0 
-0.008979112122102450 -0.01834447758602883 0.1589078750579475 -0.003146722730002305 -0.1948738585377218 
-0.004130879519584570 0.002420054067666507 0.08135998545146869 -0.002009095788027805 -0.02818496711828170 
-0.004130879519584570 0.002420054067666507 0.08135998545146869 -0.002009095788027805 -0.02818496711828170 
-0.1935038424214056 -0.1265893469389511 0.2456522781728709 0.2401420868680886 -0.1964893517200670 
-0.09691817970176683 -0.02749353155045219 0.2444250813675118 -0.01816668129960165 -0.1076299182171201 
0.02160504546320642 -0.1076287262086588 0.05102136746347469 -0.01466558339222134 -0.03201714870003555 
-0.04764887298450648 -0.1075183204400338 0.3282736165867316 -0.1147618384815434 -0.1766706696735289 
-0.01391875998894125 -0.001184483929072470 0.01728308443963138 -0.0005347385139134804 -0.005523550433153791 
0.1942622760674501 -0.01937562223829597 3.665625229059416e-06 -0.06091344165969551 -0.07463932103702184 
0.2413490867312982 -0.1280240944032723 0.06421349508429185 0.02384434136338674 -0.1964096084355257 
-0.001353788008779351 -0.004408942096863399 0.08742781313068064 -0.003786884877528430 -0.1135149013967297 
0 0 0 0 0 
0 0 0 0 0 
0 0 0 0 0 
-0.04141439248090324 -0.1247521745651688 -0.1359326568191195 -0.04214766024094637 0.1794907988607684 
0 0 0 0 0 
-0.3026145862869262 -0.1393266978343538 -0.0001184311851073136 -0.05933490360235101 0.2664202898519963 
-0.04141439248090324 -0.1247521745651688 -0.1359326568191195 -0.04214766024094637 0.1794907988607684 
-0.1663608644673436 -0.01977483167098756 -0.3338666363585384 -0.04371895347107529 0.6415537184283588 
-0.08545732125588278 0.02730374565300660 -0.6604626379131238 -0.01551613136906065 0.5558253686792590 
-0.08209267511412202 -0.01939297415819116 -0.5669059990669075 0.0003660124218348793 0.5938615216585424 
-0.2205120051954816 -0.2053754004950235 -0.001443469309159371 -0.07634719885977977 0.2935025616881051 
0.02224687133263641 -0.003934116060975990 -0.0008330162599598737 -0.006673558275385486 -0.03916446569062330 
0.1994125003991290 -0.1387601072772014 0.07319052199158699 -0.1067583357249334 -0.08419664254459253 
0.09682046211699354 0.3280996838814626 -0.01336407152302465 -0.1980721589337438 -0.1633152546400660 
0.1567286300796844 0.06429726664699943 -0.1251101328465777 -0.02157759215497966 -0.1340377287415653 
-0.06837477866350666 -0.05659390274943371 -0.05705774882412131 -0.01762819127608654 0.1127018832252271 
-0.08739989613993290 -0.08611152682456402 -0.3362990821761194 -0.01677348792130293 0.4399407997405579 
-0.06837477866350666 -0.05659390274943371 -0.05705774882412131 -0.01762819127608654 0.1127018832252271 
-0.06837477866350666 -0.05659390274943371 -0.05705774882412131 -0.01762819127608654 0.1127018832252271 
-0.06837477866350666 -0.05659390274943371 -0.05705774882412131 -0.01762819127608654 0.1127018832252271 
-0.1041250872142779 -0.1144766372071576 -0.1523810698949835 -0.05617976508996470 0.2651454911946083 
-0.1041250872142779 -0.1144766372071576 -0.1523810698949835 -0.05617976508996470 0.2651454911946083 
-0.1431569478923457 -0.1724619036361087 0.2109661989392521 -0.1079107040004647 -0.01622316725917540 
-0.03674293533061496 0.2242289255877933 0.1403765011938111 -0.02149405183319214 -0.1017128705607696 
-0.2947651367166915 -0.04442710709136546 -0.01083780186929790 -0.05997231999269121 0.3678598539407038 
-0.2947651367166915 -0.04442710709136546 -0.01083780186929790 -0.05997231999269121 0.3678598539407038 
0.01135473010791988 0.0009096857934561861 -0.005892883003157104 -0.01128425392519853 -0.01195853328065767 
-0.007064857786279512 -0.01116324574488415 0.1048745826310124 -0.001013809726403176 -0.06861315960672930 
-0.01095735300000566 -0.02791623343991033 -0.3754782517553409 0.0008027937350109024 0.3650456117737818 
0.1070283115160263 -0.03277620274694533 -0.0002509774772819677 -0.006237882728381877 -0.06994584035503504 
0 0 0 0 0 
0 0 0 0 0 
0.2407484961004481 -0.1021959215250779 -0.2939253809864172 -0.3633437526635312 0.6120391949013052 
-0.009161982271162095 -0.06330751884772227 -0.1441925686031912 -0.007451284515719520 0.1581552141157574 
-0.009161982271162095 -0.06330751884772227 -0.1441925686031912 -0.007451284515719520 0.1581552141157574 
-0.009161982271162095 -0.06330751884772227 -0.1441925686031912 -0.007451284515719520 0.1581552141157574 
-0.009161982271162095 -0.06330751884772227 -0.1441925686031912 -0.007451284515719520 0.1581552141157574 
-0.009161982271162095 -0.06330751884772227 -0.1441925686031912 -0.007451284515719520 0.1581552141157574 
-0.2327584639505168 -0.06977536518901209 -0.008850467498355559 -0.02712205208692861 0.3418021028116421 
0 0 0 0 0 
-0.1404876119023405 -0.006420626046370221 0.4084149665693301 -0.008877645937239330 -0.2055244721936746 
0.05067501697673631 -0.1878598043790134 0.003716007519090570 0.2142961567879664 -0.2162171220364961 
0 0 0 0 0 
-0.01001108930659803 -0.01635419647357847 0.3281682691512521 -0.005110045993790302 -0.2193431445854342 
-0.1688075182202774 -0.04442477453412334 0.3866675634590397 0.1000933566360540 -0.2826497185916773 
0 0 0 0 0 
0 0 0 0 0 
0 0 0 0 0 
0.2417455464337054 -0.01271333843271311 -0.2760835996812325 -0.005997500778689362 -0.02383461098434537 
-0.1184147170512753 0.2384716269167449 -0.01325928242674539 -0.1047736720960065 -0.04613769622233716 
0 0 0 0 0 
0 0 0 0 0 
0 0 0 0 0 
0 0 0 0 0 
0.09242197165480008 -0.1085205007641819 -0.01607121491646402 -0.02321129154398488 -0.01112642892307975 
-0.08041301481612516 0.1045690857018883 -0.09203092125247822 -0.001817450353415539 -0.01782763831913599 
0.1956118960622961 -0.07104577050360716 -0.03036831403534002 -0.01778814980358256 -0.03658986151271961 
0 0 0 0 0 
-0.1291405557176220 -0.05836422287513608 -0.1044209417190183 0.3493682644270545 -0.02457653298812339 
-0.1193799286480146 0.1736840918253117 0.2276745437321944 -0.1133925238472675 -0.06979522539953126 
0 0 0 0 0 
0 0 0 0 0 
0 0 0 0 0 
0 0 0 0 0 
0 0 0 0 0 
-0.02621242881449593 0.03577417665579129 -0.01283237636984161 -0.01646243306531284 -0.01295656050554789 
0.01394224805780702 -0.03108549305717596 0.06384150047554950 -0.01501094841705901 -0.06083497569421993 
0 0 0 0 0 
-0.01020192903329110 -0.007750605146115384 0.02772409256068007 -0.002012997380335940 -0.01072098478694706 
-0.1293130708304154 -0.05711602682647957 0.2614692324812218 -0.04873752489206663 -0.1455857107631505 
0.01239356916168462 -0.006692836569443023 -0.01105992560898529 -0.002796528333675865 -0.001552425460985205 
0.01239356916168462 -0.006692836569443023 -0.01105992560898529 -0.002796528333675865 -0.001552425460985205 
-0.02852207926621381 -0.03423340725947693 0.09458694366086808 -0.01296364287825334 -0.08466883449404940 
-0.01381477083888526 0.02846734207044775 -0.02758581836957168 -0.004275849437987120 -0.002893901533958286 
-0.01020192903329110 -0.007750605146115384 0.02772409256068007 -0.002012997380335940 -0.01072098478694706 
-0.1299625397692742 0.04030332098552003 -0.008482261056391275 -0.007389287404208285 -0.003650846967100046 
0.3907009036764133 -0.1953032910109145 0.1172253223053782 -0.1204423092472316 -0.05582467163592622 
0.007954726958725815 -0.005621434416001791 -0.003313746787147106 -0.008117034562066416 -0.002981850148137875 
0.007954726958725815 -0.005621434416001791 -0.003313746787147106 -0.008117034562066416 -0.002981850148137875 
0.09943817671040228 -0.01497639065646571 -0.07005735399974919 -0.03700401133131728 -0.01255654594012567 
0 0 0 0 0 
0.09364894204067248 -0.01280917571564467 -0.01756643106106696 -0.01739664936294565 -0.01699054151356608 
0 0 0 0 0 
0 0 0 0 0 
-0.0003797901483800208 0.01600732922635844 -0.02686379868876798 -0.001684369355694252 -0.01284239395825839 
0 0 0 0 0 
-0.02330408553060142 0.02977702327740731 -0.02826411593176625 -0.02255069352958807 -0.01029522996303456 
0 0 0 0 0 
0 0 0 0 0 
0 0 0 0 0 
0 0 0 0 0 
0 0 0 0 0 
-0.03741267637309552 -0.08223876079136147 0.2117815628469900 -0.007500050802040156 -0.01929308856784369 
-0.03741267637309552 -0.08223876079136147 0.2117815628469900 -0.007500050802040156 -0.01929308856784369 
-0.03741267637309552 -0.08223876079136147 0.2117815628469900 -0.007500050802040156 -0.01929308856784369 
-0.2194308702192163 -0.08478785312669192 -0.03848044062589266 0.2854777314304092 -0.02289892450023127 
-0.09157542381278815 -0.04579746802032637 0.2094775468812119 -0.01601202698138409 -0.02298778179272005 
-0.09899437259622897 0.09721109398987723 -0.02443434899127700 -0.02753649326011490 -0.02540953139802538 
-0.09157542381278815 -0.04579746802032637 0.2094775468812119 -0.01601202698138409 -0.02298778179272005 
0 0 0 0 0 
0 0 0 0 0 
-0.02588965205552295 -0.006438269661785152 0.01879964707507503 -0.001376130824319223 -0.004433711515545444 
0 0 0 0 0 
-0.06888876910630300 0.3647595178602070 -0.1003922534657018 -0.03785899601278460 -0.01635649699760934 
0 0 0 0 0 
0 0 0 0 0 
0.3367555686323611 -0.06450394701884968 -0.02701524447269500 -0.05175634032299959 -0.06879624726169443 
0.2778827596169846 -0.08311458736903969 -0.08040685281934733 0.0003035778503033514 -0.08358084327971914 
0 0 0 0 0 
-0.06906917206990602 0.2141678482282709 -0.005502178495334551 -0.08332079419444158 -0.02553693672426060 
-0.002006508465959729 0.01982714927090081 -0.02456149644945604 -0.001035394316181772 -0.004903167522075716 
-0.01199396856406949 0.01903660262629927 -0.02412729737233474 -0.003845498596134311 -0.001579614631295148 
-0.009358479263617630 -0.006895627362603518 0.02128185246165710 -0.001285170483238626 -0.006178370059333655 
0 0 0 0 0 
0 0 0 0 0 
0 0 0 0 0 
0 0 0 0 0 
0 0 0 0 0 
0.2266335111549878 -0.05781296976094745 -0.03542391541992303 -0.1667779440123750 -0.01684944407286750 
0.2266335111549878 -0.05781296976094745 -0.03542391541992303 -0.1667779440123750 -0.01684944407286750 
-0.01789544298529151 -0.01162918812568724 0.05494698745922936 -0.002786288105214723 -0.01985324869888497 
0 0 0 0 0 
-0.01227360071983749 -0.0004496124426095535 0.02736932412113474 -0.0005717092644407400 -0.005841654465146806 
0 0 0 0 0 
0.2635617544931558 -0.002598635573741341 -0.08201893750493004 -0.1270428201901500 -0.04061219748874400 
-0.2674759394721905 0.2534166654202308 -0.006895347704527020 -0.01485610939390826 -0.02606309973801576 
-0.01181154129856613 -0.02469194667277338 0.1098169031186348 -0.01126203497034329 -0.1293734916946588 
-0.01765437377681370 0.02474606457816507 -0.003433706061438554 -0.009563577393271789 -0.01594759330032046 
-0.006847766180134829 -0.01188967492426824 0.02519290986257895 -8.286592269442380e-05 -0.005148627370581257 
-0.06156890517004184 -0.04259469768450300 0.1117307839905814 -0.0002541408076952353 -0.03494578547943366 
-0.001126395627927814 -0.004797585699953114 0.02291975333970646 -0.003157205195322645 -0.01755856016487200 
0 0 0 0 0 
-0.007549916335695733 -0.005714431627589463 0.01836648171990290 -4.571342036672641e-05 -0.006008005628379493 
0 0 0 0 0 
-0.002405616570502409 -0.02171132838299046 0.02826256043628282 -0.002188625500939548 -0.02380896714115616 
-0.002405616570502409 -0.02171132838299046 0.02826256043628282 -0.002188625500939548 -0.02380896714115616 
0 0 0 0 0 
0 0 0 0 0 
0 0 0 0 0 
0 0 0 0 0 
-0.01753563337669234 -0.008525825557476425 0.02634490198407985 -4.116463197004682e-05 -0.002737588230917820 
0 0 0 0 0 
0.04162726316414882 -0.03653944941412486 -0.006380335487856694 -0.006218071614212489 -0.03025886489242262 
0.04162726316414882 -0.03653944941412486 -0.006380335487856694 -0.006218071614212489 -0.03025886489242262 
-0.07924630274052973 0.05063356955495289 -0.002187272950105343 -0.004660421767050494 -0.008623693960596429 
0 0 0 0 0 
-0.04117323523027697 -0.01636226285811730 0.07072815002027380 -0.01117328773575297 -0.01939254319000083 
-0.04117323523027697 -0.01636226285811730 0.07072815002027380 -0.01117328773575297 -0.01939254319000083 
0 0 0 0 0 
-0.001053076407962216 -0.01691428295223957 0.03549792346745259 -0.006387784980800717 -0.02300835278430268 
-0.0006675190187608474 -0.05616731200657845 0.008550522411962934 -0.0008312948585471294 -0.009447883691296906 
0.01130252956702329 -0.008057507860002935 -0.0005449187471106209 -0.006218822403027843 -0.007233311105125392 
-0.09520525065665802 -0.01341583777872256 0.1305187313490260 -0.03840408661846891 -0.05224474524067389 
0.007329863477745210 -0.002917300737861363 -0.001598543505302637 -0.009758640770672726 -0.003351413172181523 
0 0 0 0 0 
0 0 0 0 0 
-0.007157913665084137 -0.02073561263225714 0.03256718213844777 6.653105078470965e-05 -0.003516886322694666 
-0.002645468726595254 0.04238789166188397 -0.05522003155698698 -0.004339155777406732 -0.005350179558437630 
0 0 0 0 0 
-0.002027504680601711 -0.01169183888816184 0.02106020682345337 -0.001186783629850723 -0.007163710472124918 
0 0 0 0 0 
-0.02702020957407979 -0.1944536540340150 0.2076300490117149 -0.02946410549511855 -0.03226449574550315 
-0.02685000801279843 0.3072557659379585 -0.2365296429659188 -0.01410673628897142 -0.01875530341448669 
0 0 0 0 0 
-0.002411161842176109 0.05506471359957319 -0.09648915601700041 -0.002504210545387876 0.0002139906084698542 
-0.0006447985509662980 0.01707854726263877 -0.02806332241196558 -0.001619858645673850 -0.01087173132850864 
0 0 0 0 0 
0 0 0 0 0 
0 0 0 0 0 
0 0 0 0 0 
0 0 0 0 0 
0 0 0 0 0 
0 0 0 0 0 
-0.0006675190187608474 -0.05616731200657845 0.008550522411962934 -0.0008312948585471294 -0.009447883691296906 
0 0 0 0 0 
-0.0009573333402568011 -0.008656231062107946 0.009088933249302527 0.0003010980290164931 -0.004087869507092191 
0.1690409245536668 -0.06995043358856216 -0.01454738280893162 0.01815439957904180 -0.04956646642718766 
-0.006900940657186937 -0.01238968534709786 0.07425231710172063 -0.01297334672964804 -0.01577445369330875 
0.001276840469764745 0.03383428400954713 -0.07149096398554204 -0.0002652033026766849 -0.005890521547943646 
-0.05035612709343425 0.2303571703189104 -0.02226871353295417 -0.03241808080946931 -0.1323946214099089 
-0.09668105572033882 0.1472181309055269 -0.02869524611155522 0.1088812947682781 -0.1444675303328146 
0 0 0 0 0 
0 0 0 0 0 
0.3768260390952486 -0.06160083400812270 -0.001614679078323356 -0.2524859503649564 -0.02207390938976453 
-0.007931195796125058 0.09889136104354097 -0.02915858992547789 -0.007700632057593899 -0.01187898646064986 
0 0 0 0 0 
-0.001774925885829217 0.02042519333409925 -0.04370032608466776 -0.007821853798419555 -0.003643382927894423 
-0.04044027282306457 -0.01360219504731956 0.1737153070109636 -0.001861402306540087 -0.04865775620215430 
0 0 0 0 0 
0 0 0 0 0 
-0.02020535728752310 -0.3787375778778331 0.5580156894241953 -0.01647053645389134 -0.006717693130890183 
0 0 0 0 0 
0 0 0 0 0 
0 0 0 0 0 
-0.005011401414059279 -0.01007716770313698 0.06196038664469489 -0.005745785356206808 -0.04386333994527081 
-0.005526233046983713 -0.08149587854705137 0.09698549981235954 -0.007420641152331162 -0.02994515345765159 
-0.04949822455958142 -0.1236029508094986 0.1988077793273100 -0.03522636969387214 -0.1640672092242825 
-0.002840632689676311 -0.0009824625631278120 0.009524572075371879 -0.0005233187928380997 -0.009927351841639330 
0 0 0 0 0 
0 0 0 0 0 
0.4356591642581313 -0.07118065966744641 -0.009756363315179248 -0.2486432402629125 -0.01852263438569197 
0 0 0 0 0 
-0.1068628715799704 0.06382793383770446 0.07721425861007905 -0.1123084053548082 -0.09816247699670744 
0.2044623467232005 0.3357323112729658 -0.3654262439821892 -0.1906096578233590 -0.3366060245071742 
-0.2659557895856815 -0.05821884250051193 0.09329570223988830 0.3481546425918446 -0.1569631256084095 
0 0 0 0 0 
0 0 0 0 0 
0 0 0 0 0 
0.02272425324790846 -0.01722525133904920 -0.004491932181015692 -0.008970305005321812 -0.001946432878708425 
-0.02308273355505995 -0.007373546948122863 0.1444538845485916 -0.02585198629061104 -0.02250362742318122 
-0.01943752960396836 -0.01533048531804411 0.07778269005993294 -0.002754005221093594 -0.04810459130633860 
-0.001115666383022652 0.009317977947894714 -0.03929100540559509 -0.008998877144357495 -0.0008393654257032085 
0.001452013097190021 0.02068401677343472 -0.08120263035648576 0.0002468106088899644 0.001039337160155665 
-0.006078279756725021 0.003973533061178920 -0.02854346256167637 -0.0001414459671989004 -0.008314431628954223 
-0.05869142683450700 -0.04374001708174022 0.2658085237138482 -0.03296028875504982 -0.1694346811397067 
0.1112992982188379 -0.02669681666998434 -0.1194546237473085 -0.04691839902815848 -0.01715875163736935 
0 0 0 0 0 
0 0 0 0 0 
-0.1047444678168309 -0.09995677221463208 -0.03343424091773082 0.4603090244459753 -0.04075220150476061 
0 0 0 0 0 
0 0 0 0 0 
0 0 0 0 0 
0.1671693584424797 -0.03910851931751951 -0.1421118000316936 -0.01015052002093791 -0.02542894037696685 
0 0 0 0 0 
0 0 0 0 0 
0 0 0 0 0 
-0.009449509778966013 -0.01435531208330608 0.05160308654912737 -0.01055261837628689 -0.01449295422277351 
-0.03134254446953130 0.08270958786782191 -0.03128644782130948 -0.1307069671741402 -0.004580974901108655 
-0.01652643300429078 -0.05678664609127218 -0.01006925563758025 0.04650976728765036 -0.005128341311940604 
-0.01160732875121320 0.01634081952376143 -0.008950857923528522 -0.01791609239830793 0.0002654213254364608 
-0.1322032812003319 0.3732437437387466 -0.01406350742035941 -0.06132377028969883 -0.02863157517762360 
-0.003570046676910398 -0.02286244927485284 0.04580583256804726 -0.001952688685534104 -0.005532481279766466 
0 0 0 0 0 
0.1978085591982101 -0.02682386254392499 -0.02316760382507452 -0.02993554685816780 -0.01228102948420363 
0.1978085591982101 -0.02682386254392499 -0.02316760382507452 -0.02993554685816780 -0.01228102948420363 
-0.07279239077710145 -0.01326289842244429 0.1182067536536109 -0.003093783008655923 -0.01974168737737174 
0 0 0 0 0 
-0.007222351699061594 0.02778889172534845 -0.01996804317890770 -0.04018928563854091 -0.006735312210187816 
-0.01003940967705404 -0.01705164990589415 0.03784372940475413 -0.01141922866198362 -0.01042198558013629 
-0.01003940967705404 -0.01705164990589415 0.03784372940475413 -0.01141922866198362 -0.01042198558013629 
0.08601920344788905 -0.07173552606109260 -0.006546712060614090 -0.02045722254438999 -0.006733698121356840 
0 0 0 0 0 
0 0 0 0 0 
0.03885190375227261 -0.08870208774991167 -0.01051909554329114 -0.002607929756203121 -0.003349878913960065 
0 0 0 0 0 
0 0 0 0 0 
0 0 0 0 0 
0 0 0 0 0 
-0.009392981157366241 -0.001866725204598171 0.02994418313453177 -0.0003757556836577411 -0.009819327735090323 
-0.03375006737497771 -0.03207675309818642 0.1611836700937552 -0.04308524582878719 -0.02954353326795470 
-0.001357356898841272 -0.01787007674942801 0.02459226656749585 -0.001054826027049270 -0.004466690696530276 
0.001503215917491791 0.03460531703122302 -0.04821631829269299 -6.159621502428817e-05 -0.007130278963660254 
0.001503215917491791 0.03460531703122302 -0.04821631829269299 -6.159621502428817e-05 -0.007130278963660254 
0 0 0 0 0 
0 0 0 0 0 
0 0 0 0 0 
-0.04411204843754462 -0.01832207764765132 0.1855709417109354 -0.001876259013753018 -0.05801558499772403 
-0.003671775614480045 -0.004719882600331767 0.01185563469997178 -1.485670721293030e-05 -0.009357828795569727 
-0.01762157457090043 -0.02059341102306176 0.03282761907444993 -0.001500812953431237 -0.01275019267058626 
-0.006283628388153174 -0.0009289861550880940 0.01506373086442866 -7.947504732527160e-05 -0.01042642747214484 
-0.006283628388153174 -0.0009289861550880940 0.01506373086442866 -7.947504732527160e-05 -0.01042642747214484 
0 0 0 0 0 
0 0 0 0 0 
-0.001647262757544039 -0.01536033860090434 0.03862261798121229 -0.007257188233310399 -0.02376046594768477 
-0.003187742321278015 -0.02548107289320218 0.05012150633241622 -0.006039428249120445 -0.01228270339954359 
-0.003187742321278015 -0.02548107289320218 0.05012150633241622 -0.006039428249120445 -0.01228270339954359 
-0.01597558763440760 -0.01905850098213130 0.1113902584203043 -0.004366884397910351 -0.02290509225658872 
-0.002590695676831933 -0.003876285773831320 0.01861725456168962 -0.002809960563151815 -0.02811229250980399 
-0.002590695676831933 -0.003876285773831320 0.01861725456168962 -0.002809960563151815 -0.02811229250980399 
-0.002027504680601711 -0.01169183888816184 0.02106020682345337 -0.001186783629850723 -0.007163710472124918 
-0.001053076407962216 -0.01691428295223957 0.03549792346745259 -0.006387784980800717 -0.02300835278430268 
-0.001641388820291309 -0.01530409050841879 0.03942887924224138 -0.007266892550354851 -0.02398803554608980 
-0.09751414368935774 0.06437457783833636 -0.0006782400708286057 -0.003911401932190783 -0.004837564367645713 
-0.1214930676675722 0.09870170051566325 -0.008054771266736536 -0.02367388969848549 -0.02158897780363812 
-0.06489945780716816 0.3074226623898293 0.004448301597846160 -0.1317922153671240 -0.01706275299905679 
-0.02969882839946941 0.04432823111318207 -0.01054170878984486 -0.01161174892947083 -0.005576690582369255 
0.1156668112820202 -0.03156940792242909 -0.009642597032397820 -0.09601563745065393 -0.02611113482821728 
-0.07192241642671961 0.06284061659556459 -0.007324392584046687 -0.01111933352452186 -0.02513181847580492 
0 0 0 0 0 
0 0 0 0 0 
-0.07192241642671961 0.06284061659556459 -0.007324392584046687 -0.01111933352452186 -0.02513181847580492 
-0.002249505788600388 -0.01134065695112307 0.04306333836422756 -0.003643971946175737 -0.03388787438620589 
-0.3032838691494371 -0.2107999734086399 0.1124747748913789 0.5058524574354752 -0.1097203783912280 
0.05186432972368887 -0.02525066621290048 -0.004791251290911400 -0.02583322298344746 -0.01909585284551646 
-0.006582124406254605 -0.001594759004633478 0.03916410508454529 -0.001061257064309173 -0.02437362936843103 
-0.05757331702753886 -0.04957228582475039 -0.004349398315101586 0.1121331945355054 -0.01042849694362420 
0 0 0 0 0 
-0.01160046673861177 -0.003053722352104840 0.01038423478609766 -7.592726987310449e-05 -0.003048227508921740 
0 0 0 0 0 
-0.07727362365860821 0.3636982420576104 -0.07646483679036276 -0.03903829570144242 -0.03141697660698826 
-0.03945916069057323 0.1274853992387349 -0.01686542812420254 -0.09889420619792533 -0.01423260447365854 
0 0 0 0 0 
0 0 0 0 0 
0 0 0 0 0 
-0.003170307372938510 -0.0006057376292676366 0.01708290073302437 -0.001773166178488294 -0.01793485288320236 
-0.009392981157366241 -0.001866725204598171 0.02994418313453177 -0.0003757556836577411 -0.009819327735090323 
0 0 0 0 0 
0 0 0 0 0 
0 0 0 0 0 
0 0 0 0 0 
0 0 0 0 0 
0 0 0 0 0 
-0.005174174108102337 -0.0003328713225222743 0.02117988667908493 -0.001601464463152486 -0.01629247274642689 
0.03316043372356969 -0.01757834575689267 -0.003406936500702496 -0.02814920337508698 -0.01226739974932883 
0 0 0 0 0 
0 0 0 0 0 
0.03999645418101679 -0.02069563019956005 -0.01428214243306935 -0.01037274196794554 -0.004626149022896820 
-0.004509638192691953 -0.005602499186410721 0.02102007705273288 -0.0002185912130539972 -0.006100785704030010 
-0.004509638192691953 -0.005602499186410721 0.02102007705273288 -0.0002185912130539972 -0.006100785704030010 
0.1662303270358051 -0.04829157296089861 -0.03462113501353419 -0.05884529793854266 -0.01677504159820585 
0 0 0 0 0 
0 0 0 0 0 
0 0 0 0 0 
0 0 0 0 0 
0 0 0 0 0 
0 0 0 0 0 
-0.005945719234421476 0.2786803401538111 -0.2120530860073258 -0.0008868581481228817 -0.01941709249844928 
-0.005945719234421476 0.2786803401538111 -0.2120530860073258 -0.0008868581481228817 -0.01941709249844928 
0 0 0 0 0 
-0.01160046673861177 -0.003053722352104840 0.01038423478609766 -7.592726987310449e-05 -0.003048227508921740 
-0.005590269719173669 -0.006023241509743994 0.01186755639551894 0.0002906874322251220 -0.004894508890426958 
0 0 0 0 0 
0 0 0 0 0 
0 0 0 0 0 
0 0 0 0 0 
-0.007530292853915044 -0.01671048371225580 0.05265916779480939 -0.0003882565760888642 -0.009353768789109887 
-0.004784571450316142 0.0003381371596467427 0.01849650992244643 -0.0009024009812172843 -0.02690009403153113 
-0.1202966063112231 0.1569936926626692 -0.009900787611002270 0.04609075608225471 -0.03999287843299590 
-0.02147627317527294 -0.004928489995583910 0.02602310494642746 -0.0001350477811832710 -0.004275938714572332 
-0.01778457347462928 -0.1145861067889258 -0.04539598592172726 0.1324695754591180 -0.007950621011457590 
0 0 0 0 0 
0 0 0 0 0 
0.2022998633855338 -0.04801516539566535 -0.1371698147882448 -0.01917716540349360 -0.07027382097753575 
0.03191205129769313 -0.04777862630861801 -0.01406084899262409 -0.01303167988368510 -0.02540575898897021 
-0.04873476130170257 -0.03224696244645536 0.1089280879153641 -0.006455068383788436 -0.06625391582435546 
-0.007645128827043008 -0.01577591528154914 0.01144150873021073 0.0003069384539039729 -0.001427321646161473 
-0.02932369014594709 -0.01874377331012525 0.02985919566613729 0.0001450305744305448 -0.003953075646442397 
0 0 0 0 0 
-0.002922598108711509 -0.007674414051482816 0.02246686714243406 -0.001436627776740226 -0.01602303146898790 
-0.01314625884042684 -0.01258787451747480 0.06003720765902396 -0.002836712859711353 -0.04564989353236617 
-0.06951486273668271 0.1154589767843207 -0.01256643694933925 -0.06076442165140470 -0.01793270966355611 
-0.01237582632104097 -0.1196290027864720 0.1874342001910651 -0.08254212796216652 -0.03069935128251337 
-0.007026768668478026 -0.001789115768217965 0.01614951278259415 -0.0002329820448178197 -0.009382522425608341 
0 0 0 0 0 
-0.03322632234869682 0.2203212029139951 0.01347847624933845 -0.1044587911104376 -0.03811778555413046 
-0.005969046591746955 -0.002227762137568091 0.01742932904646916 -0.0006250581567756900 -0.01340001180730531 
-4.275034434544954e-05 -0.004908580117677514 0.01342237337456007 0.0001415445714995234 -0.01398612921074373 
0 0 0 0 0 
-0.009939497524043328 -0.03891801378299784 0.05610707847577250 -0.001086787220934115 -0.005062949572543604 
0.3239663139451872 -0.1140931148051581 -0.005065512607845045 -0.06955852656688329 -0.02971141316167608 
0 0 0 0 0 
-0.003235230308750874 -0.01097977488403561 0.02120323057693763 -0.0003956843367949518 -0.01014868345583373 
0 0 0 0 0 
0 0 0 0 0 
0 0 0 0 0 
-0.01079027354369962 -0.004364552388367143 0.02395901353732182 -0.001193969329223202 -0.01834806323635404 
-0.04033149583397343 -0.02113616161345193 0.04677808833597061 0.0001848312363101970 -0.004294958986285837 
-0.02256096772847507 -0.01224121386887318 0.05429961493926042 -0.002020639114270169 -0.01246798647242733 
0 0 0 0 0 
-0.02408606486730167 -0.009477924657681856 0.07579286740267847 -0.007489969832683647 -0.03819419791574163 
0 0 0 0 0 
-0.06460022819290497 -0.05512095684940949 -0.04206656332922890 0.4522934952969543 -0.01062004691575163 
-0.01227360071983749 -0.0004496124426095535 0.02736932412113474 -0.0005717092644407400 -0.005841654465146806 
-0.001156141725427040 -0.01572547876877661 0.07008928880984226 -0.008914142007981064 -0.04523048209972399 
-0.0009919263608789849 -0.003136266353714512 0.01160583991770371 -0.003721697603423583 -0.01409543131770603 
-0.002123168863124912 -0.003099626356652727 0.02879670179558821 -0.002244173193482529 -0.01923012481260093 
-0.002123168863124912 -0.003099626356652727 0.02879670179558821 -0.002244173193482529 -0.01923012481260093 
-0.03945916069057323 0.1274853992387349 -0.01686542812420254 -0.09889420619792533 -0.01423260447365854 
0.0001070679318718707 -0.01126406650556842 0.01236751441127049 -0.002181609246797505 -0.008800807904351681 
-0.03285229382009854 0.09471686261035259 -0.002825907320446497 -0.04526263014054483 -0.005988340442930753 
-0.02832248674707698 0.3677582989941371 -0.1824564518189288 -0.002898299723705796 -0.04784570425614083 
-0.01573896716698596 -0.004727315970416549 0.03467534160186444 0.0001128463226974154 -0.001051942599527843 
0.02199145959999932 -0.03829398210642240 -0.006451726521823091 -0.006023870582593722 -0.009850198174596205 
0.2166048785756042 -0.03528179350668894 -0.03440674053229423 -0.08994217619755634 -0.03766161155629868 
0 0 0 0 0 
0.01366696971892388 -0.1251157698994317 0.3446763015449881 -0.2570800522535608 -0.08950705073297330 
-0.6275878060062470 -0.06116489385877879 -0.01894081858057482 0.7490643463201329 -0.007710750855101745 
0 0 0 0 0 
0.07111255319928247 -0.02679554282885682 -0.01218873479843153 -0.03708657899583739 -0.006211360765917121 
-0.01258351958009103 0.3724856149645537 -0.2171317934207932 -0.003011146046403211 -0.04679376165661298 
0.006653741724958918 -0.01231721466937884 -0.003274889388949303 -0.008321298241613132 -0.002722604091054643 
0 0 0 0 0 
0.1398079998131676 0.03254613340862066 -0.1224262324092136 -0.02573126518773782 -0.01122722644680694 
0.1443302285810809 -0.01383578048180268 -0.08630378003877597 -0.02160448267913704 -0.007011807307729731 
0.1443302285810809 -0.01383578048180268 -0.08630378003877597 -0.02160448267913704 -0.007011807307729731 
0.1443302285810809 -0.01383578048180268 -0.08630378003877597 -0.02160448267913704 -0.007011807307729731 
0.1691591290012343 -0.06266235906942785 -0.004379675466447694 -0.07324788267492610 -0.05236403111169923 
0.1691591290012343 -0.06266235906942785 -0.004379675466447694 -0.07324788267492610 -0.05236403111169923 
0 0 0 0 0 
0.4049579298586023 -0.009938071516440704 -0.5141632596558549 -0.002671768189301167 -0.01087463704841168 
0 0 0 0 0 
-0.1047165809197512 -0.06809542920247817 -0.01283027913910574 0.1319829631536541 -0.002985895721186118 
-0.1047165809197512 -0.06809542920247817 -0.01283027913910574 0.1319829631536541 -0.002985895721186118 
-0.01060972848585369 -0.01055734000502871 0.09955526721439496 -0.001149271702011524 -0.007365631376098698 
0.01725778733342301 -0.01781213083353014 -0.001627016174320426 -0.02451321621512955 -0.006798726696028835 
0 0 0 0 0 
0.008524374181913522 -0.02462619390017274 -0.001560356978111381 -0.003820989689189237 0.0003100153203615444 
0 0 0 0 0 
-0.1131371945030756 -0.03483903284614373 0.4179116553573507 -0.009966882019047659 -0.1284227057357162 
0 0 0 0 0 
0.3133767628091703 -0.01977995402844199 -0.1982969141002723 -0.02657054274235369 -0.06355216689404591 
0.3133767628091703 -0.01977995402844199 -0.1982969141002723 -0.02657054274235369 -0.06355216689404591 
0 0 0 0 0 
0 0 0 0 0 
0.01784921062286349 -0.005635922019586962 -0.002330788679326544 -0.06108045606580204 -0.002248510687890437 
0.02307828332407332 -0.02099988774470514 -0.01628159947347280 -0.004465182294167269 -0.01056339943111194 
0 0 0 0 0 
0 0 0 0 0 
0 0 0 0 0 
0 0 0 0 0 
0.02630891233684826 -0.01362720380867042 -0.004774853629494526 -0.02267713705193891 -0.01254032843393888 
0.02630891233684826 -0.01362720380867042 -0.004774853629494526 -0.02267713705193891 -0.01254032843393888 
-0.009430936915837055 0.05784836652590161 -0.08115224802412835 -0.002884814015033429 -0.02095306099267678 
0 0 0 0 0 
0 0 0 0 0 
0 0 0 0 0 
-0.002273809417562899 0.03976374395581731 -0.07658019745223171 -0.001939520606919125 -0.02639876968010217 
0.001867604164748407 0.04341862673393535 -0.09077642472111676 -3.211547046592039e-05 -0.002780133747898869 
0.001867604164748407 0.04341862673393535 -0.09077642472111676 -3.211547046592039e-05 -0.002780133747898869 
0 0 0 0 0 
0 0 0 0 0 
-0.01866172587327442 -0.01654548395755879 0.05042923229390692 -0.003435716937595702 -0.01474697888770680 
0 0 0 0 0 
0 0 0 0 0 
0 0 0 0 0 
0 0 0 0 0 
0 0 0 0 0 
-0.002603557519579977 0.02453729160078361 -0.01842764522849208 -0.0009394937071956257 -0.008852976515635292 
-0.002603557519579977 0.02453729160078361 -0.01842764522849208 -0.0009394937071956257 -0.008852976515635292 
0.002477842096625250 0.06862026568483734 -0.1283549296615187 -0.0005272326385118033 -0.01137499067230580 
0 0 0 0 0 
-0.009955378871723448 0.01680398065648216 -0.02655634376651863 -0.006067257588364577 -0.01073576227415360 
0 0 0 0 0 
0 0 0 0 0 
-0.001505612426299254 -0.01759968495521982 0.03875929224224958 -0.007842605692924401 -0.02195075221476969 
-0.002806898054235346 -0.01324485091803770 0.02269165923706870 -0.003227641707388826 -0.01096296581612891 
-0.05744893971166070 0.1497392613959475 -0.005992575102089250 -0.02072155024636740 -0.04893013122111754 
-0.02450597488982279 -0.4378667939207288 0.4894483749563611 -0.005535017593154684 -0.02342385633949208 
0 0 0 0 0 
-0.01540506278826597 -0.01118174274025241 0.03043416284215558 -0.002242440195023384 -0.01098763458275577 
-0.07106534707824337 0.04494067785205514 -0.002721654760799979 -0.003773773363098869 -0.007471828921462741 
0 0 0 0 0 
-0.01120989312214902 -0.01204191582228277 0.04083278456108731 -0.006805587758341150 -0.03031276437234602 
-0.02065704666016322 -0.05039194534089481 0.2412110861548673 -0.01453635174889776 -0.1317943851514611 
-0.004246232973399630 -0.005709432950107304 0.02349458846224710 -0.001469721285348042 -0.01792017623833108 
-0.004246232973399630 -0.005709432950107304 0.02349458846224710 -0.001469721285348042 -0.01792017623833108 
-0.007927025655149033 -0.009975551674118347 0.03677729724944531 -0.004534893214299904 -0.05237378547591083 
-0.002446987943190650 -0.01357834103672749 0.03029169698426992 -0.003795047684557113 -0.01579465931840785 
-0.002723092283758988 -0.01242965901691750 0.02413250661613142 -0.002966294448766797 -0.01123084686502082 
0 0 0 0 0 
0 0 0 0 0 
0 0 0 0 0 
0 0 0 0 0 
0.1671693584424797 -0.03910851931751951 -0.1421118000316936 -0.01015052002093791 -0.02542894037696685 
0 0 0 0 0 
0.2593435729170683 -0.1419669665584856 -0.04645490369081453 -0.07885747882469443 -0.01168201516937307 
0.02307828332407332 -0.02099988774470514 -0.01628159947347280 -0.004465182294167269 -0.01056339943111194 
0.02307828332407332 -0.02099988774470514 -0.01628159947347280 -0.004465182294167269 -0.01056339943111194 
-0.02186997112331477 -0.0003222030603257128 0.01517862745339027 1.390620819307470e-05 -0.006226020579842367 
-0.01366471386394731 -0.002992932767793337 0.01419265039992299 -0.001446210459962735 -0.006441677882087415 
0.06907626268207026 -0.08389087733005407 -0.01718229028066329 -0.01649200548293757 -0.03966032719291551 
0 0 0 0 0 
-0.01606043129813133 0.0001905159361427417 0.02647365105344800 -0.0003585392136626867 -0.008159903111708732 
-0.009898911411868713 -0.01238493570243966 0.02449871036421123 -0.002225145250332639 -0.003397110666726158 
0 0 0 0 0 
-0.01948490746883478 -0.003588218722277309 0.01773235387146188 -0.001057291285026937 -0.004149817614745447 
0 0 0 0 0 
0 0 0 0 0 
-0.1465900284632275 0.4343901814365918 -0.03052263134412547 -0.1721817234671002 -0.01248042619993107 
0.03881806271719665 -0.05129765188747860 -0.02091574169547579 -0.008065499594502026 -0.009735164271679763 
0.03881806271719665 -0.05129765188747860 -0.02091574169547579 -0.008065499594502026 -0.009735164271679763 
0 0 0 0 0 
0 0 0 0 0 
0 0 0 0 0 
-0.006484825517268819 -0.002860078666307810 0.02490136946480647 -0.0003538287641099566 -0.01289862335349553 
0 0 0 0 0 
-0.003831519471202213 -0.005518246295327921 0.02299818472851948 -0.0005969098722938518 -0.006406870600748199 
-0.01375024779908519 0.008402574692632794 -0.01418976105964364 -0.004073070503690015 -0.002291287020764153 
-0.04046493659599350 -0.1013139042374573 -0.004170881137258985 0.1128945660990020 -0.01478939076437497 
-0.001216027773403473 -0.03349840750037243 0.06532215491229884 -0.01055047719114045 -0.03507153163620169 
0 0 0 0 0 
-0.08296052881232730 0.2484586091840673 -0.02046627749164293 -0.1157074963617525 -0.06258672555981665 
-0.02137258915838565 0.05660779141718156 -0.006428916511814133 -0.01105539048769001 -0.009212419255825010 
0 0 0 0 0 
-0.001004254970277534 -0.0007710525461681519 0.01384456965703179 -0.001323313167144929 -0.01059465289556685 
-0.003435251630716537 -0.06587573435679554 0.05810875278529532 -0.0009456773942485034 -0.006604369093774180 
-0.003435251630716537 -0.06587573435679554 0.05810875278529532 -0.0009456773942485034 -0.006604369093774180 
-0.004116078127580320 -0.05263358194959213 0.04441535129935342 -0.005015967111596450 -0.01293980039616690 
-0.006457656699392509 -0.06451084751424827 -0.008278222080190693 0.03219855270644520 -0.003487662868098504 
-0.002231349464457709 -0.01213034897275030 0.05009622345274338 -0.005811449266658266 -0.04843694284852309 
-0.0006808264968637830 0.01324215240720341 -0.01369340148594190 -0.004070289717347945 -0.006335431302392719 
-0.0006808264968637830 0.01324215240720341 -0.01369340148594190 -0.004070289717347945 -0.006335431302392719 
0.09161841865362650 -0.01162589658700016 -0.01889833879789686 -0.01750947694828007 -0.01001430617837179 
0 0 0 0 0 
0 0 0 0 0 
0 0 0 0 0 
0 0 0 0 0 
0 0 0 0 0 
-0.02541945305026342 -0.02221706470425504 0.1078639594649193 -0.01691219142486259 -0.1099794997014100 
-0.02082601581825125 -0.01393853195863389 0.06906206964243952 -0.009623156574883175 -0.03390490462809415 
-0.02082601581825125 -0.01393853195863389 0.06906206964243952 -0.009623156574883175 -0.03390490462809415 
0 0 0 0 0 
0.3815539246863292 -0.09559773760392840 -0.1338136333585092 -0.005377744875932055 -0.02121181116122050 
0.02483219539213681 -0.02486437268859808 -0.003107689585460965 -0.02580819212663347 -0.01634728790867837 
0.09512457901348727 -0.06692546249573664 -0.02513392615281711 -0.03523313729298447 -0.02915103333585763 
0.0002387557084452870 0.04503819233743395 -0.05613837781966982 -0.0002248544884561760 -0.004743987254200084 
0.04127626386914675 -0.04193801568840574 -0.007148610431622235 -0.02681306572393098 -0.02021898723181055 
0 0 0 0 0 
0 0 0 0 0 
0 0 0 0 0 
0.2561487041264046 -0.06192578585112579 -0.01956181317950153 -0.02369637471015423 -0.09432915530027294 
0 0 0 0 0 
0 0 0 0 0 
-0.003342823678965623 -0.01957246203235668 0.02256637234257796 -0.002142201019584802 -0.01472240054658623 
-0.01356893236473725 -0.05265450346833200 0.06488222805512530 -0.004687334472977230 -0.02817575212415526 
-0.005795793938719076 -0.009660689289827324 0.01619441507916712 -0.002062525367430646 -0.008000862642692716 
-0.01575223310544933 -0.009348928993697004 0.02091652652570554 2.442148457249601e-05 -0.002660663492004926 
-0.01575223310544933 -0.009348928993697004 0.02091652652570554 2.442148457249601e-05 -0.002660663492004926 
0 0 0 0 0 
-0.008153835407323368 -0.1224990782732549 0.1903356779061368 -0.005167823075476693 -0.05156809057518150 
-0.02554200259772165 0.08741086226546396 -0.06404351175338100 -0.01342348013498873 -0.01337512460617459 
-0.02554200259772165 0.08741086226546396 -0.06404351175338100 -0.01342348013498873 -0.01337512460617459 
-0.01916759623424724 -0.005922290424765307 0.02783287972765630 -0.0001227731047192943 -0.007170916668576565 
-0.007249838284298319 -0.007832104846690145 0.01858158993677802 -0.001331237521336478 -0.01463111482193753 
0 0 0 0 0 
-0.03498219187576294 -0.006206419655073645 0.07926295862926101 -0.04762842102033717 -0.009720524110496023 
0 0 0 0 0 
0 0 0 0 0 
-0.001902055196449061 -0.0008756683644029607 0.02810520291984701 -0.001172586226488651 -0.04626229883618447 
0 0 0 0 0 
-0.002731402115398748 -0.01318582094190689 0.03340744501807604 -0.0006285171340193208 -0.01245729537039852 
-0.0002249973090017723 -0.003973035608168411 0.02179802186109502 7.210734135509682e-05 -0.02062358007913865 
-0.001647105530636305 -0.01423738449380358 0.04765993281107704 -0.006777488258749704 -0.03274508371613046 
-0.03801182206699037 -0.03769556861204473 -0.3327403971594298 -0.02330504238059947 0.2739289204264462 
0.3491451295518487 -0.04583512307183587 -0.07500897378529203 -0.03076370475555762 -0.1118168181719990 
0.2897466101348734 -0.03727619528988019 -0.008924541191566583 -0.04587850046593427 -0.1091496191867127 
0 0 0 0 0 
-0.01326027736039329 0.7959245390836829 -0.9133516299512104 -0.01750474265348812 -0.3170231296590578 
-0.2031595444612407 0.3626552958486714 -0.3388899062486478 -0.1585088405997996 -0.1946854782812949 
-0.5510512576420620 -0.7818362680231355 0.6566391749854732 -0.3214297371638019 0.02769577097953219 
-0.3156947143454831 -0.6597926858894156 -0.5458020722185281 1.329692070777326 -0.6808910867580494 
-0.05397642121143573 -0.3429328758241570 -0.02766812118990413 -0.04250390853420159 0.2689107949827180 
0.6766263267880367 -0.4801435349108151 -0.2647631409576146 0.03469520639923925 -0.5443411864264802 
