solver_type L2R_LR
nr_class 5
label 5 1 3 2 4
nr_feature 4331
bias 1.000000000000000
w
-0.5288480463826801 -0.4759030063214819 -1.318558714453271 -0.6006144844387058 2.045289150390424 
-0.1970650082117340 -0.1686836390690542 -0.5792749669534132 -0.2571122198933538 0.8443723960748880 
-0.05868291706770681 -0.002135151439224749 0.1869420938974972 -0.01680353739296141 -0.06360145529971238 
-0.01621844891894847 -0.005211329707558388 0.03884177667687960 -0.001457535113842589 -0.006850360673362002 
-0.4162760880199615 -0.1854659311087358 -0.4429740557632940 0.1468384489574444 0.8272462180864995 
-0.1375015382356584 0.2803244570248042 -1.214994325623106 -0.1195137838657911 1.094597675487351 
-0.02321830005587766 -0.004856838951193890 0.05930735899572679 -0.003735632412201234 -0.04269603566768453 
-0.5522604408899033 -0.4725885355970328 -0.9496203345522455 -0.1080448791863097 1.462933279146957 
-0.7720308819976738 -0.6750859085791773 -0.9668829470210455 -0.5111319548061021 1.668603356625755 
0.5500824667641173 0.1722862360974580 0.3398994099373424 -0.2004304416795211 -1.001188160799301 
-0.3267538104366986 0.2416932205371853 0.1009923658257449 -0.03066963600977404 -0.1254704047438592 
-0.002773346747633286 -0.01479824942436177 0.02170710989558791 -0.001900139296568755 -0.02016407407517760 
0.06948708486012632 -0.06181492466938988 0.08981559129310134 0.1102602674932007 -0.2508817377138323 
-0.2459989473943088 0.1057575508193497 0.4382165658300412 0.1011836444366060 -0.4620475932991577 
0 0 0 0 0 
-0.02283096141823575 -0.02118359584208071 0.1131664641778839 -0.002443720304818661 -0.05542877748349617 
-0.05331258428303085 -0.1676711832062689 0.4058804119898480 -0.03784655141602100 -0.09691882504896542 
0 0 0 0 0 
-0.05631490448586426 -0.04843412776642173 -0.07842759510870215 0.3693166731749963 -0.09522421261373740 
-0.01769620739107701 -0.01857116422296780 0.1330764287084767 -0.01309882846955199 -0.1094201333223799 
0.1544554277079085 0.2313267311844374 -0.1541146333607856 -0.06046977718749790 -0.04146756638644719 
-0.4630571868021028 0.1212277678967322 0.1845827935927981 0.01890503125763465 -0.4605681731320911 
-0.02103485618818252 -0.01123047879005841 0.02684998285062111 -0.0001856106704652394 -0.006337082829145576 
0.7542136936617744 -0.09045949317707865 -0.008409900576051770 -0.3822147804675790 -0.3504889805676550 
0.2420946755486845 -0.1611467767190179 0.1308011224625121 -0.1074109360825625 -0.1177019111983856 
0.4201235212616881 -0.4834786483399933 0.3914565010566275 -0.006538589569258327 -0.7672241809174464 
-0.5199759864393500 0.7707560013639543 -0.3626850232236816 -0.2667537500485224 -0.2266677997914534 
-0.005518031064842595 -0.01351299900870360 0.02826839518162568 -0.0002025129126293330 -0.002458432405657196 
-0.2682839702294637 0.3209782021022336 0.03070135723196756 0.01102774134840048 -0.1441011909425486 
0.08588716073317748 0.04352292867402904 0.3695932647493274 -0.3679952045620142 -0.3583362593213491 
-0.01174665178082943 -0.004429384642921849 0.02862974386099226 -0.003000330207186196 -0.04046098908111941 
-0.02978927754234202 -0.01570463241257777 0.03466977870390850 -7.692771628586706e-05 -0.002803511192507233 
-0.2850516239395618 -0.3072046709569977 -0.05755807614921975 0.7444619854416342 -0.1313684997600903 
-0.2642687869187396 0.06926112900417562 0.1688507479543875 0.2335062412759556 -0.2473314476514940 
0.5231331899233977 -0.05335923987091863 -0.3275873920584804 0.3827704037438101 -0.9944248561893498 
-0.2050956928863987 -0.03697517692814120 0.2347764623786409 0.2213038051861732 -0.3058339089587586 
-0.05675358203068887 -0.1644564123936492 -0.0009744108271244525 0.2937012576993338 -0.2468011324970124 
0.3289190725839983 -0.2479901168581997 0.4612159621941240 -0.2807387096705075 -0.2890725138595549 
0.2479716995724298 -0.1092992280416484 0.1019688207510899 -0.06907605446650330 -0.06514611639331300 
1.000285296799898 -0.3438486148770295 -0.1398352167959756 -0.04264214043759591 -0.5305031215084205 
-0.03941738381343980 0.4568295361516166 0.04063870271404032 -0.4651137562720424 -0.05114318232412379 
-0.4097583766160184 0.1898069727955454 -0.1146709099373493 0.2571782193297281 -0.3060255631415431 
-0.02852968400807520 -0.03024758866218492 0.08201427149533733 -0.02605074316961102 -0.06753760866441692 
-0.008363020668241334 -0.006207184470168907 0.02025740796061466 -0.003526564045590162 -0.02192176554872837 
0.7457508356064811 -0.1933829782781716 0.0007640587696606232 -0.05422404628700927 -0.5570845317581364 
-0.01748281643302325 -0.04132215320920718 0.05538334302871872 -0.003846535153929076 -0.02226288772474395 
-0.3168822487230361 0.2246066400140506 0.5777233147337595 -0.2330547872652806 -0.1953284996098314 
-0.08824637272125063 0.1861665197318078 0.2359248065714563 -0.1114559115901338 -0.2377364879423902 
-0.01842437493181141 -0.008393600212636550 0.1068431830955885 -0.02310785447654688 -0.1598791677821206 
-0.6816575417442867 -0.6005340424036539 1.022308505478938 0.2703235312193985 -0.2210515896078265 
-0.9197844741924924 0.4285287168349597 -0.4551764278280904 -0.4016573758954724 0.8304739402151896 
-0.4249719693430805 0.6681292428882998 -0.2561142450177339 0.03366401978253637 -0.4099581965607264 
-1.315282508182118 -0.6234337996201582 0.2439399313118722 0.4013366888608202 0.2669544229206758 
0.8815677684133756 -1.181706284216127 -0.4091862730363405 -0.3194923234916970 0.2193746709282005 
0.4785203284606978 -1.397807690308531 -0.4391001319663809 0.06123754722390307 0.7290799190506598 
-0.7926137298008650 0.5094500303773261 0.3817264646869392 -0.05515311635760529 -1.074521806584337 
0.5957010572477525 -0.2535362504800879 -0.1427482929850324 -0.1508762843178181 -0.1148572021435150 
0.7878457613871853 -0.2736869125647664 -0.1367862977092337 -0.1290159067136462 -0.3759958743469023 
0.7062604535326492 -0.4433105821588008 -0.09930037579277841 -0.2649632135801950 -0.3423629146742155 
-1.842863936964436 2.559911184937880 -0.7092181577286794 -0.6575160331030694 -0.5656357599944145 
0.8664725432604864 -0.3817985899304671 -0.3488806143459445 -0.3901858559160245 -0.1689097692355329 
0.2977480172744215 -0.2407140937127474 -0.1282729889053506 0.08026317508951601 -0.1074569039758750 
-0.03263331017996270 -0.04157387964203533 -0.3823942233300588 -0.02518247460521730 0.3324858658809395 
0.2417631807329793 -0.01608349357233047 -0.03940921885014564 -0.009071950179355503 -0.08824032932666229 
0.2811476362304428 -0.05721840954781284 -0.005313421196816119 -0.03986580112069864 -0.1113326143562827 
0 0 0 0 0 
-0.03361985556596615 0.05632512081270539 0.2336676198606416 -0.1314565143447572 -0.1216740904925641 
-0.1262553667437289 0.1600160657462758 0.1011224577947613 -0.02791240096299459 -0.1416394194067418 
-0.1428654591861727 -0.5074568989198172 0.1075100838198766 -0.06906418278114254 0.4118540782911451 
-0.04232486662959154 -0.06330906743302393 0.6325977321508645 -0.05212580070773789 -0.6091874322541994 
-0.4394987739325802 0.4507395297987303 -0.1159876393267767 0.07535009987898517 0.03576738823682756 
-0.06803524352873502 -0.3004606161159610 -0.02949873834945416 -0.04927254097503452 0.2675215059515008 
0.05012517203337837 -0.005490811605233834 -0.002703304060846971 -0.006340774896079668 -0.05285945753241249 
0.4389997520318466 -0.1448745382723241 -0.06447854611984376 -0.2126134249066395 -0.1034286181991421 
0 0 0 0 0 
-0.003685428085693878 0.07054959693406301 -3.243422979685951e-05 -0.1171226763073673 -0.1062815719844897 
0 0 0 0 0 
-0.005232101485724163 0.04113312060353226 0.02096667619374630 -0.006406584905018015 -0.06654105857844869 
-0.07730610251477675 -0.2452406352261582 -0.04260609397457547 -0.03682545713351557 0.3345223715325999 
-0.05670572305945251 -0.03146345254076374 -0.01035953657294184 0.2114734915907705 -0.05881597537628343 
-0.01171684070102781 -0.03985293408815123 0.2048298336973722 -0.01471665804856160 -0.1487437127919610 
-0.02226020307524373 -0.1119976657438371 0.4231511687799330 -0.003122868157029463 -0.1374607005167658 
-0.2833142927578976 -0.2314412792420049 -0.03370555762774628 -0.06135295096715848 0.7121455770212711 
-0.2128115782947996 -0.3782079682441716 -0.05910024864091110 -0.1171176383841413 0.3431826498784345 
-0.2321771228976550 -0.2534406983691899 -0.02794400202977665 -0.07398113784391892 0.4516082718669545 
0.2485548572671489 -0.02010047895974903 -0.2378318260457989 -0.006292091258534606 -0.02898611019742458 
0 0 0 0 0 
0 0 0 0 0 
-0.03910884883533947 -0.02879355931615685 -0.4941404817581668 -0.01238793895214364 0.5632156553231610 
-0.08457975663593906 -0.06813625114846313 -0.08022046895617307 -0.1173957470684264 0.1898366367936673 
0 0 0 0 0 
-0.06496932946013594 -0.06232663799620773 -0.1415920503445263 -0.1283915919004093 0.1673931754123685 
-0.006418388764107955 -0.03542607920105935 0.2656124822388131 -0.01061157288744224 -0.1533071447116306 
-0.005010125165154021 -0.0009432467695197500 0.04448041099116470 -0.0004514511605846576 -0.03408621021475267 
0 0 0 0 0 
-0.01893429675282425 -0.01521002686809211 0.05613936138916143 -0.004578079704963527 -0.01648172960569752 
-0.004290918988969801 -0.001870889421649350 0.07947468983173064 -0.001557375760933120 -0.07636573311267822 
0 0 0 0 0 
-0.09176254581972478 -0.02335475647075899 0.1472655772125468 -0.009937146886371867 -0.09155811254130258 
0.1903741461093136 -0.05256513477726833 0.07390672361970561 -0.1126546200857846 -0.1746410278356522 
-0.1135684247950942 0.09518616633296498 -0.1250567044916483 -0.2189570717005230 0.2743902020889530 
-0.09500459954191191 0.1312995121567658 0.01363558817857577 0.3327620666891908 -0.1541907969401934 
-0.2300969608953409 0.7306427248590152 -0.1469408903786283 -0.3206645878547484 -0.1477993014244310 
-0.03743299048585499 -0.02386620377295553 -0.5275982967839236 -0.01521212482403511 0.5477425459372991 
-0.1696831754580669 -0.1987459047188150 0.03193847073265948 -0.1677574787134544 0.4275137349286651 
-0.002906697733288814 -0.0007555449388681901 0.01784961804046374 -0.0008832933515662008 -0.03606682279963486 
-0.1269327897275128 -0.1558535341616383 -0.5486169044933740 -0.05397012100425380 0.7935727956214838 
-0.1184248049076348 0.2996328789894667 -0.001761952900753877 -0.1052352939240222 -0.05736394814106226 
0 0 0 0 0 
-0.004457548262032793 0.0003313679809924400 0.06710263756319199 -0.0008565513904876373 -0.02595034084862843 
0 0 0 0 0 
-0.01350548172664955 -0.01031289573971686 0.06835402022344990 -0.01109812342644038 -0.05506266688476338 
-0.1462726398841247 -0.06335607798612877 0.3054338528556916 -0.02351069391101386 -0.08739526896097516 
0.1911302137543895 -0.07766770988406907 0.1672956523839156 -0.1008420907304059 -0.1818143208799179 
0 0 0 0 0 
0.1092804629768142 -0.01047463434661840 -0.004714346750791371 -0.03055069932381863 -0.06047498617017392 
-0.1316270623938720 -0.006005748045367789 0.05882858018674785 0.3689005755381323 -0.3092204511529333 
0 0 0 0 0 
0.2047253421544947 -0.07518853595603580 -0.01282394871811228 -0.01579227215729011 -0.04322308441732305 
0 0 0 0 0 
0.05808501050740011 -0.009658142198199535 -0.007137959369365334 -0.01918637905909993 -0.04650299687223929 
0 0 0 0 0 
0 0 0 0 0 
-0.002898768154017948 -0.003511111068588593 0.05894756891186696 -0.003138449732863596 -0.1093125553302753 
0 0 0 0 0 
-0.007265160756808255 -0.01957874003343948 0.1334572759019458 -0.01896074719654429 -0.1118327135348344 
0 0 0 0 0 
0 0 0 0 0 
-0.7190829619907052 -0.1304961359620710 0.001479280946825784 -0.1514058160215249 0.5944877693387032 
-0.1325997110380474 -0.1698585480620827 -0.03580879294850604 -0.07019908429782723 0.1790779690136791 
-0.1928270388758263 0.02314506309355680 -0.3230707066035277 -0.05739498276601839 0.6255618107239425 
-0.04044371545943641 -0.04397328854013525 -0.1786880412995078 -0.06031155691174265 0.2609197261759784 
0 0 0 0 0 
0.02431766486634725 -0.005312735245865274 -0.0005387736147054634 -0.007018951648543118 -0.03393438520772093 
0 0 0 0 0 
-0.02301455653821952 -0.04336328435984718 -0.03545762728019943 -0.1407794355775756 0.1058944260830169 
0.1393004892991952 0.006975405066458249 -0.009509492505139197 -0.02315779941494466 -0.1197319591329392 
-0.1748916245935860 -0.02227349517032579 -0.7794488703941769 -0.1750230983933765 0.7114460868393289 
-0.07498878334275517 -0.1233717851535199 -0.05079410988843907 -0.08396720571559624 0.1567299296186407 
-0.08157898536866112 -0.1279258593053341 -0.1676002344585739 -0.06398668050554435 0.2863919910990143 
-0.06368214214241871 -0.02603405184992797 0.3709944192595986 -0.003061094678325190 -0.1978347396570984 
-0.3417200090786893 -0.05174145698045162 -0.01124485099671051 0.6417111332967302 -0.3031420849695746 
-0.2789239122734490 -0.01144730550121920 -0.07586640822379317 -0.06993864967691686 0.2525146503182584 
-0.04933264926717193 0.3229804486647793 -0.2491439182817945 -0.02204436236035735 0.1886162528099026 
-0.3436670604810208 -0.07587633340670415 0.01573686091236919 -0.04027213811633065 0.3758762956691725 
-0.1174083129320950 -0.06172421296570451 -0.08067560876005557 -0.09569967879810601 0.1563775771731523 
0.09435394071592990 -0.008121765889937365 -0.003582509361965212 -0.01050438760765815 -0.06252063713320653 
-0.01527982710803308 0.1033648956773923 -0.06420803953606442 -0.07852885534242085 -0.01514854888087391 
-0.009248360006558964 -0.01091640718433202 0.08497838670762677 -0.001373517706646600 -0.05961435132999041 
-0.02334477049574583 -0.006139283909864238 -0.3742557203495078 -0.0001162776195095653 0.3640529774806075 
0.08987600096227881 -0.03532628499515212 -5.042058400769357e-05 -0.007145092178188574 -0.05181854971223876 
-0.02951362506255122 -0.07347555933984348 -0.08909053011611996 -0.006069709518227474 0.1587930097844699 
0 0 0 0 0 
-0.1535785518843205 -0.1212675404191138 -0.01577469687100927 -0.02332306751952248 0.2420300364522393 
-0.1840290674670226 -0.01488817753618503 -0.1255506120388095 -0.1744443137629177 0.2924141421001880 
0 0 0 0 0 
0.1314050619853640 -0.02565016828975944 -0.009108788284480373 -0.01572744525319384 -0.07519898603858441 
0 0 0 0 0 
-0.1400375316116337 -0.01117411766372982 0.4449207783718852 -0.007945739127438968 -0.2117360991832417 
-0.01143318044039191 -0.009719152426229520 0.2765805028258213 -0.005303162352575524 -0.2076742350558845 
0 0 0 0 0 
0 0 0 0 0 
0.07152288551811213 -0.001719406994531498 -0.003110990673235569 -0.02429354709312419 -0.04985582671898387 
0 0 0 0 0 
0 0 0 0 0 
0 0 0 0 0 
1.094012490497375 -0.2280197970922858 -0.2971395205840553 -0.3779259435759429 -0.1916013504875322 
-0.1150817655280616 -0.04925395797659261 -0.009921073585043646 0.2439947401921880 -0.005520550187762559 
0 0 0 0 0 
0.1385237095354502 -0.07779478343165483 -0.05805616653800866 -0.04700448506418555 -0.02259010284130359 
-0.02822635346628240 0.09327355133181775 -0.1322124770800940 -0.001320749848907012 0.002771430421766972 
0.7055997223226506 -0.1993900679671279 -0.2312020703799107 -0.1097562719749361 -0.05039589831045242 
0.1728028038556735 -0.06425421193565345 -0.01874027859979315 -0.02019622811467128 -0.03215130992344709 
-0.02022538598056855 -0.005168222234498834 0.02044753497751077 -0.0008520957006357914 -0.009796161773123396 
-0.1856191853389633 -0.04594440955630791 -0.1240990102985694 0.3709810035014182 -0.02021772689235830 
-0.05004303388678452 0.1167145867532488 -0.07915819144706777 -0.03703272612739592 -0.01165439064863140 
0 0 0 0 0 
0 0 0 0 0 
0 0 0 0 0 
0 0 0 0 0 
0.02878656460523827 -0.02511422183318515 -0.006359471795052871 -0.01338409761196490 -0.003144256406839286 
-0.03971983173831829 -0.01313222945161590 0.2118562229423679 -0.02733793097913569 -0.1352500253436464 
0.08071588798482647 -0.08478437885934770 -0.002453096117026263 -0.007132478865456721 -0.009336565348319475 
-0.005253193779180512 0.08961300350295533 -0.2500905017939375 -0.01038961848736112 -0.006835552326273397 
-0.03218792639982932 0.02753839652855421 0.04796596712025306 -0.01458025471305636 -0.06833790219953885 
-0.3727332054908089 -0.1581032880611501 -0.1535463971117046 1.024905134920983 -0.08016343802715395 
0.01244905004752045 -0.01025570649881927 -0.003644851523536342 -0.007960035267274738 -0.002552951720281677 
0 0 0 0 0 
0.09773169138555282 -0.01880149124347701 -0.05110022854423578 -0.03462267255182445 -0.01209585117515107 
0 0 0 0 0 
0.05339975957618985 -0.02372078317450536 -0.03224350869848112 -0.01958235464613299 -0.01289115669030241 
0.02526249998649668 -0.03430015187877154 -0.02814028422904118 -0.009398019338073584 -0.006143204361145482 
0 0 0 0 0 
0 0 0 0 0 
0.04573094362000517 -0.01291950858664824 -0.03397053303221354 -0.02728963576043927 -0.009504142653572470 
-0.01221865999961846 0.4136284451716438 -0.2941182468822199 -0.01071620330407939 -0.08639079864838285 
0 0 0 0 0 
0 0 0 0 0 
0.07132257364762626 -0.01663107417535863 -0.01949985984545083 -0.05941021253097022 -0.005177064876523916 
0 0 0 0 0 
-0.05650344001772872 -0.06963277028315024 0.2427148059005168 -0.008481123036238773 -0.06369262166552342 
-0.1232797284952879 -0.08507207950545793 -0.02617902641463868 0.1897899219175705 -0.01730422549139038 
0.09522916434487580 -0.05520977883997248 -0.007821629583483612 -0.05721584236855907 -0.03726600352988180 
0 0 0 0 0 
0 0 0 0 0 
0 0 0 0 0 
-0.04443077920051201 0.3174468874771746 -0.01581784854785664 -0.1162959102437040 -0.02624437815727309 
-0.1290896153511393 0.1411580294968137 -0.01585673452702673 -0.02010354861947657 -0.007507747460270543 
-0.05519684171510263 -0.05315352626736752 0.2040000905705000 -0.04036720633471351 -0.07213090051110228 
0 0 0 0 0 
0.2753591855762355 0.01518703871925949 -0.01344606131393444 -0.1050894012782403 -0.07519859325341353 
0 0 0 0 0 
0.1310513256614212 -0.06186532621156647 -0.03958885674827291 -0.03557053484387554 -0.01991059758160028 
-0.008141705844810635 0.02970493773408156 -0.02145844978489674 -0.002244300220739333 -0.01729599107802490 
-0.007326168989557115 -0.006323860344665165 0.01670219198987516 -0.002045980464774708 -0.005910862135709150 
-0.07422988829295121 0.06690966932203621 -0.03473591220911237 -0.02537495139756684 -0.004078668092306160 
0 0 0 0 0 
0 0 0 0 0 
0.2886418969894151 -0.05172160480038422 -0.03007647521605688 -0.2375041326879622 -0.01548115558176953 
0 0 0 0 0 
0.2325689430967803 -0.005682568889477248 -0.06154238229712726 -0.08596138281479049 -0.04573413022759641 
0 0 0 0 0 
0 0 0 0 0 
-0.2282109512164320 0.2156930360836170 -0.004770376770132675 -0.005623140163437938 -0.007702160198399135 
0 0 0 0 0 
-0.08150484700116614 0.1003144736655727 0.05237768370363383 -0.02651267511747250 -0.01761510269462853 
-0.1130485004608327 0.1054090426933005 -0.01697311715692408 -0.05665376785613001 -0.03450442568346884 
0 0 0 0 0 
-0.001653692538236335 -0.005628774903599326 0.03811128121666084 -0.004090251346691793 -0.02152424397515807 
-0.01171088828044352 -0.002533289041818642 0.01079144277277637 -0.0002580106418623293 -0.002787321681294149 
0.04061705048303668 -0.02795445334019652 -0.01607150191212067 -0.02094008400612055 -0.008094092756287010 
0 0 0 0 0 
-0.006606694129532069 -0.004504789915570621 0.01555088824802503 -0.0001196724495362289 -0.005654680926751546 
0 0 0 0 0 
0 0 0 0 0 
0 0 0 0 0 
-0.03899025658163340 -0.02727028460043532 0.1284594735764026 -0.01890946552233447 -0.01519969739025232 
-0.1364915339278473 0.1810859276902499 0.1461082303497985 -0.1296966832628170 -0.1441937344497825 
0.04541624028488506 -0.03064246190593336 -0.005614726879119384 -0.01167747483580047 -0.02796938093905656 
-0.1495435808308886 0.01833026559232700 0.08029162799281286 -0.007610435806658825 -0.01708332896919938 
0.5041746333567673 -0.08222091067549817 -0.1205205330495602 -0.2598642656606988 -0.04397903479203755 
0 0 0 0 0 
0 0 0 0 0 
0 0 0 0 0 
0 0 0 0 0 
0.03085113518731660 -0.01605850498083601 -0.003241743872006720 -0.01932216763397813 -0.008745568485566173 
0 0 0 0 0 
0 0 0 0 0 
0 0 0 0 0 
0 0 0 0 0 
0 0 0 0 0 
-0.06953360067691930 0.2622504135348576 -0.06266097560345346 -0.02620491310989923 -0.01568959046281128 
0.06793777609834058 -0.01009890653522344 -0.02697835462713383 -0.03627907455638799 -0.01828834364616993 
0 0 0 0 0 
0 0 0 0 0 
0 0 0 0 0 
0 0 0 0 0 
-0.04947109965475128 -0.05962423572585170 0.1928172682425294 -0.05570615094142289 -0.09932760451755822 
-0.3550656198680995 -0.1018897825480909 -0.07510717575925148 0.5200098435122382 -0.09490247073664712 
0 0 0 0 0 
0 0 0 0 0 
0 0 0 0 0 
0 0 0 0 0 
-0.03462765618419822 0.1108308299735231 -0.02698191522295430 -0.02172008673512690 -0.004702893656988791 
0 0 0 0 0 
0 0 0 0 0 
0 0 0 0 0 
-0.08914102770953353 0.1316547925144947 -0.005875176330855525 -0.01949100474343844 -0.01690706530736341 
-0.008710699029373582 -0.003795324232618541 0.02174275953258897 -0.0002502077516688998 -0.004074063320394221 
0 0 0 0 0 
-0.04979033937746373 -0.03228964970313700 0.1302640941744955 -0.005464457549160450 -0.06566467202016531 
0.1482327973468407 -0.05028298094828697 -0.009034006316863755 -0.03657997520562829 -0.03742196672985422 
-0.04216265763771137 0.05477382846042654 -0.005379542576541171 -0.005919490930878602 -0.006405081923501455 
0 0 0 0 0 
0 0 0 0 0 
0 0 0 0 0 
0 0 0 0 0 
0 0 0 0 0 
-0.3261815746430821 -0.3185749827426179 -0.04859898713551167 0.7484056220914479 -0.02075731027481667 
-0.003507060539326787 -0.01838507354892167 0.04400265140754591 -0.0007186526898751789 -0.006023857811758911 
-0.002593857527887101 -0.001263305544037251 0.02853244360489277 -0.001048128823229197 -0.03634152853844723 
0 0 0 0 0 
-0.01673004335102186 -0.001535216749121797 0.04063136916544523 -0.0006769387917142859 -0.01306339113329003 
0 0 0 0 0 
0 0 0 0 0 
-0.003441924412111913 -0.1662838497140572 0.2862557868670958 -0.02011851540705970 -0.03533828255200885 
0 0 0 0 0 
-0.04987065987091893 -0.001387333492211675 0.1196246251227522 -0.01772803600896130 -0.06158054249695656 
-0.1197903514201939 0.1453367816819592 -0.1326547143323839 0.2774025438606132 -0.09155514041759898 
0 0 0 0 0 
0 0 0 0 0 
-0.008138680624993547 -0.01056589238741102 0.04236300404833886 -0.007752826784166575 -0.02510464823669631 
0.3972808779128229 -0.01603731874704259 -0.3754907696287839 -0.007559002928451021 -0.07782133581000375 
-0.1132624923080328 0.2765711775128613 -0.009830727232447697 -0.03986050344706908 -0.02149886530047514 
0 0 0 0 0 
0 0 0 0 0 
0 0 0 0 0 
0 0 0 0 0 
0 0 0 0 0 
0.2756610935002274 -0.04214781658382694 -0.1688842703172373 -0.02017126225682416 -0.01272313034189550 
0 0 0 0 0 
-0.001872066348287983 -0.01139607844066170 0.02787052304768087 -0.001394925732836669 -0.007753090963320370 
-0.005834995574219313 -0.005003159812683170 0.02808846126449273 -0.0001208245374657365 -0.004629312249663970 
0.001301827286309771 0.09303915090663015 -0.1686938751141879 -0.0006812679539890979 -0.009250277597060605 
-0.004731550530344778 0.1047791823894327 -0.1124595748564315 -0.001255461746822783 -0.005477390750144459 
-0.06628932465091399 0.09742888431939631 0.009684211566235702 -0.04116744971924889 -0.07664747819415295 
-0.003794968921537177 -0.4491048171289277 0.3606561335705540 -0.01914235331112965 -0.02479501652714465 
-0.001988210310404973 0.004205949041026290 -0.01467068624404827 -0.01013758130745273 -0.01074889091010503 
0.2312697035384951 0.0001603645572434741 -0.02142032096548731 -0.06736231133001938 -0.02439363487957409 
-0.05693391143509335 0.06183439339894848 -0.004893082488693175 -0.01487696079808962 -0.005888658252290941 
-0.01631455929724727 -0.04520393422122035 -0.01155940068919117 0.05328150196419467 -0.01099890304350146 
0 0 0 0 0 
0 0 0 0 0 
-0.01639298979688456 -0.09782620561812667 -0.02867024463450430 0.1182556520932122 -0.003832654593425612 
0 0 0 0 0 
0 0 0 0 0 
-0.02793990377817061 -0.01625753945351807 0.1682745437756057 -0.03464280269386268 -0.008829996288864045 
-0.2724645700983649 0.3370108477980765 -0.2571325727477648 0.1159228156985824 -0.1034975164631344 
0.2354468155593501 -0.1441101289972841 -0.03044087164235431 -0.05260682944785475 -0.01898771610084355 
0.03416515209799674 -0.02230782545713142 -0.01548255801852873 -0.01184982287739265 -0.01094379849367438 
0 0 0 0 0 
0 0 0 0 0 
-0.01182167764199209 0.02919449004867890 0.01860346863400570 -0.003130055520899146 -0.01774465569408605 
0 0 0 0 0 
0.2925142069729147 -0.02124247551864136 -0.1956686954817995 -0.03049909252016251 -0.04931773849114179 
0 0 0 0 0 
0.06454292325567453 -0.02556740023199039 -0.01869767518866250 -0.02186515018013708 -0.02244643076045586 
0 0 0 0 0 
0 0 0 0 0 
0 0 0 0 0 
0 0 0 0 0 
0 0 0 0 0 
-0.2008067143109305 0.3725384456157799 -0.02770182342458961 -0.1902199887862449 -0.01071053294845156 
0 0 0 0 0 
0.3506797361682467 -0.1729534145291362 -0.04032776009074025 -0.09034487508177250 -0.1248097943815690 
0 0 0 0 0 
-0.002509768662177250 -0.001831251972386283 0.02847970712029624 -0.001798152855176708 -0.02035909684144723 
0 0 0 0 0 
0 0 0 0 0 
0.08454466991129453 -0.09263517384805177 -0.02847934375730081 -0.01494031483005449 -0.01348391386362931 
0 0 0 0 0 
0.04156705652935348 -0.008518011525354516 -0.01997605568025138 -0.02888373912896005 -0.01508247265743794 
-0.04328265078581843 -0.01671910896987330 0.2411766349711927 -0.009546883653356214 -0.1192912745044953 
0.3021412779216356 -0.02441416359658725 -0.1375088203901246 -0.002007327979506086 -0.04025958006163273 
-0.004331965535292217 -0.006330587442905796 0.03072687111742294 -0.003609817978105703 -0.03402325015361936 
-0.005510266055064901 0.02818181114795955 -0.02366665327310364 -0.0009031718676338388 -0.007071893107140794 
0 0 0 0 0 
0 0 0 0 0 
0 0 0 0 0 
0 0 0 0 0 
0.2837603284499288 -0.1331082946787922 -0.01184847567492534 -0.09599849875457918 -0.006437803070041188 
-0.02027199542952340 -0.4423385406488246 0.4392132765931682 -0.009055181464906989 -0.02437777074981429 
-0.004264515860158188 -0.0002757229784069986 0.01361573217558843 -0.001924180365729762 -0.01263427189960009 
0.2991036174043984 -0.03686382586720607 -0.08486554491109352 -0.1036559425507575 -0.1101895990049308 
0.1841243164551576 -0.1310312093473343 -0.1863755595247920 0.1127970210355268 -0.1200948298553684 
-0.009171313213093404 -0.007219270666288404 0.1605324008215398 -0.002513617384644939 -0.1672270039127285 
-0.1318203415688992 -0.09232855187618845 -0.007090189439901961 0.2774673080743222 -0.009878482004139065 
-0.04935981970321390 -0.003326521308522948 0.03715893972573559 -0.0007062796093468134 -0.004122558686688860 
0.2212592417123787 -0.08944810241871806 -0.09659809570718190 -0.06706129422493315 -0.02829961540924664 
0.07871013759718673 -0.06413022971895893 0.1674757097793979 -0.04975959587775685 -0.1791190232359423 
0 0 0 0 0 
-0.3524971779274957 -0.03534999910553641 -0.02214298827668410 0.3761496402282192 -0.02213708351361497 
0 0 0 0 0 
0 0 0 0 0 
0 0 0 0 0 
0 0 0 0 0 
0.1830019285626567 -0.03128944626056292 -0.01745805054890068 -0.04031955771991817 -0.01882358084791635 
-0.1114808617463556 0.1166866874468460 -0.03358730343391874 -0.03164759694282312 -0.02982703320321048 
0 0 0 0 0 
-0.01234526081077153 0.09638908213372095 -0.08706795881677809 -0.006995656197304681 -0.005201797237109202 
0 0 0 0 0 
0.04617777015346868 -0.01971255781473396 -0.03130712280991013 -0.01468480618061685 -0.01011575379473784 
-0.04732189686637024 -0.05403890427979000 -0.03361092409358932 0.1033114261359620 -0.007022892124622135 
0 0 0 0 0 
0 0 0 0 0 
0.02354293120830744 -0.005665570497993494 -0.01642989822912253 -0.01137305836919609 -0.003870232890389725 
0 0 0 0 0 
-0.0002772646624673854 0.07129564478106722 -0.1077647936670625 -0.0002651596156023948 -0.002889080832720712 
0 0 0 0 0 
-0.01377492845493411 0.03096109126290775 -0.02857446216980407 -0.003945315579073101 -0.001624624426938200 
-0.01659070667628356 -0.01678697646023746 0.07026899644487987 -0.006923210863847096 -0.01915592969041564 
0 0 0 0 0 
0 0 0 0 0 
0 0 0 0 0 
0 0 0 0 0 
0.01896712153782792 -0.02661242961878510 -0.007111717856387170 -0.004699401312905987 -0.009460106985710450 
-0.01324753391228026 0.05447767175508209 -0.02001507478649407 -0.002256311288538615 -0.01731193652313498 
0.0005105458767692412 0.08166694475566215 -0.1525550238686629 -0.0002315992156353436 -0.009231711964418880 
-0.01115507875098256 -0.01915652411209386 0.02326351713941992 -0.0007204828488067726 -0.008185381282385431 
-0.06010182025274408 0.02878357686369237 0.03629871911933208 -0.03656548325226836 -0.04900572563435506 
0.07338007644908780 0.08889862954218676 -0.01692303120642356 -0.1939270824194038 -0.04601147408708535 
0 0 0 0 0 
0 0 0 0 0 
-0.03192326756288319 -0.05719793830968101 0.1804184228498751 -0.04685116783648648 -0.1904605643250266 
-0.002348208464189506 0.003534938371906430 -0.01389844773264077 -0.008810514302081370 -0.01581867685592497 
-0.003286579809524435 0.02548110082619272 -0.04262396599618585 -0.006230031007050421 -0.01018785233791246 
-0.01761435272833111 -0.06437892736286163 0.1249620549117501 -0.004167357930962156 -0.01969521293286822 
0 0 0 0 0 
-0.04000333732163667 -0.006551995986937219 0.02079038340673541 -0.0008968033066690598 -0.0001499283396984370 
0.001653351456407787 0.02966164353129994 -0.04772237794467651 4.772972800251574e-05 -0.003292561247948098 
-0.003246533685316444 0.01163021340090022 -0.01316550766085319 -0.002034963622086867 -0.0007920588143531561 
-0.001998283496741648 0.008291622072573905 -0.01697504447645843 -0.004662942957879970 -0.003714455386299478 
-0.001635936717128459 0.007368454226609420 -0.01754845176446815 -0.004335432271862824 -0.002491972365904924 
0 0 0 0 0 
0.3562717903025845 -0.1078242127391359 -0.005873081078066050 -0.08828300752524532 -0.02753543079353955 
-0.05506534669315148 0.1477268664470743 -0.01310957981785869 -0.1142559641029719 -0.03209884726297965 
-0.2417042623117443 0.04935015514872031 -0.01316972509697085 0.1195438937431725 -0.02032244778474986 
0 0 0 0 0 
0 0 0 0 0 
0 0 0 0 0 
-0.01766767747566490 -0.04662307013649754 0.1129894667367222 -0.007795303969975341 -0.04846945742282791 
-0.004907705206923855 0.02775927065866593 -0.01272027816730985 -0.03783236740521020 -0.02219448652910777 
-0.005518031064842595 -0.01351299900870360 0.02826839518162568 -0.0002025129126293330 -0.002458432405657196 
0 0 0 0 0 
-0.04307550968641580 0.02804300817542649 0.04180658815209271 -0.01396446329128885 -0.02224906294119098 
-0.01597317018471167 0.05447373965670786 -0.06587534591978654 -0.0006194840215784737 -0.007261380613236622 
0 0 0 0 0 
-0.01393462279891480 0.05353644952699516 -0.06411785152348569 -0.004401754050967160 7.138162000599156e-05 
-0.02449716797759230 -0.1154164980667550 0.2037495028715261 -0.03495692324833388 -0.03348833387525556 
0 0 0 0 0 
0 0 0 0 0 
-0.1196326998309417 0.3245618384552419 -0.04227393043107278 -0.1020216656105291 -0.05225191116753576 
-0.02866707263558039 0.01924491506402791 -0.004009607254561522 -0.005591701298534056 -0.007669165313272681 
-0.09645735265783083 0.4066841516861246 -0.05270683042485286 -0.1247116841779788 -0.06139363436451437 
0 0 0 0 0 
0 0 0 0 0 
-0.01796716651766158 -0.006484511928943020 0.06645542311685795 -0.003329106333250211 -0.04180492014888823 
-0.04028450255698694 0.2609394686653990 -0.04413090302036604 -0.1022051497541411 -0.03945906120781575 
-0.002965617349360109 0.004436814748162769 -0.01756214320161558 -0.007192131050405906 -0.01199976999532291 
0 0 0 0 0 
0 0 0 0 0 
0 0 0 0 0 
-0.01013024767120413 0.03171286831871865 -0.06420448919837965 -0.02769151978816451 -0.03763810809459912 
0 0 0 0 0 
0 0 0 0 0 
0 0 0 0 0 
0 0 0 0 0 
0 0 0 0 0 
0 0 0 0 0 
0.2266028561181172 -0.08283067885978046 0.01770567385145550 -0.1240986133238221 -0.02148189211539538 
-0.02293894346292084 -0.002505838855187440 0.01250085118609924 -0.0001510644930771794 -0.001077461991833154 
0 0 0 0 0 
-0.03696205205567916 -0.07611920819399212 -0.03062974336763048 0.07982271228566147 -0.01488865244211456 
-0.07533650821583127 -0.05762009305950166 -0.02284986895182969 0.3972390789668616 -0.01108676485428882 
-0.01208267346090642 -0.001057608109357130 0.02999355666505510 -0.0005007124389388573 -0.005605870794746770 
-0.001726776698782235 -0.004611403954116257 0.03848323318584797 -0.002800200017440563 -0.02481913614683787 
-0.02770865207772241 -0.08508596295727967 -0.02731353633002619 0.08825461493066357 -0.01588311042357667 
-0.09473179668854922 -0.07070818754520250 -0.05363574969594810 0.3372611266311836 -0.02279201015597359 
0.01560456603034890 -0.02596911993029861 -0.003769580080144297 -0.007112232097057723 -0.008832163667693915 
-0.09245706819016189 -0.008817188236694728 0.3440822253636698 -0.07265105657125331 -0.1021692261300528 
0.3005718570659478 -0.06677020805180035 -0.01378698366827450 -0.03212882231691699 -0.1952385844326417 
-0.6039900771822365 -0.05783062837795237 -0.02337143430474317 0.6963247413159922 -0.006710284999796242 
-0.04020310561124568 -0.01048306675022054 0.3179341257226458 -0.04601163218968023 -0.1359932289978807 
0 0 0 0 0 
0.06741316740421986 -0.02287905526183079 -0.01463542297701352 -0.04431105782625596 -0.004741273176225228 
0.1553681662622594 -0.07451768997783777 -0.008707616189015260 -0.06265321015787040 -0.004702465141223094 
-0.005465934082227098 0.01963428898931668 -0.01741054002165000 -0.01008006240615002 -0.001366786356499937 
0.1779029968478494 -0.08155461082596742 -0.01612426597295989 -0.1082103117836728 -0.05518386689295949 
0.04138930369133616 -0.05958621458898099 -0.003912688005612457 -0.01643014396698525 -0.01439599857395542 
0 0 0 0 0 
-0.09795415609276063 -0.1114770031711682 -0.01718609134746723 0.1512533566500675 -0.002986715893581592 
-0.009298576833221730 -0.006708771105545613 0.07187886347608680 -0.002262648905779908 -0.01084515042823433 
0 0 0 0 0 
0.04797653775111101 -0.02028395343783518 -0.02572792415525533 -0.06524099963047783 -0.008180698687597375 
0.1257265167839176 -0.03797183337023020 -0.01775601690630964 -0.09379523412586117 -0.03740601726783569 
0 0 0 0 0 
-0.05363157542578814 0.1371276488801570 -0.01157335395921827 -0.09932440809065704 -0.004374732347277689 
-0.1561017793786171 0.7077539165294989 -0.05785979948018048 -0.5622648970854419 -0.03903878457138860 
0 0 0 0 0 
0 0 0 0 0 
-0.2306312431467414 -0.02910779338270281 0.3744166839796304 -0.01030405756589129 -0.06818394143033042 
0 0 0 0 0 
0.01794857320713116 -0.02641372645054478 -0.01097692746051673 -0.003461382465461323 -0.008660202698288367 
-0.03036989119810350 -0.08338019429281919 0.2792643462488902 -0.03928839674222122 -0.06333006881852447 
-0.09776741028323632 -0.005934121652149793 -0.007326910032269168 0.1313375009548453 -0.006054168906462826 
0 0 0 0 0 
0 0 0 0 0 
-0.1121140671339843 0.3535449714859134 -0.04042693458156596 -0.04532090672454244 -0.04497235912856859 
-0.005728816487235078 0.01596339033887718 -0.02190500476980500 -0.007188515582007809 -0.01085795045806636 
0 0 0 0 0 
-0.002442711872095329 -0.01543136666029269 0.03845691517069850 -0.008448177809379682 -0.02299831715623280 
0 0 0 0 0 
-0.06957451831243672 0.1628441100301307 -0.006953352318427052 -0.01521105992102962 -0.04087892144397928 
-0.1065958349428784 -0.1695716032122185 -0.05373456840224695 0.3626613872901033 -0.02967623263882371 
-0.005191919822599054 0.06123587284209574 -0.1020243604791194 -0.003511511572827983 -0.01918204851000199 
-0.004921892228844971 -0.005833008263649997 0.01133215493134415 -0.001914585008453843 -0.005223141682387284 
-0.07542836429614105 0.04297056051882006 -0.002366789999307538 -0.002855774292496241 -0.007888238072200150 
0 0 0 0 0 
0 0 0 0 0 
-0.1725030531397448 0.1858444575158823 -0.01306854342758663 0.06435735023902628 -0.02805808565700789 
-0.01969931272226360 -0.2136304126166385 -0.04924405497762675 0.2654857180906791 -0.03586334341119370 
-0.01749890758235129 -0.02457971865549665 0.1172967916694707 -0.02550573521443071 -0.05040361352261065 
-0.02180087500676319 -0.02054824382632959 0.1215560034149674 -0.02169244218592365 -0.01315238726144993 
-0.05579970010459381 0.06993142807711984 -0.01361137526195389 -0.01538972707734655 -0.007485083998243134 
-0.01208608767482236 -0.01325300270276338 0.04869781048891690 -0.007133090557826461 -0.03246124303266137 
0 0 0 0 0 
-0.08524814930604539 -0.07810154419988388 -0.08744401118179480 0.2981017866958448 -0.01652384722484851 
-0.03084670178275710 -0.03268939121070362 0.1170087573522400 -0.01833152559233513 -0.1035462779742433 
0 0 0 0 0 
0 0 0 0 0 
0.3928556794164672 -0.1049939235052940 -0.009127584417969122 -0.1931023372135727 -0.01844100362029800 
0 0 0 0 0 
0 0 0 0 0 
-0.009435829897467433 -0.009940582884980516 0.04827283967656072 -0.004612364634386027 -0.01428548577806222 
0.03281294282193799 -0.007434703675899063 -0.02052804815350889 -0.03374050144148239 -0.01314387090566199 
0.2012770603585720 -0.04348209757938615 -0.1577941262871070 -0.01595669076026256 -0.02377958119844482 
-0.009668838745669310 0.0004082883022185741 0.01797872024009389 -0.001548447664357915 -0.01169887517721910 
0 0 0 0 0 
-0.05839912475514955 -0.005791439947003998 0.05933443521255523 -0.002250585052471148 -0.01229869836448620 
-0.1152167674723956 0.3062361108045285 -0.05223218251482246 -0.07157686458147049 -0.01256524665091387 
0 0 0 0 0 
0.2567761943203171 -0.1367253970832702 -0.05843275839949572 -0.08779160106759523 -0.01067294162262989 
0 0 0 0 0 
0.02091127178379759 -0.01059657892904031 -0.01693034879632854 -0.01739712596870912 -0.008215582096148191 
0.07163332877769830 -0.08958563428414208 -0.01234896469256453 -0.01772601034036806 -0.03729608245633603 
-0.07179203704317653 -0.02079275063431599 0.2326544423376730 -0.02350963322118937 -0.08329163871114814 
0.09424860744974327 -0.04734875727319581 -0.05219833144622852 -0.09638826969468880 -0.02926407465738201 
0 0 0 0 0 
0 0 0 0 0 
0.3315708678411291 -0.2917912310005592 -0.04199435894833935 0.2817844960370019 -0.03226113125264722 
0.04463794332482219 -0.06339950101843897 -0.006998872779314862 -0.004925536854684583 -0.01494239289090149 
-0.1460374716751895 0.3718964335593255 -0.03259889389040221 -0.1539739409153590 -0.01139444031545281 
-0.02394491046069060 -0.03477273978561350 0.1336135705116208 -0.02782038466174338 -0.01877043054523192 
0 0 0 0 0 
0 0 0 0 0 
0 0 0 0 0 
0 0 0 0 0 
-0.006873921419428785 0.006786901443317778 -0.01270880390839597 -0.004525821453999055 -0.002509870211914096 
-0.1729798359127744 -0.2791038176428573 -0.04562965699813185 0.3197912118844860 -0.05209360101433339 
0 0 0 0 0 
-0.007514736043360209 0.1378186506697221 -0.03204092139958675 -0.1119377356757647 -0.01227197915928107 
-0.01070844213340519 0.1281097131987666 -0.1402786884025940 -0.01294939037466183 -0.02741898716204956 
-0.05204952361264500 0.1711841066069520 -0.007568005918704416 -0.09715148804914353 -0.02749264498205271 
-0.01174871560230784 -0.04739748477591629 -0.01464841466737449 0.04115058273340319 -0.007240085259751388 
-0.003107779499926321 -0.003686415658568486 0.02176866913363577 -0.0009993574493736730 -0.005893924642762442 
-0.03106608880864713 0.03804678204622444 -0.007739677835944989 -0.03087215199215662 -0.009730982683142165 
0 0 0 0 0 
0 0 0 0 0 
0 0 0 0 0 
0 0 0 0 0 
-0.02852968400807520 -0.03024758866218492 0.08201427149533733 -0.02605074316961102 -0.06753760866441692 
0 0 0 0 0 
0 0 0 0 0 
0.3485022057725920 0.02676439798977075 -0.1822376428193071 -0.004442551630850843 -0.02243802481069862 
0.08632114221571972 -0.02436314103155250 -0.01541746402694640 -0.01019925799129008 -0.01758073701453163 
0 0 0 0 0 
0 0 0 0 0 
0.2670263352389802 -0.03626321736969248 -0.09403046487910100 -0.09635694810953780 -0.04199961576329436 
0.02527955599458728 -0.006943088939828301 -0.01246556860733539 -0.01485332107990089 -0.007659411077379232 
-0.04641072241503648 -0.009333978529635379 0.2627554536885695 -0.03151768813472843 -0.1883577998317610 
0 0 0 0 0 
-0.004226573023115289 -0.01970599411689413 0.02448313618044497 -0.0005981651491876836 -0.003779789393672339 
0 0 0 0 0 
-0.03123710509653057 0.08573146755962116 -0.06064255674410641 -0.01539152624008721 -0.01214084158119705 
0 0 0 0 0 
0 0 0 0 0 
0 0 0 0 0 
0 0 0 0 0 
-0.002743620943147332 -0.001600125821643057 0.02500351581108780 -0.0003405366539424939 -0.02209003178502434 
-0.003330983983836063 0.03003229037159726 -0.03216791695539412 -0.001837646083226788 -0.01165867633659582 
0 0 0 0 0 
-0.4906896213108731 0.1733804598729769 0.02757506817487312 -0.3162139758219473 0.1153072008688753 
0.7366772868971525 -0.3998876492492214 -0.9285918941858765 0.01738965139292217 -1.166696836350786 
-0.02696447347907185 -0.2332091526500780 0.08421322092431907 0.2465249708941348 -0.1476960569460281 
-0.5121484006833753 0.4434043707721534 -0.2495287138236892 -0.1860624955595424 -0.3871224963161966 
-0.7456373915372515 -0.5860972480977793 1.354766208269820 -0.6598202757409525 -0.5344760835253953 
0.3792003278344438 0.02739922957582893 -1.269374102237196 0.5569585751067793 -0.8811201357860557 
-0.1025877670503302 -0.3258570707712008 -0.2637822770140745 -0.1649215566043276 0.5878710647984564 
-0.02226020307524373 -0.1119976657438371 0.4231511687799330 -0.003122868157029463 -0.1374607005167658 
-0.2000122554381306 -0.2354813248421182 -0.3097026201441200 -0.2616745096957652 0.6074862925882865 
0.2245201230159329 -0.1352868695676038 0.03280662737650487 -0.2205434297575013 -0.06484515437445362 
0 0 0 0 0 
-0.2789239122734490 -0.01144730550121920 -0.07586640822379317 -0.06993864967691686 0.2525146503182584 
-0.3014373803991177 -0.07661239050188955 -0.2062262207988651 -0.2701439925610237 0.4487917192733403 
-0.01527982710803308 0.1033648956773923 -0.06420803953606442 -0.07852885534242085 -0.01514854888087391 
0 0 0 0 0 
0 0 0 0 0 
0 0 0 0 0 
-0.007514736043360209 0.1378186506697221 -0.03204092139958675 -0.1119377356757647 -0.01227197915928107 
-0.03263331017996270 -0.04157387964203533 -0.3823942233300588 -0.02518247460521730 0.3324858658809395 
-0.2598453637458595 -0.05838665872690112 0.1195814743529912 -0.1389501935590265 0.1208429382958483 
0.2811476362304428 -0.05721840954781284 -0.005313421196816119 -0.03986580112069864 -0.1113326143562827 
0 0 0 0 0 
0.1514900125967891 0.3895503209932205 -0.5020631574209931 -0.2855068412301900 0.1556125775269641 
-0.2510921277074322 0.2763455344818003 0.1048481500845916 -0.2040252001005156 -0.2617923180105402 
-0.4766581364025398 -0.3827225395323106 0.9616286751423812 -0.5193866946564407 -0.3280833470282258 
-0.1717561672212944 0.7622241167669063 -0.01844486379794669 -0.1208305239075498 -0.2460514382235369 
-0.06803524352873502 -0.3004606161159610 -0.02949873834945416 -0.04927254097503452 0.2675215059515008 
0.8234660080802441 -0.6457625963776182 -0.2318358718741189 0.07275355011359418 -0.6995250906488397 
0 0 0 0 0 
-0.05670572305945251 -0.03146345254076374 -0.01035953657294184 0.2114734915907705 -0.05881597537628343 
0.1373992407701007 -0.1710832251297172 -0.3721882404318454 -0.5261155995493500 0.1026496165732269 
-1.042245424561624 -0.06499156295546259 -0.1016037022701656 0.02426288061087840 0.8574331073336987 
0.2910336345517958 -0.2751038719635112 -0.1742665033606866 -0.09225852860946408 0.2608513024793273 
-0.009735039455444853 -0.07095900916227323 -0.5750104673158789 -0.02219628512112025 0.3960227333935001 
-0.2506208984064269 0.1331370991002165 -0.07484402805892187 -0.1805093359255593 0.3548174074350448 
-0.1294167216871648 0.4271183887533967 -0.1566327987952232 -0.1800188417030076 -0.1506086844816036 
-0.1653457433842640 -0.1251811671219773 -0.2056698224616972 -0.2426913267428653 0.3591861145439569 
0.3928556794164672 -0.1049939235052940 -0.009127584417969122 -0.1931023372135727 -0.01844100362029800 
-0.3365712755203887 0.3477864279148922 -0.07247909443268889 0.09727652872124798 -0.01813413587670790 
0 0 0 0 0 
-0.3192231716230514 -0.3822912979448621 0.6984779528562104 -0.2089018497255437 -0.1848557063374880 
-0.1135684247950942 0.09518616633296498 -0.1250567044916483 -0.2189570717005230 0.2743902020889530 
-0.05686629391931518 -0.2219897063527321 0.2575720604205108 0.09300228825711620 -0.04644433326113420 
0.3274754133421418 -0.07881403712889122 -0.1567327621738374 -0.02039868335949371 -0.06620221521811946 
-0.2258552477575295 -0.1497377037036609 -0.009747375147191694 -0.1152475314153916 0.4559427448148891 
-0.9653911071158527 1.660175389040408 -0.4643935245425269 0.2464131802725341 -0.4933819398760822 
0.2885433725411780 -0.1737608344967931 -0.06400749075856772 -0.08124109177625596 -0.01145490551591580 
0 0 0 0 0 
0 0 0 0 0 
0 0 0 0 0 
0.5116766505714290 -0.2485624793709583 -0.06617587865483213 -0.09483889392819850 -0.09168116722813695 
0 0 0 0 0 
0 0 0 0 0 
-0.007265160756808255 -0.01957874003343948 0.1334572759019458 -0.01896074719654429 -0.1118327135348344 
0 0 0 0 0 
-0.3481333402558585 -0.2299340628733153 0.5373737784028891 -0.003319633067648190 0.3378716404835390 
0.1754491032390163 -0.02395894926308865 -0.001303671085147109 -0.02854990652379531 -0.1213122608830889 
-0.3056595885828830 0.09147517939363696 -0.1413004458809423 -0.2195273879607713 0.2916086414913179 
-0.08157898536866112 -0.1279258593053341 -0.1676002344585739 -0.06398668050554435 0.2863919910990143 
0 0 0 0 0 
-0.08678293450629630 -0.01711520375974340 -0.004455786682496615 0.1946036628812292 -0.08343141804066405 
0.1749871848749513 -0.1143683998972361 0.0001520502869806614 -0.02305022986973681 -0.1068052818413669 
-0.9087091982618538 0.7766105604178613 -0.09930285982658868 -0.4929628150671861 -0.03440180491825846 
-0.3376076193513432 -0.1361557179552988 -0.1413253089098188 -0.1977673812824402 0.5344441785524272 
0.02153214563309016 0.1026088490339440 -0.03325270938162498 -0.05260663515520325 -0.1096910060216849 
-0.1685126985311518 -0.01881476307643979 -0.001695243998411210 0.2791071913390788 -0.1466488769791851 
-0.09785755648163307 -0.02553064257049794 0.2714866825100186 0.1626971167238467 -0.2807360250056100 
0 0 0 0 0 
0.5447045854854166 -0.2133253199016305 -0.3030222786766438 -0.3273797684768797 -0.1323413161201577 
0 0 0 0 0 
-0.02022538598056855 -0.005168222234498834 0.02044753497751077 -0.0008520957006357914 -0.009796161773123396 
-0.1985295306078006 -0.1966552335178338 0.1307712556434706 0.3529065653768170 -0.04505481685640119 
0 0 0 0 0 
0 0 0 0 0 
0.2886418969894151 -0.05172160480038422 -0.03007647521605688 -0.2375041326879622 -0.01548115558176953 
0.08071588798482647 -0.08478437885934770 -0.002453096117026263 -0.007132478865456721 -0.009336565348319475 
0 0 0 0 0 
0 0 0 0 0 
0 0 0 0 0 
0 0 0 0 0 
0 0 0 0 0 
0.2727525240719005 -0.2116082158685286 0.06635924032341195 -0.06518902986727504 -0.1579832174786031 
-0.1163396838933603 -0.2229733542420329 0.4390097472380630 0.09744738932263246 -0.04047451083036513 
0 0 0 0 0 
0.002913770873235972 -0.3145119253112038 -0.04249987007554149 0.2289171034221503 -0.02781497968782871 
0 0 0 0 0 
-0.03109625703999311 0.1617314265470547 -0.02496655902223168 -0.03255243311369438 -0.04474208655735080 
0 0 0 0 0 
0 0 0 0 0 
0 0 0 0 0 
0 0 0 0 0 
0 0 0 0 0 
0 0 0 0 0 
0.04541624028488506 -0.03064246190593336 -0.005614726879119384 -0.01167747483580047 -0.02796938093905656 
-0.04002154917467388 0.2824824759739287 -0.1453007456402786 -0.03115136540430601 -0.05050626748286825 
-0.1023226735350396 -0.04465059282676099 -0.06906294496526082 0.1897868409384706 -0.02401561594346860 
0 0 0 0 0 
0.3516794989139163 -0.05154732426649773 -0.08493441746020980 -0.1638974145385107 -0.01663067660883221 
0 0 0 0 0 
-0.08745193243714428 -0.02133954732608802 0.1590856189949928 -0.04322172114008040 -0.05479294239091216 
0 0 0 0 0 
0 0 0 0 0 
-0.02405911459427009 -0.02190297869848299 0.1117483592183059 -0.01877599943003417 -0.01308447718251003 
-0.02021444833295294 -0.04127474776281711 0.1288836435317475 -0.04538631391554025 -0.06668793987563534 
-0.09038921502068639 -0.09922059745497028 -0.04336742104100798 0.2851293189116147 -0.03540342394116931 
0 0 0 0 0 
0.1482327973468407 -0.05028298094828697 -0.009034006316863755 -0.03657997520562829 -0.03742196672985422 
0 0 0 0 0 
0 0 0 0 0 
0 0 0 0 0 
0 0 0 0 0 
0 0 0 0 0 
0 0 0 0 0 
-0.04987065987091893 -0.001387333492211675 0.1196246251227522 -0.01772803600896130 -0.06158054249695656 
0 0 0 0 0 
-0.04643173960696155 -0.03507174740005328 -0.1135417121434194 0.3712136379833857 -0.07796325629665846 
-0.005191919822599054 0.06123587284209574 -0.1020243604791194 -0.003511511572827983 -0.01918204851000199 
0 0 0 0 0 
0 0 0 0 0 
0.2756610935002274 -0.04214781658382694 -0.1688842703172373 -0.02017126225682416 -0.01272313034189550 
-0.1149264869391311 -0.4466768024256826 -0.08242642387830776 0.5680713685836070 -0.04173808458343276 
0 0 0 0 0 
-0.02915783876155914 0.1144220252103480 -0.07611516125218800 -0.03220079118340298 -0.02870273655889667 
0 0 0 0 0 
0 0 0 0 0 
0 0 0 0 0 
-0.01609126481027589 -0.1333315180634057 0.2426881700397820 -0.1035834793590307 -0.03247275649274155 
-0.1419517305955224 0.4774267252494401 -0.01296959958931854 -0.2125162082436905 -0.02328556647284762 
-0.004459877694457656 -0.01711315640870334 0.04843099035681821 -0.02253102078180830 -0.03629498295659264 
0.2354468155593501 -0.1441101289972841 -0.03044087164235431 -0.05260682944785475 -0.01898771610084355 
0.1793515503585315 -0.03563162000791638 -0.04136437696350268 -0.003052888671882783 -0.01703671774873641 
0.3021412779216356 -0.02441416359658725 -0.1375088203901246 -0.002007327979506086 -0.04025958006163273 
0 0 0 0 0 
0 0 0 0 0 
0 0 0 0 0 
0 0 0 0 0 
0 0 0 0 0 
-0.2008067143109305 0.3725384456157799 -0.02770182342458961 -0.1902199887862449 -0.01071053294845156 
0 0 0 0 0 
0 0 0 0 0 
0 0 0 0 0 
0 0 0 0 0 
0 0 0 0 0 
0 0 0 0 0 
-0.2646764048474131 -0.002669185093120651 -0.03173975471824350 0.2348805246006235 -0.05949904679547780 
0.2837603284499288 -0.1331082946787922 -0.01184847567492534 -0.09599849875457918 -0.006437803070041188 
0 0 0 0 0 
-0.009171313213093404 -0.007219270666288404 0.1605324008215398 -0.002513617384644939 -0.1672270039127285 
0 0 0 0 0 
-0.1985538870000636 -0.1640937725952788 -0.05391114989855240 0.4085494785201435 -0.01822914679994217 
-0.3330855293627015 -0.01762368266623604 -0.008932951911622992 0.3483788959183600 -0.02080931084243401 
0 0 0 0 0 
0 0 0 0 0 
0 0 0 0 0 
0 0 0 0 0 
0 0 0 0 0 
0 0 0 0 0 
0 0 0 0 0 
0 0 0 0 0 
0 0 0 0 0 
0 0 0 0 0 
0 0 0 0 0 
0 0 0 0 0 
0 0 0 0 0 
0.7879448706668962 -0.1713149087640718 -0.1392113103126867 -0.3544740531799401 -0.1010560730393542 
0 0 0 0 0 
0 0 0 0 0 
-0.04000333732163667 -0.006551995986937219 0.02079038340673541 -0.0008968033066690598 -0.0001499283396984370 
0 0 0 0 0 
0 0 0 0 0 
-0.05506534669315148 0.1477268664470743 -0.01310957981785869 -0.1142559641029719 -0.03209884726297965 
0 0 0 0 0 
0 0 0 0 0 
0 0 0 0 0 
0 0 0 0 0 
-0.01471541803114452 -0.009847521807463011 0.04379110520901828 -0.002430515931554027 -0.001923585019653074 
-0.03319948851203210 -0.1232018170228363 -0.05212392380706753 0.2014138447024168 -0.007738145983901548 
0 0 0 0 0 
0 0 0 0 0 
0 0 0 0 0 
-0.07744471116914825 0.08820823372247331 -0.01487283093309953 -0.04656102386121975 -0.01360252150199896 
-0.01831521953753495 -0.1179903896741547 0.1505239333873853 -0.06548452754000185 -0.02798127173694770 
-0.1863219742321764 0.6328359022247244 -0.07672979691076826 -0.2561790906695001 -0.05085350152326855 
-0.01013024767120413 0.03171286831871865 -0.06420448919837965 -0.02769151978816451 -0.03763810809459912 
0 0 0 0 0 
0 0 0 0 0 
0 0 0 0 0 
0 0 0 0 0 
-0.03824556666250820 -0.04376719528456839 -0.02253477011075815 0.06624719547589761 -0.01463451720360205 
-0.03696205205567916 -0.07611920819399212 -0.03062974336763048 0.07982271228566147 -0.01488865244211456 
-0.02770865207772241 -0.08508596295727967 -0.02731353633002619 0.08825461493066357 -0.01588311042357667 
-0.3563353526604658 -0.5279423276973437 -0.1165995061745841 0.9612926293906998 -0.08097771930150645 
0.2319846666558630 -0.03824208158813312 -0.02900888154886916 -0.08943357544009200 -0.04253065494873449 
0 0 0 0 0 
-0.1622883348461389 -0.06641751366917042 -0.01676761687223278 0.1052130470322068 -0.02579084064278406 
0.1091525414162856 -0.05104490703168979 -0.002333150385618744 -0.07066476647911625 -0.01763446765602488 
0.1473158266645193 -0.05692393045706491 -0.003789115259840729 -0.06868964821875240 -0.04763601585434816 
0 0 0 0 0 
0.3378172023756127 -0.01673483815948689 -0.05685008305670967 -0.2141111052941775 -0.01484592560720755 
-0.09795415609276063 -0.1114770031711682 -0.01718609134746723 0.1512533566500675 -0.002986715893581592 
0 0 0 0 0 
-0.1113035034414685 -0.02213207835216189 0.3817115739025562 -0.01210264161449681 -0.1090781058455310 
-0.2577318048238672 -0.02491783026771391 -0.05240003187551404 0.4925840960848121 -0.03645864648912564 
0.1825023852190113 -0.07037803943798267 -0.03550663029874451 -0.1111260657302634 -0.04816521338946311 
0.2925142069729147 -0.02124247551864136 -0.1956686954817995 -0.03049909252016251 -0.04931773849114179 
0 0 0 0 0 
0 0 0 0 0 
0 0 0 0 0 
0.2575466144781165 0.2281957269073060 -0.02892491428731955 -0.2531949202914732 -0.05637330170085000 
-0.1121140671339843 0.3535449714859134 -0.04042693458156596 -0.04532090672454244 -0.04497235912856859 
0 0 0 0 0 
-0.001104528202336808 -0.01584531098896191 0.002905785631829382 -0.001143577986731777 -0.008004256639830686 
0 0 0 0 0 
0 0 0 0 0 
0 0 0 0 0 
-0.1065958349428784 -0.1695716032122185 -0.05373456840224695 0.3626613872901033 -0.02967623263882371 
0 0 0 0 0 
0 0 0 0 0 
-0.07420032131626040 -0.1074709600150891 -0.003382468376781433 0.1665268387711121 -0.01538749802809224 
-0.04539390629785432 0.2614341198794142 -0.06602339730681953 -0.1939432670340444 -0.05130250444903649 
-0.02180087500676319 -0.02054824382632959 0.1215560034149674 -0.02169244218592365 -0.01315238726144993 
-0.08524814930604539 -0.07810154419988388 -0.08744401118179480 0.2981017866958448 -0.01652384722484851 
-0.009018052316029129 -0.08005700095759079 0.1323233569950843 -0.05532359671843058 -0.03889452457600208 
0.2713907637033453 -0.07888762940149276 -0.007885740554804222 -0.05786340849103435 -0.02054200602778523 
0 0 0 0 0 
0 0 0 0 0 
-0.1152167674723956 0.3062361108045285 -0.05223218251482246 -0.07157686458147049 -0.01256524665091387 
0.09424860744974327 -0.04734875727319581 -0.05219833144622852 -0.09638826969468880 -0.02926407465738201 
0 0 0 0 0 
0 0 0 0 0 
0.1346112285345179 -0.09049626257613602 -0.03134737285793311 -0.01924007972378916 -0.009761983497524187 
0 0 0 0 0 
0 0 0 0 0 
0.3579583405812062 -0.09924500432321509 -0.08918066163850905 -0.004556329882085540 -0.02175138847895237 
0 0 0 0 0 
0.2670263352389802 -0.03626321736969248 -0.09403046487910100 -0.09635694810953780 -0.04199961576329436 
0.2244599026662013 -0.04090790515144178 -0.01527817581812666 -0.02767605505757960 -0.08378006425560366 
0 0 0 0 0 
-0.09245706819016189 -0.008817188236694728 0.3440822253636698 -0.07265105657125331 -0.1021692261300528 
-0.005787680854978635 -0.1122803179743686 0.1692216431259305 -0.007728340595787729 -0.03832909016449460 
0 0 0 0 0 
0 0 0 0 0 
0 0 0 0 0 
-0.03664599637331394 -0.02063861461213535 0.09087875020716202 -0.03285048610453617 -0.01027799138569673 
0 0 0 0 0 
0 0 0 0 0 
0 0 0 0 0 
-0.7664205109349019 -1.038898037029133 0.6655314121172538 -0.1273809084622091 0.2038134409175532 
-0.2598453637458595 -0.05838665872690112 0.1195814743529912 -0.1389501935590265 0.1208429382958483 
-0.5781488163677242 0.5400632622900915 -0.3245392106442400 -0.2066987926376396 -0.5782633836744673 
0.3017242051985783 -0.1637864456535647 -0.4390648517489654 -0.9547510209638681 -0.4273097654373198 
-0.06129346939562638 0.5448989637860231 -0.2137555083396980 0.3386114917181518 -0.9216019030841175 
-0.3927293732514956 0.1294312101102216 0.09507506352334284 -0.02652338961090098 0.06280344951756958 
0.1373992407701007 -0.1710832251297172 -0.3721882404318454 -0.5261155995493500 0.1026496165732269 
0.06141876007985710 -0.01918223356427116 -0.1249046542046676 -0.2420073015702599 0.1675849202475862 
0.1758388699684079 -0.4029397570434045 -0.1285149339988039 0.3549633417324151 -0.2474251695205116 
0.9519747613478444 -0.3499774412534629 -0.3855080128180104 -0.4532361977148263 -0.2255126281974138 
-0.5126412888808713 -0.6053472134190842 -0.06180091995125581 0.4983022637400668 0.5797592003022490 
-0.5093919330661650 0.3508113897074264 -0.1524978297685703 0.06165094094560856 -0.1237616567814426 
0 0 0 0 0 
0.09424860744974327 -0.04734875727319581 -0.05219833144622852 -0.09638826969468880 -0.02926407465738201 
0 0 0 0 0 
-0.005191919822599054 0.06123587284209574 -0.1020243604791194 -0.003511511572827983 -0.01918204851000199 
-0.04180462339305611 -0.04879315030832374 -0.2218618225085191 -0.02769609198986224 0.1652588619682110 
-0.03263331017996270 -0.04157387964203533 -0.3823942233300588 -0.02518247460521730 0.3324858658809395 
0.4552662443256595 -0.4030748459470844 0.4059456543710074 0.1926252216599091 -0.6554479770953510 
0.2417631807329793 -0.01608349357233047 -0.03940921885014564 -0.009071950179355503 -0.08824032932666229 
0.2417631807329793 -0.01608349357233047 -0.03940921885014564 -0.009071950179355503 -0.08824032932666229 
0.2417631807329793 -0.01608349357233047 -0.03940921885014564 -0.009071950179355503 -0.08824032932666229 
0.2417631807329793 -0.01608349357233047 -0.03940921885014564 -0.009071950179355503 -0.08824032932666229 
-0.08600670828347996 -0.1004357401324354 0.05803856903233381 -0.1168069362358333 0.2885591916736138 
-0.09520523116018767 0.08692659440630090 -0.1507847226106537 0.2106813996800321 -0.02183429307387697 
0.2417631807329793 -0.01608349357233047 -0.03940921885014564 -0.009071950179355503 -0.08824032932666229 
0.2109423123636792 -0.1305878280015344 -0.04700474721620666 -0.06618079373540206 -0.01606173561496340 
0.2811476362304428 -0.05721840954781284 -0.005313421196816119 -0.03986580112069864 -0.1113326143562827 
6.529484247310563e-05 0.1180803661375099 -0.03597356273888364 0.0001906154591677718 -0.01201096308482045 
0.6147116671777058 0.07318259795686288 0.2502420984147302 -0.4656191495327170 -0.7536459352070610 
-0.1579523753833280 0.3867560277978158 0.05191457721415167 -0.3833343189846670 -0.4557944372242229 
-0.04114997401476853 -0.01206504859727790 0.4574655973000450 -0.01237590553517945 -0.2274785428619404 
-0.01607554072053524 0.07458886006873026 -0.2435263399639098 -0.1055360779845801 0.3988650868459946 
0.0009335293011128844 0.1113011008130801 -0.02858868594949231 -0.0001089994493083716 -0.06250269480712400 
-0.05416384464767023 0.0004093526453518275 -0.6111512534622102 -0.1751830843694216 0.3480772139312606 
-0.04665069770833930 0.2833506943514073 -0.0007698993857037741 -0.1300209471235822 -0.04998011999907419 
-0.04665069770833930 0.2833506943514073 -0.0007698993857037741 -0.1300209471235822 -0.04998011999907419 
-0.007620071166147446 0.01608163061908818 -0.9102818887860624 -0.01937721311395061 0.6447152269733590 
0.1292628330820223 0.1256796675975400 0.002629362271654339 -0.3696342772055081 -0.2354504549017453 
-0.3046473370626301 0.1195241958763947 -0.3546410077888012 0.4044950493171505 -0.09368609731166949 
-0.1285152582097835 -0.1020708493688668 0.5005453925153070 -0.01820357538933666 -0.1506486347896846 
-0.03079559787528301 -0.02590262630321182 0.2027949650810616 -0.03706413871068431 -0.02022562919643070 
0.2835539139258077 -0.2447312475714910 0.3292624027811915 -0.07460068767427792 -0.1907661978100635 
-0.08067469031244312 0.1614265349383244 -0.001857115864386283 0.1254863334597364 -0.1698269400671896 
-0.08067469031244312 0.1614265349383244 -0.001857115864386283 0.1254863334597364 -0.1698269400671896 
0 0 0 0 0 
0.06958105156411265 0.0002399525030501283 -0.006441519419911770 -0.1705388347860978 0.0001255086299552207 
-0.3488048238297781 0.05253441750011544 0.1052731706468081 -0.08213829535494313 0.1163579904408078 
-0.001939173783222140 0.04859974701552735 -0.008837669224133510 -0.002569035480286939 -0.03739176111674145 
-0.4424889119579311 -0.4310764549924233 1.084865975852479 -0.2084212023100352 -0.4596334215988700 
-0.05670572305945251 -0.03146345254076374 -0.01035953657294184 0.2114734915907705 -0.05881597537628343 
0.08103318853411015 -0.1877427179794390 -0.1512356695155010 0.1543581462096649 0.07843281723069381 
-0.003055904473833788 -0.01622482506846099 0.1476491226866410 -0.006037057079948466 -0.1158957996017624 
-0.2164089980669191 -0.3470036170486640 0.9542081395269019 -0.09317729690306442 -0.3216491170116542 
-0.1449824988634187 -0.1254984805118223 -0.01473834214120266 -0.09633881017316079 0.2110156701118623 
-0.04663421721774993 -0.1742963061663405 -0.01790237886289755 -0.09924759731445461 0.1459735931712526 
0 0 0 0 0 
0 0 0 0 0 
0.02789254942679456 -0.007247822852440296 -0.008738373116611620 -0.02391404679329932 -0.007677406689856301 
-0.09884830664597317 0.2281699541558127 -0.4455538023683529 -0.08063683618909860 0.4257050536388878 
-0.1714208489765196 -0.08107134234607423 0.05415415968960843 -0.1582792069665036 0.3240916907589966 
-0.004907705206923855 0.02775927065866593 -0.01272027816730985 -0.03783236740521020 -0.02219448652910777 
0.1144131777761044 -0.1103970824850157 -0.4654004049102312 -0.06834497384463237 0.5066854663226551 
0.0008811317516096511 0.1087973037119846 -0.01161902336414064 6.716093346598715e-05 -0.05184572033582459 
0 0 0 0 0 
0 0 0 0 0 
0 0 0 0 0 
-0.02029075089820807 -0.007133145976497721 -0.6836980377216938 -0.003357869102461580 0.6725796364573144 
-0.1643373343071276 0.2117283008837506 -0.08598298793541434 -0.2982804247004086 0.1462401059273372 
0 0 0 0 0 
-0.6289605596261479 -0.4744802773401493 0.2583152538164665 0.4060891070792038 0.2555428479686382 
-0.005010125165154021 -0.0009432467695197500 0.04448041099116470 -0.0004514511605846576 -0.03408621021475267 
0.01878338078963179 0.1369870592046265 0.09261068033894912 -0.1996508988395655 -0.1173908155732081 
-0.007468979028961214 -0.01157006108328359 0.07174490315056535 -0.005350501141851340 -0.05565132815031375 
-0.05868291706770681 -0.002135151439224749 0.1869420938974972 -0.01680353739296141 -0.06360145529971238 
-0.01621844891894847 -0.005211329707558388 0.03884177667687960 -0.001457535113842589 -0.006850360673362002 
-0.004290918988969801 -0.001870889421649350 0.07947468983173064 -0.001557375760933120 -0.07636573311267822 
0 0 0 0 0 
-0.004971386283897723 -0.01044850731697482 0.04221614780158619 -0.006969230740415791 -0.05070398525260233 
-0.07521450876775666 0.07648681635969594 0.03913042294940213 -0.01262603258218764 -0.1299357811655056 
-0.001809362415444478 -0.003646397224630919 0.02452843825824892 -0.003296424910835579 -0.03069438298088985 
0.4629869928043288 -0.2642964230075970 0.4004577078798373 -0.1235324155266215 -0.2385283511487290 
-0.1135684247950942 0.09518616633296498 -0.1250567044916483 -0.2189570717005230 0.2743902020889530 
-0.1135684247950942 0.09518616633296498 -0.1250567044916483 -0.2189570717005230 0.2743902020889530 
-0.03998145269547621 -0.08872023420977265 -0.002855742943757174 0.4397725389558472 -0.1178751035775004 
-0.2359543565258256 0.3402299073109342 -0.03535941065188594 0.2800340895172193 -0.1753415926993850 
-0.2272377788081726 -0.1830133480296231 0.07486612287876401 0.2730715088842721 0.08023322058572670 
-0.02626969809829711 -0.02164299149099662 -0.5498305314874702 -0.01448129970544808 0.5516418900918252 
-0.02626969809829711 -0.02164299149099662 -0.5498305314874702 -0.01448129970544808 0.5516418900918252 
-0.2380994750510606 -0.1604336100615331 -0.01841222969396942 -0.04670968072942687 0.4106230673248197 
-0.2258552477575295 -0.1497377037036609 -0.009747375147191694 -0.1152475314153916 0.4559427448148891 
-0.002906697733288814 -0.0007555449388681901 0.01784961804046374 -0.0008832933515662008 -0.03606682279963486 
-0.005818226632258101 -0.005887428008126429 0.03578175167462282 -0.001536399513386104 -0.01742348018978060 
-0.001151909380422234 -0.002875699350792875 0.1035737744892549 -0.004599676368234676 -0.1035192132076469 
-0.01178924788610116 -0.01547545469936434 -1.357242352232321 -0.01239478556563496 1.259169032231822 
-0.1184248049076348 0.2996328789894667 -0.001761952900753877 -0.1052352939240222 -0.05736394814106226 
0 0 0 0 0 
-0.01377605643572871 -0.01319397618379102 0.1676535286938269 -0.005572250418079793 -0.1909434184196186 
-0.004457548262032793 0.0003313679809924400 0.06710263756319199 -0.0008565513904876373 -0.02595034084862843 
-0.004457548262032793 0.0003313679809924400 0.06710263756319199 -0.0008565513904876373 -0.02595034084862843 
-0.1847545439096269 -0.1282157218229265 0.1999645835685419 0.2748212111605168 -0.1779555244329934 
-0.01758452236317418 -0.5688477278255644 0.6187343254573840 -0.01765854217252830 -0.09186692790699401 
-0.006707822523197758 -0.002366520757409706 0.02273138149290154 -0.001107911705347183 -0.01801995569674095 
-0.08741198041949909 -0.09184422175635731 0.5021321764035436 -0.1102872913358422 -0.1953434932504432 
-0.01174994928407293 -0.001372315787482850 0.01925801411340225 -0.0007287272727403943 -0.005724117829047402 
0.2482909226476860 -0.02213355726061320 0.0002976509052959060 -0.08755069770298322 -0.07923922793201732 
0.3306405387534662 -0.1269159963840734 -0.04677255093636343 0.01633060736431047 -0.1810519672953517 
-0.001567683320903092 -0.004525097763737654 0.07879034279857872 -0.004986815640932096 -0.1043910973560329 
0 0 0 0 0 
0 0 0 0 0 
0 0 0 0 0 
-0.03860187963198624 -0.1011501332210136 -0.2057823834811722 -0.03394667859644089 0.2497378712420801 
0 0 0 0 0 
-0.3817365442465487 -0.07190542717515795 -0.0007110758512873187 -0.07752495672412359 0.3111729361642638 
-0.03860187963198624 -0.1011501332210136 -0.2057823834811722 -0.03394667859644089 0.2497378712420801 
-0.1635977969476898 -0.02245538146523535 -0.3122965458232937 -0.04891308205789383 0.6337334556873515 
-0.09344249870812987 -0.02265039225384955 -0.4806486923479797 -0.0001701243156967966 0.5177948573203610 
-0.09344249870812987 -0.02265039225384955 -0.4806486923479797 -0.0001701243156967966 0.5177948573203610 
-0.2566305297593301 -0.1433750876462608 -0.0002627393189131543 -0.08101333816285804 0.2739782678261199 
0.02431766486634725 -0.005312735245865274 -0.0005387736147054634 -0.007018951648543118 -0.03393438520772093 
0.2694282956354123 -0.1274411117453377 0.06588363682684209 -0.1787053814744513 -0.08840394163814656 
0.04154258212384748 0.2865572772387099 -0.01309003235977685 -0.1408121390507914 -0.1548847526934744 
0.1620442323536463 0.09800190304108572 -0.1464237542141273 -0.02931829891553904 -0.1295421042613160 
-0.1087044763040150 -0.04380569179923597 -0.3714868232367395 -0.02003880352792020 0.4632591110673533 
-0.07710522948948120 -0.03623588533873875 -0.07718983099232242 -0.01994471666848685 0.1328286085830900 
-0.07710522948948120 -0.03623588533873875 -0.07718983099232242 -0.01994471666848685 0.1328286085830900 
-0.07710522948948120 -0.03623588533873875 -0.07718983099232242 -0.01994471666848685 0.1328286085830900 
-0.07710522948948120 -0.03623588533873875 -0.07718983099232242 -0.01994471666848685 0.1328286085830900 
-0.08157898536866112 -0.1279258593053341 -0.1676002344585739 -0.06398668050554435 0.2863919910990143 
-0.08157898536866112 -0.1279258593053341 -0.1676002344585739 -0.06398668050554435 0.2863919910990143 
-0.1180616044720804 -0.1882630625061390 0.2454996245106975 -0.09825380550659503 0.05194306885806711 
-0.02239613776287886 0.2650030041319982 0.1168007294683301 -0.03105920778090221 -0.05040855812903237 
-0.3408937137333876 -0.06107808398234239 -0.005970248983218730 -0.03837199881976190 0.3960403697443501 
-0.3408937137333876 -0.06107808398234239 -0.005970248983218730 -0.03837199881976190 0.3960403697443501 
0.01359085639174584 -0.0001049951751568741 -0.005142602957758266 -0.008394701372726010 -0.01216954786591394 
-0.009248360006558964 -0.01091640718433202 0.08497838670762677 -0.001373517706646600 -0.05961435132999041 
-0.02334477049574583 -0.006139283909864238 -0.3742557203495078 -0.0001162776195095653 0.3640529774806075 
0.08987600096227881 -0.03532628499515212 -5.042058400769357e-05 -0.007145092178188574 -0.05181854971223876 
0 0 0 0 0 
0 0 0 0 0 
0.2343520753745122 -0.1945607651519393 -0.2028237823109534 -0.3051276107470516 0.5865048217938403 
-0.03728705494967998 0.2945560570383209 -0.3924191207340070 -0.02291879596622703 0.1237580057360623 
-0.02951362506255122 -0.07347555933984348 -0.08909053011611996 -0.006069709518227474 0.1587930097844699 
-0.02951362506255122 -0.07347555933984348 -0.08909053011611996 -0.006069709518227474 0.1587930097844699 
-0.02951362506255122 -0.07347555933984348 -0.08909053011611996 -0.006069709518227474 0.1587930097844699 
-0.02951362506255122 -0.07347555933984348 -0.08909053011611996 -0.006069709518227474 0.1587930097844699 
0 0 0 0 0 
0 0 0 0 0 
-0.1400375316116337 -0.01117411766372982 0.4449207783718852 -0.007945739127438968 -0.2117360991832417 
0.03085640464816089 -0.2124720645130886 0.002916334289317574 0.1969244973287685 -0.1993732701882265 
0 0 0 0 0 
-0.01143318044039191 -0.009719152426229520 0.2765805028258213 -0.005303162352575524 -0.2076742350558845 
-0.1138362559337423 -0.1711613370683366 0.2984792414832186 0.3196268605046697 -0.3099315767658448 
0 0 0 0 0 
0 0 0 0 0 
0 0 0 0 0 
0.2485548572671489 -0.02010047895974903 -0.2378318260457989 -0.006292091258534606 -0.02898611019742458 
-0.2247728322635970 0.3002027062697104 -0.06134805664220856 0.06352976870078234 -0.1254897825672690 
0 0 0 0 0 
-0.01669654129312374 -0.006531102415475900 0.02442687563363094 0.0001624120145871455 -0.001732361578307939 
0 0 0 0 0 
0 0 0 0 0 
0.006733974004600218 -0.04458663210278319 -0.007152460830329575 -0.003462870040585336 -0.003888709070076943 
-0.09259030225615414 0.08375717741786268 -0.07270534033747535 -0.002659646644150747 -0.01764357602806598 
0.1728028038556735 -0.06425421193565345 -0.01874027859979315 -0.02019622811467128 -0.03215130992344709 
0 0 0 0 0 
-0.1883855258375499 -0.05264420121609197 -0.06570550681137029 0.3672831092320161 -0.03031213746922611 
-0.1364901334094743 0.1493181023728337 0.2228954913878322 -0.09317786675166188 -0.05932410216368513 
0 0 0 0 0 
0 0 0 0 0 
0 0 0 0 0 
0 0 0 0 0 
0 0 0 0 0 
0.02878656460523827 -0.02511422183318515 -0.006359471795052871 -0.01338409761196490 -0.003144256406839286 
0.03277900654952839 -0.06206851785648312 0.04516152437316885 -0.01883065662349533 -0.02749261438773250 
0 0 0 0 0 
-0.007865193266221747 -0.009830271976660806 0.02695274960626736 -0.002190441038854423 -0.009315436395990633 
-0.1083777811705607 -0.1186526163631667 0.3039573443291572 -0.04281094865398825 -0.08255014762304510 
0.01579665728818898 -0.005281722022693524 -0.01614269683900211 -0.003096012225970322 -0.001956302337921059 
0.01579665728818898 -0.005281722022693524 -0.01614269683900211 -0.003096012225970322 -0.001956302337921059 
-0.02912185928771366 -0.03575138089844102 0.09475158649508744 -0.01673608417652993 -0.09018778998034804 
-0.01148492892909862 0.02395361621547179 -0.02123646259993522 -0.004182761245450597 -0.002895641748300055 
-0.007865193266221747 -0.009830271976660806 0.02695274960626736 -0.002190441038854423 -0.009315436395990633 
-0.1395225678374862 0.05217973016660227 -0.009093224864020649 -0.009362989631243537 -0.003105316599838674 
0.4085910291720875 -0.1524007531045387 0.08179143382294468 -0.1695942341716648 -0.05457769288884843 
0.01244905004752045 -0.01025570649881927 -0.003644851523536342 -0.007960035267274738 -0.002552951720281677 
-0.1008134422605124 0.2663154710140421 -0.01347557875598404 -0.04782053871434381 -0.02405181702075682 
0.09773169138555282 -0.01880149124347701 -0.05110022854423578 -0.03462267255182445 -0.01209585117515107 
-0.007943173484286175 -0.003096629744596990 0.02460036418889947 -0.0004380114836046631 -0.007245570744076553 
0.08632114221571972 -0.02436314103155250 -0.01541746402694640 -0.01019925799129008 -0.01758073701453163 
0.01841989254587494 -0.007217629974316657 -0.004813525202438755 -0.01737897752916946 -0.004959560500692273 
0 0 0 0 0 
0 0 0 0 0 
0 0 0 0 0 
-0.02570405056453963 0.02265795579332108 -0.02357504841835317 -0.01976918678810618 -0.007293371355632529 
0 0 0 0 0 
0 0 0 0 0 
0 0 0 0 0 
0 0 0 0 0 
0 0 0 0 0 
-0.05206481859152986 -0.06707574394436183 0.2178999701508252 -0.007255760262389109 -0.02916938276391923 
-0.05206481859152986 -0.06707574394436183 0.2178999701508252 -0.007255760262389109 -0.02916938276391923 
-0.05206481859152986 -0.06707574394436183 0.2178999701508252 -0.007255760262389109 -0.02916938276391923 
-0.1287238105916161 -0.07313567464082663 -0.03726701677597900 0.1767514910167328 -0.02347244316890906 
-0.08426098931731885 -0.03497020222462047 0.1974883942080120 -0.01583487547930790 -0.03033050004652916 
-0.08743678655179367 0.07103250107361342 0.02966703330095617 -0.01922033345882786 -0.03174036804858423 
-0.08426098931731885 -0.03497020222462047 0.1974883942080120 -0.01583487547930790 -0.03033050004652916 
0 0 0 0 0 
0 0 0 0 0 
-0.02716146615582230 0.02215737607217956 -0.02906982458055757 -0.01163467069907521 -0.01139197436452806 
0 0 0 0 0 
-0.08211129555888584 0.3910846534888917 -0.1600204436602688 -0.03290589500398597 -0.01735837937144573 
0 0 0 0 0 
0 0 0 0 0 
0.3079351161597488 -0.1006712112403768 -0.01141883913139606 -0.04164626065425221 -0.07015043256103067 
0.2568351308870446 0.05467239437938926 -0.03418784587301538 -0.1378044512632523 -0.1112833811867462 
0 0 0 0 0 
-0.06785878086759424 0.2267080868420268 -0.005817911147065866 -0.1030052773118398 -0.02288909385546746 
-0.004971030164766382 0.03165278611170900 -0.03156038459654363 -0.001288159073702673 -0.005246259686129033 
-0.009020990323932910 0.01202623605638287 -0.02067392300567167 -0.003584301218660884 -0.001192607925842647 
-0.007326168989557115 -0.006323860344665165 0.01670219198987516 -0.002045980464774708 -0.005910862135709150 
0 0 0 0 0 
0 0 0 0 0 
0 0 0 0 0 
0 0 0 0 0 
0 0 0 0 0 
0.2886418969894151 -0.05172160480038422 -0.03007647521605688 -0.2375041326879622 -0.01548115558176953 
0.2886418969894151 -0.05172160480038422 -0.03007647521605688 -0.2375041326879622 -0.01548115558176953 
-0.01459073097451428 -0.005424719961431422 0.02931087517143804 -0.003463032672811758 -0.01692201685960638 
0 0 0 0 0 
-0.01208267346090642 -0.001057608109357130 0.02999355666505510 -0.0005007124389388573 -0.005605870794746770 
0 0 0 0 0 
0.2325689430967803 -0.005682568889477248 -0.06154238229712726 -0.08596138281479049 -0.04573413022759641 
-0.2616631364042883 0.2527762513077561 -0.008134803463738599 -0.01241203103750538 -0.02531100223207191 
-0.01234205261574703 -0.02096322292132448 0.08837027344255145 -0.01220154576996709 -0.1187246405515239 
-0.03345218518785630 0.03708321522413913 -0.003364426693605922 -0.006788890874067441 -0.01760884203367277 
-0.007486303616649337 -0.009654006894262953 0.01868897630849489 -0.0001229053507938876 -0.003728212559215913 
-0.02580388602662493 -0.01669208585165222 0.04503130732929629 -0.0005005884421924451 -0.01217021516726161 
-0.001653692538236335 -0.005628774903599326 0.03811128121666084 -0.004090251346691793 -0.02152424397515807 
0 0 0 0 0 
-0.02354281615031129 -0.01537256963675249 0.06813552199255973 -0.003289740340934625 -0.02682010128031262 
0 0 0 0 0 
-0.002773346747633286 -0.01479824942436177 0.02170710989558791 -0.001900139296568755 -0.02016407407517760 
-0.002773346747633286 -0.01479824942436177 0.02170710989558791 -0.001900139296568755 -0.02016407407517760 
0 0 0 0 0 
0 0 0 0 0 
0 0 0 0 0 
0 0 0 0 0 
-0.01493114198736331 -0.005367305901952332 0.01671111435809666 -0.0001334660923003061 -0.002115220207742288 
0 0 0 0 0 
0.04541624028488506 -0.03064246190593336 -0.005614726879119384 -0.01167747483580047 -0.02796938093905656 
-0.0008639584988819713 0.0002491350632812533 -0.01141726256027533 -0.01690941099131293 -0.03326797136465527 
-0.05136792858433028 0.04109242934710968 -0.002241616948441684 -0.005480814020525319 -0.007691235607624367 
0 0 0 0 0 
-0.04002154917467388 0.2824824759739287 -0.1453007456402786 -0.03115136540430601 -0.05050626748286825 
-0.03224811928754511 -0.08554914040423567 0.1580278449776085 -0.01430227895630645 -0.01547126343446068 
0 0 0 0 0 
0 0 0 0 0 
-0.001104528202336808 -0.01584531098896191 0.002905785631829382 -0.001143577986731777 -0.008004256639830686 
0.01972242326366394 -0.01105581435170565 -0.0009576692904492258 -0.009071605130594736 -0.005759236280754422 
-0.08745193243714428 -0.02133954732608802 0.1590856189949928 -0.04322172114008040 -0.05479294239091216 
0.01112871192365266 -0.005002690629130360 -0.002284074581557496 -0.01025056250338340 -0.002986332204811750 
0 0 0 0 0 
-0.04628019878376703 0.03089159696921461 -0.005802535681155945 -0.005231936155512461 -0.005298590425598700 
-0.02021444833295294 -0.04127474776281711 0.1288836435317475 -0.04538631391554025 -0.06668793987563534 
-0.09038921502068639 -0.09922059745497028 -0.04336742104100798 0.2851293189116147 -0.03540342394116931 
-0.09038921502068639 -0.09922059745497028 -0.04336742104100798 0.2851293189116147 -0.03540342394116931 
0.001653351456407787 0.02966164353129994 -0.04772237794467651 4.772972800251574e-05 -0.003292561247948098 
-0.008710699029373582 -0.003795324232618541 0.02174275953258897 -0.0002502077516688998 -0.004074063320394221 
-0.01231182890572668 0.1163643154632921 -0.05853655987534213 -0.002307557765586937 -0.01208226923931291 
0 0 0 0 0 
0 0 0 0 0 
0 0 0 0 0 
0 0 0 0 0 
0 0 0 0 0 
0 0 0 0 0 
0 0 0 0 0 
-0.08914102770953353 0.1316547925144947 -0.005875176330855525 -0.01949100474343844 -0.01690706530736341 
-0.07164471976603073 -0.005142701867765664 0.04436616911192621 -0.0003939942960279575 -0.002199555786665352 
-0.07164471976603073 -0.005142701867765664 0.04436616911192621 -0.0003939942960279575 -0.002199555786665352 
-0.05843371984505486 0.05339705670216906 -0.003249233709992872 -0.007900943439655065 -0.004477078549126890 
-0.008710699029373582 -0.003795324232618541 0.02174275953258897 -0.0002502077516688998 -0.004074063320394221 
-0.01689260191657992 -0.03247252950233034 0.2471634215249886 -0.01630768903289948 -0.2034885108114911 
-0.01689260191657992 -0.03247252950233034 0.2471634215249886 -0.01630768903289948 -0.2034885108114911 
0 0 0 0 0 
-0.04357930933161067 -0.02871205111625715 0.1055007463323921 -0.004784032757053925 -0.05264917908913853 
-0.04357930933161067 -0.02871205111625715 0.1055007463323921 -0.004784032757053925 -0.05264917908913853 
0.09129888591174734 0.01155141245066151 -0.01392708880555693 -0.05145693600371791 -0.04331062498214516 
0.1482327973468407 -0.05028298094828697 -0.009034006316863755 -0.03657997520562829 -0.03742196672985422 
0.1107935519607192 -0.02959846850500979 -0.004778718225152604 -0.01673003495896637 -0.01945918934442004 
0.1107935519607192 -0.02959846850500979 -0.004778718225152604 -0.01673003495896637 -0.01945918934442004 
-0.02619178694846957 0.01061924250601548 -0.01638802261041756 -0.01643672908409724 -0.02901664012767563 
-0.005731871334024368 -0.03231228105606743 0.03346960222742505 -0.008446189628237644 -0.01500266269900446 
0 0 0 0 0 
0 0 0 0 0 
-0.003507060539326787 -0.01838507354892167 0.04400265140754591 -0.0007186526898751789 -0.006023857811758911 
-0.002593857527887101 -0.001263305544037251 0.02853244360489277 -0.001048128823229197 -0.03634152853844723 
-0.01576952671118834 -0.008852502434446843 0.06762711836976419 -0.009145453360561091 -0.06632333805233642 
-0.01673004335102186 -0.001535216749121797 0.04063136916544523 -0.0006769387917142859 -0.01306339113329003 
0 0 0 0 0 
-0.01673004335102186 -0.001535216749121797 0.04063136916544523 -0.0006769387917142859 -0.01306339113329003 
0.2837603284499288 -0.1331082946787922 -0.01184847567492534 -0.09599849875457918 -0.006437803070041188 
0 0 0 0 0 
0 0 0 0 0 
-0.003441924412111913 -0.1662838497140572 0.2862557868670958 -0.02011851540705970 -0.03533828255200885 
0 0 0 0 0 
0 0 0 0 0 
0 0 0 0 0 
-0.04987065987091893 -0.001387333492211675 0.1196246251227522 -0.01772803600896130 -0.06158054249695656 
0 0 0 0 0 
0 0 0 0 0 
-0.005565970609718406 -0.003197110406843606 0.008117284257830055 -0.0005976331277404217 -0.004424852340228817 
-0.009415671224616423 -0.008651065998606221 0.02689370892781809 -0.002549557331283019 -0.02194558345928876 
0 0 0 0 0 
-0.002758188062214392 -0.005125566093794317 0.01508921746134239 -0.0006080548507079143 -0.006185305755816506 
-0.008608993050278742 -0.003326286284655691 0.02888959003491921 -0.001861248615496763 -0.03220366933477181 
-0.008138680624993547 -0.01056589238741102 0.04236300404833886 -0.007752826784166575 -0.02510464823669631 
0.2692591080085154 -0.03612634218373744 -0.3808635558031897 0.06821134817471787 -0.1325282894953452 
-0.2380267615807492 0.1087653788716736 0.02948371482060506 -0.06181275506260281 -0.05163704045849869 
-0.003286702426103759 -0.002489917504017873 0.04182860263786314 -0.001094767963932004 -0.03103017917707890 
0 0 0 0 0 
0 0 0 0 0 
0 0 0 0 0 
0 0 0 0 0 
0.2756610935002274 -0.04214781658382694 -0.1688842703172373 -0.02017126225682416 -0.01272313034189550 
0.2756610935002274 -0.04214781658382694 -0.1688842703172373 -0.02017126225682416 -0.01272313034189550 
-0.02598633953325442 -0.004480818370749363 -0.07049850521613597 0.1003995264987380 -0.05354950024168535 
-0.05616708046248413 -0.2122349725984906 -0.01366745030663535 0.2722227876184181 -0.01602340461540338 
-0.05864040514559168 0.2437016690244898 -0.02357353683940476 -0.1359669524002272 -0.01876637544724949 
0 0 0 0 0 
-0.001872066348287983 -0.01139607844066170 0.02787052304768087 -0.001394925732836669 -0.007753090963320370 
-0.001872066348287983 -0.01139607844066170 0.02787052304768087 -0.001394925732836669 -0.007753090963320370 
-0.005834995574219313 -0.005003159812683170 0.02808846126449273 -0.0001208245374657365 -0.004629312249663970 
-0.005834995574219313 -0.005003159812683170 0.02808846126449273 -0.0001208245374657365 -0.004629312249663970 
0.0002684371945269109 0.04625536603129705 -0.09058998672822073 -0.0002935671940721365 -0.002497596467347389 
-0.02915783876155914 0.1144220252103480 -0.07611516125218800 -0.03220079118340298 -0.02870273655889667 
0 0 0 0 0 
-0.005125157752361481 -0.01177648456124613 0.03470767732235559 -0.007755671191102168 -0.01690570806815631 
0 0 0 0 0 
-0.03610857889915058 0.09575324431374493 -0.002478994440727909 -0.07053795792037759 -0.03298155202239805 
0 0 0 0 0 
-0.02631639623081252 -0.07032647030213884 0.02063165053556177 0.09133797093490421 -0.02415330432909912 
-0.007773429887128773 0.3680316163781643 -0.3033285906178870 -0.01684908644799956 -0.03503500404840756 
0 0 0 0 0 
0 0 0 0 0 
0 0 0 0 0 
-0.02793990377817061 -0.01625753945351807 0.1682745437756057 -0.03464280269386268 -0.008829996288864045 
-0.04364899877203799 0.1841113077184688 -0.003283524538513346 -0.1103467197116047 -0.01061497884393197 
-0.004459877694457656 -0.01711315640870334 0.04843099035681821 -0.02253102078180830 -0.03629498295659264 
-0.001789180414839279 -0.01746768494619294 0.03447451133742276 -0.007018450869747952 -0.01771367920539351 
-0.02625394113009257 -0.003251009876599306 0.02154770651537409 -0.0001119990931923057 -0.005400573342035888 
-0.02103485618818252 -0.01123047879005841 0.02684998285062111 -0.0001856106704652394 -0.006337082829145576 
0.1793515503585315 -0.03563162000791638 -0.04136437696350268 -0.003052888671882783 -0.01703671774873641 
-0.07504907076979403 -0.03689984890529417 0.3335899668022709 -0.02166487353441556 -0.1722900359878654 
0 0 0 0 0 
0 0 0 0 0 
0 0 0 0 0 
0 0 0 0 0 
0 0 0 0 0 
0 0 0 0 0 
0 0 0 0 0 
0 0 0 0 0 
0 0 0 0 0 
-0.01350984199553479 -0.01412278669166184 0.03970552286084475 -0.01033353541430840 -0.02586497675279334 
0 0 0 0 0 
0 0 0 0 0 
0 0 0 0 0 
0 0 0 0 0 
0 0 0 0 0 
0.03701956147325676 -0.05912006651282700 -0.002857058456559783 -0.008312136705955906 -0.01386341705130975 
0.03701956147325676 -0.05912006651282700 -0.002857058456559783 -0.008312136705955906 -0.01386341705130975 
-0.002509768662177250 -0.001831251972386283 0.02847970712029624 -0.001798152855176708 -0.02035909684144723 
-0.2080803342987452 0.3660344971647090 -0.003773876241994030 -0.1917048281224436 -0.02754058404344520 
-0.002715847833875780 -0.009998697160533723 0.01729758471228183 -0.003120544591120938 -0.009631368932335519 
0 0 0 0 0 
0.08059623894782009 -0.07672444263395856 -0.04985827874592803 -0.02023461237743644 -0.01540295521651042 
0.08454466991129453 -0.09263517384805177 -0.02847934375730081 -0.01494031483005449 -0.01348391386362931 
0 0 0 0 0 
0 0 0 0 0 
0 0 0 0 0 
0.3021412779216356 -0.02441416359658725 -0.1375088203901246 -0.002007327979506086 -0.04025958006163273 
0.3021412779216356 -0.02441416359658725 -0.1375088203901246 -0.002007327979506086 -0.04025958006163273 
-0.01669654129312374 -0.006531102415475900 0.02442687563363094 0.0001624120145871455 -0.001732361578307939 
-0.004331965535292217 -0.006330587442905796 0.03072687111742294 -0.003609817978105703 -0.03402325015361936 
0 0 0 0 0 
0 0 0 0 0 
0 0 0 0 0 
0 0 0 0 0 
0 0 0 0 0 
0 0 0 0 0 
0 0 0 0 0 
-0.008162013680845534 -0.005204837068618369 0.03343667556592788 -0.002190898642359681 -0.02076231442612231 
-0.008162013680845534 -0.005204837068618369 0.03343667556592788 -0.002190898642359681 -0.02076231442612231 
-0.004191053851855483 -0.006506947487503440 0.03014037629966739 -0.003566273078693672 -0.03299029041563577 
0.2837603284499288 -0.1331082946787922 -0.01184847567492534 -0.09599849875457918 -0.006437803070041188 
-0.008284078540127372 -0.003465007625722194 0.02391879952078827 -0.002207859643411387 -0.02175589155465908 
-0.008284078540127372 -0.003465007625722194 0.02391879952078827 -0.002207859643411387 -0.02175589155465908 
0.06085647401639287 -0.01147980123269655 -0.03251466050063180 -0.03212301616652430 -0.004314974502884632 
-0.04445115461815578 0.1541227375064637 -0.01679961637425221 -0.01047191302815718 -0.02053188026728545 
-0.1318203415688992 -0.09232855187618845 -0.007090189439901961 0.2774673080743222 -0.009878482004139065 
-0.01788462167921063 -0.001097141802856925 0.01751189524973379 -0.0003748020014156380 -0.005218271334673672 
-0.05878348291113513 -0.005835746058059923 0.07242772999770487 -0.001152467654819270 -0.01201402329537912 
0.01841989254587494 -0.007217629974316657 -0.004813525202438755 -0.01737897752916946 -0.004959560500692273 
0 0 0 0 0 
-0.3330855293627015 -0.01762368266623604 -0.008932951911622992 0.3483788959183600 -0.02080931084243401 
-0.01095040941818267 0.03761515716698029 -0.03382859004151084 -0.005716233117298196 -0.004068183577934204 
-0.004907705206923855 0.02775927065866593 -0.01272027816730985 -0.03783236740521020 -0.02219448652910777 
-0.005793320173635640 0.03089645579811244 -0.02691892992476924 -0.003741562980945980 -0.002057138549286245 
-0.005793320173635640 0.03089645579811244 -0.02691892992476924 -0.003741562980945980 -0.002057138549286245 
-0.01431468238892048 -0.01066951238226464 0.04337135273000441 -0.004804577378322032 -0.02432384155275687 
-0.06464359118820343 0.01610437916528668 0.1402721319805655 -0.01989799746631172 -0.08800839802733326 
0.1830019285626567 -0.03128944626056292 -0.01745805054890068 -0.04031955771991817 -0.01882358084791635 
0 0 0 0 0 
-0.02305890750501362 0.03681999780585849 -0.01898436189379796 -0.009278243131416604 -0.006288316234223084 
-0.01696610556270832 -0.001543838393136275 0.01427820561384482 -0.0002646189586813082 -0.001939315044865638 
-0.01234526081077153 0.09638908213372095 -0.08706795881677809 -0.006995656197304681 -0.005201797237109202 
0 0 0 0 0 
-0.004932181821223737 -0.005226486705830131 0.02491612483868550 -0.003787279156108241 -0.01840262874782573 
-0.006950812559908255 -0.006560838429793684 0.03140267269790694 -0.004529318733231889 -0.02049539162214601 
-0.001104528202336808 -0.01584531098896191 0.002905785631829382 -0.001143577986731777 -0.008004256639830686 
0 0 0 0 0 
0.04814670737531027 -0.04077640798316857 -0.003462875327481880 -0.01303653232552707 -0.007976772015119392 
0.02354293120830744 -0.005665570497993494 -0.01642989822912253 -0.01137305836919609 -0.003870232890389725 
0 0 0 0 0 
-0.0002772646624673854 0.07129564478106722 -0.1077647936670625 -0.0002651596156023948 -0.002889080832720712 
0.04040329484747803 -0.01366630873563847 -0.02194578385510908 -0.02067331292035758 -0.003887187085151058 
0.03707898724327939 -0.02687006339683463 0.005602266711616683 -0.02130374966674219 -0.01217720160859504 
-0.004999987724871688 0.05852381635813561 -0.02186958812821079 -0.0009618945527506461 -0.002979794282797071 
-0.004999987724871688 0.05852381635813561 -0.02186958812821079 -0.0009618945527506461 -0.002979794282797071 
0 0 0 0 0 
0 0 0 0 0 
0 0 0 0 0 
0 0 0 0 0 
0 0 0 0 0 
0 0 0 0 0 
0.01561871870930646 -0.01018752153583745 -0.002655843120057630 -0.003814378957484225 -0.002177641685010563 
0.01561871870930646 -0.01018752153583745 -0.002655843120057630 -0.003814378957484225 -0.002177641685010563 
0.1176383860412849 -0.05676642796137633 -0.04316167943812212 -0.01780350776227429 -0.01908509538101348 
0 0 0 0 0 
-0.04214175545757493 0.04897509267177291 -0.008800405858964843 -0.01713741765589406 -0.01824012654338869 
-0.04214175545757493 0.04897509267177291 -0.008800405858964843 -0.01713741765589406 -0.01824012654338869 
0 0 0 0 0 
0.01896712153782792 -0.02661242961878510 -0.007111717856387170 -0.004699401312905987 -0.009460106985710450 
-0.01324753391228026 0.05447767175508209 -0.02001507478649407 -0.002256311288538615 -0.01731193652313498 
0.0005105458767692412 0.08166694475566215 -0.1525550238686629 -0.0002315992156353436 -0.009231711964418880 
-0.07868080034922141 -0.006872541585431281 0.1384849252102611 -0.01391241219606877 -0.06751408296656052 
0.0006918185790250209 0.05207444701140197 -0.06262151689009048 0.0002540300898270708 -0.0004493366649005806 
0.0006918185790250209 0.05207444701140197 -0.06262151689009048 0.0002540300898270708 -0.0004493366649005806 
0 0 0 0 0 
0 0 0 0 0 
0 0 0 0 0 
-0.01782612900664909 -0.02080580526255868 0.07062139576188226 -0.01927965283078168 -0.08662059308996113 
-0.005647121641179692 0.08144012372474214 -0.1371113187432480 -0.005444728808250729 -0.004668060147314654 
0.001028309148678082 0.02282285070899414 -0.06843289980671159 -0.0001975467000519572 -0.004377792675952622 
-0.002305131764893024 0.01728885479032181 -0.02344511097130175 -0.002795158283436424 -0.004866420936228607 
-0.004227981729947854 0.01982245943677113 -0.03234436268573729 -0.005469836345700864 -0.006113490216037012 
-0.0009814480446314110 0.008192246035870910 -0.01917885502488410 -0.003434872723613997 -0.005321431401683856 
0 0 0 0 0 
0.001653351456407787 0.02966164353129994 -0.04772237794467651 4.772972800251574e-05 -0.003292561247948098 
-0.09310301888744050 0.4010811012148082 -0.1334626965540015 -0.03688050248367284 -0.03433678051386482 
-0.001635936717128459 0.007368454226609420 -0.01754845176446815 -0.004335432271862824 -0.002491972365904924 
0 0 0 0 0 
0 0 0 0 0 
0.3579583405812062 -0.09924500432321509 -0.08918066163850905 -0.004556329882085540 -0.02175138847895237 
-0.004076487998753889 0.03082825572366251 -0.02111978613311487 -0.001190411663299141 -0.001558313366020111 
0.09225047997136780 0.09080293599000935 -0.01689869507769942 -0.1829456123217243 -0.07973486311732782 
0 0 0 0 0 
0 0 0 0 0 
-0.1845657134793505 0.1196561303965208 -0.003814116886940666 -0.01348648001176571 -0.01772386100743766 
0 0 0 0 0 
0 0 0 0 0 
0 0 0 0 0 
0 0 0 0 0 
0 0 0 0 0 
-0.01471541803114452 -0.009847521807463011 0.04379110520901828 -0.002430515931554027 -0.001923585019653074 
-0.0003601356380182092 -0.01294829972012622 0.02385969454066307 -0.0005645858825078021 -0.009860818311918386 
-0.005518031064842595 -0.01351299900870360 0.02826839518162568 -0.0002025129126293330 -0.002458432405657196 
-0.01490932902255356 -0.003817522604122612 0.01488989705215428 -0.0003556032322126192 -0.003499960686469125 
-0.03319948851203210 -0.1232018170228363 -0.05212392380706753 0.2014138447024168 -0.007738145983901548 
0 0 0 0 0 
0 0 0 0 0 
0.2160790655111926 -0.06052124843727988 -0.09879411648786060 -0.02404854318047216 -0.06804761329750543 
-0.03751617642274451 -0.03161196516020599 0.1160017331309432 -0.008921326367028920 -0.07113016061596514 
-0.004117607170603215 -0.01165669307772702 0.005693892486240725 0.0002002117138523633 -0.0003432079665890075 
-0.02193890298841616 -0.01448775565399959 0.02071548711052573 -0.0001153327660598199 -0.002739979982104278 
0 0 0 0 0 
-0.006871755812354745 -0.006160424073497308 0.02270619967330837 -0.001661150098865185 -0.01513423398480511 
-0.01716558111111080 -0.01124152002128468 0.06569763204268135 -0.004188508495296582 -0.04440712228201554 
-0.07744471116914825 0.08820823372247331 -0.01487283093309953 -0.04656102386121975 -0.01360252150199896 
-0.01831521953753495 -0.1179903896741547 0.1505239333873853 -0.06548452754000185 -0.02798127173694770 
-0.007673341218905522 -0.001403415981155644 0.02346399074748497 -0.0008017479368188130 -0.01253203185167781 
0 0 0 0 0 
-0.05169312259305479 0.2279932347389134 0.001552420342221482 -0.1039752022920123 -0.04412039933506683 
-0.04840565278414842 -0.1102135382832307 0.2446446157696844 -0.03199649494230501 -0.1414411206439196 
-0.002217917436564155 -0.001536768425069559 0.01602130721417526 -0.0004858108140052934 -0.01528140356769619 
-0.01140862003606785 -0.03294623392648555 0.04568332336258752 -0.001770052537871183 -0.004661338127251091 
0.3562717903025845 -0.1078242127391359 -0.005873081078066050 -0.08828300752524532 -0.02753543079353955 
0 0 0 0 0 
0 0 0 0 0 
0 0 0 0 0 
-0.02978927754234202 -0.01570463241257777 0.03466977870390850 -7.692771628586706e-05 -0.002803511192507233 
-0.01683666835262876 -0.007000493008392525 0.03797308212183948 -0.002761130978751697 -0.01011272488085221 
0 0 0 0 0 
-0.02946134936666426 -0.03495815183569653 0.1792367507040441 -0.03108096768019645 -0.09245558498236188 
0 0 0 0 0 
-0.07533650821583127 -0.05762009305950166 -0.02284986895182969 0.3972390789668616 -0.01108676485428882 
-0.01208267346090642 -0.001057608109357130 0.02999355666505510 -0.0005007124389388573 -0.005605870794746770 
-0.002036155305809015 -0.01475717211296284 0.06930774600930346 -0.008180146833170695 -0.04967272383287553 
-0.001672220481186268 -0.004383939500508839 0.03097799966807202 -0.005087435698437108 -0.01814537986362313 
-0.001726776698782235 -0.004611403954116257 0.03848323318584797 -0.002800200017440563 -0.02481913614683787 
-0.001726776698782235 -0.004611403954116257 0.03848323318584797 -0.002800200017440563 -0.02481913614683787 
-0.07335861181323239 0.1804085290820125 -0.01911300218896448 -0.09381109412277253 -0.01359188412094051 
-0.07335861181323239 0.1804085290820125 -0.01911300218896448 -0.09381109412277253 -0.01359188412094051 
-0.0004741897213603867 -0.008595813424091521 0.009158203794229932 -0.002815194261350984 -0.007791696077425361 
-0.03257593058351332 0.1158582499596363 -0.002027222182538377 -0.06344314062398810 -0.005048160692382867 
-0.01770077219318851 0.3118364892566440 -0.1910279712730329 -0.004137601426859859 -0.03339023621340762 
-0.01107688897001821 -0.0009246307928357325 0.02492467556374918 -0.0008456920261285996 -0.001314220709096395 
0.01560456603034890 -0.02596911993029861 -0.003769580080144297 -0.007112232097057723 -0.008832163667693915 
0.2319846666558630 -0.03824208158813312 -0.02900888154886916 -0.08943357544009200 -0.04253065494873449 
0 0 0 0 0 
0.02241686456882880 -0.1436934870809297 0.3676126536981740 -0.1852660818511693 -0.1051621377890915 
-0.6130731055995612 -0.04198987270174017 -0.02231927593992994 0.7030878130104552 -0.006850943254906789 
0 0 0 0 0 
0.06741316740421986 -0.02287905526183079 -0.01463542297701352 -0.04431105782625596 -0.004741273176225228 
-0.006623883223170302 0.3127611200494798 -0.2159526468367820 -0.003291909400731259 -0.03207601550431122 
0.008221025670385740 -0.01473182451427708 -0.001945676381190718 -0.01167189669333489 -0.002549078904997378 
0 0 0 0 0 
0.1430182877857806 0.01262365925413697 -0.1084793717318671 -0.02575652749554260 -0.008971234292326290 
0.1478159205142143 -0.02259362760225612 -0.08171419175416715 -0.02208118851734373 -0.005011825124275561 
0.1478159205142143 -0.02259362760225612 -0.08171419175416715 -0.02208118851734373 -0.005011825124275561 
0.1478159205142143 -0.02259362760225612 -0.08171419175416715 -0.02208118851734373 -0.005011825124275561 
0.1473158266645193 -0.05692393045706491 -0.003789115259840729 -0.06868964821875240 -0.04763601585434816 
0 0 0 0 0 
0.4361352975381094 -0.01065352789588974 -0.4819663770131836 -0.003609014391058790 -0.01396827463523477 
0 0 0 0 0 
-0.09795415609276063 -0.1114770031711682 -0.01718609134746723 0.1512533566500675 -0.002986715893581592 
-0.09795415609276063 -0.1114770031711682 -0.01718609134746723 0.1512533566500675 -0.002986715893581592 
-0.009298576833221730 -0.006708771105545613 0.07187886347608680 -0.002262648905779908 -0.01084515042823433 
-0.009298576833221730 -0.006708771105545613 0.07187886347608680 -0.002262648905779908 -0.01084515042823433 
0.01826458930289682 -0.01712171490842264 -0.001730953901161279 -0.02544117171418497 -0.005864570732415423 
0 0 0 0 0 
0.009083028417324673 -0.01584075567621220 -0.001052158364813230 -0.006763071694462999 0.0001406582551105474 
0 0 0 0 0 
-0.1113035034414685 -0.02213207835216189 0.3817115739025562 -0.01210264161449681 -0.1090781058455310 
0 0 0 0 0 
0.2925142069729147 -0.02124247551864136 -0.1956686954817995 -0.03049909252016251 -0.04931773849114179 
0.2925142069729147 -0.02124247551864136 -0.1956686954817995 -0.03049909252016251 -0.04931773849114179 
0 0 0 0 0 
0 0 0 0 0 
-0.01317456559648781 -0.008146430174633994 0.04673886355579629 -0.004089505675341987 -0.03385065555668450 
-0.02543999471589676 -0.03859308788945413 0.1589641120113959 -0.01690884737668484 -0.07531953444848703 
0.01074111825150451 -0.01326883405683523 -0.002193035383039162 -0.02172228944746793 -0.001911127353538813 
0.01794857320713116 -0.02641372645054478 -0.01097692746051673 -0.003461382465461323 -0.008660202698288367 
0 0 0 0 0 
0 0 0 0 0 
0 0 0 0 0 
0 0 0 0 0 
0.02000496314905672 -0.01666455617494507 -0.002433761089058763 -0.01715473829770715 -0.01251894083401275 
0.02000496314905672 -0.01666455617494507 -0.002433761089058763 -0.01715473829770715 -0.01251894083401275 
-0.005191919822599054 0.06123587284209574 -0.1020243604791194 -0.003511511572827983 -0.01918204851000199 
0 0 0 0 0 
0 0 0 0 0 
-0.003722982648350849 0.05588300001642813 -0.08990395512682976 -0.002120889676442668 -0.02764591808718226 
0.001306819699159789 0.05992468608066248 -0.1061404218030185 -0.0001158949556196138 -0.003134295163146315 
0 0 0 0 0 
0 0 0 0 0 
0 0 0 0 0 
-0.01387914022143368 -0.01222190944249263 0.03952981941582840 -0.003851369709707970 -0.01353071308686162 
0 0 0 0 0 
0 0 0 0 0 
0 0 0 0 0 
0 0 0 0 0 
0 0 0 0 0 
-0.005510266055064901 0.02818181114795955 -0.02366665327310364 -0.0009031718676338388 -0.007071893107140794 
-0.005510266055064901 0.02818181114795955 -0.02366665327310364 -0.0009031718676338388 -0.007071893107140794 
0.2334531901975384 -0.06963188530239013 -0.004463253666353759 -0.1241727501006134 -0.01975584291472131 
0.001301827286309771 0.09303915090663015 -0.1686938751141879 -0.0006812679539890979 -0.009250277597060605 
0 0 0 0 0 
-0.005728816487235078 0.01596339033887718 -0.02190500476980500 -0.007188515582007809 -0.01085795045806636 
0 0 0 0 0 
0 0 0 0 0 
-0.002442711872095329 -0.01543136666029269 0.03845691517069850 -0.008448177809379682 -0.02299831715623280 
-0.06957451831243672 0.1628441100301307 -0.006953352318427052 -0.01521105992102962 -0.04087892144397928 
-0.01400403947752025 -0.4836403634792405 0.4810914775003163 -0.006973375414803629 -0.02039405970310214 
0 0 0 0 0 
-0.01081380659036701 -0.008554287826667135 0.02012139576876138 -0.001999560321769939 -0.01016378432704464 
-0.07542836429614105 0.04297056051882006 -0.002366789999307538 -0.002855774292496241 -0.007888238072200150 
0 0 0 0 0 
-0.1992692342346773 -0.1666472388896221 0.07133855250651587 0.3900201901040818 -0.04862313338321123 
-0.01208608767482236 -0.01325300270276338 0.04869781048891690 -0.007133090557826461 -0.03246124303266137 
-0.03074748523645283 -0.04075147381021591 0.2467848426041019 -0.01718437724710447 -0.1397927907315511 
-0.007273619987814669 -0.006503948451070771 0.02392794718259558 -0.001484839336198722 -0.01683005109499364 
-0.009526170075379524 -0.009675524160285992 0.03662153650145218 -0.004986018163473336 -0.05101957773436810 
-0.005253754796551239 -0.008589387844952202 0.03145387630124191 -0.004951180296487107 -0.01882672655485801 
