solver_type L2R_LR
nr_class 5
label 5 1 3 2 4
nr_feature 4358
bias 1.000000000000000
w
-0.4477736180645921 -0.4866867015504195 -1.208060995830218 -0.5914960152679680 1.968503601153892 
-0.1513354320626690 -0.1852784195281121 -0.5486096938009712 -0.2496392856359996 0.7825866149140617 
-0.02992492600856762 -0.0005046423429211837 0.1765854173204876 -0.04843019482339565 -0.05305918523550168 
-0.01747834088037544 -0.01085387016598005 0.05333672284899067 -0.001479554451701991 -0.007037480360113957 
-0.3610911619558739 -0.1952131067601486 -0.4725808712750588 0.2446379904319029 0.7611650582840261 
-0.1319749388412979 0.1459522849008854 -1.280436104072674 -0.05141391778317559 1.128090716888336 
-0.02986893182776966 -0.004104867861224963 0.06993775158807598 -0.0008592998598441390 -0.05536872090618697 
-0.2943590351555369 -0.6259484518010519 -1.047889267061539 -0.2751689603962384 1.486044948161548 
-0.4509214905455175 -0.9274263887311512 -1.117542751394114 -0.5825778892676370 1.596326055857912 
0.8605901285038020 0.1060152204660033 0.2552777258151054 -0.3441108229244442 -1.018063238838824 
-0.2809998639249421 0.2044566955645224 0.1005970345677674 -0.04060991657038229 -0.1262314887196527 
-0.003882333357667664 -0.01793399220965174 0.02690033703162605 -0.001804313115343505 -0.01890963785292782 
0.08425201597553658 -0.09955852090805074 0.09155539961439166 0.1475790991770016 -0.2691911144843788 
-0.08016732309022045 0.04257179509425463 0.3692330842811551 0.05263395925060759 -0.4695154251792031 
0 0 0 0 0 
-0.01563308128163318 -0.01452629948894789 0.09616588454306495 -0.0006448856766753689 -0.06106676298339709 
-0.02933683324159708 -0.1578529975075756 0.3723633564587451 -0.04992111762630426 -0.09637359807356785 
0 0 0 0 0 
-0.07735748194674252 -0.04521244035876434 -0.06565669840944777 0.4244537394072586 -0.1095940556554581 
-0.02130310989313399 -0.01991506687886297 0.1208026775884827 -0.004192403353977234 -0.1150867686288280 
0.2119276158530673 0.2015713293547874 -0.1605462546971758 -0.07438331354220602 -0.04233145284178089 
-0.3841246202161205 0.06682489267049138 0.2159814180224936 0.09835419545916899 -0.4942702535422260 
-0.02772729983048138 -0.01265841009068742 0.03363572484542898 0.001237982563142181 -0.007917932798895142 
0.8347485839848455 -0.06733055454952494 -0.03291002737907083 -0.4573480131701051 -0.3552007038898103 
0.3473848064993070 -0.1130372298953101 0.1534728111668691 -0.2244534032168156 -0.1251700835940117 
0.4372229319636017 -0.5349116637258065 0.4891551832720692 0.03189106101483959 -0.7890606772108323 
-0.4035164683735712 0.6792177782719357 -0.3925656863537722 -0.2323783630634999 -0.2379477771057886 
-0.005359520688672508 -0.01651721893929595 0.02548597551795671 0.0006954369278803162 -0.002610187746442103 
-0.2932852972750702 -0.05372428983544663 0.4307630074473819 0.1750160195285386 -0.2853128932084746 
-0.01444344437283281 -0.02410872963771537 0.1403394671311997 -0.01703931869805125 -0.09101461727911926 
-0.6102022592442182 0.5266727727753835 0.2465099225199250 0.5826708801385737 -1.213673930186798 
-0.0002650814443786783 0.04183583417090204 -0.04862233522545439 0.0002148596352646805 -0.006289478872018766 
-0.005288320448698770 -0.003678223113001455 0.01245225646909730 0.0002922883253791268 -0.009352314836811853 
-0.01704042215732607 -0.02717415924783483 0.03846309024915446 -0.002048913423707890 -0.01540399579147574 
-0.07389531516427018 -0.1462427432933425 0.2437648476166108 0.01082281610635506 -0.2067737126112182 
0.04012936612815744 0.2012514624000034 -0.1454450160975537 0.02635181559632762 -0.1914021914822210 
0.1409951750633784 -0.2111737963172529 0.05450148235798120 0.2336049993254892 -0.4502801050181159 
-0.04758206906149666 -0.04114770799244777 0.2002497211867888 -0.003044815133151475 -0.08872477288706873 
0.05778252590984546 -0.1540881924826930 0.04568964192310768 0.09889859285138732 -0.05657429973994843 
-0.2525448768165416 0.3030008007142995 0.03629787004765942 0.05184122933107809 -0.1644165086756824 
-0.03986535144258810 0.3240577874308349 0.05671153183214794 -0.3194626509408056 -0.05925391244076041 
-0.2854053262088944 0.1677170554891530 -0.1177618134472639 0.2245334020955154 -0.3269435864299323 
-0.03409316615117699 -0.03334887585142808 0.1223379349691147 -0.01586054941477887 -0.08760926409972174 
-0.004954480942969750 -0.008240401630241168 0.03743410914279105 -0.002627358922047331 -0.03170218672880696 
0.8727557101265000 -0.2293206102449011 -0.1107422641209047 -0.03692925130520582 -0.5557608314026437 
-0.02259393084829259 -0.04442043287373226 0.05898137369556274 -0.003253497931059474 -0.02238631916103570 
-0.2342627851753580 0.2138208081880360 0.5539087835325210 -0.3043935309625992 -0.2173327385274143 
-0.08575875677626309 0.09822558114117469 0.2144193932585045 -0.05573076937322420 -0.2339264338273261 
-0.02515046245926487 -0.01520341770591169 0.1407085447545202 -0.02460981134140975 -0.1688648418515474 
-0.6074220893896050 -0.7344550245970046 0.9950359248287242 0.3602139896209233 -0.2805251491363660 
-0.8987795814101451 0.3631942040378236 -0.4252561520369518 -0.4243019887527380 0.7362783844010780 
-0.4828619048112206 0.5216858119376482 -0.1845867764589456 0.04994548426562288 -0.3992682325471475 
-1.088721972591049 -0.8351695920310827 0.09717587018385960 0.3197556225050823 0.2851372382331583 
1.009943247003560 -0.9158473187666331 -0.5129878161562136 -0.5027588060935719 0.2212745217982983 
0.2433280312291672 -1.252893096245228 -0.08324632006280995 0.2085910459586368 0.6904136278560555 
-0.8223616828852439 0.3461069114490277 0.3062805361101754 -0.04762666384971374 -1.004727507593769 
0.6952014611918209 -0.3478402730467367 -0.1786616977709823 -0.1653316730650816 -0.1383906370260545 
0.7989321374610008 -0.2814396483996250 -0.1473166264856611 -0.08204682209448529 -0.4123118677867360 
0.3420588276637618 -0.1604226521664690 -0.06302538516431076 -0.05596306203035189 -0.1566619630670652 
-1.611104861805016 2.499117314726276 -0.8551775890431739 -0.7643305783464001 -0.5594576030424993 
1.018810091174385 -0.4061869617847667 -0.4135842644921497 -0.5063283181439680 -0.1960492975351504 
0 0 0 0 0 
-0.03832040327593651 -0.03054153421357240 -0.3620793685598859 -0.02458679370880120 0.3111174979175295 
0.2827578791535486 -0.02790425641136731 -0.03948604237439493 -0.01208408004578532 -0.07984465743930418 
0.2834921152727444 -0.06907789769721527 -0.004409221242421131 -0.04506407633425245 -0.1093226430741086 
0 0 0 0 0 
-0.04943861044382542 0.08605317432849122 0.2759412212693714 -0.1435088401842038 -0.1652360451673490 
-0.08072418054748712 0.1167218368849553 0.06517310144565851 -0.01894937499587602 -0.1308081621648239 
-0.05847836237314377 -0.4763272459476085 -0.05733692664524902 -0.05624059392151592 0.4797063905345091 
-0.06033994705535409 -0.05784607895023430 0.6145246960487709 -0.04814592704599451 -0.5930478668784565 
-0.3641338687905749 0.4515341231046347 -0.1443941196776830 0.04237773011222178 0.02284302859841853 
-0.06423018596775389 -0.2879370100718848 -0.01961732723698749 -0.06363742135841544 0.2568411736798197 
0.02237095419527992 -0.005345615153070898 -0.002332546667251260 -0.002103282273924947 -0.05257416500622708 
0.3828180985804967 -0.1880691463558765 -0.1460548128646566 -0.1002169993898161 -0.1459509293671550 
0 0 0 0 0 
-0.001824403993221689 0.06569515108717916 -0.0003793064241410685 -0.09686256791891615 -0.1024856796159273 
0 0 0 0 0 
-0.006482621398545567 0.02654130554012206 0.02877435921650295 -0.005819837614948721 -0.06759174839441275 
-0.08626418380653667 -0.2039755867357769 -0.01596881821992282 -0.04976528791052148 0.2978772737629390 
-0.02773885736108401 -0.03456629950582270 -0.01310567560459135 0.2154830723428689 -0.06988561207974031 
-0.005846583726005753 -0.03197782414144867 0.1974903979563098 -0.01561864526859469 -0.1361744321840578 
-0.01697731392389002 -0.1131826832579891 0.4145941022543718 -0.002564614418891080 -0.1426865055901526 
-0.2850640617780434 -0.2384309633528696 -0.03966727691411934 -0.03663040624866927 0.6975849544059343 
-0.1902551321281714 -0.3635484179585163 -0.07435132057052539 -0.1427268648051812 0.3459491984904641 
-0.2674293024785525 -0.2645946379978436 -0.02853747389696480 -0.05814949929454728 0.4391149420711596 
0 0 0 0 0 
0 0 0 0 0 
0 0 0 0 0 
-0.02233777932221848 -0.003946688421453105 -0.6296673695237963 -0.0007324506358826633 0.6005948802055368 
-0.05424324329880440 -0.08981312313705480 -0.07740500579446857 -0.1097863328938366 0.1912683342228712 
0 0 0 0 0 
-0.05228125939893417 -0.06355890509150250 -0.1439567522779446 -0.1280932878964424 0.1659925782194356 
-0.007264492597894672 -0.03350566351904426 0.2596104189443710 -0.01227489574922068 -0.1452352281849808 
-0.003261003158615631 -0.001226504992213876 0.02906003048095883 0.0002910765813459327 -0.03178503047613909 
0 0 0 0 0 
-0.01747834088037544 -0.01085387016598005 0.05333672284899067 -0.001479554451701991 -0.007037480360113957 
0.02566147815393235 -0.01599259383979924 0.06587045728980599 -0.003986664544598098 -0.09470438046480435 
0 0 0 0 0 
-0.02041482588332625 -0.04808110068533804 0.1567783781302272 -0.01361672823430714 -0.1056525035682941 
-0.02703140967195654 -0.02683449439344208 0.1453550839662926 -0.01151462196724558 -0.1300857142670761 
-0.1128865755753214 0.1238407194257208 -0.1277751055342240 -0.2148681068222722 0.2652083861219621 
-0.1488938181524278 0.1032459799562086 0.01944539208589787 0.4303064127093682 -0.1674327379174669 
-0.3622722136495109 0.7553708821818087 -0.1439268181402794 -0.1847758291998668 -0.1322903902747206 
-0.01378717125706255 -0.01706689027814530 -0.5860076207988094 -0.01183199200265101 0.5342163573059586 
-0.1164808995924226 -0.2430392294745582 0.03646041062062214 -0.1596291505436369 0.4058765598787120 
-0.005213589812038991 5.440909404793963e-05 0.02700339445611044 -0.0005244525913232767 -0.03953694533978568 
-0.1941484577130874 -0.1441830346376168 -0.4556506499121809 -0.02653305167446512 0.6656415924611748 
-0.1028453336899697 0.1615715016223990 -0.0005611291507322813 -0.04441960000021561 -0.06353687696277924 
0 0 0 0 0 
-0.003041301915569131 -0.001965685614034543 0.07516871646339140 -0.001962587061230987 -0.02252101232231788 
0 0 0 0 0 
-0.01296303862401222 -0.009211353607725370 0.06395835227716923 -0.003150317591078256 -0.03913191163490912 
-0.06896516017144264 -0.08773071611436589 0.2666155164471071 -0.02711093178899235 -0.07267825664196648 
0.2957892710808580 -0.06992403153432689 0.04054852532654232 -0.1158726132339183 -0.1067557773019534 
0 0 0 0 0 
0.03944674805754030 -0.01054987070615336 -0.002327236033140006 -0.01154267190164387 -0.05970707949033682 
-0.09684149198486930 -0.003996055289392680 0.07143778765137050 0.2580447031682226 -0.3005459899235455 
0 0 0 0 0 
0.1420521847311155 -0.03688017346205171 -0.01567351939601618 -0.009922002344513130 -0.04998438734241682 
0 0 0 0 0 
0.05070683377317946 -0.01841176237448605 -0.008166257825675977 -0.01131556605261316 -0.05773754093971215 
0 0 0 0 0 
0 0 0 0 0 
-0.005714891202693460 -0.002546037979010657 0.08206012316034708 -0.002375586118095639 -0.1165288129343924 
0 0 0 0 0 
-0.01257802417991811 -0.02030630652600611 0.1589020031152134 -0.01407534327189822 -0.1084940651674510 
0 0 0 0 0 
0 0 0 0 0 
-0.4425009835261656 -0.3191579946649247 0.004697750844780371 -0.2273550300077527 0.5856046817792914 
-0.08339846927949231 -0.1467307606736898 -0.1338779477169550 -0.08104921162604875 0.1697674662194695 
-0.1781748892812247 0.01430704845084159 -0.2981979283900307 -0.04671958069890862 0.6202424177524325 
-0.05049713856781583 -0.03988507689266636 -0.1778292871542514 -0.07086551358634077 0.2643336471815510 
0 0 0 0 0 
0.01306055513612583 -0.006002081456764657 8.607611882121852e-05 -0.002761202135265076 -0.03748990381743329 
0 0 0 0 0 
0.003648636275308852 -0.05176527106904117 -0.02696920180121400 -0.2093058125493126 0.07908241875782974 
0.1833401496244859 -0.01822599719408476 -0.01281005725028436 -0.02689492030081442 -0.1322424286337286 
-0.1377919553858132 -0.01910917642597725 -0.7911893807870122 -0.1667933778485331 0.7712729499914661 
-0.08095795937926925 -0.08915958959216173 -0.05438096744321289 -0.1026141885925692 0.1504910987648781 
-0.08377539805856839 -0.1783217823378953 -0.1457401480288086 -0.05405655098058103 0.2836243623248165 
-0.02589114242095184 -0.01959769552378494 0.2843182332490872 -0.001321889853861087 -0.2155296894665746 
-0.3727089221729799 -0.06492759807482289 -0.01196848719407579 0.6114579231127141 -0.3066324120920232 
-0.2190313514664835 -0.02161433952280457 -0.1035800122270772 -0.09954381533013766 0.2716847315507862 
-0.05097458443249209 0.2029110404428523 -0.1742072889419242 -0.01129546040067688 0.2001920903359367 
-0.3146641359951569 -0.07619337825360106 0.02233586391786289 -0.06841754751657254 0.3617695636013740 
-0.09706614541434397 -0.05821366254642796 -0.08798783351832506 -0.1123738645698078 0.1470620193878995 
0.07295578293006086 -0.006185500066779037 -0.003658941770627393 -0.004767425102148445 -0.06813514478195230 
-0.01668345431658386 0.08152644404100290 -0.05373665855845380 -0.04246634052911376 -0.01587432241738868 
-0.01125800277722767 -0.009549797567563380 0.09179761213808926 -0.001108204989453429 -0.05836265864239044 
-0.02841408622155957 -0.02778248527386332 -0.2991356316463708 -0.001546868491184377 0.3705942973862406 
0.05819214395115744 -0.02643443062057381 -0.0001265100760154802 -0.003328730133608318 -0.05266761752335767 
-0.02363188426276291 -0.06533559385639835 -0.07659024586069030 -0.001877435073849536 0.1467886051437701 
0 0 0 0 0 
-0.1241593275761474 -0.1418192020329458 -0.01673660325322799 -0.01962813017872399 0.2276343013967694 
-0.1652120597543069 -0.01196504746062968 -0.1440235633237633 -0.1944014595550810 0.3158230804221799 
0 0 0 0 0 
0.1831434673967137 -0.03519408639560447 -0.01769841659158093 -0.01475616230445248 -0.08685488060513816 
0 0 0 0 0 
-0.02700622123517524 -0.01270710403173724 0.2752137532308193 -0.005596617619999370 -0.2275730306370283 
-0.01871797871256042 -0.01002723402514309 0.3295763109158010 -0.005058835736063411 -0.2064420074435835 
0 0 0 0 0 
0 0 0 0 0 
0.01561605345255726 -0.002704984922727714 -0.001194230854837388 -0.004195996362073521 -0.05766007635389605 
0 0 0 0 0 
0 0 0 0 0 
0 0 0 0 0 
0.7742297859881354 -0.1274254504056283 -0.1544174168560249 -0.2224898636966619 -0.1599162683679249 
-0.1670397278307070 -0.1610189660395018 -0.01498653515254873 0.4254841030033285 -0.02986511504841536 
0 0 0 0 0 
0.2225346781330969 -0.1398337984913132 -0.06661193207784666 -0.07948404314287262 -0.02606003275976468 
-0.02907377547756419 0.06477796303981811 -0.1003009415803174 -0.0003906298661702971 0.002350923331855976 
0.6533469162632671 -0.1210249458535404 -0.1827013765395424 -0.2145447143274850 -0.05076701626065961 
0.2459615329873991 -0.08191968616288048 -0.02773442543704018 -0.02871726382703566 -0.03422418360566679 
-0.02485410931745970 -0.005754195287213541 0.02152117689538911 -0.0004689523431341012 -0.009731811741276162 
-0.08083758501671146 -0.05419125082995133 -0.1494391241584902 0.3243888828072618 -0.01992488207554505 
-0.06891213466668705 0.1144548985546058 -0.06825007799992254 -0.03844404968129182 -0.01261759943594014 
0 0 0 0 0 
0 0 0 0 0 
0 0 0 0 0 
0 0 0 0 0 
0.01592694130446362 -0.03585915441846581 -0.004230667140697792 -0.004398406761079545 -0.004014434837160111 
-0.05470687239733272 -0.01247713618864857 0.2037435040479088 -0.01457707063327413 -0.1277700974457458 
0.1125377642140960 -0.09780633103290558 -0.001642815173845483 -0.008987551222238132 -0.01054569892931033 
-0.01067174618160799 0.09479932064574387 -0.2665142028651295 -0.007544447909540241 -0.006367148662453527 
-0.03840669652633321 0.05789152042593364 -0.01398966798460060 -0.02078186134543590 -0.07401988933116585 
-0.3196734428945512 -0.2370370467778253 -0.1863259042457614 1.113557730053189 -0.1167210643860288 
0.004698499724935256 -0.009837038875506845 -0.001649149602852959 -0.003212853935059915 -0.002523417965739917 
0 0 0 0 0 
0.1041222603588216 -0.03553967561051354 -0.04926488920607670 -0.02462322043244030 -0.01503766022731415 
0 0 0 0 0 
0.03940562933935172 -0.02637399738355720 -0.02475497733442182 -0.009592707930812992 -0.01382921803063295 
0.01665371940356390 -0.02791380851391149 -0.02687616774947281 -0.005224028118463909 -0.007732880857872123 
0 0 0 0 0 
0 0 0 0 0 
0.03873430980490709 -0.01013586638225850 -0.03262475933796760 -0.03172995486100096 -0.008679949533214790 
-0.008287377813168195 0.2223064519681190 -0.1694775999047328 -0.009455084607232460 -0.07229334681513724 
0 0 0 0 0 
0 0 0 0 0 
0.02899113483645148 -0.02438823811983472 -0.01304993669795673 -0.01437183684065592 -0.005616914097239730 
0 0 0 0 0 
-0.01148864008545308 -0.1130228458044691 0.2097156164173033 -0.007790012986304190 -0.05017219058281323 
-0.2152524562157354 -0.06726508879776608 -0.03341726994266463 0.2498024145546555 -0.01872441230592965 
0.1781268456299587 -0.05078748992203779 -0.01261417239694934 -0.1233517690188257 -0.04496617297902352 
0 0 0 0 0 
0 0 0 0 0 
0 0 0 0 0 
-0.02675131609955619 0.3610929726622681 -0.01039621121906423 -0.1597772922059917 -0.02669530412625645 
-0.07866699977185143 0.1041877459748393 -0.01774016355433468 -0.02701467033393006 -0.005929263793498397 
-0.1204282246823262 -0.2322406589435409 0.6960207286126755 -0.08965088497856928 -0.1495477339880144 
0 0 0 0 0 
0.3609454694777735 -0.07271946786482300 -0.02582994005562247 -0.05046942178627997 -0.06708052746708540 
0 0 0 0 0 
0.1435908189172789 -0.1224024060762191 -0.03883488844862253 -0.03584398980581910 -0.02553637466898662 
-0.01042724602668193 0.01953636903069489 -0.009627796593978928 -0.001799404840392543 -0.01863121914803223 
-0.01408434076604496 -0.006356603181051944 0.02571448589748134 -0.001317324184122128 -0.007112504875030422 
-0.07261035106113256 0.07590567922543431 -0.02117823435284169 -0.02177180804811525 -0.003462603346220541 
0 0 0 0 0 
0 0 0 0 0 
0.2341558893014704 -0.03771466838520096 -0.05244997914020100 -0.1763702826586970 -0.01611796065779262 
0 0 0 0 0 
0.3382250802576811 -0.003508158366806614 -0.1234065046193652 -0.1335145757480744 -0.04174466814642753 
0 0 0 0 0 
0 0 0 0 0 
-0.2115225574811712 0.1935649326639616 -0.003455866898372629 -0.004549268581439469 -0.01079383901652150 
0 0 0 0 0 
-0.1343888016336840 0.09961890589901631 0.04562720547611299 -0.02287757101226334 -0.03580761381718271 
-0.02540372795882192 0.02281838874145879 -0.006612338083018757 -0.01716832719990241 -0.01693934294856825 
0 0 0 0 0 
-0.008823687797336740 -0.02041229814493133 0.08791494646653250 -0.01158329011430079 -0.06201143894639055 
-0.02234272605266203 -0.009206894248557623 0.02738485738611006 0.0008671545172135482 -0.009177123619939838 
0 0 0 0 0 
0 0 0 0 0 
-0.006363813886464089 -0.005444774189557690 0.01426893822109944 0.0005087283958688921 -0.005445176784833687 
0 0 0 0 0 
0 0 0 0 0 
0 0 0 0 0 
-0.09047346285941485 0.008219928214039695 0.1700281800739479 -0.02457795705889989 -0.02279350952250644 
-0.09406536017924884 0.1845194638741794 0.01422382422052439 -0.07469903467512562 -0.1276108721830576 
0.06828438340512968 -0.03789863266048350 -0.005335683128052094 -0.01094834790393553 -0.03140800195621690 
-0.08637859082881989 -0.03823826855975949 0.05191397405153204 -0.008306572050651835 -0.01356986580904006 
0.4702829988001862 -0.08800950301454481 -0.1139749780853797 -0.2783393827023178 -0.04638932937731256 
0 0 0 0 0 
0 0 0 0 0 
0 0 0 0 0 
0 0 0 0 0 
0.01670846285512606 -0.02044541598958390 -0.001121167866108932 -0.007143004745221046 -0.01029754654012322 
0 0 0 0 0 
0 0 0 0 0 
0 0 0 0 0 
0 0 0 0 0 
0 0 0 0 0 
-0.09080280413000492 0.2332789769206638 -0.04758532308440812 -0.02049796894705228 -0.01703365715361426 
0.07588598092129499 -0.008037554452165148 -0.02804205465842577 -0.04884663566661494 -0.01720586731348029 
0 0 0 0 0 
0 0 0 0 0 
0 0 0 0 0 
0 0 0 0 0 
-0.05255193319043482 -0.05719794196491485 0.2066046957073988 -0.04504693434194584 -0.1146669184894714 
-0.2277386405370000 -0.07511675736519514 -0.1106399003355350 0.4155459121086471 -0.09946036442862016 
0 0 0 0 0 
0 0 0 0 0 
0 0 0 0 0 
0 0 0 0 0 
-0.05662907229876758 0.1083571008293809 -0.02869055266721591 -0.009452237757403264 -0.004726681794610502 
0 0 0 0 0 
0 0 0 0 0 
0 0 0 0 0 
-0.05872299511660916 0.1073307815303162 -0.005573574442042363 -0.02375371058950065 -0.01559989288909642 
-0.005248112594793935 -0.007957736398507763 0.02443330828121920 0.0004187663767328356 -0.004199015951662061 
0 0 0 0 0 
-0.01508848919167529 -0.03226657488378961 0.09281754789626234 -0.006803128362274369 -0.07190296301601742 
0.1806242027208587 -0.06117882590142440 -0.009667649032148964 -0.04907322716470995 -0.03847653082817939 
-0.03096812534496231 0.04141931655290324 -0.006619395026223220 -0.005425706385280279 -0.007287638356065352 
0 0 0 0 0 
0 0 0 0 0 
0 0 0 0 0 
-0.009331045662943896 -0.05438539355600004 0.06121081125133975 -0.03188286126426407 -0.01205956520267529 
0 0 0 0 0 
0 0 0 0 0 
-0.007876975789434994 -0.01994252204946975 0.05578456378920591 -0.001813841739550704 -0.01567166972493027 
-0.003261201177616307 -0.0008332778285601709 0.02843040403995253 1.796534731153543e-07 -0.03920978642124924 
0 0 0 0 0 
-0.007777480795713614 -0.002458268039174852 0.03294350753675133 -0.0003940364180542450 -0.01408419077832247 
0 0 0 0 0 
0 0 0 0 0 
-0.003977664315261344 -0.1568579480233797 0.2669234491527782 -0.01438700600756048 -0.04234289152031993 
0 0 0 0 0 
-0.02535916892633573 -0.0009950494841959026 0.1054399073059669 -0.03553411161874378 -0.05403070655324791 
-0.08194276496251683 0.007508620690840381 -0.1226567869343252 0.3968066466031883 -0.09854752586248411 
0 0 0 0 0 
0 0 0 0 0 
-0.009342675672165816 -0.009351507025096491 0.05066062408412062 -0.003877364401023442 -0.03198883458677451 
-0.002239877414137857 -0.003560942581469535 0.02832844473188115 0.0001863895006656948 -0.02840676041467210 
-0.08839293819930628 0.2513789403268005 -0.008321345736651775 -0.04448451368390801 -0.02017773330182534 
0 0 0 0 0 
0 0 0 0 0 
0 0 0 0 0 
0 0 0 0 0 
0 0 0 0 0 
0.3110198084163762 -0.04523438059319353 -0.1758340368897217 -0.03052758621917538 -0.01545783666442803 
0 0 0 0 0 
-0.003770435648444259 -0.01181203376640718 0.02524286256372068 -0.0007144621238227393 -0.007876172573140338 
-0.005988917159458767 -0.006744198758328292 0.03028020237764315 0.0004455174908531119 -0.005030292001290593 
0 0 0 0 0 
-0.004234070916654249 0.09048104637103706 -0.1059160623802396 -0.0002359576002703221 -0.005408796371406123 
-0.05482566054676813 0.1287438558980966 0.01645139723440219 -0.06171190452718051 -0.08721984478662777 
-0.004624921229289959 -0.4328180414001349 0.3213537267381860 -0.01333789126443429 -0.02032970655576631 
-0.002521991080409668 0.001639308254980295 -0.01215437719519837 -0.008217573893148252 -0.008406864916146499 
-0.03983062340493165 0.07033816880093777 -0.01495932302548565 -0.007249376575939981 -0.003728294406195629 
-0.04195666674923504 0.04444315451293054 -0.002016475300009474 -0.01501320205383852 -0.006614929038324006 
-0.01767017378637021 -0.05379816239967774 -0.005918024406703235 0.07786129341298072 -0.01083366382841221 
0 0 0 0 0 
0 0 0 0 0 
-0.02133874938786692 -0.09822481655777801 -0.02897464312003034 0.2168710135448684 -0.004148796489408893 
0 0 0 0 0 
0 0 0 0 0 
-0.01875490389966298 -0.01523381370261386 0.1712707308710137 -0.04638597415200506 -0.009729373182369298 
-0.2264266245867439 -0.6604915345160601 -0.3096621858628046 1.092477425507839 -0.1163648126464503 
0.2031489536686649 -0.1493091660370033 -0.02696621863367065 -0.03582218099252463 -0.01962289550112424 
0.05371037016792388 -0.02665397053322760 -0.02245636591320867 -0.009222113122521160 -0.01210464329156820 
0 0 0 0 0 
0 0 0 0 0 
-0.004380924065311316 0.02319542629877504 -0.01589975912614167 -0.0004940208233391126 -0.002206706098950826 
0 0 0 0 0 
0 0 0 0 0 
-0.04647203064942422 0.08301604683074387 -0.02252691911994939 -0.03363298488157051 -0.009599939591168140 
0.05916713717249642 -0.03770754280353694 -0.01281867128885902 -0.01804614556708351 -0.02268362857009979 
0 0 0 0 0 
0 0 0 0 0 
0 0 0 0 0 
0 0 0 0 0 
0 0 0 0 0 
-0.1357391616842183 0.4090461184429538 -0.02883565542516476 -0.2365100890744400 -0.01474770558219488 
0 0 0 0 0 
0.3528092496890354 -0.1638982870054504 -0.06256215034766165 -0.04475692303948724 -0.1370707571555314 
0 0 0 0 0 
-0.004366775156066319 -0.001813500952800170 0.02532952351560225 -9.306688443712092e-05 -0.01938390548994659 
0 0 0 0 0 
0 0 0 0 0 
0.04939755827379948 -0.08287324745733529 -0.02704784963831210 -0.006668960533658778 -0.01358863703707638 
0 0 0 0 0 
0.04451567709409797 -0.008301158509770435 -0.02124469200017765 -0.03679601839407261 -0.01472896724891167 
-0.05993775751182831 -0.01470341015789544 0.1963058136417021 -0.003585061625357136 -0.1123869004913014 
0.3668685463612492 -0.04679434981146698 -0.1418479261493073 -0.003250827762955717 -0.03907712000184483 
-0.006268918856043177 -0.006262631551250663 0.03661279110986333 -0.003314864762626678 -0.03608624526012075 
0 0 0 0 0 
0 0 0 0 0 
0 0 0 0 0 
0 0 0 0 0 
0 0 0 0 0 
0.3782503924678574 -0.07605829619886885 -0.008928086474745453 -0.2133844803498453 -0.006153581867800504 
-0.01070809249220402 0.03950700942844370 -0.01312843914884385 -0.003319552829369109 -0.02434135873309007 
-0.007568051711106146 0.0006541403246670117 0.01667631359256645 -0.0004313423296544907 -0.01493046697923487 
0.2768677883231103 -0.03555726420210010 -0.07877238530734589 -0.05944256364209867 -0.1031702912883330 
0.4605279246724928 0.08869286005814983 -0.1189381710862991 -0.2267787663054302 -0.04283042059083625 
-0.01960702093597405 -0.01138475488526479 0.1916512267359246 -0.001320949070408714 -0.1655867995279290 
-0.06395722000738015 -0.07620015529131174 -0.003650741296775732 0.1637664133090616 -0.009925507967659612 
-0.05238973814959795 -0.004986448015247736 0.03724103880956035 0.0005684920961482099 -0.004925994694167146 
0.1714432378551083 -0.1344508377971037 -0.04599216640600552 -0.05709295920935061 -0.03179023022719651 
0.1095713389377392 -0.1013029928611454 0.1286275933979190 -0.03562912372057329 -0.1729604775808482 
0 0 0 0 0 
-0.2783205812902574 -0.03793310247871401 -0.02861709432268401 0.3654352772575920 -0.02310133863642405 
0 0 0 0 0 
0 0 0 0 0 
0 0 0 0 0 
0 0 0 0 0 
0.1838660393230412 -0.03591163075600767 -0.01197842329130127 -0.04298247736868105 -0.02177517187647031 
-0.1230512032660407 0.1159334121159478 -0.04239945941256995 -0.03543658736485211 -0.02358247431107678 
0 0 0 0 0 
-0.01255029241533984 0.06868456366667570 -0.06357790107531629 -0.005609402949909711 -0.004701901852994772 
0 0 0 0 0 
0.05273374814136354 -0.03062252804182371 -0.04141132739873635 -0.01223243669330747 -0.01191759350338143 
-0.08203888574438595 -0.05152678687657284 -0.05193340467953530 0.2155562430549562 -0.01432823343674474 
0 0 0 0 0 
0 0 0 0 0 
0.01085777772859988 -0.005403596852972275 -0.01508310629630218 -0.003872707576736815 -0.003739967371747554 
0 0 0 0 0 
-0.002894747387376304 0.07096409489711190 -0.09172121531190121 8.812925486789670e-05 -0.002625733642749761 
0 0 0 0 0 
-0.01394047612694653 0.03149560349076184 -0.03074838017969383 -0.003093901588050429 -0.001277901182602184 
-0.02115448477881783 -0.02995201256640041 0.1171539993744450 -0.01401116249668269 -0.04343478947854818 
0 0 0 0 0 
0 0 0 0 0 
0 0 0 0 0 
0 0 0 0 0 
0.03175066707582903 -0.04318656441644227 -0.009225817958145782 -0.006931192309176446 -0.01071726123011875 
-0.008464170183116917 0.05550870648593328 -0.02257559052651213 -0.002595387321235415 -0.01858616492829537 
-0.001189817214218658 0.08033342416064011 -0.1254424411201381 0.0001086692733408533 -0.008919322329054302 
-0.009035340294893958 -0.02441941048521259 0.02365514265172032 -5.614589525317645e-05 -0.003748950058009861 
-0.04134773706789051 0.001499987107676824 0.02547198953206017 -0.02381821119653016 -0.05578650322490594 
-0.1017561573460211 0.09442763760774546 -0.01014206184694926 -0.03088816523729564 -0.01484197319680193 
0 0 0 0 0 
0 0 0 0 0 
-0.03116216167272572 -0.1218603602446949 0.2326341427353453 -0.01979681189046807 -0.1455807136599262 
-0.003047834783418398 0.001414753965690171 -0.01052822377606624 -0.007016706430284373 -0.01312887282432052 
-0.003668271528339429 0.01835996924825904 -0.02817169706821425 -0.005353433303566312 -0.009097417131010990 
-0.002437718938953880 -0.05590238128337459 0.04907014454550004 -0.0003228633687897039 -0.003593571151782825 
0 0 0 0 0 
-0.04735966759064229 -0.01051786965838575 0.02225263860309478 -0.0004453254494113795 -0.0006660853102907667 
5.916526011210191e-07 0.03520073887212052 -0.04943339103146689 0.0005109308431638922 -0.002653388007788886 
-0.003289097977071434 0.01174952553000297 -0.01236500805336235 -0.001286340947331623 -0.001407308608778582 
-0.001874388824886200 0.005200017892609683 -0.01142425517290818 -0.004253986242439484 -0.003449174396008881 
-0.001687992818284261 0.005155420192142358 -0.01320879059429245 -0.004011330466631783 -0.002402200551292242 
0 0 0 0 0 
0 0 0 0 0 
-0.04400287766252029 0.1700737077898452 -0.01700814688413461 -0.1086904796064793 -0.03802366744798489 
-0.3695259169902241 0.5146755773924463 -0.1495223134126902 -0.2233233923238932 -0.04619762390179558 
0 0 0 0 0 
0 0 0 0 0 
0 0 0 0 0 
-0.001897367927645158 -0.007278093340587521 0.01799260041946831 -0.0001316656820145828 -0.01115575057062324 
-0.004926653510058922 0.03103094970812474 -0.01507093917354092 -0.04225827342081606 -0.01925742752911306 
-0.005359520688672508 -0.01651721893929595 0.02548597551795671 0.0006954369278803162 -0.002610187746442103 
-0.002883695306872037 0.02351436229442910 -0.03212409149715623 -0.003250249275574312 -0.004542137226979025 
-0.05310535809706794 -0.1586382330715168 0.2276030970061263 -0.01464806998072474 -0.03072665612954366 
-0.1272837080524276 -0.1350739608685664 -0.05337546222313274 0.3613664943365073 -0.03074502997510260 
0 0 0 0 0 
0 0 0 0 0 
-0.003882004279494239 0.01561578722329516 -0.03055817872670438 -0.001516360878686851 -0.008294482513714544 
0 0 0 0 0 
0 0 0 0 0 
0 0 0 0 0 
0 0 0 0 0 
-0.007049494694772980 -0.008264822797658650 0.04204544435207537 -0.01185150311113016 -0.02914072690901275 
0 0 0 0 0 
0 0 0 0 0 
0 0 0 0 0 
0 0 0 0 0 
0 0 0 0 0 
-0.0009862399523938220 0.04783054521542748 -0.08809622769899553 2.734814947087585e-05 -0.004567146408455478 
-0.07635826477199180 0.1865967593594926 -0.05524243828285053 0.08743140035952263 -0.1186514428492643 
-0.008677248045162275 0.08274899430230047 -0.03549440445525148 -0.001608226181891673 -0.01023900498075986 
0 0 0 0 0 
-0.002147885379848472 0.01141254614266839 -0.02495617450950517 -0.006153310236034588 -0.003314715685556500 
0 0 0 0 0 
0 0 0 0 0 
-0.01581141503954624 -0.4048640796783175 0.5908242712622729 -0.01638886109060573 -0.006392321752013112 
0 0 0 0 0 
0 0 0 0 0 
0 0 0 0 0 
0 0 0 0 0 
0 0 0 0 0 
-0.006596098028579923 -0.009918137913322746 0.08836303220505612 -0.008727549987858511 -0.05149317407965479 
-0.004584001003967975 -0.0001995705546577894 0.01093005435471498 -0.0003719335514791283 -0.01332332413771008 
-0.1440702765559715 0.9660590963665490 -0.1242986253583969 -0.5513723839148517 -0.1170318764883012 
0 0 0 0 0 
-0.09494190448469278 0.2622741867220788 -0.05660618603260073 -0.01746448079051192 -0.03050959573533053 
-0.06371344721837910 -0.05960432125484969 0.5627889753342187 -0.1174067036305010 -0.3024778458327224 
-0.002736203259194380 -0.007835630281485657 0.02159265041313439 -0.001184396091952906 -0.005917549925304033 
0 0 0 0 0 
0.01581235957377906 -0.01872558385477185 -0.003114100481274227 -0.004485350251458833 -0.001771733047592983 
-0.002124886984694159 0.04307001049711341 -0.08572943710725547 -0.01362435083504391 -0.04212260771922261 
0.06755808118878663 -0.02652217740845339 -0.02315722528872937 -0.01712381405560336 -0.002643392289894187 
-0.02106096595162110 -0.04050596483196250 0.1167894070109305 -0.002462764235637223 -0.06946186462771740 
-0.007807133390559903 0.1294408905367533 -0.3371107284867876 -0.008198927227274276 -0.002506607644724480 
-0.08327873556751250 -0.1706400491222793 -0.1146149389306220 0.2731451102072383 -0.06207512439982303 
0 0 0 0 0 
0 0 0 0 0 
0 0 0 0 0 
0 0 0 0 0 
0 0 0 0 0 
-0.01464966719912474 0.08936904824577357 -0.1608724993803564 -0.01833928146487601 -0.003204957684003106 
0 0 0 0 0 
0 0 0 0 0 
-0.04690366186772996 0.1128177188893016 -0.03513604290835706 -0.09573161188013389 -0.005168904993461711 
-0.1180728050953889 0.3454035207004036 -0.01065623600942973 -0.08026838868394878 -0.02924774334711761 
-0.002322047654144815 0.01504932799979675 -0.02615732141401909 -0.004759213473739867 -0.001008001008580569 
-0.006883759996152866 -0.02682716140441432 0.08650461076848229 -0.005993569545582991 -0.01101055765985935 
0 0 0 0 0 
0 0 0 0 0 
0.01542317694426174 -0.008597366456225436 -0.01527023125888201 -0.009277184854119326 -0.001023029252948338 
0.2239656853376845 -0.04656478449550471 -0.01461288333714426 -0.02211874855279367 -0.01348342662735736 
-0.005182661547869170 0.02770058163592129 -0.02165877780026302 -0.04643063687718995 -0.005491727646805618 
0 0 0 0 0 
0 0 0 0 0 
-0.2820888035694644 0.1054873860552380 -0.07002985883458482 0.4358152431034333 -0.04481234216825934 
0 0 0 0 0 
0 0 0 0 0 
0 0 0 0 0 
-0.03950574033610636 -0.1175451300897542 -0.06713863263170766 0.1444321198652811 -0.009387937810258436 
-0.02615129553848302 0.05116875371572622 -0.03206196273160715 0.0004099216852072526 -0.007993269762332734 
0 0 0 0 0 
-0.0002650814443786783 0.04183583417090204 -0.04862233522545439 0.0002148596352646805 -0.006289478872018766 
0 0 0 0 0 
0 0 0 0 0 
0 0 0 0 0 
-0.002923895112922042 -0.01179187866590719 0.03438089255886719 -0.007955250209010245 -0.02315561605480548 
-0.006588603375456590 -0.02788599878144606 0.05956829186316815 -0.01339496604618601 -0.04317239829378824 
-0.004008351336964000 -0.003535389021475183 0.02271886657196892 -0.003318545798733342 -0.02887060715045400 
-0.004561545078401056 0.002728339590135953 -0.01335330701923001 -0.008735890992100983 -0.01376345897636305 
0.3510954827013593 -0.06076244652813401 -0.02708977208447307 -0.03708552326531234 -0.02435976243198971 
-0.06574829652976937 0.06563512512703884 -0.01462671915822221 -0.01501512603212379 -0.01375789538482632 
-0.01163739537371522 0.09065182526008116 -0.1023481964069229 -0.004958328845375642 -0.01893544240648159 
0 0 0 0 0 
-0.03274563389030540 0.06675059798437140 -0.009766489968627992 -0.02307746339450996 -0.02481963814185845 
-0.01199908889885044 -0.08583287365155445 -0.02573645149880668 0.07908742763043283 -0.03786542056124044 
0.03161190503298467 -0.02666203646204437 -0.002624658158071182 -0.01660978648835838 -0.01456213168742650 
0.1095845095802040 -0.01046701633471943 -0.03634774231700678 -0.07134226711033151 -0.01679721177195299 
-0.03996470474631238 -0.002133646880335314 0.1913685011154200 -0.06125036463917490 -0.07610468987433505 
0 0 0 0 0 
-0.01445640863955908 -0.09775006937074153 -0.003397243515162959 0.07457389919100380 -0.01292720532360364 
-0.006706097717911378 -0.002506968933232768 0.02670399693408666 -0.0005448290728341696 -0.009560312655227250 
0 0 0 0 0 
0 0 0 0 0 
0 0 0 0 0 
0 0 0 0 0 
0.01447410850341153 -0.01929136745510325 -0.001673043979762343 -0.01244235920176648 -0.009514445076145035 
0 0 0 0 0 
0 0 0 0 0 
0.1623188351357430 -0.01563709470797662 -0.07356593559717409 -0.06565020649203884 -0.04382856569571184 
0 0 0 0 0 
0 0 0 0 0 
0 0 0 0 0 
0 0 0 0 0 
0 0 0 0 0 
-0.009698747518883100 0.2726661895938904 -0.1648872712905373 -0.001020434475037831 -0.02659471893802195 
0 0 0 0 0 
0 0 0 0 0 
0 0 0 0 0 
-0.01275072771539846 -0.004427820492238286 0.01215237311484851 0.0005000682002622729 -0.003555398406015627 
-0.01464790916666092 -0.01813644744186067 0.1516373416487632 -0.005368262530825666 -0.06970278528619672 
0 0 0 0 0 
0 0 0 0 0 
0 0 0 0 0 
0 0 0 0 0 
-0.01353889845100328 -0.01249063421445959 0.04394048364144814 0.0003382276074908681 -0.008056434184879970 
0 0 0 0 0 
0 0 0 0 0 
-0.01688357023348144 0.02894050916771800 -0.008372997930526620 -0.01079565354157433 -0.003849806784524022 
0 0 0 0 0 
-0.02398208537954149 -0.09220532638711370 0.2041232834492560 -0.02491282832140392 -0.03359340459694560 
0 0 0 0 0 
0 0 0 0 0 
-0.01563738476505995 0.008813207722947810 -0.009227798118354065 -0.003852355461259482 -0.005819445555081092 
-0.1094704003346096 0.3892416391475063 -0.05186361188834368 -0.1041153471357099 -0.07317767553215387 
0 0 0 0 0 
-0.007757756513678393 0.006210352882950302 -0.02459774176398610 -0.003307879906529709 -0.001898761784960914 
-0.08506629764205872 -0.2497754449033485 -0.05212364212964133 0.2325119360958987 -0.05892484221708326 
0 0 0 0 0 
-0.01029184199167788 0.1211476408836593 -0.02557752525593472 -0.07591265347544340 -0.01348362989658531 
-0.01386940513718032 0.1608109236336869 -0.1399989502365423 -0.01148374828531797 -0.02956734653283667 
-0.02458108622250520 0.1194769337513883 -0.01117723908522070 -0.05599203457400067 -0.03101488636288850 
-0.01473282863126449 -0.02328057988104074 -0.01227670759494803 0.03377010890506123 -0.008010990709179247 
-0.004474753360439520 -0.005590000606754666 0.01904727182657408 0.0005627176759499316 -0.005691371353475316 
-0.01860402433774680 0.03650211433572222 -0.01064833285477016 -0.02159854796993044 -0.01080823007854306 
0 0 0 0 0 
0 0 0 0 0 
0 0 0 0 0 
0 0 0 0 0 
-0.03409316615117699 -0.03334887585142808 0.1223379349691147 -0.01586054941477887 -0.08760926409972174 
0 0 0 0 0 
0 0 0 0 0 
0.3421609425260032 0.02455159146433035 -0.2045784190163578 -0.004271105782600173 -0.02229276914007810 
0.02212631818837288 -0.02962028544083317 -0.002160701214635168 -0.02034275683621681 -0.01514255713490354 
0.1067417022496879 -0.02525817235482482 -0.01151915999057077 -0.02458710074870175 -0.01569442220753883 
0 0 0 0 0 
0 0 0 0 0 
0.2373969690285871 -0.03916863321967057 -0.09201940589174887 -0.06780862873714550 -0.04652493229244096 
0.01978233492532557 -0.01035060493603849 -0.007197619218762826 -0.007373990295615473 -0.006660214455961970 
-0.05534292764364596 -0.008935924979258467 0.2577760264942500 -0.01928182660081589 -0.1802556474093326 
0 0 0 0 0 
-0.005366668337736748 -0.01496908970393384 0.01919064777743688 7.761864508128700e-05 -0.003912815836075194 
-0.1063329482405555 -0.01080930327333436 0.3266041091681283 -0.03668948347899827 -0.1141928341369769 
0 0 0 0 0 
-0.02148686841805978 0.07143445839495509 -0.06563122121670666 -0.01342032421236226 -0.01281632092875010 
-0.02408096970989398 0.2933652810051746 -0.005429508346126054 -0.1979924442853285 -0.01367113797553708 
0 0 0 0 0 
0 0 0 0 0 
0 0 0 0 0 
0 0 0 0 0 
-0.002270482845044564 -0.003768599361080479 0.03540844421831463 0.0004717072781901988 -0.02257022250114915 
-0.005617950265822451 0.02199575160040482 -0.02403553747998276 -0.001952959542352814 -0.01016448780202748 
0 0 0 0 0 
-0.3673837367992524 -0.009386119878594243 -0.06870339737683538 -0.2431468104916073 0.1020524220608939 
0.7677010453677611 -0.4366473752559851 -0.9351277144677731 0.05275612574964019 -1.149870825519924 
-0.05026656305561646 -0.2296999437785109 0.1447599978515999 0.1470008152341196 -0.1713639117445361 
-0.3980752211347843 0.8031094186330378 -0.5241654934116111 -0.3765350074311407 -0.3605963159085338 
-0.7466750128044144 -0.4166230438271282 1.259018116569740 -0.5539087793821289 -0.5376878377107923 
0.1317561213714349 -0.1997216290930824 -0.8672821987822679 0.5539921915257047 -0.8178841582031859 
0.01170398612563946 -0.4156987954092217 -0.2337090393895160 -0.1321612192638589 0.5791051266957682 
-0.01697731392389002 -0.1131826832579891 0.4145941022543718 -0.002564614418891080 -0.1426865055901526 
-0.1856983412458895 -0.2188577896218829 -0.3096152603919328 -0.2832660350727465 0.6060930801693002 
-0.2030972432619170 -0.06268630408423652 0.1433521190765103 -0.1820000965235108 0.01716712695378370 
0 0 0 0 0 
-0.2190313514664835 -0.02161433952280457 -0.1035800122270772 -0.09954381533013766 0.2716847315507862 
-0.2622782051686509 -0.07017871000705764 -0.2320113968420884 -0.3067753241248887 0.4628850998100795 
-0.01668345431658386 0.08152644404100290 -0.05373665855845380 -0.04246634052911376 -0.01587432241738868 
0 0 0 0 0 
0 0 0 0 0 
0 0 0 0 0 
0.1623188351357430 -0.01563709470797662 -0.07356593559717409 -0.06565020649203884 -0.04382856569571184 
-0.01029184199167788 0.1211476408836593 -0.02557752525593472 -0.07591265347544340 -0.01348362989658531 
-0.03832040327593651 -0.03054153421357240 -0.3620793685598859 -0.02458679370880120 0.3111174979175295 
-0.2819999951851507 0.004133235585002973 0.1924201477673490 -0.1748283864953655 0.09699630219382530 
0.2834921152727444 -0.06907789769721527 -0.004409221242421131 -0.04506407633425245 -0.1093226430741086 
0 0 0 0 0 
-0.06102651472061885 0.4041265604863914 -0.4728700693377043 -0.1546018741738593 0.1419734134541537 
-0.3063402013529454 0.2841364853975519 0.02333800384184312 -0.1951308696920985 -0.2677842440946373 
-0.4562120983461890 -0.2446744997052644 0.8927744636820825 -0.4900808528358052 -0.3450543915849978 
-0.09166057991800218 0.8421710107526855 -0.01437269679014562 -0.2317970094504091 -0.2611046490411761 
-0.06423018596775389 -0.2879370100718848 -0.01961732723698749 -0.06363742135841544 0.2568411736798197 
1.034798451867087 -0.7393174413766294 -0.2531622259779590 -0.08100705680906085 -0.7367539545416780 
0 0 0 0 0 
-0.02773885736108401 -0.03456629950582270 -0.01310567560459135 0.2154830723428689 -0.06988561207974031 
0.1440041697974659 0.1636849109420303 -0.3697686139457383 -0.5577570747152544 0.09641115342530330 
-1.069165776047581 -0.3306563462573978 -0.1027980705999011 0.4875880196656925 0.8283445653526775 
0.3888477088177417 -0.3531409513414099 -0.1642192513707196 -0.09792196151024744 0.3825355586476353 
-0.01038979460936269 -0.06100527794684994 -0.4766546935463280 -0.02958200200484196 0.3717238128612256 
-0.3018039728741812 0.1814630205199330 -0.1204018695232494 -0.1153895762276993 0.3610593274489160 
-0.1349327720899135 0.4575970901759995 -0.1573668865525353 -0.1699509491379047 -0.1512799293818105 
-0.1184721569839402 -0.1465995625954009 -0.2076127737025048 -0.2369230158322421 0.3590119933696447 
0 0 0 0 0 
-0.2556361911287812 -0.1518496741854517 -0.1095720242211487 0.3838808661983419 -0.02565738994185235 
0 0 0 0 0 
-0.2495018957197975 -0.3912263965598943 0.5411876875209309 -0.09601244030805912 -0.1802238626040297 
-0.1128865755753214 0.1238407194257208 -0.1277751055342240 -0.2148681068222722 0.2652083861219621 
-0.003977664315261344 -0.1568579480233797 0.2669234491527782 -0.01438700600756048 -0.04234289152031993 
0.5122424711728280 -0.1125423108097740 -0.1740491684592405 -0.1285129359356481 -0.07779353688266898 
-0.1482020137641900 -0.1920774280105434 -0.006749617585594232 -0.1409415251691834 0.4350099574685001 
-0.9632761583651583 2.162095395891236 -0.5394207957707988 -0.4783604145951620 -0.5499072301748367 
0.1021029780142192 -0.4118049861935293 -0.1345530842667874 0.2906805388110951 -0.1007990817471328 
0 0 0 0 0 
0 0 0 0 0 
0 0 0 0 0 
0.6416705314862750 -0.3445832705830737 -0.09862071517053474 -0.1405055216966172 -0.1136408766100839 
0 0 0 0 0 
0 0 0 0 0 
-0.01257802417991811 -0.02030630652600611 0.1589020031152134 -0.01407534327189822 -0.1084940651674510 
0 0 0 0 0 
-0.3849925272845419 -0.2991293405895300 0.5687320964821253 -0.3192648680189602 0.3125660762887614 
0.2086311290335368 -0.03130835401440567 -0.0006522060007370630 -0.05647254309734175 -0.1288250607421982 
-0.2664170429929195 0.1040056881882108 -0.1506901466981897 -0.2594725668462849 0.2773753848509523 
-0.08377539805856839 -0.1783217823378953 -0.1457401480288086 -0.05405655098058103 0.2836243623248165 
0 0 0 0 0 
-0.1074409351449435 -0.02526035823923375 -0.003542248339274958 0.1936083390257712 -0.08332636046974790 
-0.02940367486896098 -0.1141942533614235 0.1851766957160146 -0.007092790893427622 -0.08229433930550051 
-0.8390497274535598 0.7483983113973370 0.2640466713164159 -0.3554152845796111 -0.2527077184819509 
-0.2893713873304543 -0.1537842494935754 -0.1607601665769913 -0.2140295897338050 0.5434573818189494 
0.1021180187312992 0.02625447502598485 -0.04367797089263487 -0.03801080690162696 -0.1151992327634281 
-0.1716564358245499 -0.01407479581527233 -0.002814847729237074 0.2396511296686203 -0.1488846695822070 
-0.1123295299160469 -0.03561967804545990 0.3239649197902372 0.1731396186822592 -0.2808633894836519 
0 0 0 0 0 
0.7089194352560323 -0.2316196233929385 -0.3750988858679083 -0.4459190364027415 -0.1607319798264873 
0 0 0 0 0 
-0.02485410931745970 -0.005754195287213541 0.02152117689538911 -0.0004689523431341012 -0.009731811741276162 
-0.09791398256350138 -0.1638208448447605 0.08710515295371482 0.3058792415042407 -0.04804477117982713 
0 0 0 0 0 
0 0 0 0 0 
0.2341558893014704 -0.03771466838520096 -0.05244997914020100 -0.1763702826586970 -0.01611796065779262 
0.1125377642140960 -0.09780633103290558 -0.001642815173845483 -0.008987551222238132 -0.01054569892931033 
0 0 0 0 0 
0 0 0 0 0 
0 0 0 0 0 
0 0 0 0 0 
0 0 0 0 0 
0.3828258448318705 -0.1940087360339874 -0.01949992578407118 -0.1657265353176140 -0.1700438859676252 
-0.07013189093564418 -0.1574854443547771 0.4396005315451613 -0.009583225779587931 -0.03247709469029953 
0 0 0 0 0 
0.08512970629500197 -0.3858148812876766 -0.09103571747411421 0.2781313735936890 -0.05157186805187124 
0 0 0 0 0 
0.02402942128595144 0.1318986005205942 -0.02245574583890823 -0.04102479372336743 -0.04781037957408214 
0 0 0 0 0 
0 0 0 0 0 
0 0 0 0 0 
0 0 0 0 0 
0 0 0 0 0 
0 0 0 0 0 
0.06828438340512968 -0.03789863266048350 -0.005335683128052094 -0.01094834790393553 -0.03140800195621690 
-0.01901740147307816 0.2353956115257351 -0.1669195266669346 -0.02768320222020957 -0.05294489166627307 
-0.07953267744867142 -0.02610166572076206 -0.1035659127451653 0.2070444900995375 -0.02824605668780039 
0 0 0 0 0 
0.3068446101044249 -0.05197501012113933 -0.07291994105701669 -0.1399670129789039 -0.01729779296001520 
0 0 0 0 0 
-0.05800753654884461 -0.02370198840372088 0.1426802606383045 -0.04496691903120817 -0.05926198472530876 
0 0 0 0 0 
0 0 0 0 0 
-0.03577113156131329 -0.02968173340738048 0.1647174121002681 -0.02091599412945703 -0.01302622233558206 
-0.01517766331931767 -0.04074528524585309 0.1257061799254800 -0.04024249937072265 -0.07295540320838317 
-0.07609936483530833 -0.07238849812954791 -0.04077549526700962 0.2344725283986666 -0.04009127460459169 
0 0 0 0 0 
0.1806242027208587 -0.06117882590142440 -0.009667649032148964 -0.04907322716470995 -0.03847653082817939 
0 0 0 0 0 
0 0 0 0 0 
0 0 0 0 0 
0 0 0 0 0 
0 0 0 0 0 
0 0 0 0 0 
-0.02535916892633573 -0.0009950494841959026 0.1054399073059669 -0.03553411161874378 -0.05403070655324791 
0 0 0 0 0 
-0.05830522744124014 -0.03218984772738697 -0.1131391878724113 0.4241761054407651 -0.08674174704320273 
0 0 0 0 0 
0 0 0 0 0 
0 0 0 0 0 
0.3110198084163762 -0.04523438059319353 -0.1758340368897217 -0.03052758621917538 -0.01545783666442803 
-0.08129781641007307 -0.4833849340868601 -0.07975395235744885 0.6008744514318459 -0.04532980175022647 
0 0 0 0 0 
-0.01900318433564067 0.1439119672605806 -0.05778983287389237 -0.05268382934257487 -0.03730501659844585 
0 0 0 0 0 
0 0 0 0 0 
0 0 0 0 0 
-0.01715301486421730 -0.1000754755835199 0.2719916386263319 -0.1259465561614425 -0.03632376877788970 
-0.05220839073998803 0.4778069633069940 -0.008532835051263933 -0.3087221768143327 -0.02538267899138215 
-0.004794732322789918 -0.01468631183180138 0.05096165103823219 -0.01917045431902259 -0.04362667393659132 
0.2031489536686649 -0.1493091660370033 -0.02696621863367065 -0.03582218099252463 -0.01962289550112424 
0.2049697036295897 -0.02400921222705317 -0.03106864203018606 -0.01842136767081446 -0.01612177191183691 
0.3668685463612492 -0.04679434981146698 -0.1418479261493073 -0.003250827762955717 -0.03907712000184483 
0 0 0 0 0 
0 0 0 0 0 
0 0 0 0 0 
0 0 0 0 0 
0 0 0 0 0 
-0.1357391616842183 0.4090461184429538 -0.02883565542516476 -0.2365100890744400 -0.01474770558219488 
0 0 0 0 0 
0 0 0 0 0 
0 0 0 0 0 
0 0 0 0 0 
0 0 0 0 0 
0 0 0 0 0 
-0.1516392757016916 -0.002728259235647230 -0.06986440506852536 0.1810733837099805 -0.05936908982402848 
0.3782503924678574 -0.07605829619886885 -0.008928086474745453 -0.2133844803498453 -0.006153581867800504 
0 0 0 0 0 
-0.01960702093597405 -0.01138475488526479 0.1916512267359246 -0.001320949070408714 -0.1655867995279290 
0 0 0 0 0 
-0.1243970703121504 -0.1323571575695185 -0.04222111693382659 0.2811526913778791 -0.01919068370290529 
-0.2602473535854255 -0.01784890486476471 -0.01753248266595207 0.3333255571112110 -0.02131743615475170 
0 0 0 0 0 
0 0 0 0 0 
0 0 0 0 0 
0 0 0 0 0 
0 0 0 0 0 
0 0 0 0 0 
0 0 0 0 0 
0 0 0 0 0 
0 0 0 0 0 
0 0 0 0 0 
0 0 0 0 0 
0 0 0 0 0 
0 0 0 0 0 
-0.1017561573460211 0.09442763760774546 -0.01014206184694926 -0.03088816523729564 -0.01484197319680193 
0 0 0 0 0 
0 0 0 0 0 
-0.04735966759064229 -0.01051786965838575 0.02225263860309478 -0.0004453254494113795 -0.0006660853102907667 
0 0 0 0 0 
0 0 0 0 0 
-0.04400287766252029 0.1700737077898452 -0.01700814688413461 -0.1086904796064793 -0.03802366744798489 
0 0 0 0 0 
0 0 0 0 0 
0 0 0 0 0 
0 0 0 0 0 
-0.01157077089168974 -0.01937843738809358 0.04635204385580432 -0.001252738435312935 -0.001861137449006537 
0 0 0 0 0 
0 0 0 0 0 
0 0 0 0 0 
-0.1272837080524276 -0.1350739608685664 -0.05337546222313274 0.3613664943365073 -0.03074502997510260 
0 0 0 0 0 
0 0 0 0 0 
0 0 0 0 0 
0 0 0 0 0 
0 0 0 0 0 
0 0 0 0 0 
0 0 0 0 0 
0 0 0 0 0 
0 0 0 0 0 
0 0 0 0 0 
-0.02072712052924674 0.3207048016315526 -0.07405996493590636 -0.1486749278388432 -0.01348592229276678 
-0.03263947012900423 -0.04274736019084793 -0.02243707943846195 0.04851608646032862 -0.005569848278162276 
-0.02026911670227176 -0.04994853492916439 -0.02780706898148717 0.05080502456752430 -0.006995835507506318 
-0.06809189465170626 0.2078447272877687 -0.04890951317119397 -0.07156142591094100 -0.03663985977058891 
0 0 0 0 0 
0 0 0 0 0 
-0.04647203064942422 0.08301604683074387 -0.02252691911994939 -0.03363298488157051 -0.009599939591168140 
0 0 0 0 0 
0 0 0 0 0 
0 0 0 0 0 
-0.02608485229322778 -0.06836475907476564 -0.009395984494793251 0.06222091186044458 -0.005217115961791861 
0 0 0 0 0 
0.2239656853376845 -0.04656478449550471 -0.01461288333714426 -0.02211874855279367 -0.01348342662735736 
0 0 0 0 0 
0 0 0 0 0 
-0.03950574033610636 -0.1175451300897542 -0.06713863263170766 0.1444321198652811 -0.009387937810258436 
-0.009331045662943896 -0.05438539355600004 0.06121081125133975 -0.03188286126426407 -0.01205956520267529 
0 0 0 0 0 
-0.03840197310033013 -0.03871799580596655 -0.04991513822317063 0.06257301156669376 -0.01566809552051379 
-0.2112273690713217 -0.4661477237581763 -0.06728378273956678 0.6345372594041370 -0.07838479329496258 
0 0 0 0 0 
0 0 0 0 0 
0 0 0 0 0 
0 0 0 0 0 
0 0 0 0 0 
-0.06350041460696258 -0.07115495555060027 -0.003336097178253511 0.1084876659727043 -0.01334807786893310 
0 0 0 0 0 
0 0 0 0 0 
0 0 0 0 0 
-0.009698747518883100 0.2726661895938904 -0.1648872712905373 -0.001020434475037831 -0.02659471893802195 
0 0 0 0 0 
0 0 0 0 0 
0 0 0 0 0 
-0.04289232680326779 -0.08094855700420706 -0.05386170981153842 0.2046117783391966 -0.008121999605649100 
0 0 0 0 0 
0 0 0 0 0 
0 0 0 0 0 
0 0 0 0 0 
0.3632630379212661 -0.09887270548068512 -0.1295810211487606 -0.004955925842041081 -0.02127847285059542 
0.07327276382759187 -0.05216257718555544 -0.02852445428712569 -0.02501589941551848 -0.02943329897442959 
0 0 0 0 0 
0.2373969690285871 -0.03916863321967057 -0.09201940589174887 -0.06780862873714550 -0.04652493229244096 
0.2397984166853806 -0.04808780760113569 -0.02955516247499303 -0.01451943081448854 -0.09293992398702810 
0 0 0 0 0 
-0.1063329482405555 -0.01080930327333436 0.3266041091681283 -0.03668948347899827 -0.1141928341369769 
-0.006654065358564812 -0.1103228750639455 0.1663703508915553 -0.006196273337232943 -0.04574476160338051 
0 0 0 0 0 
0 0 0 0 0 
0 0 0 0 0 
-0.03334344300523031 -0.006719818432684001 0.08013487850879386 -0.04963039139684802 -0.008421525920514157 
0 0 0 0 0 
0 0 0 0 0 
0 0 0 0 0 
-0.7144053676939168 -0.8092827274171581 0.7881609956760652 -0.5321636431095211 0.2081781676458908 
-0.2819999951851507 0.004133235585002973 0.1924201477673490 -0.1748283864953655 0.09699630219382530 
-0.3780759240438593 0.6419809316544726 -0.3455644616322413 -0.4803021406838273 -0.6540519476182383 
0.3495503102682013 0.05398894566097262 -0.5586576976271536 -1.133662622046722 -0.4429640661138037 
-0.1743076083446716 0.1042612920395810 -0.3210766516474384 0.6254655687471268 -0.8513446561427576 
-0.1591256094503015 -0.1684836348596210 -0.2154627119140803 0.1170930853341171 0.1679251250132783 
0.1440041697974659 0.1636849109420303 -0.3697686139457383 -0.5577570747152544 0.09641115342530330 
-0.1422902504442824 0.009646466064297263 0.05740159018179064 -0.2219608977156998 0.1829140468164615 
0.1654711002829306 -0.4992882906146212 -0.2241490858977905 0.5374137197550498 -0.2870486061397773 
1.055446286118344 -0.3456900454660307 -0.4400276653132721 -0.5003046513930100 -0.2376950526689707 
-0.7174223483276932 -0.5582711162626324 0.2150278334656898 0.3899483672984897 0.5153554382843819 
-0.5498230601456474 0.1991697077869358 -0.2436539756616202 0.3208769049985705 -0.008964390141793330 
0 0 0 0 0 
0 0 0 0 0 
0 0 0 0 0 
0 0 0 0 0 
-0.05792742421191056 -0.04192628909883718 -0.1704281418239613 -0.02590774277920991 0.1455306983896005 
-0.03832040327593651 -0.03054153421357240 -0.3620793685598859 -0.02458679370880120 0.3111174979175295 
0.8294675784023303 -0.4493644767668284 0.5118527832020456 -0.1172345125643469 -0.6249569470909203 
0.2827578791535486 -0.02790425641136731 -0.03948604237439493 -0.01208408004578532 -0.07984465743930418 
0.2827578791535486 -0.02790425641136731 -0.03948604237439493 -0.01208408004578532 -0.07984465743930418 
0.2827578791535486 -0.02790425641136731 -0.03948604237439493 -0.01208408004578532 -0.07984465743930418 
0.2827578791535486 -0.02790425641136731 -0.03948604237439493 -0.01208408004578532 -0.07984465743930418 
-0.1157411460515680 -0.03569848271549674 0.2059986207564340 -0.1244538456262067 0.2055534954458843 
-0.08212279064237565 0.1757130121141972 -0.1702471551600788 0.1426812291746610 -0.05706879116657969 
0.2827578791535486 -0.02790425641136731 -0.03948604237439493 -0.01208408004578532 -0.07984465743930418 
0.2068088307100028 -0.1187320235727436 -0.03420600900077783 -0.05158152255811557 0.0008408897890622696 
0.2834921152727444 -0.06907789769721527 -0.004409221242421131 -0.04506407633425245 -0.1093226430741086 
-0.002428772933263520 0.1197332890147408 -0.04494487366617412 0.0006056603215090323 -0.01213195650298047 
0.3539988210832280 0.05274924997445864 0.4402380589195558 -0.2075519553787154 -0.7573982738380679 
-0.1358824025167617 0.2257421493830562 0.1636984671492671 -0.3270267259754951 -0.4283076860481115 
-0.02272365376415189 -0.02121669565713385 0.3953990300764030 -0.004255841507782533 -0.2043521762929767 
-0.01150115010446202 0.01928110267404107 -0.2481992689350241 -0.06062606562552839 0.3577398552809464 
-0.0006766867581622623 0.1051995055583977 -0.02037542805088294 0.0002108785133736955 -0.06050983767252775 
-0.05853067205680502 -0.003213384764364106 -0.4333395843452528 -0.1671753537966044 0.2740414599432073 
-0.02646571970993179 0.3151227580055964 -0.001610073483598940 -0.1218890612883546 -0.05426127115960106 
-0.02646571970993179 0.3151227580055964 -0.001610073483598940 -0.1218890612883546 -0.05426127115960106 
-0.01213116358605584 0.01786806975920904 -0.8494798212974348 -0.02231572484956872 0.6384171548579746 
0.1121296070708651 0.01434846949828306 -0.02387033747408414 -0.3782700553094401 -0.1920354139037361 
-0.5802500345792495 0.2921945386366691 -0.3994661277616311 0.5448499940564144 -0.1552544899648346 
-0.1330832858533438 0.1522305607156335 0.2792743994053394 -0.008014376763691853 -0.1559079235591674 
-0.02223256187928642 -0.02354057922998698 0.1999622988176671 -0.04832012972452272 -0.02149778029061768 
-0.1678955899215839 -0.2392215778845796 0.6069639382403016 -0.02375982880005249 -0.1917336423096520 
-0.03844354410851420 0.1659552800848210 -0.002366412087482455 0.04986934404393729 -0.1801480737553186 
-0.03844354410851420 0.1659552800848210 -0.002366412087482455 0.04986934404393729 -0.1801480737553186 
0 0 0 0 0 
0.01595874833855746 0.0004117981105105255 -0.006407811474755860 -0.09995223647048496 0.0002305632498194720 
-0.3354727430780927 0.09805393841179530 0.1488189181709305 -0.1348183830027298 0.07089330915852264 
-0.002172434329484046 0.03367600908924243 -0.006192269782308666 -0.001890352995331571 -0.03622440527487820 
-0.3477823405419097 -0.3942136481814347 0.8778190811227261 -0.08877702274651997 -0.3967359052743229 
-0.02773885736108401 -0.03456629950582270 -0.01310567560459135 0.2154830723428689 -0.06988561207974031 
-0.07482426825783456 -0.09266938055571239 -0.1539463222411998 0.1521814140543490 0.07014645242323864 
-0.003574122957489804 -0.01548524098122895 0.1591253456836106 -0.006799407736691779 -0.1181204990535975 
0.08454128422521447 -0.09772825493700761 0.4963182438955077 -0.07776960827113930 -0.2448258905336321 
-0.1348737868909692 -0.1656638345408483 -0.01986476947633806 -0.09677120109741790 0.2115654642079556 
-0.04027255630888522 -0.1392997289308968 -0.02104343375037420 -0.1263991442441773 0.1502832126351727 
0 0 0 0 0 
0 0 0 0 0 
0 0 0 0 0 
-0.05544707310818062 0.4118669671671649 -0.8169434846336269 -0.04609389324263018 0.4876611079052444 
-0.1646301226085686 -0.04898046459678243 -0.02080492355656479 -0.09744869064609588 0.3289464362404693 
-0.004926653510058922 0.03103094970812474 -0.01507093917354092 -0.04225827342081606 -0.01925742752911306 
-0.0006658797482734192 0.1016315324870067 -0.009911866092504083 0.0004941832667691439 -0.05980219447688653 
-0.1574461767062646 0.01421708364021895 -0.5665005082418766 -0.02300426695609151 0.6556808077568187 
0 0 0 0 0 
0 0 0 0 0 
0 0 0 0 0 
-0.02233777932221848 -0.003946688421453105 -0.6296673695237963 -0.0007324506358826633 0.6005948802055368 
-0.1021287166230993 0.1685722498971736 -0.08062949777899742 -0.2953510877907949 0.1464977715108444 
0 0 0 0 0 
-0.4600034691645566 -0.4235952943495963 0.4474431034230447 -0.1480475661783387 0.1322246519965518 
-0.003261003158615631 -0.001226504992213876 0.02906003048095883 0.0002910765813459327 -0.03178503047613909 
-0.06057866047685055 0.1533908204147877 0.1012706311020023 -0.1292119033113637 -0.1171374786183204 
-0.02603793240766025 -0.01110561189041837 0.1235612827424013 -0.004410854617477355 -0.1069176559320352 
-0.02992492600856762 -0.0005046423429211837 0.1765854173204876 -0.04843019482339565 -0.05305918523550168 
-0.01747834088037544 -0.01085387016598005 0.05333672284899067 -0.001479554451701991 -0.007037480360113957 
-0.004572816572911545 -0.001241361968827272 0.08938742005140565 -0.0009800827444907416 -0.08997115564174739 
0 0 0 0 0 
-0.005172991811631837 -0.009826564760337973 0.05024833165945912 -0.006203133685119479 -0.05894268752749383 
-0.03848153825123798 0.05345194734707065 -0.01099789611204254 -0.006275053101630187 -0.09327469853816110 
-0.001081750806212607 -0.003326424518772005 0.02883205027855871 -0.002451312940764186 -0.03742975583620650 
0.5666718012638755 -0.1922123142062737 0.3335372874764409 -0.2336516762904036 -0.2501787029710995 
-0.1128865755753214 0.1238407194257208 -0.1277751055342240 -0.2148681068222722 0.2652083861219621 
-0.1128865755753214 0.1238407194257208 -0.1277751055342240 -0.2148681068222722 0.2652083861219621 
-0.05914326970352557 -0.09436995474912000 0.005288088160699742 0.5233316731989000 -0.1204443776452949 
-0.1757492286004701 0.2720950059470133 -0.06567756459905018 0.3384783129018475 -0.1854807411824064 
-0.2392716531442939 -0.1090726765165420 -0.04255008453516630 0.3709673560900632 0.09719491359600915 
-0.01378717125706255 -0.01706689027814530 -0.5860076207988094 -0.01183199200265101 0.5342163573059586 
-0.01378717125706255 -0.01706689027814530 -0.5860076207988094 -0.01183199200265101 0.5342163573059586 
-0.1781650124179762 -0.1993261602477379 -0.01580945626287049 -0.04305792624304643 0.3848356460316204 
-0.1482020137641900 -0.1920774280105434 -0.006749617585594232 -0.1409415251691834 0.4350099574685001 
-0.005213589812038991 5.440909404793963e-05 0.02700339445611044 -0.0005244525913232767 -0.03953694533978568 
-0.003112422155422202 -0.008054000268023402 0.03346760073360568 -0.002908657703372426 -0.01865892069402490 
-0.001977576673273967 -0.002206955950859173 0.07817412246674689 -0.002279558937375788 -0.08740459932486831 
-0.01985923235340757 -0.009349370586074199 -1.444523976272547 -0.005337919976075737 1.294071304122226 
-0.1028453336899697 0.1615715016223990 -0.0005611291507322813 -0.04441960000021561 -0.06353687696277924 
0 0 0 0 0 
-0.02097562261619135 -0.01379293751137707 0.1691198018799052 -0.0001474376636744126 -0.1854956557648994 
-0.003041301915569131 -0.001965685614034543 0.07516871646339140 -0.001962587061230987 -0.02252101232231788 
-0.003041301915569131 -0.001965685614034543 0.07516871646339140 -0.001962587061230987 -0.02252101232231788 
-0.01436037838252423 -0.02846127892193106 0.08130690706945623 -0.007684971040179683 -0.05316803229410312 
-0.02596049353901896 -0.5901154579495890 0.7130873926922553 -0.005624488034390728 -0.08109461577771793 
0.01922827426965486 -0.09977299386401514 0.06699143304041993 -0.01181742874734961 -0.04012380411189412 
0.01171576222780875 -0.03352318433334499 -0.01708739926558145 -0.01040815701233475 -0.04502845770036527 
-0.01538929572091505 -0.002270377916661582 0.01895926363686049 0.0004598349614191514 -0.006308498269730522 
0.3130165335914139 -0.04047268836452847 0.0007577994084164630 -0.1125414966577775 -0.08828227397699293 
0.2463741234266838 -0.09166939286145190 0.04215235644551742 0.06119007557584659 -0.2509364560984898 
-0.003021899297836285 -0.003331075029454420 0.1014087948888491 -0.003886046905260967 -0.1131774173455840 
0 0 0 0 0 
0 0 0 0 0 
0 0 0 0 0 
-0.03210763138755820 -0.07781126748302943 -0.2513270030766402 -0.03515734973529520 0.2334804457218678 
0 0 0 0 0 
-0.2434679014962204 -0.1848405400796214 -0.0008936183993600716 -0.09282884673796153 0.2935565445862178 
-0.03210763138755820 -0.07781126748302943 -0.2513270030766402 -0.03515734973529520 0.2334804457218678 
-0.1535399199308092 -0.02711622505067405 -0.2859360553074680 -0.03788086412784323 0.6273841342096557 
-0.06098669664977637 0.02025709894574975 -0.7103008856745514 -0.01104538846046649 0.5518894851422406 
-0.05886180966508221 -0.02281291155136365 -0.6245714485672959 0.002578962374577424 0.5940120928614632 
-0.08649531781584915 -0.2321237856182090 0.003948554070294957 -0.1435137344920293 0.2815024382637633 
0.01306055513612583 -0.006002081456764657 8.607611882121852e-05 -0.002761202135265076 -0.03748990381743329 
0.005032362563720141 -0.04003379054545973 0.05435761504319348 -0.01400231325207746 -0.05909639450169364 
0.1591464313648210 0.2848753157322277 -0.01269405242988188 -0.2716333145825727 -0.1594355416663035 
0.1798549553073773 0.1231225510148024 -0.1499672653279963 -0.02345902637486069 -0.1493793747794073 
-0.03811543463802584 -0.03282369281710535 -0.08781446234230833 -0.03071175979133844 0.1306124940198676 
-0.06886524346825533 -0.04891312910003667 -0.3554241522063957 -0.02839089063092182 0.4989557238856190 
-0.03811543463802584 -0.03282369281710535 -0.08781446234230833 -0.03071175979133844 0.1306124940198676 
-0.03811543463802584 -0.03282369281710535 -0.08781446234230833 -0.03071175979133844 0.1306124940198676 
-0.03811543463802584 -0.03282369281710535 -0.08781446234230833 -0.03071175979133844 0.1306124940198676 
-0.08377539805856839 -0.1783217823378953 -0.1457401480288086 -0.05405655098058103 0.2836243623248165 
-0.08377539805856839 -0.1783217823378953 -0.1457401480288086 -0.05405655098058103 0.2836243623248165 
-0.1046182637558230 -0.1452790058659249 0.09810672577973685 -0.07273973755168836 0.03505974716201033 
-0.01526975180140416 0.1620882885105121 0.09855153965954168 -0.01595267236243966 -0.05548212887855653 
-0.3107818026374892 -0.05825938604394931 -0.004564473113763172 -0.06661323440122904 0.3806792014543018 
-0.3107818026374892 -0.05825938604394931 -0.004564473113763172 -0.06661323440122904 0.3806792014543018 
0.005567264597624286 -0.0006378914842870469 -0.004245053438083530 -0.002805173061648505 -0.01312528320235563 
-0.01125800277722767 -0.009549797567563380 0.09179761213808926 -0.001108204989453429 -0.05836265864239044 
-0.02042970056246145 -0.01455353124620261 -0.3528207676187142 0.001850889824625864 0.3995608494983199 
0.05819214395115744 -0.02643443062057381 -0.0001265100760154802 -0.003328730133608318 -0.05266761752335767 
0 0 0 0 0 
0 0 0 0 0 
-0.04536479284043957 -0.0007938272019540824 -0.4210093273438183 -0.09521924193377951 0.6207986835419561 
-0.02736999372113181 0.2668281809035389 -0.3910343641800297 -0.01934317138933635 0.1109999929145069 
-0.02363188426276291 -0.06533559385639835 -0.07659024586069030 -0.001877435073849536 0.1467886051437701 
-0.02363188426276291 -0.06533559385639835 -0.07659024586069030 -0.001877435073849536 0.1467886051437701 
-0.02363188426276291 -0.06533559385639835 -0.07659024586069030 -0.001877435073849536 0.1467886051437701 
-0.02363188426276291 -0.06533559385639835 -0.07659024586069030 -0.001877435073849536 0.1467886051437701 
0 0 0 0 0 
0 0 0 0 0 
-0.02700622123517524 -0.01270710403173724 0.2752137532308193 -0.005596617619999370 -0.2275730306370283 
0.2030158503392870 -0.1991215021840353 0.001614022266208975 0.06079034657495597 -0.2121388014761503 
0 0 0 0 0 
-0.01871797871256042 -0.01002723402514309 0.3295763109158010 -0.005058835736063411 -0.2064420074435835 
0.01198663953982067 -0.1096538122869163 0.2191415458824782 0.2724731164804655 -0.3191150597138932 
0 0 0 0 0 
0 0 0 0 0 
0 0 0 0 0 
0 0 0 0 0 
-0.09536998575527304 0.1516963545286992 -0.05140187543878312 -0.006924876685460318 -0.1263493002554777 
0 0 0 0 0 
-0.008371868623813153 -0.006808206549257246 0.01511285145376036 0.0005912827255877887 -0.002677427495979836 
0 0 0 0 0 
0 0 0 0 0 
0.1189479018141309 -0.1176255132865929 -0.01204752437419095 -0.03578919977671773 -0.009066081362630908 
-0.08930524659570901 0.05280762860672715 -0.04775493048056125 -0.0006159885481160790 -0.01780861145179098 
0.2459615329873991 -0.08191968616288048 -0.02773442543704018 -0.02871726382703566 -0.03422418360566679 
0 0 0 0 0 
-0.08491567280468625 -0.06110098018248925 -0.1097247017331797 0.3229519059035403 -0.02828522616662510 
-0.02203087848975967 -0.1178699956450504 0.2739783862549960 -0.02113700022506842 -0.05982207583308904 
0 0 0 0 0 
0 0 0 0 0 
0 0 0 0 0 
0 0 0 0 0 
0 0 0 0 0 
-0.02574531871408125 0.009004398444893090 -0.01336747157970462 -0.008457857257425707 -0.01142459368762103 
-0.009487120641835298 -0.08165754312017172 0.1071758848529680 -0.007182041711584788 -0.06392502096578322 
0 0 0 0 0 
-0.006165655677010621 -0.006774021351452360 0.02421245435442965 -0.001054150825090023 -0.01160516254347129 
-0.07300811132107358 -0.1486615700397589 0.2947811471684885 -0.03765247845275331 -0.1446017286045560 
0.01194765428620163 -0.006772465633156383 -0.01374898436990836 -0.0009566049580368454 -0.001751080927337962 
0.01194765428620163 -0.006772465633156383 -0.01374898436990836 -0.0009566049580368454 -0.001751080927337962 
-0.04144544041310693 -0.02252244637248899 0.05986962358970450 -0.005980015502805886 -0.03654954181211002 
-0.01408046807583015 0.01495822525312907 -0.009639523024105274 -0.004068659303108035 -0.002500550465790533 
-0.006165655677010621 -0.006774021351452360 0.02421245435442965 -0.001054150825090023 -0.01160516254347129 
-0.1091319541182056 0.03592810981218488 -0.005522845315087857 -0.008107564472712355 -0.003255909034705381 
-0.008715892271450738 -0.006995326189182827 0.05308141133180645 -0.002835416395270179 -0.03042429560147714 
0.004698499724935256 -0.009837038875506845 -0.001649149602852959 -0.003212853935059915 -0.002523417965739917 
-0.08369443847437102 0.2415419014512937 -0.009970495339504733 -0.04769736761896792 -0.02270115126756525 
0.1041222603588216 -0.03553967561051354 -0.04926488920607670 -0.02462322043244030 -0.01503766022731415 
-0.01069925436400262 -0.004573230378819643 0.02360912792919772 0.0006287863608773554 -0.006695882875527520 
0.1067417022496879 -0.02525817235482482 -0.01151915999057077 -0.02458710074870175 -0.01569442220753883 
0.006866484151326503 -0.01011959092904944 -0.003091230136125511 -0.007528354201686086 -0.004505520532831281 
0 0 0 0 0 
-0.003052260069840899 0.01975687234930127 -0.03193642871121145 -0.001855423834925815 -0.009578055785714510 
0 0 0 0 0 
-0.02769472492380899 0.01220057790758615 -0.01343796757395853 -0.01375651971105360 -0.006761582804697328 
0 0 0 0 0 
0 0 0 0 0 
0 0 0 0 0 
0 0 0 0 0 
0 0 0 0 0 
-0.008067646406958938 -0.1133278643747799 0.2003921631875055 -0.007526942396643836 -0.02824537301025809 
-0.008067646406958938 -0.1133278643747799 0.2003921631875055 -0.007526942396643836 -0.02824537301025809 
-0.008067646406958938 -0.1133278643747799 0.2003921631875055 -0.007526942396643836 -0.02824537301025809 
-0.2152524562157354 -0.06726508879776608 -0.03341726994266463 0.2498024145546555 -0.01872441230592965 
-0.08171201353579491 -0.03641350605397146 0.1909930582032710 -0.02029023538195547 -0.03551709611894709 
-0.08342655957853491 -0.02309128761599104 0.1470404369577775 -0.02910614664243818 -0.03601666159320274 
-0.08171201353579491 -0.03641350605397146 0.1909930582032710 -0.02029023538195547 -0.03551709611894709 
0 0 0 0 0 
0 0 0 0 0 
-0.01956998572681513 0.01425963600266210 -0.01520735819478012 -0.01036120286742136 -0.01278675544947424 
0 0 0 0 0 
0 0 0 0 0 
0 0 0 0 0 
0 0 0 0 0 
0.3609454694777735 -0.07271946786482300 -0.02582994005562247 -0.05046942178627997 -0.06708052746708540 
0.2838378144627444 0.02727428135506994 -0.09745854441807497 -0.07331001911912592 -0.1243830377314339 
0 0 0 0 0 
-0.05748394415588552 0.1287513438162683 -0.002900039981432046 -0.05448150592299870 -0.02402544238867751 
-0.005652429029103545 0.02040403222841095 -0.02225304869384090 -0.001323440119142598 -0.003719837198021146 
-0.01138970093290097 0.01306968974507352 -0.01956507131933362 -0.002665143074635499 -0.0008688172042205745 
-0.01408434076604496 -0.006356603181051944 0.02571448589748134 -0.001317324184122128 -0.007112504875030422 
0 0 0 0 0 
0 0 0 0 0 
0 0 0 0 0 
0 0 0 0 0 
0 0 0 0 0 
0.2341558893014704 -0.03771466838520096 -0.05244997914020100 -0.1763702826586970 -0.01611796065779262 
0.2341558893014704 -0.03771466838520096 -0.05244997914020100 -0.1763702826586970 -0.01611796065779262 
-0.002087676536064109 -0.006763451431454603 0.03041017105421671 -0.0008033845435724833 -0.006023755173685242 
0 0 0 0 0 
0 0 0 0 0 
0 0 0 0 0 
0.3382250802576811 -0.003508158366806614 -0.1234065046193652 -0.1335145757480744 -0.04174466814642753 
-0.2219067683012430 0.2130273080887614 -0.006297609057203025 -0.01946891079271116 -0.02322423940367943 
-0.01155716951409452 -0.01917383535254756 0.09568213447578129 -0.01132576215755590 -0.1043293294774553 
-0.01038421082007176 0.01946237542479976 -0.002841742158830396 -0.01491964221127169 -0.01243040038715794 
-0.007938870740709208 -0.01216388957836282 0.01638058667208661 0.0005357439367581025 -0.004058833944970749 
-0.06078056295256953 -0.04389963607946973 0.09392132942740200 0.003718528503992995 -0.03225883387190469 
-0.002655954074134332 -0.004858088478302346 0.02793207280633057 -0.001694085874744597 -0.02053578121155818 
0 0 0 0 0 
-0.02135557845664797 -0.02451819300734044 0.06994443530670161 -0.001007080629104397 -0.02923313180639536 
0 0 0 0 0 
-0.003882333357667664 -0.01793399220965174 0.02690033703162605 -0.001804313115343505 -0.01890963785292782 
-0.003882333357667664 -0.01793399220965174 0.02690033703162605 -0.001804313115343505 -0.01890963785292782 
0 0 0 0 0 
0 0 0 0 0 
0 0 0 0 0 
0 0 0 0 0 
-0.01303007127955669 -0.006961891241938719 0.01444757241268663 0.0003974875669032929 -0.002357128336463468 
0 0 0 0 0 
0.06828438340512968 -0.03789863266048350 -0.005335683128052094 -0.01094834790393553 -0.03140800195621690 
0.01522665358388494 -0.004425348541889741 -0.01409496852893129 -0.01546323361789143 -0.03545360445577901 
-0.04396459630403111 0.04068528924782090 -0.002053225140283979 -0.005597909715413318 -0.007426944865328734 
0 0 0 0 0 
-0.01901740147307816 0.2353956115257351 -0.1669195266669346 -0.02768320222020957 -0.05294489166627307 
-0.01527929201470926 -0.09676816323420212 0.1475245916524049 -0.01021746590472276 -0.01715627943700985 
0 0 0 0 0 
-0.002179256870888684 -0.01358888122727653 0.03141676660258752 -0.006994435858931601 -0.02135373050200673 
0 0 0 0 0 
0.01164994823730576 -0.01331270137668871 5.042590092484318e-05 -0.003760638762392209 -0.006595027853529095 
-0.05800753654884461 -0.02370198840372088 0.1426802606383045 -0.04496691903120817 -0.05926198472530876 
0.005058514617820301 -0.007132714612895196 -0.001171593767033772 -0.003382365982828837 -0.003702518686594130 
0 0 0 0 0 
-0.05305772982124474 0.03347328411859376 -0.008759285400879196 -0.004514885713955900 -0.004045602499562108 
-0.01517766331931767 -0.04074528524585309 0.1257061799254800 -0.04024249937072265 -0.07295540320838317 
-0.07609936483530833 -0.07238849812954791 -0.04077549526700962 0.2344725283986666 -0.04009127460459169 
-0.07609936483530833 -0.07238849812954791 -0.04077549526700962 0.2344725283986666 -0.04009127460459169 
5.916526011210191e-07 0.03520073887212052 -0.04943339103146689 0.0005109308431638922 -0.002653388007788886 
-0.005248112594793935 -0.007957736398507763 0.02443330828121920 0.0004187663767328356 -0.004199015951662061 
-0.02838446414346988 0.1102992986094836 -0.006976388498892747 -0.01022360349608009 -0.02484298879387269 
0 0 0 0 0 
0 0 0 0 0 
0 0 0 0 0 
0 0 0 0 0 
0 0 0 0 0 
0 0 0 0 0 
0 0 0 0 0 
-0.05872299511660916 0.1073307815303162 -0.005573574442042363 -0.02375371058950065 -0.01559989288909642 
-0.07230097169653264 -0.008659491422293955 0.06031918235429579 0.0001231029612820192 -0.002590500303961054 
-0.07230097169653264 -0.008659491422293955 0.06031918235429579 0.0001231029612820192 -0.002590500303961054 
-0.02959322718899038 0.03758223750268953 -0.003819732649401132 -0.01197989100017190 -0.003691447535560847 
-0.005248112594793935 -0.007957736398507763 0.02443330828121920 0.0004187663767328356 -0.004199015951662061 
-0.01317540325390827 -0.03609580037355503 0.2052635177019935 -0.01518010209941511 -0.1943254735222659 
-0.01317540325390827 -0.03609580037355503 0.2052635177019935 -0.01518010209941511 -0.1943254735222659 
0 0 0 0 0 
-0.007051897328907991 -0.03010711756282614 0.06839988713473542 -0.006545923154578437 -0.05710773137758170 
-0.007051897328907991 -0.03010711756282614 0.06839988713473542 -0.006545923154578437 -0.05710773137758170 
0.1386675359716236 -0.01673567138849386 -0.01168412433215844 -0.06408642921854847 -0.04509145986650339 
0.1806242027208587 -0.06117882590142440 -0.009667649032148964 -0.04907322716470995 -0.03847653082817939 
0.1288102765174347 -0.03640815978854262 -0.007480718949964835 -0.01188842439322622 -0.02132211835002182 
0.1288102765174347 -0.03640815978854262 -0.007480718949964835 -0.01188842439322622 -0.02132211835002182 
-0.04660551011002226 0.05023252427585104 -0.01584719314457728 -0.009278061846539760 -0.01310708391114645 
-0.001249670735215028 -0.07222300626813549 0.04715489733528637 -0.009158731622492316 -0.01339554497993102 
0 0 0 0 0 
0 0 0 0 0 
-0.004594399308303254 -0.01123475362121287 0.03479197296636109 -0.0002510289120942386 -0.007772785783825375 
-0.003261201177616307 -0.0008332778285601709 0.02843040403995253 1.796534731153543e-07 -0.03920978642124924 
-0.003261201177616307 -0.0008332778285601709 0.02843040403995253 1.796534731153543e-07 -0.03920978642124924 
-0.007777480795713614 -0.002458268039174852 0.03294350753675133 -0.0003940364180542450 -0.01408419077832247 
0 0 0 0 0 
-0.007777480795713614 -0.002458268039174852 0.03294350753675133 -0.0003940364180542450 -0.01408419077832247 
0.1289268413189986 -0.1463340739585781 -0.03305168280644657 0.3037702885205405 -0.04314074723319147 
0 0 0 0 0 
0 0 0 0 0 
-0.003977664315261344 -0.1568579480233797 0.2669234491527782 -0.01438700600756048 -0.04234289152031993 
0 0 0 0 0 
0 0 0 0 0 
0 0 0 0 0 
-0.02535916892633573 -0.0009950494841959026 0.1054399073059669 -0.03553411161874378 -0.05403070655324791 
0 0 0 0 0 
0 0 0 0 0 
-0.008602908561247460 -0.005554787378926484 0.01414810123053468 0.0003394527005675437 -0.005151500206161801 
-0.005088876434485719 -0.003572074450783635 0.01570714698145091 -2.248603226937614e-05 -0.009081334649057943 
0 0 0 0 0 
-0.005360469509769205 -0.003895730801667250 0.01762724125097795 -3.933270180476360e-05 -0.008619473757035590 
-0.003420993678494145 0.0003050185703108257 0.009323453229797841 -0.0002630705896603542 -0.02192681757255513 
-0.009342675672165816 -0.009351507025096491 0.05066062408412062 -0.003877364401023442 -0.03198883458677451 
-0.4381413830327522 0.5538252437139968 -0.05243182400224217 -0.1356612212030151 -0.3143686710737898 
-0.1690952192969216 -0.1662863203843288 0.1500902363838103 0.3234888792032776 -0.1633812427983435 
-0.002239877414137857 -0.003560942581469535 0.02832844473188115 0.0001863895006656948 -0.02840676041467210 
0 0 0 0 0 
0 0 0 0 0 
0 0 0 0 0 
0 0 0 0 0 
0.3110198084163762 -0.04523438059319353 -0.1758340368897217 -0.03052758621917538 -0.01545783666442803 
0.3110198084163762 -0.04523438059319353 -0.1758340368897217 -0.03052758621917538 -0.01545783666442803 
-0.03701079522172824 -0.003559413448365533 -0.08591531358200628 0.2081622849363116 -0.05948356209756416 
-0.03984262737082926 -0.2653205980419328 -0.008419965065076338 0.2486979316016278 -0.01711924590197309 
-0.04707505065059217 0.2492097365952699 -0.02469562756502880 -0.1213083190605896 -0.02028693406349801 
0 0 0 0 0 
-0.003770435648444259 -0.01181203376640718 0.02524286256372068 -0.0007144621238227393 -0.007876172573140338 
-0.003770435648444259 -0.01181203376640718 0.02524286256372068 -0.0007144621238227393 -0.007876172573140338 
-0.005988917159458767 -0.006744198758328292 0.03028020237764315 0.0004455174908531119 -0.005030292001290593 
-0.005988917159458767 -0.006744198758328292 0.03028020237764315 0.0004455174908531119 -0.005030292001290593 
-0.001217958349903133 0.05480283200040345 -0.08955308539273678 0.0001047013856071005 -0.002497033507567328 
-0.01900318433564067 0.1439119672605806 -0.05778983287389237 -0.05268382934257487 -0.03730501659844585 
0 0 0 0 0 
-0.005867906111755147 -0.008131831623594949 0.02595227128924348 -0.003852358418830044 -0.01975491470782146 
0 0 0 0 0 
-0.01975805229420080 0.07394369073240897 -0.0001211652793909508 -0.07483502236795421 -0.03305902169618181 
0 0 0 0 0 
-0.01128156207403040 -0.07153892739266027 0.02922122871418733 0.05095196467765834 -0.02752317104454911 
-0.005207683734906600 0.3359224668982999 -0.3260188734228562 -0.02670133617995877 -0.03629817076168097 
0 0 0 0 0 
0 0 0 0 0 
0 0 0 0 0 
-0.01875490389966298 -0.01523381370261386 0.1712707308710137 -0.04638597415200506 -0.009729373182369298 
-0.02812742103009405 0.1844416823018194 -0.003103326705137878 -0.1107297325290042 -0.01171154101584506 
-0.004794732322789918 -0.01468631183180138 0.05096165103823219 -0.01917045431902259 -0.04362667393659132 
-0.002272460768515949 -0.01649258316021972 0.03836505227269912 -0.008819237531902906 -0.01805393313046026 
-0.02145666175256105 -0.006277829107134090 0.01912481316421148 0.0003749701456021591 -0.004763048838717914 
-0.02772729983048138 -0.01265841009068742 0.03363572484542898 0.001237982563142181 -0.007917932798895142 
0.2049697036295897 -0.02400921222705317 -0.03106864203018606 -0.01842136767081446 -0.01612177191183691 
-0.1016788025390118 -0.03296956782975738 0.3025338529392233 -0.008482563481017455 -0.1734823212623362 
0 0 0 0 0 
0 0 0 0 0 
0 0 0 0 0 
0 0 0 0 0 
0 0 0 0 0 
0 0 0 0 0 
0 0 0 0 0 
0 0 0 0 0 
0 0 0 0 0 
-0.01244265150057391 -0.01583950263920402 0.05399420188060995 -0.008156248743045335 -0.03300653459082841 
0 0 0 0 0 
0 0 0 0 0 
0 0 0 0 0 
0 0 0 0 0 
0 0 0 0 0 
0.03973806917606296 -0.06364790221875930 -0.004482533585542934 -0.005221592809480217 -0.01469753419407371 
0.03553587295376130 -0.07924994620147993 0.05706577102215825 -0.009692290053648923 -0.02129171366441772 
-0.004366775156066319 -0.001813500952800170 0.02532952351560225 -9.306688443712092e-05 -0.01938390548994659 
-0.1357391616842183 0.4090461184429538 -0.02883565542516476 -0.2365100890744400 -0.01474770558219488 
0 0 0 0 0 
0 0 0 0 0 
0.02876879149042163 0.08931528463739656 -0.1604403608736549 -0.01638008502079541 -0.03283501259234894 
0.04671599449994828 -0.09409836487902898 -0.002091543477531001 -0.008191832835073062 -0.01800501522659173 
0 0 0 0 0 
0 0 0 0 0 
0 0 0 0 0 
0.3668685463612492 -0.04679434981146698 -0.1418479261493073 -0.003250827762955717 -0.03907712000184483 
0.3668685463612492 -0.04679434981146698 -0.1418479261493073 -0.003250827762955717 -0.03907712000184483 
-0.008371868623813153 -0.006808206549257246 0.01511285145376036 0.0005912827255877887 -0.002677427495979836 
-0.006268918856043177 -0.006262631551250663 0.03661279110986333 -0.003314864762626678 -0.03608624526012075 
0 0 0 0 0 
0 0 0 0 0 
0 0 0 0 0 
0 0 0 0 0 
0 0 0 0 0 
0 0 0 0 0 
0 0 0 0 0 
-0.005002381614365985 -0.008685199760184528 0.03621192439119355 -0.002520233968046147 -0.02214043885869771 
-0.005002381614365985 -0.008685199760184528 0.03621192439119355 -0.002520233968046147 -0.02214043885869771 
-0.006066046488249738 -0.006709925869031581 0.03809627660104165 -0.003243478639377787 -0.03499967596859474 
0.3782503924678574 -0.07605829619886885 -0.008928086474745453 -0.2133844803498453 -0.006153581867800504 
-0.005156370386078253 -0.008512969966717241 0.03636705408575571 -0.002581628222507467 -0.02311271414281814 
-0.005156370386078253 -0.008512969966717241 0.03636705408575571 -0.002581628222507467 -0.02311271414281814 
0.04442126476235644 -0.009702351251912020 -0.03900291545381017 -0.02665171681554778 -0.003782946165683896 
-0.04270936501194495 0.2060125821392595 -0.02310628091176505 -0.02122400732533451 -0.02336032940119294 
-0.1403154847793720 0.1103966040681808 -0.05889317957962627 0.2511978136685842 -0.1285769508169239 
-0.01392070004812408 6.168996125666040e-05 0.01190002104015554 -0.0001313764844138373 -0.005664674203652883 
-0.06135598436731007 -0.009838031455427719 0.07647323062873206 0.0009008659730478817 -0.01387377380300871 
0.006866484151326503 -0.01011959092904944 -0.003091230136125511 -0.007528354201686086 -0.004505520532831281 
0 0 0 0 0 
-0.2602473535854255 -0.01784890486476471 -0.01753248266595207 0.3333255571112110 -0.02131743615475170 
-0.01213868057898971 0.02940577918172534 -0.04049750089012778 -0.003801900729868821 -0.004105467883911739 
-0.004926653510058922 0.03103094970812474 -0.01507093917354092 -0.04225827342081606 -0.01925742752911306 
-0.004335191193532956 0.02010017918284672 -0.01813520405105614 -0.003997312888203725 -0.001733547103829275 
-0.004335191193532956 0.02010017918284672 -0.01813520405105614 -0.003997312888203725 -0.001733547103829275 
-0.02237490926998916 -0.01002129876139756 0.05581594361776300 -0.005003482502323075 -0.05169394861196713 
-0.04997463996416249 0.02467364329304474 0.1289742052889172 -0.01706102942784962 -0.09117651460240905 
0.1838660393230412 -0.03591163075600767 -0.01197842329130127 -0.04298247736868105 -0.02177517187647031 
0 0 0 0 0 
-0.02938791733880453 0.04093531411220271 -0.02558793867211667 -0.006819724993152237 -0.004695744148183965 
-0.01596306135052595 -0.002724927940663154 0.01287107436756952 0.0003785644148312471 -0.002183764881099577 
-0.01255029241533984 0.06868456366667570 -0.06357790107531629 -0.005609402949909711 -0.004701901852994772 
-0.003282576481131741 -0.008707768428256886 0.02099259082284482 -0.001562812827456465 -0.007898883941104893 
-0.01460197455058247 -0.004213837975049328 0.05487692788758695 -0.004436258673632738 -0.03686664320235118 
-0.007189084314073334 -0.003950278316062290 0.03089590122093816 -0.002462230629941809 -0.02525565951191485 
0 0 0 0 0 
-0.01275072771539846 -0.004427820492238286 0.01215237311484851 0.0005000682002622729 -0.003555398406015627 
0.03503471010103868 -0.03482342755206658 -0.005498684614315635 -0.006696372160364802 -0.007866654080863787 
0.004762722671243337 -0.008940437639693334 0.006824351634341712 -0.003825498357530130 -0.01059698365683269 
0 0 0 0 0 
-0.002894747387376304 0.07096409489711190 -0.09172121531190121 8.812925486789670e-05 -0.002625733642749761 
0.01000048017648319 -0.01130530984472569 -0.02122976217828406 -0.004394512444735585 -0.003211466103074750 
0.01000048017648319 -0.01130530984472569 -0.02122976217828406 -0.004394512444735585 -0.003211466103074750 
-0.003016112566751115 0.03567821437063361 -0.01636297698750282 -0.0003406589858774222 -0.002911762863838794 
-0.003016112566751115 0.03567821437063361 -0.01636297698750282 -0.0003406589858774222 -0.002911762863838794 
0 0 0 0 0 
0 0 0 0 0 
0 0 0 0 0 
0 0 0 0 0 
0 0 0 0 0 
0 0 0 0 0 
0.01193312077616066 -0.01830460728568208 -0.003309876787674076 -0.0008819343587712549 -0.003588239637252119 
0.01193312077616066 -0.01830460728568208 -0.003309876787674076 -0.0008819343587712549 -0.003588239637252119 
0.1526184590891032 -0.09479371615263063 -0.05235657891235675 -0.01576357437553025 -0.02201593439309665 
0 0 0 0 0 
-0.04060555610599139 0.04152481388515129 -0.008052235339574082 -0.02410197665774398 -0.01484112766333070 
-0.04060555610599139 0.04152481388515129 -0.008052235339574082 -0.02410197665774398 -0.01484112766333070 
0 0 0 0 0 
0.06336257210881371 -0.06984860087848664 -0.01185047611621696 -0.02354097879753483 -0.02527939291754525 
-0.008464170183116917 0.05550870648593328 -0.02257559052651213 -0.002595387321235415 -0.01858616492829537 
-0.001189817214218658 0.08033342416064011 -0.1254424411201381 0.0001086692733408533 -0.008919322329054302 
-0.08610342215535881 0.05745501625587168 0.05083116072857770 -0.01057468489496017 -0.07689672669386372 
-0.0005242874054915726 0.04914859934664971 -0.06737800744507717 0.0007643265759116080 -0.0005166545437904919 
-0.0005242874054915726 0.04914859934664971 -0.06737800744507717 0.0007643265759116080 -0.0005166545437904919 
0 0 0 0 0 
0 0 0 0 0 
-0.01396526579063654 0.006874021183804042 -0.05002600973217807 0.001211073401614727 -0.007099472051678294 
-0.02570013878566222 -0.02181930842808956 0.1066520436850683 -0.01140266435033354 -0.1045536909973653 
-0.005643881008670286 0.01799628389178047 -0.03184014314414530 -0.004725437554220199 -0.002005290834633498 
-0.0006785688308003782 0.02376027503371033 -0.04997247421007033 0.0001696672230496684 -0.004131847303251013 
-0.002570397253229664 0.01175730091989401 -0.01491924245024875 -0.002230361915213923 -0.004748243628059311 
-0.004386972252181199 0.01835219385836800 -0.02561746267132785 -0.004409412335684013 -0.005756482111730260 
-0.001097874275109765 0.006602668328365031 -0.01325245461796550 -0.003123071388352390 -0.004349173502951678 
0 0 0 0 0 
5.916526011210191e-07 0.03520073887212052 -0.04943339103146689 0.0005109308431638922 -0.002653388007788886 
-0.003289097977071434 0.01174952553000297 -0.01236500805336235 -0.001286340947331623 -0.001407308608778582 
-0.001687992818284261 0.005155420192142358 -0.01320879059429245 -0.004011330466631783 -0.002402200551292242 
0 0 0 0 0 
0 0 0 0 0 
0.3632630379212661 -0.09887270548068512 -0.1295810211487606 -0.004955925842041081 -0.02127847285059542 
-0.004380924065311316 0.02319542629877504 -0.01589975912614167 -0.0004940208233391126 -0.002206706098950826 
-0.04400287766252029 0.1700737077898452 -0.01700814688413461 -0.1086904796064793 -0.03802366744798489 
0 0 0 0 0 
0 0 0 0 0 
-0.1303285048294547 0.05210938797617292 -0.003908501039099160 -0.005219960075076073 -0.01581188764077901 
0 0 0 0 0 
0 0 0 0 0 
0 0 0 0 0 
0 0 0 0 0 
0 0 0 0 0 
-0.01157077089168974 -0.01937843738809358 0.04635204385580432 -0.001252738435312935 -0.001861137449006537 
-0.001897367927645158 -0.007278093340587521 0.01799260041946831 -0.0001316656820145828 -0.01115575057062324 
-0.005359520688672508 -0.01651721893929595 0.02548597551795671 0.0006954369278803162 -0.002610187746442103 
-0.002883695306872037 0.02351436229442910 -0.03212409149715623 -0.003250249275574312 -0.004542137226979025 
0 0 0 0 0 
0 0 0 0 0 
-0.05310535809706794 -0.1586382330715168 0.2276030970061263 -0.01464806998072474 -0.03072665612954366 
0 0 0 0 0 
-0.002346767329095955 0.03242403888733614 -0.06085376649715856 -0.001731403003658927 -0.0002657833010344282 
-0.003882004279494239 0.01561578722329516 -0.03055817872670438 -0.001516360878686851 -0.008294482513714544 
0 0 0 0 0 
0 0 0 0 0 
0 0 0 0 0 
0 0 0 0 0 
0 0 0 0 0 
0 0 0 0 0 
0 0 0 0 0 
-0.002981995730863003 -0.008141792571568291 0.008801762386842759 0.0006231727285468159 -0.004143835344962667 
-0.04831753273665194 -0.02884213073674757 -0.009231870523127626 0.04139453882207731 -0.03048523342523065 
-0.009429183116674420 -0.009395454600798483 0.06541195486504278 -0.01620553079482235 -0.01818267083482623 
-0.0009862399523938220 0.04783054521542748 -0.08809622769899553 2.734814947087585e-05 -0.004567146408455478 
-0.01984450147178664 0.2935253294024979 -0.05072755199131340 -0.07837681020477048 -0.1059937930152347 
0 0 0 0 0 
0 0 0 0 0 
0 0 0 0 0 
0 0 0 0 0 
-0.002147885379848472 0.01141254614266839 -0.02495617450950517 -0.006153310236034588 -0.003314715685556500 
-0.02684297739590175 -0.01746648685301273 0.1522308352732294 -0.001597435069932924 -0.05470281665385106 
0 0 0 0 0 
0 0 0 0 0 
-0.01581141503954624 -0.4048640796783175 0.5908242712622729 -0.01638886109060573 -0.006392321752013112 
0 0 0 0 0 
0 0 0 0 0 
0 0 0 0 0 
-0.006596098028579923 -0.009918137913322746 0.08836303220505612 -0.008727549987858511 -0.05149317407965479 
-0.004368595274692154 -0.09146131771576010 0.09596237390019953 -0.01187550763897992 -0.03472580393338871 
-0.03153699842084960 -0.1032401062435187 0.1633057701551127 -0.02491374636378512 -0.1182741370491533 
-0.004584001003967975 -0.0001995705546577894 0.01093005435471498 -0.0003719335514791283 -0.01332332413771008 
0 0 0 0 0 
0 0 0 0 0 
0 0 0 0 0 
0 0 0 0 0 
-0.08583243271487392 0.09941188113839455 0.02145917751078122 -0.09107339264615073 -0.08246741522596279 
0 0 0 0 0 
0 0 0 0 0 
0 0 0 0 0 
0.01581235957377906 -0.01872558385477185 -0.003114100481274227 -0.004485350251458833 -0.001771733047592983 
-0.02331172032558011 -0.007790958887684342 0.1061910378875178 -0.02170532281055907 -0.01696942370649291 
-0.005509374644913098 -0.02062345031763438 0.05299346660903757 -0.002090750084557486 -0.04062808211286797 
-0.0004263673396332651 0.01936465539826363 -0.09396649337362620 0.0008728457941238580 0.0009569621332016771 
-0.03827205123447137 -0.02547013741140975 0.1666089724346636 -0.006615258519820222 -0.1406739965972413 
0.1289550159367390 -0.06369488936208167 -0.06435317716736726 -0.04905828526611265 -0.01310208009370171 
0 0 0 0 0 
0 0 0 0 0 
0 0 0 0 0 
0 0 0 0 0 
0 0 0 0 0 
0 0 0 0 0 
0 0 0 0 0 
0 0 0 0 0 
0 0 0 0 0 
-0.004276182344718380 -0.01737141643777670 0.07063187068384814 -0.01122266198225668 -0.01767973902180167 
-0.04690366186772996 0.1128177188893016 -0.03513604290835706 -0.09573161188013389 -0.005168904993461711 
-0.02608485229322778 -0.06836475907476564 -0.009395984494793251 0.06222091186044458 -0.005217115961791861 
-0.005870808832430909 0.01864578996347178 -0.009612597091511185 -0.02718160831642033 -0.0002028771182715197 
-0.1180728050953889 0.3454035207004036 -0.01065623600942973 -0.08026838868394878 -0.02924774334711761 
0 0 0 0 0 
0.2239656853376845 -0.04656478449550471 -0.01461288333714426 -0.02211874855279367 -0.01348342662735736 
0.2239656853376845 -0.04656478449550471 -0.01461288333714426 -0.02211874855279367 -0.01348342662735736 
-0.007984385659098123 -0.01322895402766070 0.05368513597234349 -0.003397758315810242 -0.02896655211207933 
0 0 0 0 0 
-0.005182661547869170 0.02770058163592129 -0.02165877780026302 -0.04643063687718995 -0.005491727646805618 
-0.003210675322744912 -0.02807226927257569 0.04047587527091189 -0.008338113390984257 -0.01238683718752788 
-0.003210675322744912 -0.02807226927257569 0.04047587527091189 -0.008338113390984257 -0.01238683718752788 
0.1137111162306976 -0.08289157932530687 -0.004329863362699261 -0.03224941080087095 -0.004596210297007253 
0 0 0 0 0 
0 0 0 0 0 
0.02988697717174387 -0.07026406638528643 -0.006351983162479759 -0.002831765296520537 -0.003552420639750268 
0 0 0 0 0 
0 0 0 0 0 
0 0 0 0 0 
0 0 0 0 0 
-0.006706097717911378 -0.002506968933232768 0.02670399693408666 -0.0005448290728341696 -0.009560312655227250 
-0.02695082705209827 -0.04643120824518766 0.1543448974294822 -0.02652297423478623 -0.03161925354478168 
-0.0002650814443786783 0.04183583417090204 -0.04862233522545439 0.0002148596352646805 -0.006289478872018766 
-0.0002650814443786783 0.04183583417090204 -0.04862233522545439 0.0002148596352646805 -0.006289478872018766 
0 0 0 0 0 
0 0 0 0 0 
0 0 0 0 0 
-0.005288320448698770 -0.003678223113001455 0.01245225646909730 0.0002922883253791268 -0.009352314836811853 
-0.03213129784460052 -0.02114470996601418 0.1646830917423267 -0.001305146744553797 -0.06405513149066291 
-0.01704042215732607 -0.02717415924783483 0.03846309024915446 -0.002048913423707890 -0.01540399579147574 
-0.006095597032482764 -0.001483804811640911 0.01687640474374045 -0.0001674738104617364 -0.01135451749022364 
-0.006095597032482764 -0.001483804811640911 0.01687640474374045 -0.0001674738104617364 -0.01135451749022364 
0 0 0 0 0 
0 0 0 0 0 
-0.003132472752332491 -0.01325233427896832 0.04116252123849100 -0.008199157703335647 -0.02491302265407149 
-0.004247328130891830 -0.02497681688474418 0.04774329901640242 -0.008467506670003100 -0.01382420592348902 
-0.004247328130891830 -0.02497681688474418 0.04774329901640242 -0.008467506670003100 -0.01382420592348902 
-0.003450776985751997 -0.01479170939280538 0.01750618261499928 -0.005226231108534744 -0.01793095837855782 
-0.004008351336964000 -0.003535389021475183 0.02271886657196892 -0.003318545798733342 -0.02887060715045400 
-0.004008351336964000 -0.003535389021475183 0.02271886657196892 -0.003318545798733342 -0.02887060715045400 
-0.003282576481131741 -0.008707768428256886 0.02099259082284482 -0.001562812827456465 -0.007898883941104893 
-0.002179256870888684 -0.01358888122727653 0.03141676660258752 -0.006994435858931601 -0.02135373050200673 
-0.003137826389704592 -0.01309428938864068 0.04206210924816887 -0.008168734937651266 -0.02524143991523041 
-0.06357510591147991 0.09521852786571419 -0.01003037688414422 -0.03501785439995597 -0.01685531563034049 
-0.03993756839020321 0.05552005944748684 -0.0005127778222302781 -0.007648395562379125 -0.005049536811059106 
-0.02646844531953792 0.2762954560018449 0.009925773250957224 -0.1985385137637139 -0.02020576290171213 
-0.01303250139407780 0.03611173776000607 -0.01260272182209599 -0.01175983119381917 -0.006672617274496861 
-0.05271579513569157 0.02952338736703276 -0.002023997336126222 -0.003255294838304613 -0.007085278110329466 
-0.03274563389030540 0.06675059798437140 -0.009766489968627992 -0.02307746339450996 -0.02481963814185845 
0 0 0 0 0 
0 0 0 0 0 
-0.03274563389030540 0.06675059798437140 -0.009766489968627992 -0.02307746339450996 -0.02481963814185845 
-0.004433207481889399 -0.009679014292486850 0.03900610328181983 -0.003614999091918530 -0.03031625713170634 
-0.1490480971557218 -0.1970161394063693 0.08055372633619298 0.3672029413852059 -0.08625836060309178 
-0.008207282105074652 -1.296416559538058e-05 0.03741798750271726 -0.0008779462674129747 -0.02829171664131660 
-0.05406598673986719 -0.06172651062377934 -0.003190393745249830 0.1103977397861949 -0.009819347289364084 
0 0 0 0 0 
0 0 0 0 0 
0 0 0 0 0 
0 0 0 0 0 
0 0 0 0 0 
0 0 0 0 0 
-0.005377935422998340 0.0001173334118840849 0.02188038859039693 -0.0006806603122687862 -0.01981739837193652 
-0.006706097717911378 -0.002506968933232768 0.02670399693408666 -0.0005448290728341696 -0.009560312655227250 
0 0 0 0 0 
0 0 0 0 0 
0 0 0 0 0 
0 0 0 0 0 
0 0 0 0 0 
0 0 0 0 0 
0.01447410850341153 -0.01929136745510325 -0.001673043979762343 -0.01244235920176648 -0.009514445076145035 
0 0 0 0 0 
0 0 0 0 0 
0.03023429472684390 -0.01475123187097197 -0.02351696276159967 -0.003006581800107357 -0.004733224823056963 
-0.006095055057356541 -0.003536840786721060 0.02190745793064389 4.720921920668502e-05 -0.006857016285085131 
0.05856835460945697 -0.03926624792017263 -0.03446089998140348 -0.01503759739163781 -0.01363012064851194 
0 0 0 0 0 
0 0 0 0 0 
0 0 0 0 0 
0 0 0 0 0 
0 0 0 0 0 
-0.009698747518883100 0.2726661895938904 -0.1648872712905373 -0.001020434475037831 -0.02659471893802195 
-0.009698747518883100 0.2726661895938904 -0.1648872712905373 -0.001020434475037831 -0.02659471893802195 
0 0 0 0 0 
-0.01275072771539846 -0.004427820492238286 0.01215237311484851 0.0005000682002622729 -0.003555398406015627 
-0.003491718824745792 -0.005932568874027865 0.01119720660919648 0.0007814907255726863 -0.004737828778521334 
0 0 0 0 0 
0 0 0 0 0 
0 0 0 0 0 
-0.01353889845100328 -0.01249063421445959 0.04394048364144814 0.0003382276074908681 -0.008056434184879970 
-0.1053393157008820 0.05720940313852052 -0.006032528312657551 0.07246323059201025 -0.03797176800117360 
-0.02135232860179486 -0.005863121518522578 0.02611484332856220 0.0003113902496693147 -0.004494786950098162 
-0.04289232680326779 -0.08094855700420706 -0.05386170981153842 0.2046117783391966 -0.008121999605649100 
0 0 0 0 0 
-0.005679194435426881 -0.02271463505090152 0.03840668413397985 -0.003717228684305129 -0.02498696726194934 
-0.008036591862767296 -0.002159457320963468 0.02441766076152692 -0.0002572052076959307 -0.01479523163843573 
0 0 0 0 0 
-0.004474753360439520 -0.005590000606754666 0.01904727182657408 0.0005627176759499316 -0.005691371353475316 
-0.02837308805464537 -0.1065024038717594 -0.003756926834798046 0.09041070461859581 -0.01594505119419449 
-0.008421536193504118 -0.03232660383935715 0.08129754312255023 -0.006386789156270215 -0.04167176676481682 
0 0 0 0 0 
-0.05338900060830196 0.2143916622799174 -0.03212067829262397 -0.09189595968069035 -0.04913124805331625 
-0.01020389004804996 0.05841261419280695 -0.01029510635263311 -0.01430537713675925 -0.007308131611884696 
0 0 0 0 0 
-0.002955862978952637 -0.0002247601758575729 0.01658886401559486 -0.0004335471101072394 -0.01416667281286064 
-0.001105249934407243 -0.07747029654602526 0.05491599332877091 -0.003935672480266305 -0.008527684871634331 
-0.001105249934407243 -0.07747029654602526 0.05491599332877091 -0.003935672480266305 -0.008527684871634331 
-0.003944133309987998 -0.05450770950100806 -0.01110456006277215 0.02899591746288788 -0.004808795512489110 
-0.008363512547202750 -0.009973216672236850 0.05932413924494930 -0.004732586947917391 -0.05176608238644864 
-0.004426764582179280 0.02407457475109167 -0.01711930729739109 -0.003134957023836004 -0.003575408621424774 
-0.0001444208008077848 0.005247290277889765 -0.007761095993484545 -0.005223059142226011 -0.004867860108296691 
-0.0001444208008077848 0.005247290277889765 -0.007761095993484545 -0.005223059142226011 -0.004867860108296691 
0.07081192933671256 -0.01339794678800440 -0.02299967045472699 -0.01340942960672768 -0.008462577664018008 
0 0 0 0 0 
0 0 0 0 0 
0 0 0 0 0 
0 0 0 0 0 
0 0 0 0 0 
-0.01244265150057391 -0.01583950263920402 0.05399420188060995 -0.008156248743045335 -0.03300653459082841 
0 0 0 0 0 
0.02212631818837288 -0.02962028544083317 -0.002160701214635168 -0.02034275683621681 -0.01514255713490354 
0 0 0 0 0 
0.07327276382759187 -0.05216257718555544 -0.02852445428712569 -0.02501589941551848 -0.02943329897442959 
-0.004798966936688165 0.05703187523424880 -0.05817680606016935 9.853143553793862e-05 -0.003498482812234570 
0.03794599533477495 -0.06079218088942133 -0.004352027832160442 -0.02646721765393031 -0.01815820964300320 
0 0 0 0 0 
0 0 0 0 0 
0 0 0 0 0 
0.2397984166853806 -0.04808780760113569 -0.02955516247499303 -0.01451943081448854 -0.09293992398702810 
0 0 0 0 0 
0 0 0 0 0 
-0.006636565905409460 -0.01672765914496956 0.02444639458699841 -0.001703396541960076 -0.01219533212645335 
-0.02259393084829259 -0.04442043287373226 0.05898137369556274 -0.003253497931059474 -0.02238631916103570 
-0.01059069660514638 -0.01272368402482886 0.01534433133112746 -0.001627720034180688 -0.006278171198507161 
