solver_type L2R_LR
nr_class 5
label 4 5 1 3 2
nr_feature 5281
bias 1.000000000000000
w
0.1633383227481976 0.2034421965620193 0.3221237876533070 -0.5596172114827321 -0.2001077763156020 
0.1589670557023923 -0.05752421318060776 -0.05658690367916452 -0.1086339846701776 -0.1558381883865746 
-0.2043942442965748 -0.02190195439293387 -0.0008524053885824439 0.4271231649476979 -0.02311158732046048 
-0.04235430022544535 -0.007190068896055616 -0.002684140449146498 0.1011564617500033 -0.0001845786536488319 
-0.4798849377350236 -0.1500554180597797 0.07074482617488123 0.1701472602906889 0.5506056054927206 
0.06935475131480473 -0.05567695128466640 0.1520814873646196 -0.2096521824581454 -0.01856454443543825 
-0.3528701686881148 -0.01184458948622270 -0.002954268647901313 0.2714713935536615 -0.0007995497009865126 
0.3045916532894015 0.002029318838508596 -0.3667561986014680 -0.02865331400934310 -0.1829789752827850 
0.8233421081038007 -0.4680051702874055 -0.5871801581274300 -0.6876110850398142 -0.4179652936239436 
-0.2290040260523432 0.4766233093710220 0.3408761535295468 -0.3858044945521178 -0.2830464441876442 
-0.7098316817175567 -0.07654762731166100 0.4547837364354347 0.3855936391865412 -0.03215637749471333 
0.3469698019911072 -0.02540029584488730 -0.04137157380127762 -0.2716191475061341 -0.03537058679075398 
-0.02524338034533532 0.1293684736544167 -0.03936858224600924 -0.1996661088118893 0.2763430560164610 
-0.5877934837841486 0.05285151066187151 -0.02973613732226132 0.6543714248032870 0.02099724912044011 
0 0 0 0 0 
0.3763136181226739 -0.2046118399948410 -0.1387588056792012 -0.1058220857713166 -0.2139546846531885 
0.7490283359874522 -0.2040880953039559 -0.1919091165980351 -0.1957907958143560 -0.3526199358785119 
0 0 0 0 0 
0.4101165429169683 -0.1265834853465711 -0.1238295747009587 -0.5667623857872919 0.3662104529380602 
-0.4924197527872498 -0.007113614192431468 -0.01104940193366726 0.4027447731627508 -0.002545871533420482 
0.3401205378596104 0.2578762683410867 0.01367769316319316 -0.5999809112114158 -0.1034026125447549 
-0.3150208337732273 -0.4724105442733376 0.03052560304521779 0.1694649584141932 -0.08987637734560220 
-0.1257972245189234 -0.01548179965013626 -0.006411653890093755 0.1348311820301923 -1.561221517539305e-06 
0.1178137377951579 0.3654650531892982 -0.1284960163099269 -0.4232002533763885 -0.4515109496535289 
0.4021687997894061 0.1897376122409832 -0.2868072203612059 -0.2430682176494625 -0.3602488038260178 
0.1439333597815113 0.07527266455502502 -0.8912356581369433 0.1339824511588202 -0.06570894225855050 
0.2289247750018018 -0.5796068072841718 0.1700315846602482 -0.7910928149936953 -0.4815445560176071 
-0.04186162503566639 -0.002264212110105683 -0.004130495310850431 0.06285274509412375 -4.425215822566103e-06 
1.043886826534939 -0.5683308767095665 -1.146929792102770 0.04571407146365161 -0.06960373607662197 
-0.3583595985864460 -0.005514038522906746 -0.008645471263012317 0.3910995857121282 -0.005627833932156504 
0.1135101485298444 -0.6495436148372803 0.1512069113326491 -0.2552302175780786 0.07895780345494212 
-0.01959509425395475 -0.001035619372183025 0.07188909572860908 -0.07930972650953216 -0.0001049064944844154 
0.6481896198029232 -0.1632019583192367 -0.1696319096653728 -0.3960858713720058 -0.1045886800256200 
-0.1502610503746601 -0.008477045212544897 -0.01071614779450361 0.1391483564407527 -0.0003776085199148568 
-0.3643924117609599 -0.02872104657719965 -0.05797889473978052 0.1016070936562545 0.07908147065819897 
-0.05410995286316433 0.3584492103962007 0.2961911429014782 -0.4564736543607710 -0.4202198802690214 
-0.3875040175460586 -0.4874567424659824 -0.4995794647026394 0.3605371571717778 0.3888483612930328 
-0.3001793891407520 -0.01850804149320492 -0.01710663463418585 0.3189892037466456 -0.002752168071777138 
0.1721100618219009 -0.02579978779455635 -0.1639973814846155 -0.5490171740149165 0.3625626447087457 
0.5444938029411629 -0.1949680350868591 0.08771274674252136 -0.5339905983024563 -0.002015309399104970 
0.8485842006155330 -0.3108115515475952 0.05837563132835262 -0.3968180694773271 -0.3332271002085320 
-1.043797809389072 -0.1342722972531600 0.6807460100649104 0.3150658193924151 0.3833084642220411 
0.3092464755683270 -0.1353540330490459 -0.3707269863628778 0.1498619653665698 -0.2667086288273891 
-0.08559130116263265 -0.001594086058253103 -0.005597975368081325 0.05333989986437097 -0.0007836270391827657 
-0.6112803437221893 0.8331480260446540 -0.1010419941255504 0.05198428738280934 0.08778306764966173 
-0.1306064442366595 -0.01192903804211718 -0.01233828732728998 0.1589166833671866 -0.0002679454693932085 
-0.1725983980643314 -0.2892341404249003 0.2787908556647536 0.2346121608973055 -0.2974252215859982 
0.06976433578403173 -0.08083058554783470 -0.04714627832267106 0.002759594250340934 -0.2531983340488193 
0.6772979164266304 -0.1323904871165025 -0.5806629740198751 -0.3073160812543588 -0.1828281667775716 
-0.1231278277984693 -0.5273183921664508 -0.7284231962822199 0.7448001022741244 0.2035761273759020 
-0.007703553766648729 -0.5947576062813164 0.7142027843022373 -0.2055205646535904 -0.3507818956552436 
1.118829265878510 -1.101171320454381 -0.2987245990489018 -0.8660798813212259 -0.6116049850047347 
-0.1083863189215258 -1.102956889387655 -0.9111428203801547 0.3188405309072313 0.2158027641150640 
0.9772553663706920 -0.03867900085199379 -0.8403575850502450 -0.9893250745404196 -0.8820060944387310 
-0.5324146491993952 0.4329848049418220 -0.5023646573983218 0.3981431051587073 0.2578947770332726 
-0.3472775680299266 -0.7371031281874466 0.3208154033245496 0.1686322653761888 0.04105781515833748 
-0.2149707787275159 0.7736856499578891 -0.2146236006145663 -0.2264349506308400 -0.08833216411438416 
-0.1102192766459063 0.4002025428264921 -0.1862415917050102 -0.2162371903808990 -0.05942254340670422 
-0.4353665429076519 0.4929143733802290 -0.06062750447424176 -0.04700556507514639 -0.02267984939615126 
1.053183719217347 -1.281575288334218 0.3087546274805317 -1.257253775629516 -0.9340325118000452 
0.5075134828995592 0.4937581860814169 -0.5237284974612805 -0.9364000543842028 -0.5860450333989364 
0 0 0 0 0 
0.2014045214022541 -0.02196238134246966 -0.01558821097848539 -0.2131212842983825 -0.008217953754888393 
-0.2038837722706970 0.3246904298624198 -0.01532636037891435 -0.006186132957430098 -0.004326447835503210 
-0.2615109656489625 0.3922297101634457 -0.03159988377812533 -0.004764556612226015 -0.02810911300148920 
0 0 0 0 0 
-0.7630948308171148 -0.01769990634651340 0.1454917920167396 0.6439907377995014 -0.02706240114695335 
0.001620477958588042 -0.1073080469837947 -0.004772885563217748 0.02485051169573459 -0.02627806398017540 
0.1729637424860522 -0.04787663694678820 -0.2290385793776976 0.006268460572487471 -0.04228815015688832 
-1.018465264007926 -0.01714719267276673 -0.007799998134244000 1.043587379160318 -0.01324573699303316 
-0.6825171766508623 -0.2227031912578085 0.6895301658703454 -0.1224012373920496 0.2864716393241903 
0.3193998438122011 -0.06148926808801142 -0.3041379972787714 -0.02364981350340711 -0.04355124881697448 
-0.01605913596097116 0.01332350957810617 -0.007492665988332588 -0.003377846895139769 -0.001563052078099137 
-0.6752640166681867 0.2229301999295396 -0.006175188909315569 0.8018836610571977 -0.01061335007605727 
0 0 0 0 0 
-0.2829480768742285 -0.001425170953473363 0.1526707463202113 -0.001732759696230752 -0.05543131235127936 
0 0 0 0 0 
-0.3426515803507902 -0.002273443271431300 0.1514543220942677 0.1534371433262940 -0.001571497544279196 
-0.05176897592062833 -0.1050087192613210 0.1273237018152445 0.09558382098816769 -0.03060498760174982 
-0.1273188810404838 -0.006578704505318816 -0.02047236888418373 -0.02279221648750035 0.2514646289493875 
-0.2260110167333575 -0.002892885433527392 -0.01210983412303797 0.3071935393376390 -0.006778102021609132 
-0.2923118283757888 -0.006693640949141985 -0.1206503448666621 0.5529530745016276 -0.0008971685914971376 
0.5152889547146365 -0.1556402869878422 -0.2818169735559382 -0.09548056457494782 -0.02480389500724775 
0.2066256084409409 -0.1087687001150531 -0.2761770365966490 -0.05960194616063657 0.007630450432034299 
0.2989907391122352 -0.1544458846185856 -0.2019724603999410 -0.02765662962608475 -0.03463135894567510 
0.1671702768072340 -0.01960784294617873 -0.03750688135298651 -0.06161281850983759 -0.02976662303168178 
0 0 0 0 0 
0 0 0 0 0 
0.2972696213620506 -0.01622264410612854 -0.1230742444404307 -0.3611563474356457 -0.01960247199802482 
0.1705861674792328 -0.02642242842711430 -0.02752172650896960 -0.09515635344677440 -0.08424534334353259 
0 0 0 0 0 
0.04614116270010575 -0.001781742198011671 -0.01634337398233125 -0.06581952296767452 -0.06571359729793325 
-0.2421196735049907 -0.002813570502519775 -0.01219792735905786 0.3308915802060110 -0.004867692679557667 
-0.07956344739549429 -0.001146459867028023 -0.001408376934033234 0.07007191249688008 -0.0003207924552359196 
0 0 0 0 0 
-0.04235430022544535 -0.007190068896055616 -0.002684140449146498 0.1011564617500033 -0.0001845786536488319 
-0.2228045271596534 0.09122205014975182 -0.005266067067818632 0.1798880432717547 -0.001883667283050893 
0 0 0 0 0 
-0.3856976541762749 -0.007518814896279130 -0.02119258940229764 0.3780601840752350 -0.008564228416637424 
-0.06831127829996363 -0.1343556312242213 -0.07186134656854755 0.3950497956979801 -0.2687211614949435 
0.1048254996344817 -0.05812916815920197 0.2143213032699167 -0.09644758701439976 -0.1322805134835590 
-0.09750432210157944 -0.1299179249397740 -0.04142972984336188 -0.03413577229910898 0.3454989715638900 
0.06436521674889989 -0.3016078678702565 0.6175475604913659 -0.1718645599971007 -0.1874167901204091 
1.192087446582083 -0.05356206679657759 -0.1790088663447202 -1.312093489581739 -0.08590435522266397 
0.01264743147683859 0.03053557162261174 -0.1118158567424951 0.1264965622223721 -0.09363273810161720 
-0.07698385244360616 -0.002326633878407976 -0.001087471771041221 0.05065954396411029 -0.0003872098825465197 
0.01557423186497626 -0.07018301334701206 -0.1204566439192890 0.05852737418226540 -0.01307945633234200 
-0.1216787823557139 -0.04356102948413390 0.1657941225000984 -0.001076905403208639 -0.01637724803621054 
0 0 0 0 0 
-0.05389487157941470 -0.003151669369541593 -0.0007132676940126180 0.1135645115246708 -0.0001665050282176180 
0 0 0 0 0 
-0.3353481622517601 -0.003653576344464744 -0.003525608010837071 0.2757441053680045 -0.001614021688344748 
0.3465727960354769 -0.01604289319506973 -0.05637875606186151 -0.3491883314606122 -0.01049437675756593 
0.06403397354248433 0.2870740055434785 -0.2513728511927252 0.09293325584869302 -0.1521548911512543 
0.5290773176140442 -0.1236083933330564 -0.09664422968449136 -0.3810340010015290 -0.07096715871151107 
-0.02682877985464365 0.02205201829594200 -0.005890648233112769 -0.003311921097119336 -0.007347604710620736 
-0.4005604321413936 -0.05430655424479501 -0.002609513734936626 0.1419145563575794 0.2767936279483291 
0 0 0 0 0 
-0.06430273639502705 0.09200748651897140 -0.02817315693570286 -0.02061068694330193 -0.004517018074621897 
0 0 0 0 0 
-0.08999503585411016 0.09627547280502387 -0.01025101382225701 -0.01197135242366470 -0.003912590775477088 
0 0 0 0 0 
0 0 0 0 0 
-0.2269247045143755 -0.002859524891623458 -0.001900122937939018 0.1957556683614159 -0.0008501996194214367 
0 0 0 0 0 
-0.1523484732139348 -0.01106316669623060 -0.009373820031067523 0.1680512900160202 -0.004987017702097705 
0 0 0 0 0 
0 0 0 0 0 
0.7857006544660161 -0.3609057389122707 -0.6050020817564387 -0.01989025147535695 -0.2192202080868017 
0.3789871563765296 -0.1938293408765302 -0.2501354249537864 -0.1226977614600089 -0.1039108991743987 
0.3971815633365795 -0.04651712205471045 0.09307900129634224 -0.2692108237521543 -0.02181721831126409 
0.2489856640754404 -0.03908871808392519 -0.02364346473355963 -0.1430399605226404 -0.05737163000320603 
0 0 0 0 0 
-0.04028355447732583 0.01383140942967735 -0.002840825421319453 -0.001411163779718785 -0.001889729687797187 
0.5557805436881179 -0.07043723738718471 -0.1264125094079658 -0.4386914829641709 -0.07199199746176671 
0.1866189461315847 -0.03104984423347895 -0.06728069867232085 -0.04835423414061931 -0.2583540021570795 
0.008440025314152484 0.1156125571612532 0.09899970966131191 -0.08920353727194184 -0.03545657438350069 
0.6478579460378362 -0.06261244896871368 -0.03735321732524560 -0.7795888343921080 -0.07520247248099715 
0.05680303891846637 -0.03402478588253780 -0.04120345723138737 -0.02891669663641351 -0.03766190201801076 
0.4199959008780015 -0.06036148222177330 -0.2145381478492609 -0.2592582614512997 -0.05288608241147434 
-0.4907401901126318 -0.06709274191835303 -0.09762245157493718 0.5611726291250335 -0.01745065898945652 
-0.3395158559917390 -0.2955163261132421 -0.04526362569555972 -0.01523053759436756 0.5882533180951469 
0.1365851818276834 -0.1329401518991749 -0.009854425919033833 -0.04947738960365968 -0.04880441164287447 
0.05136167467349331 -0.007099550643472189 0.2792836164121716 -0.1293111434855866 -0.004214473057385959 
0.0003850010956667955 -0.1002110105078721 -0.02522887105864852 0.1353083544285418 -0.03739038136754182 
0.02188924210560695 -0.02289490363488330 -0.01048479229981201 -0.03034120825670540 -0.03207535174908904 
-0.09085696276305398 0.09599330229957156 -0.004929584217708212 -0.002511973894863580 -0.001983653504231656 
-0.06942948152399972 -0.007289016875678755 0.1229820904085512 -0.01564527546143951 -0.02786896197597735 
0.2404247871167600 -0.02595843777773765 -0.06893037802331742 -0.1023443711814160 -0.01936138374517757 
0.7242361059670817 -0.1128239648290574 -0.3018443339727077 -0.8190102841741232 -0.01571738500607540 
-0.1122093195256861 0.08179709985512668 -0.009725675438695763 -0.0006662014256498528 -0.002151872590133135 
-0.01573209249563884 -0.002565125661438680 -0.003970832546925050 -0.006586226399622550 -0.0002651137723208768 
0.1589772420486844 -0.06909927334629437 -0.003053978338918407 -0.01882274979525585 -0.03858184712682088 
0.1838359087208111 -0.06306728375570061 -0.1167893477412373 -0.07774778711452317 -0.05096888419420605 
0.1289000957395544 -0.07217218040221172 -0.03985176204652915 -0.09370123266725822 -0.1131759641782178 
0.1239298242071028 -0.1264337889096169 -0.04276279540255132 -0.006100031657291576 -0.01318366213509390 
-0.2480566831046990 0.2481963651025235 -0.01082412124720321 -0.008088999020948133 -0.005565701164228405 
0.3286883662374351 -0.2675400995168392 -0.02546006317748088 -0.02928402647764967 -0.06051867326847855 
-0.2941367568777141 -0.02794803223833137 -0.01967493831956035 0.3433858118961369 -0.01236573922722601 
-0.06480613675859223 -0.03541544391651082 -0.02146318566811823 0.2836225714066193 -0.01392890740693179 
0.2833605623241032 -0.1416992698670136 -0.07074581853525382 -0.1639331565413595 -0.2559009774340978 
0.1929507393890182 -0.1446970392307655 -0.01225610732341594 -0.04282478298967348 -0.04726576704094446 
-0.2503149754070403 0.04526395143349495 -0.0008354693692247460 -0.0007744138508605318 -0.001417588148595023 
0 0 0 0 0 
0.1285066174601493 -0.04610024355902967 -0.01682283185270293 -0.06181510208768599 -0.009621014980243162 
0 0 0 0 0 
-0.06771458807102375 0.8688183981800649 -0.5095900508601628 -0.04682794375437599 -0.09237690237260211 
0.01746093913825740 -0.1426751656881697 -0.1280084239594472 -0.03201886839397512 0.3837730653414476 
0 0 0 0 0 
-0.2740868076040033 0.3345312479395523 -0.05492789204347384 -0.02125370724318309 -0.03328988203135570 
-0.1848753919248508 -0.002146690580111849 0.2991104092161096 -0.02526993668004628 -0.0001384158273645522 
-0.3635196703767019 0.8117607085824625 -0.07279758440821957 -0.08592734861968795 -0.07377251088439164 
0.06794280799749251 0.2083764834485025 -0.05987753588776484 -0.1317194863287747 -0.05048713458243695 
-0.1291705489708823 -0.005026142905579259 -0.001115490962072903 0.1139798230787526 -0.0001328628618794187 
-0.2488413625471486 -0.02150188023935226 -0.01427584489775390 -0.08765155915943118 0.4288485568192391 
-0.2030243720513851 -0.01987791394177023 0.2272256109243157 -0.02604248635902494 -0.005459432717753747 
0 0 0 0 0 
0.09932669037396012 -0.003103779119290576 -0.007159098588472163 -0.1275347803718672 -0.0005011861099895555 
0.1878887179302838 -0.08768263261636407 -0.02295294391203337 -0.07518314547100180 -0.006823183016896527 
0 0 0 0 0 
-0.01875942679699414 0.03234970376507095 -0.02688303908060132 -0.002253495380837379 -0.002145821149284251 
1.269369422288687 -0.2107925493959410 -0.1120081585219560 -0.8698577517341871 -0.1063459325626168 
-0.2429776389973655 0.3070125412896925 -0.08618869079164025 -0.0007503427802460421 -0.003089754092721528 
-0.2025135119871117 -0.0008695436130707918 0.2421608655352491 -0.01686817367565530 -0.001893264629464270 
-0.7813875697652669 -0.008892790953439027 0.7077608173150329 0.3241922779851295 -0.005036734341984599 
-0.6756760101914000 -0.03978152083696167 -0.1908949157126620 0.1383455042245747 1.121920652642828 
-0.02105700664420226 0.01007464156472449 -0.006252500920250560 -0.0007265465938938742 -0.002093507193232567 
0.1240555212040266 -0.2656489580799904 -0.009349141089560142 -0.02251714395273478 -0.01305310894918451 
-0.1791131678106639 0.3375769942672612 -0.008566835952769096 -0.01410825059795732 -0.004806194956722167 
0.3325193084994707 -0.3783844350661494 -0.02956713060561661 -0.01357056506209096 -0.006270883302877638 
-0.04842251484715709 0.05322163248467095 -0.01688555484962960 -0.01064528859496194 -0.004278766803548870 
-0.09720776967148878 0.06877735828125223 -0.01635180274037124 -0.007088703189851700 -0.002276890739655747 
0.1100212198667317 -0.09480447697496736 -0.05170998339872127 -0.07594732970855775 -0.02695701379617653 
0.2265078716101565 -0.3437738814593419 -0.07050994582019622 -0.01377680123702986 -0.02749889695255708 
-0.07087854955225360 0.06374342611745702 -0.004407935291406531 -0.006187174004482565 -0.01328954730489521 
0.01717352196053553 -0.03662421409681498 0.08159856780388672 -0.2290745742295348 -0.04055340922435534 
0.4090191391324325 -0.06007302970557629 -0.1033093072757419 -0.3384091522326988 -0.1175205834164078 
0.1695214331424653 -0.06144870341563483 -0.1077033324868694 -0.01449070577089463 -0.01177256838926128 
0.2444359722126890 0.04460021514304925 -0.3727126735880385 -0.02978987087465708 -0.009582873185104349 
0 0 0 0 0 
0.4400398502294655 -0.03881980872973354 -0.06199245971019876 -0.3051779339157755 -0.02317089584691990 
-0.1375669146198117 -0.09415647663470067 -0.02270884520660594 -0.007086842561694739 0.2769255464106225 
-0.1287535803594878 0.1928471640973843 -0.02094086382262248 -0.004807542312890354 -0.07181891839662830 
0.1589324627995185 -0.1182585673883658 -0.02773067493161974 -0.06621166015634410 -0.1087138585293109 
0.2055667126175574 -0.1507113525422607 -0.05691318828549538 -0.09936675340072580 -0.2085425692045373 
0 0 0 0 0 
-0.2246194543250837 -0.01656362931467934 0.4274819343010088 -0.004353489606116706 -0.08513014646290629 
-0.1409555786890379 -0.02328224119563159 0.2143774886187330 -0.003858295309361283 -0.01389794154948158 
-1.037182928327979 -0.04518632787429673 0.2688718831687614 1.374858218207187 -0.03623689398906883 
0 0 0 0 0 
0.4537191876782690 0.06788916873920181 -0.1555623336600415 -0.06538351357677682 -0.2475597751159561 
0.5803305041176408 -0.02330706550234435 -0.006148184425101311 -0.4682903944754269 -0.0003868198882501592 
-0.1047617376214441 0.1470156221668433 -0.05099005754930201 -0.009669427976798320 -0.01561713805925064 
-0.1339778250205657 -0.005741531543552289 0.04488060129984130 0.08200558477230932 -0.0008523005821100809 
-0.1016870147026805 -0.002653336586390102 -0.003292445549105814 0.1282066752978445 -0.0007154326722103557 
-0.02050325028570896 -0.03832673402513077 0.05508516579573557 -0.008022549765037000 -0.01030565829797957 
0 0 0 0 0 
0.2630627562797546 -0.007527853998811156 -0.04613063532077574 -0.2406366515466022 -0.003036615769217326 
-0.1020708935351757 0.3175131942350896 -0.02659160921382627 -0.01642704439975133 -0.1045075209069095 
0.9915579166216605 -0.1033360074924517 -0.06066689122004849 -0.6510437535796924 -0.01611857569321141 
-0.2230479816932749 0.3638332478364788 -0.001812604166054163 -0.02284549040172109 -0.06433026240239566 
0 0 0 0 0 
0 0 0 0 0 
-0.2109524963655683 -0.03086756203817540 0.2709204800364874 -0.001498329545037675 -0.001154536842029139 
0 0 0 0 0 
-0.2242453945496451 -0.04355054743520374 0.2163855255299031 0.1269932087688566 -0.01109133371447037 
-0.08317194242652423 -0.008642733036549312 0.05533498540258341 -0.002210706403391420 -0.01109689966951861 
0 0 0 0 0 
-0.2376452913438695 -0.003583462739458414 -0.007181388599934025 0.2276638145698355 -0.004927057800051070 
-0.04481903931029996 -0.01113960877350021 -0.005730050907251918 0.05708716152356480 -1.700241035190763e-05 
0 0 0 0 0 
0 0 0 0 0 
-0.02126258569896229 -0.003636422275738936 -0.001465299724206057 0.01806452321112667 1.308901188338217e-05 
0 0 0 0 0 
0 0 0 0 0 
0.2050842133392181 -0.09079298940826537 -0.05369974959950479 -0.01709044399739030 -0.08227616640481335 
-0.1583841836132300 -0.05437419521339520 0.03930191865851672 0.3037619778055083 -0.008795765928258766 
-0.3557151991963852 -0.07545622013623575 0.4136130629360629 0.2407532273441600 -0.08704207684560639 
-0.1782350477442928 0.1098591905466171 -0.01156830227344894 -0.0007564070586528334 -0.004213946711553783 
-0.1558080976806939 -0.001865007643401358 0.04228227818760515 0.07315672311090254 -0.005333996506822386 
-0.3032084594845769 0.6090327170284522 -0.02663631015841154 -0.05356955767453935 -0.2068034200453558 
0 0 0 0 0 
0.3930489621052902 -0.1198767700928452 -0.08721183580682394 -0.06114781678581387 -0.06101396515898933 
0.3186217512339485 -0.03248734522217456 -0.06487280980666303 -0.1646437337307707 -0.006127516928932356 
0 0 0 0 0 
-0.05496107124650444 0.02857392618577817 -0.01120018915014980 -0.001783868333919017 -0.003884762791132979 
0.3382494455170101 -0.02686993417930269 -0.003614947390640719 -0.2426382758002274 -0.03678484841576964 
0.1070186050747034 -0.03132879687348868 -0.03948998057256207 -0.01627053909339817 -0.04771772722843688 
0.2801243023941597 -0.1098145643377922 -0.02984813057682749 -0.1769774854830550 -0.06873787851593549 
0.1947900076758028 -0.1212045806388162 -0.01622769198759724 -0.07540896957947410 -0.01997220382261085 
0 0 0 0 0 
-0.1018310707749362 -0.03514079590201630 0.2601977937895676 -0.009195607442704024 -0.008635538990336520 
-0.08420406898528530 0.08347716823179242 -0.003261382954094814 -0.007190317531978329 -0.02266712904222362 
0 0 0 0 0 
0 0 0 0 0 
0 0 0 0 0 
0 0 0 0 0 
-0.3950333006628567 -0.01392544131114397 -0.01988713387350592 0.4417432626661009 -0.01490868815871180 
-0.3633995890724229 -0.1168075806979173 -0.02984222804206999 -0.04055784020502413 0.5442449781993565 
0 0 0 0 0 
0 0 0 0 0 
0 0 0 0 0 
0 0 0 0 0 
-0.08210869143943049 -0.008714934756340149 0.2318843271270071 -0.01296346751882352 -0.002694971573069673 
0 0 0 0 0 
0.2474099195009996 -0.04221955349815657 -0.1277812124521426 -0.1595096417330695 -0.07052707970142418 
0.2907575711713825 -0.06955722885941533 -0.1763950863956988 -0.01554935736744384 -0.03324966256857685 
-0.1350942310074915 -0.01573841987214160 0.1845175209078836 -0.003526395455730035 -0.01094901124373300 
-0.02227493260384052 -0.002401949888458885 -0.001443175836979012 0.01853528228588940 -2.077729177697637e-05 
0.5176567847027173 -0.1995608078890225 -0.1232775387486423 -0.1231659097406521 -0.07784861128777797 
-0.08849199954271426 -0.008242269813899010 -0.01966388835375386 0.01075750730712823 -0.003204538696793905 
-0.09595573466006228 0.2213746053864524 -0.04344384092040644 -0.008140426830713303 -0.02879152978985105 
-0.1366707420174876 -0.01354129031581272 0.2451370343857021 -0.004278878843023149 -0.002304351202200505 
0.3811162369226874 -0.02806161413692628 -0.2941678655343769 -0.1128055537196089 -0.01154103393181413 
0.1688798675236135 -0.03666096383718773 -0.1087421484921124 -0.03372324454085509 -0.08763382106545696 
0 0 0 0 0 
-0.1348595740492556 -0.005841782430931496 -0.01416024669770256 0.1934661757366383 -0.006491068492960012 
0 0 0 0 0 
0.4625185981071625 -0.08912531819711159 -0.3468645416512998 -0.01947067480976997 -0.2247784094495144 
-0.1223574930409651 -0.003771039083641937 -0.006746089741900135 0.1266296101881295 -0.0009423065543829610 
-0.1976824515775519 -0.0009980536836382396 -0.0009704026874392876 0.1688221092460731 -0.0001770141713558284 
0.1631625580789665 -0.006954058567851335 -0.02285519220307543 -0.1389648594177324 -0.02530989895265363 
0.08368014924125076 -0.07977150176089513 -0.03281314609955151 0.01926222290357142 -0.01374750685810425 
0.2825804093543730 -0.1536420822597328 -0.04151883069020582 -0.03832201612326678 -0.08629525065581580 
0 0 0 0 0 
-0.09674841789446455 -0.005693145637938897 -0.07261755752839716 0.1615995659891736 -0.01023162431282321 
0.09057207855167092 -0.04380079055591642 -0.04884144487832915 -0.009395249072729551 -0.06419981411796752 
-0.4133049909769242 -0.01710858460238617 -0.0007913645724188955 0.5386385080384986 -0.009594131370404916 
-0.4940221519555507 -0.02965842108103547 0.06010967491541947 -0.01967571539338677 0.4698151572238919 
0.03012508113232860 -0.01192899499463936 -0.01633771332532740 -0.01255518456621728 -0.01376623643450685 
0.2524199017585644 -0.09552728521934188 -0.1008367392998121 -0.01062983700109656 -0.1087808055127097 
-0.09866013616388700 -0.002907067762788644 -0.005071821133162307 0.1081402457572254 -0.001220801975011202 
-0.06833668034785953 -0.0008805070060889872 -0.001497937504369248 0.04959725979963277 -0.0005966467095138694 
-0.1747468764161559 -0.04564290126525898 0.3138478474274448 -0.002485580853530340 -0.02822755072459963 
0 0 0 0 0 
0 0 0 0 0 
0.05905073345352473 -0.009347829047170367 -0.06403522289364043 -0.05278491119543249 -0.01717826787530986 
0.1275698831115978 -0.03963107947263489 -0.1286963454669932 -0.04903950790220588 -0.02261631850960453 
0.4664730098218479 -0.03220585515913066 -0.04065863374014257 -0.3794719026436990 -0.008186016475011498 
-0.1940869261646222 0.4217810236930840 -0.01502734508453442 -0.05366006824485573 -0.003902549345465302 
0 0 0 0 0 
-0.06219877481114076 -0.001632401811289583 -0.004306923575452294 0.08417245226593550 -0.0003972396455280145 
-0.09893356815498118 -0.001655003210195706 -0.002437238663437394 0.1023429484725711 9.519928913543513e-06 
0 0 0 0 0 
0.4718372848592999 -0.004604449216261235 -0.3421749222159048 -0.1305982163288377 -0.0009565061385189267 
0.1078246816707706 -0.03124739289714766 0.2178214180147745 -0.1855516854512007 -0.02322648920403115 
-0.7203453302951713 -0.001954841665553162 -0.01250657656393340 0.7440576649928782 -0.003100726247485977 
0.4708313066590777 -0.006794964381364875 -0.8821370148983622 -0.02838810436883225 -0.01320463591489361 
0.2786682421604391 -0.1309906139021253 0.06719370462567537 -0.03275750353428992 -0.06103665094752947 
-0.04321913391685802 -0.02276526130876669 0.06524994447247914 -0.002215412956249629 -0.009611260934584065 
-0.06411419756145223 -0.005104272053537671 -0.04580796431664429 -0.004088943983060987 0.1270222056603001 
0.2859348905612328 -0.008929892363675390 -0.09043189675982595 -0.2114448464451663 -0.01607626157252699 
0 0 0 0 0 
-0.04216161915693620 -0.01047668776779143 -0.06245189880359067 -0.01088734138979602 0.2309455493220463 
0 0 0 0 0 
0.6434262220640184 -0.09227278219390782 -0.3077582831167301 -0.1009017479568467 -0.2612390703277878 
0.1987368851761911 -0.01707229693610885 -0.01932321591229660 -0.01640500309378504 -0.04935539375403219 
-0.09116489379118539 -0.09722866538552888 -0.5559478756796166 -0.1520503759959336 0.7428430764517696 
-0.2127574692266335 0.3505896527432684 -0.06194018531601821 -0.006162824546888813 -0.01341845516814302 
-0.1239280232137458 0.1129217881597700 -0.006387178257863192 -0.003564364561582142 -0.003210279841328561 
0 0 0 0 0 
0 0 0 0 0 
0.5510923443511049 -0.002510439355261090 -0.4896120015836010 -0.01970889490601052 -0.0005522013291578738 
0.1606358790361102 -0.05155335796742176 -0.03295158025051968 -0.05982346798867220 -0.04358706234379397 
0 0 0 0 0 
0.08623066318600091 -0.07199864181474003 0.05424572363498581 -0.01988712919570905 -0.03180603101177620 
-0.1493693486097142 0.1285810075487182 -0.01031959998530467 -0.002362208125790944 -0.006950261328706719 
0.01644046968282618 -0.01173450299101552 -0.01259520139180716 -0.01273015582018557 -0.002846689775886683 
0.02916193708103765 -0.06977627839949704 -0.02150873336475258 -0.01730222974363904 -0.02380289798273186 
0.02092762015128505 -0.04653742963811377 -0.02057819611397863 -0.01761665806421694 -0.01975763832243447 
0.09302221624151123 -0.06640153507440036 -0.008113926295343339 -0.04750388571573035 -0.01201560596197823 
0.1550830444590204 -0.1444700970081587 -0.07160844781069550 -0.01445566249891163 -0.003764918293743425 
0.02790570344632518 -0.2545911809120537 0.3989189718238266 -0.02019828135473807 -0.1808524419648463 
0.1384931967103493 -0.1580843050648300 -0.04109675977172011 -0.01462069800802819 -0.01409105114872338 
-0.4352420821636648 0.4620995702667450 -0.06051802126495518 -0.02931743940067056 -0.02941141762540452 
0.03418558505576899 -0.001513589776892203 -0.004629660424192148 -0.07371103948152513 -0.001363923458236763 
0.5662417306196236 -0.004118485447854582 -0.007958868577991524 -0.5443020952789376 -0.0009879364813746281 
0 0 0 0 0 
0 0 0 0 0 
-0.05492851275564636 0.07534859913499240 -0.04734853461883452 -0.01010580101698878 -0.003036893618123948 
0.2310854672973398 -0.02160670331790937 -0.03460290758984660 -0.2425523813477837 -0.05068617104925457 
-0.07071191469694280 0.06164496962615143 -0.002944462582585892 -0.004544097684247531 -0.01552626444588699 
-0.4179014409965283 -0.01155759014551146 -0.005767042157312609 0.4752692774126505 -0.001441407144987857 
0.03322920102812573 0.2240761822060541 -0.01683572824295908 -0.1733973237267224 -0.01273437248687153 
-0.2339521684548458 -0.001794869735416381 -0.001851643410478651 0.2039171572560683 -0.0007290812257852884 
0.1175904698996910 -0.01179632121366159 -0.06819229818422849 -0.04914664694602980 -0.01601761415843254 
0 0 0 0 0 
0.05090797420760149 -0.02310075521195374 -0.02180321671671932 -0.03715181646454401 -0.03773320346041734 
0.04027625440006576 -0.02044021642201798 -0.02195101018906905 -0.04207778771143537 -0.03228521412346610 
0.7331494142069712 -0.05673992673534375 -0.001182151938571233 -0.6829391706967661 -0.01091744893039485 
-0.2550214889024954 0.4807264619741811 -0.01113137212433244 -0.003117851360770044 -0.1163592953302749 
-0.4002585682219472 -0.002045628798406227 0.3751297970256599 0.1097992922811284 -0.001158438395829895 
-0.1550532254424330 -0.001737021653258645 -0.0004380317846223234 0.1019680413601617 -0.0003308238872302733 
-0.4168350404350583 0.4195478201802946 -0.008540515975190632 -0.02845741830155676 -0.02984528352996284 
-0.2342152725231455 0.3879204320505690 0.2721883985170245 -0.06495888533700057 -0.1321168896928304 
-0.2869918810021460 -0.005715425683751813 -0.006052159662047407 0.3097314087312489 -0.0004133311256065106 
-0.09528062854110449 -0.03763208155224244 -0.02586395148446292 -0.001690174382935905 0.2111213058571378 
-0.1606370729245527 -0.01730651152046805 -0.001086654783234697 0.1493825152094302 -2.914603364337148e-05 
-0.1331447644282756 0.2035699321873908 -0.1109449798266776 -0.02563792897595461 -0.07970150781458317 
0.3699656063732836 0.09242720538053632 -0.1642909018780084 -0.3221900471946853 -0.08506962930020615 
0.2627021939578455 -0.06090198963733166 -0.01318606987999157 -0.2720968771870144 -0.02625855946716561 
-0.2367016589039860 -0.1858527229508285 -0.01228947823615637 -0.006472646768595075 0.3932501902216490 
0.09474330586938590 -0.04819496282315075 -0.006783037368169234 -0.03952173226669183 -0.004171175717823886 
0.3109979207730128 -0.2508739658824356 -0.03364535919443557 -0.004596571307805661 -0.02897436762287318 
0.1106829848436636 -0.1094108404545159 -0.01328236574310376 -0.03335717627720333 -0.05359870507222758 
0 0 0 0 0 
0.2504488871165932 -0.1991840271323032 -0.03481159607812689 -0.02070321789275623 -0.1090425111559314 
-0.1847655883780137 -0.04942806923830718 0.2656783816299691 -0.009498810970567458 -0.02564848288117443 
0 0 0 0 0 
0.6455659041548868 -0.007744758715079464 -0.3638364263375752 -0.08477863101094668 -0.008832778472696028 
0.1460657921440854 -0.02024008427122325 -0.01732285736200419 -0.03464213513133706 -0.04778957511371833 
-0.06862267554173265 0.08042392823528006 -0.01181426250756576 -0.01859628639185517 -0.003993596016333595 
-0.05756850449450493 -0.04204392994787422 -0.02290046348035326 -0.04479009546323098 0.2870243482333634 
0.04181995588310336 -0.02200814103172812 -0.02589978190466364 -0.01324731258695810 -0.003733988909306571 
0 0 0 0 0 
-0.01491488212522183 0.01415217510840915 -0.002872019283023082 -0.006018200965149438 -0.001777153271426069 
0 0 0 0 0 
-0.02404580928037015 -0.002141003893321845 0.1035214978902991 -0.05125937632167903 -9.806541444788324e-05 
0.1823161802609398 -0.06001505214214622 -0.04234744511407533 -0.006197024436932108 -0.08390762775586480 
-0.1160248671821169 -0.001290946484273257 0.1153642233810460 -0.003842412644869551 -0.0004833577483177402 
-0.3960277429861753 -0.003770771504976705 -0.008820045355275002 0.4213404907864963 -0.003462053247075464 
0 0 0 0 0 
0.1866860751760428 -0.07395969277821508 -0.06400335753634867 -0.02786018768933291 -0.008298080925975504 
0.2167248232326594 -0.005047622944348862 -0.1333374310026750 -0.04432669221679673 -0.02472700468409108 
0 0 0 0 0 
-0.05855734034796521 0.04599685778744302 -0.01830882205631232 -0.004739315733840500 -0.003478685033397222 
-0.1747239433414380 -0.002594706384045466 0.1112468269122083 -0.004294975064900131 -0.0006425907152017491 
-0.1165263091942871 -0.001251095052516447 0.2249433443017695 -0.05957799954662660 -6.224748556640582e-05 
-0.04501712903958854 -0.002245596837575219 -0.006820745307789363 0.04904920204345240 -7.609510642293046e-06 
-0.6638275542888388 -0.01463788257322520 0.3210542877810552 0.1990479519991766 -0.005684983408074868 
0.3625694469284457 -0.2817118271657747 0.1547357599609072 -0.05910759081272322 -0.1373839793383709 
0.3230524331387614 -0.01110075826879678 -0.07185322096720283 -0.6485273268495879 -0.02684920249211858 
0.05969525199587767 -0.01749439424363655 -0.04692071455527343 -0.004571354615503597 -0.008218068241451841 
0.4243410393956542 -0.04282795457224091 0.02537523456890937 0.01505265383153746 -0.02483704368918854 
-0.2289132484459824 -0.0007887963161371451 0.06466606968482927 -0.001530917752393321 -0.002247968668739751 
-0.05658340466834246 -0.004895083087129805 0.03350687118705782 -0.07611230030528025 -0.01345533685983026 
-0.1168735015208997 -0.04137059097309831 -0.04013741180866381 0.2793540404662837 -0.03339762169052765 
0.4456285897326526 -0.1835881348798983 -0.1495845911375457 -0.02337422369067781 -0.05027349616978043 
-0.01254742765649283 -0.02264295877081426 -0.005509306447786539 0.02093898855596733 -0.0001184851961725841 
-0.02413870065773291 -0.0007467282885029728 0.07128858500846920 -0.03052293051072774 -3.840327346453916e-06 
-0.1864066705148411 -0.0004290002955541624 0.1932422591263047 -0.005382718820238932 -0.0002728070390048361 
-0.1778822177199995 -0.0003625641688812434 0.1223303243700480 -0.005453697938756739 -0.0007860002950321793 
-0.2017762016932715 -0.0003162106817678820 0.07983336298359736 -0.002416894775774258 -0.0007451756072680822 
0.1431983808022118 -0.04287320830712428 -0.06886709971581823 -0.008724680156229257 -0.01732178493742777 
0.06680211652737567 -0.01080451034387276 -0.05015845634692165 -0.005211587186641392 -0.02589543373776657 
-0.1059854364999923 -0.02081949966211898 0.1131998537340258 -0.01082689951583654 -0.06509960931157999 
-0.6903971265998453 -0.1794887834543118 0.8267750237443782 -0.03277887547076604 -0.09574811400593515 
0.1189716365439572 -0.02931809827728401 -0.07066262718241020 -0.04612906427046155 -0.06571262799308084 
0.2250341883100280 -0.009796841892043270 -0.08510861230294872 -0.05069836349313934 -0.002029346875731116 
0.07091618500426926 -0.02725874040355998 -0.04743923629804060 -0.04208446463616373 -0.05879527833244769 
-0.04852842770097957 -0.0009383937875169495 -0.004140278205530251 0.07934024218839392 -0.0001968458865225738 
-0.1330092660159027 -0.001770196020548551 0.1535593062113651 -0.003751096746009194 -0.01225087469297585 
-0.04186162503566639 -0.002264212110105683 -0.004130495310850431 0.06285274509412375 -4.425215822566103e-06 
-0.3557613601236676 -0.0004275257970109584 0.3588442278611475 -0.008560479580120661 -0.0004882553899196977 
-0.3537990010013312 -0.03738086616148401 -0.05745804410261698 0.1923326383780057 -0.01583444960546225 
-0.6717517268270500 -0.03787545105948134 -0.03405427030230043 -0.03352344123979900 0.6250101226806113 
0.7897600511084453 -0.001449270041343443 -0.8088545604275463 -0.04282931717721578 -0.004679983004764188 
0.03331612554420624 -0.006786876579214514 -0.02137655758411015 -0.009506447681566374 -0.07297831507091375 
-0.1290621662083413 -0.002477873187721916 0.1066463493049440 -0.01756239701632760 -0.0002820169812480341 
0.07436807470366444 -0.03428618351392206 -0.02564526448909502 -0.01761950067663117 -0.004451244950149839 
0.5023428416370415 -0.001475702830405184 -0.3854642520439977 -0.08710668801599915 -0.0008870086577315505 
0.4185396215185271 -0.04297250718314375 -0.07667919472312962 -0.03308750501957112 -0.01720403438290613 
0.3065720020913716 -0.05868242228537031 -0.2135374105927487 -0.002830761891791848 -0.01314087158738317 
-0.3853336110894280 -0.001137440516448477 -0.0009164982672139098 0.1856289057822050 -0.002119355042952522 
0 0 0 0 0 
0.03721017136744365 -0.01582350316903872 -0.02504187611837152 -0.007724840039183264 -0.09206950836248057 
0 0 0 0 0 
0.06073354456980743 -0.04827373210151233 -0.003622568482005338 -0.005430602521773104 -0.07313477244317318 
0 0 0 0 0 
-0.05387771854278672 -0.001118250014966308 0.1276470730371458 -0.04791673580546216 -9.942213016392136e-05 
-0.2934870199150444 -0.06134125572559343 0.2907444724963600 -0.04661707338053059 0.1696648211978362 
0.08101984292978853 -0.003034032381607318 0.03816109050044735 -0.03036325002845176 -0.0008934753467168179 
0.1161572986515261 -0.03789555247209378 -0.07931485366951693 -0.004272730333474953 -0.03356527141982403 
0.7871611614578213 -0.003241802657880787 -0.8125790451470563 -0.08928242125459540 -0.01041385137383876 
0.07589362532757651 -0.002776712439897104 -0.04491577153341800 -0.02709624531888890 -0.1069874662781756 
0.1550994170610724 -0.002259994071217970 -0.003957011919675735 -0.2660920768731399 -0.0002175903004775009 
-0.3059910417884416 -0.001688299449886179 0.003255699390297129 0.7412862829709770 -0.002141770533464153 
0.1282932270786919 -0.03128863910095129 -0.05798843652942524 -0.01673987019974105 -0.02974866904838877 
0.05847223346607188 -0.008066652559263334 -0.02311216256152348 -0.09080043705345481 -0.008772654890674279 
0.1207589958247836 -0.1186056892454867 -0.01797281568924795 -0.005485189489569161 -0.008655184789966587 
0.003392264014037664 -0.01110461099272105 -0.01345397939608696 -0.01650172590124190 -0.05033942456292889 
0 0 0 0 0 
-0.1193497409394727 -0.002999354381345539 -0.003205910824925106 0.1770265179047335 -0.003075824129211464 
-0.1357061015762043 -0.001314661176381959 -0.001913770885673054 0.1332409146773798 -0.0003600692492170552 
-0.4852551462234785 -0.09109902973408711 1.073052129240140 -0.04033018413227742 -0.3362067096766728 
0 0 0 0 0 
-0.2105614400103275 -0.07838130114123337 0.3173226780600758 -0.01366458826813737 -0.01086455958038468 
-0.4960086743128442 -0.06164868046315179 -0.09309293619244448 0.6608622900284774 -0.1002631829177311 
-0.2009916971518607 -0.0008495636706740773 -0.002648437450536249 0.2129641738185592 -0.0004617533030771579 
0 0 0 0 0 
0.1312290055681782 -0.0006238195043484053 -0.08854087896550040 -0.02783534459122311 -0.008953819189133506 
-0.6346693739201884 -0.0009213663590958005 0.4789651044188980 -0.007861115876102340 -0.001824854705176002 
-0.05393386465395983 0.08753575451945121 -0.005201982280936754 -0.003689683129110701 -0.004387544934138664 
-0.3804002044328753 -0.005566680241330922 -0.01671926351430774 0.3788332382310318 -0.001963154898695063 
-0.5824115023701754 -0.003150097610781284 0.4181667483978580 -0.07399092161798937 -0.001646167217007238 
-0.4282981800224551 -0.04353718169744839 -0.09536610262504994 -0.02857779024653866 0.4574788837818946 
0.02196877470199754 -0.001379463609573631 -0.03866128112608917 -0.02229597339723712 -0.002469136680554420 
0.008062799830505153 -0.01729984774676885 -0.01812971259488592 -0.009349055506838896 -0.02464670297607322 
0.05718527477747953 -0.009836225022058638 -0.1080927380315534 -0.01427860620490637 -0.01330919239145458 
0.05877092688820965 -0.0007970086890979465 -0.02938031938462946 -0.07443324251547759 -0.002489400207730651 
0.1552497712703274 -0.03622602803510354 -0.05889549008387260 -0.03790994949167484 -0.02046334408393391 
0.7270667817150380 -0.01123060363359168 -0.5996870658019148 -0.1326303324564946 -0.01222639397344194 
0.2445188967263481 -0.04544881262684830 -0.08151704421004075 -0.07720235725723869 -0.08188397017068905 
0.1185952842430386 -0.03067991941637938 -0.07994685526169339 -0.004975174592736447 -0.006595653291318115 
-0.05561748206809900 -0.006295706295022209 0.08618489336331378 -0.006044561046502250 -0.03470170154007635 
-0.4711426217023888 -0.03207268837190955 0.4774379581445958 -0.001195407728642253 -0.01224610332541869 
-0.1883088888106153 -0.0004687552542971264 0.1717811770215994 -0.006323761508201404 -0.0005621809035890097 
0.6409732081083901 -0.01351310471545877 -0.02455984386564904 -0.3960425994195574 -0.004391051984369686 
0.3124800221942514 -0.07026248057953698 -0.1119549309329748 -0.02984352356177617 -0.06507831804485284 
0.3112710390300198 -0.02080872595902780 -0.05948203003454067 -0.05450061650270474 -0.3159982441301792 
-0.04566676715778245 0.04508537866938971 -0.002090498473001537 -0.004257386371268102 -0.001546896948768259 
-0.05053922753093568 0.2590252776569925 -0.01895146369694226 -0.001999310612578723 -0.003086467883647257 
-0.02507084607700650 -0.005100952493145955 0.06536045695709107 -0.01272331557964835 -0.01940129328223452 
0 0 0 0 0 
0 0 0 0 0 
0.04066443762661846 -0.2136714908802352 0.02186415251417815 -0.05864925228696841 0.3343981625828513 
0.09762598522626770 -0.008680993165682986 -0.1155256296574900 -0.01589725327985973 -0.02168016114453863 
0.4057882740932322 -0.05127165824280344 -0.3003478091796774 -0.01733043565653071 -0.007928266380794342 
0 0 0 0 0 
-0.1752202198728782 -0.01503335559383919 -0.04514314710016252 -0.01445799852561403 0.2684207576617476 
0.3009956775360215 -0.1068636173396858 0.02735247492382486 -0.02074099398714689 -0.06740380970685435 
0 0 0 0 0 
-0.01959509425395475 -0.001035619372183025 0.07188909572860908 -0.07930972650953216 -0.0001049064944844154 
0.4905166319848315 -0.1884736431182075 -0.08862692756706629 -0.05014612427289308 -0.1800299916087100 
0 0 0 0 0 
0 0 0 0 0 
-0.1579361272131209 -0.001251765520436187 -0.002608553761923922 0.1321209038021536 -0.003025292674410045 
0.4843865454980570 -0.009057491329396730 -0.01776118338151152 -0.5252017199245897 -0.01272727863342251 
-0.1176687257756042 -0.001859666116473348 -0.001385233494401815 0.08834106078188190 -0.0007791704499201793 
-0.2222285031077821 -0.001575979028328484 0.06115385920807147 -0.002083169144672311 -0.002409981826274925 
-0.4765463745959291 0.6470242230173870 -0.01473177723742264 -0.007893411439967713 -0.007387685022777463 
-0.1135647039277936 -0.03688059802092443 0.09227624737145965 -0.003742884718861631 -0.003928394883960698 
-0.1934798082187512 -0.003116962249843126 0.1642917499093868 -0.006764640920655893 -0.001169992267067206 
0.07976698093832680 -0.02427598983970027 -0.1583369332691256 -0.01218376686646990 -0.01974553169239011 
-0.1293152312576057 -0.01150626402175247 0.1218770015239898 -0.004028735790921331 -0.01392003581083114 
-0.4654943781881659 -0.002637315974010277 -0.03262198892208332 -0.003878688538275035 0.4245355586696168 
-0.02883910864077112 0.05192619067454714 -0.007756664362316250 -0.001524032683166171 -0.01140597205916876 
-0.1256010714914312 0.2155522184699942 -0.002408602759799733 -0.01234378932117581 -0.02879956562166305 
-0.6194769970577289 -0.01532260560042635 -0.001270999019089659 0.5800241913538595 -0.03094647980172482 
0.2474905939326858 -0.1766775302228838 -0.02586553073917969 -0.02625081831399572 -0.02625483441612435 
0.1169008637739596 -0.08423413226432937 -0.09080650719218471 -0.02317641975626779 0.03117350383239674 
-0.1233108647701802 -0.0008722433048873692 -0.0006790210802585824 0.1082024716431041 -0.0003578471982747280 
0.2099772740399152 -0.01234453807199402 -0.01702861419289158 -0.3386552426291233 -0.007224738531167129 
0.04402406697370430 -0.01776114344077222 -0.002420584906103786 -0.04632323336646330 -0.0003128067913165489 
0.08805838989566078 -0.006948920284308495 -0.01220164248852345 -0.1181107726437941 -0.001159264934609516 
0.3723228964559765 -0.1470164105203482 -0.03090729940688939 -0.1094854333680678 -0.01197095379853825 
-0.02212721883982008 0.02578036349899947 -0.004765270647596008 -0.001365815705188263 -0.009652740878172875 
0 0 0 0 0 
0 0 0 0 0 
-0.2585721914775945 0.3044802816522491 -0.002509205043681555 -0.01424455339417624 -0.02440593337333112 
0 0 0 0 0 
0.1904701831648474 -0.07471492080884337 -0.01386511741102309 -0.04490577280395731 -0.009889625706127239 
0.1042730975198191 -0.02410557117924505 -0.03997865998019231 -0.02482215582535630 -0.01808081244390060 
0.1413591735242512 -0.04262255324720142 -0.1649355781095025 -0.02539492392565926 -0.02137945274129528 
0.1816663687349500 -0.05438411883060240 -0.05250717388999976 -0.03046208282283341 -0.06377400252425776 
-0.2438206185074563 -0.002133017492279178 0.2783340825614459 -0.04881264376028596 -0.0002770705650731768 
0.2087498598513622 -0.05322060820472645 -0.007591098688847452 -0.02633937165687709 -0.1155404648351397 
0.05493141538780570 -0.03419812789140592 -0.04309319195482737 -0.01569708185456695 -0.04259272547908365 
0 0 0 0 0 
-0.06566886555583257 -0.004909343627650732 -0.001130500361410553 0.03283837396271924 1.033743563422484e-05 
-0.1803530683701866 -0.004909475952504648 -0.007225480961231241 0.2365238971075603 -0.002783931964402984 
0 0 0 0 0 
0 0 0 0 0 
0 0 0 0 0 
0 0 0 0 0 
-0.08975011366355898 -0.006181793046215156 -0.001348521683121689 0.1265806019893730 -4.231281490327162e-05 
0 0 0 0 0 
0 0 0 0 0 
-0.07000369042173810 -0.008305441655365760 0.05445195053467170 -0.002363820106273024 -0.004282356131697657 
1.180871696342076 -0.006636455687297989 -0.03015226215081599 -1.100457758551591 -0.004288171298546774 
-0.7576242159224378 -0.003455766743808860 -0.007011030186452883 0.7290277946022519 -0.003796706024940435 
0.2873371994379696 -0.02985255963377251 -0.08405919604021528 -0.05358198144481743 -0.03462500313428230 
0 0 0 0 0 
-0.1795357415815352 -0.004732808878951508 0.03877895338019096 -0.0007055565055605528 -0.002971443053626217 
-0.6203413025613543 -0.01351491031752460 0.6881654406859755 -0.007009407124557136 -0.02236882828828099 
0 0 0 0 0 
-0.2822555445646562 -0.003011459332280577 0.1925614475490841 -0.005453599373478219 -0.001325475891454985 
-0.1929328604352465 -0.04952878962951477 -0.2102776623286815 -0.05637585229543436 0.3366883659170950 
0 0 0 0 0 
-0.02069453909368733 -0.006669273105181624 0.1242390527093548 -0.01306845101328846 -0.06941659783855585 
-0.1951884726997317 -0.002175536089893667 0.2370715703849204 -0.01703400331232145 -0.003215659821845287 
-0.06441939629894564 -0.01385095777454304 0.1512326503305600 -0.004474643263767543 -0.05085070821834810 
-0.02986004432308304 -0.01273304142522748 -0.01858522260199495 -0.008438072814426845 0.03667946308541027 
-0.01624939599818474 -0.002031136405908733 -0.003967499613107514 0.02878225296996033 -1.154984102878700e-05 
-0.03860458933594567 -0.008849791055030233 0.04376954011850771 -0.006117155915595319 -0.01580217439956723 
0.1154844868381383 -0.003534236948868712 -0.08158085753174996 -0.06406907980185678 -0.007418108380551496 
0.1185605708515125 -0.02364192703812270 -0.04961879637939439 -0.03545247925368227 -0.04287719254087510 
0.04384041666170461 -0.01854138648340826 -0.03536577352372421 -0.04198283114712409 -0.02223638054263707 
0.1309324304679320 -0.02788741729940009 -0.06212716307624406 -0.03149841785996926 -0.01422368371119913 
-0.4844200875334812 -0.008145215095751170 -0.02094395239689939 0.4136103356086109 -0.003180261913749899 
0.7506949707184224 -0.04894245522738117 -0.5311711912029798 -0.005106140990265323 -0.1607386900586562 
0 0 0 0 0 
-0.1169168555435871 0.3213726917470760 0.07353742185090023 -0.1275753494018465 -0.003124143001525140 
-0.05427659186975891 0.03518219299725511 -0.009716130005941296 -0.001001112801175775 -0.01129371270988957 
-0.2030817517321273 0.1625741269695123 -0.009162017222878986 -0.002165450356835603 -0.008463685041089686 
0.2193945294105504 -0.01268312208917997 -0.01604304146304969 -0.1080479260272948 -0.001981310371864414 
0.3385201292238354 -0.2139048290284079 -0.05102460598901387 -0.02770314001705400 -0.02053867842302975 
-0.1162624724836208 0.2355373177168049 -0.01526372938893983 -0.04338627372116199 -0.03411466881625016 
-0.005201774151004071 0.01608549302940831 -0.005848198185582120 -0.006304415319315733 -0.006495668605496513 
-0.3665943311813366 -0.01448503758245856 -0.004620599392830940 0.4446320778276482 -0.007542550837189129 
0 0 0 0 0 
-0.02460517026514421 -0.003585978953912440 -0.005159563845213910 0.04408249979722428 -4.338010957752114e-05 
-0.6360359188790679 -0.01621118834240960 -0.001839400339736734 0.5783111244006091 -0.009163372343272589 
0 0 0 0 0 
-0.1146737269217457 -0.008936483852275526 0.1852557607703392 -0.07274929069815604 -0.003123731963721365 
-0.1213150427233986 -0.007979375908402628 0.3756692154495140 -0.01213110355900154 -0.09689548382113947 
0.3695157975760601 -0.01768041945995216 -0.04196870490874691 -0.4484862490265810 -0.02248961668937230 
0.1429000816489928 -0.02306298504396678 -0.04856402064876227 -0.1465170517386119 -0.07103584434414247 
0.3425615071920014 -0.08700330070656045 -0.09632584748133644 -0.09839808236199762 -0.009430492080646356 
0 0 0 0 0 
-0.01710290634260355 -0.001579824957157955 -0.002424080215324264 0.02298692551574159 -0.0001591372520870258 
-0.05787163232806610 -0.004639953241708984 0.05957902046128034 -0.01657692114454116 -0.0005335935741823365 
0 0 0 0 0 
0.5641509115455117 -0.5129704179044268 -0.3801895531829589 -0.3334099129843244 -0.3587184883607602 
-1.545282494155496 1.007592225365824 0.008609038630508787 -0.1501899368026727 0.1581436732855112 
-0.6127407007770324 -0.04394864980706100 -0.1365755581312374 0.2919410722926760 0.2653942313832436 
-0.06600176443338770 -0.4558581311300903 0.1177617382815713 -0.3196868972006165 -0.3760313914698472 
0.1784560149253117 -0.8564314436939496 -0.3871398527142479 0.03460971785503135 -0.6921849185583051 
-1.063844807371519 0.1204456327951363 0.2929412664680561 -0.3754109266379738 0.5058604753984133 
1.537617982563863 -0.5924087101316460 -1.212543342082877 -0.7187898689094856 -0.3671385837307170 
0.05691413048043998 -0.1870854855717972 -0.1955528745833713 0.3967513835257859 -0.03549245961087356 
0.7301328958123899 -0.2592759480693215 -0.2494729828421297 -0.4750750116050883 -0.3455276461731530 
0.1259017531471484 -0.2882431904533899 -0.1271148207667005 -0.1176899479457507 -0.3073615031320270 
0 0 0 0 0 
0.8113373620597586 -0.2326954875636437 -0.2069295625094098 -0.5342979368382921 -0.1865090370977220 
0.2455377287144675 -0.1367092257324570 -0.1075055445867847 -0.2031770885356317 -0.2052208999303612 
-0.06942948152399972 -0.007289016875678755 0.1229820904085512 -0.01564527546143951 -0.02786896197597735 
0.5098548950929456 -0.3389480520473880 -0.1482372029347278 -0.2809165680063023 -0.4842011849610696 
0.5432946380163245 -0.1945903357482813 -0.4219415586844413 -0.2521836749607899 -0.2122956623145798 
0.1106829848436636 -0.1094108404545159 -0.01328236574310376 -0.03335717627720333 -0.05359870507222758 
-0.2585721914775945 0.3044802816522491 -0.002509205043681555 -0.01424455339417624 -0.02440593337333112 
-0.02069453909368733 -0.006669273105181624 0.1242390527093548 -0.01306845101328846 -0.06941659783855585 
0.2014045214022541 -0.02196238134246966 -0.01558821097848539 -0.2131212842983825 -0.008217953754888393 
0.5058998629062634 -0.4256028002115339 -0.3318284897294434 -0.2605004568949268 -0.3356479909388624 
-0.2615109656489625 0.3922297101634457 -0.03159988377812533 -0.004764556612226015 -0.02810911300148920 
0 0 0 0 0 
-0.2307858451874534 0.03235697731467335 0.7382105619406958 -0.3685218140091036 -0.1885801138078863 
-0.3206257782901588 -0.2257241348582713 0.3053083211601326 0.1256680654717456 -0.1804160115414097 
-1.146986651824596 -0.1121466722556659 -0.05829800999841784 1.575958949333185 -0.3510045854948907 
0.1205645162298576 -0.1529068137289631 0.6125777056316892 -0.1118931792816366 -0.3593991583861002 
0.3193998438122011 -0.06148926808801142 -0.3041379972787714 -0.02364981350340711 -0.04355124881697448 
-0.9702724264532208 1.500934274926385 -0.5098162439926375 -0.3277258717301207 0.1674509877038229 
0 0 0 0 0 
-0.1273188810404838 -0.006578704505318816 -0.02047236888418373 -0.02279221648750035 0.2514646289493875 
0.09858630188924895 0.1287164991934508 0.1148294184719095 -0.3346449748413630 -0.5197053906232386 
0.9352122076119398 -0.9584752619568327 -0.4998322806813130 -0.2186712662593211 0.2394668761444546 
0.8637127150170618 -0.2425022182957667 -0.4569428723989241 -0.2402874755755499 -0.1646288515675060 
0.3995754948558467 -0.006776706565259263 -0.04120221338192008 -0.4302286342776904 -0.01444340125951678 
0.1597418932153463 -0.2142053380574227 0.3211373167627305 -0.09256051863749941 -0.08899326638683233 
-0.004934544151538736 -0.1066780257366563 0.3366527063080032 -0.1167307340800643 -0.2274999946124687 
0.2227465354834366 -0.04473380102996105 -0.03931450829982240 -0.1528426353401443 -0.1492503814600315 
0 0 0 0 0 
-0.4256306859040046 -0.1641419130333854 -0.07835598597368347 0.2048089333231714 0.5725892349410109 
0 0 0 0 0 
-0.3469039466792786 -0.1791803760096078 -0.4089594654818760 0.5371546705524907 -0.1177123111844701 
0.1048254996344817 -0.05812916815920197 0.2143213032699167 -0.09644758701439976 -0.1322805134835590 
-0.09674841789446455 -0.005693145637938897 -0.07261755752839716 0.1615995659891736 -0.01023162431282321 
0.1375209208239387 0.4263844901204276 -0.1873657108203873 -0.06988215402049293 -0.3672177676615221 
0.5574684997309796 -0.08443947281033685 -0.1723187866247734 -0.3539823516651335 -0.1042568313252258 
-2.163357830145425 -0.4284328624330249 2.741986541702176 -0.1969760479461240 -0.06269408028341003 
-0.03430263843070693 0.1554375373681666 -0.3079932101241759 -0.05256151689150339 -0.03301783565409060 
0 0 0 0 0 
0 0 0 0 0 
0 0 0 0 0 
-0.4061740777616877 0.5655522562263688 -0.1671038198516898 -0.06800082875808547 -0.1407400176591712 
0 0 0 0 0 
0 0 0 0 0 
-0.1523484732139348 -0.01106316669623060 -0.009373820031067523 0.1680512900160202 -0.004987017702097705 
0 0 0 0 0 
0.5633656043510314 -0.6835773975709629 -0.3871083293817610 0.4849439519794982 -0.4720973331920719 
-0.2599181546372667 0.2665991048531727 -0.007800853100176222 -0.002877376347529795 -0.06138342938028847 
0.1972788225890665 -0.1726333216036111 0.1150478649168828 -0.1706772140074249 -0.1773020612864107 
0.2226205419577930 -0.02489002640368665 -0.09415023983616559 -0.08478661972198596 -0.02778346795865106 
0 0 0 0 0 
-0.08142570927829640 -0.05947351227448159 -0.01775418696526365 -0.007760591805484520 0.2054972281328311 
-0.4980592019488354 -0.01441229803394068 -0.05342554405549418 0.5179221331758159 -0.002300707731042168 
-0.3482107727178594 -0.7746969838960444 0.4430623749820821 0.3730695272335614 -0.2041741102840528 
0.2187387344014186 -0.1342177939697803 -0.04426592896315889 -0.04200596754227982 -0.08616254530225631 
0.05711536518150176 0.02548432462331204 -0.1881601334734712 -0.1164352239086939 -0.09043733276233157 
-0.1437850908564412 -0.1588449785947720 -0.01101286510201029 -0.002637395992143440 0.1981552956902164 
-0.1791111926155936 -0.1126132791604993 -0.03795975929640401 0.2787900216098798 0.1706718868651676 
0.2922513232569913 -0.2039463586623552 -0.04282166463665198 -0.07485877029724690 -0.1289806306187828 
-1.155075681210514 1.234430940972248 -0.08002604120301195 -0.09564776427039401 -0.1787745079871812 
0 0 0 0 0 
-0.1291705489708823 -0.005026142905579259 -0.001115490962072903 0.1139798230787526 -0.0001328628618794187 
-0.1424980047775352 -0.03878370926552818 -0.1422620947895621 0.09579363891036892 0.4044434601962459 
0.3005777177942195 -0.1329332589945095 -0.03299421380888928 -0.1508422951023302 -0.09090800813371655 
0 0 0 0 0 
-0.1020708935351757 0.3175131942350896 -0.02659160921382627 -0.01642704439975133 -0.1045075209069095 
0.1832790157798104 0.02914317048734540 -0.1906361713570143 -0.05485228763536550 -0.09629398949967129 
0.1240555212040266 -0.2656489580799904 -0.009349141089560142 -0.02251714395273478 -0.01305310894918451 
0.5464785859116743 -0.1525652270487412 -0.1165592243533503 -0.3970695539260205 -0.1931912806225497 
0.02025238588810178 -0.02012136428728308 -0.03499143075421145 -0.01736409184023384 -0.01612748250181164 
0.3348739552753943 -0.03666111406712568 -0.07646331187483475 -0.2163064460426127 -0.06353940862876911 
0.1695214331424653 -0.06144870341563483 -0.1077033324868694 -0.01449070577089463 -0.01177256838926128 
-0.7370336690983489 0.5485003644200296 -0.06911486308421505 0.3649793663160501 -0.02835185336459660 
0.5039348460904638 -0.3253339896789708 -0.2514054921262043 0.2359889519806795 -0.2304265668460381 
0 0 0 0 0 
-0.05655309540522920 0.07284679164899172 -0.2830853532810930 -0.1302655758741844 0.4199842057019059 
0 0 0 0 0 
0.3689638749591417 -0.03481663492379983 0.1123151277103189 -0.1129718510921856 -0.2340127564450892 
0 0 0 0 0 
0 0 0 0 0 
0 0 0 0 0 
0 0 0 0 0 
0 0 0 0 0 
0 0 0 0 0 
-0.1782350477442928 0.1098591905466171 -0.01156830227344894 -0.0007564070586528334 -0.004213946711553783 
-0.3817360568417427 -0.005149595379692164 0.5206126055139823 0.1041694319480531 -0.007865675634003779 
0.05814486338580266 -0.1197367631639762 -0.07597666799148964 -0.1423263794689708 0.1232303382036037 
0.3930489621052902 -0.1198767700928452 -0.08721183580682394 -0.06114781678581387 -0.06101396515898933 
-0.2674358456634220 0.4799461331159039 -0.01074311791216540 -0.02108361018196863 -0.04293595958001509 
0.2801243023941597 -0.1098145643377922 -0.02984813057682749 -0.1769774854830550 -0.06873787851593549 
-0.05444204837810789 -0.04264261090001378 -0.02525648400684467 0.1068195559311804 -0.05088118101830459 
0 0 0 0 0 
0 0 0 0 0 
-0.07737430647980974 -0.03212318570610049 -0.01455362848212691 0.2649371332148747 -0.007225161407561088 
-0.1397441059619317 -0.006066590827864427 -0.01102428596168623 0.1385526785678478 -0.01338269015544047 
-0.1753251576305733 -0.02917613552718014 -0.02865572313286012 -0.01456921497845352 0.2976788948035892 
0 0 0 0 0 
-0.09595573466006228 0.2213746053864524 -0.04344384092040644 -0.008140426830713303 -0.02879152978985105 
0.1146886946204175 -0.02429801650823002 -0.05898498412345106 -0.04850410128675643 -0.03923425882673264 
0.1688798675236135 -0.03666096383718773 -0.1087421484921124 -0.03372324454085509 -0.08763382106545696 
0 0 0 0 0 
0 0 0 0 0 
0.1631625580789665 -0.006954058567851335 -0.02285519220307543 -0.1389648594177324 -0.02530989895265363 
0.09057207855167092 -0.04380079055591642 -0.04884144487832915 -0.009395249072729551 -0.06419981411796752 
-0.4133049909769242 -0.01710858460238617 -0.0007913645724188955 0.5386385080384986 -0.009594131370404916 
0 0 0 0 0 
-0.3888462047242720 -0.01774160467116221 -0.007870273462621808 -0.01638637306399162 0.4773700122078806 
0.09861219939903460 -0.03448066013107157 -0.04979377661300499 -0.09526608865918026 -0.02329772972082381 
0.1275698831115978 -0.03963107947263489 -0.1286963454669932 -0.04903950790220588 -0.02261631850960453 
0.4664730098218479 -0.03220585515913066 -0.04065863374014257 -0.3794719026436990 -0.008186016475011498 
-0.1940869261646222 0.4217810236930840 -0.01502734508453442 -0.05366006824485573 -0.003902549345465302 
-0.2604434725177271 -0.03942193219186376 -0.3152520591493959 -0.06438350441824003 0.6693455289672020 
0 0 0 0 0 
-0.2369340191486698 -0.003329814507605835 0.2329817296946319 -0.005450498320110869 -0.01314772992594436 
0.2859348905612328 -0.008929892363675390 -0.09043189675982595 -0.2114448464451663 -0.01607626157252699 
0.1032123521313476 -0.02155634457477888 -0.02910062636447768 -0.09283202640575224 -0.05429501272006820 
0.3782391987702398 -0.1245738073502511 -0.08990927761477906 -0.02640593600692512 -0.05887471674697591 
-0.3034714344168996 -0.002729367638282772 -0.01731283270137572 0.3995925193907660 -0.02124313822917667 
-0.08571225840766572 -0.04644666323312435 0.4224270493909310 -0.06606413151359998 -0.2201688526599182 
-0.2960784335170012 -0.0008371952985342006 -0.002316470394106355 0.1449884298592272 -0.001716856741621037 
-0.2127574692266335 0.3505896527432684 -0.06194018531601821 -0.006162824546888813 -0.01341845516814302 
-0.02979009224206077 0.1704119745202982 -0.01714566579754081 -0.02745672436141222 -0.01629623355223003 
0.1717223977384750 0.06599187714122420 -0.05793248801467919 -0.1880180217347506 -0.02682542363559490 
0 0 0 0 0 
0 0 0 0 0 
0 0 0 0 0 
0.1402690545544137 -0.1320120490853177 -0.05059781809813588 -0.1019007203269561 -0.04363414216609447 
0.3917255055454136 -0.3544716196633054 -0.08588658843588004 -0.02993652457023536 -0.04797340964952832 
-0.2087367576400680 -0.04458965825690707 0.4131971124490112 -0.004717419283414338 -0.1366439506090614 
0.2307239563981256 -0.01918696864398491 -0.07102691077657107 -0.1093841169758261 -0.02791761167338315 
0.1866860751760428 -0.07395969277821508 -0.06400335753634867 -0.02786018768933291 -0.008298080925975504 
0.1625280077882560 -0.06452628042813081 -0.03331681345349535 -0.04360024660181951 -0.02167163733391730 
0 0 0 0 0 
0.1554069484599448 -0.06697298625573626 -0.06187278255173134 -0.1095031900080319 -0.1266120732060611 
0.2041632712521164 -0.05543311063249935 -0.07846144916622358 -0.09007602677020951 -0.004344217264197017 
0.01700978189736843 -0.1784244345790025 -0.05488625450871466 -0.04307906922396091 0.1642899169909540 
-0.2550214889024954 0.4807264619741811 -0.01113137212433244 -0.003117851360770044 -0.1163592953302749 
0 0 0 0 0 
-0.2869918810021460 -0.005715425683751813 -0.006052159662047407 0.3097314087312489 -0.0004133311256065106 
0.1233261364675370 -0.05090714761486092 -0.05414240768350192 -0.08890331596915617 -0.06127233443487840 
-0.1086863726242105 -0.1038864377664905 -0.05764689919223146 -0.06302357094736996 0.3527661161037842 
-0.1151065425430817 -0.1694332389544314 -0.006271235654481037 -0.004784523367825120 0.2991062888105616 
0.09474330586938590 -0.04819496282315075 -0.006783037368169234 -0.03952173226669183 -0.004171175717823886 
0.3109979207730128 -0.2508739658824356 -0.03364535919443557 -0.004596571307805661 -0.02897436762287318 
0.1106829848436636 -0.1094108404545159 -0.01328236574310376 -0.03335717627720333 -0.05359870507222758 
0.2792546872191252 -0.05365782635844130 -0.04804500154849490 -0.06374074202814203 -0.2021308127505703 
0 0 0 0 0 
0.07847298046680512 -0.004752284374541747 -0.01446680366233477 -0.06524489049877115 -0.003103907603101377 
0 0 0 0 0 
0.1823161802609398 -0.06001505214214622 -0.04234744511407533 -0.006197024436932108 -0.08390762775586480 
0 0 0 0 0 
0 0 0 0 0 
0.2167248232326594 -0.005047622944348862 -0.1333374310026750 -0.04432669221679673 -0.02472700468409108 
0 0 0 0 0 
0 0 0 0 0 
-0.08478259552131653 -0.1075564130667276 0.1534799772652075 -0.01158629525280304 -0.06846542071287068 
0.05969525199587767 -0.01749439424363655 -0.04692071455527343 -0.004571354615503597 -0.008218068241451841 
0.1785966420466367 -0.005067550646969869 -0.002027724118818664 -0.3411164810286567 -0.01540914328203954 
-0.01254742765649283 -0.02264295877081426 -0.005509306447786539 0.02093898855596733 -0.0001184851961725841 
0.1431983808022118 -0.04287320830712428 -0.06886709971581823 -0.008724680156229257 -0.01732178493742777 
0.06680211652737567 -0.01080451034387276 -0.05015845634692165 -0.005211587186641392 -0.02589543373776657 
-0.1059854364999923 -0.02081949966211898 0.1131998537340258 -0.01082689951583654 -0.06509960931157999 
0.03936598024261009 -0.007392262325029640 -0.1194081533541797 -0.004401505402720678 -0.01820315020627538 
0.2366442017114529 -0.002204256054594497 -0.2028327088479852 -0.01993721399365652 -0.0004489653404182340 
0.3440058248539852 -0.03911494016932728 -0.1557712394853589 -0.09682742776360088 -0.06774197486881195 
0.1571576736375863 -0.006919253900097690 -0.1144067766120023 -0.03858313369778233 -0.02033546944772306 
-0.02336069845357128 -0.004520422798939286 -0.006374862583865880 0.03004769999726163 -0.0002347733157406160 
0.03331612554420624 -0.006786876579214514 -0.02137655758411015 -0.009506447681566374 -0.07297831507091375 
0 0 0 0 0 
0 0 0 0 0 
-0.8049406219020897 -0.004457708972263305 -0.003332126115809732 -0.004424834342994032 0.7793513603174632 
0.07589362532757651 -0.002776712439897104 -0.04491577153341800 -0.02709624531888890 -0.1069874662781756 
0.1550994170610724 -0.002259994071217970 -0.003957011919675735 -0.2660920768731399 -0.0002175903004775009 
0.1282932270786919 -0.03128863910095129 -0.05798843652942524 -0.01673987019974105 -0.02974866904838877 
0.1192057780358793 -0.05634038466077567 -0.02673473104352881 -0.09623103957522791 -0.08190742733384745 
0.003392264014037664 -0.01110461099272105 -0.01345397939608696 -0.01650172590124190 -0.05033942456292889 
0 0 0 0 0 
0 0 0 0 0 
0 0 0 0 0 
0 0 0 0 0 
0 0 0 0 0 
-0.1940277892713678 -0.008760206934953474 0.4086319341790890 -0.01995707810417885 -0.05024131459673413 
-0.1721993352833615 -0.007931733104282137 -0.009458640572446098 -0.01231164266378014 0.1850187215580506 
-0.1497522508689058 -0.01044482762564133 -0.01475963688004619 -0.01292185905712175 0.1667839667167632 
-0.5204113669309982 -0.03246904606622530 0.2892732240823303 -0.02289984798330554 0.2969124291910900 
0.08275585175984343 -0.004005663647101212 -0.02318889856149447 -0.09891320406066892 -0.001785794232543879 
0.008062799830505153 -0.01729984774676885 -0.01812971259488592 -0.009349055506838896 -0.02464670297607322 
0.08623066318600091 -0.07199864181474003 0.05424572363498581 -0.01988712919570905 -0.03180603101177620 
0.05718527477747953 -0.009836225022058638 -0.1080927380315534 -0.01427860620490637 -0.01330919239145458 
0.5204187735103974 -0.1183479071167841 -0.2314681135790051 -0.1641889139566345 -0.04626069801844000 
0.2445188967263481 -0.04544881262684830 -0.08151704421004075 -0.07720235725723869 -0.08188397017068905 
-0.1330836912565497 -0.008887494402454411 -0.02106363384011181 -0.004685535091430628 0.1753346262064694 
0.3112710390300198 -0.02080872595902780 -0.05948203003454067 -0.05450061650270474 -0.3159982441301792 
-0.05053922753093568 0.2590252776569925 -0.01895146369694226 -0.001999310612578723 -0.003086467883647257 
0.09762598522626770 -0.008680993165682986 -0.1155256296574900 -0.01589725327985973 -0.02168016114453863 
0.4057882740932322 -0.05127165824280344 -0.3003478091796774 -0.01733043565653071 -0.007928266380794342 
-0.1752202198728782 -0.01503335559383919 -0.04514314710016252 -0.01445799852561403 0.2684207576617476 
-0.1348595740492556 -0.005841782430931496 -0.01416024669770256 0.1934661757366383 -0.006491068492960012 
0 0 0 0 0 
-0.1442219829009206 -0.008258991558619692 -0.01624667374685760 -0.01114477868010283 0.1070515801548159 
0.5148853437513390 -0.3273016535531350 -0.4186033115659306 -0.1158883317915519 0.1320002069104551 
0.1397809490572307 -0.07748287343150041 -0.04319072913636271 -0.009985791821504636 -0.05660945318992140 
0.08805838989566078 -0.006948920284308495 -0.01220164248852345 -0.1181107726437941 -0.001159264934609516 
0.2429580031071082 -0.1354786304904759 -0.005951378710550214 -0.03729673551383262 -0.1255102140853288 
0 0 0 0 0 
0 0 0 0 0 
-0.05220305241513946 -0.01767862933309114 -0.04280737251303307 -0.005160478601819930 0.1164676912638975 
0.5134957254240485 -0.1717215928866472 -0.2313078694105253 -0.1007627795524500 -0.09504308097168027 
0.1042730975198191 -0.02410557117924505 -0.03997865998019231 -0.02482215582535630 -0.01808081244390060 
0.09849139316733672 -0.02088266010258919 -0.006131607622374071 -0.09123054813217725 -0.0008962976860035813 
-0.2438206185074563 -0.002133017492279178 0.2783340825614459 -0.04881264376028596 -0.0002770705650731768 
0.2636812752391680 -0.08741873609613236 -0.05068429064367482 -0.04203645351144404 -0.1581331903142234 
0 0 0 0 0 
0 0 0 0 0 
-0.05899953001934857 -0.03166060569349113 -0.04174890664820452 -0.03026591648403707 0.2658384522433367 
0.1347427878395897 -0.05459295182537940 -0.09475630328952081 -0.01355499156039816 -0.1726572444046953 
0 0 0 0 0 
0.2193503230243247 -0.06321901132599639 -0.08813857624810142 -0.1265688220516172 -0.01680196113485792 
0 0 0 0 0 
-0.1069946065440804 0.3358585254712078 -0.03378251704438198 -0.07618766353311097 -0.003106911814741922 
-0.08493276610604188 0.1239315104313333 -0.01700041152141241 -0.007689026948759547 -0.009425978950336950 
0.3385201292238354 -0.2139048290284079 -0.05102460598901387 -0.02770314001705400 -0.02053867842302975 
-0.1162624724836208 0.2355373177168049 -0.01526372938893983 -0.04338627372116199 -0.03411466881625016 
-0.1529589606716290 0.2495017808143026 -0.02498946273001488 -0.02113382215424587 -0.01732134499333763 
0 0 0 0 0 
-0.6360359188790679 -0.01621118834240960 -0.001839400339736734 0.5783111244006091 -0.009163372343272589 
-0.2670786784053817 -0.002393095698430352 -0.03485927685769958 0.3870373255074727 -0.001737995199157512 
0.2310854672973398 -0.02160670331790937 -0.03460290758984660 -0.2425523813477837 -0.05068617104925457 
0.1734364765522194 -0.07120200339031246 -0.01178346472455348 -0.1182566714397971 -0.01845636200802056 
0.3695157975760601 -0.01768041945995216 -0.04196870490874691 -0.4484862490265810 -0.02248961668937230 
-0.1555187606460487 -0.01597271192915497 -0.002576316772775873 0.2790148994271176 -0.01409178238049577 
0.1429000816489928 -0.02306298504396678 -0.04856402064876227 -0.1465170517386119 -0.07103584434414247 
0 0 0 0 0 
0 0 0 0 0 
-0.1993501368189795 -0.5890731140438100 -0.7522295457979391 0.6640983713569186 -0.4720152083606102 
0.5058998629062634 -0.4256028002115339 -0.3318284897294434 -0.2605004568949268 -0.3356479909388624 
-0.2278399396930764 -0.4414349595799301 0.3480034955502672 -0.3513676840806994 -0.4424350728934106 
0.2040423589775944 0.03349182739139417 -0.1749218235916591 -0.6273059164439516 -1.133660729169036 
-0.07081643697251097 -0.3753362535606253 0.007578912096540862 -0.2685744526984227 0.4421005973771686 
0.5757672000310096 -0.5192532487692848 -0.3025692369969523 -0.3504221504199275 -0.03900109336067054 
0.09858630188924895 0.1287164991934508 0.1148294184719095 -0.3346449748413630 -0.5197053906232386 
-0.1072988117531209 -0.08147135855681804 0.07046386245459653 0.2100296997162498 -0.1506574827871282 
-0.2121640465284306 0.2078265041918881 -0.4678686139989004 -0.4125625210412295 0.5196194710344622 
-0.5720205081112194 1.118914321836900 -0.3199365889743452 -0.4285399594627185 -0.3297661726309628 
0.6797087218718585 -0.8136641855890590 -0.5960259360220940 -0.2924190901337646 0.2727049246770717 
0.7644035367231361 -0.7392841862302044 -0.3316132764745270 -0.4394900134597385 -0.4816562371741112 
0 0 0 0 0 
0.2195326305602040 -0.2392430901296233 -0.1015582069278791 -0.1095117239965735 -0.1070279964603940 
0.02025238588810178 -0.02012136428728308 -0.03499143075421145 -0.01736409184023384 -0.01612748250181164 
0.09861219939903460 -0.03448066013107157 -0.04979377661300499 -0.09526608865918026 -0.02329772972082381 
0.04330472796699981 -0.08353209981907998 -0.04948078240024578 0.03385678741777702 -0.01803378633654089 
0.2014045214022541 -0.02196238134246966 -0.01558821097848539 -0.2131212842983825 -0.008217953754888393 
0.2646873427169283 0.2414103927504598 -0.8043861355046871 0.3975092816707188 -0.2675271865934127 
-0.2038837722706970 0.3246904298624198 -0.01532636037891435 -0.006186132957430098 -0.004326447835503210 
-0.2038837722706970 0.3246904298624198 -0.01532636037891435 -0.006186132957430098 -0.004326447835503210 
-0.2038837722706970 0.3246904298624198 -0.01532636037891435 -0.006186132957430098 -0.004326447835503210 
-0.2038837722706970 0.3246904298624198 -0.01532636037891435 -0.006186132957430098 -0.004326447835503210 
-0.5632855053479884 0.1377507627542468 0.2643661053163336 0.3913790391123366 -0.1149821772565935 
-0.08167433932003473 -0.1173418214595294 0.2025773944457124 -0.1016988746838156 0.1127013314391938 
-0.2038837722706970 0.3246904298624198 -0.01532636037891435 -0.006186132957430098 -0.004326447835503210 
0.3173060438168467 0.2459055773918932 -0.1947796096219723 -0.3897418061693840 -0.04788842380486101 
-0.2615109656489625 0.3922297101634457 -0.03159988377812533 -0.004764556612226015 -0.02810911300148920 
-0.008879635125005234 -0.004737318695814069 0.08577098133985817 -0.08519918437798216 -6.931327952283269e-06 
-0.3482051111781036 0.3974646505703328 -0.3196711536672200 0.4320069730280299 -0.2036609618250161 
-0.2699270666082075 0.01396355343868599 0.2898981258004444 0.1574767716866931 -0.2815895817516448 
-0.4482759963499131 -0.01808553254189083 0.2706804026833815 0.3108577584807399 -0.01820103268982805 
-0.1007953396604671 0.1600668269221686 -0.1657796121753015 0.1737595216337073 -0.03850393893381578 
-0.02932370227750769 -0.002253437330443959 0.04966340441725101 -0.02835388095967952 -7.943154345073012e-05 
-0.3809538411057348 -0.02576746011373259 0.2953984612267302 -0.06693264478669961 -0.08722975537664449 
-0.06696185442320586 -0.01911982219988698 0.3296876248060755 -0.002503045943471826 -0.1412893209061713 
-0.06696185442320586 -0.01911982219988698 0.3296876248060755 -0.002503045943471826 -0.1412893209061713 
0.5856026532300879 -0.01016617224509090 0.01404607455734738 -0.5324595371044186 -0.01147402987756590 
-0.4401946893659297 0.07662806276425531 0.4283693432734663 0.3918408953680659 -0.5074629498479025 
-0.2799067416471677 -0.3174495065088427 0.7196832403898794 -0.4123818785459615 0.4848846408398509 
-0.5426356802695135 -0.08172985246971930 0.2131898128716799 0.4533929798831238 -0.009847138218532675 
0.1409627557579707 -0.01806086052384395 -0.02100305643656142 0.03097384093279207 -0.05017739985214954 
0.3982102903792473 -0.2756011591793851 -0.3195869994549583 -0.1619246898471912 -0.1327103385516303 
-0.2312803970858714 -0.02495058002048896 0.1631664296413352 -0.004134895775201371 0.1282593793107651 
-0.2312803970858714 -0.02495058002048896 0.1631664296413352 -0.004134895775201371 0.1282593793107651 
0 0 0 0 0 
-0.03783514210046274 0.03449471284866141 -0.0002384379461287259 -0.001536512949215369 -0.02257647391831569 
0.009403890654352409 -0.4145804365789827 -0.1026900682000879 0.05573397419414365 -0.2675982576688828 
-0.1660947131528636 -0.0007945922337414157 0.1534161938010871 -0.005663462314057314 -0.0005771413752379969 
-1.068297586632498 -0.3398677483327517 0.005563178594256039 1.059853915270482 -0.1032099515947393 
-0.1273188810404838 -0.006578704505318816 -0.02047236888418373 -0.02279221648750035 0.2514646289493875 
-0.01062061882038654 -0.06477132793715902 -0.1378034125880578 0.1776439663270631 0.1809566526174492 
-0.1447127879412201 -0.002006006847238915 -0.008313817588638311 0.2102255439925583 -0.003448411263717558 
-0.4834633951153488 0.06961749341421826 0.3677665614634608 0.6066298555835340 -0.04664245412985281 
0.1820768986362855 -0.07979380462189986 -0.1552793004052153 -0.01764136497715509 -0.06495246201517561 
0.08888731091196520 -0.02438439445964567 -0.1003229892677989 -0.01473682737386372 -0.07022454220613110 
0 0 0 0 0 
0 0 0 0 0 
0 0 0 0 0 
1.022530031798787 -0.1275166151442925 0.09023086401115790 -1.238045077817856 -0.09857236177678186 
-0.05085335485692014 -0.1254973741054813 0.01638112146146908 0.2435564455459828 -0.07629612497214129 
-0.1330092660159027 -0.001770196020548551 0.1535593062113651 -0.003751096746009194 -0.01225087469297585 
0.7606049145952438 -0.1000690033965014 -0.4588947198414832 -0.5070718084479988 -0.07999550451988267 
-0.04680829774427451 -0.002132181692129326 0.08350035459818490 -0.02589212673041493 -5.518471035550403e-05 
0 0 0 0 0 
0 0 0 0 0 
0 0 0 0 0 
0.2579036411194408 -0.008830381781098903 -0.003666091086251025 -0.3567548420329249 -0.001399321791749441 
-0.1692695399357711 -0.03973465723578708 0.2934657946852524 -0.09843081835252249 -0.1944426148394844 
0 0 0 0 0 
-0.3396088044097230 -0.4023801196719833 -0.08290869945994307 0.5350133168842114 -0.1074130037552028 
-0.07956344739549429 -0.001146459867028023 -0.001408376934033234 0.07007191249688008 -0.0003207924552359196 
-0.4368273600713662 -0.02428623134267404 0.3090790253576702 0.1176992580006553 -0.01112184004318808 
-0.2822207703931777 -0.01426198301482030 -0.01946342503724314 0.2640649571704963 -0.004213885429569705 
-0.2043942442965748 -0.02190195439293387 -0.0008524053885824439 0.4271231649476979 -0.02311158732046048 
-0.04235430022544535 -0.007190068896055616 -0.002684140449146498 0.1011564617500033 -0.0001845786536488319 
-0.1914415434306797 -0.001917518318923317 -0.0009377744428415266 0.1895761587578488 -0.0006649455831022047 
0 0 0 0 0 
-0.1678277648962977 -0.002223732646125790 -0.007761304268931841 0.1281734460120026 -0.002556114791421642 
-0.2091761863452230 -0.02926796647532227 0.2751564556672537 0.09687895273889785 -0.06691948004562147 
-0.01040879696441501 -0.0007604066044007380 -0.005964145207721482 0.01238094873299792 -0.001572007368311067 
0.08975339604835549 0.6136737726768161 -0.08472470210816240 -0.1415876019270030 -0.1608044396827018 
0.1048254996344817 -0.05812916815920197 0.2143213032699167 -0.09644758701439976 -0.1322805134835590 
0.1048254996344817 -0.05812916815920197 0.2143213032699167 -0.09644758701439976 -0.1322805134835590 
-0.4522684151200878 -0.01676524464132282 -0.02134650967636442 0.1045576399939417 0.5821126775969956 
-0.5908538909284118 -0.07600315120821088 0.4325612844869911 0.1202384779445037 0.4781861883914685 
0.1809338312436203 -0.1336280319213463 -0.1643001159397916 -0.1180368669713873 0.3159063889674628 
0.3323683106300555 -0.003925194076079473 -0.005358391270086284 -0.3652498553291864 -0.004078930932546135 
0.3323683106300555 -0.003925194076079473 -0.005358391270086284 -0.3652498553291864 -0.004078930932546135 
0.1199393854039385 -0.07373528364764986 -0.1239330901526216 -0.02214569690107881 0.03750730559696641 
0.2502206437870065 -0.05485666963204567 -0.09887462215381890 -0.007995069481446139 -0.08485615439918455 
-0.07698385244360616 -0.002326633878407976 -0.001087471771041221 0.05065954396411029 -0.0003872098825465197 
-0.07880687604293826 -0.001290957756751130 -0.003974733552138393 0.1079625091133510 -0.001764541021560825 
-0.2391997134684360 -0.0008199452719047793 -0.002068425653175773 0.2367559006784487 -0.0009703377203123544 
0.4129500328011245 -0.006675054230245182 -0.01054632295288368 -0.4792299288085437 -0.001869596385711228 
-0.1216787823557139 -0.04356102948413390 0.1657941225000984 -0.001076905403208639 -0.01637724803621054 
0 0 0 0 0 
0.3200810334328336 -0.01160461043908658 -0.01335277854223936 -0.5388529545448268 -0.001670177399265357 
-0.05389487157941470 -0.003151669369541593 -0.0007132676940126180 0.1135645115246708 -0.0001665050282176180 
-0.05389487157941470 -0.003151669369541593 -0.0007132676940126180 0.1135645115246708 -0.0001665050282176180 
0.2704068122738925 -0.08122544330716176 -0.1358863358903104 -0.2785352071510331 -0.03065696646634044 
-0.2967619084144957 -0.07709951478102169 -0.5800106794047732 0.9921412447820114 -0.01258045064550487 
0.01267689893298026 0.05090499266975503 -0.3841069799173268 0.1375882022563757 -0.009098474614126249 
-0.06211359717297891 0.03237811756815200 -0.3159361765733475 0.1113734870441322 -0.06878910733859676 
-0.09293621789707394 -0.007816846098454157 -0.001457244917356560 0.09586602677040315 -2.452454692997543e-05 
-0.06660895419745323 0.2976213206862777 -0.04136141886266388 -0.001963713727612723 -0.1514813604510203 
-0.4475385101498243 0.1440189181319387 0.1561756991167947 -0.1337438901093979 0.2444947233034962 
-0.08209450972191894 -0.01883519522202634 -0.05832956363382998 0.1602956137494002 -0.01346705060659030 
0 0 0 0 0 
0 0 0 0 0 
0 0 0 0 0 
0.03514789199292943 -0.005533229510834040 -0.01016287042839717 -0.03833420995357430 -0.004751175652140595 
0 0 0 0 0 
0.2826077875071108 -0.1816640158052680 -0.1318970521931998 -0.008672784798848398 -0.08951415693316815 
0.06796680924517484 -0.008563686505843757 -0.02560581062769918 -0.06276955827362861 -0.01089377398290096 
0.4515479096104068 -0.03341564490723718 -0.01288112924241340 -0.2636232309264316 -0.01718415021481239 
-0.4848021110640253 -0.02245913997356591 0.4659059556467768 -0.04537413551152895 -0.001940118610334185 
0.1498672628561631 -0.02153777361447011 -0.01305914877212118 -0.03751301963542662 -0.0001152639051581832 
-0.03868983110174983 0.1367227801466923 -0.1589007040444179 -0.004673127716265667 -0.1189404595942939 
-0.04028355447732583 0.01383140942967735 -0.002840825421319453 -0.001411163779718785 -0.001889729687797187 
-0.02940261990382336 -0.1035369305210468 -0.02462127826276272 0.1199523009059809 -0.05321548726720478 
0.2862898309312329 0.2010345406808396 -0.1079678434510586 -0.02232532730018808 -0.3301145029296027 
-0.4024502046578364 0.2809969406153170 0.2098908094967178 -0.02423899803647798 -0.007181011040228742 
0.07057566460821185 -0.02973115739617460 -0.02253207047229163 -0.08043110044758531 -0.01393362346301728 
0.02800433667456157 -0.009115179912224623 -0.006197469772307092 -0.01996893507988410 -0.009320306396117875 
0.02800433667456157 -0.009115179912224623 -0.006197469772307092 -0.01996893507988410 -0.009320306396117875 
0.02800433667456157 -0.009115179912224623 -0.006197469772307092 -0.01996893507988410 -0.009320306396117875 
0.02800433667456157 -0.009115179912224623 -0.006197469772307092 -0.01996893507988410 -0.009320306396117875 
0.2226205419577930 -0.02489002640368665 -0.09415023983616559 -0.08478661972198596 -0.02778346795865106 
0.2226205419577930 -0.02489002640368665 -0.09415023983616559 -0.08478661972198596 -0.02778346795865106 
0.07418022913718046 -0.1062893337846289 0.2248771599390088 -0.2214157914627587 -0.1188899471656635 
-0.1740525321648170 -0.01790338969907127 0.2024956972838656 0.2319476459704311 -0.06447029318611892 
0.1165585627060879 -0.09763704313068695 -0.01971364243628081 -0.01053378297602393 -0.03724208423995096 
0.1165585627060879 -0.09763704313068695 -0.01971364243628081 -0.01053378297602393 -0.03724208423995096 
-0.03718790404852236 0.01622210910644965 -0.0004972463753844917 -0.007005124708419167 -0.001159072408933857 
-0.1716904004532068 -0.005226980574744368 -0.01207040204115388 0.1825035691197428 -0.0003222336815890686 
0.06092465772223545 -0.03011656618419134 -0.009516141027168459 -0.04898212797059943 -0.005971069386055150 
-0.1122093195256861 0.08179709985512668 -0.009725675438695763 -0.0006662014256498528 -0.002151872590133135 
0.01100754743105694 -0.0008457039616808269 -0.0009925473426552344 -0.01640912159163917 0.0001981768912112315 
0.01100754743105694 -0.0008457039616808269 -0.0009925473426552344 -0.01640912159163917 0.0001981768912112315 
0.1684637491111270 -0.01233390754937922 -0.1027450308489043 -0.07832125575922912 -0.02496779524142187 
0.01515767107848137 -0.01268163746488384 0.3058142551685820 -0.2883549546595501 -0.02819079198723353 
-0.01573209249563884 -0.002565125661438680 -0.003970832546925050 -0.006586226399622550 -0.0002651137723208768 
1.036347529058544 -0.02299084672279012 -0.6895780482303799 -0.2824392645462117 -0.004789699580811293 
-0.01573209249563884 -0.002565125661438680 -0.003970832546925050 -0.006586226399622550 -0.0002651137723208768 
-0.01573209249563884 -0.002565125661438680 -0.003970832546925050 -0.006586226399622550 -0.0002651137723208768 
0.1239298242071028 -0.1264337889096169 -0.04276279540255132 -0.006100031657291576 -0.01318366213509390 
0.01703284601215825 -0.01174232286455225 -0.003701097182237375 -0.01606048865602200 -0.001708232903975883 
-0.2941367568777141 -0.02794803223833137 -0.01967493831956035 0.3433858118961369 -0.01236573922722601 
-0.09898776707675858 0.2079283207218517 -0.1973401790857873 -0.1109174031213927 0.06195849786243406 
0.04530264094979343 -0.003147949779700257 -0.01043867019375371 -0.04683839389425247 -0.003650283046043098 
-0.06480613675859223 -0.03541544391651082 -0.02146318566811823 0.2836225714066193 -0.01392890740693179 
-0.5580865453908972 0.1483869856374385 -0.1297228008967045 0.3424657141183156 0.3249830067424622 
0.4121151875699668 -0.02073145720299329 -0.05685997598216354 -0.2848479403011588 -0.01903915006358850 
0.1131507913199054 -0.01963831433677981 -0.01218349740709403 -0.09426912569648624 -0.005994284567579691 
0.1285066174601493 -0.04610024355902967 -0.01682283185270293 -0.06181510208768599 -0.009621014980243162 
0.1671702768072340 -0.01960784294617873 -0.03750688135298651 -0.06161281850983759 -0.02976662303168178 
-0.3125284438196107 0.05167333941747713 0.4510839255727387 -0.1028682639862597 0.04353858197465619 
0 0 0 0 0 
0.2646236070662251 -0.02030101430785567 -0.04305875867470280 -0.3706444543527667 -0.02264175590788397 
0 0 0 0 0 
0.009088082778067030 -0.02890747684630081 -0.008690743350228606 -0.007216104475864146 -0.006515599096503886 
-0.1971322537788380 0.2255168012103029 -0.04324411797128630 -0.003138153897912875 -0.01221378713501630 
-0.4755596618458379 -0.02257220600805108 0.2964633864060246 0.2184664461595927 -0.0004939515361396705 
-0.1054936685547269 0.2795784868388150 -0.04809407116321136 -0.01346281488897756 -0.03203077257441639 
0 0 0 0 0 
-0.5143177318543192 -0.02232140770024801 -0.01673412557861776 0.2779342817669545 0.4283243778457533 
0.02075205660698072 -0.01887591508442902 -0.1335842252598895 0.2367850979341711 -0.02518872366217594 
0.4358783120184028 -0.1260440020729483 -0.1066458366564716 -0.2796019699054751 -0.01885414497687692 
0 0 0 0 0 
0.09932669037396012 -0.003103779119290576 -0.007159098588472163 -0.1275347803718672 -0.0005011861099895555 
0.1878887179302838 -0.08768263261636407 -0.02295294391203337 -0.07518314547100180 -0.006823183016896527 
0.1878887179302838 -0.08768263261636407 -0.02295294391203337 -0.07518314547100180 -0.006823183016896527 
-0.06067825369415691 0.01570608209851672 0.02846926879796609 -0.005096387086497688 -0.003704703763395145 
-0.3065497142982528 -0.04635674895728646 -0.1991712713678615 0.4203698144593543 -0.08205485425905155 
0.09700006971218886 -0.03870232064954537 -0.002829066648237113 -0.02114268272315584 -0.01504467291007909 
-0.06265826070673275 -0.001543128639255015 -0.005224028989058995 0.05531564213882488 -0.0004331916032634773 
0.4612970048549517 -0.03121438929366922 -0.4682455502227587 0.1030554359060236 -0.02576742411956288 
-0.006019205304098029 0.01652963040483509 -0.004550592191478451 -0.008133241074304660 -0.0007085591814342941 
-0.006019205304098029 0.01652963040483509 -0.004550592191478451 -0.008133241074304660 -0.0007085591814342941 
-0.1875964461282744 -0.009332466484529922 -0.01181805022710244 0.2804910198275760 -0.002287308591150660 
-0.1034692390908841 -0.001894327853746604 0.09539367024148028 -0.004866746902841159 -0.001035848468339711 
-0.06265826070673275 -0.001543128639255015 -0.005224028989058995 0.05531564213882488 -0.0004331916032634773 
-0.04704574648753975 -0.05224753831832746 0.05454694394640799 -0.002368624445367727 -0.007395305842020037 
-0.3872854517845732 -0.001876453655730938 -0.003870694279262001 0.4872593288019256 -0.0005600715051561453 
-0.02105700664420226 0.01007464156472449 -0.006252500920250560 -0.0007265465938938742 -0.002093507193232567 
-0.1958038830603581 -0.03556825970053450 0.3075953465071943 -0.003212127447424214 -0.03032105791783219 
-0.1791131678106639 0.3375769942672612 -0.008566835952769096 -0.01410825059795732 -0.004806194956722167 
0.2897678231538542 -0.3809808653428803 -0.03152596107155269 0.01915658322539692 -0.006265063196817890 
-0.08469865725779789 0.05444884204462062 -0.04206664554386030 -0.06937082778336277 -0.02727546896285269 
0.04996871935873377 -0.07445960515252278 -0.03374916912632484 -0.02195138201187397 -0.02235443749504148 
0.3405588052575918 -0.1423728264482849 -0.3714233160204337 -0.02735583267332021 -0.2387825200306276 
0.2981935703831395 -0.01020199030927294 -0.2289095753266145 -0.08233017263313812 -0.002831352674459509 
0.1411284193768799 -0.03221210837930139 -0.04622386424985062 -0.02993320705139827 -0.008834541072537179 
0.1397337596779197 -0.01077172315986237 -0.2574852806476909 -0.01244099482014714 -0.009534284257273640 
0.02025238588810178 -0.02012136428728308 -0.03499143075421145 -0.01736409184023384 -0.01612748250181164 
0.03414878169750577 -0.007659329969707755 -0.02105737439154375 -0.02323160474839759 -0.005231325738222095 
0.3155872252865507 -0.08168878768685808 -0.1250261898488735 -0.04913284090223170 -0.05956214350297960 
0.04580740674018877 -0.003902279834397562 -0.002638956558216070 -0.04282376136419307 0.0002108603604816827 
0.02985447937396637 -0.005614270317505923 -0.01156425416719555 -0.03785310818549546 -0.002828719819743806 
0.1145429791897679 -0.01025978407203671 -0.04498981251604802 0.09899426132842441 -0.01948451817451914 
0.1145429791897679 -0.01025978407203671 -0.04498981251604802 0.09899426132842441 -0.01948451817451914 
0.1145429791897679 -0.01025978407203671 -0.04498981251604802 0.09899426132842441 -0.01948451817451914 
-0.04701697942272926 -0.1016780822301639 -0.05705962895319270 -0.09215708268400619 0.2640913883505077 
-0.2118925786046195 -0.04311015479168103 -0.007759357642686322 0.4322051890849269 -0.005260758510854394 
-0.5936978429580152 -0.04351349695422910 0.1348050170540048 0.4277061239685671 -0.006353510935858104 
-0.2118925786046195 -0.04311015479168103 -0.007759357642686322 0.4322051890849269 -0.005260758510854394 
0 0 0 0 0 
0 0 0 0 0 
-0.3538945210967522 -0.004682735594476646 0.2848668971127422 0.02786657771004264 -0.002209217290201944 
0 0 0 0 0 
0 0 0 0 0 
0 0 0 0 0 
0.04186843702434730 -0.005173726628966071 -0.01683638721467027 -0.01961867406938964 -0.004938854843532846 
0.1929054818617640 0.1960586526350008 -0.1459162869294196 -0.03493142037702652 -0.1427371993573666 
0.03706746473809201 -0.07189173795227763 -0.005784380923175260 -0.05978200869684098 -0.1199056081004039 
0.5803305041176408 -0.02330706550234435 -0.006148184425101311 -0.4682903944754269 -0.0003868198882501592 
-0.1151018020139899 -0.02421753690164421 0.1327823570865220 -0.0005734579949433180 -0.01331016459416511 
-0.01842889159691247 -0.004247109184879781 0.04606587310057578 -0.03541350396749621 -0.0005499286532283507 
0.01740668233388674 -0.006364557635824665 -0.01383397510006905 -0.1238037820383166 -0.004698867441941059 
0.1610151792551650 -0.06355532622372176 -0.01647851542909739 -0.1438902018891699 -0.02697399213937596 
0 0 0 0 0 
0.04709577230427282 -0.004276950231075832 -0.04239712446815246 -0.02218914067594112 -0.003427184147673279 
0.04709577230427282 -0.004276950231075832 -0.04239712446815246 -0.02218914067594112 -0.003427184147673279 
0.2630627562797546 -0.007527853998811156 -0.04613063532077574 -0.2406366515466022 -0.003036615769217326 
0.2630627562797546 -0.007527853998811156 -0.04613063532077574 -0.2406366515466022 -0.003036615769217326 
-0.1020708935351757 0.3175131942350896 -0.02659160921382627 -0.01642704439975133 -0.1045075209069095 
-0.1020708935351757 0.3175131942350896 -0.02659160921382627 -0.01642704439975133 -0.1045075209069095 
0.2166425162233844 -0.03860156367199734 -0.08089745106707825 -0.08505373441511249 -0.02324253553952861 
0.2213753295335896 -0.01300290801348370 -0.03223830688013948 -0.1763126036629859 -0.01451943465036621 
0.1929610561937539 -0.009978607223460214 -0.01686480357149334 -0.1537554263268071 -0.008398869294823818 
0.4654870279142848 -0.02737254707849665 -0.01642791589333300 -0.4884936629203756 -0.003455306020387770 
-0.2230479816932749 0.3638332478364788 -0.001812604166054163 -0.02284549040172109 -0.06433026240239566 
-0.2625632849473591 -0.05071793200806858 0.4135768854251041 -0.009823716590612009 -0.01929536336862426 
-0.5396292007783947 -0.004349995040639670 -0.006239768378563316 0.5015376463670710 -0.002865077977793080 
-0.05161078858179073 -0.01985036996989318 0.1426564053886166 -0.008325387045574334 -0.01814082652659512 
-0.02601777391290084 -0.003346106357856754 -0.005140389976210191 0.03711865868057431 1.109367737776222e-05 
-0.1883043185010634 -0.02822451309185544 -0.01906890235971140 0.1727512144818287 3.689071913131692e-05 
-0.04781870138528040 -0.001150099236961790 -0.002456856012201583 0.05320394035484325 -0.0008823031538760958 
0 0 0 0 0 
-0.1846134410271205 -0.009344322653878403 -0.008414893608889687 0.1324336908845637 -0.0004527559558702225 
0 0 0 0 0 
-0.1161735616104211 -0.002573967377185139 -0.005515228622367715 0.1458421374045657 -0.0001482971275908597 
0.3064286792445625 -0.01047237373440790 -0.02163395340244505 -0.2030183550765507 -0.001337119737556650 
0.03339286400662776 -0.001160612674965525 -0.007717184719613681 -0.04263435865917819 -0.0005258339359355246 
0.03339286400662776 -0.001160612674965525 -0.007717184719613681 -0.04263435865917819 -0.0005258339359355246 
0.03339286400662776 -0.001160612674965525 -0.007717184719613681 -0.04263435865917819 -0.0005258339359355246 
0.4226022408549836 -0.007898406357222758 -0.01611872478007734 -0.3488604924811164 -0.001188822609965790 
0.03250260469535405 -0.008826569832055885 -0.003473136797594309 -0.03630785210847313 0.0001707794401852448 
0 0 0 0 0 
-0.1782350477442928 0.1098591905466171 -0.01156830227344894 -0.0007564070586528334 -0.004213946711553783 
-0.2395050709974366 0.09169588459907058 0.08752121344232888 -0.002578090964854204 -0.007979862981052055 
-0.07381468003549682 -0.01476710668993060 0.06090405542187588 -0.001023207940590325 -0.003377399148044532 
0 0 0 0 0 
-0.3817360568417427 -0.005149595379692164 0.5206126055139823 0.1041694319480531 -0.007865675634003779 
-0.2334124808545262 -0.003973019047792467 -0.02611543758688407 0.3381266338065881 -0.003409479184273424 
0.3186217512339485 -0.03248734522217456 -0.06487280980666303 -0.1646437337307707 -0.006127516928932356 
0.2001796792131963 -0.1105269285590299 -0.03514423026680289 -0.08627806759616775 -0.07070403825702697 
0 0 0 0 0 
-0.02003542924162817 0.01514039350145510 -0.008493495420797985 -0.0007121701202835005 -0.002241063130426339 
-0.005760550205372699 -0.04499048986651098 -0.04277088053876117 0.04136798987825856 -0.05877648423488648 
-0.03492564200487628 0.01343353268432307 -0.002706693729351811 -0.001071698213635517 -0.001643699660706640 
0 0 0 0 0 
-0.06127002325314378 -0.01816330594754650 0.09908951571577782 -0.001821683906201371 -0.003765916269498272 
-0.1397441059619317 -0.006066590827864427 -0.01102428596168623 0.1385526785678478 -0.01338269015544047 
-0.1753251576305733 -0.02917613552718014 -0.02865572313286012 -0.01456921497845352 0.2976788948035892 
-0.1753251576305733 -0.02917613552718014 -0.02865572313286012 -0.01456921497845352 0.2976788948035892 
-0.02413870065773291 -0.0007467282885029728 0.07128858500846920 -0.03052293051072774 -3.840327346453916e-06 
0.05000402530446869 -0.003973702455264395 -0.01662490106968215 -0.03959811013586711 -0.0009262511767875502 
-0.1949319095426390 -0.01658429891037145 0.1049240848505185 0.1254923681938922 -0.004446495446612744 
0 0 0 0 0 
0 0 0 0 0 
0 0 0 0 0 
0 0 0 0 0 
0 0 0 0 0 
0.07227895790830921 -0.001571752566805510 -0.01518172523270314 -0.05813339242175651 -0.0009054738850105739 
0.2907575711713825 -0.06955722885941533 -0.1763950863956988 -0.01554935736744384 -0.03324966256857685 
-0.1350942310074915 -0.01573841987214160 0.1845175209078836 -0.003526395455730035 -0.01094901124373300 
-0.01580221648406696 -0.04880201834743379 -0.004736190418696231 0.07684669501155232 -4.396885041208108e-05 
-0.01580221648406696 -0.04880201834743379 -0.004736190418696231 0.07684669501155232 -4.396885041208108e-05 
-0.04956931841059559 -0.01159045019736181 0.09204896313377764 -0.001602290510707661 -0.006619310293074714 
-0.02227493260384052 -0.002401949888458885 -0.001443175836979012 0.01853528228588940 -2.077729177697637e-05 
-0.6147192537373230 -0.002191141120138283 -0.005315727136642867 0.5890464647701845 -0.001677278946047118 
-0.6147192537373230 -0.002191141120138283 -0.005315727136642867 0.5890464647701845 -0.001677278946047118 
0.3095577830402181 -0.09907909105227752 -0.02445664866337103 -0.1129256022477345 -0.01449032230142033 
-0.3641020875039412 -0.001316364390940381 -0.009445125837976635 0.3166737433157362 -0.001453105296710250 
-0.3641020875039412 -0.001316364390940381 -0.009445125837976635 0.3166737433157362 -0.001453105296710250 
-0.1391748685769203 0.1986093440776857 0.02180610355207270 -0.01035583978696293 -0.03840279072443511 
-0.09595573466006228 0.2213746053864524 -0.04344384092040644 -0.008140426830713303 -0.02879152978985105 
-0.1550333304097969 0.2617560133403882 -0.01035939702351227 -0.01322445201420773 -0.005822436294296765 
-0.1550333304097969 0.2617560133403882 -0.01035939702351227 -0.01322445201420773 -0.005822436294296765 
-0.3162064835990228 -0.01827409919476423 0.2839159877658931 -0.004984435348583702 -0.005275794255826722 
0.1051327365871928 -0.02669742944609567 -0.2545572901374952 0.09796517709837353 -0.009753179461389339 
0 0 0 0 0 
0 0 0 0 0 
-0.08576733854591771 -0.001587678451950457 -0.004106642387423208 0.08183612691691085 -0.0002815372137061388 
-0.1976824515775519 -0.0009980536836382396 -0.0009704026874392876 0.1688221092460731 -0.0001770141713558284 
-0.1976824515775519 -0.0009980536836382396 -0.0009704026874392876 0.1688221092460731 -0.0001770141713558284 
-0.01158375435256023 -0.008432360181226202 -0.02384505339260240 0.002886754581431257 -0.02580778169771459 
0.3007251735778885 -0.02900178409741792 -0.05540593748329101 -0.1930748412942150 -0.05830808289054702 
-0.1747463124315268 -0.001478301613374867 -0.0009898611895269738 0.1418516139991637 -0.0004978827450609606 
0.2162012295944419 0.1171041286305043 -0.4719905476760807 -0.07476493513584076 0.1702270616010696 
0.08804157966644219 -0.01094988132087530 -0.01291193903823943 -0.1279702190982499 -0.04308501802404915 
0.6690841624156594 -0.01217895874451785 -0.01150287694326082 -0.8792828209138149 -0.003805108095749032 
-0.09674841789446455 -0.005693145637938897 -0.07261755752839716 0.1615995659891736 -0.01023162431282321 
0.4994255038915099 -0.1253066157631965 -0.05815587267562909 -0.007350799855483576 -0.2647892579815672 
0.4994255038915099 -0.1253066157631965 -0.05815587267562909 -0.007350799855483576 -0.2647892579815672 
0.09057207855167092 -0.04380079055591642 -0.04884144487832915 -0.009395249072729551 -0.06419981411796752 
-0.4133049909769242 -0.01710858460238617 -0.0007913645724188955 0.5386385080384986 -0.009594131370404916 
0 0 0 0 0 
0 0 0 0 0 
-0.07558557180321750 -0.003219061889425814 -0.002727355526545590 0.07530205537436727 -2.070842573219774e-05 
0.7481215536960796 -0.008181928049452716 -0.009934872763863570 -0.7206085707516897 -0.002107172936117243 
0.2524199017585644 -0.09552728521934188 -0.1008367392998121 -0.01062983700109656 -0.1087808055127097 
-0.1259931360101862 -0.001913605517188420 -0.002460333648115583 0.1055603396551191 -0.0002508723952613354 
-0.1399901568745869 -0.001187477579200182 -0.0005747313008177511 0.08432146767617538 -0.0002310716520129887 
-0.09866013616388700 -0.002907067762788644 -0.005071821133162307 0.1081402457572254 -0.001220801975011202 
0.6781821688574505 -0.4690201476127696 0.3480972623467352 -0.7640007153502331 -0.1260354260664261 
-0.003715402195100516 -0.4162273539417123 -0.3215246864185170 0.04313810876258373 0.6387372803086637 
-0.06833668034785953 -0.0008805070060889872 -0.001497937504369248 0.04959725979963277 -0.0005966467095138694 
