solver_type L2R_LR
nr_class 5
label 4 5 1 3 2
nr_feature 5105
bias 1.000000000000000
w
0.1276150072059486 0.04685704529534370 0.3759943479399811 -0.5204958614587983 -0.3090765070592487 
0.1867598846408761 -0.1382313818607293 -0.08764051003344896 -0.07977579458699824 -0.1419141143300896 
-0.2915497306583200 -0.03646220277445265 -0.0004419538644786081 0.5075980704345212 -0.007949166783809270 
-0.02750521904131099 -0.006509238445652377 -0.001550376281506193 0.07992549635998947 -0.0002294055251253592 
-0.5465528184508811 -0.2437400793796234 -0.02682760752544754 0.2670951567974801 0.4788568725360743 
0.01304594406005412 -0.07777942435153390 0.1799781702284527 -0.2048782665751820 -0.03436084494946896 
-0.3450520261237744 -0.009676986634548204 -0.002469651651924348 0.2889798190583185 -0.001057419992806168 
0.1383442751224834 -0.04915778265731134 -0.3288493806504045 0.09062340641624647 -0.1138237207979882 
0.6857662041687222 -0.6543054426822207 -0.4734038998888877 -0.4375123054156955 -0.3939158816861289 
-0.3282787561390291 0.4020196264652919 0.3890876928744710 -0.2183987099367110 -0.3051599207338436 
-0.6227784304896840 -0.1119950708639663 0.4046376401514940 0.3725779115144073 -0.03358001396806704 
0.3381456094641051 -0.01885375692902394 -0.02253870743471460 -0.3356791379546409 -0.03248073169446212 
-0.08172197572834437 0.1440025369085448 0.07457183598461300 -0.1967797709088347 0.1463703187353375 
-0.07522870889212388 -0.002211680264405553 -0.003668332754551311 0.07859519652770950 -7.161243979880564e-08 
1.318731904300039 -0.7600611346640229 -1.138037703325826 -0.3671214091727899 -0.3334211457666548 
-0.4774297340452571 -0.003656879421070146 -0.008995416359892741 0.5610241001456155 -0.007342236007014330 
-0.01799485290659759 -0.6404596960737936 0.01416010078207837 0.07000877388489662 -0.2158095266640945 
-0.04229149515096719 -0.001940628769153309 0.08138251466521852 -0.05468012714773020 -0.0001512810572931406 
0.6531569942230429 -0.2097870902491170 -0.1779151089312817 -0.3243576292692591 -0.08409119644431566 
-0.06131851743000383 -0.01288114122288045 -0.003975016343519652 0.06705040006504129 -0.0003940888934391007 
-0.5902729901353550 -0.03428012956240475 -0.04674174760338386 0.3315460834544899 0.07628590508872730 
0.06381031667296176 0.1246841836134651 0.2709344868656816 -0.5337452423712518 -0.4994971286768649 
-0.2142566267007976 -0.5076468745119228 -0.5379663307717454 0.2686542309282071 0.2151520991470573 
-0.3110994037098581 -0.01742755625384512 -0.01202006516620442 0.3060163549692115 -0.002702732004388105 
0.2763629173463366 0.1903562671015316 -0.2329583906511273 -0.6511953747779694 0.3633393950225548 
0.7177657159626141 -0.2348519396298964 0.1892329334330621 -0.8177634052433365 -0.2276735793674635 
-0.6341587681047010 -0.1181139006098567 0.3497009338855658 0.7255654206795260 -0.3225763879239727 
0.6414211189061628 -0.08846518219962682 -0.05094975846376457 -0.7208737732626561 -0.07575739778797089 
-0.06760067189684354 -0.01782298579294901 -0.004702115831340712 0.08827496141668031 5.083352188357327e-06 
-0.3553713888710379 -0.1799586146828215 -0.1547898704528108 0.06815400856737079 0.7200329672238752 
-0.7414767794011307 -0.1031003154633120 0.1484178670756041 0.4146075951624357 0.4623318379215115 
-0.1355097648646642 0.4130428330036905 0.2507086867170427 -0.5508522510371358 -0.1170269956224610 
1.046337613580981 -0.5034230201260806 -0.7505871055529972 -0.5185103696493858 0.04422468537452719 
0.6678437433074726 -0.3309404352947957 -0.1857385678339873 -0.5797053929468419 0.01897084639336512 
0.1248277448629229 0.3140989004635352 -0.2596268930017922 -0.1453520451253068 -0.3887985618003366 
0.2185763745472334 0.1457527611244270 -0.2217432308878004 -0.1343826016175421 -0.1290900827294850 
0.5677430929874341 0.9462690171634817 -0.5702890489482212 -0.9679043411863062 -0.1155168052517942 
0.8684625925848238 -0.3677234719907512 0.09289485415888166 -0.3858176979683648 -0.4457613926310196 
-0.9590742047766825 -0.1822174079474929 0.5637240479045882 0.2389631179124137 0.2797240735466758 
0.4080815644316098 -0.1567204990227710 -0.4445171477999248 0.08780312698923137 -0.2573532512959820 
-0.08692581629183219 -0.01047265546226868 -0.01200504293286682 0.1133520489002839 -0.001320584928619714 
-0.7107890000910484 0.8432623732595861 -0.02994186912411172 0.1518029483976861 0.04068461823515403 
-0.1659183344016691 -0.006795063131058710 -0.007291852612788589 0.1744917320537549 -0.0004857508378991980 
-0.3729858420439936 -0.3028370861888015 0.2470914807000751 0.4846094684968155 -0.2767019971673101 
-0.004808130437815731 -0.06674821306503860 0.03008766699530261 0.1353862667403203 -0.3753975748354242 
0.6883387396464746 -0.1684145492256563 -0.4431055127295870 -0.3315189919107277 -0.2076903589815066 
0.06063232033120471 -0.6011159993788345 -0.8151571170521071 0.5370861116482275 0.05459750988864331 
0.3266378193565706 -0.6238052553959930 0.6134949925405780 -0.4491389733286719 -0.2919944296691689 
0.6274543433443266 -1.018132512690229 -0.1525420913033119 -0.4646712833501136 -0.4477745083870755 
-0.5819360379366627 -0.8983318452323039 -0.4394458223879393 0.6878690334699973 0.3470581152283397 
0.8786982291705059 0.1262256633690800 -0.9615100761982014 -0.8010063119788094 -0.5702837962723993 
0.1848066689214541 0.1169015561599054 -0.6867170190737425 -0.1517270742043168 -0.06424711411693418 
-0.9442914370346476 -0.5019446340127228 0.6242478447901609 0.6147991532650097 0.09864373898039537 
-0.07096898140104592 0.6786328708697736 -0.2188039975189959 -0.1954171349656723 -0.1014450974055123 
0.2544866059534194 0.2361827780462948 -0.1684157019231673 -0.2426304599668216 -0.08267141289544178 
-0.3299625531664594 0.3642540480470569 -0.5323888599733440 -0.05071206975667612 -0.3021175526412854 
0.4984374584574313 -1.147168562975817 0.9758249444595954 -1.336525943972484 -0.8040664376408185 
0.7832308173337674 0.1065910207473273 -0.4970457968641019 -1.001081855218242 -0.5788904518595108 
-0.2040378820912483 0.3563868994405041 -0.3202242545436484 -0.2514379952922371 0.1310622835590225 
0.1782531672038618 -0.01916512800123440 -0.02328338040237590 -0.1737766058615411 -0.008474639385816320 
-0.2061344484526102 0.3017362398119723 -0.006228574255957459 -0.006797615800051947 -0.003184394630844376 
-0.2292181079219903 0.4134407715319419 -0.02378430875475737 -0.005393272318010983 -0.03113349812484299 
0 0 0 0 0 
-0.2198492562841515 -0.008465966660412804 0.1393341446290373 0.1950469874567536 -0.0007130452953429950 
0.01444508795527237 -0.06840411621489105 -0.02994705050227728 -0.07573470172643157 -0.03291902848772243 
-0.1347002325770540 -0.05199693847877461 -0.03102007740354006 0.2039063813448958 -0.04991845151705571 
-0.9283362086453825 -0.01014619653704935 0.01541003362307463 0.9928007272309896 -0.01087341669537277 
-0.2090991753569477 -0.2162417282212667 0.4470368486295724 -0.05864738117110685 -0.01059823719444501 
0.3839683568944197 -0.06327133207104751 -0.4012899465329495 -0.03587666630951545 -0.03219411438469736 
-0.01519085278523150 0.02329692946225119 -0.009581926550636484 -0.002000015454903926 -0.009444524262836061 
-0.8488075188616041 0.3381397108106486 -0.01369567523494865 1.002184902808065 -0.06878439986713160 
0 0 0 0 0 
-0.3158399533291667 -0.003858253152048661 0.2809204034936403 -0.002589200069194317 -0.05118533563054589 
0 0 0 0 0 
-0.3450755361407051 -0.001804023518874670 0.1320871992236846 0.1431613238662188 -0.001685121023722622 
-0.08492818966549727 -0.08411957112789346 0.009721107035387736 0.07569957105446222 -0.03373812076996557 
-0.06555812321288101 -0.03591696098176780 -0.04414313148476578 -0.03542785332443667 0.2692865891811675 
-0.2569924055005748 -0.002645499943406330 -0.01286234558918127 0.3075862407710007 -0.004016146762865495 
-0.3787180823083053 -0.01254215965744016 -0.09561647581566812 0.5943068836159993 -0.0005372045989562189 
0.5412211496163370 -0.1770448798031180 -0.2348633594210837 -0.1022401303557011 -0.04512684658109712 
0.2882869431859074 -0.1490498708434254 -0.2705888920546265 -0.02209041912842585 -0.1311654714058096 
0.2704201862776373 -0.1385843899112763 -0.2102459471210622 -0.01288937781906596 -0.04250271105151081 
-0.2042896233310938 0.3577160897298642 -0.02228697668260415 -0.09275888586857640 -0.02574126779355881 
0 0 0 0 0 
0 0 0 0 0 
0.6322690480257396 -0.01862672280757373 -0.01904693965750678 -0.7376196557148700 -0.009290207364222513 
0.1543275792006968 -0.09022659701785622 -0.05210014043588637 -0.06306432585915710 -0.07730658470889201 
0 0 0 0 0 
0.1013145939937209 -0.02431158940836986 -0.02776708407178528 -0.08377029488898377 -0.06159790756749630 
-0.3998337484365190 -0.001644434245273880 -0.01013296005647394 0.4323391108744962 -0.004750751219161327 
-0.1642222594029660 -0.001682492003007175 -0.001637105533145993 0.1889223455748239 -0.0004251363583220353 
0 0 0 0 0 
-0.2497117474338998 -0.007843282874268923 -0.001977246133015209 0.1960418886761221 -0.0005930695068678870 
-0.1843951216057979 0.1445173715512939 -0.006147125514079331 0.1347199737235831 -0.007156192495901536 
0 0 0 0 0 
0.001469278532323988 -0.1424205175131202 -0.08368838066084232 0.3468502700387986 -0.01155055158851019 
-0.1833168872398946 0.3003737198719892 -0.03539454873707605 -0.1158409610425760 -0.06886201284186833 
0.1713492849058062 -0.07529722095790070 0.1278874234559238 -0.08085641646263014 -0.1402082245161770 
-0.4259457911621624 -0.1641647931137504 0.2288942133570073 0.03883364418082357 0.3447843270699906 
-0.2045691711305830 0.2828174601704857 0.5578644577678890 -0.1530169394563581 -0.3148335825217754 
0.6899721951936377 -0.07944038088966411 -0.2121346926397858 -0.7741291128490390 -0.04375584016687737 
0.3663410214974833 -0.1509445023428522 -0.1104013832483448 0.03299462719923085 -0.08821723243411285 
-0.1125793420641413 -0.001551112154302561 -0.0009731794216293149 0.06854171146913696 -0.0004109600019846284 
-0.2290401791887235 -0.05998566608422249 -0.1252059069315999 0.2626547786443072 -0.01805609837460765 
-0.1284943205674796 -0.06733943959506970 0.1940593219618159 -0.0006386677071472525 -0.03181275330977996 
0 0 0 0 0 
-0.05676297160695805 -0.005357070554975377 -3.073373486527318e-05 0.07431761662601097 -0.0001234437156441631 
0 0 0 0 0 
-0.4682942396166442 -0.006516191264462335 -0.009873984872521783 0.4798391579745606 -0.005197624997824464 
0.001783669069755322 -0.01397563979068266 -0.06749537089620880 -0.1021888592584572 -0.01676656046373735 
0.1533380956244961 0.1552529128372348 -0.07125610003379229 -0.1149042003580063 -0.1102138678762137 
0.5876291906611324 -0.1738922831557176 -0.08047699155320055 -0.4521012974316262 -0.07906611925261352 
-0.02427557394642156 0.05013082287028968 -0.007066521997300420 -0.002813232527261939 -0.04385759613030815 
-0.4732689608657134 -0.04309945826420211 -0.002679175556019228 0.1511690645992124 0.2734192293314024 
0 0 0 0 0 
-0.08073750166137580 0.1293855553918255 -0.06376058849866799 -0.009267534560402080 -0.006587681280896041 
0 0 0 0 0 
-0.09743442611495233 0.1159210064942554 -0.008003072950304412 -0.01120777664322143 -0.005883059375722109 
0 0 0 0 0 
0 0 0 0 0 
-0.2755961782658349 -0.001170829905206608 -0.001916181821140621 0.1907248748299843 -0.0009543724184940114 
0 0 0 0 0 
-0.2066395461181514 -0.005600583105108595 -0.005473163061202879 0.2004285445113836 -0.004824347310994671 
0 0 0 0 0 
0 0 0 0 0 
0.7696268416573536 -0.4325311319307816 -0.5848602065236049 -0.008664808685495733 -0.1571320233332667 
0.7507390128499750 -0.2772154033741200 -0.4382073741792618 -0.3270028971662408 -0.09821665683142933 
0.3609813401539555 -0.02392484053823618 -0.006784398127130680 -0.2547668117773762 -0.01902448372346599 
0.2426328075874129 -0.01806209021219172 -0.01774760029473228 -0.1623850835070672 -0.06588106346282960 
0 0 0 0 0 
-0.03115967596502273 0.01692111290616184 -0.002832685590571818 -0.0009800922191850700 -0.009763218428910994 
0.5146672100957290 -0.01508764818317920 -0.07850378400117573 -0.4512018322730736 -0.009982064738975449 
0.08482246175197020 0.02707821442275141 -0.05664263606036473 -0.02918814776900049 -0.1715618029856660 
0.1083180300433724 0.04319266484748272 0.04345310345212799 -0.1123307971305353 -0.05314351778285804 
0.2582325734329785 -0.04901645965251401 -0.03069282869757815 -0.5305643540567563 -0.08363268560870854 
0.04084357501415552 -0.02016329863059531 -0.05754752348767744 -0.02188181716755661 -0.03399236558322650 
0.3926963814519194 -0.04017154224164291 -0.1597165580349063 -0.2337801118105796 -0.03441795510905060 
0.1101162716771169 -0.1615606674820696 -0.1644472330679983 0.2544065610901501 -0.1639049560207375 
-0.3255422475884794 -0.3078566624958678 -0.03162758107852208 -0.01342724452414666 0.6835699645076380 
0.2049606249063451 -0.1905316667020307 -0.004366572071268777 -0.05122803397707242 -0.04024741669392497 
0.07103810180216005 -0.008555295473691932 0.3180773418660960 -0.2289876108109484 -0.002983263561781783 
-0.03995570701780351 -0.06732873439783357 -0.01731318413996082 0.1149049894942240 -0.02635566916132303 
0.01209687107267871 -0.01494524498691601 -0.01114855615250186 -0.02759805884264208 -0.02572663060706845 
-0.05466261881465838 0.07796473225962446 -0.006951504351973022 -0.002255716764714908 -0.008790164271817074 
0 0 0 0 0 
0.1915113591575366 -0.05301254983073233 -0.04207509922257997 -0.06372795474466810 -0.01866074119332926 
1.147382828957304 -0.1406761850976055 -0.4079736402474460 -0.8827032382331926 -0.02833507567446438 
-0.1182791730951549 0.1409465683420298 -0.01212689265334582 -0.0005373601604287136 -0.008760764077842553 
-0.009541090364431910 -0.002845763058738216 -0.002781874688582917 -0.02174879710021153 -0.001584894781070533 
0.1675386242138160 -0.05223480440214347 -0.001226519710309327 -0.02740666297171496 -0.07909138428775209 
0.1312342869962667 -0.07739054594456325 -0.08857792463059531 -0.05364586222876480 -0.01815357733936817 
0.1441744425730598 -0.06877742012268978 -0.02800337578755072 -0.03902924517076444 -0.1375416254415127 
0.08785825945701776 -0.1010318064952418 -0.03476729852171833 -0.003498456512944862 -0.01607615028282862 
-0.1782343682895630 0.1582337811754615 -0.01299211274550891 -0.006891352692495995 -0.005336532016286462 
0.3019646239063547 -0.2489928453786667 -0.03101479791691227 -0.01602664171515631 -0.07380541173255675 
-0.2399203573391589 -0.1695814523692036 -0.005798109729986605 0.2937221318585758 -0.01390510599140420 
-0.1928852743814714 -0.01290868049119211 -0.02626787498909803 0.2623350125754508 -0.01063942798202183 
0.3777131717822326 -0.2043190370540961 -0.1144527948675360 -0.1620422601734506 -0.3557084857573467 
0.2155672054623551 -0.1309772376469972 -0.009438000581227516 -0.05230376738167005 -0.05066803479283612 
-0.1620146596800711 0.1039572917278876 -0.0009851220470249958 -0.001426278267107953 -0.01294505514522212 
0 0 0 0 0 
0.1423434369135116 -0.04643507701017295 -0.01240133446166677 -0.05406411253142657 -0.01921730762253502 
0 0 0 0 0 
-0.8419439149167847 1.135589006067092 -0.1715030834834871 -0.07315727845682120 0.03820209137814816 
0.1555620823486505 -0.3380596378978035 -0.1329032470224783 -0.05020037356825716 0.3502505035436579 
0 0 0 0 0 
-0.2350664995165561 0.3500858780482857 -0.05308335756106480 -0.01653778355429451 -0.02932018973840136 
-0.2449616908101784 -0.005373206400606703 0.3220266505910894 -0.03985081771625774 -0.0002608594508513406 
-0.3916788357379706 0.9923834438266691 -0.07456553423472018 -0.08041926410848871 -0.05920318503808991 
0.006038301477276373 0.2206297316016352 -0.04936019162867503 -0.1011209038552478 -0.03675453545672520 
-0.1458593637203049 -0.002820560455471427 -0.0003699898572694391 0.1065714772895700 -9.225322363344290e-05 
-0.3165138604984188 -0.04985363149443185 -0.01884125382140323 -0.04109175656874119 0.4386409188759796 
-0.2296298088980626 -0.01582863829978414 0.2537986963395067 -0.01714435126052657 -0.01077658474580681 
0 0 0 0 0 
0.1134769682788009 -0.001413997485512109 -0.009050788024310492 -0.1225473270735341 -0.0007897046794866579 
0.1707025560071187 -0.08045278067246493 -0.01214786381802204 -0.05748282498495878 -0.01197821835071555 
0 0 0 0 0 
-0.02459446151880896 0.03799915952505625 -0.009331117082493467 -0.001731255122997599 -0.008784597149136715 
1.100937635049725 -0.2416637218257238 -0.1067666600804351 -0.6249573036716676 -0.1206093482781896 
-0.2458132975948199 0.2344703454680831 -0.09099656162645015 -0.0002649085627461481 -0.002969112068411882 
-0.2104713809275255 -0.0005737581095351292 0.2232660211969854 -0.02682509049893336 -0.003731226436337023 
-0.4997792598979193 -0.005237697777204673 0.5973257344567999 0.06418232858360218 -0.003365263710376019 
-0.3869344469710254 -0.3413971338966879 -0.1901567677146756 0.2387820661835159 0.9630013402230172 
-0.02043911274874662 0.01186560304433395 -0.004212611267157150 -0.0003162089025376657 -0.01406962296649330 
0.1829463778873960 -0.2956117526307174 -0.01561381044478531 -0.03159138309016790 -0.02002068507131753 
-0.09496137733663876 0.2604525882096274 -0.004740117886624922 -0.02773501819220994 -0.01310769772027039 
0.2692325160695022 -0.2736788245022499 -0.02378768176748511 -0.01300597714959326 -0.02248538393448928 
-0.04507224167693078 0.06168684015004907 -0.02105721319874340 -0.007255768012830602 -0.01893393369741701 
-0.08792065757865704 0.09801311853422662 -0.02512578140982820 -0.004371437025161136 -0.003271092067373695 
0.1473296008161534 -0.09585226124813455 -0.05577795576566495 -0.08804343946823315 -0.03560997450697523 
0.2101091227474124 -0.2881530601297292 -0.07942980355826984 -0.007141419217028420 -0.03448211141521763 
-0.06439251850981670 0.06649208171799739 -0.001989284073027497 -0.005904593989760453 -0.01236260657808094 
-0.3618124264846105 -0.03305768397234199 0.4276643173697225 -0.2332852829386512 -0.05290829382007612 
0.07767771174684057 -0.03967098849688528 -0.03588838057837008 -0.03199904092519849 -0.04160014791377121 
0.1783345214523926 -0.02971283806491212 -0.08407855184565730 -0.02628962142858631 -0.03270207494925381 
0.3732232658997849 0.04931767966607231 -0.5282599817468325 -0.03524575863872369 -0.03275807433249654 
0 0 0 0 0 
0.4054126688990907 -0.08292192279471035 -0.04731274273298518 -0.2547495650719617 -0.02382795657714416 
-0.1022251673912439 -0.1065367612534438 -0.03782425969183296 -0.007206659501591647 0.3147998525717855 
-0.09440219091167494 0.1433234633655590 -0.03312848856910698 -0.003945704949030075 -0.05218063557876036 
0.1746229449282834 -0.08365673289080962 -0.03486695866066842 -0.06516368002064238 -0.1157017658282328 
0.2605350693689266 -0.1318937270575129 -0.07722920722220022 -0.1038266658826830 -0.2288714009534283 
0 0 0 0 0 
-0.1442362657671931 -0.02847487361158186 0.4585260415613967 -0.005664392959249512 -0.1250900539901449 
-0.09127793527700634 -0.04087417465348386 0.1591872267772876 -0.001767530797018842 -0.007000862095297360 
-1.228384579428418 -0.06176500479263946 0.2769674277744375 1.557837088385443 -0.06126322919495943 
0.1001275118557607 -0.05739871397046493 -0.07756920261407536 -0.003936974902549458 -0.02220318054936655 
0.5330013812174204 -0.07937730828061468 -0.03680334172653666 -0.07131244401143565 -0.3529799347130860 
0.5767574300746511 -0.02716370787911944 -0.002251589476356243 -0.5071339692738795 -0.0002788659712612575 
-0.1175750318570177 0.2258051126377613 -0.03435909853985823 -0.006703792117803221 -0.01362750335707044 
-0.1440850989767007 -0.008054892460001146 0.05452133310071814 0.08101664185741886 -0.0009412578467990248 
-0.1146905286896245 -0.002063310340289665 -0.002734930645077527 0.1182875739138089 -0.0006453075047498652 
-0.04237460556005986 -0.03656183089724244 0.07001567576357402 -0.007628888979346293 -0.01816755123968782 
0 0 0 0 0 
0.3022241065506252 -0.04687656909002248 -0.02185117741082052 -0.2416967947853271 -0.004341124924418389 
-0.2103883010489104 0.4231169345053538 -0.03085837683856887 -0.009410776597277229 -0.06682547232979644 
0.3234268395976774 -0.08547851525730617 -0.01871105038987598 -0.1588868447950892 -0.03845593810008611 
-0.2634294206923346 0.3365254810719273 -0.0007176792075041480 -0.01464343900896769 -0.04882773553739734 
0 0 0 0 0 
0 0 0 0 0 
-0.1923958558448181 -0.03682643288265312 0.2936958860891445 -0.0007627379055632906 -0.002234916673557475 
0 0 0 0 0 
-0.2076930897754814 -0.03373330544466541 0.2475480161720179 0.07165085496841005 -0.02308806953581453 
-0.2882363892533383 -0.03367484746954641 0.3060315919323989 -0.005272306123627679 -0.02906971587002806 
0 0 0 0 0 
-0.2998442366899821 -0.001950553919756466 -0.006338771285147830 0.2648087641375310 -0.005955632341378630 
-0.04955399497364049 -0.009636470806318792 -0.002025860999672831 0.04458622592089812 -5.174457743531533e-05 
-0.08151657139745551 0.08094952954545041 -0.03024517579500401 -0.005032169251127899 -0.004893687682135909 
0 0 0 0 0 
-0.02017118349161777 -0.002764076083256642 -0.0007449519305970000 0.01694539468529947 -1.305719617522116e-05 
0 0 0 0 0 
0 0 0 0 0 
0 0 0 0 0 
-0.1703920512843091 -0.04358426482678782 0.08708376132909569 0.2831747392344607 -0.008647843079770356 
-0.3304389355953500 -0.1079736871597128 -0.07929438174319114 0.3700357148308040 -0.1164190307030235 
-0.1692972087445268 0.08768414414631652 -0.01111330102443171 -0.0007136637684217381 -0.004246862546051484 
-0.2614603368025205 0.07688727092074470 0.07286956991552554 0.1129667732639344 -0.006124719244641194 
-0.2767455717013375 0.6735832632752222 -0.02249444240567429 -0.04647614767020305 -0.2090379859431547 
0 0 0 0 0 
0.3103735143406651 -0.09854984735598392 -0.06001147157347680 -0.05740057576623035 -0.06076921266579193 
0.3511538469785020 -0.1385419088509491 -0.06102087755784840 -0.1883070079791495 -0.02742300763570332 
0 0 0 0 0 
-0.05673001862720803 0.03457202894581118 -0.006857816912825609 -0.001310591442070659 -0.01914007906163601 
0.3002950734073697 -0.04055542110426565 -0.001591213039403961 -0.2017191429841988 -0.03941871306690147 
0.1558882426922084 -0.02362876169405163 -0.04342858258163715 -0.03048911725626436 -0.04499935619056864 
0.2486630747212461 -0.07743345835188456 -0.03838444356962970 -0.1451072772285233 -0.06188144205484498 
0.2187114013912098 -0.1459015509834098 -0.01402151380040321 -0.05618170691840507 -0.02532887708767706 
0 0 0 0 0 
-0.1468502303874795 -0.01809730408640942 0.2627289431027300 -0.005873862665787178 -0.01124780247191808 
-0.07940435659998521 0.08279717727782626 -0.001571897108319294 -0.006091327264395567 -0.01911394932702665 
0 0 0 0 0 
0 0 0 0 0 
0 0 0 0 0 
-0.07522870889212388 -0.002211680264405553 -0.003668332754551311 0.07859519652770950 -7.161243979880564e-08 
-0.3942314836613611 -0.0004362717062705838 0.3415612192004263 -0.01599255786263002 -0.0007546759551306338 
-0.1046636727983360 -0.01268728523024376 -0.08225090144097189 -0.2022725968861300 -0.02220693130813504 
0.3001376107653331 -0.002757070146334488 -0.1455721493305278 -0.06663004285251221 -0.01137273567044768 
-0.3165202955943667 -0.04281351933600089 -0.04911232549644031 -0.05022197668153582 0.3543188867713472 
0.7045287505761827 -0.001371226885652556 -0.7655772006726993 -0.07591220140375277 -0.007163513810640762 
0.08102566497485073 -0.01663198733513099 -0.02655290636485230 -0.01460463942610548 -0.1065616194061267 
-0.1939412398114865 -0.001569043430481581 0.1645547981870458 -0.01338013586548034 -0.0004754077091911475 
0.1400602642395010 -0.08907790329552102 -0.03069983804805935 -0.009531230796589650 -0.005336132124262700 
0.6239554899908040 -0.002968165841720265 -0.5168216842177511 -0.07140207966723618 -0.0009760511739625947 
0.4453831062166659 -0.03463411684647413 -0.05394601322268513 -0.01611666387454377 -0.01677362631096757 
0.1665009759338343 -0.02661681880641122 -0.1760206658724643 -0.0004129862577533067 -0.01987046034374754 
0.01005428957845414 -0.008072068741100762 -0.0001855101685616575 0.4617580082107471 -0.003070908868338783 
-0.4261415046539154 -0.0004882270411182236 -0.0009780288939999830 0.2012196133141159 -0.002035756773871296 
0 0 0 0 0 
0.04361313044202134 -0.02262484630492195 -0.03455711559759563 -0.007377404235725669 -0.06439439985280736 
0 0 0 0 0 
0.08348573138647637 -0.08452803815880704 -0.001413342234168447 -0.005439016462184983 -0.07083148464006954 
0 0 0 0 0 
-0.1452395589494818 -0.0007769716176296514 0.2104592857212479 -0.03179766827720310 -0.0001279692229622206 
-0.3176985362617055 -0.09478281382939857 0.2112846304906207 -0.006540126281111302 0.1653235513294662 
0.3477275600065334 -0.005601390292081379 -0.03878104212716059 -0.08730025596386284 -0.001452648334112961 
0.1330200305900691 -0.08157146250552348 -0.06667097243249590 -0.002759075421531617 -0.02820723170366218 
0.6729936400592093 -0.003066214173580951 -0.7595477597402427 -0.1490416087068398 -0.01584868635020149 
0.1552025023890159 -0.01396326272781326 -0.09874891066094406 -0.02121886392336952 -0.09747016845802578 
0.1898461668349607 -0.01134576164325101 -0.005767384441183193 -0.1965828579765484 -9.340146591311506e-05 
-0.3625637879627900 -0.002479630835078852 -0.01493655492259807 0.7384883911384963 -0.002615767683378064 
0.1063702022817508 -0.01560185160777529 -0.05026992438164186 -0.01146562104139446 -0.03790969696280461 
0.07643468101604155 -0.004574056203934926 -0.01786911693975126 -0.1204757042215800 -0.01255603555827556 
0.1818478665739462 -0.1807274384746474 -0.01307398264970342 -0.005058241409581978 -0.01358882502554068 
0.005292311714697948 -0.005464137732590860 -0.02372178906236597 -0.02011265226751241 -0.04193175692388185 
0 0 0 0 0 
0.4960405568663389 -0.01851650738885237 -0.009206864092304770 -0.3639921900719488 -0.009701848082716975 
-0.1158544381951437 -0.0008482637231845731 -0.002280083500563538 0.09787257492887769 -0.0003283630190445886 
-0.1350014334263875 -0.2710965070797684 0.7202021049951326 -0.05810967182599022 -0.1824739310376577 
-0.5723081129049342 -0.1663375269865996 1.249795185224459 -0.05852787593954834 -0.4491795450289792 
-0.1854422647794146 0.3666808158121935 -0.04172109081026822 -0.003124194679744018 -0.02778971023479192 
0 0 0 0 0 
-0.4054251595678741 -0.5381653125956027 0.3281841534917055 -0.01164048833378584 0.7812940356067702 
-0.7015602096918143 -0.05990185458468171 -0.1263059810442244 0.8048524773938548 -0.09511676253707346 
-0.009302757003510520 -0.4950399204138840 0.03081546201291046 -0.1908197466003043 0.8054742906177945 
0 0 0 0 0 
-0.2394599179666712 -0.0009941478919558479 -0.002259084495939497 0.2263722526651594 -0.0002545804742127091 
0 0 0 0 0 
0.1293693306434752 0.01109492119939341 -0.1326017031993385 -0.01306362760129394 -0.01533797126022458 
-0.4258700376483430 -0.001748609586177627 0.3383035371722737 -0.01608374780813350 -0.002571666816226595 
-0.02807783109886734 0.04105234313801281 -0.006315165388138010 -0.004456302994585994 -0.01041434733552452 
-0.4672736517557786 -0.008210402441766674 -0.02040480436128556 0.4861146974865393 -0.01276732963321734 
-1.159295740240767 -0.03453400300610240 0.9344892372989560 0.3717305439218626 -0.05708667430819047 
-0.1879813429632899 -0.003142988009744015 -0.007185144872951590 0.2035364768165803 -0.004415627225939934 
-0.5006982913528645 -0.09504470072104386 0.05155040007872916 -0.04625877677665147 0.4421593947429309 
0.05738982270321074 -0.001961230867202144 -0.1070400094178285 -0.01587927124088734 -0.004043765924279903 
0.04043422427506847 -0.03154674694401738 -0.04711650206077540 -0.01236097600218422 -0.02974762670212885 
0.1672731788818414 -0.07495495348994217 0.05128974135994339 -0.01469279846779872 -0.03944558280669466 
0.1480944748360238 -0.01452324482337759 -0.1660096206510025 -0.02266032528594192 -0.02020983588108992 
0.06760008533396064 -0.002725325384548085 -0.04207932727549000 -0.05426424501880682 -0.001824853648976046 
0.1678480637816275 -0.01721462922926899 -0.05393342670424509 -0.07648819571427663 -0.03496820511060512 
0.8215102625303218 -0.01937408817269330 -0.5124492533713834 -0.2967670729818796 -0.02062092835364709 
0.2126860800528230 -0.04135383233448051 -0.07507204406756382 -0.07379407047627205 -0.08692314427807152 
0.07709837699481313 -0.03814943517661950 -0.04417737341027492 -0.004504185939513170 -0.005853181658919220 
-0.08884373307749471 -0.003739529494940960 0.09558006642619508 -0.006828818439860922 -0.06303924887046417 
0.04728166948094990 -0.3008919214874684 0.4029132650271641 -0.009176807657280751 -0.1493468192719349 
-0.1721382516640799 -0.0005788435071477666 0.1732466193230126 -0.02338537441545676 -0.0008304164242161852 
0 0 0 0 0 
0.3381327673886708 -0.008226139576982122 -0.04231953987145913 -0.2592206597180511 -0.002268994382421289 
0.8058530981039547 -0.2744936207817775 -0.1671610684574421 -0.1017312467534002 -0.4457985753803969 
0.4655846429529663 -0.03728065547586024 -0.06471318461013777 -0.08355996637068916 -0.3521656633046886 
-0.1245737900531219 0.3296275437417104 -0.1116459515337807 -0.04518389210673522 -0.08072467906444655 
-0.03988631806100847 0.08135567175869460 -0.001615501762384782 -0.005867544133008461 -0.01122636716914932 
-0.05722003696583507 0.2051151920289383 -0.01339219121058077 -0.002903485081106153 -0.009624486135253718 
-0.9722784481711548 0.8911893815082258 -0.08569343017696039 -0.08611990008601526 0.07078628803889517 
0.6794800605060148 -0.2910737581520362 -0.1939831940519964 -0.08522637356065883 -0.3917673611241834 
-0.09161439661021227 -0.03307593370841297 0.1210874764115768 -0.005843141641901352 -0.02735455257067389 
0 0 0 0 0 
0 0 0 0 0 
-0.03723806726689567 -0.09217198800116994 0.08601330129338697 -0.06457834001038927 0.2818021196887275 
0.08022148158476397 -0.006805338994456078 -0.1698325449165563 -0.01571756974730155 -0.01763802528610602 
0.2267151375824981 -0.2580577139140478 -0.4321282364254604 -0.09973919154555586 0.7000120047632331 
0.3806700370596933 -0.06094914728973423 -0.3057257661201975 -0.008847836505615946 -0.01153545432247807 
0 0 0 0 0 
-0.1686817724198676 -0.03892487720714150 -0.1058123751244662 -0.04667442790636785 0.4759908906756043 
0.3080289026018896 -0.1356638588635462 0.06762907659162470 -0.08337242427454251 -0.08933688443940552 
-0.1831525377432632 0.2217048054507724 -0.04240570506794884 -0.004681401674516420 -0.07971393199315920 
-0.04229149515096719 -0.001940628769153309 0.08138251466521852 -0.05468012714773020 -0.0001512810572931406 
0.4754365150598042 -0.2178822139630039 -0.06394534463418793 -0.06127358709486866 -0.1652780912664217 
0 0 0 0 0 
0 0 0 0 0 
-0.1488771127390244 -0.0007139764368949138 -0.002346191496520419 0.1236677038980612 -0.002796551474274840 
0.4652976989320392 -0.008454748387957570 -0.01554788958257960 -0.4787024589438717 -0.009518685651993392 
-0.09477720359886734 -0.001060974399857000 -0.001378556566245119 0.07306810926607968 -0.0008703866484433288 
-0.04794777435360109 -0.001219036387119901 -0.003495464255668701 0.06171127730859279 -0.0006364388781530184 
-0.1349300103336263 -0.0003913138850521235 -0.003981910023545685 0.1398939354947708 -0.001951632295918109 
-0.2559667776002325 -0.001775375988769993 0.03564244005427238 -0.001474198951125307 -0.004803220180074326 
0.1980984558401433 -0.06396775250462969 -0.01266718831029343 0.1927071524942256 -0.03403198963035577 
-0.5524945784551241 0.6937181726620910 -0.02179718588611803 -0.01649466803325799 -0.03414077039320579 
-0.1484091955890469 -0.05663750395332320 0.1113258569471304 -0.001223208265022572 -0.005551285813185838 
-0.2206090018578287 -0.004284457005946538 0.1798666330343239 -0.004884577350922167 -0.001662295938260121 
0.1649436355588720 -0.06384512619678123 -0.2210449458917893 -0.04322015018778603 -0.08576528364744194 
-0.07840299833436724 -0.05234567936802510 0.06565234697137386 -0.001816799100800565 -0.01179235668514308 
-0.2586764108210020 -0.02833360858194605 0.2654877542198945 -0.01005522024785672 -0.06238154946384401 
-0.6415486659394122 -0.01262901482450775 -0.1073301826000122 -0.01923874153134806 0.6551203699897449 
-0.04990313441449998 0.06803456023324861 -0.006065834476422391 -0.0009509369045050763 -0.03449731925805655 
-0.1433539608594624 0.2312644053524630 -0.001088083657646149 -0.009820679651718960 -0.02278146971011807 
-0.6903322827219048 -0.02173287182010659 -0.0008680009278287944 0.6535665860530642 -0.03187132688272562 
0.1867334944306676 -0.1050394364604491 -0.02775746642830259 -0.01279243645858264 -0.02266033257885708 
0.1985374269678111 -0.1472794841730289 -0.08277739481660341 -0.02456065531091676 0.02251575427034097 
-0.1643187932443962 -0.0006801746953339834 -0.0006483710652706734 0.1181224114413534 -0.0001643220636477646 
0.1364057819781233 -0.006137319405358658 -0.01334191821308631 -0.3420666559088403 -0.005582683961606184 
0.06673404584621499 -0.009013283895577262 -0.001806290159787424 -0.09218667798246806 -0.0003047099892992001 
0.1786616063176175 -0.004090093402217178 -0.01079190762057096 -0.1787693491458443 -0.002096533139449812 
0.2966344707778528 -0.09399935905048880 -0.03262778790792659 -0.09408636914885579 -0.01357558963823927 
-0.03745886551758667 -0.02521365913000385 -0.01025059470520624 -0.02905199079198637 0.1813835899035092 
-0.02883215556339512 0.04926392654176515 -0.004242063074031163 -0.0008516299499127214 -0.04125600461983970 
0 0 0 0 0 
0 0 0 0 0 
-0.2693333135638990 0.2916685204508784 -0.001139353461780578 -0.01505245683236788 -0.01866338379766276 
0 0 0 0 0 
0.4343571472501894 -0.02459488411363333 -0.05200942422557899 -0.3967945018110960 -0.1683978726956444 
0.2552615532538483 -0.09580908137782190 -0.008561648109330666 -0.07771632950513464 -0.01503064054298656 
0.1225877507636188 -0.04422547861999410 -0.05919330853238158 -0.02398856936021379 -0.02469591398154717 
0.1293193410356004 -0.04614184146259016 -0.1854971394741153 -0.02360779583978467 -0.03961571606887697 
0.2056285248982497 -0.07092649690393509 -0.05206260645994466 -0.03290023977520554 -0.08772464207219306 
-0.03948575048479897 -0.004645802865633976 0.2552105869911354 -0.1366111534025696 -0.0004687756914040551 
0.2582834979148755 -0.1306226366761910 -0.002733712245300640 -0.04189409409971832 -0.1249844170186341 
0.07090703511448040 -0.06693388572928400 -0.07725771846666960 -0.01474120412429473 -0.05672479568594492 
0 0 0 0 0 
-0.02114857888056696 -0.004239338629511943 -0.0006568104457928244 0.01627460068027687 -1.264989832401727e-05 
-0.2170285769653645 -0.003485703658448219 -0.006924413679128510 0.2269310126100942 -0.002634910745892765 
0 0 0 0 0 
0 0 0 0 0 
0 0 0 0 0 
0 0 0 0 0 
-0.07023062265753428 -0.1818815983412005 -0.01483966804543717 0.1293209450990994 -0.05063738635935638 
0 0 0 0 0 
0 0 0 0 0 
-0.2271102863717489 -0.02573737807351013 0.05661563270118730 0.1786334558680766 -0.005653821201934734 
1.060961050227407 -0.009589211269897206 -0.02954825924935615 -0.9543869886682536 -0.006314077440252306 
-0.5445625595195146 -0.002895694474100537 -0.009283794847552413 0.5573243038848322 -0.004462430658871988 
0.4233556157535593 -0.03233089028511450 -0.08400252170890629 -0.1200961797018233 -0.05344346184568266 
0 0 0 0 0 
-0.3849839087315233 -0.01668763594695684 0.03250134337846573 0.2759814894822896 -0.004902762770478463 
-0.3034432312359907 -0.005148166685239281 0.09494556389834019 -0.0001061373682648949 -0.004061528850932791 
-0.5188964478328695 -0.07610670107803377 0.5262142520069804 -0.008402429202639108 -0.07966571964205198 
0 0 0 0 0 
0 0 0 0 0 
0 0 0 0 0 
-0.3831899607549666 -0.003806717167084681 -0.004730293513551486 0.3363014156679497 -0.0009734365468036152 
0.2923453860149602 0.1228823748816660 -0.1751844197763205 -0.01064439016421905 -0.1078889945801250 
-0.06312033092415752 -0.01704578826208901 0.2583960498577075 -0.06944194793581407 -0.06406275433508375 
-0.2056871270871035 -0.002445584651093570 0.06614885876199379 -0.01045174087195055 -0.004107607070109869 
0 0 0 0 0 
0.5671026152668769 -0.1219112784347033 -0.1268203960828142 -0.03868835359534321 -0.05469851018858292 
0.09970793095579922 -0.1048956569031926 -0.02176908512096287 -0.01937866775407007 -0.02097651030828365 
-0.1645151993976622 -0.003489406336431777 0.1372555191046867 -0.01074961542467920 -0.01681086048302704 
0.1069396727518014 -0.01546996895121618 -0.04359535735641395 -0.06663551105428020 -0.006607961081486425 
0.3117884059621146 -0.01013466767767182 -0.01325977363793898 -0.4162197605512738 -0.01110204782288968 
0.2697703244179611 -0.02369179397984482 -0.01051843893241811 -0.1151093575850167 -0.002647680227602404 
0.09345025066475718 -0.04372115814355991 -0.01483599324196933 -0.01103634022350856 -0.05976041371357659 
0 0 0 0 0 
0 0 0 0 0 
0 0 0 0 0 
-0.2022766051683465 0.2602847337281051 -0.02043490921135746 0.06413264721463112 -0.1198653665933753 
-0.03164200927273744 -0.01392880947307181 -0.0003869489463175166 0.02209806686300947 3.519576367042694e-06 
0 0 0 0 0 
-0.04879787955845616 -0.03186567303099170 -0.02159823547611842 -0.01551193716287643 0.1134173328203436 
-0.1052167670723753 -0.01921819564427272 -0.03166778993183631 -0.01271270239583940 0.3993570092624738 
-0.08161967941686818 -0.004811952392927714 -0.0002538727862150779 0.08022581123257372 -0.0001219322469018599 
0.6341467225425561 -0.004953561904097779 -0.01431727793037274 -0.4811561394479024 -0.007086834840300026 
-0.05760790277162235 -0.01556823693728645 -0.04892358324116081 -0.01424962750503739 0.1118478629141111 
-0.2219569024040487 -0.03127730628975179 -0.05665189028603692 -0.03492820253433227 0.5103602857488478 
-0.05189914332344269 0.04609648166940488 -0.03005234790450629 -0.001995465271709008 -0.004163844572870567 
-0.6292188031983128 -0.01354191357839503 -0.002658525752104635 0.5830181862001993 -0.01127773749915796 
-0.6065497241147071 0.4601846215014789 -0.06134768711227771 -0.005264289959220198 -0.006164956290857088 
0.8719851212586243 -0.1939523442932561 -0.06368770558011895 -0.5083366390259311 -0.1532056937367231 
0.03990823575407374 -0.05346767151338385 -0.01831092589522868 -0.01148174847504977 -0.008145348907611425 
-0.1987919658766437 0.2206619515296973 -0.005585939380785928 -0.002819096059796395 -0.01391433263256933 
-0.3497628610325081 0.4791548354873302 -0.06420777909944617 -0.01845677845409273 -0.05168862630848840 
0.1005196324410264 0.2265147317074678 -0.06496226569247372 -0.1471367245814665 -0.05658273705005458 
-0.09251333524050988 -0.001540312255431403 0.1166367027872080 -0.02409904957109136 -0.003407349774151567 
0.5871180851485831 -0.4255733955012683 -0.03472562321126742 -0.07017698331655836 -0.02982589395907045 
-0.07816497681038370 0.1506033073653250 -0.04782882650180721 -0.001514542029606526 -0.02223280755188695 
-0.3391364908770677 0.4129192495393657 -0.01289130848397411 0.1023254232287424 -0.003771322735475542 
0.2714531859427202 -0.1716774949890023 -0.04804264899947636 -0.02065624513179019 -0.1321680252174748 
-0.1460119255019222 -0.004626125342007522 -0.009181651537219170 0.3059603348828808 -0.0007672386198769282 
0 0 0 0 0 
-0.09767765584061320 0.09864980785382006 -0.01348494920281024 -0.005035839153643926 -0.06844114721350550 
-0.05135437471371467 0.1944638878451993 -0.01362645720742261 -0.1346981843707409 -0.03337804548207164 
0.2442317188743134 -0.2035617806878502 -0.04786954463009840 -0.04644704509553239 -0.1343526510262681 
0.3916591941706193 -0.2662120308447904 -0.02649327916255718 -0.06671820743870674 -0.06314865879286453 
0.1797143631114350 -0.05688152091337289 -0.01329180318145780 -0.07706005565230778 -0.007958352060656981 
0.2255817379718192 -0.09658060365085239 -0.04950097963691332 -0.06165404850851787 -0.1232259160037064 
0.03208860375916173 -0.2159348238075610 -0.02352300372475488 0.4170229531165101 -0.01341498326959369 
0 0 0 0 0 
-0.3555238470322427 -0.02301284956342479 -0.02026559756301379 0.4242279938904616 -0.02658946335794987 
-0.1693459280086172 -0.04390091281679426 -0.08003970627964747 -0.009603472515510907 0.1315161372917794 
0.1673213946348458 -0.1038901416439782 -0.04828458601171092 -0.03003308279092644 -0.09011204950799197 
-0.2427698847115363 -0.003100101955714374 0.1555359590999152 -0.004576764162232843 -0.0005416164681845803 
0.9079415644478432 -0.006050068967430352 -0.7331308042370911 -0.1335859056034494 -0.001134946793603403 
-0.3057920308017865 -0.03882698829867231 0.4566452402201843 -0.009391866601328343 -0.01277068249221058 
0 0 0 0 0 
-0.05767302148112373 -0.01625971901369968 -0.1636575869520922 -0.01998563352269526 -0.01238964647971284 
0.04288166634102904 -0.03642675710686082 -0.006516632218596211 -0.01806465677876420 -0.04026776620745034 
1.082788197404835 -0.005580774159498655 -0.1294016118038830 -0.3062692714746008 -0.0005201576169525991 
0.3625840762968239 -0.002473724532733500 -0.009800900994306517 -0.5209770588205285 -0.01350037203942831 
0 0 0 0 0 
-0.5456538271387354 -0.01828914055287474 0.5064111207404913 -0.0003209316147684163 -0.007669748637079696 
-0.4031789397430979 -0.01041874580860329 -0.01836640649926399 -0.004412724360180587 0.4638577578268832 
-0.3365047629181708 -0.002419551793830108 0.1430892540551918 -0.004053461387376495 -0.001429908838242865 
-0.08823421858049901 -0.001757894597309880 -0.001153541760741533 0.04766638396346810 -0.0003445336171076893 
0.3255053627490025 -0.04056089351868828 -0.001424893124115569 -0.3535576246568215 -0.02553838306441781 
-0.04717487259915124 -0.004086611201962936 -0.001811036050214286 0.05883823650345769 4.417230654446384e-06 
-0.1630619391382160 -0.08550550989823450 0.3539978000527782 -0.01029731639975605 0.02096662598089642 
-0.1535325962258098 -0.01037071131752155 -0.007564405589607514 0.2942760250462064 -0.005311920473640538 
-0.08507546649177614 -0.02149992255116586 0.1369430721915471 -0.005107216970940912 -0.007616472129016947 
0.2376490039941904 -0.01226747091489120 -0.01012561378964153 -0.2221953195462346 -0.009681853523968309 
0.7757346165202909 -0.2856766183603481 -0.2720639302423905 -0.01253647428434398 -0.1406502057791885 
-0.3268875596616130 -0.02553617799590504 -0.008692251118259154 -0.006254532951136845 0.3417767028755357 
-0.09281568532612713 -0.01585607084084434 -0.01968241129711727 0.01972940943296741 -0.006831216559328915 
0 0 0 0 0 
0.1940175727842956 -0.04167789179179213 -0.1217721068100652 -0.02099943709200759 -0.1002081876078885 
0 0 0 0 0 
-0.09475876095332504 0.3949243240220867 -0.04644870458741176 -0.001447503455285685 -0.2078149093715530 
0.1111542536187733 -0.02032802122743257 -0.04373761024930978 -0.09314764324402448 -0.02191688272529252 
0.1519224284132466 -0.09328692828089519 -0.04678113649056582 -0.02145264018253115 -0.05542935597731916 
-0.2974539114481861 -0.001666264605161614 -0.001541909330285079 0.2409569641420093 -0.001313008404120169 
-0.09273042527007078 0.04163844952750342 -0.0009988394167907374 -0.002772384116836093 -0.01792073672385445 
-0.3728210314201854 0.3375687978692322 -0.005841193859840161 -0.01241527319481159 -0.001175215571259957 
-0.3418352232742134 -0.01634423550503649 -0.003040085810656953 0.3563113284051452 -0.0004614894375384856 
-0.2346372509986113 -0.03077867237059160 0.4403125561179646 -0.01434440563825650 -0.03996864000546003 
0 0 0 0 0 
-0.4871077077197589 0.5197692099728154 -0.03912897264873540 -0.01349338388972996 -0.02237428782018696 
1.069437090813634 -0.1856941803478882 -0.5705435876346414 -0.02626986751550747 -0.08208634638024856 
-0.1121518541959717 0.05319227528036367 -0.004233206494843237 -0.005369524876242708 -0.004048141967320293 
-0.1171752064752012 -0.005834271380654349 -0.004213171932338273 0.1426245004170255 -0.001624314091919588 
-0.2338331528753502 0.1585969993702928 -0.03303989868244539 -0.002342535013869352 -0.006574283182746201 
0.008244479209590946 -0.05046885802363513 -0.01472917859687595 0.2354265155217124 -0.02780778547427371 
0.01500785557316903 -0.02629879222444064 -0.02800183281338453 -0.03811644861430862 -0.08134593453223625 
0.08365445256838458 -0.1505597996320246 -0.02055357940851105 -0.01556622576586645 -0.04889334212296972 
0.2005948503353958 -0.1934803795038748 -0.02023909314078869 -0.06165545769419371 -0.01319308703050938 
-0.1564420580610654 0.05740764994479734 -0.001052261528215369 -0.002960795684550647 -0.01546356252940111 
0.4314752701347046 -0.01531675075586814 -0.005921774981793142 -0.3471000287984927 -0.002593147300943469 
-0.2542801941736870 0.4261330138905803 -0.1993411892738946 -0.02075528652812867 0.4588758854785372 
0 0 0 0 0 
-0.1178092199553777 0.09530919948781412 -0.02564278722675269 -0.0009977530632512390 -0.002915923878742607 
-0.2326977126914147 -0.03126118519046688 0.4346295044242124 -0.01741047936406178 -0.05839492676237720 
0.2745242956875543 -0.02981830142118067 -0.07930205999290238 0.004718161926194166 -0.04561682789916085 
0.4038651615296869 -0.4982664089457179 -0.1681317739132412 -0.001782403679154815 -0.05052449341438284 
0.2880284657970437 -0.1245070518283857 -0.07252671227628507 -0.04794502535251232 -0.01079180071371988 
0.2148101841693243 -0.004977541911707114 -0.01282936844525198 -0.2805405405161034 -0.001361658702932956 
0 0 0 0 0 
0.3299336050277982 -0.1820495078228290 -0.07850539823683081 -0.01411936582678844 -0.05297911698345260 
-0.1852864318910233 -0.008090003121056890 0.09296305324066470 -0.003581264764724674 -0.002024804936592702 
-0.1379606129592697 -0.1176495641578270 -0.2178990642714169 -0.04926115259395474 0.3306150110440678 
0 0 0 0 0 
-0.03900850743582244 -0.004499416822518571 0.1346358621494626 -0.01390353635898889 -0.07680976515724205 
-0.2465319436550606 -0.002103961290019297 0.2260359256982150 -0.01356915961843281 -0.002901581899261398 
-0.04540881550640747 -0.04842056216160727 0.1545935372301025 -0.003166882030387737 -0.07857422719058921 
-0.03071830104460830 -0.009469940912094204 -0.02010542245473258 -0.008356423547313392 0.04123222945494492 
-0.03046329912196872 -0.001183629201818521 -0.001523747332949044 0.05099160915345363 -0.0001187665097560144 
-0.03037955711509586 -0.01644733136252974 0.04754831404335286 -0.004549786977447427 -0.02976332108852210 
0.1340951942211760 -0.003866613933328259 -0.1152556162462311 -0.04780998278074954 -0.006553806940711170 
0.1781286581135265 -0.04442697195956288 -0.07265650494646037 -0.04966936800449588 -0.05347639425482435 
0.06292327542502855 -0.02377536877511019 -0.04684409060563373 -0.06577280874929997 -0.02840333914314246 
0.1373952759414354 -0.02469259939410479 -0.06871214523574046 -0.04978433309602408 -0.02185163828916919 
-0.5869280536363151 -0.01185088142992133 -0.01629956100554550 0.4495140399857699 -0.005694776887879231 
0.7254322112486822 -0.07752593226882788 -0.4518257167176542 -0.003136206497970139 -0.1749914154529937 
0 0 0 0 0 
-0.1448490906339449 0.3774081419502590 0.1522925340807508 -0.1424511393000497 -0.003789111655531832 
0.2658120937454002 -0.09651951380046264 -0.04631995282041770 -0.1079697379145305 -0.01855389255146039 
-0.2098517240434358 0.1583820360154022 -0.002761791959305511 -0.002168263752440525 -0.007202675477915145 
0.1937991149357151 -0.02250402932384850 -0.03164282230119062 -0.09550455831539234 -0.001831606791962944 
0.4177798001031597 -0.2367219174405086 -0.05250279462276598 -0.04244110753036080 -0.02690360472648222 
-0.1608830070276496 0.2787911893241843 -0.02078471327456070 -0.02804953236347443 -0.03942080597356242 
-0.004517038712149196 0.01285580032594895 -0.01184259251755133 -0.003512749964529635 -0.02480590292619515 
-0.5209541130024278 -0.007447738989764152 -0.003816752789300394 0.5841571003742239 -0.008351145803623849 
-0.1440122838658878 -0.1882599429358893 -0.0004052425055657546 -0.02543874634914583 0.2854048008096973 
0 0 0 0 0 
-0.03665502265577070 -0.002172124713869589 -0.004397253001284463 0.06381520238604149 -6.665380915056655e-05 
0 0 0 0 0 
-0.1598313186833578 -0.008638875772264049 0.1585756515771989 -0.03256123353505787 -0.005360920248132342 
0.1953032973667766 -0.01832719600052919 -0.03744376404885318 -0.2200303282844853 -0.04569604195369886 
0.3056170135152663 -0.01463916788029786 -0.04659052246407391 -0.4041491626725215 -0.01972829626604567 
0.1835656115074019 -0.01710469499088117 -0.06686938219143770 -0.1964572821132054 -0.04854385542222071 
0.2698876419112565 -0.07428045606499029 -0.06649206123093081 -0.05633186208646669 -0.009416025857574633 
0 0 0 0 0 
-0.01278387903745308 -0.001837613102348385 -0.002461512041681605 0.02482927547593859 -0.0002044394334089022 
-0.1251395883093540 -0.003841559016947440 0.1062080556549622 -0.01531067581526243 -0.0008215330265263749 
0 0 0 0 0 
0.5683147323689899 -0.6683552324702001 -0.04472674863322571 -0.5201018205499567 -0.3596664607922955 
-1.439216324294735 0.7845367568783567 0.06421800067469738 -0.4832736722061238 0.1965185868011259 
-0.4389349494425492 -0.1590532035525080 -0.2497723186558331 0.2182878701981014 0.2441025965779789 
-0.3240090973578684 -0.3674352082868144 0.05419328128463363 -0.1260500876670772 -0.1007317525919344 
0.2601767568746445 -0.9316124341973102 -0.4324711232545636 0.1705796757577110 -0.8889742763070195 
-1.338307409968500 0.5962158332189790 0.4830527986921205 -0.4917957989568624 0.5206700749193421 
1.556534993716707 -0.8735104487147279 -1.011544233664112 -0.8819080003784889 -0.3174941967444637 
0.1700402638499651 -0.3899534390680408 -0.1938010079610580 0.3976986697536352 -0.05765783457244612 
0.5851456779327873 -0.1999599277938622 -0.2225220996247170 -0.3825481348796556 -0.2464608449991686 
-0.3540781299879504 0.2096558737308140 -0.2001778230237531 0.1407266879989168 -0.1839754430341988 
0 0 0 0 0 
0.7625095013431031 -0.2420460719920707 -0.08938698829104072 -0.5204945230289102 -0.09049724764035075 
0.2191945890707671 -0.1074980338847160 -0.08599602254568630 -0.1324001127627065 -0.1916715951917236 
0.1940175727842956 -0.04167789179179213 -0.1217721068100652 -0.02099943709200759 -0.1002081876078885 
0.6382482411511592 -0.3362127641116091 -0.1916820020897362 -0.2658689260561337 -0.5845798867107750 
0.4876610553231792 -0.1620251039109684 -0.4219215252034602 -0.1310441554943703 -0.2216768853567646 
-0.2693333135638990 0.2916685204508784 -0.001139353461780578 -0.01505245683236788 -0.01866338379766276 
0.2052232114384910 -0.2080611975103688 0.08676631751936414 -0.06035058145452128 -0.2111624161835102 
0.1782531672038618 -0.01916512800123440 -0.02328338040237590 -0.1737766058615411 -0.008474639385816320 
0.5063774395457644 -0.2309076535907361 -0.3368951301630008 -0.3688652664545641 -0.2536459559653075 
-0.2292181079219903 0.4134407715319419 -0.02378430875475737 -0.005393272318010983 -0.03113349812484299 
0 0 0 0 0 
-0.009367135305993923 0.1499117777300384 0.5486313973131732 -0.4339736466636781 -0.2843824276555482 
-0.4946465276887901 -0.1736616571132261 0.1889345015743482 0.5194753797576201 -0.1983713905292860 
-0.6206508256603508 -0.4677304676742987 -0.2713924393968262 1.395269208167680 -0.5402467123767740 
-0.2608257454783295 -0.1495468721395210 0.8659465965625277 -0.01374556328631958 -0.2486806683562148 
0.3839683568944197 -0.06327133207104751 -0.4012899465329495 -0.03587666630951545 -0.03219411438469736 
-0.9646962500973018 1.333879491671553 -0.4993147522967064 -0.2742196554790323 0.3707921116144981 
0 0 0 0 0 
-0.06555812321288101 -0.03591696098176780 -0.04414313148476578 -0.03542785332443667 0.2692865891811675 
-0.07106371083755778 0.2015190485705510 0.08940420181385991 -0.3570415166925186 -0.4376339226447908 
1.119915245657726 -1.148486481250598 -0.2014507041208932 -0.2901400380150672 -0.2176162226861129 
0.7638878022212694 0.02959246253166278 -0.4890832172572263 -0.3340448560669512 -0.2472391742173534 
0.4261183758215817 -0.005249943817411263 -0.03563876498934468 -0.4954399632718545 -0.01483657905431247 
-0.01444641535255201 -0.1553705143869499 0.3355699515107827 -0.05726608860245470 -0.09362022373606642 
0.02013113033809515 -0.1058516994929247 0.2414690346926917 -0.05543099136274889 -0.2423142560774787 
0.2603363412267578 -0.1265156349201134 -0.07125400480265351 -0.1430374193239725 -0.1353135077838806 
-0.09475876095332504 0.3949243240220867 -0.04644870458741176 -0.001447503455285685 -0.2078149093715530 
-0.08452361815000180 -0.3343592850016884 0.3929967648087204 0.2176950151612976 0.3268034576999723 
0 0 0 0 0 
-0.5187611600256550 -0.1659207473236552 -0.3512032871872806 0.7343917091329170 -0.2466850138800897 
0.1713492849058062 -0.07529722095790070 0.1278874234559238 -0.08085641646263014 -0.1402082245161770 
-0.05667685099758597 -0.03602064534174768 -0.02191379263028958 -0.01610707218398651 0.1726588760157502 
0.1048127048035068 -0.04511212532224457 -0.1824905989024631 -0.06546011678676693 -0.01795161823413443 
0.5364416393992346 -0.1494927845444168 -0.1231214428050952 -0.3545554751618619 -0.09378417564238585 
-2.040738061028429 -0.4642392079265101 2.586315977183142 -0.2398671100048078 0.6154855088835304 
0.1615497499049781 0.1693201878783890 -0.3918495600627159 -0.1061685765930746 0.006173685217463904 
0 0 0 0 0 
0 0 0 0 0 
0 0 0 0 0 
-0.5216648894122712 0.6590676283099465 -0.1138736673204786 -0.02942193675644477 -0.03328907991350474 
0 0 0 0 0 
0 0 0 0 0 
-0.2066395461181514 -0.005600583105108595 -0.005473163061202879 0.2004285445113836 -0.004824347310994671 
0 0 0 0 0 
0.6140317174516310 -0.5767523024274727 -0.3684201870628037 0.4113044815569902 -0.2333942540226771 
-0.2158168034793245 0.2784582043776114 -0.004690331220063037 -0.002990829921149786 -0.05336461259831909 
0.4313876555668246 -0.1280034837462892 -0.2569088204280139 -0.2147063858600186 -0.1634503678774310 
0.2014254349228452 -0.03831672114105285 -0.08262202356406655 -0.1063135891961452 -0.03030679375179459 
0 0 0 0 0 
-0.06842792519111948 -0.06516537276444861 -0.01062261272184058 -0.007350040485974253 0.2014980736561002 
-0.7345605626169702 0.3043499250517729 -0.06154261848708038 0.4741381503586766 -0.003498811668822284 
-0.2514760706369184 -0.7144023443604725 0.3523389822161926 0.2039533207789973 -0.1897234632186731 
0.2940972685530834 -0.1875056593390594 -0.06845241161385827 -0.06258640543732691 -0.1483471348497842 
0.4642080653222970 -0.2196707978753907 -0.3008372997729665 -0.07070534354396323 -0.07045588203037584 
-0.1869679057408890 -0.1351858752518237 -0.01142891897763599 -0.001893146788206659 0.3088778244220454 
-0.2630316910379422 -0.1204140949707876 -0.03584392436814355 0.2581509553254850 0.1625546384474705 
0.3122678837867932 -0.1872048749825146 -0.03793297145235649 -0.08117462622189280 -0.1266340091354543 
-1.208410781304918 1.244365212884740 -0.09137371030669628 -0.07719615427065064 -0.1525597315515931 
0 0 0 0 0 
-0.1458593637203049 -0.002820560455471427 -0.0003699898572694391 0.1065714772895700 -9.225322363344290e-05 
-0.1155046992080320 -0.06968054602177393 -0.2615907960107733 0.1562940055718856 0.4051827663893642 
0.2761790615670222 -0.1540222822801549 -0.01585523737876170 -0.1287201565421648 -0.08222886595953187 
0 0 0 0 0 
-0.2103883010489104 0.4231169345053538 -0.03085837683856887 -0.009410776597277229 -0.06682547232979644 
0.1101775890166136 -0.05266781746594002 -0.1764388413096390 -0.005093377730327143 -0.05889809536311422 
0.1829463778873960 -0.2956117526307174 -0.01561381044478531 -0.03159138309016790 -0.02002068507131753 
0.5944943424999671 -0.1995670210396754 -0.1335417068866787 -0.4371847491772217 -0.1693625452507226 
0.07767771174684057 -0.03967098849688528 -0.03588838057837008 -0.03199904092519849 -0.04160014791377121 
0.03884459757527782 -0.005307520514426503 -0.02349405389549796 -0.04283345669333580 -0.005525425329440808 
0.1783345214523926 -0.02971283806491212 -0.08407855184565730 -0.02628962142858631 -0.03270207494925381 
-0.6116391369228915 0.4762800023630632 -0.1061946466568931 0.3617825466717684 0.06044685765257264 
0.4644707945574699 -0.2801037128985062 -0.4004341629987072 0.2572711341375161 -0.1061669818324267 
0 0 0 0 0 
0.1191038735155391 -0.04554717972977126 -0.3480826356800775 -0.1927728728117741 0.4330535464667281 
0 0 0 0 0 
0.3389774128611484 -0.4448823838687103 0.2103905443508405 -0.06007469898862990 -0.1531516464382297 
0 0 0 0 0 
0 0 0 0 0 
0 0 0 0 0 
0 0 0 0 0 
0.4939311720334844 -0.3798182895650696 -0.1160659151673330 -0.07219305413335080 -0.2273041993737677 
0 0 0 0 0 
-0.1692972087445268 0.08768414414631652 -0.01111330102443171 -0.0007136637684217381 -0.004246862546051484 
-0.2599653900937392 -0.01138653194558534 -0.002036228122585338 0.2380443654278939 -0.004021399529057731 
0.1274054337932482 -0.1138662534616330 -0.1656221080526663 -0.09507562400273416 0.1401663565587909 
0.3103735143406651 -0.09854984735598392 -0.06001147157347680 -0.05740057576623035 -0.06076921266579193 
-0.2326464672192134 0.5132699730223780 -0.009141112461914711 -0.02814731810978936 -0.06246420171466469 
0.2486630747212461 -0.07743345835188456 -0.03838444356962970 -0.1451072772285233 -0.06188144205484498 
-0.04286075515275425 -0.07232730034022887 -0.01979399598683853 0.1052570343985686 -0.04848363740267674 
0 0 0 0 0 
0 0 0 0 0 
-0.08372156707246486 -0.01580086867303922 -0.01006581716688484 0.2345961681724667 -0.005968046099829640 
0.2741369203394116 -0.03643814627018474 -0.04411272533139209 -0.04341528090654703 -0.2627096125068791 
0.08102566497485073 -0.01663198733513099 -0.02655290636485230 -0.01460463942610548 -0.1065616194061267 
0 0 0 0 0 
0 0 0 0 0 
-0.5906572159337782 -0.006375373065816143 -0.004999600165048215 -0.006806695774988788 0.6170284992782262 
0.1552025023890159 -0.01396326272781326 -0.09874891066094406 -0.02121886392336952 -0.09747016845802578 
0.1898461668349607 -0.01134576164325101 -0.005767384441183193 -0.1965828579765484 -9.340146591311506e-05 
0.1063702022817508 -0.01560185160777529 -0.05026992438164186 -0.01146562104139446 -0.03790969696280461 
0.1599204124025179 -0.08910209436274197 -0.01928245917391971 -0.1259147206837650 -0.08338752019834510 
0.005292311714697948 -0.005464137732590860 -0.02372178906236597 -0.02011265226751241 -0.04193175692388185 
0 0 0 0 0 
0 0 0 0 0 
0 0 0 0 0 
0 0 0 0 0 
0 0 0 0 0 
-0.1789746613547752 -0.01445165086761059 0.4090215941232181 -0.02734260270183554 -0.03388924275501085 
-0.1364452164713360 0.7773731925062847 -0.3564380787484133 -0.05329709426904702 -0.3659008029303122 
-0.1944349943108612 -0.03756002939367429 -0.04760620524270996 -0.02943965527216953 0.2485368173235398 
-0.3651187816573269 -0.05363821075720287 0.5494769668057620 -0.1022590102496266 0.07379758391956807 
-0.5899322470833138 -0.08960014272516499 0.2218498883599325 -0.03659636282059228 0.4870790846423604 
0 0 0 0 0 
0.07645548038744407 -0.003284809097905786 -0.02733883063647077 -0.08847762568833764 -0.002378356280409824 
0.04043422427506847 -0.03154674694401738 -0.04711650206077540 -0.01236097600218422 -0.02974762670212885 
0.1672731788818414 -0.07495495348994217 0.05128974135994339 -0.01469279846779872 -0.03944558280669466 
0.1480944748360238 -0.01452324482337759 -0.1660096206510025 -0.02266032528594192 -0.02020983588108992 
0.6058797055717571 -0.09693111429650299 -0.2463234868285218 -0.2223451344396503 -0.07369985167151896 
0.2126860800528230 -0.04135383233448051 -0.07507204406756382 -0.07379407047627205 -0.08692314427807152 
-0.08909043375582468 -0.04260518431898867 -0.03349147812538449 -0.02668616493613492 0.1995164678244320 
0.4655846429529663 -0.03728065547586024 -0.06471318461013777 -0.08355996637068916 -0.3521656633046886 
-0.05722003696583507 0.2051151920289383 -0.01339219121058077 -0.002903485081106153 -0.009624486135253718 
0.08022148158476397 -0.006805338994456078 -0.1698325449165563 -0.01571756974730155 -0.01763802528610602 
0.3806700370596933 -0.06094914728973423 -0.3057257661201975 -0.008847836505615946 -0.01153545432247807 
-0.1089833368476504 -0.01818504363650333 -0.07015042990374595 -0.02665253648239333 0.2703689301582818 
-0.1879813429632899 -0.003142988009744015 -0.007185144872951590 0.2035364768165803 -0.004415627225939934 
0 0 0 0 0 
-0.1510154372049978 -0.01662834002849220 -0.007566788331954295 -0.01025713416864406 0.09984803283096957 
0.4229928398169246 -0.5225682789014474 -0.4248549207371224 -0.1612511588272851 0.5037302901962913 
0.2154345784156640 -0.1094037136642774 -0.04553226705000749 -0.01120941206741582 -0.07061072538920152 
0.1786616063176175 -0.004090093402217178 -0.01079190762057096 -0.1787693491458443 -0.002096533139449812 
0.2808353751850438 -0.1615781969400701 -0.002524302511464935 -0.04611803098297649 -0.1209798640515234 
0 0 0 0 0 
0 0 0 0 0 
-0.04173828573977054 -0.04155972265773909 -0.02947115257636611 -0.01364977674783571 0.1552368299539191 
0.5902094191876984 -0.2128774197443472 -0.2461213940433906 -0.1342243651201248 -0.1423709986840566 
0.1225877507636188 -0.04422547861999410 -0.05919330853238158 -0.02398856936021379 -0.02469591398154717 
0.1301512697675363 -0.01286609736693629 -0.006047324026565607 -0.1179214209321098 -0.001539473792791237 
-0.03948575048479897 -0.004645802865633976 0.2552105869911354 -0.1366111534025696 -0.0004687756914040551 
0.3291905330293559 -0.1975565224054750 -0.07999143071197025 -0.05663529822401305 -0.1817092127045790 
0 0 0 0 0 
0.3117884059621146 -0.01013466767767182 -0.01325977363793898 -0.4162197605512738 -0.01110204782288968 
0.03020262713769185 -0.05873903137097841 0.2888345903320224 -0.07538456700260343 -0.1081362936611263 
-0.03944306233154910 -0.01920223308819005 -0.07232604037873769 -0.02379570686871963 0.1778456261591523 
0.2813779914055172 -0.07685693827679255 -0.1506251734445565 -0.01633636119942190 -0.2782728819452899 
0 0 0 0 0 
0 0 0 0 0 
0 0 0 0 0 
-0.2453114666443034 -0.01604765721733266 0.2743662642960192 -0.003504601071320638 -0.01533422968022160 
-0.09393938598326791 -0.007516526561741483 0.001401947149168616 0.07534659249302118 -0.04544949384742830 
-0.1645151993976622 -0.003489406336431777 0.1372555191046867 -0.01074961542467920 -0.01681086048302704 
0 0 0 0 0 
0 0 0 0 0 
0 0 0 0 0 
-0.04879787955845616 -0.03186567303099170 -0.02159823547611842 -0.01551193716287643 0.1134173328203436 
-0.05760790277162235 -0.01556823693728645 -0.04892358324116081 -0.01424962750503739 0.1118478629141111 
-0.2896431216393883 0.3390025297570249 -0.02618531774180972 -0.003940502414170375 -0.05408002494896072 
0 0 0 0 0 
0.006142363457675832 -0.04220611597259068 -0.07677172810357243 -0.07709259995853882 0.01688432277109861 
0.03990823575407374 -0.05346767151338385 -0.01831092589522868 -0.01148174847504977 -0.008145348907611425 
0.2463395102192603 -0.07407198340169406 -0.04187708295977177 -0.1453740955339336 -0.02216372783819624 
-0.1347843145478332 0.2009820798764779 -0.02368511726273561 -0.001261096197699541 -0.07845607797063626 
-0.1469395353468616 0.1965137697985971 -0.03008887167440882 -0.001935310128941141 -0.03978380413380218 
0.5871180851485831 -0.4255733955012683 -0.03472562321126742 -0.07017698331655836 -0.02982589395907045 
0.1576383064826900 0.04014622920298144 -0.09642565106720655 -0.05149214509603103 -0.4023335114970764 
-0.05969843557221718 -0.02073983357063818 -0.03566194522072023 -0.02002189142397452 0.2056219605173225 
0 0 0 0 0 
-0.4870589458324600 -0.01358302774836545 -0.01152577948097375 0.5996958280138682 -0.001731478325882534 
-0.1838856648961327 -0.1372704903427697 -0.01526197773797269 -0.006752397887044106 0.5399907587637772 
-0.1556953091004406 0.2350799025322680 -0.03118512858599085 -0.01190376410690735 -0.05936211608907537 
-0.05135437471371467 0.1944638878451993 -0.01362645720742261 -0.1346981843707409 -0.03337804548207164 
0.5023757502203388 -0.1291246391070690 -0.05125148268280554 -0.1887976014971653 -0.1385183315724455 
0 0 0 0 0 
0.02610492099303342 -0.03608643564865800 -0.008979625878296716 -0.03051400775904173 -0.05715178133951932 
-0.2605874184422389 0.3007829036293423 0.2456848659036317 0.2970836515585917 -0.2910285131272383 
-0.3057920308017865 -0.03882698829867231 0.4566452402201843 -0.009391866601328343 -0.01277068249221058 
0 0 0 0 0 
-0.09072056395810713 -0.03706646998097319 -0.01177935488456772 0.1055770486555771 -0.04047147477177066 
0.2402951118968212 -0.0008922272291234526 -0.1119313507796054 -0.1252198081153046 -0.001714689756173477 
0.2408347911015022 -0.05907575489941624 -0.2225983754757846 -0.003401042641040169 -0.05602589052087615 
0 0 0 0 0 
-0.4031789397430979 -0.01041874580860329 -0.01836640649926399 -0.004412724360180587 0.4638577578268832 
-0.3365047629181708 -0.002419551793830108 0.1430892540551918 -0.004053461387376495 -0.001429908838242865 
0.3255053627490025 -0.04056089351868828 -0.001424893124115569 -0.3535576246568215 -0.02553838306441781 
0.5789510645589004 -0.07987172727723144 -0.1150800946309566 -0.4281051935929577 -0.03297210924856010 
-0.1535325962258098 -0.01037071131752155 -0.007564405589607514 0.2942760250462064 -0.005311920473640538 
-0.3268875596616130 -0.02553617799590504 -0.008692251118259154 -0.006254532951136845 0.3417767028755357 
0.03370572708114736 -0.01137871365101814 -0.05348914129024762 -0.04031608506069990 -0.06351990487784995 
-0.1854422647794146 0.3666808158121935 -0.04172109081026822 -0.003124194679744018 -0.02778971023479192 
0.1111542536187733 -0.02032802122743257 -0.04373761024930978 -0.09314764324402448 -0.02191688272529252 
0.1519224284132466 -0.09328692828089519 -0.04678113649056582 -0.02145264018253115 -0.05542935597731916 
-0.2346372509986113 -0.03077867237059160 0.4403125561179646 -0.01434440563825650 -0.03996864000546003 
0.01500785557316903 -0.02629879222444064 -0.02800183281338453 -0.03811644861430862 -0.08134593453223625 
0.08365445256838458 -0.1505597996320246 -0.02055357940851105 -0.01556622576586645 -0.04889334212296972 
0.2005948503353958 -0.1934803795038748 -0.02023909314078869 -0.06165545769419371 -0.01319308703050938 
0 0 0 0 0 
-0.07736617867832310 0.1874211400023300 -0.1307282205709612 -0.004673775776962468 -0.01625787847958487 
0.1745596770428912 -0.06417994009109709 -0.07356317339424268 -0.04683937644190120 -0.1794522029893118 
0 0 0 0 0 
0 0 0 0 0 
-0.1169357300241629 0.3887962943719844 -0.03862043706347351 -0.08149186468689235 -0.003738714290357392 
0.4177798001031597 -0.2367219174405086 -0.05250279462276598 -0.04244110753036080 -0.02690360472648222 
-0.1608830070276496 0.2787911893241843 -0.02078471327456070 -0.02804953236347443 -0.03942080597356242 
-0.2255083020643540 0.3105705040616326 -0.02988514427701753 -0.01009022902847420 -0.01827479990436437 
-0.1440122838658878 -0.1882599429358893 -0.0004052425055657546 -0.02543874634914583 0.2854048008096973 
0 0 0 0 0 
-0.6292188031983128 -0.01354191357839503 -0.002658525752104635 0.5830181862001993 -0.01127773749915796 
-0.3005632195265293 -0.002638657922515435 -0.06130226856325908 0.4377155775029807 -0.001953094432371756 
0.1953032973667766 -0.01832719600052919 -0.03744376404885318 -0.2200303282844853 -0.04569604195369886 
0.1572155369129264 -0.06544246724287019 -0.01130613221981329 -0.09437616082318967 -0.02020627429373861 
0.3056170135152663 -0.01463916788029786 -0.04659052246407391 -0.4041491626725215 -0.01972829626604567 
-0.1564376515493815 -0.01382227717584177 -0.0008894732476717503 0.2673617347821306 -0.01027153095151683 
0.1835656115074019 -0.01710469499088117 -0.06686938219143770 -0.1964572821132054 -0.04854385542222071 
0 0 0 0 0 
0 0 0 0 0 
0.4092100399932700 -0.6091795391480759 -0.8749424919842658 0.2668497229071198 -0.4776985521649048 
0.5063774395457644 -0.2309076535907361 -0.3368951301630008 -0.3688652664545641 -0.2536459559653075 
-0.1724857396842882 -0.5484203676477969 0.04303250741694785 -0.2381915984901212 -0.1839889287107184 
0.4447867587210182 -0.004972899808161813 -0.4306472234223314 -0.8415915389316839 -1.022951706704155 
-0.3079226132587957 -0.2258166292604877 0.2372853438715535 -0.2851604268174393 0.4973981711765089 
0.4149242672321159 -0.6892171588905994 -0.07644433380128751 -0.005935643557313975 -0.4180310873624150 
-0.07106371083755778 0.2015190485705510 0.08940420181385991 -0.3570415166925186 -0.4376339226447908 
-0.5632112777111640 0.2290527040938722 0.06634480496884337 0.3932817338960464 -0.1437070361849993 
0.5012561800356313 -0.2465536909716150 -0.6395027544892237 -0.3472192951479449 -0.04512457003182618 
-0.4970272889446607 0.8706420262062963 -0.2270212998388047 -0.3667533003852551 -0.3210691332311447 
0.8777567894804955 -0.7559264375413217 -0.7507785920257168 -0.5482274397892576 0.5765373610417975 
0.07188176328501833 -0.5744419036783843 0.2957512708309696 -0.3212129858550176 -0.1861985001577564 
0 0 0 0 0 
0.1275318145530533 -0.1790109310487883 -0.08147013170258102 -0.04847474602027947 -0.1529852355400189 
0.07767771174684057 -0.03967098849688528 -0.03588838057837008 -0.03199904092519849 -0.04160014791377121 
-0.3365047629181708 -0.002419551793830108 0.1430892540551918 -0.004053461387376495 -0.001429908838242865 
0.2170977647791396 -0.02447264851566090 -0.04677743429787386 -0.2166100625548769 -0.01400006471525713 
0.1782531672038618 -0.01916512800123440 -0.02328338040237590 -0.1737766058615411 -0.008474639385816320 
0.08825510359586139 -0.1050951826886396 -0.6234464300815756 0.5436643459570901 0.09984593782942722 
-0.2061344484526102 0.3017362398119723 -0.006228574255957459 -0.006797615800051947 -0.003184394630844376 
-0.2061344484526102 0.3017362398119723 -0.006228574255957459 -0.006797615800051947 -0.003184394630844376 
-0.2061344484526102 0.3017362398119723 -0.006228574255957459 -0.006797615800051947 -0.003184394630844376 
-0.2061344484526102 0.3017362398119723 -0.006228574255957459 -0.006797615800051947 -0.003184394630844376 
-0.4827016918780879 0.04584464194751611 0.1854330211065169 0.3522417519951450 -0.09056110560653060 
0.2147007266022450 -0.1355666661214949 0.1118845208541285 -0.08483782301748780 -0.1059009101703409 
-0.2061344484526102 0.3017362398119723 -0.006228574255957459 -0.006797615800051947 -0.003184394630844376 
0.4276981690928092 0.1906866251835819 -0.4766496160650691 -0.2129488633472159 -0.1482166761514143 
-0.2292181079219903 0.4134407715319419 -0.02378430875475737 -0.005393272318010983 -0.03113349812484299 
-0.03159428631020325 -0.007356337873290485 0.1436654683178967 -0.05152299488025441 -1.863924529319885e-05 
-0.4511481263671377 0.9381165785990329 -0.3193039603399944 0.3141242839649805 -0.3950266900903189 
-0.1306112615744209 0.03383046937101690 0.6351459957546022 -0.1007215005870923 -0.3539424919517164 
-0.5378588399077746 -0.02858986189433541 0.2453798759531386 0.3148096338373479 -0.007931951229424982 
-0.01973930392874512 -0.1138629950327656 0.1862647188377707 -0.02782757906751612 -0.04070576885117969 
-0.05467644441663463 -0.001648946449995351 0.08022861432848095 -0.03393802130781130 -0.0001267500839492358 
-0.1862180502912634 -0.02405435582579732 0.2071565295728658 -0.05473993467379723 -0.08325637478915954 
-0.04314950702134793 -0.03258216503006865 0.3122583429737725 -0.002624646591796521 -0.1738096228198392 
-0.04314950702134793 -0.03258216503006865 0.3122583429737725 -0.002624646591796521 -0.1738096228198392 
0.6083655168023688 -0.005491024826465885 0.04620048177010783 -0.5832121899716989 -0.009670873254914928 
-0.4216940930887365 0.2005282903984998 0.3746250590539086 0.1071734527563832 -0.3867169497636047 
-0.01686482541766064 -0.09860967234577625 0.6228399848013296 -0.6172433460018979 0.3221378308747115 
-0.3949028543712775 -0.07986725703275478 0.2205391323112308 0.2968732064049696 -0.01532065984614981 
0 0 0 0 0 
0.3132585292854533 0.08728909963254280 -0.2776932449633719 -0.2232454978899289 -0.1880264532364742 
-0.07343997268978847 -0.08848983349787047 0.09516221202735847 -0.005456523735273551 0.05021900845376935 
-0.07343997268978847 -0.08848983349787047 0.09516221202735847 -0.005456523735273551 0.05021900845376935 
0 0 0 0 0 
0 0 0 0 0 
0.1539730226386219 -0.4876743648472695 0.03468875446551713 -0.1651683078426834 -0.1741260102618875 
-0.1770266869000025 -0.0009472782776581973 0.1344872763040162 -0.01582902267929974 -0.0007769936220741736 
-1.095684607507395 -0.4136414343927241 0.01699859560406582 1.155752807918734 -0.1339910117732558 
-0.06555812321288101 -0.03591696098176780 -0.04414313148476578 -0.03542785332443667 0.2692865891811675 
0.1192712695983851 -0.009626415856336883 -0.08079170352991578 0.1295833330439120 0.07664335873099940 
-0.1837107204043020 -0.001143905878307820 -0.008207764129859112 0.2350696737156103 -0.003107898290875618 
-0.1649968833241830 0.1332744966617808 0.04677785366101018 0.4867626387477587 -0.1047738388033565 
0.2231357879021011 -0.1221336613140605 -0.1585181839153875 -0.01328729278775942 -0.07682860688571600 
0.06515115528380627 -0.02691620952936489 -0.1120707081392390 -0.008803126340666424 -0.05433686452009358 
0 0 0 0 0 
0 0 0 0 0 
-0.008560869746020883 0.02151016072243439 -0.002443303433644751 -0.002931847324566025 -0.02618280549486899 
0.5636923755656751 -0.07979930852921954 0.3553282445913147 -0.8029064181294073 -0.06073728847943795 
0.1602084100456636 -0.09236538370350499 0.04121407852313153 -0.04314098817522748 -0.08145222003240676 
0 0 0 0 0 
-0.04501903546634461 -0.002834837966896861 0.1675431937611756 -0.05144479260664057 -9.398766794564144e-05 
0.05359753440067987 0.3308878043205045 -0.5691657063487590 0.04399129077789411 -0.05416024112983235 
0 0 0 0 0 
0 0 0 0 0 
0 0 0 0 0 
0.4904795512536037 -0.008388820692334877 -0.004616439641175517 -0.5579998317123458 -0.001424718968725626 
0.1543275792006968 -0.09022659701785622 -0.05210014043588637 -0.06306432585915710 -0.07730658470889201 
0 0 0 0 0 
0.2010453781514044 -0.6556461847608955 -0.3099581989508851 0.02546455951421990 0.4788330974543184 
-0.1642222594029660 -0.001682492003007175 -0.001637105533145993 0.1889223455748239 -0.0004251363583220353 
-0.3566472665832246 0.2019644326427102 0.2029379112004299 -0.005871157478115445 -0.04554174859191826 
-0.1954624903758230 -0.01311342530545743 -0.01687474206720194 0.2261262649828802 -0.004480159175037806 
-0.2915497306583200 -0.03646220277445265 -0.0004419538644786081 0.5075980704345212 -0.007949166783809270 
-0.02750521904131099 -0.006509238445652377 -0.001550376281506193 0.07992549635998947 -0.0002294055251253592 
-0.1285982518969284 -0.002045175120503103 -0.001073113020284360 0.1403097350086582 -0.0006005196481256440 
0 0 0 0 0 
-0.2324180704725400 -0.002201242605817883 -0.01005074266131447 0.1743546359250936 -0.003031285137755933 
0.2177455934674704 -0.05124978285946636 0.2931486412265448 -0.3275994763504222 -0.01219585717765088 
-0.03606376951507788 -0.001350271511182823 -0.007810684754048745 0.03379084083548636 -0.002130646655159306 
0.3721207466591286 0.2031171964738029 -0.2980653509057915 0.008046584469601898 -0.04534473500897202 
0.1713492849058062 -0.07529722095790070 0.1278874234559238 -0.08085641646263014 -0.1402082245161770 
0.1713492849058062 -0.07529722095790070 0.1278874234559238 -0.08085641646263014 -0.1402082245161770 
-0.5723707541189247 -0.007802933068296201 -0.01725327953519606 0.09960492543682464 0.5251302546481639 
-0.6034062204419797 0.08690242180468600 0.1466853244701521 0.1723087144722436 0.4671469847548851 
0.2264454472078039 -0.1597398143310418 -0.2599190936857387 -0.1460537397182466 0.1995238128523105 
0.5316367884216922 -0.008269760332531871 -0.009203649494157997 -0.5348212717818384 -0.006224821576547733 
0.5316367884216922 -0.008269760332531871 -0.009203649494157997 -0.5348212717818384 -0.006224821576547733 
0.2283434167044871 -0.1627917984640118 -0.1379302158515513 -0.03451868134793640 -0.0003185138828747248 
0.4000358574211113 -0.1433554651390582 -0.1097795245920089 -0.01248881925302162 -0.08820149168077966 
-0.1125793420641413 -0.001551112154302561 -0.0009731794216293149 0.06854171146913696 -0.0004109600019846284 
-0.2027544087359740 -0.002366690566584126 -0.004765883659836464 0.2670298361274429 -0.0009639760502017409 
-0.2792003527654581 -0.0004434619946689075 -0.001621590605039191 0.2567700365499304 -0.001240006323150413 
0.3458000133153500 -0.004156364745301679 -0.01214243452448356 -0.4107116065946922 -0.002110998515873412 
-0.1284943205674796 -0.06733943959506970 0.1940593219618159 -0.0006386677071472525 -0.03181275330977996 
0 0 0 0 0 
0.2902531344128088 -0.1016085815317818 -0.06023960647092103 -0.5330623334850558 -0.05730090239442478 
-0.05676297160695805 -0.005357070554975377 -3.073373486527318e-05 0.07431761662601097 -0.0001234437156441631 
-0.05676297160695805 -0.005357070554975377 -3.073373486527318e-05 0.07431761662601097 -0.0001234437156441631 
-0.3304330469017892 -0.1117832329221614 -0.1464397699132441 0.6202572044283154 -0.01841215203364582 
0.2433476207103766 -0.1875606453272258 -0.2362869571174748 -0.3628600343816309 0.2752259770616969 
0.1572731963826405 0.09056027291445495 -0.5470537865015489 0.1510362840484737 -0.01306927619102273 
-0.1599320779037893 0.1877144336442456 -0.1840354188502786 0.2981599437075632 -0.07914790386727967 
-0.08486676163807433 -0.005672524630809712 -0.0003534056075587135 0.06642030790832430 -9.313444164136381e-05 
-0.06759136322561088 0.2072180394258520 -0.01866234900546803 -0.0008815126011253226 -0.1045272166216576 
-0.4585573758948079 0.2418895400798066 0.1571581083514562 -0.1196732450505148 0.1598916079178299 
-0.1686508328693442 -0.0009307987740304897 -0.002358891175403519 0.1748862853071572 -0.001301108918441392 
0 0 0 0 0 
0 0 0 0 0 
0 0 0 0 0 
0.02722460565426237 -0.005320708995902135 -0.01223523579276271 -0.01921874646371917 -0.005440698340730871 
0 0 0 0 0 
0.3618554284155588 -0.2378904424067931 -0.1087790803886767 -0.003978772304277145 -0.06262857052857380 
0.05237979486917945 -0.008275508134092610 -0.02759525569740058 -0.03373357646738116 -0.01035507590909082 
0.3609813401539555 -0.02392484053823618 -0.006784398127130680 -0.2547668117773762 -0.01902448372346599 
-0.2138619595744225 -0.04319614637826691 0.3268134903464396 -0.001025405654052718 -0.002681965929491381 
0.2120080780739205 -0.04144753679208928 -0.01149004682583413 0.01505834215408078 -0.0001102991132647859 
-0.05546805619436338 0.04225251594211706 -0.1524158423670428 -0.001522765637525060 -0.06072945546195381 
-0.03115967596502273 0.01692111290616184 -0.002832685590571818 -0.0009800922191850700 -0.009763218428910994 
-0.1794377181863148 0.1835724039402291 -0.06368630092575468 0.1259650859876914 -0.1845621715467859 
0.3897895923430069 0.1284800507611329 -0.03349391729245425 -0.01646099574464864 -0.3458684220332697 
-0.4126771720354303 0.2527322842016800 0.1956802924912413 -0.01860726874925401 -0.007979567629957069 
0.02187422568577050 -0.01919979526644130 -0.008989179439118377 -0.01048872719363576 -0.004968489063250612 
0.04714302487522247 -0.04668924845436132 -0.03141018925783390 -0.06178617118443743 -0.01000529084865631 
0.02187422568577050 -0.01919979526644130 -0.008989179439118377 -0.01048872719363576 -0.004968489063250612 
0.02187422568577050 -0.01919979526644130 -0.008989179439118377 -0.01048872719363576 -0.004968489063250612 
0.02187422568577050 -0.01919979526644130 -0.008989179439118377 -0.01048872719363576 -0.004968489063250612 
0.2014254349228452 -0.03831672114105285 -0.08262202356406655 -0.1063135891961452 -0.03030679375179459 
0.2014254349228452 -0.03831672114105285 -0.08262202356406655 -0.1063135891961452 -0.03030679375179459 
0.2042947750603378 -0.1554257854796469 -0.007451238770002985 -0.07476770972438039 -0.1130082855458011 
-0.3316042311891703 0.02280911707668001 0.2564044734397150 0.3092173110525173 -0.1095597448700450 
0.1085388517542269 -0.06570946891878975 -0.01529528769042528 -0.01026099988085943 -0.02609955596348072 
0.1085388517542269 -0.06570946891878975 -0.01529528769042528 -0.01026099988085943 -0.02609955596348072 
-0.01480268890670318 0.01485842330240653 -0.0004099588113807903 -0.01821649938976052 -0.007514020916358772 
-0.1480830367231595 -0.005111020452360047 -0.005163102095548098 0.1643724007876879 -0.0003092755110495442 
0.1459593975881440 -0.1048325266188611 -0.03390120055573123 -0.07098849823679738 -0.01241376200981721 
-0.1182791730951549 0.1409465683420298 -0.01212689265334582 -0.0005373601604287136 -0.008760764077842553 
0.01437643295739741 -0.001393515640625968 -0.001273160263031901 -0.01539956585585085 0.0001181017635712816 
0.01437643295739741 -0.001393515640625968 -0.001273160263031901 -0.01539956585585085 0.0001181017635712816 
0.2451702264222901 0.4218147698407851 -0.1612273884888001 0.08400358315906692 -0.1692071515467413 
0.09756242959057584 -0.006759763334279763 -0.1053040873654437 -0.08856710982959329 -0.005944280650046319 
-0.009541090364431910 -0.002845763058738216 -0.002781874688582917 -0.02174879710021153 -0.001584894781070533 
0.7930760059439895 -0.009904022302675659 -0.5303954665269051 -0.2719202259132921 -0.004657479094482941 
-0.009541090364431910 -0.002845763058738216 -0.002781874688582917 -0.02174879710021153 -0.001584894781070533 
-0.009541090364431910 -0.002845763058738216 -0.002781874688582917 -0.02174879710021153 -0.001584894781070533 
0.2818758322413134 -0.1427096982870339 -0.1565394053317836 -0.02449789360495245 -0.1162843378907171 
0.01118762686526450 -0.01839206796494987 -0.003759025386614171 -0.01910363467102529 -0.0008347035470672418 
-0.2399203573391589 -0.1695814523692036 -0.005798109729986605 0.2937221318585758 -0.01390510599140420 
-0.1065090333151720 0.09472996610976166 -0.1725137387291584 -0.1077155447073776 0.2104492303984988 
0.01849219705320464 -0.001956613187745932 -0.01486575171564428 -0.01602831809871801 -0.004428965163700264 
-0.1928852743814714 -0.01290868049119211 -0.02626787498909803 0.2623350125754508 -0.01063942798202183 
-0.2637108001843075 -0.2390561406855248 -0.01662473276835958 0.3662796147116442 0.07199442451532867 
0.3395943958806962 -0.04790152937837228 -0.03691199712703187 -0.2281003555323560 -0.01835146568227971 
0.02347830509152477 -0.01980151094035486 -0.008286907774762466 -0.02267127969492628 -0.005316435853799073 
0.1423434369135116 -0.04643507701017295 -0.01240133446166677 -0.05406411253142657 -0.01921730762253502 
-0.2042896233310938 0.3577160897298642 -0.02228697668260415 -0.09275888586857640 -0.02574126779355881 
0.09130842215448229 -0.1789494225377057 0.2384866966613785 -0.05978179993768945 -0.1092220425128703 
0 0 0 0 0 
0.3056170135152663 -0.01463916788029786 -0.04659052246407391 -0.4041491626725215 -0.01972829626604567 
0 0 0 0 0 
0.01295199981908423 -0.03141722078153458 -0.01037871742333672 -0.01270543497250180 -0.006263616110800277 
-0.1437597547509381 0.1889902861115767 -0.04817912395313320 -0.002543916457179360 -0.008865987804674416 
-0.3243883785983505 -0.07318151803033707 0.2434655994634087 0.1082671311230152 -0.02257203397718452 
-0.1511772354356500 0.2860721988445054 -0.03805405940886174 -0.006744743032058165 -0.01654826116298659 
0 0 0 0 0 
-0.6142565778848366 -0.05077756468520914 -0.02114988498406531 0.3242996914606608 0.4383208333526226 
-0.1205539060000566 -0.06107824236020235 0.1855579709957276 0.2963934054026541 -0.07474737742069504 
0.4148359311191055 -0.1100401340684665 -0.1250355714002295 -0.2693025122785828 -0.02435398264269655 
0 0 0 0 0 
0.1134769682788009 -0.001413997485512109 -0.009050788024310492 -0.1225473270735341 -0.0007897046794866579 
0.1707025560071187 -0.08045278067246493 -0.01214786381802204 -0.05748282498495878 -0.01197821835071555 
0.1707025560071187 -0.08045278067246493 -0.01214786381802204 -0.05748282498495878 -0.01197821835071555 
-0.07720769977470024 0.01849272824923519 0.08883830340394094 -0.002796144998953221 -0.01144672910922090 
-0.2372237621780163 -0.06875015845008414 -0.2357921243760843 0.3406446909499357 -0.1013184400171868 
0.1366521056770298 -0.07942842369618697 -0.0009635840242054324 -0.03978486780144900 -0.01572775476333657 
-0.04260106782672383 -0.002526798723121662 -0.003156762895653921 0.03510453370265176 -0.001046799313448590 
0.2932940557701689 -0.05418405303750098 -0.5039932112942259 0.1360440726282336 -0.03131336912478509 
-0.004694168032340101 0.01197744849388728 -0.008613219705018138 -0.003797201424168375 -0.003590984492507751 
-0.004694168032340101 0.01197744849388728 -0.008613219705018138 -0.003797201424168375 -0.003590984492507751 
-0.5389920752582009 -0.008359233091180420 -0.02236750212842348 0.5930888231873674 -0.006033454074183211 
-0.1074811960734984 -0.002883728206465453 0.08888020827375152 -0.01314428657262876 -0.001772984995062266 
-0.04260106782672383 -0.002526798723121662 -0.003156762895653921 0.03510453370265176 -0.001046799313448590 
-0.03514556776135530 -0.09649437976535673 0.06222548233562657 -0.002040934366570599 -0.01079688029511627 
-0.6703095098821241 0.4644365308311558 -0.1411137039635477 0.7032262766310154 -0.06540335617481535 
-0.02043911274874662 0.01186560304433395 -0.004212611267157150 -0.0003162089025376657 -0.01406962296649330 
-0.02043911274874662 0.01186560304433395 -0.004212611267157150 -0.0003162089025376657 -0.01406962296649330 
-0.09496137733663876 0.2604525882096274 -0.004740117886624922 -0.02773501819220994 -0.01310769772027039 
0.2692325160695022 -0.2736788245022499 -0.02378768176748511 -0.01300597714959326 -0.02248538393448928 
-0.06076627611974639 0.06195736601356172 -0.03619356830327648 -0.1213379599885485 -0.03288103585873448 
0.08235140207747438 -0.08741138610626321 -0.03162548618418355 -0.02698301825363991 -0.02537365039152013 
0.4288799417430320 -0.2060370402413063 -0.3080805358788682 -0.03412011388213510 -0.2629663683576108 
0.2153964889374810 -0.008420343754654756 -0.1712511001609675 -0.09476231074804707 -0.005691818764525784 
0.6112705552037290 -0.04055275903477087 -0.05859552010685692 -0.1754190775013615 -0.01055169500252199 
0.1938884447023206 -0.01505229762934043 -0.2711608916845101 -0.03396820741795003 -0.01568117349291855 
0.07767771174684057 -0.03967098849688528 -0.03588838057837008 -0.03199904092519849 -0.04160014791377121 
0.03884459757527782 -0.005307520514426503 -0.02349405389549796 -0.04283345669333580 -0.005525425329440808 
0.1783345214523926 -0.02971283806491212 -0.08407855184565730 -0.02628962142858631 -0.03270207494925381 
0.05614531203104046 -0.002572367730329997 -0.003359875047337334 -0.03938629770486395 5.024423612038959e-05 
0.01752656265857052 -0.003718111341728924 -0.01883796069240596 -0.01790368824424830 -0.003760262850608196 
0.1361755705361039 -0.05976052734078548 -0.04059370167887336 0.1225929095396216 -0.01847408136881798 
0.1361755705361039 -0.05976052734078548 -0.04059370167887336 0.1225929095396216 -0.01847408136881798 
0.1361755705361039 -0.05976052734078548 -0.04059370167887336 0.1225929095396216 -0.01847408136881798 
-0.1284384387133768 -0.1293368541447030 0.05384672227504051 -0.1164409289310444 0.2991748105749217 
-0.1074832534455140 -0.05734547107382369 -0.02117088924468944 0.4059071796917714 -0.006770839574565173 
-0.6372739588934686 -0.05885252004194320 0.3926980684628854 0.3133318980731312 -0.009042929007486022 
-0.1074832534455140 -0.05734547107382369 -0.02117088924468944 0.4059071796917714 -0.006770839574565173 
0 0 0 0 0 
0 0 0 0 0 
-0.03003549127267868 -0.008090792176386050 -0.002899960954344956 0.02959468044633243 -0.0006996816358768059 
0 0 0 0 0 
0 0 0 0 0 
-0.4064336201675728 -0.02030390472706902 0.4010273023492050 0.3237460193057986 -0.009017768102902037 
0.02153449579190338 -0.004961862603760163 -0.009440768408102616 -0.02200034895021504 -0.002298473367657437 
0.2274442724834172 0.1101343742604368 -0.1235625295763814 -0.02795184294828867 -0.1274399650069035 
0.07642883527841943 0.09350603423194456 -0.1311293179083357 -0.03820897711693273 -0.02759193217593392 
0.5767574300746511 -0.02716370787911944 -0.002251589476356243 -0.5071339692738795 -0.0002788659712612575 
-0.1764500562660811 -0.03649081337140964 0.2336151746987682 -0.0007328972677606523 -0.01850020843139448 
-0.02935321418407745 -0.007124885506741016 0.05614505372610389 -0.03147877666571608 -0.0007066265863709074 
-0.07711522416352944 -0.006605894824686391 -0.03361921371125757 -0.1082452803197087 -0.007314229636082081 
-0.1146905286896245 -0.002063310340289665 -0.002734930645077527 0.1182875739138089 -0.0006453075047498652 
0 0 0 0 0 
0.02508440258332908 -0.003516090261713814 -0.05921101409125143 -0.009780950609733530 -0.003055766270365149 
0.02508440258332908 -0.003516090261713814 -0.05921101409125143 -0.009780950609733530 -0.003055766270365149 
0.3022241065506252 -0.04687656909002248 -0.02185117741082052 -0.2416967947853271 -0.004341124924418389 
0.3022241065506252 -0.04687656909002248 -0.02185117741082052 -0.2416967947853271 -0.004341124924418389 
-0.2103883010489104 0.4231169345053538 -0.03085837683856887 -0.009410776597277229 -0.06682547232979644 
-0.2103883010489104 0.4231169345053538 -0.03085837683856887 -0.009410776597277229 -0.06682547232979644 
0.6943301491999290 -0.08081603667177555 -0.1070346736405193 -0.5560017202249780 -0.03379897218781544 
0.07775852863049232 -0.03843321253676885 -0.04381208092194784 -0.02758437448998599 -0.01107218267666260 
-0.02812055166723008 -0.04035850228448555 -0.02890427909878701 0.06725830266922832 -0.006282699248087171 
0.3084043282679254 -0.02219595551625027 -0.003462046620877876 -0.4157627506743292 -0.005193288719989176 
-0.2634294206923346 0.3365254810719273 -0.0007176792075041480 -0.01464343900896769 -0.04882773553739734 
-0.2291843060873568 -0.08137483243195114 0.3818753158893637 -0.003341475521984166 -0.01748696747316938 
-0.8567313657845064 -0.003968831693476393 -0.009472925798915625 0.7391146582649759 -0.002879658162128308 
-0.03678845024253875 -0.04454839954929801 0.08817942980021923 -0.002578737616420875 -0.01525205079961190 
-0.04151953113171469 -0.002360187174703213 -0.001908458922341217 0.05375252404079701 -1.421742736290165e-05 
-0.1725029610484967 -0.02554504715551215 -0.008490235077365363 0.1669794772832075 -0.0001210579821675441 
-0.08886399270417318 -0.0005980049325973906 -0.002023614410411133 0.08341910236496781 -0.001486549434591110 
0 0 0 0 0 
-0.02017118349161777 -0.002764076083256642 -0.0007449519305970000 0.01694539468529947 -1.305719617522116e-05 
0 0 0 0 0 
-0.1484945587720304 -0.001619265479043823 -0.002017896449535539 0.1251659893750834 -0.0002561131978423114 
0.2886890898907275 -0.007602652601623953 -0.006508094052602310 -0.2736844222035417 -0.001731083287658927 
0.04848020871837785 -0.0009091463076084106 -0.007343336340687625 -0.04690002241697856 -0.0007099875902027707 
0.04848020871837785 -0.0009091463076084106 -0.007343336340687625 -0.04690002241697856 -0.0007099875902027707 
0.04848020871837785 -0.0009091463076084106 -0.007343336340687625 -0.04690002241697856 -0.0007099875902027707 
0.4371836486627578 -0.005983387122580129 -0.004490197603066771 -0.3988504115786251 -0.001474970089816615 
0.03330403623052663 -0.01034582127487126 -0.003317689615083430 -0.02662841987096787 -5.179740388589122e-05 
0 0 0 0 0 
-0.1692972087445268 0.08768414414631652 -0.01111330102443171 -0.0007136637684217381 -0.004246862546051484 
-0.1692972087445268 0.08768414414631652 -0.01111330102443171 -0.0007136637684217381 -0.004246862546051484 
-0.07385103411715524 -0.02078928637584733 0.09971612171214864 -0.0005963893631810054 -0.004127095706362245 
0 0 0 0 0 
-0.2599653900937392 -0.01138653194558534 -0.002036228122585338 0.2380443654278939 -0.004021399529057731 
-0.2599653900937392 -0.01138653194558534 -0.002036228122585338 0.2380443654278939 -0.004021399529057731 
0.2727035490936133 -0.06976351990726179 -0.03704625797221361 -0.1399089129288791 -0.006967529129289336 
0.1137330643876198 -0.07782477223693668 -0.04236635359317539 -0.005213341733752548 -0.06383307435076309 
-0.1336022302991362 -0.0006397128741123682 -0.005262722665971508 0.1236417054343413 -0.0002037085643203208 
-0.02811361924381084 0.01775956440414611 -0.004667475688057898 -0.0004570628455943413 -0.008609399291812122 
0.04722742855892377 -0.08837349905274337 -0.03193266921162098 0.005328698567525747 -0.05660441725014849 
-0.02861639938339719 0.01681246454166507 -0.002190341224767711 -0.0008535285964763175 -0.01053067976982389 
0 0 0 0 0 
0 0 0 0 0 
-0.07522870889212388 -0.002211680264405553 -0.003668332754551311 0.07859519652770950 -7.161243979880564e-08 
-0.3942314836613611 -0.0004362717062705838 0.3415612192004263 -0.01599255786263002 -0.0007546759551306338 
0.01166491149127826 -0.001354590091321946 -0.009424444102558164 -0.01933627554189582 -0.003022494164699901 
-0.03628286286232284 -0.002573626478441847 -0.01291990835822687 0.04237500176669697 -0.003658933042852919 
0.08213991240113841 -0.01527060821888250 -0.07816076060710540 -0.08652172568802056 -0.01921531291869007 
0.08518249403662534 -0.02403304687349477 -0.08801828588215507 -0.3988554548626783 -0.02230033277404816 
-0.2599748059123865 -0.02593069077931761 0.6284201678225781 -0.2325783163463529 -0.05322162120420765 
0.7045287505761827 -0.001371226885652556 -0.7655772006726993 -0.07591220140375277 -0.007163513810640762 
-0.02061935345222836 -0.01431313460590766 0.2952466498023648 -0.09519734440344498 -0.09799669224337808 
-0.1939412398114865 -0.001569043430481581 0.1645547981870458 -0.01338013586548034 -0.0004754077091911475 
0.01245144219454815 -0.002091330157303119 -0.01821296722731249 -0.006647636595407646 -0.001548575046552893 
0.01245144219454815 -0.002091330157303119 -0.01821296722731249 -0.006647636595407646 -0.001548575046552893 
0.01245144219454815 -0.002091330157303119 -0.01821296722731249 -0.006647636595407646 -0.001548575046552893 
0.1400602642395010 -0.08907790329552102 -0.03069983804805935 -0.009531230796589650 -0.005336132124262700 
0.4453831062166659 -0.03463411684647413 -0.05394601322268513 -0.01611666387454377 -0.01677362631096757 
0.1665009759338343 -0.02661681880641122 -0.1760206658724643 -0.0004129862577533067 -0.01987046034374754 
0.1665009759338343 -0.02661681880641122 -0.1760206658724643 -0.0004129862577533067 -0.01987046034374754 
0.01649799002030118 -0.007531728834262925 -0.01680913324079377 -0.01416039879761467 -0.009526336525252328 
-0.08067782702105962 -0.01009500919975538 -0.04447690433558133 0.08485416449942980 -0.01494809395123211 
-0.01525281930008449 -0.01070052658921389 -0.03395511330294825 0.005894407947971908 -0.001865595520759228 
-0.3338008326691104 0.3150646351148268 0.07820670258736560 -0.007634731769181667 0.08418565411126219 
-0.3796826808241017 -0.001823976846149938 -0.001403119449991407 0.3170212547164223 -0.003478759850618969 
-0.1452395589494818 -0.0007769716176296514 0.2104592857212479 -0.03179766827720310 -0.0001279692229622206 
-0.2065611693669899 -0.03997613254517240 0.2510615087235797 -0.005025337904047441 -0.04016036118579786 
-0.3176985362617055 -0.09478281382939857 0.2112846304906207 -0.006540126281111302 0.1653235513294662 
0.3284452686915584 -0.005646221960912473 -0.2338366638446865 -0.1086029980811706 -0.01237445199843550 
0.01233725353926600 -0.001126334929617539 -0.01115992104146298 -0.01659493070209825 -0.003071646854832552 
-0.1629794580069971 0.3732237889160467 -0.09442676287345585 -0.004106522304006318 -0.1744890993208457 
-0.2343990858758666 -0.01190870144209040 0.1901017288185554 0.1109875296132466 -0.002124905483113713 
0.01233725353926600 -0.001126334929617539 -0.01115992104146298 -0.01659493070209825 -0.003071646854832552 
0.6729936400592093 -0.003066214173580951 -0.7595477597402427 -0.1490416087068398 -0.01584868635020149 
0.2539844595431448 -0.05816996824781295 -0.1012153887136772 0.08796099076650965 -0.1004352858110097 
0.04560320027102411 -0.003758657500291365 -0.01407765666622620 -0.02849164611914893 -0.008235311560609464 
0.1898461668349607 -0.01134576164325101 -0.005767384441183193 -0.1965828579765484 -9.340146591311506e-05 
-0.3625637879627900 -0.002479630835078852 -0.01493655492259807 0.7384883911384963 -0.002615767683378064 
0.1063702022817508 -0.01560185160777529 -0.05026992438164186 -0.01146562104139446 -0.03790969696280461 
0.08348573138647637 -0.08452803815880704 -0.001413342234168447 -0.005439016462184983 -0.07083148464006954 
0.1818478665739462 -0.1807274384746474 -0.01307398264970342 -0.005058241409581978 -0.01358882502554068 
-0.2413174784808663 -0.001806046699084493 -0.003346768377991304 0.3359840283706301 -0.004517813388759947 
-0.1816627912313140 -0.005697028237376945 -0.04103210109508999 0.2512737520244674 -0.002931294891165761 
0.1878061109717775 -0.05923058461438770 -0.007651917852179366 -0.02894874944189779 -0.02321245523641020 
-0.1158544381951437 -0.0008482637231845731 -0.002280083500563538 0.09787257492887769 -0.0003283630190445886 
0 0 0 0 0 
0 0 0 0 0 
-0.09475876095332504 0.3949243240220867 -0.04644870458741176 -0.001447503455285685 -0.2078149093715530 
0 0 0 0 0 
-0.7274807478389473 -0.03704974097400333 0.2686204631278279 0.4577805877902254 -0.05463749523433514 
0.5940562310331012 0.05258020426744967 0.2471984670323262 -0.8541120579535632 -0.2838270382247885 
0.1785602584348352 -0.6638240050262427 -0.1811319352310007 -0.03624699481852010 0.5133144353912861 
0 0 0 0 0 
0.2393649502456511 -0.01069983734083160 -0.1122513459934112 -0.2626769694649599 -0.01537418940029876 
0 0 0 0 0 
0.5501528128713300 -0.1368001981244702 -0.2317138942696567 -0.03550488646907157 -0.05432774294855607 
-0.7507420313016675 -0.002628744745397030 -0.0003925812032600991 0.7163816504506504 -0.002548298201343243 
-0.1557137320497631 -0.01478557446624839 -0.01701239711516888 0.2263576492512760 -0.001521978409988107 
-0.08081491232556898 -0.0003658349624581856 0.09374269965767908 -0.04494704104216334 -0.001942082586704847 
-0.03918787165677719 -0.0008520508739761673 0.07515327464756118 -0.02579979033500449 2.281960800361378e-06 
-0.01695730286339472 -0.006584896861396256 0.06320365013186514 -0.05085643465305556 -0.002186173686294233 
-0.6337130218759872 -0.02191301802676755 0.04435409562422428 0.6376685735410934 -0.01569420913239092 
-0.4205710209729692 0.1902180544128013 0.2621785502200087 -0.05328007273628199 -0.03231207939880373 
0.07645548038744407 -0.003284809097905786 -0.02733883063647077 -0.08847762568833764 -0.002378356280409824 
0.07645548038744407 -0.003284809097905786 -0.02733883063647077 -0.08847762568833764 -0.002378356280409824 
0.06739458289636532 -0.07701713710398665 -0.4464367095212481 -0.02788164217826141 0.3047551382814805 
0.1480944748360238 -0.01452324482337759 -0.1660096206510025 -0.02266032528594192 -0.02020983588108992 
0.06760008533396064 -0.002725325384548085 -0.04207932727549000 -0.05426424501880682 -0.001824853648976046 
0.06760008533396064 -0.002725325384548085 -0.04207932727549000 -0.05426424501880682 -0.001824853648976046 
-0.3052209460862247 0.3348434724846841 -0.04792052113533016 -0.06667951821361841 -0.003000069220236003 
0.1678480637816275 -0.01721462922926899 -0.05393342670424509 -0.07648819571427663 -0.03496820511060512 
0.1007689472234915 -0.01521799333920153 -0.07112560426515710 -0.03548211569367804 -0.02515040241078494 
0.07709837699481313 -0.03814943517661950 -0.04417737341027492 -0.004504185939513170 -0.005853181658919220 
-0.07027781807125238 -0.002924860757913716 -0.01138760160669829 0.1179388323299712 -0.004235440558246473 
0.1257037503211941 -0.2749084382947079 0.09252753591450569 -0.02850835864830033 -0.1112710127599122 
-0.06508591289212089 -0.01065946894336692 -0.01979246272487505 -0.006147651136862813 0.1329106211316350 
-0.03155032435436608 -0.007101447517378170 0.07505697030083222 -0.01564194996000841 -0.01581767486725567 
-0.3651992525760580 -0.06838031879980973 0.4475347655667169 -0.001323778588932779 -0.008987487569636146 
0.8406379442867679 -0.007770431109223634 -0.03655002373768951 -0.6125461424548068 -0.002090841837029353 
0.04879367180463834 -0.0008033908031866739 -0.002088057225443897 -0.07253404746197699 5.523654525374706e-05 
-0.05722003696583507 0.2051151920289383 -0.01339219121058077 -0.002903485081106153 -0.009624486135253718 
-0.05722003696583507 0.2051151920289383 -0.01339219121058077 -0.002903485081106153 -0.009624486135253718 
-0.1635478109305394 -0.05230609967262296 -0.005795310302463720 0.1698471868063365 -0.001807184147002969 
0.2622680087325061 -0.09048612959653143 -0.009073295146380944 -0.01024393634997465 -0.1054893940596772 
-0.03159142115597572 -0.008103511775219188 0.06043618709439561 -0.005411324249501372 -0.02331619008446955 
-0.02870355729408419 -0.004849675233172079 -0.007372088249551977 0.03467613585706848 -0.003301554818569757 
-0.02870355729408419 -0.004849675233172079 -0.007372088249551977 0.03467613585706848 -0.003301554818569757 
-0.1137737220003521 0.1785172593071406 -0.02568493975966810 -0.0008387967906119044 -0.005847493670561875 
0.04043282887996265 -0.0007820031802034652 -0.05406869616986025 -0.02272035421582990 -0.0005353185196227633 
0.1917171873462757 -0.01406806777690569 -0.1935022150272238 -0.001779772814333097 -0.02037104809089418 
-0.08566959285482169 0.1114709142848303 -0.01845110473213335 -0.002645726087203436 -0.001800303994663209 
