solver_type L2R_LR
nr_class 5
label 4 5 1 3 2
nr_feature 5269
bias 1.000000000000000
w
0.2142121352217303 0.07359916385714696 0.2130873753404764 -0.5350156166884646 -0.2788991348769683 
0.1631400345883479 -0.09820885950118302 -0.06266156784494607 -0.03077200856374211 -0.1214055594245563 
-0.3051000641970920 -0.03194622825955346 -0.001286387674541490 0.4926679956986750 -0.003287809124849331 
-0.02383550232042703 -0.006452322536541423 -0.0006363869405307531 0.05551689233649128 -0.0003114948073927715 
-0.6290887805302352 -0.2288198071627192 0.03438027676210871 0.3632211330011434 0.5153850715268310 
0.1347998202499628 -0.05740484275663113 0.3029420828636033 -0.3379340293375441 -0.02753648896257599 
-0.4358460867091705 -0.009548464191343370 -0.001897234408495553 0.3415670995322160 -0.001144042879641111 
-0.2346353250235228 -0.1114034722825300 -0.1855748616977664 0.1578985963316546 0.08000121212037659 
0.7427984890986747 -0.7360851335498169 -0.2475307521116734 -0.3329934017018230 -0.3926328743006538 
-0.3050851184188523 0.2879557597377220 0.3791095138904509 -0.1808318111753142 -0.2526470456432376 
-0.6778130452647625 -0.1404153937135236 0.3987856948706955 0.4280590460041441 -0.01256414231408983 
0.2503965188919558 -0.01822607458345590 -0.01921664926316193 -0.3150238882599578 -0.02666403950350300 
-0.04833962506636650 0.2092915853909174 -0.06532859015124293 -0.2552680077611438 0.2668908059852221 
-0.3127443500240605 -0.1052181214487731 -0.2601563061219619 0.6717125217506329 0.06010257668701063 
0 0 0 0 0 
0.2095341984431094 -0.1416742030954204 -0.1787642031433732 -0.003480448661733322 -0.1821445916317747 
0.6798429707752405 -0.3424993986934324 -0.2962342728860597 -0.03850569396875542 -0.2726511829404309 
0 0 0 0 0 
0.4188283439933562 -0.1209580304053504 -0.07971071364952690 -0.4872161530018723 0.3025621496529220 
-0.6588937948818041 -0.008971036651696926 -0.007392866331408549 0.5407162124667355 -0.005391197722494502 
0.3320705237812459 0.2283671934684014 -0.02812483805725416 -0.5961268447685463 -0.08667958329658003 
-0.1508543891098826 -0.6768989906685927 -0.03788119613788671 0.2033512332596038 -0.2218702925877332 
-0.1128017226277796 -0.01074194275582716 -0.001634157803189613 0.09333404474486595 -4.422721649436354e-05 
-0.05979472365219516 0.3452118853435576 -0.1009190400407966 -0.1665880808516332 -0.4685222601521145 
0.07928518851854094 0.1077966189330869 -0.3518332340222202 0.01573921218988593 -0.2719912544394150 
0.2522650816720644 -0.07031333634169434 -0.9022362328299353 0.1019658991743324 -0.1375487989240515 
0.5473169457746301 -0.6922402472407069 -0.1184658111847894 -0.8786452737163829 -0.5589094944819480 
-0.05206113015385198 -0.001707061888016661 -0.001223456141397544 0.06352892149539896 -5.610467744031225e-05 
0.9953936528084777 -0.2770467988291203 -0.2325046836998872 -0.7556243970918252 -0.1530664950742887 
-0.7978151020998233 0.04496858063136171 0.4290697160693492 0.6036939430405355 -0.2779783017552385 
0.5909724579820349 -0.09733914668625920 -0.05822018312093680 -0.6369318300101573 -0.08591879464976368 
-0.05801134974973169 -0.01214966395776369 -0.001905580812436998 0.05975075574787411 -1.608587355088017e-05 
-0.4745945426669404 -0.1534767858993306 -0.1750197694240543 0.05875959697288183 0.7432980329807534 
-0.6395704240890221 -0.1366197980943043 0.1671029594842494 0.4049994206900777 0.3615188081055591 
-0.1280319275830943 0.2047422315242452 0.3506312323401764 -0.4417952601523154 0.02946556852290700 
1.043016161267615 -0.4153626297090904 -0.7045235752480259 -0.3969056575084618 0.2112191140905342 
0.5552644691454074 -0.2999473173587176 -0.03554268232136136 -0.5920927649752837 0.1292669218080766 
-0.01044768798596462 0.2808541327428753 -0.2752237588128958 0.02061444545211608 -0.2912606926167924 
0.1566168855740734 0.1590970356809719 -0.1736193444530518 -0.1299208724071314 -0.1373994557195124 
0.3211523790752726 0.8433902666128602 -0.4249203527694002 -0.7697503810877354 -0.1092669063698009 
0.8083118246803236 -0.3721092392146514 0.1906447668193629 -0.3679449518419216 -0.4533770190866145 
-0.7649138128249778 -0.2459478866301982 0.6108243472911093 0.008161617211068659 0.3358693230290792 
0.4244876547510137 -0.1443292111104570 -0.4794863167925970 0.07840350416199458 -0.2320662014265017 
-0.09482895866269497 -0.005685958611685615 -0.002738059010817577 0.06748881138286447 -0.001672894972823512 
-0.6454352491400379 0.7650654958098827 -0.05240269388640453 0.1759463118801006 0.01238811161998594 
-0.1912554584589433 -0.007241263407028679 -0.004531124006955266 0.1658412188555037 -0.0004427056968844358 
-0.1998858394779269 -0.3627152875624566 0.2084619062051740 0.3345282280055675 -0.2457211235652271 
0.2457520090205228 -0.07161513649164805 0.02837012382344674 -0.1978171303486219 -0.3126566747026121 
0.5186288977516693 -0.1720234409733540 -0.5376729424527984 -0.2300925863607366 -0.1473493881020777 
0.1758565118908538 -0.8719212862061334 -0.7484699636803137 0.5614642824749355 -0.1191963753392403 
0.1323756700167758 -0.6130777206522234 0.7973898069049911 -0.2274010852884588 -0.3309296862003791 
0.3927332090967138 -0.8490967089143394 0.1464458344843841 -0.3976253898957858 -0.3835358084553781 
0.3487675997182374 -1.336707954506074 -0.7285672634915954 0.04637528979136632 0.1213200044991685 
0.8358304056568825 0.004703268509926070 -1.086178759904052 -0.8809211240905606 -0.4086196307394692 
0.03088898291485143 0.3543471748416259 -0.9174379151342322 -0.2065104695093503 -0.1700736645958865 
-0.5252650727187141 -0.6423241530514756 0.4233372101442701 0.1616887688905635 0.1129668318063158 
0.06321456035805980 0.6096295641595350 -0.2134352957983754 -0.2615924720723583 -0.1218581652115260 
0.09209970568520402 0.4418023739830468 -0.1957963517022301 -0.2990256155320537 -0.1193937773046019 
-0.2398370083445982 0.2677087847126314 -0.4966020605398132 -0.08748441149212602 -0.2831033676026563 
0.4249533247078356 -1.270119937749265 0.9927070332692415 -0.9065380356052646 -0.7076032701820095 
-0.08711394986576679 0.7328626375827832 -0.4626402565019018 -0.3682499111802056 -0.3957765601850367 
0.02789869322985670 0.3391913747601072 -0.3043618475439457 -0.3039902553454666 0.08267680612032262 
0.2120180732916610 -0.01641378406640860 -0.01188006550046460 -0.2399206502631085 -0.006481354651697687 
-0.2827679186587348 0.3119006020535669 -0.002293180266520393 -0.004643235823119406 -0.001870290833088816 
-0.2482692356659972 0.3974528511585457 -0.02672058956869793 -0.004296025908228015 -0.01769540277898631 
0 0 0 0 0 
-0.7549548107743944 -0.01876264615667432 0.2383008311280014 0.6323005726457445 -0.02941799649105373 
-0.3640809396526876 -0.1210121814869462 0.2500144587428025 0.1448758794370848 -0.02788493341410685 
-0.2752763275610184 -0.04438993459554216 -0.1795352813912350 0.3782240776209140 -0.04133093242345397 
-1.232137282026726 -0.01082238168693768 0.0008595480415096897 1.222088612152512 -0.01138176105824025 
-0.5960836434100389 -0.3167955891145822 0.6419758581236248 -0.07681151499528763 0.2968912921550854 
0.3043782541181326 -0.05844831406282240 -0.3180037203558970 -0.02721507125000352 -0.02881655036724024 
-0.01537978378275891 0.03035110793108128 -0.006936300327430855 -0.003390429110748589 -0.008434709694873688 
-0.7662265559017443 0.3605272817717428 0.06213132199481482 0.7903376018967339 -0.1555850072314137 
0 0 0 0 0 
-0.2816081206567080 -0.002476483952596939 0.1692213829348672 -0.001164468079040180 -0.1011653425973235 
0 0 0 0 0 
-0.3955321510153709 -0.001730528279544695 0.1761324671184725 0.1706838857051066 -0.001894692858784143 
0.2523644453597251 -0.08024632447562066 -0.2148228837149574 0.09633200706408443 -0.02150104196611259 
-0.06692097487639800 -0.03851318829823265 -0.02677596099057468 -0.02219605427779783 0.2147940539062504 
-0.3501822643293475 -0.003889072455908232 -0.01904577470942553 0.4175024451312503 -0.005534762803864285 
-0.3249142069330652 -0.01099065093789447 -0.1072757986945185 0.5511727840455835 -0.001206755611663398 
0.6680279240108092 -0.1648944987035919 -0.3092492104875521 -0.1352495092005011 -0.06254717333130978 
0.2940418960581477 -0.1334126756357375 -0.3075642483413389 -0.04721673958032274 -0.02453954796073146 
0.2521750735962689 -0.1185297322307822 -0.2065579841630622 -0.02368098447683514 -0.03792654526443495 
-0.2134949882048152 0.3815104893706025 -0.02428490026168594 -0.09218363739362784 -0.02706566389764257 
0 0 0 0 0 
0 0 0 0 0 
0.7908274083350273 -0.02898821461064748 -0.2816807250900005 -0.7124490918323464 -0.03363126361633309 
0.1007224043080298 -0.05767878314482599 -0.02748150779035892 -0.04133667140737318 -0.06561778185563480 
0 0 0 0 0 
0.05278898486599058 -0.01188807902354912 -0.01809976506281705 -0.06571809790072206 -0.05355747679310426 
-0.3675385942297086 -0.001838915676596031 -0.01761275490671152 0.4902745628520872 -0.003838872123453387 
-0.1131146138590631 -0.003075336198280133 -0.001009861029979005 0.1287600760313128 -0.0005381232233878120 
0 0 0 0 0 
-0.2457735961200666 -0.007083807656690165 -0.001010838986761140 0.1643909782541375 -0.0006710166562051788 
-0.1118798233627134 -0.001753898726815754 -0.0009073980129054150 0.1423159706137029 -0.0007279199627733370 
0 0 0 0 0 
0.01680743585972724 -0.1378354208390363 -0.04156444240926806 0.2593565061914956 -0.01007261830285538 
0.1791296208787641 0.09232295908586276 -0.06687223297609185 -0.1633277918312940 -0.2525622707503724 
0.06801829808278483 -0.05616005150695918 0.1767265384402877 -0.05640866583153373 -0.1333232826366912 
-0.2549408378291679 -0.08121553894266550 -0.06758951993288445 -0.03792821368136655 0.4157409774021952 
-0.6585416819874909 0.1208813266234087 0.8696849271557651 -0.05255047942898188 -0.1881314226424231 
0.8972555627389797 -0.1091420510836425 -0.1927650651458908 -1.262074421458227 -0.07378865647246417 
0.1824536794145380 -0.02238651672003034 -0.1039141703326247 0.06065450223817716 -0.1292730235269881 
-0.06167129619282606 -0.001867564715144969 -0.001310941072489060 0.03303680479575410 -0.0003781582447053751 
-0.3399168287825434 -0.04516933283460859 -0.08619877542321622 0.4259209182489990 -0.01910601829786447 
-0.2399169834726523 -0.04454150670818553 0.3143927299973322 -0.001243908142086814 -0.02368548467300544 
0 0 0 0 0 
-0.06755755709176185 -0.004994097912841368 -6.113468446613510e-05 0.1435620953655152 -3.400590529522695e-05 
0 0 0 0 0 
-0.3173166812006439 -0.004387696517474410 -0.004681002056738229 0.2913345121144655 -0.004563168671135083 
0.3394403710788955 -0.08113834522227793 -0.03608195975954738 -0.2401116570731720 -0.01101504211392130 
0.4199774029577662 0.1577357682151209 -0.3775019211244058 -0.1524095937056982 -0.1159435135804806 
0.6536254127910415 -0.1719050189876103 -0.1003600851857329 -0.4366416544172000 -0.1213714503405568 
-0.02401992442694305 0.05820239901097022 -0.005595448503508248 -0.003221720162511259 -0.03503413111991322 
-0.6254743879327734 -0.05254722348929729 -0.002186858645522330 0.1796770968184873 0.4473161746524432 
0 0 0 0 0 
-0.04492304337546847 0.1781408932010062 -0.05867443606464647 -0.02378496624489601 -0.007930217779227160 
0 0 0 0 0 
-0.04839403018178711 0.08361975890253245 -0.005692691275622844 -0.01235729937579014 -0.009451553544223893 
0 0 0 0 0 
0 0 0 0 0 
-0.2624761519437585 -0.001542938345089463 -0.001743114855956023 0.2326623350761663 -0.0009009856464603876 
0 0 0 0 0 
-0.2352637803846798 -0.005628163349498581 -0.005368419072661980 0.2504137838237449 -0.006061870347315250 
0 0 0 0 0 
0 0 0 0 0 
0.4423334305525373 -0.4951575096790278 -0.05373415584867982 -0.005798341375892082 -0.1184044719569354 
0.5334503890740467 -0.2645291066808566 -0.2788423624358282 -0.08534777504680283 -0.08557675951475395 
0.3257106416258508 -0.05538962177835959 0.07902924491914351 -0.2211577745758820 -0.01903326337499097 
0.2025603861540462 -0.02810493610533612 -0.01128872329049613 -0.1194673939219103 -0.05095450350720381 
0 0 0 0 0 
-0.01879401460234015 0.01626821337304434 -0.003522918135163913 -0.001390762751222750 -0.008208864790285833 
0.4316397308253267 -0.05359172893332850 -0.08782048850715482 -0.4014790933798585 -0.08264891801310188 
0.1561805498198233 -0.07384155967950545 -0.03630059365184678 -0.03895557146989445 -0.1388969840374621 
0.1321988611835654 0.01557977990577012 0.1288667620587184 -0.1094838832327943 -0.06114664999305444 
0.1158472533439890 -0.04270570119330549 -0.03555912393750474 -0.4598345992433248 -0.08703011675208269 
0.05091448439616963 -0.01992035735435010 -0.06596470515378104 -0.02643754175417715 -0.02100129139375875 
0.4718474949735950 -0.04616312214719462 -0.1955123697116101 -0.3245458087089561 -0.04603904697041931 
0.1092197347211282 -0.1609029433412173 -0.1337471307364788 0.2153943012903833 -0.1773188058999172 
-0.3572113212440212 -0.2601610345205367 -0.02680485158810536 -0.009644073695166159 0.6560705378543483 
0.1663949000768491 -0.1741713761247020 -0.006206114421223402 -0.02666660161556532 -0.03329931495641311 
-0.03901142756764080 -0.007820547572105358 0.4609371741308181 -0.1556590922923253 -0.007036430496741776 
-0.03321286246567198 -0.1008036682425567 -0.03636862371439850 0.1549448519081430 -0.01222936816502257 
0.01283096962857566 -0.01518730537030391 -0.01295439720258074 -0.02328608954830300 -0.01858114725100426 
-0.04234067217723082 0.09701834958503963 -0.007252849713223089 -0.002611498446653145 -0.009934946143631461 
-0.1216354453298048 -0.006322270207581642 0.1762089212394661 -0.01686460363188804 -0.04054735766702435 
0.2070958165419406 -0.05549626224430684 -0.03463234470955640 -0.1103527585783542 -0.01391423496984280 
1.192568818932739 -0.1024609688371465 -0.3990778122301722 -1.115561011093873 -0.02413700639980342 
-0.07772754666036469 0.1077696919010342 -0.02370601256958963 -0.0003604590050495819 -0.006276451021457998 
-0.007015837753052312 -0.002904632113551740 -0.005379970978755050 -0.005254747973487626 -0.0008885235303092089 
0.1956349809153329 -0.06797966566829679 -0.005786206814421043 -0.01958120989930400 -0.07931616176414298 
0.2263544787644069 -0.07734586066027070 -0.1366321743485358 -0.1098126567019215 -0.05263499911222184 
0.1611222494806930 -0.07451610809846491 -0.05708270077117577 -0.09911535966736011 -0.1296051138101806 
0.1570802285931180 -0.1443561719396516 -0.04628533183487171 -0.006913915414297699 -0.01304590657811728 
-0.1434707907655083 0.1281838204807513 -0.009090536699718793 -0.006042882898455225 -0.007268823460457847 
0.3160270046043997 -0.2177122733342006 -0.03960558704181046 -0.01524445473567035 -0.08040550799795733 
-0.3265300034743334 -0.1155009305427744 -0.01744684395235832 0.4215085374487730 -0.01344021573511412 
-0.2880753585466737 -0.01746102207283682 -0.006175651514752563 0.3148129763595393 -0.01021462501959358 
0.4384321109046467 -0.1932668843604651 -0.1355883924616579 -0.1687230048187512 -0.3705223011001753 
0.2165375306260487 -0.1454379216991323 -0.008995937934414833 -0.03793532039529850 -0.06460180596604152 
-0.1704917230529486 0.1310562578809109 -0.0009980577574600240 -0.001669667025656148 -0.02206994925966909 
0 0 0 0 0 
0.1279485207359604 -0.04567181802503002 -0.01700641676592542 -0.05413480856610485 -0.01711250118860208 
0 0 0 0 0 
-0.5512538937697920 1.405002952685567 -0.4788189342673566 -0.1074986799245307 -0.07048825547925913 
0.2418957824287558 -0.1881389508568935 -0.1012047302689068 -0.02711877011545373 0.1969317101688151 
0 0 0 0 0 
-0.1334445840286352 0.1770039070416804 -0.04048392131325281 -0.01830745498346371 -0.02494951138215960 
-0.1825026590252168 -0.003921519354112286 0.3204603345227122 -0.04030818090479901 -0.0003424428958308480 
-0.4231260656798817 0.8883640898752646 -0.1048203524394354 -0.06917962687579915 -0.05254834720638245 
0.03829827173631946 0.1564141376338488 -0.03245001132752606 -0.1170973311060069 -0.03331437089567835 
-0.1537218858950342 -0.003812923529998976 -0.0006664572281853360 0.1102536991831196 -0.0001309693970691990 
-0.3060417337812894 -0.05140902615734008 -0.01768708212123312 -0.04401444391866456 0.4494694135905232 
-0.2223682769586273 -0.008086586164468695 0.2389800096255985 -0.03250356317128660 -0.008284148461915265 
0 0 0 0 0 
0.07075753292769547 -0.001023450029852343 -0.004222421888016831 -0.1680538525989554 -0.0006959207520871994 
0.1974811827221488 -0.1252946989945501 -0.009423411862991489 -0.08053634076072765 -0.008951395024251400 
0 0 0 0 0 
-0.01023911671851147 0.03635966599601401 -0.03012913201599042 -0.003105554545909760 -0.01519338776769511 
0.7996414372858508 -0.2227232410422389 -0.1234470602884314 -0.4530762262203210 -0.1060409431854630 
-0.1987958894108733 0.2496179629331649 -0.07080819591713801 -0.0009413090115724583 -0.003096252166532640 
-0.2399403233565917 -0.0005779396345083462 0.2033451354583622 -0.01423607739770760 -0.001734228647583010 
-0.7076834132546443 -0.007430118132917566 0.2526324337419690 0.4787274021006908 -0.004470156833725646 
-0.1775730854127586 -0.1246973129654894 -0.1845224445069421 -0.05371259678608410 0.8859497174607627 
-0.01795690546719902 0.02285764772603639 -0.007144284308245067 -0.0006766716724924211 -0.007430713498910758 
0.1699935972507445 -0.2566415534199169 -0.01467449100851870 -0.02580422205755863 -0.02890882433380934 
-0.09307475920447249 0.2826264286798269 -0.006454229529374727 -0.02691682305456842 -0.01461320051253434 
0.2532323727353446 -0.2478791921350390 -0.02833226880990590 -0.01153581467536410 -0.02634984792944402 
-0.03101146395986464 0.06341513314261898 -0.01554487708155513 -0.01293035737547612 -0.01588116683237532 
-0.06546196019277849 0.09192061290986461 -0.02081557536547997 -0.01311735717550870 -0.004530976585408071 
0.1745075994651892 -0.1046398136364179 -0.05925181025523905 -0.08855359221298326 -0.01976174434489435 
0.2937783779297472 -0.3217397971452818 -0.08003563805184417 -0.01956701423147571 -0.03777400612168207 
-0.06635454978104588 0.07415125410512051 -0.006122934438792727 -0.007295320580767578 -0.01319636864216313 
-0.6611809529536439 -0.01364457655279319 0.6755129178926711 -0.1382138720879536 -0.02721268676147636 
0.3032080637428009 -0.06091294610337201 -0.1101178634213782 -0.3153587559874853 -0.1106381124459323 
0.2037750091301395 -0.04300688598418789 -0.1306996298889023 -0.02160558953941019 -0.04212778463047044 
-0.04609118722134387 0.1276887670838644 -0.01098744638770696 -0.005599689124866929 -0.05044532141107991 
0 0 0 0 0 
0.3115293835679980 -0.08634473702136905 -0.06179745570063739 -0.1243986210154554 -0.02331512962857128 
-0.09960370705747370 -0.04909480012658666 -0.03332869484245296 -0.003523808067539166 0.2289137459973410 
-0.1313811917013560 0.1256194678191555 -0.02287301486560154 -0.001408640678164550 -0.02276067894697033 
0.1349659414619121 -0.09738338288612994 -0.02502618150243472 -0.04838050228952598 -0.06606835370471170 
0.1460524296543053 -0.1154388875373269 -0.05229422919767850 -0.07547938474481734 -0.1286585936906667 
0 0 0 0 0 
-0.1647163854019171 -0.03749339286480200 0.4019309361793905 -0.007426285259099829 -0.08371845625740466 
-0.09980654414854555 -0.06738447827388962 0.2287699218855965 -0.004313763889495742 -0.008123386432331318 
-0.5041978416518359 -0.02013437218675097 -0.02848871130573052 0.6125138405204779 -0.01530511411527857 
0.08123139958764185 -0.05673465304677004 -0.07055957397813960 -0.0009551355519564135 -0.02141869083905835 
0.03288226385653474 0.1052493635032628 0.01571304256754545 -0.006328574700352804 -0.1516831084069904 
0.4616713462648499 -0.04575052483448461 -0.002224360202602461 -0.4148139772835924 -0.0006071086595252342 
-0.1385934588081733 0.2128068684617213 -0.01761358594625069 -0.007088114388493791 -0.01164764923206942 
-0.1890283151429242 -0.007188076951868336 0.06721221723740692 0.1064056419434408 -0.001089308154246456 
-0.1047195559140623 -0.001578177965939768 -0.004792442253919810 0.1145389582537406 -0.0008368300206778753 
-0.05667962095055664 -0.05192598104765890 0.09447147141699945 -0.01087957320313049 -0.01655658499056848 
0 0 0 0 0 
0.2689351010955965 -0.03620335985395976 -0.05206704250190462 -0.2178289948273954 -0.002863472952285004 
-0.1366822914564757 0.4076122479735085 -0.03401540117443572 -0.005861377617377229 -0.1197021163663767 
0.8459478023032145 -0.08240597133117664 -0.02889600722031336 -0.6664839203893431 -0.04025141115063127 
-0.2177927052021882 0.2575720083767785 -0.001608936152535833 -0.004911048338123129 -0.04229643146099445 
0 0 0 0 0 
0 0 0 0 0 
-0.1036708634158116 -0.04462434132839808 0.1957851006298784 -0.003487195992618168 -0.001205372293488564 
0 0 0 0 0 
-0.1794391531113678 -0.02431132247974666 0.1331436676400984 0.1341916031778047 -0.009693303502738720 
-0.2935936996189028 -0.04700749973883130 0.2836027550458019 -0.004780936094522230 -0.01739615160546518 
0 0 0 0 0 
-0.1170628790109158 -0.0008369244037844170 -0.003491144214733451 0.1501660111034660 -0.001918958350704071 
-0.02189653566095885 -0.005654226521259281 -0.0003019534270150902 0.01902073042283999 -3.391156561713150e-05 
-0.04580672959567969 0.06437031746502722 -0.01785315932002856 -0.008570091864314774 -0.005696276449196553 
0 0 0 0 0 
-0.01113483255571009 -0.002416842386970063 -0.0007741575838796675 0.008042431906731104 -1.253477460923290e-05 
0 0 0 0 0 
0 0 0 0 0 
0.2045609069256449 -0.09638339998024281 -0.06773311106300406 -0.01648755851896266 -0.04645632326345536 
-0.1257885218885624 -0.02650931765718501 -0.006639031375030152 0.2691668198146506 -0.007320773508964943 
-0.3193846251994715 -0.09090352110108459 0.4128954641857513 0.1687491832030345 -0.1344650604492420 
-0.2840677578656412 0.1357793897544968 -0.005249873922398244 -0.0003670462080445912 -0.004165594360748197 
-0.1687492776697252 -0.09593219008922266 0.03408717484542988 0.1380872877013124 -0.003326226987451848 
-0.3005246454198330 0.6408440326330100 -0.02038848374681141 -0.03424700885019316 -0.1451733995247064 
0 0 0 0 0 
0.3528279888324079 -0.09937517255866918 -0.07018268126905593 -0.07615288816383260 -0.06632153904061090 
0.3922420201995148 -0.1154738016808206 -0.05288167192071737 -0.2389581240835025 -0.02883029804651091 
0 0 0 0 0 
-0.03618542495006374 0.04243468463499591 -0.01131743209285588 -0.002436186033871408 -0.02188455688263828 
0.2344653247037626 -0.03628133770026956 -0.003310915652778957 -0.1299365772248878 -0.03667316368784155 
0 0 0 0 0 
0.2317125967263312 -0.05910901178868412 -0.02955389301596321 -0.1769888176904179 -0.06354937979315158 
0.2486717392028534 -0.09962326114277807 -0.01673218510896127 -0.1029416884394810 -0.03638448969669779 
0 0 0 0 0 
-0.06513452310608732 -0.03233289663122652 0.1984211859772470 -0.01163512677698154 -0.009521705803573383 
-0.08209285971458323 0.07884887973255501 -0.004313335074697212 -0.006875318719390136 -0.02172765302994093 
0 0 0 0 0 
0 0 0 0 0 
0 0 0 0 0 
0 0 0 0 0 
-0.3579825599461630 -0.01379342103594736 -0.01617097532278487 0.3869474037980768 -0.01664081630902220 
-0.3315109868178019 -0.2254938607161881 -0.03664967550867537 -0.01805583237791318 0.6312635331403099 
0 0 0 0 0 
0 0 0 0 0 
0 0 0 0 0 
0 0 0 0 0 
-0.08406759921250771 -0.007345521928137574 0.2278822560811719 -0.01763238912081274 -0.006451681749923204 
0 0 0 0 0 
0.3099789751794690 -0.04308287155274820 -0.1677191617555006 -0.1492049073708852 -0.1019779468746562 
0.4217097950932862 -0.06774632066752317 -0.2288551227340137 -0.02186334642643008 -0.02363113525319462 
-0.1469247753662182 -0.02928546694691664 0.1983961880033261 -0.003281799230472249 -0.006852563380934302 
-0.03424427520787968 -0.003270314395835127 -0.0001800809608220164 0.02271720083656025 -0.0001201319828955845 
0.5513394565732479 -0.3275595824698328 -0.1235015070748827 -0.09724334743574316 -0.03979308574799746 
-0.1465917060456641 -0.01359025344457339 -0.01131625764883580 0.01989195234881724 -0.002542067453442603 
-0.1047044228572683 0.1921089345784447 -0.02735446347754559 -0.005361319153860811 -0.01757449812561145 
-0.05168431672968644 -0.03366916394638252 0.2178164697588001 -0.006405092126795593 -0.003248459705999244 
0.5210902538766674 -0.05591309459548349 -0.3646562462402225 -0.1177439207175172 -0.01334457086671536 
0.2802213694394959 -0.04336111399001707 -0.1892606904492409 -0.04163507534414963 -0.1268588531480212 
0 0 0 0 0 
0 0 0 0 0 
0 0 0 0 0 
0.1462431133405705 -0.3165856933735623 -0.2609702785576765 -0.1249865745261121 0.5853787821685419 
-0.07708999500599413 -0.0009525851022989669 -0.008828547333638978 0.1124285594091219 -0.0003185541833592992 
-0.2575741160726768 -0.001169364885308689 -0.0004320545114419261 0.2006406621448688 -0.0003602329278010623 
0.3292885995746898 -0.01168085527019471 -0.05512227818579501 -0.2826410520551597 -0.01923980228170433 
0.1052665137552891 -0.1075591122646336 -0.05659095999581461 0.1056249048167616 -0.02754017040811018 
0.2579752927798791 -0.09745697580742840 -0.06265951691741443 -0.03223358681943776 -0.08592027648616560 
0 0 0 0 0 
-0.08706053617829201 -0.003270182021442228 -0.1256762072263285 0.2066368167058515 -0.01840923580825786 
0.1286547272301946 -0.07256494256191932 -0.08418102060349344 -0.007018561189975563 -0.04297707460212918 
-0.4474952021118836 -0.02286831871363024 -0.0007645761635002894 0.5852138491137421 -0.002848367714708684 
-0.4944109439234092 -0.04202822919469838 0.1831618743983413 -0.01528963365234744 0.3817082609249961 
0.02075212770488652 -0.008374903094336030 -0.008824954913727978 -0.01035514031297235 -0.01251412131307669 
0.2354194375882534 -0.09811955120161646 -0.05511642948780338 -0.008339637245579302 -0.1354637309495451 
0.1157911646920299 -0.05235674781234998 -0.01164529107092044 0.02295922466850333 -0.01215521204434802 
-0.2989027431140472 0.4504880240399798 -0.02825259873914809 0.1164592274490086 -0.005869598110321741 
-0.2243031828272240 -0.04701853662245477 0.3436399830130358 -0.001268890094258512 -0.01879415732298691 
0 0 0 0 0 
0 0 0 0 0 
0.07918017756873370 -0.004804698604428784 -0.1069646502595453 -0.03554679937600426 -0.02175628403047356 
0.1715842600710142 -0.05216873643065043 -0.1784016604675802 -0.05575756893584859 -0.01968323763815061 
0.3508414446323688 -0.02113317214964023 -0.01480261536739222 -0.3368444684568917 -0.006832353585588566 
-0.1642398429314824 0.3840629189225118 -0.01132472210065967 -0.05904458027595802 -0.002960705058373116 
0 0 0 0 0 
-0.08711173928012914 -0.0008778990157692010 -0.003511158796462557 0.1082900833885567 -0.0004073980350472606 
-0.06575982276864534 -0.001316091353548110 -0.0008495122097329772 0.07619522151084324 -3.785398611507536e-06 
0.9544592490474090 -0.007900165386288682 -0.7723292526907328 -0.1608673357898857 -0.001283777524840271 
0.3966840925520487 -0.006326176181658190 -0.2204546340619439 -0.1663967078913445 -0.002572323932940133 
0.1070200297353595 -0.03335642610464973 0.1276327231702490 -0.1774162449081343 -0.01602299358104319 
-0.5725383987304833 -0.0009577845710354402 -0.02478799850142261 0.6377974103248977 -0.004221502721150961 
0.4813575709129429 -0.004051072220751892 -0.9241875584159251 -0.02497168828855350 -0.01704157124929694 
0.2853646244672032 0.1605190859924227 -0.03742119718393223 -0.07044044142765504 -0.08428845918495712 
-0.05535650765864494 -0.03438681381432234 0.1042887906782887 -0.003424140475552857 -0.01008222248537671 
-0.04363296703331832 -0.01046934685081029 -0.02533866461559833 -0.005968457106016304 0.05750944985636937 
0.3162070008674593 -0.01195359737284953 -0.09264462982245270 -0.2009811965748836 -0.01269806949046486 
0 0 0 0 0 
-0.04682339763349941 -0.006291080709900841 -0.06693311864763757 -0.01039776790980653 0.1225834778019860 
0 0 0 0 0 
0.6249862176474839 -0.1310778147143851 -0.2874246259071395 -0.1206088384972238 -0.2039972747723642 
0.2313187367675643 -0.03552618300752038 -0.03678534760761357 0.01938458283712711 -0.04150137119923576 
-0.5119434310579210 -0.01047811262867703 0.5524462029119573 -0.1239975238392997 0.3577394405748134 
-0.1536719988687260 0.3479772396901869 -0.05954803182494953 -0.01007915437624506 -0.02196523807789049 
-0.04354250287658715 0.03848690463073601 -0.006159972935341037 -0.003489268508430472 -0.008681792326463602 
0 0 0 0 0 
0 0 0 0 0 
0.7448149874130339 -0.02279877465567785 -0.4281418314616032 -0.3222003543039084 -0.004496388780339294 
0.1181626067010032 -0.05467192320924283 -0.01090462754048729 -0.03551808679949311 -0.03427754837137706 
-0.03653477735322979 0.2344589148511850 -0.01536427174462512 -0.1258537846590075 -0.03158035654248061 
0 0 0 0 0 
-0.1366565236367016 0.1338759991139022 -0.007030771940561967 -0.002414055757339661 -0.01167461622110224 
0.02576199302795504 -0.01477675399104557 -0.007151516475816772 -0.02748095417429608 -0.004358797658362977 
0.05370619576696831 -0.06560050275590360 -0.02617300578937637 -0.02462962327944343 -0.03565027106403054 
0.02877615163087798 -0.03940986746431668 -0.02324604163791483 -0.02169187753537768 -0.02528168913069139 
0.1072255705272899 -0.1033457022888526 -0.006175503944182698 -0.04892559327348633 -0.02506261024317811 
0.1558205555205460 -0.1035147743333940 -0.08307347727914595 -0.01581724784311987 -0.009307986920473996 
0.1020336821214862 -0.3625201129847520 0.3582098898470434 -0.01271426962208917 -0.1701582855062021 
0.1758661034379679 -0.1501218919488832 -0.03387303994596128 -0.02097377206353192 -0.02492115944244345 
-0.3766262522691269 0.4800219636241765 -0.07111845733081643 -0.009984408374521648 -0.06374419242324236 
0.2590254250994316 -0.01613218425621147 -0.02242793710604400 -0.2122990055061830 -0.1500772913644658 
0.3800277148675244 -0.002323672442115360 -0.004744831491690905 -0.3980751151818207 -0.002244410232721428 
0 0 0 0 0 
0 0 0 0 0 
0.3485964756697388 -0.2253374958861137 -0.07524047155823833 -0.05472404543328464 -0.04766460301100826 
0.1668666914808271 -0.01451685781271491 -0.02154192826442784 -0.1810254626520952 -0.04422377063287604 
-0.05012702921533363 0.05601992394800730 -0.003801855922373934 -0.006566865067777337 -0.01565366579752633 
-0.5832037908400033 -0.004627961836925678 -0.006579533752541396 0.6359879086794110 -0.002164331261406696 
0.02022956662678903 0.1547052936200359 -0.01313812285264422 -0.1264007383669369 -0.006782521542592234 
-0.2817798732737883 -0.001057859602221999 -0.001412809158023277 0.2285050892114340 -0.0005966453930066303 
-0.09413153151583377 -0.03129559532005907 0.07414076382009344 -0.05142978713058719 -0.01314536123765725 
0 0 0 0 0 
0.06440622120523253 -0.02032014057038706 -0.03559949542594106 -0.04661126471732562 -0.03583875058471219 
0.06565873463528793 -0.01854147285370736 -0.03792454778830617 -0.05307596098597154 -0.03653376138021017 
0.6091441154366619 -0.03323008810638649 -0.002406868940424015 -0.5494720239835400 -0.01250374262237080 
-0.1703237620029408 0.3771605520706327 -0.06948702933393750 -0.003033034088430365 -0.05105774485227504 
0.2302509394117264 -0.009465655325934408 -0.2514347781877627 0.6063745043185480 -0.005706115444716255 
-0.2584325560777779 -0.001229112197807640 -0.0003297366592734105 0.1698955277664776 -0.0006198075654930397 
-0.4788671164353753 0.5102000235173473 -0.009827845554236332 -0.02585657495131538 -0.04792503766115883 
-0.8571246464723324 0.4883965512458210 0.1039830846474611 -0.07224633702647186 0.2797160196043185 
-0.2567370100239733 -0.004019109945073119 -0.003836430347980745 0.2578394875121545 -0.001481823386086942 
-0.07756346836057218 -0.09074862864086657 -0.03282123155903097 -0.002823156690576442 0.2841041490017184 
-0.1755900414707709 -0.01257975476379980 -4.834691354102126e-05 0.1189642929078140 -8.030690870650180e-05 
-0.3249734319113366 0.3895577851871628 -0.02774441677953343 -0.02501835783778670 -0.02920624313927859 
0.2645378267875362 0.03692405212907836 -0.1738042354374027 -0.1243732323279943 -0.07783846794565640 
0.3871422299375539 -0.2766413977897316 -0.01215344178129756 -0.2072250771802235 -0.02652668468183235 
-0.3346832446086147 -0.1742740465942189 -0.006311623734847999 -0.003202606302612950 0.4747407105627699 
0.09173306167185541 -0.02105939466271748 -0.005542392471787588 -0.05541151665011850 -0.007327109214737184 
0.2580294408445557 -0.2520242501626349 -0.02330464695299208 -0.002366924990543294 -0.04897215008105973 
0.06446672464534770 -0.08118496338471440 -0.01083933672364106 -0.01738588430483100 -0.08674419704210695 
0 0 0 0 0 
0.1630148681288804 -0.1450694731473352 -0.03200058192759216 -0.02362851166244522 -0.08928527857112563 
-0.2173541127969084 -0.04299585790628754 0.1705252443121191 -0.005507964681801003 -0.01318813363043525 
0 0 0 0 0 
0.4267573280807889 -0.004530513008538628 -0.2279374529243944 -0.07255385634243236 -0.005375096646635251 
0.2251731532037664 -0.06501088770810745 -0.03454204123264526 -0.04702192537220840 -0.07096962243811206 
-0.06429549413948783 0.08163154467351692 -0.006659729055861948 -0.01411314315424959 -0.004840592697372419 
-0.03738599473513989 -0.03310558201623697 -0.01734433822665896 -0.01199632934216120 0.1171252891674585 
0.07232932210197120 -0.01038322011756701 -0.04541986756729197 -0.01836226276390408 -0.009987509751789950 
0 0 0 0 0 
-0.01580566110925471 0.03346858180362377 -0.002839348909241818 -0.006050776622794039 -0.009597478930937292 
0 0 0 0 0 
-0.05811629687303434 -0.001858720055837865 0.1667314254711327 -0.05296494065586790 -0.0001492600119916491 
0.2284773093553496 -0.1032130692225905 -0.08092050692032503 -0.009454207237865700 -0.04825921689678937 
-0.2175914089418912 -0.001281092060931222 0.1101097857637435 -0.003241953236623799 -0.0009776713045882436 
-0.3408497776848590 -0.002213825421432560 -0.003168072989899613 0.3314905314466363 -0.001137416019550979 
0 0 0 0 0 
0.4395317084009537 -0.1230369713882142 -0.1423241516131420 -0.03610460900329023 -0.02643755749769959 
0.2330544036622751 -0.009205110668935087 -0.1449167048724923 -0.04737248861981415 -0.02151315033382275 
0 0 0 0 0 
-0.06024494534741412 0.03035421817462364 -0.009866911807133333 -0.003179897166091703 -0.001626929802258977 
-0.2255441793294171 -0.003612284109131128 0.1479427540478560 -0.005505116304117811 -0.0008121423084873530 
-0.1457360941274686 -0.001180961782589365 0.2771839629780731 -0.06370253421357991 -9.890615309631457e-05 
-0.08997813189780528 -0.003202595078797999 -0.001740386656988317 0.05645668790489034 -8.271571817418811e-05 
-0.6651381035908943 -0.03200159057927396 0.3889823462225542 0.1472501177399664 -0.01189321580455287 
0.3213087810971644 -0.2475675433655095 0.08055471826596962 -0.07298896899240903 -0.2507727506683607 
0.2915891708953962 -0.009570337501752062 -0.07982667465754918 -0.7328141401803130 -0.02370287477075414 
0.07223680257266330 -0.04753331007649839 -0.03335164494929330 -0.004076578091660914 -0.01067014583662529 
-0.4445299420528042 -0.03105417866569232 0.1715426515861712 0.5891731184338720 -0.02865831261447293 
-0.2341242320292074 -0.0005511593343786846 0.04582004778896189 -0.001073357294392045 -0.002225646584410361 
-0.06227886483132059 -0.006638932272726428 -0.01455973491832031 -0.1265172207525340 -0.01989722437509089 
-0.1956032412326293 -0.03679043237970164 -0.05141309049337440 0.4023550788766205 -0.03220464972026886 
0.3453095702709064 -0.1824478947611687 -0.07719968734861610 -0.01522253371724882 -0.01803869950656457 
-0.01447090747416340 -0.02506622919845530 -0.001152233710110713 0.01846820883895389 -0.0002136802465567180 
-0.03341773929054201 -0.0006472552586232940 0.09100662305507201 -0.05642250490546029 -2.751625898425522e-05 
-0.1642516651595221 -0.0005593478426292840 0.1326761880995160 -0.007916071073581780 -0.0007662568586302390 
-0.2211933422413111 -0.0003417091822169822 0.1073663542436428 -0.005969107615318367 -0.001464330165415500 
-0.2530171270987761 -0.0002775167972428203 0.08217750878616246 -0.002528847354189919 -0.001363176693808935 
0.1722941734792146 -0.04313931271606766 -0.05827160951503826 -0.01760387609009479 -0.03663089161728702 
0.1641461881412010 0.2098473007561366 -0.1911119416779039 -0.01899821768160527 -0.1195706502247655 
0.1328276560579252 -0.05260682580547547 0.03725485275076121 -0.01325080151085492 -0.1290524386311422 
0.5251639210841448 -0.3071831766364019 -0.02148836659277895 -0.02586347159401565 -0.09917505861097616 
0.1560264360306399 -0.04873186426543080 -0.07477580624866720 -0.05297768315257481 -0.1145393694191197 
0.1938713570884981 -0.007236976173114072 -0.03534420440495898 -0.04869232552667142 -0.001694050546123651 
0.07155719425662195 -0.02135695213165260 -0.05581720289952550 -0.04285571620205508 -0.05474094068781630 
0.02256139879905785 -0.01725258753027576 -0.03349130655181130 0.04259913410357021 -0.005216953887452329 
-0.1296620731688770 -0.001508688634079789 0.1582067043101797 -0.004615020919593919 -0.01054188650133777 
-0.05206113015385198 -0.001707061888016661 -0.001223456141397544 0.06352892149539896 -5.610467744031225e-05 
0 0 0 0 0 
-0.1968769263794223 -0.02134636506215847 0.07894176258721286 0.1556145088666044 -0.004817201601525680 
-0.1876612835531855 -0.01212474290570220 0.09617337687034141 0.03217585873492255 -0.0002092607238564176 
1.131424557130947 -0.01307280838902847 -0.01304205291898669 -1.110510577691640 -0.009614170252184710 
1.033761951218933 -0.01511352797676274 -0.7060124183657661 -0.1636025459289796 -0.01609232330026271 
-0.7136895667648508 -0.003766927957448338 -0.009287202154719034 0.7077535895319517 -0.005322557033314229 
0.2971757485271862 -0.03797582842826804 -0.09089507404132656 -0.04970453267401740 -0.05492097395470940 
0 0 0 0 0 
-0.7683424049989905 -0.03547157753999874 0.5499801668357450 0.4300697891225443 -0.04836764484817900 
-0.1095921419667156 -0.01493712376245922 0.02567027447365724 -0.0002230529430636612 -0.001644987185340234 
-0.2810739271927831 -0.07405688989877027 0.4116362308046690 -0.01859559889023623 -0.1124780964997871 
0 0 0 0 0 
0 0 0 0 0 
-0.3430964999517303 -0.005951872931144714 -0.004102487180672170 0.3346114145161597 -0.001157492008592725 
-0.1268325593924298 -0.01074004011542110 0.2568530100212377 -0.03451125371494399 -0.04484452225793324 
-0.3510893948507506 -0.001527293881032875 0.2189653029731522 -0.007350913922296846 -0.003260606774767949 
0 0 0 0 0 
0.5015160998803718 -0.06655210616322874 -0.1130861893291893 -0.04789609329785873 -0.07622811745266525 
0.09287800351456033 -0.07022118713681973 -0.01860307123178398 -0.01123168460493754 -0.06515839313769380 
-0.07460908412439729 -0.002936637946788009 0.04046535385655797 -0.01695637960203121 -0.007158455810799644 
0.2375736792037335 -0.01096902670696798 -0.01202182319351241 -0.3559668924622012 -0.01125367533229221 
0.3656721460139287 -0.05110547620606093 -0.01540694106179765 -0.1421084123805173 -0.002385576565295200 
0.09815572041246744 -0.02296078983618015 -0.02014354610795264 -0.01559787836564514 -0.06857948217733391 
0 0 0 0 0 
0 0 0 0 0 
0 0 0 0 0 
-0.2010677360623688 0.2587748089266096 -0.01717104920405828 0.03518207575897483 -0.1109178832397863 
-0.03329072996553924 -0.009772497033577300 -3.969839449050256e-05 0.02302605344954825 -5.727295620166985e-06 
0 0 0 0 0 
-0.04546067259600369 -0.02029080481025619 -0.03613166308684889 -0.01375126899933145 0.1281280704845223 
-0.1516696512569509 -0.02405081851549306 -0.03151121838808848 -0.005504708296188662 0.4172460477778431 
-0.09188117676926688 -0.006395919214934850 -0.0003377613350895673 0.1156772272350665 -0.0001363140871248331 
0.5584243649748847 -0.004320799047187420 -0.01052990118321578 -0.4809887999125020 -0.007799263320463774 
-0.05445325563247323 -0.01421956853555187 -0.05930913995646524 -0.01043401247639611 0.1030055477882153 
-0.1413702846036180 -0.03565684731394728 -0.04350790341170599 -0.02664930148662240 0.4101498125190825 
-0.04659750493228329 0.03520705027745036 -0.02014873628977775 -0.002686724324563743 -0.002847515642997138 
-0.6516210353825328 -0.01262622650387181 -0.001713139228249486 0.5838510469805773 -0.01819411936160947 
-0.4377896540983077 0.4465421791163795 -0.04622170736223671 -0.009257405074677092 -0.01309871350068689 
-0.08195473378674782 -0.5157830555969422 -0.03182210817407313 -0.004119022881427677 0.7824881912211539 
0.7088681060967668 -0.1528650999826954 -0.06570283198550125 -0.4324541156720030 -0.1594982735499320 
0.06267337344601742 -0.05444274895628574 -0.006723270707231909 -0.01919126117054171 -0.01583284940508957 
-0.1191368901999728 0.1851031452804466 -0.007755065635247372 -0.003014668050661857 -0.01998363865908864 
0.03620293797751413 0.2618877118864135 -0.05447078995029048 -0.1385332444151230 -0.06045983779087118 
-0.08912848834824354 -0.001341797465704763 0.08563922184181272 -0.01453613886353663 -0.003768443149556427 
-0.2227079907640361 0.2284930358646150 -0.03248374600300105 -0.005875626036899317 -0.04912035685231040 
-0.1073257528115995 0.1141022291740552 -0.03514301981511071 -0.001826732390425148 -0.005902306839982868 
0.3155785800257348 -0.1676021800237869 -0.04305400766198882 -0.009624473651551666 -0.2024603649574615 
-0.04638420793641485 -0.02795927336737589 -0.07223142572809021 -0.01217397114518280 0.1915406206661868 
-0.1515217576245719 -0.001777697692658170 -0.002661349819197830 0.1783272605183308 -0.0009639080808976089 
0 0 0 0 0 
-0.1133288880745293 0.1837874083678416 -0.01231289759756287 -0.02199405192035664 -0.03546391459875799 
-0.1674018993477793 0.1464429322075937 -0.01536371763074290 -0.001700707481333705 -0.05205632510626573 
0.1891019893805392 -0.1837580903803288 -0.03726336239860151 -0.02913804718671694 -0.1152293032421892 
-0.1389607742490766 -0.02147630719110824 0.1768950281745741 -0.004373470105163139 -0.04745361494622198 
-0.3658887299301603 -0.07555927364868026 0.7963397673651710 -0.01599962776252959 -0.4186970233490330 
0.4458551544263795 -0.2468574377671108 -0.02394066842794047 -0.08346831007158706 -0.08416110819291485 
0.2243707165235056 -0.1138406488450119 -0.04135430972192134 -0.04034795312803619 -0.1157543063814908 
-0.1715624199089634 -0.1847027351942155 -0.009949540171747612 0.4757361990884241 -0.008789264667181600 
0 0 0 0 0 
0.04345430880388383 -0.05087658608689247 -0.03607995954477066 -0.03187005627062155 -0.02027834933807998 
-0.4631943555246961 -0.03398248060670430 -0.02617740411067339 0.4755353492044699 -0.02225083183451378 
-0.04914329795899914 -0.09562718614071505 -0.1145434038101471 -0.01141871663873887 0.1255087222913418 
0.01676398693274750 -0.03577582975133355 -0.009218631951767597 -0.02406113500121543 -0.04301599797747937 
0.1422889294005694 -0.1046609064280235 -0.02981737011218309 -0.03034052458165551 -0.07330438330088021 
-0.2627876792924537 -0.03521284984243205 0.4072421957901871 -0.02454640969100086 -0.01250758049901055 
0.02491711998552728 -0.01048205931153170 -0.1641802677781619 -0.01883022349800357 -0.01580114787422406 
1.039242625163293 -0.005402224798820667 -0.1541725594871704 -0.2268415105720719 -0.0007597305092884562 
0.3213677256029770 -0.002842814182951081 -0.01431609683441255 -0.4599192620388435 -0.01324758283465001 
0 0 0 0 0 
-0.5124697380620105 -0.02871025027151252 0.4841272288664967 -0.0009899028574478223 -0.003935778430581105 
-0.5576161961450132 -0.01002052178154644 -0.02044610697546847 -0.006781569977833867 0.5875599179598956 
-0.3128577965693961 -0.001248959434395770 0.1640369092783695 -0.009716938080845922 -0.001010108621494095 
-0.09167521808674150 -0.002608389547729516 -0.001340340866758324 0.05418595202364879 -0.0003608854343700969 
-0.06741018967366373 -0.03414396685942881 0.04245719248069228 -0.0007548604240161108 -0.0009934292325604619 
0.3798922346035429 -0.2376712682448106 -0.06222995189755808 -0.01284836833366855 -0.06638781813596012 
0.4161483911287390 -0.03146118074405046 -0.003611990131922013 -0.3870994172642654 -0.03296246123927198 
-0.2171708868569647 -0.09302626669870809 0.2801809146115227 -0.02141402523850881 0.1306228100524000 
-0.3179302089656835 -0.005286995841839091 -0.09731753028794823 -0.006995355146458560 0.3325569330311488 
-0.2497562348737654 -0.006245180243835259 -0.008298488617452023 0.3082199611556598 -0.01103353341554247 
-0.1499068222561826 -0.01266764363983638 -0.006414752640503294 0.2877102123801391 -0.006376528799193812 
-0.07484368013242829 -0.02535506711734913 0.1174782321814357 -0.002262486338110430 -0.005528774958384530 
0.2967436446434357 -0.01702058657286050 -0.01490493128617281 -0.2526910867478446 -0.008953202984799478 
0.7148080754834221 -0.3310752208787932 -0.2256887562652499 -0.01930608721413990 -0.1407841049768945 
-0.2573707810734414 -0.04722926267405767 -0.02370614110108276 -0.009670889559004801 0.3094348369928713 
-0.1544451042572260 -0.01753544363075111 -0.01647232678529920 0.02819513280036369 -0.006600955781891142 
0.1481216607885654 -0.03564809296376526 -0.1206619522652991 -0.02102801535155069 -0.08170788967013658 
0 0 0 0 0 
-0.09674281297498867 0.3575956758111960 -0.06117580023509228 -0.001404124624924476 -0.1424101094328480 
0.05311292436165902 -0.01762425009691488 -0.02075666880874786 -0.06489310882569314 -0.01986851087235008 
0.1105431815855300 -0.09491985029334546 -0.02096623610601524 -0.01538577359959185 -0.07278106926923314 
-0.2292482836085195 -0.002038991834948587 -0.002798250469005937 0.1906574348052487 -0.001549789861662026 
-0.07702189833546604 0.04160634231755860 -0.003356316409687343 -0.003545345522733467 -0.01734532220318357 
-0.3754829395305888 0.3488849205368663 -0.006530998140072991 -0.008189014563457107 -0.002689818428610522 
0.5656368720942409 -0.01819965097712821 -0.002224585394691792 -0.4950427614652573 -0.007602315584231445 
0.3705499272615095 -0.1244171844170216 -0.06147705418366318 -0.03718573427349557 -0.3627365095979849 
-0.2428157928112468 -0.01708622818849603 -0.002632221307667218 0.2796634915791928 -0.0005352135701096136 
-0.1981021027261349 -0.04454699900399733 0.3850762145424718 -0.01544025387521476 -0.03034111269965176 
0 0 0 0 0 
-0.4128141004047315 0.5223985217494626 -0.03059161058559434 -0.02399311397328813 -0.03207578207251406 
0.9844802907590109 -0.1915775462717921 -0.4771118695370691 -0.03303468466147540 -0.1081366746132035 
-0.06610809963105100 0.05242082416159053 -0.003359117348213947 -0.009380320613330186 -0.005525471938556278 
-0.2341980787754617 0.1543608838317360 -0.03326727605715633 -0.002811456125309050 -0.005419403844385325 
-0.08669720449147240 -0.04014538664835538 -0.02026431645643543 0.2368366829127790 -0.03104936522392241 
0.01845531705521046 -0.02262735569537212 -0.02952619437569636 -0.04034607698979471 -0.08187646425806866 
0.1025913625647243 -0.1517881524173624 -0.02455089028958863 -0.01657240601442768 -0.05603256595406949 
0.2172555206299175 -0.1862849760823057 -0.02130295824101413 -0.06737446137570521 -0.01051996290527778 
-0.3060894610038968 0.4849523865890690 -0.1145435768625984 -0.01322486693390741 0.3939456816570114 
-0.09833246043705993 0.07501198518337138 -0.04506821975987802 -0.002014093526320965 -0.001696610793110816 
-0.1978331032552352 -0.04047577079262760 0.3539156236841756 -0.01045880557062192 -0.05586671913691018 
0.06240071410844171 -0.03566058651630261 -0.03980135320070891 0.1621627109602456 -0.04508691711571826 
0.3753794343605612 -0.5240905832577575 -0.1466206171992548 -0.002978740913299765 -0.03761711628461523 
0.3535342178200064 -0.1126266142020568 -0.07412141174943121 -0.04253931411424705 -0.01274687923773069 
0 0 0 0 0 
0 0 0 0 0 
-0.2438826740683027 -0.003688767914071345 0.1552859121605351 -0.002731983089929621 -0.002071314247747597 
-0.1337386220050671 -0.1526560315209668 -0.2426241463164439 -0.04107379262712893 0.3121797960925412 
0 0 0 0 0 
-0.05348177870748135 -0.003727729641286542 0.1716328669630517 -0.01001826124304041 -0.08576476203692722 
-0.1862222721263566 -0.001607724108508440 0.1581808104983573 -0.01456532079729429 -0.002504439047582060 
-0.1031309444390672 -0.02765715378204399 0.2073482444609284 -0.002249737840094476 -0.06031624299737826 
-0.01409149211724922 -0.008587018984999079 -0.03447609191890105 -0.01248643490565361 0.03997879389771239 
-0.03863924452606449 -0.001043805926220545 -0.0009558706387216419 0.05812940601182296 -0.0002207676517821585 
-0.05431781935893520 -0.02212042675196325 0.05819400323112316 -0.002676246510089217 -0.02848570966945977 
0.1684178762555202 -0.003152652974727622 -0.1120624493139595 -0.09523365721752916 -0.003344149339472274 
0.1430957201788989 -0.04330849032854480 -0.06310697044091682 -0.02797602221537809 -0.05421405208125762 
0.03628177484098016 -0.02042994838567357 -0.03917267529330099 -0.04550158398147948 -0.02179670160364560 
0.1047537100076693 -0.02262997779467605 -0.08373893709147347 -0.03284834368950008 -0.01723586650886478 
-0.4654461298210260 -0.009075540858764561 -0.01098058374588409 0.3581692842328841 -0.006962873987662280 
0.7780915045298047 -0.08749287399111931 -0.5322367946464736 -0.005106036657516633 -0.1060418004830852 
0 0 0 0 0 
-0.1154990502850648 0.3400682892762560 0.1093782920726378 -0.1176801948643702 -0.002213028652508403 
-0.1534073975512391 0.1196929603291534 -0.009693221810474190 -0.002966050484824405 -0.003822628599679241 
0.2399880191561705 -0.01666506125089397 -0.02733414626147528 -0.1432728414343533 -0.003406889040936001 
0.4089493348098628 -0.1909153697411708 -0.04864571979401269 -0.04739566596567331 -0.05460429099019441 
-0.1620885922951849 0.2984780858237680 -0.01409324647942133 -0.03463556429160275 -0.04207295481261045 
-0.01345514451581226 0.01702483693915570 -0.003685878550718451 -0.004143413371850507 -0.01905533078501775 
-0.5790656335516815 -0.008294581832845620 -0.003584234974095346 0.6208083986594678 -0.007993357102959444 
0 0 0 0 0 
-0.02495157721914012 -0.001780621201269992 -0.002672315890793529 0.04350141516237531 -0.0001003739478984609 
0 0 0 0 0 
-0.1592409744453224 -0.006270399438890999 0.1609692008638428 -0.04243204052548767 -0.005324907078841698 
0.3134851143024877 -0.01389667699218163 -0.03056216297096591 -0.4223366647454850 -0.01802546297644851 
0.1415217339916990 -0.01392139633463186 -0.04937140675686855 -0.1532644200735059 -0.05075005747292220 
0.3526783398361766 -0.1081977150580624 -0.1269909046230455 -0.05863576557561793 -0.01147413082894544 
0 0 0 0 0 
-0.04134918607741787 -0.003584014713410315 -0.001233679410488863 0.05519399066449747 -0.0004065211736082385 
-0.1340411166181581 -0.003795249877069697 0.1178402465056516 -0.01250913353112973 -0.0008788772302564992 
0 0 0 0 0 
0.5500796750455296 -0.5637306814000617 -0.4034678583145656 -0.1784997343917584 -0.3945037386358645 
-1.589041414795768 0.9575313756745637 0.04099520773492565 -0.2146427669498497 0.2035324706503611 
-0.3288232728268578 -0.1247558080363496 -0.1440402590825315 0.2030704755492501 0.2107407563023427 
-0.5016728161232420 -0.4626272741165264 0.1413735471789032 0.05911478635933737 -0.09785633603752865 
0.3936059958409202 -0.7673777582462373 -0.7480180653024108 -0.1224138442985632 -0.8955762225122832 
-1.578435140703042 0.7144517207333690 0.4734044636365661 -0.7874107129508976 0.8223490767710724 
1.469190573556993 -0.7600498727844858 -0.9295791786840542 -0.8335305250526889 -0.3522314417488445 
0.4441262815347980 -0.4193501128231409 -0.2461645427225450 0.2360887047643343 -0.06244806059103495 
0.5451193995171237 -0.2112030043457758 -0.2246496927118441 -0.3078029075509307 -0.2644985498886543 
-0.06199167732970389 0.04605617469308621 -0.2058362716639908 0.05382939520809327 -0.3108069099249975 
0 0 0 0 0 
0.7540610669328156 -0.2764949693234613 -0.1688024091770454 -0.4811233781479987 -0.2304876023886347 
0.2746412151554813 -0.1304535024248295 -0.1448092686929986 -0.2145142979144682 -0.2058217132495427 
0.02648621545876053 -0.04197036317134691 0.05554696897416702 -0.03789261898343874 -0.1222552473371609 
0.6132606921898300 -0.3481156393621086 -0.2111286632972513 -0.2658942670989462 -0.5244625839215332 
0.4617089035741286 -0.1762420841902117 -0.2019639752097029 -0.2216465446616267 -0.2110622985568473 
0.06446672464534770 -0.08118496338471440 -0.01083933672364106 -0.01738588430483100 -0.08674419704210695 
0.1356202106730578 -0.1874858200216154 0.1343695045644502 -0.03915630842975736 -0.2009940652791164 
0.2120180732916610 -0.01641378406640860 -0.01188006550046460 -0.2399206502631085 -0.006481354651697687 
0.6120349128506984 -0.3725996093584776 -0.4571492723599889 -0.3658076179731503 -0.2649074633610410 
-0.2482692356659972 0.3974528511585457 -0.02672058956869793 -0.004296025908228015 -0.01769540277898631 
0 0 0 0 0 
0.1380761823560975 0.1517131882628504 0.6371282626534966 -0.5394145945949677 -0.3006853021514652 
-0.07509076956421973 -0.2442565334649004 0.2428029650576712 -0.007240212851727794 -0.2084460210700090 
-1.010196477740323 -0.3826023467916389 -0.2672887671621131 1.585542635128937 -0.4013622095298675 
0.2599196648053634 -0.3068198067584460 0.5155998616933707 -0.1324831602756107 -0.2618635665003410 
0.3043782541181326 -0.05844831406282240 -0.3180037203558970 -0.02721507125000352 -0.02881655036724024 
-1.563352338149407 1.612966557789303 -0.3616226857191637 -0.1614035722013271 0.4257698243484799 
0 0 0 0 0 
-0.06692097487639800 -0.03851318829823265 -0.02677596099057468 -0.02219605427779783 0.2147940539062504 
0.1422082488616187 0.1228850928893994 -0.1891062247390312 -0.3631797158245582 -0.4954333828825770 
1.043106633029540 -1.013632423386553 -0.03882332824109622 -0.2610835400109840 -0.3866502044193579 
1.299814533372819 -0.4519898331465996 -0.4175648907779619 -0.4171732529365725 -0.2941718238242647 
0.4133612691344485 -0.004233599821364358 -0.03850000377299662 -0.5698835504214386 -0.009694826245454877 
0.2106335106904070 -0.1656578493623696 0.2249873583073179 -0.03979501423652437 -0.1251469311952207 
0.04037825349265752 -0.1399346786840477 0.2571904929396506 -0.09064937883372695 -0.2251827869634377 
0.1587319343152362 -0.08468287688203345 -0.04093846272828722 -0.09922319431705498 -0.1153506745919540 
-0.09674281297498867 0.3575956758111960 -0.06117580023509228 -0.001404124624924476 -0.1424101094328480 
0.09096874145480882 -0.3618808187068145 0.3703267573781540 0.3092076037662254 0.02415302789939040 
0 0 0 0 0 
-0.2148033675752727 -0.2567552852817363 -0.2948548344270482 0.5696474463496216 -0.3211239734293389 
0.06801829808278483 -0.05616005150695918 0.1767265384402877 -0.05640866583153373 -0.1333232826366912 
-0.1416698994861139 -0.03062064533783644 -0.1559106675510893 0.1929057568258228 0.1385139618032502 
0.3861562987141681 0.08015490475046559 -0.1499490644764907 -0.1034854885568048 -0.2324358432123025 
0.4757773586370613 -0.1976836030337862 -0.1311883555721192 -0.01998222033422868 -0.09105047973282188 
-1.697407732777390 -0.3586927133192201 2.102684536020405 -0.1948299735705866 0.7016239231351551 
-0.1432408572564413 0.3786979839558456 -0.09477555793564402 -0.01577482728448489 -0.03824063380392004 
0 0 0 0 0 
0 0 0 0 0 
0 0 0 0 0 
-0.2606193331839081 0.3736624361804966 -0.1553627651910582 -0.05991691204317414 -0.1110593089389108 
0 0 0 0 0 
0 0 0 0 0 
-0.2352637803846798 -0.005628163349498581 -0.005368419072661980 0.2504137838237449 -0.006061870347315250 
0 0 0 0 0 
0.8782873762589780 -0.7451645039233815 -0.2848523882730661 0.2618325250985664 -0.2136157449342689 
-0.2518748665564073 0.2453760915996565 -0.005533022848373584 -0.001662782332114171 -0.01819178224389154 
0.1235734762250697 -0.1684946158560032 0.07870229783098273 -0.1573184712830963 -0.1516232161615179 
0.1214806433952272 -0.01657533280078863 -0.03180976334700099 -0.07188528905270110 -0.02617076005958393 
0 0 0 0 0 
-0.06774839308115725 -0.05061867277432637 -0.01074709417308038 -0.006003943278981599 0.1882299601097401 
-0.7371214174962354 0.3276465653669394 -0.02952178603904390 0.4235728456344867 -0.005375953955058010 
0.002447184465935205 -0.9311178638567325 0.2761552380763113 -0.06464884991785234 -0.5458334647371852 
0.2973871032174158 -0.1670691830391575 -0.05580453293825564 -0.04209819000000439 -0.1435499327077981 
-0.4228045029195910 0.08698558811549166 0.09916937756148250 -0.01643910267087668 -0.03199167413325356 
-0.2062058148093933 -0.1263730735928612 -0.009185195201031084 -0.0007642803283712407 0.3021680732296453 
-0.3713324719001444 -0.1006303102261860 -0.01304821372874646 0.3119371262717259 0.1554578794953694 
0.2850361500153025 -0.2000865294886237 -0.03012581403091260 -0.05418937005631155 -0.1298443460993054 
-0.8428402400088543 0.9603128007001547 -0.1077159664365690 -0.1026768514590536 -0.1671322276892233 
0 0 0 0 0 
-0.1537218858950342 -0.003812923529998976 -0.0006664572281853360 0.1102536991831196 -0.0001309693970691990 
-0.1078622413358184 -0.06374288823963967 -0.2002090534458393 0.1110857144831577 0.4258853378908600 
0.2862613340353302 -0.1746045030986917 -0.01985876307765072 -0.1272744941276932 -0.06657617397214956 
0 0 0 0 0 
-0.1366822914564757 0.4076122479735085 -0.03401540117443572 -0.005861377617377229 -0.1197021163663767 
-0.1085539757179702 0.2210277812907462 -0.09922678105948735 -0.04316975621114341 -0.03299137217784221 
0.1699935972507445 -0.2566415534199169 -0.01467449100851870 -0.02580422205755863 -0.02890882433380934 
0.6540641770519877 -0.1822630225048530 -0.1084081681409771 -0.4497668979821812 -0.1446903712768998 
0.07637696892495466 -0.03471234638012403 -0.05917477254420836 -0.03329174271961980 -0.03480523938933668 
0.2021520366293468 -0.02088358872507713 -0.05888252415778184 -0.2569047951971574 -0.04029558987611286 
0.2037750091301395 -0.04300688598418789 -0.1306996298889023 -0.02160558953941019 -0.04212778463047044 
-0.6583796760279274 0.4225092693134547 -0.07921154538562460 0.3489383696936890 0.07495234685525884 
0.3117797433886904 -0.2902792911934148 -0.2579086030490402 0.3344658168917973 -0.03043118615595734 
0 0 0 0 0 
-0.1898825952061756 0.07453642301078720 -0.2511282711397376 -0.01493471742683770 0.2826386206665644 
0 0 0 0 0 
0.3169249840353205 -0.1910814185849012 0.03455299989590596 -0.1057228941628438 -0.1518494047753831 
0 0 0 0 0 
0 0 0 0 0 
0 0 0 0 0 
0 0 0 0 0 
0.4786670162810348 -0.4011069389643474 -0.1088979471770549 -0.03914034464647309 -0.2275090613162313 
0 0 0 0 0 
-0.2840677578656412 0.1357793897544968 -0.005249873922398244 -0.0003670462080445912 -0.004165594360748197 
-0.3508370486155391 -0.008855516370190619 0.5286321840483023 0.06372979856613399 -0.009098442102076665 
0.2670400780994064 -0.1630439942831976 -0.2433890648460541 -0.1423907509868292 0.04610686481694556 
0.3528279888324079 -0.09937517255866918 -0.07018268126905593 -0.07615288816383260 -0.06632153904061090 
-0.2606852646015302 0.5120413647830553 -0.009973706937200373 -0.02372145484965679 -0.06008218912307833 
0.2317125967263312 -0.05910901178868412 -0.02955389301596321 -0.1769888176904179 -0.06354937979315158 
-0.1280165598717899 -0.05763221130878304 -0.01385399419961619 0.1434912649875060 -0.04793187716285505 
0 0 0 0 0 
0 0 0 0 0 
-0.09420398643412363 -0.02033202607322544 -0.006268697956920226 0.2355434932857946 -0.007277703692175925 
-0.1312613370209695 -0.05930558542993716 -0.01669879074312236 0.1587961786871481 -0.02853809967043951 
-0.1576438362943624 -0.03846161426987244 -0.03593367067218626 -0.01084557670174562 0.3610321604265666 
0 0 0 0 0 
-0.1047044228572683 0.1921089345784447 -0.02735446347754559 -0.005361319153860811 -0.01757449812561145 
0.1201837486640748 -0.02343175097972069 -0.07179134151710996 -0.04633223913919631 -0.03755514459829473 
0.2802213694394959 -0.04336111399001707 -0.1892606904492409 -0.04163507534414963 -0.1268588531480212 
0 0 0 0 0 
0 0 0 0 0 
0.3292885995746898 -0.01168085527019471 -0.05512227818579501 -0.2826410520551597 -0.01923980228170433 
0.1286547272301946 -0.07256494256191932 -0.08418102060349344 -0.007018561189975563 -0.04297707460212918 
-0.4474952021118836 -0.02286831871363024 -0.0007645761635002894 0.5852138491137421 -0.002848367714708684 
0 0 0 0 0 
-0.3889497668071844 -0.01349871015201039 -0.009700313811002753 -0.01112883780055826 0.4405343092629438 
-0.1268765272502007 -0.02986745344632676 0.1041941301517080 -0.1693947353903186 -0.01756064160179709 
0.1715842600710142 -0.05216873643065043 -0.1784016604675802 -0.05575756893584859 -0.01968323763815061 
0.3508414446323688 -0.02113317214964023 -0.01480261536739222 -0.3368444684568917 -0.006832353585588566 
-0.1642398429314824 0.3840629189225118 -0.01132472210065967 -0.05904458027595802 -0.002960705058373116 
-0.2621169054213941 -0.05486564789882607 -0.2632484433716104 -0.06376118814761103 0.5872947420161858 
0 0 0 0 0 
-0.1116673649042529 -0.008402558965002622 0.1390349222418024 -0.01440620329886437 -0.008204492003951876 
0.3162070008674593 -0.01195359737284953 -0.09264462982245270 -0.2009811965748836 -0.01269806949046486 
0.1049188255332747 -0.01512070455846602 -0.03940858840180891 -0.09022131594592805 -0.08219614990228627 
0.5893577426228608 -0.2258465454313749 -0.1306070635206419 -0.05548008464106004 -0.06112253498592876 
-0.2749137834853471 -0.002945953190940112 -0.02581585552108905 0.4007412991960070 -0.01946594919782525 
0.02599634889935767 -0.09832136976497707 0.3553206026920362 -0.09571208227958942 -0.1883346213695827 
-0.3574714686443892 -0.0004744057434844754 -0.002173524049338012 0.1689488444266660 -0.001773048912600370 
-0.1536719988687260 0.3479772396901869 -0.05954803182494953 -0.01007915437624506 -0.02196523807789049 
-0.07493565769124752 0.2165130825932834 -0.01048440837410988 -0.01618707161907327 -0.002220810155451753 
0.1960956700647570 0.004583401671152643 -0.04701116279860550 -0.1473745104304689 -0.03170368098503568 
0 0 0 0 0 
0 0 0 0 0 
0 0 0 0 0 
0.1630822098437977 -0.1323601993434252 -0.05309078364366896 -0.1382451973309906 -0.06184267403114518 
0.4343094577523746 -0.3636577238139237 -0.09985295645028460 -0.02519479068894570 -0.07357546957152827 
-0.1764552201103424 -0.1023771635042222 0.3749893690181820 -0.003336726776263347 -0.1058908028551478 
0.1624561727676541 -0.01258483525138871 -0.04662799262814037 -0.08264380693750603 -0.02731688787278580 
0.4395317084009537 -0.1230369713882142 -0.1423241516131420 -0.03610460900329023 -0.02643755749769959 
0.09728030289888245 -0.03867369823537930 -0.02186979439865578 -0.05107536209716675 -0.01009583820115789 
0 0 0 0 0 
0.2250076501797414 -0.05394775075871085 -0.1012251842591783 -0.1407961821649172 -0.1412639608426877 
0.2148259392137132 -0.04470554663422256 -0.08383774464549093 -0.1075579788414396 -0.005238976808975841 
0.03069375640220536 -0.2834156464265584 -0.06844911589949317 -0.02369781419513021 0.2237750494502879 
-0.1703237620029408 0.3771605520706327 -0.06948702933393750 -0.003033034088430365 -0.05105774485227504 
0 0 0 0 0 
-0.2567370100239733 -0.004019109945073119 -0.003836430347980745 0.2578394875121545 -0.001481823386086942 
0.1020504640895810 -0.03903228716811412 -0.05272094712736111 -0.07014066310091589 -0.07258815896517806 
-0.01031951812078634 -0.1837796798241281 -0.07649669325120409 -0.1186562106351818 0.4132480739373972 
-0.2037337776382519 -0.1568975579601257 -0.003255498985498141 -0.001263780732853293 0.4137173285421205 
0.09173306167185541 -0.02105939466271748 -0.005542392471787588 -0.05541151665011850 -0.007327109214737184 
0.2580294408445557 -0.2520242501626349 -0.02330464695299208 -0.002366924990543294 -0.04897215008105973 
0.06446672464534770 -0.08118496338471440 -0.01083933672364106 -0.01738588430483100 -0.08674419704210695 
0.2251731532037664 -0.06501088770810745 -0.03454204123264526 -0.04702192537220840 -0.07096962243811206 
0 0 0 0 0 
0.08962362538574660 -0.004304519924327068 -0.02378774381155133 -0.08106867433525640 -0.004057596075100605 
0 0 0 0 0 
0.2284773093553496 -0.1032130692225905 -0.08092050692032503 -0.009454207237865700 -0.04825921689678937 
0 0 0 0 0 
0 0 0 0 0 
0.2330544036622751 -0.009205110668935087 -0.1449167048724923 -0.04737248861981415 -0.02151315033382275 
0 0 0 0 0 
0.2644565326404008 -0.06228128180662276 -0.04072460860183666 -0.1368522773966049 -0.03604477748198289 
-0.4725168338666874 0.8660600151947805 -0.1007041725977230 -0.07226567377330635 -0.2608061200343552 
0.07223680257266330 -0.04753331007649839 -0.03335164494929330 -0.004076578091660914 -0.01067014583662529 
0.1042656666420725 -0.004523757187878600 -0.001495595017010590 -0.2428928017262244 -0.008129543495046639 
-0.01447090747416340 -0.02506622919845530 -0.001152233710110713 0.01846820883895389 -0.0002136802465567180 
0.1722941734792146 -0.04313931271606766 -0.05827160951503826 -0.01760387609009479 -0.03663089161728702 
0.09704570458506550 -0.02471120738215053 -0.04452062311793247 -0.01032290687478917 -0.03746313809508271 
0.1328276560579252 -0.05260682580547547 0.03725485275076121 -0.01325080151085492 -0.1290524386311422 
0.09406197724382566 -0.01022927158256169 -0.2601542673924460 -0.003880099351204683 -0.02404995787976001 
0.2738729365529314 -0.003280418687042777 -0.3336235496583835 -0.01276952652429676 -0.0002665530191960283 
0.2880040258921480 -0.02757155898843336 -0.09268971436536060 -0.07998544655836094 -0.06553139881648720 
0.1856904418514581 -0.005193587766442831 -0.09348806669383411 -0.05300134537404636 -0.02451912177855293 
-0.03464593863815537 -0.005567219804220448 -0.001831305200756806 0.04065313928164089 -0.0005722702708322817 
-0.02044014340783371 -0.03202811785664639 -0.07868177483004789 -0.03509790583679388 0.2070140099157723 
0.2362283207907558 -0.09149515694903068 -0.1693662900940689 -0.01544931666019519 -0.2253711391368126 
0 0 0 0 0 
0 0 0 0 0 
-0.2240177706645974 -0.02459604674658514 0.2488818568133964 -0.004191881948665505 -0.01339735317318916 
-0.07643817733472132 -0.007504056659919295 -0.03164257682302335 0.07459221104465390 -0.03868882454598871 
-0.3246656626476650 -0.05121581090804871 0.6107686337054132 -0.04497005928556591 -0.1007112413948434 
-0.07460908412439729 -0.002936637946788009 0.04046535385655797 -0.01695637960203121 -0.007158455810799644 
0.2375736792037335 -0.01096902670696798 -0.01202182319351241 -0.3559668924622012 -0.01125367533229221 
0 0 0 0 0 
0 0 0 0 0 
0 0 0 0 0 
-0.02934195632549632 -0.02833323192796268 -0.02622685081792060 -0.02198130388841969 0.08685093723922300 
-0.04546067259600369 -0.02029080481025619 -0.03613166308684889 -0.01375126899933145 0.1281280704845223 
-0.05445325563247323 -0.01421956853555187 -0.05930913995646524 -0.01043401247639611 0.1030055477882153 
-0.2685404359683477 -0.2476378465083556 -0.4666426134093855 -0.08655941864080598 0.9948692082626724 
-0.2976768847448711 0.3618231610671672 -0.01050219577313132 -0.003091636527858859 -0.03722942587272725 
0 0 0 0 0 
0.01211844362913565 -0.06660992194545200 -0.06703423395752130 -0.05075687523100805 0.05719163662327817 
-0.1289957944406671 0.1894807695611451 -0.02335358200341406 -0.0008052524797808933 -0.03813445207236995 
-0.1819375338076036 0.1962983418629611 -0.02032988152338380 -0.001690087244332883 -0.02066207597069756 
0.5785412333644630 -0.4730879405530598 -0.02764756482991015 -0.04664171046695837 -0.04284941954133015 
0.2354703596344634 -0.03943431103025185 -0.09476297825150207 -0.03406998198958194 -0.3977101603734132 
-0.04638420793641485 -0.02795927336737589 -0.07223142572809021 -0.01217397114518280 0.1915406206661868 
0 0 0 0 0 
-0.5105699806067073 -0.008610133023043398 -0.007634979224325055 0.5856542535479201 -0.001919070559888759 
-0.1380358530671868 -0.1391355182559531 -0.01498653012996885 -0.008140471706105733 0.5737396583795673 
-0.2703848312156838 0.2999375988187820 -0.02646990655156482 -0.003788520756402813 -0.05734192484368554 
-0.03653477735322979 0.2344589148511850 -0.01536427174462512 -0.1258537846590075 -0.03158035654248061 
0.5723834250546236 -0.1134963345318982 -0.03994466770565236 -0.2169167023452686 -0.1433201344741603 
0 0 0 0 0 
0.01676398693274750 -0.03577582975133355 -0.009218631951767597 -0.02406113500121543 -0.04301599797747937 
-0.3643494532753212 0.2604873088369637 0.2428652111383388 0.4122002743119936 -0.2398860293408631 
-0.2627876792924537 -0.03521284984243205 0.4072421957901871 -0.02454640969100086 -0.01250758049901055 
0 0 0 0 0 
0.03319837646836527 -0.02927582286616489 -0.02632907573553201 -0.003228682408021607 -0.05091156097578511 
0.2355591015868855 -0.001324819122475632 -0.1328954823786385 -0.1338372240965256 -0.001422786249063188 
0.2369219586550704 -0.05508295501646739 -0.1765772113691357 -0.01018883458532949 -0.08608810849219413 
0 0 0 0 0 
-0.5576161961450132 -0.01002052178154644 -0.02044610697546847 -0.006781569977833867 0.5875599179598956 
0.4161483911287390 -0.03146118074405046 -0.003611990131922013 -0.3870994172642654 -0.03296246123927198 
0.5684389944420595 -0.08854271615798688 -0.09462630910884869 -0.3904563272219665 -0.04213016577643278 
-0.1361752509555463 -0.04051927268157799 -0.06016276191757158 -0.001740323875541262 0.1925530399633310 
-0.4375078891035246 -0.01560417078265012 0.3565754442245215 -0.01062193355640392 -0.01840891421971758 
-0.1499068222561826 -0.01266764363983638 -0.006414752640503294 0.2877102123801391 -0.006376528799193812 
-0.2573707810734414 -0.04722926267405767 -0.02370614110108276 -0.009670889559004801 0.3094348369928713 
-0.002987189479796324 -0.01183095817072222 -0.05525473303479439 0.04417192658690048 -0.05011785331152451 
-0.2306728436485064 0.3941775956635477 -0.03487887056349480 -0.005893711247120154 -0.02063437995395502 
0.05311292436165902 -0.01762425009691488 -0.02075666880874786 -0.06489310882569314 -0.01986851087235008 
0.1105431815855300 -0.09491985029334546 -0.02096623610601524 -0.01538577359959185 -0.07278106926923314 
-0.1981021027261349 -0.04454699900399733 0.3850762145424718 -0.01544025387521476 -0.03034111269965176 
0.01845531705521046 -0.02262735569537212 -0.02952619437569636 -0.04034607698979471 -0.08187646425806866 
0.1025913625647243 -0.1517881524173624 -0.02455089028958863 -0.01657240601442768 -0.05603256595406949 
0.2172555206299175 -0.1862849760823057 -0.02130295824101413 -0.06737446137570521 -0.01051996290527778 
-0.1298457713986910 0.1527751575095690 -0.03735639161669584 -0.01164152863245580 -0.007732602010665976 
0.1857718816020443 -0.06386433161497287 -0.06827394115032558 -0.05149660176417151 -0.1554446122049048 
0 0 0 0 0 
-0.09744541278573257 0.3585191532992820 -0.03363014736162368 -0.05276442234379530 -0.002140417869505336 
0.4089493348098628 -0.1909153697411708 -0.04864571979401269 -0.04739566596567331 -0.05460429099019441 
-0.1620885922951849 0.2984780858237680 -0.01409324647942133 -0.03463556429160275 -0.04207295481261045 
-0.1436410502577377 0.2323448995364387 -0.01798440410501165 -0.006268293632254483 -0.02298971808543314 
0 0 0 0 0 
-0.6516210353825328 -0.01262622650387181 -0.001713139228249486 0.5838510469805773 -0.01819411936160947 
-0.2622715567967571 -0.001439062955168035 -0.03722584818085042 0.3933360361197524 -0.001853110861087621 
0.1668666914808271 -0.01451685781271491 -0.02154192826442784 -0.1810254626520952 -0.04422377063287604 
0.1644699951648080 -0.08719960808740974 -0.01066227484730275 -0.1122167857970980 -0.02211536163767466 
0.3134851143024877 -0.01389667699218163 -0.03056216297096591 -0.4223366647454850 -0.01802546297644851 
-0.06881106235446160 -0.02264018516726396 -0.01041643955171120 0.2584037780628353 -0.01128917309894410 
0.1415217339916990 -0.01392139633463186 -0.04937140675686855 -0.1532644200735059 -0.05075005747292220 
0 0 0 0 0 
0 0 0 0 0 
0.09079568863192157 -0.6545842759971191 -1.061976286563784 0.3701153049994862 -0.2577487236755269 
0.6120349128506984 -0.3725996093584776 -0.4571492723599889 -0.3658076179731503 -0.2649074633610410 
-0.3615806399485815 -0.4294203714937437 0.3256240095718960 -0.4884761574608439 -0.1502981710738312 
0.02678093830641942 0.08993323475213294 -0.3326322041824303 -0.4698066315198855 -1.006749360513991 
-1.130498215258582 0.3261594686148831 0.5624638945412341 0.1985842235297204 0.5425976194925345 
0.1994713976087794 -0.7059623374227470 0.09452919659216086 0.006381358106875124 -0.1009280088773909 
0.1422082488616187 0.1228850928893994 -0.1891062247390312 -0.3631797158245582 -0.4954333828825770 
-0.3528961185459912 0.2595329164871306 0.05456012257879111 0.1661829832280693 -0.1513973060822141 
0.5430009426638339 -0.2892040122591289 -0.5437086042978303 -0.4392697367175609 0.04478234659350189 
0.2044162609053726 0.4856976729945208 -0.4121152724673050 -0.5467772491060411 -0.4265937656693724 
0.9887257312751134 -0.6127684381232117 -0.8781773573109924 -0.6263462986175734 0.3784881166158313 
0.3359011825984971 -0.6670217345687044 0.1768889186224494 -0.2174009621712403 -0.5201336293951141 
0 0 0 0 0 
0.4245418607223230 -0.3210703892183321 -0.1778301070862347 -0.1913234512181443 -0.2624390535700445 
0.07637696892495466 -0.03471234638012403 -0.05917477254420836 -0.03329174271961980 -0.03480523938933668 
-0.1268765272502007 -0.02986745344632676 0.1041941301517080 -0.1693947353903186 -0.01756064160179709 
0.07876690792253717 -0.04625532898252455 -0.04133497934389219 -0.09189905346176640 -0.01983745065901792 
0.2120180732916610 -0.01641378406640860 -0.01188006550046460 -0.2399206502631085 -0.006481354651697687 
0.3502867958784725 -0.02668522756535972 -0.7538800332104075 0.3696859871089017 -0.04350205677727215 
-0.2827679186587348 0.3119006020535669 -0.002293180266520393 -0.004643235823119406 -0.001870290833088816 
-0.2827679186587348 0.3119006020535669 -0.002293180266520393 -0.004643235823119406 -0.001870290833088816 
-0.2827679186587348 0.3119006020535669 -0.002293180266520393 -0.004643235823119406 -0.001870290833088816 
-0.2827679186587348 0.3119006020535669 -0.002293180266520393 -0.004643235823119406 -0.001870290833088816 
-0.3186811433595738 0.2012647468538508 0.1139175668116222 0.1866394007011225 -0.06559994074685763 
0.1784362170344892 -0.1919052952134916 0.03273286630081190 -0.1428316011683028 0.1429902791228356 
-0.2827679186587348 0.3119006020535669 -0.002293180266520393 -0.004643235823119406 -0.001870290833088816 
0.4041293132925082 0.2488413275758001 -0.4137584782588326 -0.4027073249272247 -0.1920843834590792 
-0.2482692356659972 0.3974528511585457 -0.02672058956869793 -0.004296025908228015 -0.01769540277898631 
-0.01197010270512379 -0.008859822033828374 0.1267064575208577 -0.1055347433876099 -2.841458268020006e-05 
-0.5312076038377240 0.8154551621741691 -0.3252150932197579 0.4537930683030703 -0.4774141089948686 
-0.2816754100552398 -0.08192214753974492 0.4707511011284212 0.05747696829350777 -0.3262284576397280 
-0.2707487817941489 -0.04051411449450722 0.1949226079917246 0.09881661110748230 -0.02082492617730191 
0.2246317947848532 0.1113380084533496 -0.07623462539430798 -0.09603243845844592 -0.05538696437004285 
-0.04589852479150557 -0.002041715142493777 0.08953159459453593 -0.04364383399188120 -0.0001227608685220690 
-0.2320098207428083 -0.01901440085382692 0.2835370406120585 -0.1871533955688198 -0.1244080433777881 
-0.04353351997792557 -0.05121256352889027 0.2531895063123498 -0.001441875736573473 -0.1428894952156498 
-0.04353351997792557 -0.05121256352889027 0.2531895063123498 -0.001441875736573473 -0.1428894952156498 
0.5334152715203669 -0.006152628737287912 0.01053521571443170 -0.4464821678652404 -0.008504676292542491 
-0.5026332144822605 -0.1243554208152512 0.4160074915494170 0.4394297927087136 -0.4899073880624753 
0.5130764733814160 -0.2660890577996701 0.1278522365813720 -0.6692084205462971 0.3439280295733684 
-0.3099284752516920 -0.1040274084078532 -0.05524792987144722 0.5134065763426241 -0.02121054304297450 
0.1548614085604326 -0.03613639912957740 -0.03971249474057373 0.08594895759581259 -0.04238047062946386 
0.2482327523397612 0.08435795547776631 -0.2865663984809743 -0.03133242542563054 -0.1887175439606886 
-0.1568166474622778 -0.08703603565036860 0.1479040451087700 -0.003006160782713603 0.1687416597450776 
-0.1568166474622778 -0.08703603565036860 0.1479040451087700 -0.003006160782713603 0.1687416597450776 
0 0 0 0 0 
-0.008718807758796833 0.08306258806680906 -0.0002669258291469156 -0.003637063477618754 -0.09835267497269376 
0.06525291708488691 -0.5298309129384048 -0.09839595145034677 0.03507099223955454 -0.2157182467612328 
-0.1966463528422406 -0.0008353387430707301 0.1777489341739899 -0.008223935732335830 -0.001114303001179433 
-1.301771532935330 -0.4314691420362867 -0.2977485361219743 1.483519306605317 -0.1658334467054001 
-0.06692097487639800 -0.03851318829823265 -0.02677596099057468 -0.02219605427779783 0.2147940539062504 
0.2789373705331334 -0.005780709507667558 -0.1012425778587233 -0.1682210442197628 0.1938466071586898 
-0.1535521284566214 -0.001251932577547250 -0.01150771894698764 0.2260531263333863 -0.002475574566962112 
-0.5311246261524728 0.05304322688500829 0.1351439158404676 0.9121116638943658 -0.06891504864802692 
0.2067421081852253 -0.09457629050537629 -0.1201167143217406 -0.01182030170076332 -0.07772787956843440 
0.1169906466621507 -0.02781030279364721 -0.1538194288734183 -0.01136003985070627 -0.05360672137051846 
0 0 0 0 0 
0 0 0 0 0 
-0.005625437299922221 0.02082673094939385 -0.004719266751017023 -0.004598790060230605 -0.01783325349105350 
0.9121442268025597 -0.1413414431249290 0.02753375515903715 -0.9474797590572958 -0.1233558702983376 
-0.04597628825875384 -0.1112760784093514 -0.04543782659447418 0.2853428862310450 -0.1155026068580828 
-0.1296620731688770 -0.001508688634079789 0.1582067043101797 -0.004615020919593919 -0.01054188650133777 
-0.2387260683207612 0.1229488963262728 -0.3036580857950078 0.02726539024491288 -0.08177372263425821 
-0.01528867611433736 -0.003250853744696418 0.06996834626454362 -0.06804204258825840 -0.0001462447528228130 
0 0 0 0 0 
0 0 0 0 0 
0 0 0 0 0 
0.4850613083618834 -0.008611730744273408 -0.003100489179968334 -0.5505834531300875 -0.001677889485761052 
-0.2487262236473881 -0.08621115879307695 0.3431601908348683 -0.04510427742067505 -0.1772478690692264 
0 0 0 0 0 
0.3971969334331921 -0.4711926678545838 -0.2352520087239046 -0.3214215017907311 0.5081282981062797 
-0.1131146138590631 -0.003075336198280133 -0.001009861029979005 0.1287600760313128 -0.0005381232233878120 
-0.8530361723114458 0.2264777306803033 0.2871739759730539 0.4091988428738473 -0.09630473536764408 
-0.3603528094925835 -0.005628874262574956 -0.007026833450177835 0.4119707529019144 -0.002382966560770156 
-0.3051000641970920 -0.03194622825955346 -0.001286387674541490 0.4926679956986750 -0.003287809124849331 
-0.02383550232042703 -0.006452322536541423 -0.0006363869405307531 0.05551689233649128 -0.0003114948073927715 
-0.1118798233627134 -0.001753898726815754 -0.0009073980129054150 0.1423159706137029 -0.0007279199627733370 
0 0 0 0 0 
-0.2194340301741952 -0.002439659764295362 -0.005537710488869832 0.1545100814166184 -0.003767730676852318 
0.2427378870374664 -0.09899679010826361 0.2813368762580838 -0.2765389327930339 -0.06499530451936940 
-0.02155555199626136 -0.001551530976961642 -0.004059262829398955 0.01933658780269180 -0.002995000311157649 
0.1882407591094002 0.5158232346716258 -0.05764779172434698 -0.1451406885188511 -0.08294068475585271 
0.06801829808278483 -0.05616005150695918 0.1767265384402877 -0.05640866583153373 -0.1333232826366912 
0.06801829808278483 -0.05616005150695918 0.1767265384402877 -0.05640866583153373 -0.1333232826366912 
-0.6376612305145427 -0.006744149016725517 -0.02954248060800422 0.1039755587174299 0.5868138103287442 
-0.7258584565529185 -0.02988696295663969 0.4718137165595533 0.1563203353372147 0.4917458920467258 
0.2252379335608093 -0.1459597752877465 -0.2948917287497129 -0.08636015363182026 0.2879833186490574 
0.3669610442894584 -0.006006636875670407 -0.01040037491168935 -0.3547208187578561 -0.005011629117861452 
0.3669610442894584 -0.006006636875670407 -0.01040037491168935 -0.3547208187578561 -0.005011629117861452 
0.2261979337369825 -0.1535170258385250 -0.09064762324391383 -0.01623912580065957 0.07484308528366113 
0.3946288386167879 -0.1487816766516751 -0.08723125467465463 -0.01157042859764626 -0.08246704772244291 
-0.06167129619282606 -0.001867564715144969 -0.001310941072489060 0.03303680479575410 -0.0003781582447053751 
-0.2513021089922986 -0.002514154437004673 -0.002126001274209111 0.2604693628280513 -0.0008307130055239374 
-0.1391318687864584 -0.0006520624243946495 -0.003101092868655027 0.1809721469337586 -0.002258423578968237 
0.6387910573914806 -0.005741127942024383 -0.009618602720064536 -0.6716474857250331 -0.003293295575031065 
-0.2399169834726523 -0.04454150670818553 0.3143927299973322 -0.001243908142086814 -0.02368548467300544 
0 0 0 0 0 
0.4734145226688748 -0.1077558711091236 -0.03221306132575723 -0.6227384871304561 -0.07598903865551061 
-0.06755755709176185 -0.004994097912841368 -6.113468446613510e-05 0.1435620953655152 -3.400590529522695e-05 
-0.06755755709176185 -0.004994097912841368 -6.113468446613510e-05 0.1435620953655152 -3.400590529522695e-05 
-0.5335069804703005 -0.01112635104706632 -0.3242552899187435 1.035861606741978 -0.006508399493045082 
0.3335756149250273 -0.2030198690481905 -0.1548053423061569 -0.3513342173318790 0.2579757602685152 
-0.1672325075769928 -0.002272391779583119 -0.0009629370389086725 0.1440831010771759 -0.0003374825086931349 
-0.3220395777933692 0.08305493803213007 -0.1271077872688117 0.4787586935503236 -0.1021431935668626 
-0.1661879465544166 -0.005772531836833570 -0.0001553902210554664 0.1258121163442312 -0.0001460576706593569 
-0.08897636958277365 0.2128207150172729 -0.01294068017094424 -0.0003338312450284946 -0.1107567377415784 
-0.2067564161468724 0.2885253390376719 0.1563529142330241 -0.4448366861297312 0.1939471591037149 
-0.08885912064902839 -0.04977824677745618 -0.04568950298957116 0.1852363440729568 -0.01007805788992140 
0 0 0 0 0 
0 0 0 0 0 
0 0 0 0 0 
0.05623381536293792 -0.005368866828698392 -0.01118674747046066 -0.03410775585822912 -0.004495628280140338 
0 0 0 0 0 
0.2448748141973124 -0.2478277756156150 -0.02737204196392379 -0.003694759727286489 -0.07120887688478085 
0.05623381536293792 -0.005368866828698392 -0.01118674747046066 -0.03410775585822912 -0.004495628280140338 
0.3569439909875120 -0.02971798678902292 -0.009230285451863284 -0.2128972535885030 -0.01459636040221916 
0.05561475434996837 -0.04238782720138552 -0.004410382912240464 -0.09149529486276035 -0.0005196374165637883 
0.05561475434996837 -0.04238782720138552 -0.004410382912240464 -0.09149529486276035 -0.0005196374165637883 
-0.001337273055648458 0.002288228869752028 -0.09717030980189405 -0.003044890660178051 -0.05029184723868723 
-0.01879401460234015 0.01626821337304434 -0.003522918135163913 -0.001390762751222750 -0.008208864790285833 
-0.2391987714972120 0.2197492629957072 -0.05199438888380988 0.1262255594821577 -0.2207350966553099 
0.3756450731176736 0.08296477059916091 -0.1627052427333474 -0.02703157449845507 -0.1901626110701837 
-0.3276320472565593 0.2449206566159822 0.1365883804446310 -0.01988349666060647 -0.009262111924326620 
0.07235241623468336 -0.03942595663213084 -0.01929621223008132 -0.1410324449947751 -0.008611894707648530 
0.01599503157319955 -0.01687746974138202 -0.004674191725993603 -0.01096719847035345 -0.003532501121456526 
0.01599503157319955 -0.01687746974138202 -0.004674191725993603 -0.01096719847035345 -0.003532501121456526 
0.01599503157319955 -0.01687746974138202 -0.004674191725993603 -0.01096719847035345 -0.003532501121456526 
0.01599503157319955 -0.01687746974138202 -0.004674191725993603 -0.01096719847035345 -0.003532501121456526 
0.1214806433952272 -0.01657533280078863 -0.03180976334700099 -0.07188528905270110 -0.02617076005958393 
0.1214806433952272 -0.01657533280078863 -0.03180976334700099 -0.07188528905270110 -0.02617076005958393 
0.4688842529291916 -0.1679076920568386 -0.2979750772223641 -0.2050606997461164 -0.1531978800042993 
-0.3820619444641523 -0.02517321071861096 0.3993197160917373 0.2986830894222230 -0.1065921141943687 
0.1510982779321676 -0.09944515376663386 -0.03497679914728941 -0.01015798650843406 -0.01200230229871364 
0.1510982779321676 -0.09944515376663386 -0.03497679914728941 -0.01015798650843406 -0.01200230229871364 
-0.008069230425980133 0.01556071013780566 -0.0007622989881408336 -0.03040669529107907 -0.008443806819793164 
-0.1099676094921119 -0.005724811376213662 -0.008581725604326837 0.1391109882813953 -0.0003764476750171150 
0.1658408088046044 -0.07905455619495023 -0.03001638832011549 -0.1093319756930633 -0.009098897054420947 
-0.07772754666036469 0.1077696919010342 -0.02370601256958963 -0.0003604590050495819 -0.006276451021457998 
0.03390104429602089 -0.001187880082333006 -0.0006808972349479866 -0.05631869220254018 5.042389415946204e-05 
0.03390104429602089 -0.001187880082333006 -0.0006808972349479866 -0.05631869220254018 5.042389415946204e-05 
0.2890820980900136 0.3940277994563677 -0.3043847092154850 0.2659324167143922 -0.1482717302635836 
0.02578436189694891 -0.01100805011935361 0.3191853288411998 -0.2760979886363760 -0.03377231829242128 
-0.007015837753052312 -0.002904632113551740 -0.005379970978755050 -0.005254747973487626 -0.0008885235303092089 
0.4607284558883772 -0.01342202697370859 -0.3743477250420976 -0.06671660002445581 -0.002849127095628888 
-0.007015837753052312 -0.002904632113551740 -0.005379970978755050 -0.005254747973487626 -0.0008885235303092089 
-0.007015837753052312 -0.002904632113551740 -0.005379970978755050 -0.005254747973487626 -0.0008885235303092089 
0.3052018893816834 -0.1800042649034168 -0.1669472841001708 -0.02794193076584840 -0.09475379624825386 
0.01141061337286369 -0.01459949625820110 -0.002553253369490907 -0.01727420493118252 -0.001368358169764158 
-0.3265300034743334 -0.1155009305427744 -0.01744684395235832 0.4215085374487730 -0.01344021573511412 
-0.06670169311021527 0.07211997795562711 -0.1801025463901588 -0.1835555771558677 0.2566380210595515 
0.03693383624907626 -0.001724551725969486 -0.01093649026589475 -0.04265399410238395 -0.003583002843536370 
-0.2880753585466737 -0.01746102207283682 -0.006175651514752563 0.3148129763595393 -0.01021462501959358 
-0.2877702088909580 -0.07161158494887654 -0.2372884977510729 0.2533795886343175 0.3481974106638308 
0.3170634260340524 -0.04977145086809319 -0.02605061910522957 -0.2494637468597494 -0.01353778729482569 
0.09340560760560997 -0.02082632480767638 -0.005996978969535896 -0.1053916199752695 -0.004233920049818998 
0.1279485207359604 -0.04567181802503002 -0.01700641676592542 -0.05413480856610485 -0.01711250118860208 
-0.2134949882048152 0.3815104893706025 -0.02428490026168594 -0.09218363739362784 -0.02706566389764257 
-0.3925395890115231 -0.1072062047271930 0.6294321832695899 -0.08450105457404453 0.1675426428347734 
0 0 0 0 0 
0.2337270953724136 -0.02132195357428228 -0.03207847499759865 -0.3057915883308671 -0.01813939291385104 
0 0 0 0 0 
0.009996745538286125 -0.02886058189312145 -0.007375347168461275 -0.01529999296690326 -0.003729830708802820 
-0.04081941732139264 0.01220496355957300 -0.01965101610804703 -0.004079338584184530 -0.001985674522493910 
-0.3535265479016098 -0.08435232882138329 0.2483837871561427 0.1541684867915399 -0.02208164609643993 
-0.1261717234284885 0.2436137457212586 -0.02178773648022332 -0.004880545308908920 -0.01119900925800370 
0 0 0 0 0 
-0.4709660385850915 -0.05214681919954830 -0.02092366102836924 0.2495307860377804 0.4483846906392507 
-0.09475156894335891 -0.06256681969798253 0.1998161842070481 0.2071487159094719 -0.05559808337213847 
0.4948366492890409 -0.1549014952943697 -0.1026554447065999 -0.3814420180516743 -0.02107758547521183 
0 0 0 0 0 
0.07075753292769547 -0.001023450029852343 -0.004222421888016831 -0.1680538525989554 -0.0006959207520871994 
0.1974811827221488 -0.1252946989945501 -0.009423411862991489 -0.08053634076072765 -0.008951395024251400 
0.1974811827221488 -0.1252946989945501 -0.009423411862991489 -0.08053634076072765 -0.008951395024251400 
-0.01023911671851147 0.03635966599601401 -0.03012913201599042 -0.003105554545909760 -0.01519338776769511 
-0.1499675004796282 0.04660649102769136 -0.03858350272749686 0.1534293053583357 -0.01962105050629788 
0.1117569593054242 -0.06846065252137655 -0.002014598515142992 -0.02774707460757586 -0.008898640147009619 
-0.02268540174150446 -0.002514855820668877 -0.006888259023293418 0.02052834095195015 -0.001168142352587609 
0.2297219140142460 -0.04036905828982822 -0.6371523271434900 0.5677544938022557 -0.02545044446774843 
-0.005220545141215808 0.01511601471365834 -0.004642810124888757 -0.007831574991040249 -0.003824584056785067 
-0.005220545141215808 0.01511601471365834 -0.004642810124888757 -0.007831574991040249 -0.003824584056785067 
-0.5444548399613827 -0.01008762193543629 -0.01705495276169763 0.5301056332962373 -0.006052460054161202 
-0.1278732161539133 -0.001914812163873916 0.1291094890105462 -0.008775726616870580 -0.001374455987697199 
-0.02268540174150446 -0.002514855820668877 -0.006888259023293418 0.02052834095195015 -0.001168142352587609 
-0.03847355020037917 -0.1023013792808439 0.07038150569094898 -0.002688357498078704 -0.006661266339672086 
-0.5614603848489952 0.5101124243121808 -0.06935450594911240 0.5129144697714549 -0.09255022934490630 
-0.01795690546719902 0.02285764772603639 -0.007144284308245067 -0.0006766716724924211 -0.007430713498910758 
-0.2422600882944230 -0.02416088889641838 0.3364956987047907 -0.001945561766750933 -0.02622487082189767 
-0.09307475920447249 0.2826264286798269 -0.006454229529374727 -0.02691682305456842 -0.01461320051253434 
0.1862587706839848 -0.2498312797700442 -0.02876066255835699 0.04047744500452358 -0.02645216061014830 
-0.002547614147172530 0.01574051847495012 -0.06431524644376811 -0.04842763710609493 -0.02311785530344860 
0.1131225838224879 -0.07240554569540240 -0.05697517402733557 -0.04657281021602656 -0.03342678687074445 
0.2430043338233149 -0.1660828341795346 -0.09521312906686935 -0.01273217689735902 -0.1187199152808307 
0.03273457852684325 -0.001870513557240055 -0.03629368113242855 -0.01303989806489051 -0.002564836223841109 
0.2959131450944725 -0.05032452731783135 -0.07228646971422059 -0.07509938962103326 -0.005842564512897181 
0.1502161654039379 -0.01070956622588769 -0.2447310833857601 -0.01719637303389844 -0.01615471339359868 
0.07637696892495466 -0.03471234638012403 -0.05917477254420836 -0.03329174271961980 -0.03480523938933668 
0.03175278298299409 -0.004763040308325358 -0.02007609102365926 -0.05440637406069390 -0.004547163406496105 
0.4289481623339059 -0.1080177736922953 -0.1652416711215476 -0.06862751491161857 -0.1130974070685825 
0.06873494627499695 -0.002583237870436144 -0.001472236684223010 -0.08507566036803783 -0.0001305119671575093 
0.02726290472017475 -0.002932427993073766 -0.01501478283675669 -0.02946264339704185 -0.002817757425934420 
0.09473508496218475 -0.04526845592071885 -0.04694788677811194 0.1332355553544436 -0.01487359689376272 
0.09473508496218475 -0.04526845592071885 -0.04694788677811194 0.1332355553544436 -0.01487359689376272 
0.09473508496218475 -0.04526845592071885 -0.04694788677811194 0.1332355553544436 -0.01487359689376272 
-0.1906944892125919 -0.05693339205332602 0.02657589434512602 -0.003950677693221223 0.2205144948009928 
-0.1697626912486066 -0.04039007460584736 -0.01098612271542322 0.3693074207780522 -0.003813078332489288 
-0.4436778958699248 -0.04122015246685086 0.3831515424728435 0.2950153040133193 -0.005064832636479812 
-0.1697626912486066 -0.04039007460584736 -0.01098612271542322 0.3693074207780522 -0.003813078332489288 
0 0 0 0 0 
0 0 0 0 0 
-0.3488215837868683 -0.01015625874291807 0.2157785050989817 -0.006487143660764000 -0.004126267037714278 
0 0 0 0 0 
0 0 0 0 0 
-0.3970735008168013 -0.02431572500529342 0.3900185593018439 0.2837531351398920 -0.008601765475312840 
0.03938892588767698 -0.006075906402373073 -0.02087392085004143 -0.02178405351889911 -0.002378536810650382 
0.04429455679204883 0.1318824599309556 -0.1051828167471348 -0.004718783269504031 -0.08170103888340269 
-0.06461598309539872 -0.1298785008814514 0.1077857374673259 -0.01335060427985089 -0.1931326140390557 
0.4616713462648499 -0.04575052483448461 -0.002224360202602461 -0.4148139772835924 -0.0006071086595252342 
-0.2576149984892235 -0.02325854986581580 0.2397232411351128 -0.0009024413358802230 -0.01698497298146113 
-0.04408736827519058 -0.006121951577591138 0.06809042664439266 -0.02255993301580758 -0.0008102164119938542 
-0.09443218944375034 -0.0009912368577977132 0.03783892086186801 -0.003332692160923302 -0.0009199943891304627 
0.2824226740234916 -0.2782195757556714 -0.01694588403521737 -0.09268611892648286 -0.02736351470251023 
0 0 0 0 0 
0.02218055743673421 -0.002264475344202473 -0.01652217136482606 -0.01833594485571361 -0.003857088997005695 
0.02218055743673421 -0.002264475344202473 -0.01652217136482606 -0.01833594485571361 -0.003857088997005695 
0.2689351010955965 -0.03620335985395976 -0.05206704250190462 -0.2178289948273954 -0.002863472952285004 
0.2689351010955965 -0.03620335985395976 -0.05206704250190462 -0.2178289948273954 -0.002863472952285004 
-0.1366822914564757 0.4076122479735085 -0.03401540117443572 -0.005861377617377229 -0.1197021163663767 
-0.1366822914564757 0.4076122479735085 -0.03401540117443572 -0.005861377617377229 -0.1197021163663767 
0.7384541272543287 -0.07191298852211284 -0.09845580554311180 -0.5572445644405186 -0.03045411940300203 
0.1597387632391600 -0.02847497020257906 -0.01115194219018821 -0.08353941130940964 -0.005255051875535710 
0.06785758646989312 -0.03487088941751391 -0.01148970352527778 0.03213781592565685 -0.005391365962660543 
0.3549093574168795 -0.03715796988968419 -0.01247760048606275 -0.3596550484260175 -0.007670473949709001 
-0.2177927052021882 0.2575720083767785 -0.001608936152535833 -0.004911048338123129 -0.04229643146099445 
-0.1923487163653474 -0.1057756291414122 0.3721242009683672 -0.007017727145163777 -0.005875621492069189 
-0.8579757077456482 -0.004167622289636282 -0.005895832469283381 0.6954742585708821 -0.002564582297053080 
-0.08867785294953576 -0.06115128781301409 0.1763391003384889 -0.003530531152545608 -0.004670249198580625 
-0.02791322943935330 -0.002509359346332407 -0.001487749019414101 0.03090647153561792 -3.007043570883678e-05 
-0.06094459765602223 -0.01058042825456175 -0.002563860030308859 0.05796963386518901 -7.651677593520107e-05 
-0.1170628790109158 -0.0008369244037844170 -0.003491144214733451 0.1501660111034660 -0.001918958350704071 
0 0 0 0 0 
-0.1366615298311195 -0.009040714692985992 -0.003091597740797059 0.1016435151143079 -0.0008416550777799274 
0 0 0 0 0 
-0.1843111403978396 -0.001358514475922873 -0.001391824567109094 0.1651028384165771 -0.0002270658663089331 
0.2263099385698870 -0.007180699283998575 -0.006538780685972601 -0.2588066391032640 -0.002878600926035026 
0.02364781606112259 -0.0006873717822146248 -0.004629785621945123 -0.04309200559171272 -0.0004665176411249868 
0.02364781606112259 -0.0006873717822146248 -0.004629785621945123 -0.04309200559171272 -0.0004665176411249868 
0.02364781606112259 -0.0006873717822146248 -0.004629785621945123 -0.04309200559171272 -0.0004665176411249868 
0.4106210789677266 -0.005822184808075701 -0.005146956118863509 -0.4239094775198410 -0.002651535059726094 
0.06187433025291353 -0.008932278811732008 -0.001849269535216376 -0.08492241963556241 -0.0004837639283566250 
0 0 0 0 0 
-0.2840677578656412 0.1357793897544968 -0.005249873922398244 -0.0003670462080445912 -0.004165594360748197 
-0.3522440348740154 0.1206083604258927 0.04559212626832528 -0.001109275653981370 -0.005972779210854056 
-0.03685740597097838 -0.02195556195297957 0.03897981190346535 -0.001195997614733022 -0.002876067548637651 
0 0 0 0 0 
-0.3508370486155391 -0.008855516370190619 0.5286321840483023 0.06372979856613399 -0.009098442102076665 
-0.1330316683858692 -0.007622961486246742 -0.03021639104905196 0.2517939398190742 -0.005221160284348655 
0.3549617224405802 -0.06397068957539181 -0.04156831217599839 -0.2032892332305919 -0.008296650943587607 
0.2317125967263312 -0.05910901178868412 -0.02955389301596321 -0.1769888176904179 -0.06354937979315158 
-0.02869539075862476 -0.0008785414160533829 -0.008898779447266435 0.01845587971286368 -0.0002095398270289800 
-0.01175831367592567 0.02176700347071982 -0.008771454089468950 -0.0009578514575102662 -0.01205681920237957 
-0.1280165598717899 -0.05763221130878304 -0.01385399419961619 0.1434912649875060 -0.04793187716285505 
-0.02442711127413808 0.02066768116427610 -0.002545978003386932 -0.001478334576361141 -0.009827737680258710 
0 0 0 0 0 
-0.06817627700837417 -0.01517102932860409 0.05084200019072353 -0.0007422294459367787 -0.001807184850105859 
-0.1939347104669869 -0.004862836473651410 -0.009975520035890454 0.1779874398576899 -0.01270525026534993 
-0.1576438362943624 -0.03846161426987244 -0.03593367067218626 -0.01084557670174562 0.3610321604265666 
-0.1576438362943624 -0.03846161426987244 -0.03593367067218626 -0.01084557670174562 0.3610321604265666 
-0.03341773929054201 -0.0006472552586232940 0.09100662305507201 -0.05642250490546029 -2.751625898425522e-05 
0.03347194601105294 -0.004392388344626587 -0.01877757410794666 -0.06945506187628223 -0.002414845643849488 
-0.09451096570646395 -0.01906108014508293 0.1400812923013013 0.001648602238110536 -0.0009517102132311598 
0 0 0 0 0 
0 0 0 0 0 
0 0 0 0 0 
0 0 0 0 0 
0 0 0 0 0 
0.06771622121893262 -0.001122073948791460 -0.01859749314712464 -0.09217226271284247 -0.002294713660953904 
0.4217097950932862 -0.06774632066752317 -0.2288551227340137 -0.02186334642643008 -0.02363113525319462 
-0.1469247753662182 -0.02928546694691664 0.1983961880033261 -0.003281799230472249 -0.006852563380934302 
-0.01161243321469413 -0.06320444374285772 -0.0006012203629101383 0.03142976826736926 -0.0001224238456670054 
-0.01161243321469413 -0.06320444374285772 -0.0006012203629101383 0.03142976826736926 -0.0001224238456670054 
-0.06062770250216631 -0.03442073161550301 0.1140560569222497 -0.001483535524126060 -0.003177146316796774 
-0.03424427520787968 -0.003270314395835127 -0.0001800809608220164 0.02271720083656025 -0.0001201319828955845 
-0.6435412207238621 -0.001903931097573201 -0.002401405986185778 0.6186200594890513 -0.001677040740077276 
-0.6435412207238621 -0.001903931097573201 -0.002401405986185778 0.6186200594890513 -0.001677040740077276 
0.2439252960463537 -0.1079206236392798 -0.01577281898167608 -0.08302858593935505 -0.01848947078474931 
-0.4006966943834522 -0.007529781423640481 -0.004561182630545866 0.3140408385966123 -0.0009508749212553734 
-0.4006966943834522 -0.007529781423640481 -0.004561182630545866 0.3140408385966123 -0.0009508749212553734 
-0.1600609305159133 0.1577221207641223 0.07693432720074313 -0.008785459629413668 -0.02765672061098817 
-0.1047044228572683 0.1921089345784447 -0.02735446347754559 -0.005361319153860811 -0.01757449812561145 
-0.2296183421568496 0.2747384489781568 -0.009056737673411384 -0.007355627601579662 -0.004986970216923192 
-0.2296183421568496 0.2747384489781568 -0.009056737673411384 -0.007355627601579662 -0.004986970216923192 
-0.2596089191334620 0.02640569747452963 0.1984185244725793 -0.008642238596180218 -0.006590057684450294 
0.2673434356202038 -0.05439352415553536 -0.2892126662073545 0.04643389662437989 -0.01387406562452783 
0 0 0 0 0 
0 0 0 0 0 
-0.07708999500599413 -0.0009525851022989669 -0.008828547333638978 0.1124285594091219 -0.0003185541833592992 
-0.2575741160726768 -0.001169364885308689 -0.0004320545114419261 0.2006406621448688 -0.0003602329278010623 
-0.3672923834798609 -0.006482921583574549 -0.002470257355874088 0.2938760841016475 -0.003233989829804996 
0.05939192192405490 -0.01589467757713637 -0.05590099350370800 -0.002249070128420741 -0.01971265497785307 
0.1703992536463527 -0.01612054841675177 -0.03880643313412258 -0.2024984211364635 -0.03574842646961675 
-0.2698966776506349 -0.004213822306941656 -0.0007787153179129932 0.2803919819267390 -0.0004728526961487388 
0.08765153077693832 0.2797035762632043 -0.1321465462513519 -0.03526662090786812 -0.1369780213384406 
0.05643184117149358 -0.01008005130649621 -0.01213665774304728 -0.07956859213140201 -0.04008444658697888 
0.5388576270137113 -0.005720527708776017 -0.008759703146010548 -0.8098898128066336 -0.003370567937849074 
-0.08706053617829201 -0.003270182021442228 -0.1256762072263285 0.2066368167058515 -0.01840923580825786 
0.5468863548215103 -0.2380754276876646 -0.07685276574672698 -0.01344798579174019 -0.2050459368774861 
0.5468863548215103 -0.2380754276876646 -0.07685276574672698 -0.01344798579174019 -0.2050459368774861 
0.1286547272301946 -0.07256494256191932 -0.08418102060349344 -0.007018561189975563 -0.04297707460212918 
-0.4474952021118836 -0.02286831871363024 -0.0007645761635002894 0.5852138491137421 -0.002848367714708684 
0 0 0 0 0 
0 0 0 0 0 
-0.06824326326324422 -0.001937124689546032 -0.0006675206413200260 0.04006132462722222 -9.598860494370882e-05 
1.011623256176562 -0.01647924315409405 -0.02147848334954086 -1.008825048110766 -0.005551777865617579 
0.2354194375882534 -0.09811955120161646 -0.05511642948780338 -0.008339637245579302 -0.1354637309495451 
