solver_type L2R_LR
nr_class 5
label 1 4 5 3 2
nr_feature 5014
bias 1.000000000000000
w
0.5493915269747562 -1.098533767599903 -0.1133817242692327 0.3754543219613279 0.1319805874157009 
0.2536703740576751 -0.2817819922883055 0.3064809425574308 -0.5045391583426374 -0.05821359754895547 
0.4178645634067054 -0.4561476996144664 0.5904128828776587 -0.1984828763646231 -0.4497015075860248 
-1.128176224973098 1.129509186069507 -0.4143828704658827 -0.05286408049023957 0.2331774208151312 
0.1489856146198821 0.4926653400056517 -0.2441040490213764 -0.1507331165495076 -0.4093718630058172 
-0.02332522079691154 0.2276534730753508 -0.3012818357148153 -0.01589487351316350 -0.1388417331232816 
0.06869548864148950 -0.5330227654168036 0.7825774621571053 -0.06636487424713233 -0.3455131689788807 
-0.3504507626964660 0.6068899343686687 -0.8814183885722163 -0.06118054287227847 -0.2783728100706054 
-0.3282110855552203 -0.1840217863565350 -0.2820380587403171 0.3147273569735491 -0.04457330022824878 
-1.078483338536910 0.4413992413605044 -0.08691188125819801 -0.03892431409692831 -0.4269513327953908 
0.1422071565047038 -0.2319122934517501 0.09304147436169147 -0.1765629946245924 0.1466685619972448 
0.1068898989236350 0.4540925491052628 0.1884775750298866 -0.7249374547354734 -0.1490765087910845 
0.8770190487257086 -0.7616643843493762 -0.04619587297181352 0.05658622343599552 -0.01726013396461582 
-0.003525740796502950 -0.05762465361104037 -0.02003482636789611 0.06291541886667448 0.0003233863174974538 
-0.05642257904771007 -0.3738337098022648 -0.03713631013414406 0.2885834004855786 0.09951971919602201 
-0.4841376190345241 0.5848719368296655 -0.1255391493396448 -0.05716215978364767 -0.2882984181673926 
-0.3111646267684283 0.3989962007741007 0.05463809182890937 0.009191817684158903 -0.4329527932655754 
-0.2232195888616278 -0.1339876194505253 -0.2643700988726934 0.1923456253027656 0.1458460752494542 
-0.08665682538171532 -0.005534629587585195 0.01179893011464759 0.1498313445994035 -0.1074207460828563 
-0.1698794549937894 0.05039738020153615 -0.09904326308116562 -0.1547216761980111 0.2122332095252039 
-0.1754294569526294 0.8561658963500965 -0.4283799249432664 -0.6028249167603961 -0.1292898347488166 
-0.004571533679047802 -0.1243197490348197 -0.001848489597898903 0.1520707026109003 -0.001937037961056042 
-0.1979348906694664 1.023669169503403 -0.2494479674188250 -0.6116262779961144 -0.07804029596953749 
0.3182916668589333 -0.3358182094838290 -0.3510045482738810 0.5374157429326128 -0.2651504690303316 
-0.3117284701732856 0.1102728628180208 -0.7135391588299882 -0.2188758655776209 0.3892394144760524 
0.2085711628371129 -0.5938179438455518 -0.1039528050007881 0.4607775177930734 0.09812555921906872 
-0.2821631419948602 0.3886870517984560 -0.5511305490520721 -0.2852228152164901 -0.3784123489985644 
-0.0003629770521685194 -0.4501312087357928 -0.02799155092342875 0.6418989159983100 -0.007675012839086048 
-0.1634549852090655 0.1898108629400135 0.09488297535320170 -0.09265787918841312 -0.1125275241053456 
0.2730417662093063 0.01348065392403079 0.1333669061617550 -0.6042250327923702 -0.2076183941000099 
-0.001681099005712876 -0.04215110202970194 -0.01155667969131877 0.05645028125937661 0.0001536116412051028 
-0.003568466066255922 -0.1291795578115336 -0.01224176339476736 0.07488566144833655 0.0007184280505709508 
-0.2537260770724696 0.4103465738237564 0.2649130842033924 -0.5195959512376681 -0.07121084015972318 
-0.1934040767211761 -0.3347118326844903 1.010177416730422 -0.3559087866167346 -0.08338692901562042 
-0.001285038612632086 -0.1714559093831547 -0.001347182321802309 0.09037484632586935 -0.0007782913679109272 
0.2775487535755386 -0.08863050816642534 -0.3834542618437863 -0.2956997652536019 0.2093916285906782 
-0.1111751253269820 -0.4879385742364443 -0.1220885711073490 0.2188216876410914 0.7366448099653357 
-0.2012555161418830 0.2816636329576436 0.2152889152756146 -0.2133170710782727 -0.3932489817446414 
0.03571322332201038 -0.2431076657812531 -0.01735275586022633 0.1414431191701667 -0.004206250698234460 
0.03069499923090355 0.4591537097033220 -0.1060810952501308 -0.3320219223316767 -0.3344543216926313 
-0.1673857099376759 0.5520654044370557 0.09369719242631555 -0.5451677176082489 0.05659578785434308 
-0.001466548697985345 -0.3688058670537168 -0.01272993361429911 0.2843142668013541 -0.0008868662011241047 
-0.02113746597224443 0.4108506340416356 -0.06676113743334915 -0.4478692731578462 -0.01552469674054962 
0.05732451342744142 -0.06375502535177584 0.4153516277843769 -0.2599879889851044 -0.07635898176030630 
-0.06882775106517480 0.02068204423287360 -0.08195126972738585 0.2132797392125160 -0.02766925859235415 
-0.1718219903659707 0.4974918112123096 -0.2393075047128066 -0.1860650108639179 -0.2301895428683860 
0.2054399400991919 0.1711473993209373 -0.1290177781590080 -0.3314513201512552 -0.02466957105967028 
0 0 0 0 0 
0.04102517014284806 -0.06734532497152755 -0.2506100738298643 -0.2445938319982226 0.5131213147872552 
-0.005069390125333809 -0.01524747683365132 -0.003279889956807530 0.01735427464920725 -0.001543843087787426 
-0.005584153171716450 -0.02966522389757302 -0.001484095662705519 0.04126775805006619 -0.0001974038968557567 
-0.001237772591218137 -0.01309054266594611 -0.01263729698264094 0.05059414495798455 6.215276307920486e-05 
-0.002603969500273943 -0.08835692335353337 -0.002954052061180858 0.09875184403934864 -4.888284580174427e-05 
-0.002244361429598401 -0.1240715524092902 -0.003007230102609798 0.1197119342168544 -5.315885594450113e-05 
-0.01385548834286868 -0.3356484219287669 -0.004192351412510327 0.4280879500589957 -0.003884998572445660 
0 0 0 0 0 
0.07413201456281104 0.7307684035103439 -0.8347797243946422 -0.7454874842935187 -0.3994899652942617 
0.5366671981216962 0.3255948036663761 -0.5628406719700942 -0.2900913406722625 -0.2790404517105492 
-0.8094761645175292 0.3404916823318301 0.3345360540284469 -0.6503657308780714 -0.1737896611817232 
-0.2083539476418702 0.05543828751945247 0.3479028321476614 -0.2855433721864886 -0.07921464717374549 
0.7686793285027924 -0.6168996814925304 -0.9994034072740694 0.3702195832119551 0.06968129740269110 
0.4464293679219605 0.8564902984568827 -1.345025361056162 -1.076161359333522 -0.8990934103488489 
-0.7760407404715930 0.4642778751159947 -0.04338953562504508 -0.3900190423982676 -0.1485763365199305 
-0.7126551319285772 -0.2807282398152691 -0.7241583854688347 0.3932231953349655 0.1507864688163570 
-0.6951689418155197 -0.06166639854887456 -0.7325466837638418 0.6336330051196003 -0.2794151919534880 
-0.1495775999330989 -0.6562982655484488 0.7788339645805027 -0.09258802624478375 -0.05711257609781052 
-0.3286939973251511 0.02993206496840035 0.3702761996990667 -0.2650805776088192 0.1128500547879214 
-0.5064491569003152 0.5469776449697419 0.1290280337988674 -0.6674250083476919 -0.5686654871414843 
-0.2337458843383709 -0.1877294474673993 0.7314839161864506 -0.2066574938597771 -0.07063007624274233 
0.04310667734630549 -0.5997613157953755 0.09591705542690640 1.116684141296572 -0.1656477441177214 
0.1829743753316011 0.02708350418591532 -0.04687676040857678 -0.1630489843967203 -0.06787032345363554 
0.06571333239915639 -0.02284361807791806 -0.007535516260186504 -0.02708488420480889 -0.001036791839203322 
-0.4110488743654632 1.091938465935095 -0.1217808009692332 -0.9254948106352349 -0.01009270411789871 
-0.06811580555571213 0.4915634142430929 -0.2258238809762325 -0.2257585623803526 -0.09090647016500478 
-0.005164723846514480 -0.009693375610018255 0.01512807226670731 -0.002383427776112400 -0.007291158698393826 
-0.02220777543517774 0.2078029415920360 -0.3109570981834883 -0.02724239118370289 -0.01980612685137162 
-0.009170599817288837 -0.1379153612625546 0.2921973386065246 -0.02231653619160398 -0.007833816192776838 
-0.02179798519162632 0.2773801703758075 -0.2942571726284762 -0.01727115670799612 -0.02981353625367590 
0.2371540013653916 -0.2991846395077617 -0.0005131837620514033 -0.001419998533428415 -0.002790058288946157 
-0.02110917752019147 -0.05526900252516655 0.06854921885502863 -0.007653882341946231 -0.004092071559182150 
0.2566002066327230 -0.9671814798794653 0.09714330581100285 -0.1281147574773094 0.9176304208662903 
0 0 0 0 0 
0.08125422314682906 0.06304491847212546 -0.03593677399179028 -0.05674560663310292 -0.03187479458836987 
-0.01475925309584710 -0.08449489809165102 0.1861461181831017 -0.07566698050495572 -0.02556108421778430 
0.09078888253530086 -0.08740155740090472 -0.006466012748475039 -0.01355997590731265 -0.03579368242572112 
0.04585959963374219 -0.2774822367367421 -0.03055017092646444 0.4511298710803299 -0.01909450508416313 
-0.1003890511054994 0.2448442034388250 -0.1714417762423884 -0.04964138830086039 -0.07011368589770198 
-0.06622996399404066 0.07560541505081670 -0.02348835068588421 -0.07347200746892140 -0.04145804913096841 
-0.06343948630690895 0.6306173304343382 -0.006460572783087173 -0.01904819057987863 -0.003727588620348087 
-0.09421024744643368 0.1472901934810432 -0.07662811255410157 -0.005263958027857442 -0.04737281046802064 
-0.004818702088598324 -0.7497784747463386 -0.009786634857412884 -0.003746924987150611 0.6288167006100970 
-0.04724394529501294 -0.3704780935231574 -0.2587039042724039 -0.007353819847285971 0.7121523438289031 
0 0 0 0 0 
-0.1438803056401119 0.06167772447963036 0.08064583880288453 -0.08725469893795038 -0.05399805006119132 
-0.3570717373679294 0.7547433531210869 -0.2526155638137018 -0.3192621243461527 -0.08616440508857057 
0 0 0 0 0 
0 0 0 0 0 
-0.06419800450334817 -0.5032893973354785 -0.3012515229094737 0.2085109547312287 0.9709131876546646 
0 0 0 0 0 
-0.02820714745992235 -0.1107974292234840 0.2318521132157826 0.03456775817542793 -0.04967065329452226 
-0.002628881846666513 -0.04467479453931521 -0.01249489389069330 -0.001131905358485950 0.04828013410429097 
-0.007776736065264804 -0.4294181635234416 -0.003825186493775748 0.4464776518772666 -0.003075968849709689 
-0.006785033149034586 -0.3186377447137470 -0.004175465109798797 0.3285950495222745 -0.003904890326940868 
-0.1526831455496185 0.2396170756904164 -0.02334390507153442 -0.07633481711892716 -0.03691820922757019 
-0.05246797846017235 0.09421355198347446 -0.03658404012316312 -0.02004867175154639 -0.04681498513537366 
-0.03995439355057581 0.04516419777914948 -0.02325256217571675 -0.03589534469527467 -0.03462238334004731 
-0.03765783530771751 0.09003413828486086 -0.01999108378950974 -0.03418240053029444 -0.01967327659032398 
-0.01648995335212043 -0.2253431447731159 -0.008626341997972355 0.1576672890453704 -0.005435644451875539 
0 0 0 0 0 
-0.003108061993649119 0.1898328633864702 -0.1688595838785231 -0.03791984348545389 -0.06359363614755753 
0.1018041492955493 -0.1773846655822599 -0.1438595950585516 -0.05814552123703821 0.3272356958268539 
0.4601031600648943 -0.6016708773539976 -0.01059280845375432 0.3477093387278298 -0.008765054231860640 
0 0 0 0 0 
-0.05414644654405514 -0.07047845360496210 0.09917327812172146 -0.002364144783391625 -0.02670593248495680 
0.3162525845522653 -0.5089444931037547 -0.003488534292848866 0.2059683492574479 -0.004643698308004622 
-0.4540248169611825 0.02279539021568905 0.7046813081268598 -0.04315295666052867 -0.06495885414881197 
-0.0002112443677587065 -0.2302574263126103 -0.001056368110861817 0.1322642693202977 -0.0004694027160535118 
-0.1362859156755906 -0.02174319820139395 -0.1458209888076587 0.3852757067429344 -0.1264665449646372 
-0.01256587214004888 0.07354833246261795 -0.1001337175113109 -0.01956357928813220 -0.005319646596486807 
-0.001559630586468582 -0.05314736321738511 -0.003792040956540393 0.04739274448993413 -0.0004182330974765173 
-0.0008272006894947538 -0.1345132820304447 -0.0007277898451253483 0.1048734270670666 -5.175434324299265e-05 
-0.001995189694120329 -0.2602287053448260 -0.01400643110535410 0.1746682130432615 6.810083241568822e-05 
-0.005389962300384956 -0.1837999169855241 0.2081181856549097 -0.003448365340783262 -0.02329111653514956 
-0.003972232263171556 -0.2306451475743466 0.1201536509198077 0.1156300015998223 -0.005272364140500045 
0 0 0 0 0 
-0.005177436995857860 -0.1773500880810812 -0.005605223245196147 0.1960724968015762 -0.009329618179892746 
0.2371161729195860 -0.1483393047753281 -0.05749077023461608 -0.001619776012005218 -0.003929998149766375 
-0.04043479114022416 0.03838642909777266 0.06347343242849586 -0.2621055109301251 -0.01441796064807576 
0.4076857366617183 0.1466472976348087 -0.07620158380138559 -0.1611828759846573 -0.1847580576029217 
-0.09815759367102798 0.5924693342897513 -0.2941960382511819 -0.04999566581376299 -0.1913615979770652 
0.2718448828057959 -0.2663044218720280 -0.1221937427655988 -0.01963772142247660 0.1683646002069832 
0.2537474768435069 -0.1300348581442285 -0.01649190002379260 -0.05216654222280646 -0.008034464548955345 
-0.08931278663053847 0.1127060632572512 -0.09960970265224213 0.07988958923593183 -0.09824943166411126 
0 0 0 0 0 
0.05781833302731324 0.09743051156783729 -0.04627475243602912 0.1131219422287634 -0.009354511010980258 
0 0 0 0 0 
-0.09705749750079756 0.1468299528677436 -0.05198907952828490 0.05115889857521906 -0.02408763840076023 
-0.002422438102223924 -0.02544759380574312 0.03103374769720030 -0.006828872498077670 -0.003949695433828810 
0.2407019213154573 -0.4295142686044645 -0.01878896430986694 0.09324432693055594 -0.009118928808109591 
-0.04933927074391561 0.1398340695311656 -0.1415538068582500 -0.05316363468450157 -0.02709076864770781 
-0.02957724086689663 0.04261668089660966 -0.03033401707510621 -0.008006760798951200 -0.09099768512114010 
-0.04038130338263005 0.1465763150324882 -0.06659862512518601 -0.01671465120702403 -0.03270826190470079 
0.1149224131015998 -0.2541603417161841 -0.002369356900820663 -0.001153206615205292 -0.001908731002212158 
0 0 0 0 0 
0.1067460729027440 -0.03530482761511415 -0.0002395428471481293 -0.04049830489003190 5.109967692499217e-05 
-0.1705319285133797 0.7361471022115833 -0.03349521969659716 -0.4182411241838410 -0.003689487546408151 
-0.0001658396710625678 0.3977012152569172 -0.04818585630262010 -0.3645266526114327 -0.01606876910665173 
-0.01665536252019800 -0.1096714808889072 0.4723850248025416 -0.005785181744154416 -0.1811691732495330 
0.3442574825448697 -0.2612819925498583 -0.08048098506518706 -0.01657554540601170 -0.06893015191829707 
-0.02049443126734010 0.1849802207758228 -0.02486719528974475 -0.1839740442506853 -0.009748874161553950 
-0.005182006472204827 -0.2243673036300555 0.2967670460364860 -0.006045057047610233 -0.001764458146578498 
-0.02946582927457865 -0.2451939569631266 0.4145488492239544 -0.003843803812723803 -0.02538457547737623 
0 0 0 0 0 
0 0 0 0 0 
-0.03559788471879801 0.1305867403105248 -0.01845686558360708 -0.09475185031490928 -0.009298804815659943 
-0.1055704066740508 0.2408673311864669 0.1665895676205686 -0.03941326923835831 -0.08235490197958421 
-0.03105686206045756 0.09085997607730367 -0.02378395802098176 -0.08243277419642750 -0.02900587395248332 
-0.1821491036829521 0.4988916792292936 -0.3033897850753973 -0.05142180818208295 -0.06571656228455824 
-0.01849914157570698 0.1080051727011302 -0.08435357553121096 -0.01795415531960419 -0.04395631466141167 
0.3266817456988686 -0.2399156514208953 -0.06226378901455625 -0.01314793760448182 -0.02585239371917496 
0 0 0 0 0 
0 0 0 0 0 
-0.02410257773755095 0.2265867049413314 -0.05452494932981600 -0.03809266633363633 -0.06335632063681985 
0 0 0 0 0 
-0.0004072171013295902 -0.1114094734328186 -0.005785703734804967 0.1230686334817754 -0.0003842381707092214 
0.05768253856089405 -0.05093632144568116 -0.01776254609362150 -0.002023151474101660 -0.01575420927342103 
-0.04828391855262724 -0.03754721457119294 -0.008235374927306829 -0.002214473970523556 0.05568572432619207 
-0.03685731464824656 -0.9126150748636950 -0.02488076562686522 1.072482472302708 -0.03145856810632371 
0 0 0 0 0 
-0.1515159965716780 0.1524431181409833 -0.06624612277337728 -0.03339075281597288 -0.03273580006587397 
-0.04468466046094669 0.3148817827847509 -0.01376968970203424 -0.4119581607140230 -0.02085880203176039 
-0.08289097459126843 0.1982653393769688 -0.02315698239228273 -0.1721928274719185 -0.04281269804194438 
-0.03941909036846100 0.2651035235324233 -0.09087110473759030 -0.1173338113595166 -0.004189809130770996 
0 0 0 0 0 
0.09082545092108835 0.05946502060435174 -0.07465585611523717 -0.03508363577488868 -0.02965155055872400 
-0.5180245465826774 0.6012320011637937 -0.004256814050162107 -0.008644382463244830 -0.008796728185546738 
0 0 0 0 0 
0.2609108115721172 -0.1734763300320625 -0.003056331097536909 -0.004077097705947995 -0.0003479619875013976 
-0.06256546786453752 0.3054131803978472 -0.1620260665833516 -0.1171357490962574 -0.2243393453391475 
0.1848289534923245 -0.2470802079037225 -0.001719844723157317 -0.001922936064897144 -0.001588614079858224 
-0.1020040147107288 -0.7196115192557647 0.5112931949351885 -0.06025189403451157 0.1949883771771711 
-0.006033893026816552 -0.4793089762617564 -0.006456442196954376 0.4173616932010077 -0.004327316338967368 
-0.08097632559910184 0.2057019493866575 -0.04275980358504430 -0.09186712608130236 -0.09876380581412895 
0.08665160339077430 0.02173104766410279 -0.1597699054427429 -0.06399792799305866 0.2381894349114027 
0.05162418637304084 0.5001764903664351 -0.1064198744450478 -0.1940721052577583 -0.1176870665722329 
0.9329119166145092 -0.3590249661451417 -0.1577025302725154 -0.07997156403260329 -0.2833060837691541 
-0.02204184819135581 -0.008139438374154519 -0.02104611638416635 -0.08400337502831834 -0.006322567919053862 
-0.2226381635763635 -0.01171785675270400 -0.009554318696526930 -0.006586786460196099 -0.006414481213349818 
-0.007976484901594624 0.09552698474674923 -0.03936299315258077 -0.03337364912820958 -0.05054076661420101 
-0.2164640959062985 0.7997272275906363 -0.007868818601088998 -0.1405822094777788 0.0004408803952564962 
-0.03710649594937034 -0.05569189198616430 -0.02903076740423281 0.1586245895256903 -0.02450769073222739 
0 0 0 0 0 
0 0 0 0 0 
-0.07857732944894531 0.03845046721835188 -0.003512919566578809 -0.01304884774499659 -0.02259217051193435 
-0.01789305080207861 -0.1125809187158218 -0.5602437359178355 -0.006299596103648966 0.7258782130713330 
-0.05737572311885157 0.4168945242862686 -0.1602301466036652 -0.1646273982547217 -0.1263451316793728 
-0.08603636737232258 0.05642104854966468 -0.06173060117627032 -0.0008049356075891534 -0.008258460213682161 
-0.04223815226535402 0.2828641534973367 -0.1634834430622659 -0.03435749196484765 -0.1628624038368775 
-0.02911072036212769 0.2123466150246521 -0.1971804743864285 -0.01715501970791500 -0.05530270994831741 
-0.04663354763113614 0.1991355340927157 -0.03784617616063883 -0.2934738590781787 -0.1062399859179127 
-0.01136108803973700 -0.2589999182165232 -0.07062256062288354 0.2958182488059408 -0.008407249730091921 
-0.001641706140937132 -0.04454027823459676 0.04841591742964690 -0.004648900505839342 -0.02381125934420870 
-0.05558467708187181 0.1135940387157712 -0.03315516242369845 0.1592881792486607 -0.005514036480000415 
0.07818943720459902 -0.08122363509957839 -0.005936301390156969 -0.005355808156299578 -0.02329086131547198 
-0.001057255273482729 -0.05375355000277967 0.1026269053433635 -0.006247085490689845 -0.01389760478321044 
-0.007492458113784881 -0.05782065258858171 0.2219153265378394 -0.002067607152032031 -0.02980958691313370 
-0.0002048698154269315 -0.04015527157680587 -0.01516527642826850 0.02783106894339680 0.0001587882072133069 
0.1888522739632394 -0.2177579482053162 -0.0007886888065818390 -0.007791563093545901 -0.001133935321508921 
-0.008648742784107738 0.1604820554306717 -0.2071997610376346 -0.005524589682475515 -0.01802274475271667 
-0.1732378327548222 0.7385874516620455 -0.1095430605430710 -0.6007242868190344 -0.1022279174026954 
-0.003111303355365885 -0.1650401018768725 -0.06256626545937262 -0.0001713593337577926 0.2501541893628409 
-0.2203840345655390 0.1609931240782040 -0.06167830517643107 -0.01791539616702215 -0.07809851241005347 
-0.01989965711021750 0.07621078735263886 -0.08699230240460555 -0.009393391393417574 -0.07259205429051610 
0.06461295773128896 -0.3092250584426899 -0.01381791137278900 0.1848028252973435 -0.002582181729434278 
0.2833620851265270 -0.1808455362955975 -0.004898782282098155 -0.005382792675499138 -0.001420379047817136 
-0.01591319584190095 -0.03439835693747056 0.03564496234650175 -0.004331849920777770 -0.04447962362064668 
0 0 0 0 0 
-0.02772426974800515 0.2894516345489173 -0.08254855920207813 -0.1868338194172597 -0.04885783890143964 
-0.09256382431999631 -0.08469584141348363 -0.1101116178095235 0.1966795123546371 -0.1157174252266209 
-0.02823685887225984 0.09985195841235561 -0.04704950402743337 -0.04968480939799275 -0.1041407548267268 
-0.01364115735171756 0.2531007276092258 -0.1096365473961330 -0.07718413660451053 -0.01368338775419815 
0 0 0 0 0 
-0.3269386534901049 0.4006405810892865 -0.001711384639716812 -0.06259407716536282 -0.0008012246772511088 
0.3011811819661174 -0.06162181188653629 -0.1105432469847552 -0.01370844916750959 -0.01027780477585981 
-0.06016570297913135 0.1119278267674931 0.2562701851744819 -0.1586883014843594 -0.03408745957481897 
-0.1037783326535521 -0.1403746290173881 0.1806144806242240 -0.02388037231065658 -0.05139118988224327 
-0.002230115724005023 -0.2479913618861334 -0.001595395422592293 0.1839180395689285 -0.001000821480058773 
0.03638104114812425 0.06877165388060107 -0.04821573734078800 -0.09211806630124983 -0.01506889147788493 
0 0 0 0 0 
-0.02497644418743103 0.05438837255279395 -0.03509064249434411 -0.03997872252826630 -0.03556570919465484 
-0.03084630972718132 0.05806563477425551 -0.03565097785182210 -0.04967403146586999 -0.04031754720394398 
-0.06402184789575445 0.2404687763839440 -0.1439985112436648 -0.02328818689581060 -0.06215047317995463 
-0.04738995352371550 0.1297747573056547 -0.02850504256643493 -0.01626619952106876 -0.08328907128140524 
0 0 0 0 0 
-0.001548400323489844 -0.06073711407486454 0.04536662808123856 -0.003589312120217153 -0.02454999582791784 
0.2267234471718726 -0.1929912757139009 -0.002451784561863749 -0.02097469298349759 -0.0007624768481987285 
0.1783833607511392 -0.4523330421994785 -0.1863349668791470 -0.06231365460136409 0.2877528325954009 
0.2467767641739871 -0.4605517183973752 -0.01620579678373656 0.4513521237339332 -0.01588444603669196 
-0.1267525298548190 0.1554881726186708 -0.05956128476156183 -0.02009364834908077 -0.2475291138891485 
0 0 0 0 0 
-0.002540484722963790 -0.3598706380287883 0.4093828278808459 -0.02523155778877075 -0.001411760781608126 
0.9955924535452301 -0.4209926453115484 -0.1214429416128769 -0.04164457254210326 -0.4104942571039318 
-0.01703447082099791 -0.3890565908767723 -0.01166895494586263 0.3673759971893542 -0.01179629323306314 
-0.1700351436794505 -0.1627117429113676 -0.02843342258904757 -0.01966432562566311 0.3038704538512433 
-0.1066880987929720 0.3754910003129573 -0.1762181607702377 -0.02274651489663258 -0.05224072647368877 
0 0 0 0 0 
-0.1043743286189137 -0.4117398399549037 0.9185011027604153 -0.06825436206200560 -0.09779474495830962 
0.07969714398797594 -0.1187013919716625 -0.001887256587435067 -0.0009615948190868670 -0.002292661502853821 
0 0 0 0 0 
-0.005349106947623661 0.03681719392418374 -0.06031836839890551 -0.1146187347807053 -0.004905007354302260 
0 0 0 0 0 
0.06093031113879047 -0.2382381826208196 0.03386463504231169 0.1499604849364487 -0.004303039365840050 
-0.001795904664037540 -0.08709461269220979 0.09870998483957398 -0.004810890836522628 -0.02642880990383096 
0.05992706822753479 -0.04149623286970934 -0.005533784809438614 -0.02366784623962302 -0.002371569504433519 
-0.2599403360036249 0.6376330936230994 -0.1639252981052391 -0.1469630877022307 -0.04099017923181859 
-0.03149460573831897 0.03543137570987714 -0.02777732176629908 -0.02359444633359018 -0.03341657220728447 
0.3396049754919559 0.02743199345809124 -0.007805647878325829 -0.1919698027534504 -0.001740863121694362 
-0.01887862908654634 0.001088993988367975 -0.05483475833878704 0.09358844205346613 -0.02920158423247077 
-0.009049689816002618 0.009520273498815367 -0.01818882284394670 -0.01606506749192914 -0.02768584473150416 
-0.03325458631360987 0.1930596671099980 -0.02181930133819505 -0.2117505942768856 -0.03757464524736327 
-0.03905898028695176 -0.01509393484847752 0.2175047550671381 -0.1183161254233977 -0.02022184993743412 
0.2050656461759306 0.06249075853558406 -0.02507144153717524 -0.1863832281276545 -0.02750147028787504 
0 0 0 0 0 
-0.01020537377312967 -0.1186474762553958 0.1351336788199325 -0.001774845654347583 -0.01434974328962759 
-0.001769682363970040 -0.01095473126340443 -0.002238760834913109 -0.01180667870316861 -0.001043784080423819 
-0.0006850996252018636 0.1388405311950902 -0.06911932849678850 -0.03221889567177259 -0.07649647445463262 
-0.01894667962449120 0.1471171508236650 -0.07777984900200456 -0.04119710185328288 -0.1516928385584294 
-0.05156334416557152 0.1366715317176302 -0.1010357257447997 -0.01048416432572038 -0.02335051648259096 
0 0 0 0 0 
0 0 0 0 0 
-0.009777600806121391 -0.2737175611642404 0.2430712514106549 -0.01352016339100806 -0.0008414048996075212 
0.03177075192226989 -0.09741439303489244 -0.02581519521477030 0.06841324914242658 -0.003445308007056312 
-0.04980877178861262 -0.5529434753123939 0.4907278508172057 -0.008555105153356656 -0.003804451809535809 
-0.02190940758858587 -0.1036761821509134 0.08686661128510280 -0.008750357133471180 -0.01694866650970645 
-0.0005062779315718915 -0.2545035854849485 -0.0008269460451196444 0.2064765418655758 -0.0003911301664369211 
0.03741733021338092 -0.09237515420089400 -0.01257763292217641 -0.0006141232008625957 -0.003534694514154811 
-0.004984970216120871 -0.02748380358366364 -0.006953704014797274 0.05320687810351980 -0.002209589487083886 
-0.03534095566718903 0.8013671545137324 -0.1203450052496414 -0.5833008946461807 -0.02117581180738919 
-0.0006405542606160099 -0.3306195976973351 0.3128717487023696 -0.004504104214880623 -0.02390162134308315 
-0.008553622884913965 -0.06119324240826974 0.04221085541009582 -0.004662726926303678 -0.002034552661611954 
0.2303332457646875 -0.2616707715256578 -0.01899900634990907 -0.002890263946076403 -0.01015433938674157 
0.1500237595258788 -0.08584870830911620 -0.03313309663908025 -0.005368273107404055 -0.007113640042044026 
0 0 0 0 0 
0 0 0 0 0 
-0.1279997012665242 -0.3160946603631835 -0.006944402457824624 0.5628798258855655 -0.0004796869300594018 
-0.2638071548292411 0.1772072006706017 -0.1667295371671714 -0.03203991608555711 -0.04365039247386734 
-0.1909845833067386 0.2205209896326101 -0.1494701645421102 -0.01480401779755149 -0.04484289973930206 
0.2173960503407605 -0.09904385760058727 -0.1156595805673788 -0.001463970342795505 -0.01910797259834292 
0 0 0 0 0 
-0.002794028353110714 -0.6616607941668012 -0.03888321381404249 0.1378045926312664 0.4990869009308541 
-0.001207742965303218 -0.02348145976553409 -0.001935847681434298 0.03993754587453265 0.0001578789784513062 
0 0 0 0 0 
0.2655827422809397 -0.1689105584197393 -0.01276238773388065 -0.002004174819358348 -0.001209830542860482 
-0.3717793365784788 0.3776092259051727 -0.03124199656544466 -0.02241874992891067 -0.005409986304265930 
-0.1802823412087669 0.1441889132183900 -0.03842340272032140 -0.01900347983560890 -0.05577225806111610 
0 0 0 0 0 
0 0 0 0 0 
-8.462873702143287e-05 -0.06441492514599818 -0.003937805202075133 0.02877746985010476 0.0001563699328459126 
0.1059278562636553 -0.2423166356455396 -0.004025352770360804 -0.002326975744241777 -0.005749020903136495 
-0.05141370436676581 0.2229320033778514 -0.2294656818127697 -0.05034367635072263 -0.02826358515205208 
0.1133843963692220 -0.2819744439580339 -0.001033647206474023 -0.001137206719105096 -0.001366404416505703 
-0.02517782307880847 0.3756119027069969 -0.3051940348343486 -0.02798909992927441 -0.07606663211310372 
0 0 0 0 0 
0.09718439277541688 -0.3072838585189248 -0.002622132788151700 0.1337543601628684 -0.003639552656941201 
-0.01777196815034267 -0.1091580786050726 0.09058539055588256 -0.001491687281911339 -0.01348846565455673 
0.01669334065019125 -0.2285355720601681 -0.007218058565448400 0.2827891185255680 -0.005167302141510132 
0.07974568067748813 -0.1725559325411719 -0.04934584348305293 0.2570424439899859 -0.006395812358918055 
-0.01250783973957987 0.3044430326953451 -0.02095666299411046 -0.4173985546911603 -0.01389611748167076 
0 0 0 0 0 
0 0 0 0 0 
9.673130285069447e-05 -0.2141658797476591 -0.01221340354521697 0.1195056756980553 0.0001419149630120435 
-0.02266055237214113 -0.04512643617189437 0.04424111578182527 -0.003445163159191622 -0.004440010239355281 
0 0 0 0 0 
0 0 0 0 0 
-0.001561041386921750 -0.07724190913552034 -0.002349172807076219 0.05500347154540630 0.0001398834206444068 
0.01529172905780810 -0.2369715600666904 -0.08396758207613930 -0.02638320610404562 0.1937862213924450 
-0.02140578500153920 -0.1500094661559599 0.3126163923013150 -0.004795291262101311 -0.07653531090900208 
0 0 0 0 0 
0 0 0 0 0 
0 0 0 0 0 
-0.07083549483918126 0.09294427091895588 -0.01650808837429050 -0.2659172125176534 -0.02921130840777920 
-0.1058694004828863 0.4768651399261782 -0.02983006194226669 -0.4577928707952463 -0.01417185614677165 
-0.006739400162791589 0.5246482708170990 -0.005167689364145077 -0.4414977094800430 -0.003376660337895066 
-0.04049388156019632 -0.05705101627686765 -0.02716531928794122 -0.01140570920711128 0.1285792883039528 
-0.0003840635259971311 -0.03577789309259232 -0.003541431702952033 0.03052660599858505 0.0001699433315787953 
-0.006527933372287446 -0.08200469170747153 0.1202508876546053 -0.005374325030431576 -0.003921065143175690 
-0.01558858653933940 0.5716047570424369 -0.008729578859353180 -0.5501519552496082 -0.005084033274044606 
-0.02699034709316914 0.01835054850257415 -0.03478766967537574 0.003894112788045817 -0.03613663043028451 
-0.01890147416957942 0.04339510107390468 -0.01096639131424071 -0.01294435791229289 -0.01371185061647614 
-0.09435290572328420 0.4131100149904689 -0.2035483138647913 -0.02591015038440914 -0.04152240085997654 
-0.0007098346844730141 -0.02437371580320570 -0.03644782504744226 0.02167748954650628 -2.899378731261419e-05 
0.1728862549115089 -0.1538301101655270 -0.01270099825047024 -0.1796422490490243 -0.01271301640687054 
-0.01620527915207625 -0.3583663585036276 -0.006629792192501569 0.4705342813682752 -0.006818348956745509 
0 0 0 0 0 
-0.01840017239229451 -0.06840737469613051 0.09108319019745975 -0.01435960521325871 -0.001891878427850228 
-0.08761832678802714 0.2869858876503181 -0.3063415895986882 -0.01707554692736641 -0.02911341706451428 
-0.07090187065873581 -0.05137177207904472 -0.008948479604654717 -0.006861465367050201 0.1329698848398719 
-0.005597351888309713 -0.1504117006284899 -0.008921620175314568 0.1503680072626581 -0.007420488993794225 
-0.4075102461213022 0.3363468758881366 0.04641415088707748 -0.01382405996572041 -0.03138552228114785 
-0.1241258815561578 0.06933384359557951 -0.01041109911141687 -0.009328894276697586 -0.02569963696097282 
-0.1080603574214931 0.1334140953838383 -0.06872527269865361 -0.02706393539649003 -0.03372032001105112 
-0.01497681186231801 0.4041282319275124 -0.03326734818821064 -0.4424796825831862 -0.007833746876950789 
-0.006563026232500623 -0.1965295970831737 0.3773168042016735 -0.04072343898129432 -0.003957136310748446 
-0.001599473172988830 -0.4795325497804576 -0.01438574689966624 0.4062754319220150 -0.01232927128742882 
0.1618038927671359 0.1002016032700767 -0.08135154616402934 -0.05699459633719645 -0.1135419527021516 
-0.04194351034588841 0.1545267895257250 0.09570931632010380 -0.09195436750532106 -0.03868225584204546 
0 0 0 0 0 
0 0 0 0 0 
0.3869041583287919 -0.4247374343532722 -0.003756792650055809 0.1239353100153164 -0.001889630924720850 
0 0 0 0 0 
-0.0006927209728754089 -0.1876347504543712 0.1302391469384501 -0.003091606957430794 -0.01074877771229611 
-0.2181873300071149 0.08664595013004356 -0.008977904018724123 -0.03672297163311657 -0.01742452578605691 
-0.4872431210483186 1.012433900954382 -0.02618523524091781 -0.4725561539036172 -0.005094416191039143 
-0.04803326597497151 0.1262269653922309 -0.03897118463868905 -0.01369327719040875 -0.03848201674741173 
-0.09835625308895134 -0.09652808565051219 0.2585865827242797 -0.006915936094671643 -0.08254739377215668 
0.08412150654366134 -0.05064878549384645 -0.04135410611291907 -0.01042496308390225 -0.09811979294872328 
-0.1093460069222216 0.2201306508572029 -0.07296781071510947 -0.02577775842908256 -0.1134659065467391 
0 0 0 0 0 
0 0 0 0 0 
0 0 0 0 0 
-0.001019992263091683 -0.3705058540201151 -0.001528516657916248 0.2061042981901808 -0.003251561909048440 
-0.09393694726938706 -0.09045714597961747 0.4556252514959420 -0.01816249522688565 -0.01456257146536540 
-0.001669020623989426 -0.2811321199329114 0.2460894340850715 -0.01298576773972496 -0.03748286742095269 
-0.07029144884302581 0.04170065686446429 -0.001040001558765077 -0.009937324415372994 -0.008746765825268530 
-0.01268227490415448 0.03718226298193900 -0.03220447029089253 -0.01905536133579045 -0.04870616408892542 
-0.4812482536422109 0.7078950413092293 -0.4166728121722965 -0.008100556893595280 -0.2152144522811825 
0.06125529707633905 0.1035229807610961 -0.05760438447469376 -0.01653102884321879 -0.04668612173143822 
-0.08945920436663492 0.08325454707704996 -0.01421244769374242 -0.02011590739873998 -0.02534046938479579 
0 0 0 0 0 
-0.08266194748628916 -0.1651617017427969 0.3621536821587096 -0.005615039043656397 -0.02236290818872189 
0 0 0 0 0 
-0.1216076599872814 -0.04466096206131976 -0.07718540917072533 -0.02698292269144332 0.2092156258784679 
0.05278862527810609 -0.04413878568617924 -0.01401569516447953 -0.006682546746602097 -0.01027669204143336 
-0.03017062371551738 -0.1007596219394088 0.3460837731465356 -0.002341426085350864 -0.1932287069433171 
0 0 0 0 0 
-0.03126572554441603 0.1515857318233236 -0.09623436496267786 -0.05436127961822973 -0.01314584058754192 
-0.007491310575121486 0.1051979878195154 -0.07405140290816417 -0.06200493724041727 -0.01107278921961479 
-0.1190826623694574 0.08953581431494340 -0.01192078589815658 -0.004812064854943888 -0.007385972656862668 
0.1061649219518881 -0.1236272978848751 -0.02742508186470391 -0.001559359847989874 -0.003018702095705762 
-0.001426292038691664 -0.02603629372587731 -0.003088489375540929 0.02010140494491386 0.0001765186997154611 
0.0001848081262518791 -0.06232772533137044 -0.007924668891392183 0.1295718635892275 -0.0002565048271808003 
-0.03191184055905862 -0.05305085906150225 -0.04224565063343000 -0.002192945743596155 0.1921397417513463 
-0.0008744830683905206 -0.09779672927073843 -0.002523822612249331 0.1055548506343842 0.0001987653036132940 
-0.04091732111569363 0.1079146470110928 -0.03114789074371352 -0.01205890498801140 -0.009683024965073868 
0 0 0 0 0 
0.09170213914505893 -0.03511455281062499 -0.004915699233079352 -0.01980335831844972 -0.05577850678162195 
0 0 0 0 0 
-0.01505966214572637 0.2264525586142981 -0.02476520806991997 -0.1670040384144989 -0.05255654063146896 
-0.001528481450206898 -0.6632983579509472 -0.01226006337134166 0.5834757476450474 -0.005474976333529951 
-0.01205940991203173 -0.1825103994506989 0.1701940451847935 -0.008207718829544774 -0.004382646106954349 
-0.006597113598049873 0.2861848920385391 -0.04439312022805239 -0.1364346596425876 -0.001306760780042655 
0.5008960516377000 -0.5364754569084519 -0.01848103708985260 -0.0007405641063798584 -0.007473865673326201 
0 0 0 0 0 
0 0 0 0 0 
-0.01079593484480044 -0.03144756433931938 0.06263523119133730 -0.002034445895260513 -0.03217284544885955 
-0.009954598977483260 -0.02372250253362980 0.05432128940719221 -0.003676233103373046 -0.04023695404300300 
0.1877971755975174 -0.1161051561718681 -0.01425954355547781 -0.001251149806789844 -0.06944510348077869 
0 0 0 0 0 
-0.04869929074957045 0.2249757540557079 -0.2149236585910495 -0.02122220603741093 -0.1206731403313797 
-0.01038562590339529 -0.03705981291968973 0.05017421158213631 -0.003762484631599510 -0.01865397282054736 
-0.002136715131144280 0.08927101581868864 -0.03512905525399221 -0.02837954595669229 -0.03055058611895087 
0 0 0 0 0 
-0.05190778873075152 0.09323263421881918 -0.003003446397527810 -0.04302770172942350 -0.001424707026801029 
-0.05438882053344776 0.1074067520840141 -0.02531095402460989 -0.01615509143071336 -0.06652988439074205 
-0.09616097334705920 0.2283702961715560 -0.05053906792603979 -0.04969650006364869 -0.1485466548127283 
-0.03481241968607182 0.1152755447790083 -0.04819220709960725 -0.007628247141539263 -0.01593015082780782 
0 0 0 0 0 
-0.001793222622447534 -0.3596792649485011 -0.003718915179726726 0.2959847988977361 -0.0009791264180956179 
0 0 0 0 0 
0.1354434057703690 -0.02188659274126042 -0.004159525078002731 -0.04927483308918149 -3.737957468622475e-07 
-0.02030987478774595 -0.08188173828032216 0.1012385286485769 -0.01222559351994857 -0.008082658265187068 
-0.002460562678996467 -0.02336047558516417 0.02114980454467098 -0.002688035122297202 -0.01127864437772024 
0 0 0 0 0 
0.1179021239818782 -0.2304972767733137 -0.001002900673279872 -0.0003745471057434364 -0.001360930315201793 
0.1553365199113546 -0.2230492137718800 -0.003782081210444950 -0.001891572159241381 -0.001162941638552997 
0.4895722653590160 -0.5224422273125581 -0.001626935584743894 -0.006575503609791375 -0.003540104980843381 
0.1982276289829479 -0.2141770916918906 -0.0004895332785921717 -0.0008273577886652615 -0.0004170078861625076 
-0.1779208157418468 0.2264966188364785 -0.04275001722362932 -0.1037116418322127 -0.09515010235371443 
-0.2342139287271247 0.2785901802482361 -0.03876303705404238 -0.005759519648729677 -0.02780759623323811 
0.2520828381020827 -0.2030917619066597 -0.02382571729956494 -0.001087691313407087 -0.004128265007193349 
0.03468698891851377 -0.1749361913140720 -0.0008777642136291759 -0.0005712686241359387 -0.002815372490661685 
0 0 0 0 0 
-0.02726732803998607 0.1612450544809026 -0.01594923310759369 -0.1049719371870858 -0.0004044229094937834 
-0.06144771981470641 0.3783234488975806 -0.1616200067355870 -0.04539207644907541 -0.009625803062986545 
-0.01988831421080788 -0.2364625979260949 0.3167614213278345 -0.01723183862517401 -0.03263796946652841 
0 0 0 0 0 
-0.01029715588406016 -0.06081635505772290 0.05160661986162345 -0.005141181309348932 -0.004109976938207993 
-0.1324798220978602 0.2448156543616441 -0.008909816918838076 -0.1381555038490537 -0.02933039019983169 
0 0 0 0 0 
-0.006638476988723310 0.08027333028828873 -0.04096123701933224 -0.05339066299426005 -0.01043347928329262 
-0.02072920174136062 0.2344238964389393 -0.2330474288166916 -0.006414660680384894 -0.01758581526874113 
-0.01503665997466600 0.07524690777755494 -0.08328809744035871 -0.02890897594445389 -0.06715847887774462 
0 0 0 0 0 
-0.04920491943758790 0.2223758315366633 -0.1047767601530057 -0.005470372628255889 -0.08638553812238844 
-0.01032822337411437 -0.4382840134450348 0.5478046093717980 -0.01606444038759833 -0.01807005587411288 
-0.006834236109091349 -0.02671550733752033 -0.002165305031306006 0.07260740081812617 -0.0004019069644683033 
-0.06357851145822759 -0.05985836246616380 0.07421450715737590 -0.004275054880023125 -0.001930995442696881 
-0.02309784663661816 -0.01420853184628816 0.04316802157249641 -0.004483961687487314 -0.008727416200577322 
-0.1166843637557174 -0.08137276519066174 0.1923222713383080 -0.001745253860070613 -0.004959433848151375 
-0.01385548834286868 -0.3356484219287669 -0.004192351412510327 0.4280879500589957 -0.003884998572445660 
0 0 0 0 0 
0 0 0 0 0 
0 0 0 0 0 
-0.01341395273704243 0.3156744203674050 -0.02395726093673233 -0.2149653850107349 -0.01623240669103829 
-0.2658686424621199 0.7063490197478073 -0.3162622338843071 -0.02116750039127099 -0.09043344840491710 
-0.009332987790540904 -0.2461604759383639 -0.04018838415913700 -0.004710229294978185 0.2969584547533490 
-0.001836076501713842 -0.1178038904350830 -0.001566859000380439 0.1101245710709276 -0.001219266926449266 
0.2189811040547837 -0.004593406586295709 -0.07668704153301273 -0.008323033525866424 -0.1709998471387041 
-0.2212676405622502 0.2025644627558600 -0.01540679423778659 -0.003162598030717965 -0.01592817968450731 
-0.04775594712828975 0.1907672963379014 -0.08748864954838369 -0.02821481114344717 -0.004748560635601967 
-0.1277540038669568 0.2186358267619204 -0.01427325586503098 -0.07381209119698286 -0.008507217970077717 
-0.001505743925040077 -0.2501651265388150 0.2585488779635215 -0.01343492172110703 -0.02372314707468094 
-0.001960368492644275 -0.2672870961919752 -0.002867973841974572 0.2667651827586071 -0.0006258958058124945 
-0.006538157948401912 -0.1161850367868175 -0.01923016777388940 0.2189175352840009 -0.006152970022619188 
-0.007031831633221477 -0.2134452188418346 0.1184383465152668 -0.0009902261051683840 -0.002210686422402517 
-0.06815891989103431 -0.03875155689795443 0.2028405411878068 -0.02589818133025187 -0.007084022802623011 
-0.09577121551335790 0.5423899385232199 -0.2318398278394383 -0.02872864621890536 -0.05017574022652026 
-0.03109498293382519 0.2010968570170170 -0.04845747869929853 -0.02471901249547807 -0.004659296264637770 
-0.3278254084823708 0.5618258334901104 -0.002433724132269555 -0.1114967213936533 5.524544915842420e-05 
-0.03584230094998939 0.3256481841155653 -0.04348285225068090 -0.01226516473701800 -0.02650719436566780 
-0.1704725706392721 0.2439817914839555 -0.03891632634640052 -0.004385187639710814 -0.02388979990035434 
-0.007786905603252560 0.6247357027965827 -0.003106284235587626 -0.6130815184573954 -0.0006396138784901197 
0.3832681286936913 -0.1036126394782738 -0.1085766889030252 -0.001646275571513583 -0.1668663141687716 
0 0 0 0 0 
-0.0005438362481254322 -0.04409383515560128 -0.003845337132433401 0.02515787938224409 0.0001950928553097871 
-0.01064164056537944 -0.1086433591570380 -0.03870038768469875 -0.02848248511616964 0.2762470158509182 
0 0 0 0 0 
0.1483936677598792 -0.1610389641390189 -0.04413008891384182 -0.001465263286086659 -0.002203053918235245 
0 0 0 0 0 
-0.001424887737093131 -0.02145051424694187 -0.001888942109320119 0.02565211113479362 -8.813171370318897e-05 
-5.262373279263751e-05 -0.1367459640689595 -0.006810581852461276 0.1048135751619735 0.0001399836917670786 
0 0 0 0 0 
-1.096100962459899 0.8037610772195040 -0.005143758402519861 -0.008482769975646062 -0.02645076979971850 
-0.06127278435623773 0.07613336201194303 -0.01943529281472712 -0.01647771720243177 -0.03287673209078707 
0.1338191207442224 -0.1548527632564183 -0.0003622618566754024 -0.001124034382938569 -0.003229904668744940 
0 0 0 0 0 
-0.02670436949075794 0.2266199767257046 -0.01226632338646172 -0.1532604551775704 -0.04046578309103627 
-0.08875090799286042 0.3869990745053001 -0.06173498895155274 -0.3239785235440438 -0.1047847728194596 
-0.0007260706598368788 -0.1975139902336464 -0.002769699272857194 0.1231913395604308 -0.0001727804905465274 
-0.05513436429094351 0.3358903356998998 -0.1617095470568153 -0.03849391356831029 -0.08437507630090668 
0 0 0 0 0 
0.1844474956831210 -0.2256239536839057 -0.003204523757757498 -0.005023312071850144 -0.0004182779894482888 
-0.006630733963494421 -0.05017017917965098 -0.0007900157921267442 0.1115441252446169 -0.0007440929684276003 
-0.03976201045416453 0.4415938240245675 -0.2893536803520893 -0.07453297335442668 -0.07632798703092389 
-0.01241906173857640 0.1669747163484132 -0.04536366184154714 -0.06776905837015121 -0.01503185671408439 
-0.005315618445345715 -0.8654492162506224 -0.007219800125503410 0.8582600464734367 -0.004112423505468677 
-0.007510549615480674 -0.03137024928425438 0.1477392501322301 -0.1230599010639570 -0.004574317432859196 
0.02279196333929103 -0.1539094815448198 -0.001420508205080577 -0.0003915667049646430 -0.003363158719999092 
0 0 0 0 0 
0.2335820097232579 -0.1184638131438656 -0.02599024764139151 -0.007513511339685045 -0.006285031527649674 
0 0 0 0 0 
0 0 0 0 0 
0 0 0 0 0 
-0.001449675862763925 -0.1722083072625238 -0.0003598269785059335 0.1162204939256517 -0.0004283004731206126 
-0.01851624675690279 -0.1323300316619101 0.1706620132701708 -0.01175188558621038 -0.01581720826514227 
-0.01873057150273264 0.3983564481119482 -0.006263984365196884 -0.4114711739585260 -0.008467365665367104 
0 0 0 0 0 
-0.1379567955510267 0.1656709148819191 0.1324489500265922 -0.007808051117162720 -0.1121603361983293 
-0.002339763094969384 0.3330552655816811 -0.05958594375821347 -0.2762586199222179 -0.0002527206881746591 
-0.004921170161509077 -0.04491605465749333 0.06398851449224027 -0.003963008588367376 -0.009109884981629296 
-0.04772446619073231 -0.2105462027305575 -0.01661269287979145 -0.01106893045632105 0.3236394405334866 
-0.009120544127956367 -0.01175975532598802 0.03129763919335823 -0.006665169471729626 -0.01598989226547605 
-0.002743592383674163 -0.1028591468580393 0.1134329310200382 -0.002246577216426491 -0.03372914449450833 
-0.02826920348577844 -0.1136409696042967 -0.01865388267806187 -0.01594510006637786 0.4568655029353820 
-0.01659361792782633 0.05371707030692344 -0.009657454773268882 -0.1646123075906092 -0.003447288102183259 
-0.07619846710303181 0.1555454915493644 -0.1755673287162739 -0.02578764576649169 0.03570595328599543 
-0.001013822509525552 0.01944931991251852 -0.01120855211859071 -0.06614762563091213 0.0004701998714176261 
-0.009532947414088559 0.08294132394732166 -0.003586285072141782 -0.1125738413169763 -0.001241133639588729 
-0.03844607368796509 0.3262778728737508 -0.1094029647413978 -0.1162679430625371 -0.01654410939237440 
0.1592265493492496 -0.1060894009076502 -0.01543781478178083 -0.002881289901022354 -0.001339679716033293 
-0.002282685140882491 -0.07172679693912967 0.06679228290371952 -0.004649967869061506 -0.01503237442345353 
0 0 0 0 0 
0.2700033629606284 -0.1112405999112115 -0.0009124220179628789 -0.07041925712706071 -0.0003524099467992876 
0 0 0 0 0 
-0.04412166582964206 0.2698090078811239 -0.03349886641310505 -0.1737139733590509 -0.004827547202910508 
-0.02374133374438895 -0.1976263096560360 0.3386823776785669 -0.006928058796355456 -0.07261745875143562 
-0.004256765161376510 -0.1371820657604790 -0.001746561666142805 0.1586291487227114 -0.002116371709020505 
-0.01581180949403247 -0.2219037883327192 -0.01196542579437929 0.3405629429970667 -0.01006311653980618 
-0.04944490484921572 0.2890781353013494 -0.06612803785654334 -0.1451261554374217 -0.03392071517944224 
-0.008318275823500436 0.1498441768972664 -0.09780688522156984 -0.02384778562349340 -0.03231178301851861 
-0.01114332137305437 0.08945177935789615 -0.003385412848356108 -0.1144453687519616 -0.0001267108816394604 
-0.009531515068142982 0.2417656960723622 -0.09581769247571029 -0.1527692440488504 -0.003117121951444380 
-0.05381037901418431 -0.07898980314118537 0.1062184743280662 -0.005818515322000002 -0.01777286035747653 
-0.1476178467745654 0.08312690716725510 -0.009140929937972945 -0.01480296415833642 -0.01511280012950131 
-0.2356798797968974 0.3594870556929001 -0.04019482870627234 -0.01903780408423020 -0.006840796659255016 
0 0 0 0 0 
-0.003013835853632479 -0.1807383561611491 -0.001973221086477706 0.1926631962175631 -0.001616680130469706 
0.3025272403577613 -0.3518701544604658 -0.4769056502192413 -0.7769879799075577 -0.03016537183285550 
-0.1540296524610353 0.4260001558907828 -0.3594473787817441 -0.2609994579390363 -0.3567095925845892 
-0.9961452237686644 1.765725238027570 -0.6963916656174297 -1.114169740749541 -0.2307322828831386 
-0.009797166275040521 -1.065324034474509 0.6494128645468095 -0.5339833122651770 0.05400648890917156 
0.2432429088095111 -0.7046433038086976 0.4052411695950757 -0.8014138069390580 0.06725175877633273 
-0.01855712438692077 0.1327290934562982 -0.07943382346358450 -0.03933773433639522 -0.1492595889724602 
-0.7442818963732641 0.4343214823387391 -0.8192871396251298 0.03041355010151989 -0.7977387558599544 
-0.1210106055502366 -0.08966577305737206 -0.1643732879827465 0.2254476350495721 -0.2409016195930282 
-0.09292720717850064 0.2561899946544238 -0.1543118765160121 -0.1331362365687530 -0.2495667758246357 
-0.01108454689524374 0.2853598481332195 -0.2082225770311038 -0.07129349261366347 -0.1141344027617585 
-0.1983004131786773 -0.5732664870898917 -0.04637908329065976 0.3130678138184740 0.3660349989831521 
-0.09080232673679736 0.4052651388102028 -0.2090755706107850 -0.1668205584942502 -0.3284801001658743 
0 0 0 0 0 
-0.4877640546740207 0.4707442899917324 -0.1186407700938028 -0.1417429453979748 -0.1985890841485637 
-0.07740057761122666 0.3199495690984308 -0.08819350768804116 -0.2402725162139591 -0.1262906600426974 
0.04300284839548847 0.1898612012450829 -0.2198393578241288 -0.04102556435586064 -0.1764516471130017 
-0.1643834543361917 -0.1798090123278119 -0.1394958950323235 0.5222545923205341 -0.01910172159129057 
-0.01503665997466600 0.07524690777755494 -0.08328809744035871 -0.02890897594445389 -0.06715847887774462 
-0.001505743925040077 -0.2501651265388150 0.2585488779635215 -0.01343492172110703 -0.02372314707468094 
0.02779352009066712 0.06514181712959950 -0.1472756481830101 -0.2983772059880432 -0.2176820641068486 
-0.3115857383759801 0.6031915017538189 -0.3623610755316965 -0.4455631549428007 -0.2266391673993679 
0.7771555170462920 -0.1652397737065600 0.01838809083962693 -0.2088179445686150 -0.1080593049784746 
0.5561628687754304 -0.1220789901426381 -0.8998463634867452 -0.1220866987701477 -0.5865980207635427 
-0.3928612702808679 -1.076429638878066 1.524249905626300 -0.3585319996286936 0.4535212474530969 
-0.02220777543517774 0.2078029415920360 -0.3109570981834883 -0.02724239118370289 -0.01980612685137162 
-0.08174874077770118 -1.072434946754956 -0.1324116415039238 1.537838343397290 -0.3897441809898189 
-0.4469533400230202 0.7201992919385471 -0.01076152938118401 -0.2937688478784240 -0.2061616690876417 
0.01299422884558295 0.01463005038756424 0.2059203042904176 -0.3480571591509823 -0.3809601991103772 
0.2759566226651616 -0.2633859224453588 -0.2395596268033665 0.3807545115779998 0.2179577649150053 
-0.2293859846483570 -0.9938257774261747 -0.2026554198894192 0.9391140719813745 -0.1528179766584883 
0 0 0 0 0 
-0.05933019275906284 0.1357167213606428 -0.2428927256640162 -0.04201294305439233 -0.1062989573340860 
-0.004818702088598324 -0.7497784747463386 -0.009786634857412884 -0.003746924987150611 0.6288167006100970 
-0.2528045424836674 0.4493780771758298 -0.3252409969453657 0.3782114058732485 -0.03795425658917902 
0 0 0 0 0 
0 0 0 0 0 
0 0 0 0 0 
-0.1706245028727872 0.2743635372561773 -0.1257938306986354 -0.1297859308026348 -0.1622130620045336 
0 0 0 0 0 
2.466795521834326 -1.679040218241159 -0.4360717417343666 -0.2234714263692737 -0.07794909844424630 
-0.1916824339899972 0.9597590685075187 -1.004368681551098 -0.2492692755318884 0.08838643513362604 
0 0 0 0 0 
0 0 0 0 0 
-0.05157024237623567 0.5858467517768979 -0.1298865687244484 -0.2306820386042642 -0.1231873099066241 
0 0 0 0 0 
-0.02070793508156482 -0.04317108843797075 -0.03466758478878684 -0.01084537350587870 0.08269315307859985 
-0.07875568993108785 -0.2603995339016552 -0.001595249422211450 0.5144127810209915 -0.002646337298611061 
0.4415446524410243 -0.2461400143160966 -0.03075144357927042 -0.05341769202959630 -0.07747956802973403 
-0.01951536240013994 -0.5852293372718951 0.2287251838146168 0.2846266477739675 -0.001798273753662837 
-0.1135869323641187 0.2264367696994535 -0.1994295752571704 -0.06157529114352171 -0.1509903024223413 
-0.01665536252019800 -0.1096714808889072 0.4723850248025416 -0.005785181744154416 -0.1811691732495330 
-0.02049443126734010 0.1849802207758228 -0.02486719528974475 -0.1839740442506853 -0.009748874161553950 
-0.02946582927457865 -0.2451939569631266 0.4145488492239544 -0.003843803812723803 -0.02538457547737623 
0 0 0 0 0 
0 0 0 0 0 
-0.02085250875906523 -0.1940492813030527 0.3439896719403751 -0.005416952603798081 -0.02542670921334965 
-0.03105686206045756 0.09085997607730367 -0.02378395802098176 -0.08243277419642750 -0.02900587395248332 
-0.01849914157570698 0.1080051727011302 -0.08435357553121096 -0.01795415531960419 -0.04395631466141167 
-0.2137048768382077 0.2361739249334461 -0.2295562038421158 -0.04256237798769296 0.06813651834726996 
-0.2072377102718655 -0.5770135101891050 0.8662756307341001 -0.04843991170651990 -0.1701152139174662 
-0.3687751615928042 0.2725942752803071 0.01473472039143667 -0.1977818911514376 0.2212527563681632 
-0.04468466046094669 0.3148817827847509 -0.01376968970203424 -0.4119581607140230 -0.02085880203176039 
-0.0004811035218466139 -0.2743985642175212 -0.01895902622996616 0.4093782073063972 -0.02037005435382807 
-0.08289097459126843 0.1982653393769688 -0.02315698239228273 -0.1721928274719185 -0.04281269804194438 
0 0 0 0 0 
-0.02410257773755095 0.2265867049413314 -0.05452494932981600 -0.03809266633363633 -0.06335632063681985 
-0.05806656245080351 -1.132218906710651 1.101788373044735 -0.07794963543983190 -0.1867912846489818 
-0.04889610968538326 -0.02894613293420408 -0.05680088293442933 -0.02713724449711542 0.1328265002204108 
-0.02044604381034547 -0.05393150698677265 -0.04055537432703744 0.1561669625519365 -0.05061859906841151 
-0.1490646458514484 0.2058538774800886 -0.001701870676525714 -0.08019501214755550 -0.001145273847028743 
-0.2322728298312625 0.2260618249915275 -0.06185024982262060 -0.003951327804647225 -0.05598780436338958 
0 0 0 0 0 
-0.01846215282950579 -0.3919155906430267 -0.01267059802170884 0.5243367728359611 -0.003998230740960404 
-0.01723147859157110 -0.1358466236373100 -0.1634912866297092 -0.007304920076454068 0.5081588198921990 
-0.008943024046476506 -0.1948152848178308 -0.1336918698693940 -0.001650158674871980 0.3128204840703465 
-0.007492458113784881 -0.05782065258858171 0.2219153265378394 -0.002067607152032031 -0.02980958691313370 
-0.1201043595643836 -0.1683053136483613 0.2450967320725579 -0.06684823738062877 0.03411026332877058 
-0.006739002251505036 0.01512162695823907 -0.03893333592098591 -0.009315886638645495 -0.04983412225349553 
-0.01989965711021750 0.07621078735263886 -0.08699230240460555 -0.009393391393417574 -0.07259205429051610 
-0.02772426974800515 0.2894516345489173 -0.08254855920207813 -0.1868338194172597 -0.04885783890143964 
-0.01920869760197091 -0.08874852848010058 -0.05712132392941111 0.04851834718926194 -0.01541819352680470 
-0.1375828657944815 0.3199826092695586 -0.1200173147425428 -0.07546256782707530 -0.2176066613734660 
-0.07538327156851925 -0.05579676799889255 -0.07061525102631595 -0.01571876727042823 0.1720754711331907 
-0.03574924212087845 0.2799872540753365 -0.07802166008373917 -0.1570695175670590 -0.01477852744054355 
0 0 0 0 0 
-0.07818024121267912 0.2037855411024897 -0.1098592679783360 -0.1263262568675948 -0.1474426974018382 
-0.1176744878369512 0.2855202152545625 -0.05788796617665493 -0.05471182225826345 -0.008654459008334610 
-0.06402184789575445 0.2404687763839440 -0.1439985112436648 -0.02328818689581060 -0.06215047317995463 
-0.3175384608491291 -0.1784060153576664 -0.08691097326341249 -0.03721123007170678 0.4609009383971919 
-0.03946954181031290 -0.1360799748140001 0.2270574970787578 -0.0002193620951441729 -0.06732536640584048 
0 0 0 0 0 
-0.08397567889417776 0.2059386937880066 -0.05274636952719120 -0.1559256810175234 -0.01727790315974416 
0.1486013432573065 -0.5823883603724136 -0.09213441055309177 -0.03543866827964209 0.4942971422942504 
0 0 0 0 0 
-0.08892374495953100 0.03072364850803656 -0.01184794603249726 -0.008320405168433211 -0.008368205735169961 
0 0 0 0 0 
-0.05107897784488863 0.1234804083774042 -0.02239399992745200 -0.03691386364688971 -0.03349565192243437 
0 0 0 0 0 
-0.02342762770086067 -0.08529696536863410 -0.04781704076571999 -0.003585051381909388 0.2144773903663162 
-0.03325458631360987 0.1930596671099980 -0.02181930133819505 -0.2117505942768856 -0.03757464524736327 
-0.007633756185467793 0.1602130513971283 -0.06962611674039178 -0.1122448266487882 -0.01003050539925892 
0.2111391897168043 -0.1320761198612402 -0.01127539821448765 -0.009924351348235800 -0.02324500696510278 
0 0 0 0 0 
-0.06338570633258625 0.2771891755887675 -0.1682580683042406 -0.07592439753190773 -0.1498477295132689 
-0.02204633926215521 -0.4806290638532951 0.6254881410036846 -0.009299395476981933 -0.1004369322520852 
0 0 0 0 0 
-0.01250783973957987 0.3044430326953451 -0.02095666299411046 -0.4173985546911603 -0.01389611748167076 
-0.3113148629586323 -0.08727880260560973 0.2155170120088641 -0.06534041626019849 0.2624510389405626 
0 0 0 0 0 
-0.09168885700519024 0.06010594941382112 -0.02453504341837605 -0.01841754147092301 -0.02671102481674937 
-0.1802823412087669 0.1441889132183900 -0.03842340272032140 -0.01900347983560890 -0.05577225806111610 
0.4519425868157515 -0.2204817871189739 -0.01129771882213796 -0.01314742355324501 -0.06769292028613663 
0.1059278562636553 -0.2423166356455396 -0.004025352770360804 -0.002326975744241777 -0.005749020903136495 
-0.1503203453516790 -0.1152234502127907 0.2870976998674482 -0.06705074152771626 -0.1040285129168373 
0.1133843963692220 -0.2819744439580339 -0.001033647206474023 -0.001137206719105096 -0.001366404416505703 
-0.04108983427368480 0.001330021412773395 -0.07215008454538813 -0.07213025586363968 0.2051532127774361 
0 0 0 0 0 
0 0 0 0 0 
0 0 0 0 0 
0.2745211625887077 0.01151806700594828 -0.05721156130064529 -0.02922618833191294 -0.1180569778520076 
0 0 0 0 0 
-0.01137772149978533 0.4625752842719289 -0.4519881549947347 -0.04011034871399294 -0.02043251689746244 
0 0 0 0 0 
-0.02166288377528781 0.1604789592860585 -0.1296485452544372 -0.01051056770596313 -0.04457952552058288 
-0.1360877546273967 0.1163751139905436 -0.002720765134464580 -0.01682048777728444 -0.0002645093858269327 
-0.04049388156019632 -0.05705101627686765 -0.02716531928794122 -0.01140570920711128 0.1285792883039528 
-0.01112327547502298 -0.1282874863573086 -0.01353120798309803 -0.01132097048308014 0.1146300784653858 
-0.2266261891623082 0.3089636626925097 -0.1147033202998845 -0.05208989536484637 -0.07469510988363477 
-0.0005767655910955611 0.05727971670925060 -0.008389287976190504 -0.1897133256153101 -0.01101841139196060 
-0.0007098346844730141 -0.02437371580320570 -0.03644782504744226 0.02167748954650628 -2.899378731261419e-05 
0 0 0 0 0 
-0.005597351888309713 -0.1504117006284899 -0.008921620175314568 0.1503680072626581 -0.007420488993794225 
-0.02374133374438895 -0.1976263096560360 0.3386823776785669 -0.006928058796355456 -0.07261745875143562 
-0.1080603574214931 0.1334140953838383 -0.06872527269865361 -0.02706393539649003 -0.03372032001105112 
-0.01497681186231801 0.4041282319275124 -0.03326734818821064 -0.4424796825831862 -0.007833746876950789 
-0.006563026232500623 -0.1965295970831737 0.3773168042016735 -0.04072343898129432 -0.003957136310748446 
0.1618038927671359 0.1002016032700767 -0.08135154616402934 -0.05699459633719645 -0.1135419527021516 
-0.03469869442147594 -0.04014916370791363 -0.02455267855956706 -0.01421788648439211 0.1405212508775105 
-0.1442223588659602 0.4621774045941024 -0.1717495768175117 -0.1862402676448922 -0.08929694294369267 
0 0 0 0 0 
-0.04803326597497151 0.1262269653922309 -0.03897118463868905 -0.01369327719040875 -0.03848201674741173 
-0.03788505594550581 0.1100455256431018 -0.03322313010081511 -0.005460002196619494 -0.04211545119785150 
0.08412150654366134 -0.05064878549384645 -0.04135410611291907 -0.01042496308390225 -0.09811979294872328 
-0.01985095611001474 -0.1827312862353676 -0.01628869950427213 0.2508569312120087 -0.07315963690864442 
0 0 0 0 0 
-0.02142399601063883 0.06974178495421413 -0.004147811847681412 -0.05656407424736382 -0.004668322069267717 
-0.01268227490415448 0.03718226298193900 -0.03220447029089253 -0.01905536133579045 -0.04870616408892542 
0.06125529707633905 0.1035229807610961 -0.05760438447469376 -0.01653102884321879 -0.04668612173143822 
-0.08945920436663492 0.08325454707704996 -0.01421244769374242 -0.02011590739873998 -0.02534046938479579 
-0.08266194748628916 -0.1651617017427969 0.3621536821587096 -0.005615039043656397 -0.02236290818872189 
-0.03017062371551738 -0.1007596219394088 0.3460837731465356 -0.002341426085350864 -0.1932287069433171 
-0.007491310575121486 0.1051979878195154 -0.07405140290816417 -0.06200493724041727 -0.01107278921961479 
-0.005177436995857860 -0.1773500880810812 -0.005605223245196147 0.1960724968015762 -0.009329618179892746 
-0.01230673841732873 -0.02120428207780287 0.1708369959179844 -0.03198241447384018 -0.01187767780596052 
-0.04091732111569363 0.1079146470110928 -0.03114789074371352 -0.01205890498801140 -0.009683024965073868 
-0.001528481450206898 -0.6632983579509472 -0.01226006337134166 0.5834757476450474 -0.005474976333529951 
0 0 0 0 0 
0 0 0 0 0 
0 0 0 0 0 
-0.01475925309584710 -0.08449489809165102 0.1861461181831017 -0.07566698050495572 -0.02556108421778430 
-0.08333066608938637 0.4517285307243585 -0.4063108085093951 -0.03336214459237700 -0.2277481168191408 
-0.2228504276266626 0.5279012719000908 -0.09896315995961413 -0.1329817576804729 -0.1268700301746805 
-0.09616097334705920 0.2283702961715560 -0.05053906792603979 -0.04969650006364869 -0.1485466548127283 
-0.03713949284102835 0.3706500255318608 -0.01036815373661292 -0.3839123662783733 -0.008113423049388162 
0.1688827711084967 0.07329953548416403 -0.1049984149747469 -0.03164840881589701 -0.08873157985093956 
-0.02810728896982520 -0.03285774455899154 -0.01765916608973435 -0.01089237149872315 0.07609075465544430 
-0.06144771981470641 0.3783234488975806 -0.1616200067355870 -0.04539207644907541 -0.009625803062986545 
-0.01988831421080788 -0.2364625979260949 0.3167614213278345 -0.01723183862517401 -0.03263796946652841 
-0.03946954181031290 -0.1360799748140001 0.2270574970787578 -0.0002193620951441729 -0.06732536640584048 
0 0 0 0 0 
-0.1324798220978602 0.2448156543616441 -0.008909816918838076 -0.1381555038490537 -0.02933039019983169 
-0.04501014817560816 0.1100442396190879 -0.02177603388124404 -0.08173470190080882 -0.08233737609322618 
-0.08471789791498556 0.4349166124895196 -0.1774001043198064 -0.03399631663456022 -0.05692819276623456 
-0.006638476988723310 0.08027333028828873 -0.04096123701933224 -0.05339066299426005 -0.01043347928329262 
-0.02072920174136062 0.2344238964389393 -0.2330474288166916 -0.006414660680384894 -0.01758581526874113 
-0.01503665997466600 0.07524690777755494 -0.08328809744035871 -0.02890897594445389 -0.06715847887774462 
-0.04920491943758790 0.2223758315366633 -0.1047767601530057 -0.005470372628255889 -0.08638553812238844 
0 0 0 0 0 
-0.009332987790540904 -0.2461604759383639 -0.04018838415913700 -0.004710229294978185 0.2969584547533490 
0.2189811040547837 -0.004593406586295709 -0.07668704153301273 -0.008323033525866424 -0.1709998471387041 
0 0 0 0 0 
0 0 0 0 0 
0 0 0 0 0 
-0.04775594712828975 0.1907672963379014 -0.08748864954838369 -0.02821481114344717 -0.004748560635601967 
-0.1277540038669568 0.2186358267619204 -0.01427325586503098 -0.07381209119698286 -0.008507217970077717 
-0.006538157948401912 -0.1161850367868175 -0.01923016777388940 0.2189175352840009 -0.006152970022619188 
0 0 0 0 0 
0.3832681286936913 -0.1036126394782738 -0.1085766889030252 -0.001646275571513583 -0.1668663141687716 
-0.05350417060801065 0.1867839733019849 -0.03670159437584028 -0.1026957660466339 -0.02713959479117174 
-0.01064164056537944 -0.1086433591570380 -0.03870038768469875 -0.02848248511616964 0.2762470158509182 
0 0 0 0 0 
-0.06127278435623773 0.07613336201194303 -0.01943529281472712 -0.01647771720243177 -0.03287673209078707 
0 0 0 0 0 
-0.02670436949075794 0.2266199767257046 -0.01226632338646172 -0.1532604551775704 -0.04046578309103627 
-0.07488431239268833 0.2932508163553296 -0.04337663307588106 -0.1889555987827653 -0.05375495564356853 
-0.06831643518532080 0.5367856812779203 -0.4839986760575472 -0.04600889917213664 -0.09017848089061314 
-0.007031831633221477 -0.2134452188418346 0.1184383465152668 -0.0009902261051683840 -0.002210686422402517 
0 0 0 0 0 
0 0 0 0 0 
-0.03037362323542293 0.1773211286610254 -0.08212617030099677 -0.06152113622623891 -0.02378169762408930 
-0.007510549615480674 -0.03137024928425438 0.1477392501322301 -0.1230599010639570 -0.004574317432859196 
0 0 0 0 0 
-0.009226351504227620 -0.08858420244376623 -0.02195008072411833 0.2164521102147159 -0.005777319630459014 
0 0 0 0 0 
0 0 0 0 0 
0 0 0 0 0 
-0.04772446619073231 -0.2105462027305575 -0.01661269287979145 -0.01106893045632105 0.3236394405334866 
-0.002743592383674163 -0.1028591468580393 0.1134329310200382 -0.002246577216426491 -0.03372914449450833 
-0.009532947414088559 0.08294132394732166 -0.003586285072141782 -0.1125738413169763 -0.001241133639588729 
-0.002397057353322831 0.2903304391079434 -0.2023253509179515 -0.03060881194742735 -0.1552507301346962 
0 0 0 0 0 
-0.03068510304170824 -0.3122696316694116 -0.08916041943166919 0.3384443332065621 0.1747913528524343 
-0.04231055928069245 0.2398667631120181 -0.1384983715833253 -0.04317232269660516 -0.1253632117153287 
0 0 0 0 0 
-0.01574721217742171 0.3658247564800173 -0.1780346250651366 -0.2139069531985376 -0.06284559759054240 
0 0 0 0 0 
-0.1476178467745654 0.08312690716725510 -0.009140929937972945 -0.01480296415833642 -0.01511280012950131 
-0.2356798797968974 0.3594870556929001 -0.04019482870627234 -0.01903780408423020 -0.006840796659255016 
0 0 0 0 0 
0.4692257038555613 -0.3906473566829759 -0.6264299038753516 -0.4952137264766108 -0.1129686679807746 
-0.3115857383759801 0.6031915017538189 -0.3623610755316965 -0.4455631549428007 -0.2266391673993679 
-0.4902761457016620 1.160251495767693 -0.9872177233963785 -0.3424460357734956 -0.1526281834660325 
-0.3017030845964360 0.1849876386265604 -0.1554518315243432 -0.4268213562266417 -0.9985009410837902 
0.3302469380025022 0.1126914397521917 -0.5732377015543996 -0.04619026747994356 -0.3145277927328704 
0.01299422884558295 0.01463005038756424 0.2059203042904176 -0.3480571591509823 -0.3809601991103772 
-0.9102494395635138 0.2777879977185191 -0.6360436871636708 0.3605108591096338 -0.4565428449944829 
-0.5747542750094171 0.9090578739518796 -0.5097473524742854 -0.5594094412266052 -0.4984129563050809 
-0.05508574645286424 -0.6315511884545586 0.06569594695755511 -0.2248412361439225 0.8557795562498469 
0.009808708269135803 -0.2402120796401744 0.1384638207317494 0.08947654758771734 -0.1446706166556461 
-0.5813728718063744 0.1069652898252392 0.1338864216326537 -0.4231802173144002 0.1797138328852473 
-0.2369252039697695 -0.4321804204129187 0.9120719661245569 -0.3948248436247830 -0.3125536081790899 
0.1133843963692220 -0.2819744439580339 -0.001033647206474023 -0.001137206719105096 -0.001366404416505703 
-0.06796112562874233 0.1536512290316666 -0.1545983061220283 -0.01464641377473225 -0.05743198946869391 
0 0 0 0 0 
0.07703542487908838 -0.2254981192652932 0.2427145669722221 -0.01449915400403096 -0.004882588936187421 
0.6266496875600615 -0.5792850962805203 0.01812972546813810 0.1489708309882379 -0.2721899169193406 
0.6661060634923688 -0.6170161036947863 -0.0006600740167850632 -0.01438555865844435 -0.0002482819208111681 
0.5153518249660877 -0.2130614964969012 -0.06010423332577506 -0.1618804068143297 -0.01176665592011368 
0.04953955470988422 -0.01801063469453586 -0.4534684164043326 -0.04834405792955232 -0.1810632377967728 
-0.1069184932952502 -0.1986748215275788 0.05031915723459750 0.2643542152284207 0.01676087599780040 
0.06571333239915639 -0.02284361807791806 -0.007535516260186504 -0.02708488420480889 -0.001036791839203322 
-0.08055306153363360 0.4514344955816687 -0.1424774440114659 -0.3407271433465828 -0.003057646884734087 
0.03245755057453006 -1.390443976241935 -0.4049804123873538 1.470792059405869 -0.1072254522099347 
0.2190878589606163 -0.4470316341199354 0.1744467776279346 0.2003542158765914 -0.04287668922144197 
-0.005164723846514480 -0.009693375610018255 0.01512807226670731 -0.002383427776112400 -0.007291158698393826 
0.3910154620159357 -0.4251125401077840 0.04570771005748552 0.3991168240058359 -0.4660168719781876 
-0.005164723846514480 -0.009693375610018255 0.01512807226670731 -0.002383427776112400 -0.007291158698393826 
0.002441350807617405 -0.6374278950379166 0.7734424248386873 0.2500457756220325 -0.2616051865805928 
-0.8752670625673963 0.1772218406719714 0.07015500138767491 0.5265618870663431 -0.2438778247998329 
-0.009170599817288837 -0.1379153612625546 0.2921973386065246 -0.02231653619160398 -0.007833816192776838 
-0.02179798519162632 0.2773801703758075 -0.2942571726284762 -0.01727115670799612 -0.02981353625367590 
0.2371540013653916 -0.2991846395077617 -0.0005131837620514033 -0.001419998533428415 -0.002790058288946157 
-0.2433851013790961 0.07845176988986169 -0.5692240166475431 -0.1574984175644694 0.5877607454549232 
-0.01796580815883022 0.007445813901229230 -0.01660040098709438 -0.02721680029370505 -0.002438378546839384 
0.6126418991100312 -0.4360909570868374 -0.1747534306512838 -0.03514001844982735 0.09420302971995463 
0 0 0 0 0 
-0.1952508485121526 -0.2392807449916176 -0.1002811365079410 0.3353835963760957 -0.06870923931722721 
-0.0008298695170782226 -0.1738053981312771 -0.001266995182985353 0.09912815807855009 -0.0003459497678862527 
-0.06059270313424064 -0.2395317417037031 -0.03660123593993249 0.06349683202932799 -0.008684274031283216 
0.1170584295211162 0.1346347182377577 -0.1243066778877800 -0.04895449479091929 -0.2722320491183989 
-0.4440003699324926 0.5953366914078958 0.1803662715259147 -0.5028652466210896 -0.08726601779449768 
-0.03782864763427454 0.02097274736783215 -0.03423585262176627 -0.08168309278853690 -0.01065932607657674 
-0.04388410345017218 0.04157021832330678 -0.02004134164661618 -0.06405196275376976 -0.01823706140186982 
-0.01391776879084620 0.005700679276064786 -0.002772044793290136 -0.01256492309196575 -0.007838216784681258 
-0.06622996399404066 0.07560541505081670 -0.02348835068588421 -0.07347200746892140 -0.04145804913096841 
-0.6044358236950447 0.07005788405874960 0.4309069643957955 0.2532429814795679 -0.07329250304021229 
0.4240334220680436 -0.1915646518024482 0.2141087094638318 -0.03891686579050212 -0.01774720083270283 
-0.09421024744643368 0.1472901934810432 -0.07662811255410157 -0.005263958027857442 -0.04737281046802064 
-0.0002411835788791849 -0.1707097008585680 0.09769358964889541 0.06684840840598080 -0.05421684005691459 
0 0 0 0 0 
-0.003512580528054610 0.07636576066290783 -0.01336181802647874 -0.06594163285787354 0.001476100213549200 
-0.01439216761866486 -0.3245404958489876 0.2215209148547090 -0.01050525834266023 -0.001402844196496863 
0 0 0 0 0 
-0.01258744896597585 0.02472260098678929 -0.04793010499794431 -0.01418620680686959 -0.01151846126554829 
-0.02713290825606340 0.2652535510641115 -0.06582843230907699 -0.2373647072449454 -0.02018235344484658 
-0.001162498566495348 -0.3650754032069838 -0.003792251890195273 0.2400770420709482 -0.002586856313143651 
0.1321638722250849 -0.3111887795416228 -0.006779270664274501 0.1828892938516089 -0.002134675827510410 
0.4515130620778907 -0.4447894595939432 0.3323499178025907 -0.4126232445962781 0.4195716921139913 
-0.0001729366633391926 -0.01428946017766880 0.09442800915609678 -0.001725670656819938 -0.1212801429458369 
-0.003525740796502950 -0.05762465361104037 -0.02003482636789611 0.06291541886667448 0.0003233863174974538 
0.2863421318038850 -0.1788467943991523 0.05803074767130073 -0.02524727596704971 -0.04842399078649514 
0 0 0 0 0 
0.1033267758936854 -0.3323420164533402 -0.01682202123012835 0.1251944063131231 -0.008661614446730675 
-0.03329333100383911 -0.08782185403443013 -0.03004566690564260 0.1611809687517530 -0.01884281514034605 
-0.1016041677047299 0.1161366673130122 -0.0009499051440824272 -0.03942095347203745 -0.003422557305135831 
-0.1016041677047299 0.1161366673130122 -0.0009499051440824272 -0.03942095347203745 -0.003422557305135831 
-0.1016041677047299 0.1161366673130122 -0.0009499051440824272 -0.03942095347203745 -0.003422557305135831 
-0.06345836290332570 0.1120492882978505 -0.06402588881911316 -0.02183468752640860 -0.02509516831459325 
0.4470177114877406 -0.6511477384224131 -0.2483769749461635 0.8541508653869421 -0.1754521516629546 
-0.04977792908742857 -0.06347679263390205 -0.03579613949494818 0.08386149320425403 -0.01339903438493937 
-0.2839017671872704 0.06760322620892686 -0.1009114647578288 0.1235175613559105 0.2190430347253621 
-0.003064311426135480 -0.1375137322368131 -0.002645202059928798 0.1146419354532824 -0.0006918764875380404 
-0.003064311426135480 -0.1375137322368131 -0.002645202059928798 0.1146419354532824 -0.0006918764875380404 
-0.2238619200143223 0.3118358595952201 -0.3512504816341683 0.1215363958292356 0.3885799212802705 
-0.006409495390898937 -0.1943629164020076 -0.002114737974170172 0.2435463940846336 -9.274582690018745e-05 
-0.006409495390898937 -0.1943629164020076 -0.002114737974170172 0.2435463940846336 -9.274582690018745e-05 
-0.3390043947235332 -0.1190172662767355 0.09028299713639731 0.2352959845639826 -0.05721917853952067 
-0.1647470626174553 -0.02781347326883323 0.02706602282121916 0.2143974280464421 -0.1123032142218298 
-0.001559630586468582 -0.05314736321738511 -0.003792040956540393 0.04739274448993413 -0.0004182330974765173 
-0.0008272006894947538 -0.1345132820304447 -0.0007277898451253483 0.1048734270670666 -5.175434324299265e-05 
-0.001531386131567204 -0.1172078199466397 -0.001488471733104009 0.06538092338400915 0.001606831941615608 
-0.0007574171029021920 -0.2471381626788798 -0.001369134122713156 0.1240740680852769 5.948069336483364e-06 
-0.2435447717001078 0.5655892573898091 -0.01351314885733790 -0.03506879912184603 -0.006495840686499292 
-0.005389962300384956 -0.1837999169855241 0.2081181856549097 -0.003448365340783262 -0.02329111653514956 
-0.003294747973551049 -0.07355046507149295 0.1231254884724635 -0.01229738696967400 -0.004612655529218939 
-0.03017062371551738 -0.1007596219394088 0.3460837731465356 -0.002341426085350864 -0.1932287069433171 
0 0 0 0 0 
0.1234404441787047 -0.06966783402643764 -0.02479033472817016 -0.0003936791818347882 -0.002341514761855287 
-0.01823224092926775 0.3742399139772398 -0.003615924198270747 -0.5571200091189368 -0.0009089289745697128 
-0.02562759820867051 1.607607370867426 -0.02746225214254564 -1.497189897266577 -0.002122475890426560 
-0.2030247757919509 0.4368261746592991 -0.1658821417854805 -0.03993147986578582 -0.04840647180946145 
-0.07875568993108785 -0.2603995339016552 -0.001595249422211450 0.5144127810209915 -0.002646337298611061 
0.2537474768435069 -0.1300348581442285 -0.01649190002379260 -0.05216654222280646 -0.008034464548955345 
0.2537474768435069 -0.1300348581442285 -0.01649190002379260 -0.05216654222280646 -0.008034464548955345 
0.1740924232551983 -0.3164230703264868 -0.08268762797189257 0.1823213248945503 -0.008599364555803117 
-0.06067963492989601 -0.1316009705306954 0.2306137641543947 0.06354576317978289 -0.1134608165759756 
-0.0005274184156522390 -0.02195267806365853 -0.01441826156699757 0.04841544508283047 0.0001399004206828235 
0.03582252430573572 0.04313850011094536 -0.04471377264867723 0.09353372834693355 -0.01232427629035151 
-0.01903918427982344 -0.5212321344972944 -0.01072347541925293 0.5656618034488191 -0.006101602130260756 
0 0 0 0 0 
-0.004840180478623921 -0.06133090423897758 0.02971690287001533 0.04420012395073313 -0.004190027810424571 
-0.01295551767424814 0.003548421495794013 -0.009002314283751091 -0.01253840111947008 -0.008468733986476640 
-0.02542507658299898 -0.1459100702377278 -0.01019469545820776 0.1770022105606761 -0.008546566440687140 
-0.3188060070578891 0.3988323726841364 -0.2003391174349211 -0.02581577260440142 -0.1643578542743413 
0.01546382753103146 0.6246445690595003 -0.1455178182806930 -0.4892286952487592 -0.06870626051186206 
0.1030635664331656 -0.3264410941197033 0.3305824065114703 -0.007017490320653540 -0.03002231013006422 
0 0 0 0 0 
-0.01808749426471915 -0.2681973170377035 -0.01727978837588831 0.2983854061195611 -0.006961626871042682 
0.1149224131015998 -0.2541603417161841 -0.002369356900820663 -0.001153206615205292 -0.001908731002212158 
0.1067460729027440 -0.03530482761511415 -0.0002395428471481293 -0.04049830489003190 5.109967692499217e-05 
0.1067460729027440 -0.03530482761511415 -0.0002395428471481293 -0.04049830489003190 5.109967692499217e-05 
-0.003641438660856665 -0.1782862179893919 -0.001837362017884466 0.1594776478779638 -0.001163900038540950 
0.1206646140449758 -0.05692351484810888 0.3779289231129205 -0.1132675141260095 -0.2399369576274247 
-0.01665536252019800 -0.1096714808889072 0.4723850248025416 -0.005785181744154416 -0.1811691732495330 
-0.5077127871069351 0.4205218179559291 0.1623173987042360 -0.07820994472534720 -0.006462884634074573 
-0.0003629770521685194 -0.4501312087357928 -0.02799155092342875 0.6418989159983100 -0.007675012839086048 
0.1623295780192698 0.4920373484877885 -0.2899057297279402 -0.3857584661913414 -0.2990895855992977 
-0.02049443126734010 0.1849802207758228 -0.02486719528974475 -0.1839740442506853 -0.009748874161553950 
-0.005182006472204827 -0.2243673036300555 0.2967670460364860 -0.006045057047610233 -0.001764458146578498 
-0.005182006472204827 -0.2243673036300555 0.2967670460364860 -0.006045057047610233 -0.001764458146578498 
-0.005182006472204827 -0.2243673036300555 0.2967670460364860 -0.006045057047610233 -0.001764458146578498 
-0.005182006472204827 -0.2243673036300555 0.2967670460364860 -0.006045057047610233 -0.001764458146578498 
-0.005182006472204827 -0.2243673036300555 0.2967670460364860 -0.006045057047610233 -0.001764458146578498 
-0.02946582927457865 -0.2451939569631266 0.4145488492239544 -0.003843803812723803 -0.02538457547737623 
0 0 0 0 0 
0 0 0 0 0 
0 0 0 0 0 
0 0 0 0 0 
0.01158879088058849 -0.1678905672388658 -0.03435737543680292 0.2033462593705858 -0.03931849149484109 
-0.03105686206045756 0.09085997607730367 -0.02378395802098176 -0.08243277419642750 -0.02900587395248332 
-0.06266544866486115 0.2499277545284878 -0.1204212774522764 -0.03364566794287221 -0.004431223152881201 
-0.06266544866486115 0.2499277545284878 -0.1204212774522764 -0.03364566794287221 -0.004431223152881201 
-0.02824893839630925 0.2899362554659488 -0.09080528194039723 -0.5491318709471499 -0.04703489117471297 
-0.01849914157570698 0.1080051727011302 -0.08435357553121096 -0.01795415531960419 -0.04395631466141167 
0.1266643959073460 -0.1495075621908082 -0.05399522077181621 -0.004819515169026753 -0.007998625096151680 
-0.007418151089938272 0.1350492368365460 -0.01151433870611385 -0.1424376591230655 -0.002534897210732010 
-0.001681099005712876 -0.04215110202970194 -0.01155667969131877 0.05645028125937661 0.0001536116412051028 
0 0 0 0 0 
-0.003952529592253052 -0.1649574509041259 -0.01578319509771940 0.1054122674469216 0.0008883713821497465 
0 0 0 0 0 
0 0 0 0 0 
0 0 0 0 0 
-0.02293946809378783 -0.3474270570991973 -0.07320386203903811 0.4038193245886502 -0.007232046839602638 
0 0 0 0 0 
-0.0004072171013295902 -0.1114094734328186 -0.005785703734804967 0.1230686334817754 -0.0003842381707092214 
0.05768253856089405 -0.05093632144568116 -0.01776254609362150 -0.002023151474101660 -0.01575420927342103 
-0.005870515726629095 -0.02090496913221070 -0.002416591049725571 0.03005441167702812 -0.003741794976808856 
-0.1654563053901023 0.4182644709971345 -0.1515287890444278 -0.6035011889925256 0.2393921095252359 
-0.03219981245638454 0.7438435406303298 -0.02776722445952277 -0.5211325706234109 -0.003371819304636718 
0 0 0 0 0 
0 0 0 0 0 
0 0 0 0 0 
-0.04689728625855499 0.2549020119491017 -0.02044800770121210 -0.3322352412852326 -0.02090721458620472 
-0.0004811035218466139 -0.2743985642175212 -0.01895902622996616 0.4093782073063972 -0.02037005435382807 
-0.04851466187305224 -0.6199114703207870 0.2268090224594803 0.2382859162584702 0.4554655848872086 
-0.03941909036846100 0.2651035235324233 -0.09087110473759030 -0.1173338113595166 -0.004189809130770996 
0 0 0 0 0 
-0.1521251369770713 0.1918701506495883 -0.1330369142823326 -0.07510054739334960 -0.02092155639479689 
-0.5180245465826774 0.6012320011637937 -0.004256814050162107 -0.008644382463244830 -0.008796728185546738 
-0.02242862767050933 -0.001430916088495758 -0.005744917875754242 0.05725215972851863 -0.004595779000918985 
-0.02410257773755095 0.2265867049413314 -0.05452494932981600 -0.03809266633363633 -0.06335632063681985 
0 0 0 0 0 
0.2440687353714041 0.3770772859179712 -0.04916798800236447 -0.4708717569624145 -0.04070918788668200 
0.1640997517509638 -0.01265631146478318 -0.2347672735398489 -0.008337596745282038 -0.01917442934859935 
0.1848289534923245 -0.2470802079037225 -0.001719844723157317 -0.001922936064897144 -0.001588614079858224 
-0.1190401122435276 -0.2055771330920081 -0.04732832879943641 0.4294634242421233 -0.02755264929147344 
-0.03687762311850711 0.1321983098150316 -0.001540655256456103 -0.1625744823238763 0.002967165015117453 
-0.002560283083476620 -0.4722105314198271 -0.005984673173205601 0.6093961029176661 -0.007934277840191910 
-0.2226381635763635 -0.01171785675270400 -0.009554318696526930 -0.006586786460196099 -0.006414481213349818 
0.1234015286559819 0.1302944181281195 -0.2242707455109593 -0.03988036010559927 -0.1292150387557536 
-0.1490646458514484 0.2058538774800886 -0.001701870676525714 -0.08019501214755550 -0.001145273847028743 
-0.2565109057613733 0.8354790343597096 -0.01861678101059140 -0.1584557018657798 -0.02276137996026718 
-0.01246955890875084 -0.1494584917335219 -0.001192381174456668 0.1895406116801461 -7.783245421049933e-05 
-0.007006595362986212 -0.1134882336104995 -0.003678168922676600 0.09812676944588958 -9.758637938823178e-05 
-0.007006595362986212 -0.1134882336104995 -0.003678168922676600 0.09812676944588958 -9.758637938823178e-05 
-0.01157812904203402 -0.2378079826453192 -0.005526658520575502 0.2501974720567899 -0.002034624340444274 
-0.3201307290332179 0.1681959625633856 -0.03517184726398342 0.07467320660811975 -0.006105354179627610 
-0.003853825557359979 -0.02284539670396498 0.01918881544717255 -0.001299910109631108 -0.006903345295817867 
-0.002427675623845409 0.06466631170520873 -0.01127550500128149 -0.06357511468893340 0.0007667346549375615 
-0.01846215282950579 -0.3919155906430267 -0.01267059802170884 0.5243367728359611 -0.003998230740960404 
-0.08603636737232258 0.05642104854966468 -0.06173060117627032 -0.0008049356075891534 -0.008258460213682161 
-0.003464784465164817 0.006118541108785191 -0.01206069198720491 -0.01895767113385304 -0.0006221203666074328 
-0.01136108803973700 -0.2589999182165232 -0.07062256062288354 0.2958182488059408 -0.008407249730091921 
-0.2162911679965445 0.2213329296964512 0.1201016188758382 -0.05421785788791640 -0.1153734572375438 
-0.1433745859629043 -0.2578491654612439 0.06726194165273730 0.03330702295244351 0.2733115784354975 
0.06954069442049128 0.07925842033109333 -0.2131360624277915 -0.01088039783877509 -0.04131360606818866 
-0.001526511173956726 0.06516544536951300 -0.001126419295468579 -0.08650512795329388 0.001930647726177278 
-0.007492458113784881 -0.05782065258858171 0.2219153265378394 -0.002067607152032031 -0.02980958691313370 
-0.007492458113784881 -0.05782065258858171 0.2219153265378394 -0.002067607152032031 -0.02980958691313370 
0.09821301240401943 -0.2730217342149472 -0.002233934049004703 0.1295970507323834 -0.0008283208571784780 
0.09970548748603046 -0.09685228363066554 -0.0005098654216844996 -0.02622920762853195 -0.0002006414499527083 
0.09970548748603046 -0.09685228363066554 -0.0005098654216844996 -0.02622920762853195 -0.0002006414499527083 
-0.008648742784107738 0.1604820554306717 -0.2071997610376346 -0.005524589682475515 -0.01802274475271667 
-0.02632325869090711 0.01300019247805268 -0.004275196133535740 -0.01856065772934421 -0.006942669151092271 
-0.02463693704061950 0.09376659974735757 -0.02783838622977614 -0.03091602215445582 -0.02442985827801689 
-0.03476264404414031 0.1589745950321906 -0.05716314602204482 -0.07326658072172340 -0.02246759462988538 
-0.03476264404414031 0.1589745950321906 -0.05716314602204482 -0.07326658072172340 -0.02246759462988538 
-0.04055208288211074 0.3801918071186590 -0.02447895552011703 -0.05766111226572597 -0.002261511606584542 
-0.006739002251505036 0.01512162695823907 -0.03893333592098591 -0.009315886638645495 -0.04983412225349553 
-0.02291152017177639 0.1745944307362102 -0.02315438247365547 -0.1611683024479367 -0.007730391209656405 
-0.002900425679418176 -0.09297816276877016 -0.002510115357603582 0.09742102287928452 -0.001268513015285159 
-0.01059675355710129 -0.02333890981861733 0.02267192524546450 -0.0007354891722271164 -0.03779083484327481 
0 0 0 0 0 
0 0 0 0 0 
0 0 0 0 0 
-0.03206829274652465 0.1739564188174367 -0.08339861175762542 -0.07480741744473603 -0.05035137729399391 
-0.01920869760197091 -0.08874852848010058 -0.05712132392941111 0.04851834718926194 -0.01541819352680470 
0 0 0 0 0 
0.1053649026831762 -0.02482347099854068 -0.001630641309911974 -0.05863924460085864 -0.0003353493665658673 
-0.1202871121951360 -0.2805748012504552 -0.1110677565952556 0.3582523744249628 0.1733937906387056 
-0.03574924212087845 0.2799872540753365 -0.07802166008373917 -0.1570695175670590 -0.01477852744054355 
-0.002143712778517696 -0.1891439677458468 0.2437076701148688 -0.006388420081983395 -0.002683566685306531 
-0.002143712778517696 -0.1891439677458468 0.2437076701148688 -0.006388420081983395 -0.002683566685306531 
-0.002143712778517696 -0.1891439677458468 0.2437076701148688 -0.006388420081983395 -0.002683566685306531 
-0.002230115724005023 -0.2479913618861334 -0.001595395422592293 0.1839180395689285 -0.001000821480058773 
-0.02045238529375503 0.1604763121128765 -0.04239372146648672 -0.08853728822561874 -0.01386555189868052 
-0.02045238529375503 0.1604763121128765 -0.04239372146648672 -0.08853728822561874 -0.01386555189868052 
-0.02045238529375503 0.1604763121128765 -0.04239372146648672 -0.08853728822561874 -0.01386555189868052 
-0.02045238529375503 0.1604763121128765 -0.04239372146648672 -0.08853728822561874 -0.01386555189868052 
-0.1176744878369512 0.2855202152545625 -0.05788796617665493 -0.05471182225826345 -0.008654459008334610 
-0.1176744878369512 0.2855202152545625 -0.05788796617665493 -0.05471182225826345 -0.008654459008334610 
-0.06402184789575445 0.2404687763839440 -0.1439985112436648 -0.02328818689581060 -0.06215047317995463 
0 0 0 0 0 
0.2657689280227747 -0.01966995335522911 -0.01976697161547935 -0.02953130080664904 -0.03355745052103071 
0 0 0 0 0 
0.2063078597050063 -0.3998566899807505 0.2534649755588435 -0.02948575800424390 -0.004234667652918769 
0 0 0 0 0 
-0.04115408152284713 -0.03817994694153618 -0.01927023331755648 0.03552986873587576 0.04551495296621588 
0.06071685925878921 -0.2638333184502748 -0.01439311540104743 0.1634599570035515 0.1233718957493182 
-0.1381811093888631 -0.1653973429578662 0.4470625435308654 -0.01207065373444333 -0.1964127229592690 
0 0 0 0 0 
0.1923569344214417 -0.1901326760609723 -0.04343867444460223 -0.0003407234589938792 -0.01469669259275580 
0.3224226694964854 -0.5383457007939705 -0.03239059369513209 0.2758715143518674 -0.04170289774022494 
-0.01782988174280325 -0.1593851263098997 -0.01657470554303708 0.2102573860168267 -0.01061413626346250 
-0.09892644552682650 -0.3263418745088703 0.4519398413055601 0.3483906053615624 -0.01558955662032569 
0.06208400458429689 -0.1075936046884356 -0.009565709810044920 -0.009715717249122676 -0.003205284532057675 
0 0 0 0 0 
-0.003065438969002964 -0.1785688979131611 -0.002662151206282453 0.1908831402995921 -0.0006582277827695525 
-0.001223481408350896 -0.05619348189885070 -0.0008557428443089672 0.02643414508960984 -4.427373172311813e-05 
0.06773541463861033 -0.04973777967138860 -0.002045100062039563 -0.02680832986087836 -0.0004135318748161816 
0.07292141728048782 -0.05192247402649144 -0.01297141359944671 -0.0009033017907566918 -0.001640654336247567 
-0.007688061398377714 0.01837709038839274 -0.01508676487779273 -0.01657513509790745 -0.005681235212969095 
-0.007688061398377714 0.01837709038839274 -0.01508676487779273 -0.01657513509790745 -0.005681235212969095 
-0.007688061398377714 0.01837709038839274 -0.01508676487779273 -0.01657513509790745 -0.005681235212969095 
-0.007688061398377714 0.01837709038839274 -0.01508676487779273 -0.01657513509790745 -0.005681235212969095 
-0.05107897784488863 0.1234804083774042 -0.02239399992745200 -0.03691386364688971 -0.03349565192243437 
-0.05107897784488863 0.1234804083774042 -0.02239399992745200 -0.03691386364688971 -0.03349565192243437 
0.2669629082331904 -0.2657876947377733 -0.01595411310129209 0.3182285228504505 -0.1270495816149907 
-0.01627465958627240 0.08944591734190135 -0.05188070627760618 -0.005163401985882514 -0.02915270138666903 
-0.01627465958627240 0.08944591734190135 -0.05188070627760618 -0.005163401985882514 -0.02915270138666903 
-0.006876263120388039 -0.02783720373417920 -0.001719750600835064 0.03804331164113788 -0.0006131181786963132 
-0.007633756185467793 0.1602130513971283 -0.06962611674039178 -0.1122448266487882 -0.01003050539925892 
0.2111391897168043 -0.1320761198612402 -0.01127539821448765 -0.009924351348235800 -0.02324500696510278 
0.08716072751480385 -0.05009338631730411 -0.0007646726356994041 -0.02968437474372766 -0.0003220011895268216 
-0.03142522410148397 -0.1753069862456058 0.2871308718075299 -0.006071298774609516 -0.01019134453817520 
-0.01020537377312967 -0.1186474762553958 0.1351336788199325 -0.001774845654347583 -0.01434974328962759 
-0.0006683533632747522 0.02008358482544412 -0.0003934843655135547 -0.04256602854552788 0.001377260386736110 
-0.0006683533632747522 0.02008358482544412 -0.0003934843655135547 -0.04256602854552788 0.001377260386736110 
-0.08833868300902878 0.03891347736568987 -0.006118001641980593 -0.03035269351692676 -0.006025441095622113 
-0.001769682363970040 -0.01095473126340443 -0.002238760834913109 -0.01180667870316861 -0.001043784080423819 
-0.4752157928878261 0.7501875401645712 -0.01097953517378903 -0.2526977291910827 -0.002494181656681058 
-0.001769682363970040 -0.01095473126340443 -0.002238760834913109 -0.01180667870316861 -0.001043784080423819 
-0.001769682363970040 -0.01095473126340443 -0.002238760834913109 -0.01180667870316861 -0.001043784080423819 
-0.1609093510877931 0.3568021825748331 -0.1740035364599092 -0.03626192275480294 -0.1368164230293301 
-0.002488167154458303 -0.07758172048582088 -0.01229269139174261 0.1018953468397324 0.0005124358565449598 
0 0 0 0 0 
-0.002418553231692936 -0.05030754170462420 0.07465703682236080 -0.01213784148149809 -0.01930146747586181 
-0.002418553231692936 -0.05030754170462420 0.07465703682236080 -0.01213784148149809 -0.01930146747586181 
-0.009777600806121391 -0.2737175611642404 0.2430712514106549 -0.01352016339100806 -0.0008414048996075212 
-0.06168538953687291 -0.1804849269454213 0.2400678050131271 -0.05654786512043155 -0.002266111926408551 
-0.001477660178299277 -0.06815025211378777 -0.001107158537837541 0.06157307553966906 -0.0009107416213058322 
-0.01966140976735716 -0.03407829937315978 0.02170966610769912 -0.004122773788841193 -0.001953481202198860 
-0.0005062779315718915 -0.2545035854849485 -0.0008269460451196444 0.2064765418655758 -0.0003911301664369211 
-0.003488744956040776 -0.2776503836258593 -0.003844679234812305 0.2433880293712304 -0.004439015930455242 
0.3985074934471473 -0.1307252958240400 -0.06590995341575423 -0.01129429671901738 -0.1166100153509641 
-0.02323902262722511 0.1489749568410099 -0.03991104768313176 -0.07168682182236177 -0.004672933242869140 
-0.02329164636001775 0.01222899277205039 -0.04672162953559304 0.03312675333961170 -0.004532949551102061 
-0.003692954059176075 0.2204035362252121 -0.05863237794079355 -0.2166315805690564 -0.004573845297427589 
-0.0006405542606160099 -0.3306195976973351 0.3128717487023696 -0.004504104214880623 -0.02390162134308315 
-0.01934955772971441 -0.09264080674758911 0.1048460866014331 -0.006697172821564190 -0.03420739811047151 
0.1397351232606211 -0.1434388896756059 -0.006096519439607554 -0.002558179099442234 -0.002458686507010744 
0.08095639541397535 -0.05022227358481470 -0.02511537777425698 -0.001433001502036708 -0.0007951502494202790 
0 0 0 0 0 
-0.1243349521038351 0.1499365402395993 -0.1170512603973343 -0.01036244233646385 -0.07181148736155680 
-0.1134544472839983 0.06749712468600197 -0.02786496954735043 -0.01025978234897605 -0.06014062500986019 
0 0 0 0 0 
-0.0008024478576685470 -0.03299489146516194 -0.06548163462240777 0.09436338720127260 6.214346884368780e-05 
-0.0008024478576685470 -0.03299489146516194 -0.06548163462240777 0.09436338720127260 6.214346884368780e-05 
-0.01004523664444025 0.4996864228862015 -0.004342921295095825 -0.5646720721058082 -0.004948532931922188 
0.2173960503407605 -0.09904385760058727 -0.1156595805673788 -0.001463970342795505 -0.01910797259834292 
0 0 0 0 0 
-0.04258743138965886 -0.02035422292735212 -0.03640359090119642 0.1338613141343568 -0.006453672839132132 
-0.001207742965303218 -0.02348145976553409 -0.001935847681434298 0.03993754587453265 0.0001578789784513062 
0.2020042308227121 -0.2287689208859031 0.06145211942349525 -0.006279229699381473 -0.003140825985557364 
-0.007293400848930436 -0.1455527467459098 -0.005949435063884056 0.1448385907380130 -0.001821556272997066 
0 0 0 0 0 
-8.462873702143287e-05 -0.06441492514599818 -0.003937805202075133 0.02877746985010476 0.0001563699328459126 
-0.05990342402229448 0.08689482293899925 -0.04605208726002937 0.003774206949800466 -0.02323850564870409 
-0.05804443833026023 0.1727618241982004 -0.2302556976048965 0.06120044889389430 -0.02900767812047968 
0.1133843963692220 -0.2819744439580339 -0.001033647206474023 -0.001137206719105096 -0.001366404416505703 
0.1133843963692220 -0.2819744439580339 -0.001033647206474023 -0.001137206719105096 -0.001366404416505703 
-0.009809356558624930 0.8779632821770139 -0.01834481214005848 -0.8065000348242890 -0.006102989910354908 
-0.02517782307880847 0.3756119027069969 -0.3051940348343486 -0.02798909992927441 -0.07606663211310372 
-0.006549111867959657 0.09905567501359086 -0.01740954002126483 -0.06880540476155757 -0.03526666307820116 
-0.02877055546695072 -0.01614358166917638 -0.004516757095718025 -0.01168085969407127 -1.804595354961487e-05 
0.1005810361678074 -0.1731834040425078 -0.0009384591832561525 -0.0007329475301936533 -0.001924129317671439 
-0.01777196815034267 -0.1091580786050726 0.09058539055588256 -0.001491687281911339 -0.01348846565455673 
-0.01777196815034267 -0.1091580786050726 0.09058539055588256 -0.001491687281911339 -0.01348846565455673 
0 0 0 0 0 
0 0 0 0 0 
0.1300389463657417 -0.01780553027019705 -0.005000786809304486 -0.05674205584470952 5.424681331120287e-06 
0 0 0 0 0 
0.1367426993358133 -0.2365082273957530 -0.1072947915753583 -0.001713149339906415 0.1168148956411779 
-0.0006774842896205072 -0.1570946825028536 -0.002971837552655775 0.1279273885694963 -0.0006597086112811057 
-0.01531035519150257 0.5170343568828961 -0.01708616779706645 -0.4004027956696414 -0.0005368408504281223 
0 0 0 0 0 
-0.02266055237214113 -0.04512643617189437 0.04424111578182527 -0.003445163159191622 -0.004440010239355281 
-0.006140725430425320 -0.02760354753608999 -0.0009680868129075386 0.02563958475410566 -0.001642922967539381 
-0.006140725430425320 -0.02760354753608999 -0.0009680868129075386 0.02563958475410566 -0.001642922967539381 
0.1618038927671359 0.1002016032700767 -0.08135154616402934 -0.05699459633719645 -0.1135419527021516 
0 0 0 0 0 
0 0 0 0 0 
-0.1066858292691448 0.1807846511533794 -0.2529540842770156 0.1710854889808487 -0.05026328274533708 
-0.001235058746434138 -0.08056905797145172 -0.002311209737125810 0.03865221864421858 -0.0002246786359039876 
-0.001235058746434138 -0.08056905797145172 -0.002311209737125810 0.03865221864421858 -0.0002246786359039876 
-0.04026384042732861 -0.02836784758849477 -0.04731628840335145 -0.003104042536099115 0.1404683956378569 
-0.03276328078100375 -0.1057810669116168 -0.002103332827143516 0.08955856691222389 -0.002751829830915798 
-0.002993881277976600 -0.03926690428325452 -0.002849973339134767 0.08019592468943956 -0.007725920429963691 
0.06695039859123670 -0.07149002843193555 0.02519020835482465 -0.006303959558195436 -0.009498434489965407 
-0.03934928900087716 0.02438935182112622 0.0005758837997287783 -0.006773293925239681 -0.0001180372603680387 
-0.1360877546273967 0.1163751139905436 -0.002720765134464580 -0.01682048777728444 -0.0002645093858269327 
0.05914719594857082 0.4190448868804655 -0.02758877021495534 -0.4847233967651375 -0.003980936539294938 
0.2733224707043117 -0.4166283455416128 -0.01942859487348270 -0.001125724878386804 -0.002569655815982526 
-0.006739400162791589 0.5246482708170990 -0.005167689364145077 -0.4414977094800430 -0.003376660337895066 
-0.006739400162791589 0.5246482708170990 -0.005167689364145077 -0.4414977094800430 -0.003376660337895066 
0.2745344082424890 -0.1221176339727361 -0.04779107083799310 -0.01042728372674623 -0.02013420197671395 
0.2745344082424890 -0.1221176339727361 -0.04779107083799310 -0.01042728372674623 -0.02013420197671395 
-0.0005759615514092483 -0.07303064941510323 0.04557157040890365 -0.003769777254564621 -0.001909567259082332 
-0.0005759615514092483 -0.07303064941510323 0.04557157040890365 -0.003769777254564621 -0.001909567259082332 
-0.0008167350060938224 -0.1631707534947700 -0.004371679316755018 0.1061053066973264 -0.0001169449935727579 
-0.004969799516559179 -0.1151805282938700 -0.001900157513114652 0.1765079370432097 -0.001633555847496637 
-0.01558858653933940 0.5716047570424369 -0.008729578859353180 -0.5501519552496082 -0.005084033274044606 
0.06323029551925617 0.005503471188854223 -0.1255077845684162 -0.03445736265249749 -0.05327045725279981 
-0.01890147416957942 0.04339510107390468 -0.01096639131424071 -0.01294435791229289 -0.01371185061647614 
0 0 0 0 0 
-0.005619898054324444 -0.1063480555051275 -0.001292451491944175 0.1573456728255774 -0.003079607588534526 
-0.03739757557919303 0.1557349679478901 -0.1437600446930896 -0.1067728591959436 -0.01815183478981354 
-0.03638375306966748 0.1362856480353716 -0.1325514925744989 -0.04062523356503148 -0.01862203466123117 
-0.002628242651588288 0.06229585980044844 -0.004942008403661454 -0.05555542750020093 0.001173278602665328 
0 0 0 0 0 
0 0 0 0 0 
-0.03017166844126322 0.9306385781534993 -0.01026417876063760 -0.7338256993603016 -0.007655842555093382 
0.05683342644187928 -0.09170465823227546 -0.005822015874301277 -0.003580778075631097 -0.001203339579204410 
0.05683342644187928 -0.09170465823227546 -0.005822015874301277 -0.003580778075631097 -0.001203339579204410 
-0.1241258815561578 0.06933384359557951 -0.01041109911141687 -0.009328894276697586 -0.02569963696097282 
-0.1080603574214931 0.1334140953838383 -0.06872527269865361 -0.02706393539649003 -0.03372032001105112 
-0.1146233836539937 -0.06311550169933539 0.3085915315030199 -0.06778737437778434 -0.03767745632179957 
-0.006563026232500623 -0.1965295970831737 0.3773168042016735 -0.04072343898129432 -0.003957136310748446 
0.1618038927671359 0.1002016032700767 -0.08135154616402934 -0.05699459633719645 -0.1135419527021516 
-0.01729044640523395 -0.3199941759128726 -0.01772729042638822 -0.01308299228015620 0.5406484421089295 
0.1705730785851831 0.1717580055666835 -0.03567524851190928 -0.3880371065947786 -0.08535730494747075 
-0.004551199471368936 0.2822724114424862 -0.005853626293331360 -0.4045374254009088 -0.003216531525737406 
-0.004551199471368936 0.2822724114424862 -0.005853626293331360 -0.4045374254009088 -0.003216531525737406 
-0.09057680948770243 0.1433526892117437 -0.1408410256003821 -0.01187446854361807 0.09236727580557408 
-0.08765666559266412 0.3158736340970685 -0.1270317579274719 -0.009054976434560092 -0.08264218723211113 
0 0 0 0 0 
0 0 0 0 0 
0.0001848081262518791 -0.06232772533137044 -0.007924668891392183 0.1295718635892275 -0.0002565048271808003 
-0.03471735707396225 -0.4109870361099129 0.4040271867039831 0.09588756082281052 -0.003596311955542827 
0 0 0 0 0 
-0.002865970729422488 -0.1555132954997943 -0.002665332306286273 0.1346066639580687 -0.0006966588600006132 
-0.002865970729422488 -0.1555132954997943 -0.002665332306286273 0.1346066639580687 -0.0006966588600006132 
0 0 0 0 0 
0.2293229889368902 -0.2710048939243722 0.03057826497224494 -0.009518655279661887 -0.02243150123668397 
-0.001320043365373411 -0.1149546184877668 -0.001233691235097882 0.1115306363724442 -0.0008414995156584437 
-0.4057505729049187 0.1186418811167596 0.1072956563494663 0.1156553621421085 -0.01521769061160122 
-0.005171287078404648 -0.1054717978557760 0.1186150686596893 -0.006367166200808682 -0.003032105808312911 
-0.3755474128838572 0.4088520627641749 -0.008752584546812983 -0.03649062736014428 -0.01629252498975570 
-0.03406469062261578 0.05086211259266878 -0.002480297943393990 -0.006515167080589626 -0.005567093256097430 
