solver_type L2R_LR
nr_class 5
label 3 5 1 2 4
nr_feature 4315
bias 1.000000000000000
w
-1.031872446124483 -0.3881754914950752 -0.4090683856705046 -0.2821059112135838 1.608565709718349 
-0.1032625029715449 -0.7038707174663924 -1.188156824434293 -0.2721642792244410 1.764548103065450 
0 0 0 0 0 
-0.7960439786666789 -0.3751074415694956 -0.3456277196806629 -0.4694266685174031 1.351564680278847 
-1.148550205116591 -0.4418854747478606 -0.5295520340211051 -0.6014240440347662 2.143492624274835 
0 0 0 0 0 
-1.128554697539534 -0.3125463114452229 -0.1714240468803637 0.2470216476797830 1.186008785503706 
0.08791317868587830 -0.01755067348129845 -0.01331944527703861 -0.009450921809230966 -0.09216449666274079 
-1.209525224416194 -0.01094192083596248 -0.3813529973104644 -0.2324529748512169 1.306234957267359 
0.03633980101539818 -0.4692559908294867 -0.4500053580180257 0.05438310296906185 0.1562029896451557 
0.08689367459527306 -0.02104472532391896 -0.01064197245830786 0.0001411319230649683 -0.02867561742119491 
-0.2097179530477044 0.8226940657240865 -0.07143216342433141 -0.4775385205137001 -0.2223858687419174 
0.1600823510936337 0.3989548390657298 -0.08640742573781608 -0.1886162240420713 -0.1738608788697538 
0.3030206861989498 0.4504113050384209 -0.3321968258380222 -0.09823086012140662 -0.6522511321240486 
-0.2698010746603216 -0.4542704095411421 0.9258504964819186 -0.2291922000132755 -0.5195740277715859 
0.04090842870245896 -0.003525896631546568 -0.006539431570266468 0.0001505449992816710 -0.01091737402146551 
0.2813911581982628 -0.3240719188425998 0.1449477912077692 0.1225812633710025 -0.3423420411877456 
0.1166575247900102 -0.008494008953265852 -0.02735426833127450 -0.01248034065811214 -0.08996258353953408 
0.2049333532602146 -0.7289837257799586 0.7769268559923277 0.4861427485122910 -1.031688036863753 
-0.03651211997360034 -0.001772410358114432 0.05286371749053623 0.0001879692343238483 -0.01150735009624585 
0.08090148532460488 -0.003503314792742373 -0.001104741856138766 0.0003809360182657885 -0.09470255195668303 
0.07189977674450768 -0.01163539350305750 -0.02132819430297353 -0.001577343742151282 -0.05430142764302692 
0.2506278653509528 -0.07837420473158492 -0.1781095051744380 0.04997505905910964 -0.2407965802137022 
-0.1057735398564026 -0.005813330808965816 0.4277704916242156 -0.01262336636385527 -0.4651291201772768 
0.08356444475975850 0.1620606842442431 -0.05717971813724099 0.1474956449145543 -0.4578833770486632 
0.1381697997604705 -0.04255876211631729 -0.05142237901632916 -0.004870538693667870 -0.06102739259750061 
0.001378122462884838 0.04675426443276146 -0.09308433710509616 0.06867539766637909 -0.06453244121002497 
-0.04668748739804612 -0.2296696771728237 0.3838284148070320 -0.03354955620437284 -0.1748776006673128 
0.5239518469857797 0.05513219539558253 0.3100220653341743 -0.2762785824184300 -0.8426100292356281 
0.2001813874162894 -0.01720088037691380 -0.001830575139625877 -0.001618587131926373 -0.1739589381027584 
0.05327684863437013 -0.01725873136351289 -0.009742992251320604 0.0002185830139444585 -0.01601582716488047 
-0.03280312916033966 -0.2464831477653157 -0.1630675070013006 0.6928107041212000 -0.2688040458507273 
0.04634705453031557 -0.1829425315566448 0.03392290122205075 0.2288750416830272 -0.1988695580679655 
-0.4505983899947824 0.5756539751901036 -0.07307473171277443 0.1249902344091333 -0.6973163749755705 
0.4376416446819659 -0.2348664521262812 0.1051417484812110 0.2368762348267065 -0.5016459872045773 
0.001118680637864448 -0.008682855708086069 -0.1175674866495085 0.2763763289519838 -0.2763645761136240 
0.4503511801666105 0.3581619058667278 -0.2141360304279246 -0.3426911294618445 -0.3372357671299843 
0.1448698633249419 0.2417293045728706 -0.1521859815109604 -0.05389738123339310 -0.1025149869460047 
-0.1321634435246439 1.045940154547009 -0.3893609658658284 0.1456987481397202 -0.6433731418708204 
0.02636380897531879 -0.03008306760681386 0.4049874922573847 -0.4735155135655227 -0.03381435055092472 
-0.1155841148531772 -0.3458034127479004 0.3772041593379527 0.1944302156923152 -0.4813318978467359 
0.1635381983422556 -0.03974244167251496 -0.02532035122906738 -0.02140888527015960 -0.07238874362007976 
0.01982873928243628 -0.02001173987876985 -0.01107864881995148 -0.001497317330381146 -0.009465300426577963 
-0.09754747465808053 0.6529923058792649 -0.2573507443401074 -0.1166242044981156 -0.3441390063531608 
0.07261949016835840 -0.009625068870312446 -0.03228420019263172 -0.004063029905957377 -0.03951384868882654 
0.5586425081299047 -0.2756740336551428 0.3227325521040842 -0.1772414239496982 -0.3393645390300097 
0.1492099163181715 -0.1011340920846832 0.1617388678939576 -0.04294340911128791 -0.1652182443905877 
0.1725651960180677 -0.01656587917608049 -0.001808691522292063 -0.02332833267304091 -0.1991176403133470 
0.6882924805661079 -1.088766873087129 -1.020700463621527 -0.04361344278335368 0.7104809423977837 
0.1560903135969684 0.8388921061143624 -0.9415372406887781 0.2895921814998831 -0.3513863439312110 
-0.6362846255168866 0.8033937988443236 -0.9836599587893803 -0.08669865242486557 0.2851347288552795 
-1.066308621522888 -1.702215847239423 1.600051841878663 -1.094077206933267 0.4554136676404157 
-0.2613382687047304 0.9224035409551529 -0.3927854809613496 -0.4076402503391187 -0.2964799848722186 
-0.01072492245435805 -0.5135683499471936 0.8208612673442199 0.1654570402673611 -0.6412134550696023 
0.4127256628911093 -1.101275875129518 -1.029248962698557 0.3024204408719581 0.4748570386339374 
-0.05471154286266448 -0.9437349986975703 0.4686676358945723 0.07811410791904320 -0.7540956531735084 
-0.5478615737152195 -0.4402539782194695 1.307917630035868 -0.1510788730695347 -0.3784358061861144 
-0.1779786524518469 0.6580850545719977 -0.3761113810416370 -0.1825454696755155 -0.09478223451046128 
-0.1474290715875784 0.3833914470638531 -0.2769623344106568 -0.07989472863340419 -0.09381041409587745 
-0.1212577749286922 0.2617691079619451 -0.2190069690652212 0.1002511272667424 -0.1163256334184911 
-0.1830231707155418 0.5532397317496620 -0.4036647105495853 -0.2736862833337929 -0.2143817052132070 
0.3055810048784324 -0.05868504099415094 0.03822766387459853 -0.01847899863472506 -0.1779692583308525 
0.3602856860603050 -0.1555280760789951 0.1982623396379256 -0.1307163558182221 -0.3148123114436423 
-0.002858836474514370 0.06806310535953157 -0.02835770128049268 -0.01159683610355466 -0.06680486955787808 
0.06580801419588904 -0.02800467829644098 -0.1056009465881553 -0.008207597109992240 -0.06907738691596288 
-0.04016492502428538 0.6366418956612176 -0.04723851903405758 -0.2413420760005527 -0.2427487025215847 
0 0 0 0 0 
-0.05250742607003794 -0.04135004639035671 -0.1157806223737763 0.7507070006928832 -0.4063719735054530 
-0.05939085344172453 -0.1832064232555434 -0.1571231547651248 -0.09689655297246890 0.4966917338668176 
-0.1834772576846980 -0.1182854209090242 -0.07200853542300348 -0.01758354805519584 0.3710588303386680 
0 0 0 0 0 
-0.001669734902696436 0.04035391217317440 -0.02538257145832241 -0.01423476375736998 -0.04253341457776972 
-0.6997155624132165 -0.08674834273275453 -0.3907687208209302 -0.01631523696463546 0.8814987663664633 
-0.5510796280374081 -0.1523470238706576 -0.001289259775322307 -0.1268902858294432 0.7361632523329000 
0 0 0 0 0 
-0.1830575100181406 -0.1555784565527939 -0.03623580688939326 -0.08693229325793900 0.2419101442515969 
-0.06962921558478256 -0.04298259478197050 -0.04665845113238563 -0.1931757235963256 0.1149531622521997 
-0.07423154321550823 -0.2538492397545009 -0.04806738483618732 -0.04630648128151031 0.4503962777119751 
0 0 0 0 0 
-0.01969350642983011 -0.02799211194354110 0.2213053359332905 -0.01312012504952748 -0.08724016463792585 
-0.008180795097034340 0.09068951686362384 -0.004272112928608540 -0.02673817164095626 -0.09941874916149507 
0 0 0 0 0 
0 0 0 0 0 
0 0 0 0 0 
0 0 0 0 0 
0 0 0 0 0 
0.2081727811180305 -0.04845289245526097 -0.02712980858250705 -0.02854866734198597 -0.2154466133661834 
-0.06191018474185753 -0.3278584104300040 -0.04490439846879071 0.4883378415765243 -0.2092903126078972 
0 0 0 0 0 
0 0 0 0 0 
0 0 0 0 0 
0 0 0 0 0 
-0.01633575598725486 -0.01704095999503174 0.2092583602059535 -0.01004220963842962 -0.08587314318998633 
0 0 0 0 0 
0 0 0 0 0 
-0.006836962186405932 -0.01607491791083335 0.09056666999039209 -0.005655899287113160 -0.05390804969280130 
-0.08279030216588680 -0.03072316173428330 -0.2459032439374501 -0.04486145424853810 0.2554076344073947 
-0.02806094672099244 -0.04715106524921225 -0.3770920550503920 -0.04462589747294427 0.4472033724888664 
-0.005710841702538751 -0.05065680505278425 0.2603254663636942 -0.007709469983330559 -0.1691114068086673 
0 0 0 0 0 
-0.002085992624321186 -0.03328134527645471 0.1986148150261101 -0.003682367356603243 -0.1005796936580203 
0.01942552204174868 -0.005546242214300837 -0.001049758747321903 0.0002340060192368495 -0.02075421725823732 
0.2796247739533274 -0.02108618398606331 -0.009005497730028329 -0.01528811124895392 -0.2777555154744974 
-0.1549053992732743 -0.4610067032896902 -0.06583726853720555 -0.07791324587090628 0.9138515152234046 
0.1727181744490468 -0.04387079105221559 -0.01207629017312741 -0.004374520304811351 -0.1377995259462770 
-0.01234210644821884 0.1684290025743622 -0.03599305775676323 -0.03748688173900454 -0.05727259063834556 
-0.1111264672085306 -0.05535058581296418 -0.2105579653019265 -0.09130009717446429 0.2911894840825748 
-0.004501073067080642 -0.02933550740917652 0.1368473261373293 -0.002856581059857065 -0.05833205899184563 
-0.05849819949698937 -0.04323984755622102 -0.5412152036627750 -0.007551558799621033 0.5221724426240205 
-0.06861819646683792 -0.05149252302342307 -0.3916627659005855 -0.1787404709618792 0.4487261574786342 
0 0 0 0 0 
0.1068362203829571 -0.003524452624024133 -0.04852352178042206 -0.03756858629557011 -0.03960498704242918 
0 0 0 0 0 
-0.03565000262998809 -0.3542248173371084 -0.3123320575244635 1.013523815269485 -0.07411234953053755 
0.1355528560984434 -0.004302519275347470 -0.02443986871979807 3.334008582163471e-05 -0.07172597871200212 
0.02446683998507597 -0.002362126942939386 0.0004824226306469163 5.083811446586570e-05 -0.03943126230808292 
-0.4252669746725888 -0.02375760950466038 -0.1245845586111975 -0.06132660779590730 0.5042587063261016 
-0.5025278172732502 -0.1106818862776740 -0.1298241619870397 -0.2174486306543848 0.5793371922678721 
0.04978721423721019 -0.009295686813471192 -0.0006459019778340537 0.0003302772839456323 -0.02981576215011848 
-0.04579364685706894 -0.2268009746040082 -0.07770410671180207 -0.1912304585636347 0.3847404818578659 
0 0 0 0 0 
-1.503799292236996 -0.02013608768035942 -0.02541725475002714 -0.01584439898180210 1.169874738190603 
0.1614999631869135 -0.01731871044364030 -0.2281646392101978 -0.03377664295087374 0.1913974354085851 
0.1600833282862365 -0.02962522843559521 -0.06735972145766488 -0.4368918671118946 0.1715428096520091 
-0.01787030639821801 -0.1495761216413374 -0.1923843385795310 -0.2102162204733031 0.3581951069682348 
0.2603954507882622 -0.03474196051868584 0.0006692492962232085 -0.009405172062944864 -0.2389020106160469 
-0.09755729436573100 -0.1117211286931355 0.1889896509859134 0.2855887856420747 -0.2241366079747236 
0 0 0 0 0 
0 0 0 0 0 
-0.6817061380195685 0.03269391858627346 -0.05046805468839047 -0.01326031321667976 0.7111402506418215 
-0.05416162911813004 -0.2452406742003150 -0.1394824450978038 -0.1419332788811326 0.4728911847219570 
0.02675766630184307 -0.005322811667402918 -0.004365140161145406 5.779119981231206e-05 -0.04194190637946049 
0.02347560279605363 -0.008202684002326820 -0.007443489663927563 -0.007230211447501899 -0.01320846171401749 
0.1474616983242385 -0.1244816225262979 -0.04653740877289661 -0.003692465698279544 -0.07068230017073099 
-0.3055576635858841 0.3202819301317390 -0.03543676675046149 -0.004195469386918491 -0.01681780680959018 
0.01882461865815737 -0.0009915586576494237 -0.003724425865562007 -0.0008717655423894781 -0.02189243921909276 
-0.3489324918161662 -0.06563765258198058 -0.1335917930721201 -0.05498473342274114 0.3698778600032985 
-0.003198797054770964 -0.09576914377633484 0.2959798794809638 -0.01658670131895945 -0.06688412367359166 
0.1254352092490238 0.1594407068795448 -0.09625030731102320 -0.02138153981398255 -0.2009590344501999 
0 0 0 0 0 
0 0 0 0 0 
-0.05432969182817972 -0.02575123570552248 -0.2154201704860466 -0.05712232486496853 0.1679341514570709 
-0.04123320544465359 -0.1457590827194724 -0.2499377280828354 -0.05834434877079273 0.2893024729562367 
-0.6974755445552191 -0.01147957537628547 -0.05407630333243053 -0.03083652013615063 0.6220123358971476 
-0.08307550001690542 0.3370196003920339 -0.02277929208259254 -0.01439315804565106 -0.06373907767555063 
0.2945909446429972 -0.03680768060051144 0.08297860120762143 -0.1479719825737619 -0.2311363941360115 
-0.05398617651183849 -0.1665928478695338 0.2201365976214848 0.1813575387827366 -0.08944634716623237 
0 0 0 0 0 
0.03407305652801018 -0.001162752864121994 -0.005405648188159573 -0.0004917223768809878 -0.02426370548096187 
0.9541563940796693 -0.1307917840192617 -0.5004928981020900 -0.02576635173015748 -0.3261659924012353 
0.02391703047255416 -0.003817916528066481 -0.002684783871267257 -5.369035602605956e-05 -0.008566180162640692 
-0.08295796035536958 -0.0008698607764251682 0.09252622250690420 -0.0006864401185581579 -0.02446956462866371 
-0.09806425781957596 -0.01232182959449585 0.1397002973074132 -0.0007176269246184578 -0.009623658715360260 
0.08099865321055450 -0.05848012024053517 0.2500561325641326 -0.03589538483104488 -0.1946232411262540 
0.3765408677146538 -0.002238756097655769 -0.1184749650460969 -0.01355491355543869 -0.1592889786571665 
-0.01796436932415728 -0.007052090729091205 -1.343001176843441 -0.03166415329043680 0.8651479431706371 
-0.02751375985464207 0.2305898552237262 0.001257957559173691 -0.05451813759311610 -0.03599819606373110 
-0.003111463144090761 -0.05173067552985889 0.04711806868322060 -0.01222717564720086 -0.008128545410784834 
-0.005835592991797780 -0.01591383975991454 -0.02113497884415752 0.03613053453970848 -0.007748720938492979 
0.5961340175504192 -0.1458358669085743 -0.01919573100398638 -0.1452160797877562 -0.1164985890067202 
0 0 0 0 0 
0 0 0 0 0 
0 0 0 0 0 
-0.01506877381892149 -0.01549422183508155 -0.1007189418188723 0.1524086965115334 -0.005476977320991908 
-0.03190277293210644 -0.01338587145048980 0.1333060779534774 -0.05671149672886192 -0.04640073250903042 
0 0 0 0 0 
0 0 0 0 0 
0 0 0 0 0 
0.1534922398836351 -0.04297497891811039 -0.01707097717091257 -0.01545714369018652 -0.01084066882894256 
0.02654701893569779 -0.2265417497612548 0.2156780569648236 -0.05114841233204985 -0.07597426824165696 
0.1718137727565448 -0.01326802013959366 -0.009044120174394247 -0.03289443371093351 -0.2191317134336351 
-0.02378185016169439 -0.02306123207775810 -0.02835272590912665 0.05912844503884679 -0.05073969891607115 
0.06635105535152250 -0.009059665282391707 -0.02502308105321851 -0.007152057209696568 -0.03387177491553027 
-0.3689229331876223 -0.4613073268618574 -0.08478508959812471 0.9210750143027809 -0.2664669206349067 
-0.02761078158793903 0.2597110048609864 -0.1467920948923620 -0.06225721930341953 -0.02153597054704714 
-0.01303905422733986 0.04575514538461547 -0.02187322848601747 -0.01866563377333470 -0.01544178253983210 
0 0 0 0 0 
0 0 0 0 0 
-0.02056564668495823 -0.01071681155293452 0.05153903422735420 -0.002059284353848581 -0.01527711070954866 
0 0 0 0 0 
-0.1662125773686267 0.1998816739633086 -0.04771695884369253 -0.02495017615428426 -0.01716913523879695 
-0.01883366429511240 -0.03675204767889324 0.1240255548019269 -0.02867788031666243 -0.02059146809996421 
-0.01085071593451179 0.06310271352383770 -0.03269692734017648 -0.03331920186099574 -0.02304554703140204 
0 0 0 0 0 
0 0 0 0 0 
0 0 0 0 0 
0 0 0 0 0 
0 0 0 0 0 
-0.01744129123819066 -0.1601981382664938 0.4916766175251521 -0.2263943668089498 -0.03907155701399086 
0 0 0 0 0 
-0.05487292522222896 0.3389718371307988 -0.2378424270728174 -0.09891110211395243 -0.07136508610912416 
0 0 0 0 0 
0 0 0 0 0 
0.01802542159495715 -0.003839327581039135 0.0004191620070152381 -0.0005806433057934865 -0.009423385727842484 
0 0 0 0 0 
0 0 0 0 0 
-0.02313780812512528 0.08652270245321855 -0.1138527529506959 -0.01073458673703099 -0.01533430001319755 
0 0 0 0 0 
-0.01612299639286816 0.03385624282189217 -0.007047919734852230 -0.02958763610915999 -0.01730000329697181 
0.07545046427374404 -0.05944076712783161 -0.02126124128480464 -0.007938165328345279 -0.01792513817441141 
-0.1781847882018656 0.2466672915058673 -0.06964931902212763 -0.001531092003532578 -0.005917691375303645 
0.1879476983063516 -0.08119155612252968 -0.002729903742481276 -0.001520923145769828 -0.04627348896972905 
0.04601778904403665 -0.004045167240694011 -0.005229506829376426 -0.003110258052485120 -0.04746633037544353 
-0.02551002961734544 -0.004191588891305969 0.03089554903801229 -0.001889044267947016 -0.007444950141674386 
0 0 0 0 0 
0 0 0 0 0 
0 0 0 0 0 
0 0 0 0 0 
0 0 0 0 0 
-0.02031393416010220 -0.02589218426026211 0.1133607881594916 -0.01348985648879099 -0.1122236600055309 
0 0 0 0 0 
-0.006392706363766801 0.4428701075723598 -0.05899514823921338 -0.1814124242281955 -0.04563066949866259 
0.5009422982352886 -0.03678362551738365 -0.1497340809157147 -0.007551636736598116 -0.06099329330827575 
-0.2660395362499474 0.8196910925252577 -0.1983009715081831 -0.3213874455210995 -0.1207269543044830 
0.005836966217742420 -0.003842369001581663 0.001192034812149963 -0.0006663997531299584 -0.007206894025470916 
-0.09443322602415165 0.2168114698152080 -0.06136066796358209 -0.1112436561444163 -0.03923679737417940 
-0.2257368241825364 0.5565729214302005 -0.09730703769804454 -0.1767506304851408 -0.1947510218570098 
0.1003798573508185 -0.02428759296834797 -0.02190586969633816 -0.003847919699022766 -0.03714860726222119 
-0.005589307965592347 -0.1021594076185645 -0.06560432319802079 0.2074193570610718 -0.01551517360146981 
0.02513631613565844 -0.03530460017151350 -0.007124002807838811 -0.0004068804367220331 -0.006712494238847989 
-0.1759476010311458 0.3607774896508822 -0.2036585974533186 -0.09388299009057492 -0.03302592974180772 
0.004595869475100742 0.09572269706857772 -0.07444479403129928 -0.05871055010433059 -0.04743898475609436 
0 0 0 0 0 
-0.02414461877573896 -0.3198183327097285 -0.04127425699854789 0.4083222693971791 -0.03585917189283679 
0.02368460207153435 0.04713869132685934 -0.07015384670611820 -0.03619300422652312 -0.02267212198026207 
0 0 0 0 0 
0 0 0 0 0 
0 0 0 0 0 
0 0 0 0 0 
-0.01996240244219486 0.1852629049919108 -0.03871959411380181 -0.04217456268022514 -0.02358191037124394 
-0.03155440522473841 -0.1002101325424981 0.1575494618624941 -0.03112592163352605 -0.05061150254194981 
0 0 0 0 0 
-0.06890812381367087 -0.01143962081956529 0.1792467314892665 -0.005642181429883005 -0.02970198340288462 
-0.2080961809161661 -0.01526326300320088 0.6052401242701810 -0.01378246836523648 -0.1934669830696964 
0 0 0 0 0 
-0.04709979553476994 0.07725551109443816 -0.02563212131332382 -0.01763750931944308 -0.02140225742632684 
-0.05212302209825428 -0.09230867679066364 -0.02600408708716490 0.1717295702746766 -0.04323879446190232 
0 0 0 0 0 
0 0 0 0 0 
0 0 0 0 0 
-0.01858417898621420 0.01954322442562743 -0.008151728584097509 -0.01341835673564105 -0.004143723971661563 
0 0 0 0 0 
-0.03974180103184603 -0.001638633337333216 0.07020078229476240 -0.0001757574323372786 -0.01042843957000981 
0 0 0 0 0 
-0.02366414850646242 -0.01399049487155674 0.02803139539357067 -0.003214128020720265 -0.008559375240807212 
0.2489275005235256 -0.04809428382861602 -0.06208965876865343 -0.02425811067123588 -0.1534077851526888 
0.1469773151465854 -0.01475325277576114 -0.03750539270375162 -0.009652222133639525 -0.06559375983481873 
0 0 0 0 0 
0 0 0 0 0 
0 0 0 0 0 
0 0 0 0 0 
0 0 0 0 0 
-0.01593211829505521 0.03520439043811134 -0.04004132721325038 -0.007427411996141737 -0.01645888624393646 
-0.007962593779892096 -0.02053717410741960 0.05856510126841928 -0.002316448383024838 -0.02778205898191500 
0 0 0 0 0 
0 0 0 0 0 
-0.05123724349948781 -0.0003736700524650713 0.06904545959621630 -0.0001729637926040533 -0.02181563657329728 
0.04618761209409955 -0.01675423960477881 -0.02812399937175068 -0.0005996168616093579 -0.01198324344782830 
0.001152060418046762 -0.06010174027508650 0.02752446449928260 -0.02844885216596679 -0.04387672282426792 
-0.01657795009252967 0.1082376471362288 0.06592126357807894 -0.2402158035481071 -0.06179421017259647 
0.02511227244489151 -0.001663007467579187 -0.008871325342788516 -0.003075445711951940 -0.01413566081408836 
0 0 0 0 0 
0 0 0 0 0 
0.1904430466782768 -0.03746443902548541 -0.1239271094787944 -0.03354885838733591 -0.1326387781637115 
-0.002558116032487815 -0.001744102679030902 0.04479020255829081 -0.005837484413940992 -0.1727520175954428 
-0.04708534487072701 -0.003328600800392107 0.04996831780176137 -0.004731680381557493 -0.02774540773330022 
0.03695927927328444 -0.09320071433966313 0.1326078097573752 -0.03357780795159716 -0.07358886495611412 
0.1243679736995261 -0.02165800194132654 -0.07096285128934063 -0.002257731838744117 -0.01304718465219628 
0 0 0 0 0 
0.01015695393867082 -0.02824241548361142 -0.01305984828101622 -0.0009915523775386090 -0.0002086817500498359 
-0.02768469807010878 -0.0001031219772842950 0.03869626508435111 0.0002967528639986731 -0.008674470892432822 
-0.03209205205742280 -0.003768320330678392 0.01463472516650514 -0.001504678691686523 -0.003151970852317387 
-0.02158062526987174 -0.002141065543796345 0.01149101893726195 -0.003912559359420565 -0.007604207785993682 
-0.02336836141400006 -0.001727862336920213 0.009097264527616881 -0.003672386034693680 -0.005170185123205068 
0 0 0 0 0 
-0.008087210934269750 0.3214501720157041 -0.1682441326584782 -0.04905378149898004 -0.02711950240351319 
-0.02020755779112356 -0.04164709966849948 0.1131072709758272 -0.1259219204287595 -0.01510059875431674 
0.07119240896414433 -0.02010643688308000 -0.03240593229705224 -0.006566636070630087 -0.03255423007140405 
0.2177196009501955 -0.03921221055848924 -0.05231278528258067 -0.01462237292318866 -0.1372458889597511 
-0.1215961467653724 -0.4241719936745211 0.5567200994766728 -0.1464608042438733 -0.06516683268727225 
0 0 0 0 0 
0 0 0 0 0 
0 0 0 0 0 
0.1787747102937140 -0.01422027906392612 -0.03459912432426650 -0.005968133714547899 -0.1118503483007891 
-0.01311532451884226 -0.004625211036124319 0.06164296454006694 -0.02067900313559449 -0.04836449093319493 
0.04090842870245896 -0.003525896631546568 -0.006539431570266468 0.0001505449992816710 -0.01091737402146551 
-0.03602467079317296 -0.002423264668922797 0.07041936806542169 -0.003484681811592858 -0.02035897747559552 
0.1772816626137147 -0.03631010039139281 -0.2246374246886925 -0.02767694104179029 -0.01416409926183512 
-0.02946491965185625 -0.1141567591449230 -0.1538963728636313 0.2804555287081065 -0.03131216983738831 
0 0 0 0 0 
0 0 0 0 0 
-0.01418786296213468 -0.001719924545098441 0.02526019470601053 -0.002026212899260894 -0.02477149748813944 
0 0 0 0 0 
0 0 0 0 0 
0 0 0 0 0 
0 0 0 0 0 
0.05397907363002426 -0.002892667559456790 -0.007975221885042393 -0.01592311824252994 -0.03880986043000009 
0 0 0 0 0 
0 0 0 0 0 
0 0 0 0 0 
0 0 0 0 0 
0 0 0 0 0 
0 0 0 0 0 
-0.03919036306839194 -0.0003276359090989365 0.04799130928767039 -0.0002809317508343703 -0.01443583750139374 
-0.08712351124605208 -0.1470628389860040 0.1638537389279811 0.09432910274676509 -0.04896675151037301 
-0.08652087855084861 -0.01273913778552360 0.1820123283537957 -0.002411667441466896 -0.01699833910029493 
0 0 0 0 0 
0.01322027191404959 -0.005275652910235800 0.03876747768426339 -0.009352490538830522 -0.03891357445385275 
-0.03767948811817632 -0.002470750842051976 0.02471086260715208 -0.005375970952546582 -0.008766165939701127 
0 0 0 0 0 
0 0 0 0 0 
0.5273641646074605 -0.007510028850862910 -0.4448338188213971 -0.01714792875516761 -0.02021678546046999 
0 0 0 0 0 
0 0 0 0 0 
0 0 0 0 0 
0 0 0 0 0 
0 0 0 0 0 
0 0 0 0 0 
0.07028380182530233 -0.02079293711025336 -0.007235316950952494 -0.008177916059961468 -0.05020700740046464 
-0.02276778204712538 -0.1541271913699565 -0.06286787208328466 0.3035973578817610 -0.07485082809112731 
0.01509649426913495 -0.002246818037695137 0.0004701565299196232 -0.0002174517720752980 -0.01669306848392708 
-0.1334098007188023 -0.3249378026600026 0.9496107636733274 -0.7438395556324131 -0.05072602320555928 
0 0 0 0 0 
-0.06639627511692957 -0.7434718969574540 0.1507829101811558 0.6906893373745040 -0.02065601686477398 
0.3829725401835502 -0.07663451300383652 -0.07741696518092168 -0.1796045787756210 -0.08114439339615097 
0.03610232438135545 -0.002909404369531025 -0.005773766283412897 -0.0007183078296307387 -0.01286206117186006 
0 0 0 0 0 
-0.008424476538531235 0.03868825432107307 -0.02574544248011462 -0.01281979595813344 -0.002504970284821720 
-0.06503975062802626 -0.003101841960177790 0.1038251189218139 -0.009565454171453774 -0.08972334425085927 
-0.01482281107340480 0.08957243224542900 -0.02445310495213688 -0.03887921056269867 -0.006055124887378978 
0.1070285512446687 -0.02193500335686750 -0.04098332255239714 -0.03450020872775766 -0.05201223814033494 
0.003905549956036967 -0.1281974914456780 0.4617548753844495 -0.08452996753516065 -0.1705184191214054 
-0.08924874309601541 -0.1884104431508009 -0.07447392529554589 0.2899310967495037 -0.05457077085636218 
0 0 0 0 0 
0 0 0 0 0 
0 0 0 0 0 
0 0 0 0 0 
0 0 0 0 0 
0 0 0 0 0 
0 0 0 0 0 
-0.1986149522429604 -0.01557485302796977 0.1635662226494934 -0.01839719893553216 -0.03131975206432277 
-0.02361282192994239 0.4111662913917420 -0.09424702947121957 -0.3117869319752798 -0.03735533472337431 
0 0 0 0 0 
0 0 0 0 0 
-0.02324094157946574 -0.01843993676020882 0.09877942562372725 -0.1282473666563893 -0.01166029071421775 
0.06929817579077209 -0.01718981082401815 -0.02418077340157444 -0.006434354133735630 -0.03480563136904216 
-0.01538158084111306 -0.1300334520466278 0.5081523735331028 -0.06924159447806540 -0.1100080284328561 
-0.03190637293586732 -0.001755111217735133 0.04492038828633994 -0.004866460917325221 -0.01080289714711280 
0.1109518318916475 -0.002173449039443144 -0.03175964059216868 -0.003367966674918747 -0.03340628538163315 
0 0 0 0 0 
0 0 0 0 0 
-0.01932455926715785 0.05686223471082981 -0.01373599314202595 -0.04079190359105542 -0.002371066948511551 
-0.01245367715746778 0.1658642776922891 -0.08034793614636816 -0.02335783046841043 -0.006058077755019048 
-0.04035929222297389 -0.06445739750381120 0.1035567648220308 -0.02629359550291091 -0.02189409215510521 
0 0 0 0 0 
0 0 0 0 0 
-0.02335838646001363 0.2055522064653597 -0.1190300135754778 -0.03051789975705286 -0.01903861277598037 
-0.06053230998061385 -0.2207516479007151 0.1152847660941421 0.4297760321915987 -0.05661804994373101 
0 0 0 0 0 
0 0 0 0 0 
0 0 0 0 0 
-0.04333526139757486 -0.1091632578479437 -0.1906534618124068 0.2686821624859673 -0.03635017287693413 
-0.008293904703961375 -0.01863601339999298 0.06128674083458735 -0.0005444861393625821 -0.01919738409804329 
-0.01432640066927658 0.1531101414334010 -0.1232915531450950 -0.1229813011383832 -0.03730131525146680 
-0.03651211997360034 -0.001772410358114432 0.05286371749053623 0.0001879692343238483 -0.01150735009624585 
0 0 0 0 0 
0 0 0 0 0 
0 0 0 0 0 
0 0 0 0 0 
0.04589957785862783 -0.004614355413829278 -0.02306010689728617 -0.008734626935610881 -0.02335134159439431 
0 0 0 0 0 
0.03142264998965384 -0.002330672822824064 -0.01646468499245359 -0.006287291576901641 -0.01729014216926256 
0.06456594141318917 -0.005824891641269499 -0.03725379231524727 -0.008811703287893578 -0.03747409773194937 
0.03299824954354598 -0.002764267853029941 -0.001794695102293724 -0.001349595348374110 -0.06716046791508906 
-0.003143182307281851 -0.002729109449652498 0.06700174978673372 -0.007074516113123707 -0.1800707841925529 
-0.06948834076925943 0.4405939862218460 -0.08682309390378382 -0.1100593361160888 -0.05492780562470103 
-0.01264049593066693 -0.08216707161775574 0.06051634996356640 -0.009696326717663729 -0.02278144862915740 
-0.06466532276225864 -0.01184045518028705 0.1718830752459835 -0.005148931458424554 -0.06173897130740839 
0 0 0 0 0 
-0.01436836009389625 -0.05431430506765581 0.09046019040253590 -0.009357603432961893 -0.03628390897305742 
-0.04401231769244390 -0.04332435462532085 -0.2256398929142263 0.2621015392820519 -0.06529582947261967 
-0.005064630894692480 0.04562557844644527 -0.02306340803259817 -0.03106222235827596 -0.01647792439252265 
-0.02713469371488251 0.08393734532616570 -0.009754733769330780 -0.04844112541865348 -0.02209011601321155 
0.3292544571246878 -0.07848312933603709 -0.001560467108685585 -0.05668361490656719 -0.09730486056928778 
-0.002036231752861556 -0.01549897882042437 0.07516956575719037 -0.06514728575395266 -0.006057371164096679 
0 0 0 0 0 
-0.01287332796185280 -0.05392918633425940 -0.03050920506675204 0.1071787420058932 -0.01059191819594035 
0.02966128893052062 -0.007807269448509240 -0.0005018881108932961 -0.0001069276566149399 -0.01001256598320819 
0 0 0 0 0 
0 0 0 0 0 
0 0 0 0 0 
0 0 0 0 0 
0 0 0 0 0 
-0.003869372213531825 0.03505566881315890 -0.01593368492687039 -0.03117853662369416 -0.01399966934712748 
0 0 0 0 0 
0 0 0 0 0 
-0.02195383619340786 0.06388841815009429 -0.02939635685679181 -0.01112898840479722 -0.004766134767743516 
-0.04236072003960631 0.1121196308255162 -0.01398732848566784 -0.04698601129874840 -0.05186288056702455 
0 0 0 0 0 
0 0 0 0 0 
0 0 0 0 0 
0 0 0 0 0 
0 0 0 0 0 
-0.1703118235829272 -0.01693690076390833 0.2947428550954883 -0.0006872909718056213 -0.01899505967975344 
0 0 0 0 0 
0 0 0 0 0 
0 0 0 0 0 
0.01166797485205226 -0.005714121061553460 -0.005013780056907105 5.021370913997397e-05 -0.005725588857969391 
0.07711427318427057 -0.01323793222830952 -0.03378568377958435 -0.005060539957396849 -0.02731002443143087 
0 0 0 0 0 
0 0 0 0 0 
0.01946625871534549 -0.007249365868575136 -0.003972869879383778 -0.0001468604822015452 -0.01129427365529097 
0 0 0 0 0 
0 0 0 0 0 
0.002153755149620365 0.01151215007091973 -0.04642049879845451 -0.004580916639563479 -0.01529251578053991 
0 0 0 0 0 
0 0 0 0 0 
0.01387529079232914 -0.03815278885066441 0.02067953391947115 -0.009862845236586135 -0.02026442225876773 
0 0 0 0 0 
0.1317867372407644 -0.01933871648024861 -0.09614836249665337 -0.03843239281194763 -0.01681966975270317 
0 0 0 0 0 
0 0 0 0 0 
-0.003895994299355803 -0.02105814031184122 0.02689128751746435 -0.003288962835159438 -0.02022744447663335 
-0.03979812231620604 -0.08557611107425941 0.4392323184970999 -0.1118379576177040 -0.07724907216974470 
0 0 0 0 0 
0 0 0 0 0 
-0.005871488180442140 -0.07295024695260591 0.1059873198568539 -0.04534914509725342 -0.03705630152627722 
0.04942752138573382 -0.01340697360522434 -0.006285069309521166 -0.001132991322390248 -0.03573674873848018 
-0.07694364625245467 -0.05598428109039461 0.2430335820995127 -0.08459073948676536 -0.01563589844566810 
-0.006353221534877496 -0.002475723136149352 0.1040160172494207 -0.004885068067156275 -0.1711043857598896 
0 0 0 0 0 
0 0 0 0 0 
0 0 0 0 0 
-0.01589792176962016 -0.01272656625896814 0.03822626522248634 -0.02171265724917671 -0.07986042238327050 
0 0 0 0 0 
0 0 0 0 0 
0 0 0 0 0 
0 0 0 0 0 
0 0 0 0 0 
0 0 0 0 0 
0 0 0 0 0 
0.01930743373073737 0.2360465907354748 -0.1410955338440236 -0.1130686459258195 -0.02297239904026298 
0.01923340516394756 -0.01278691620157512 -0.001737089125011679 -9.893798190996491e-05 -0.004166657540694162 
0 0 0 0 0 
-0.02459036099440944 -0.03018587829515023 -0.02434164492580428 0.08657422585045906 -0.06443806683289836 
-0.08957840196814629 -0.03160901735064154 -0.04875470591425087 0.3362769210565615 -0.004802185775929837 
0.004878525707153795 -0.007467255103159761 -0.003675216494715637 -0.0004475954235702209 -0.0009205544442428826 
0.01078354862094142 -0.003026175603569753 -0.01006413768239132 -0.001274227828054907 -0.004204507838660918 
-0.02341635539971200 -0.03063996754500825 -0.03465711078900550 0.07121748444877230 -0.03701447920583588 
-0.06599845803691320 -0.07068064009843542 -0.09033488326482142 0.3162791192476618 -0.02429970502908566 
-0.008791751164117886 0.02541653253177383 -0.02930787228165797 -0.01040624257139976 -0.01537951293206626 
0.2824000417347310 -0.05697138589554682 -0.01516461445023315 -0.05757178326009251 -0.1195417766378649 
-0.04717955014806240 0.2294451696394045 -0.1722660375046201 -0.04163625863177643 -0.01858904098494217 
0.09536913458162855 -0.04937082201858192 -0.01099967349291316 -0.04170357314984791 -0.02450240602542269 
0 0 0 0 0 
-0.02381017721773605 0.06831171052453654 -0.03083553805045905 -0.02150377199779746 -0.02078510467982540 
-0.009206798108555387 0.06861883249450063 -0.03741866472398794 -0.03167667182204636 -0.007461230465068566 
-0.006555955407555695 0.1861097447825578 -0.07495348472319990 -0.07861793314550090 -0.01154357949197645 
-0.01948122665598636 -0.006707272498244323 0.03159070069951101 -0.005377100234421284 -0.006335434626999816 
-0.004532670926419619 0.07555295160499921 -0.05403615455153280 -0.03628306278845764 -0.03188262284158171 
0 0 0 0 0 
0.05652985736724767 -0.01968600125465856 -0.01946411450970126 -0.0003833037644963055 -0.002905135597954044 
0 0 0 0 0 
0 0 0 0 0 
-0.01015756532567069 0.1319039546773828 -0.03952540556610364 -0.1245969240770157 -0.04618031554816773 
-0.2211652876434893 0.2435575494874009 -0.01073465145417346 -0.006251342869281893 -0.02728644528013706 
0 0 0 0 0 
0 0 0 0 0 
0 0 0 0 0 
0.3768029451546702 -0.2425597226301686 -0.02136001178280463 -0.01215959482812506 -0.03854192085854596 
0 0 0 0 0 
0 0 0 0 0 
0.1302555818331482 -0.03248050063297735 -0.1141066054289289 -0.03633941211682779 -0.01756127984862150 
-0.01485436931041974 -0.1466329369177056 -0.01301406041965956 0.2415567018733328 -0.01365208643577533 
0 0 0 0 0 
-0.04303254781401484 -0.1236776199663836 0.2359618540806630 -0.05529042661450758 -0.02077356246266170 
-0.01659586853175678 -0.004554934682720712 0.1169143807290547 -0.004390024709373689 -0.09660475821738522 
0 0 0 0 0 
0 0 0 0 0 
0.03507604345074900 -0.002148412591126802 -0.02383394054645957 -0.007610459191396780 -0.01551570329289549 
0 0 0 0 0 
-0.008147962873412181 -0.09408874687911849 0.1877713262666159 -0.01998029880113819 -0.03348526405626154 
-0.04540175394095765 -0.08342892975325152 -0.1495363906645951 0.2702142548337147 -0.03392026814776237 
-0.02305995034232699 -0.005609396168166185 0.1579182437109932 -0.001548574048500828 -0.1560352303923138 
0.01085577061278351 -0.002731967455447727 -0.01020688021671006 -0.001976214099395420 -0.006930609864039821 
0 0 0 0 0 
-0.02359610784179322 -0.1607482579269842 0.1892353371828232 0.05797515767254567 -0.03200240523088937 
0.1292921333513046 -0.01196171602326029 -0.02183261388834648 -0.02420464583568760 -0.02710901192762927 
-0.02213183513739412 -0.02106374421691028 0.2019929187929028 -0.01863319271546993 -0.03603754869931291 
0.08757740968283546 -0.009356222083948349 -0.01474551012451647 -0.007168098820975249 -0.03598252417134251 
0 0 0 0 0 
-0.1234502175729457 -0.07972818111963685 -0.05048061116161668 0.2723439736920655 -0.01626842156465853 
0.1352866234851899 -0.03063515313215298 -0.04064646660548898 -0.01558361294606064 -0.1443624793400799 
0 0 0 0 0 
0 0 0 0 0 
-0.01357688976958047 0.4263808076668983 -0.05107612431814502 -0.2763544740635412 -0.03377728761584670 
0 0 0 0 0 
0 0 0 0 0 
0.03093370646339707 -0.009174951963130281 -0.01640989635668275 -0.003202147370529204 -0.008844340086439778 
-0.01837914020830149 0.02700130611703380 -0.005102592354764358 -0.03467145104310520 -0.01496479968034368 
-0.1326920058415101 0.1833315929823767 -0.03318392478505910 -0.02024252240046771 -0.02184565832885359 
0.1177966498250283 -0.07416317334675082 -0.005232520782193505 -0.002054381079028962 -0.03240777115561033 
-0.04404683259982541 -0.1285212301662961 0.3566406915445001 -0.07880017162990008 -0.02343281509400163 
0 0 0 0 0 
-0.05466684162356101 0.2519787036992631 -0.1664668620474118 -0.05128347915005391 -0.01953147793733862 
0 0 0 0 0 
-0.02104152750247099 0.02606574651144623 -0.01861331801328405 -0.02387769150619359 -0.01493587792077689 
-0.02203351572736748 0.1026105067588887 -0.1195969382485315 -0.03126394159451214 -0.03639948767030196 
0.09684514824438434 -0.05827604905374154 -0.01436004749012898 -0.02554886050306339 -0.02909974002043097 
-0.04088551919520651 0.1068489639634573 -0.05461442446849236 -0.1051305940849732 -0.04142900643906040 
0 0 0 0 0 
0 0 0 0 0 
-0.05314224216591090 0.3664980005048517 -0.3626013762574735 0.3812701451454296 -0.03734664991768940 
-0.01218101334517806 0.05756269165330918 -0.1148346114791805 -0.008150934722426308 -0.01237583606141532 
-0.02935894090327315 -0.1402360755149325 0.4071215016031515 -0.1598702482137146 -0.02212646477891406 
0.1893977600722771 -0.02637921280285375 -0.02867423921811769 -0.02259839010195880 -0.05356006571853429 
0 0 0 0 0 
0 0 0 0 0 
0 0 0 0 0 
-0.007067888271014233 -0.004883615401367572 0.07458573244307976 -0.002681065087027286 -0.06376032574541433 
-0.05608585161881544 -0.1602099768019234 -0.2196389353725707 0.3000574026953077 -0.07785551051015452 
0 0 0 0 0 
-0.01707935465078191 -0.007190895495543914 0.1042557915100047 -0.08524916127319969 -0.01521221673618005 
-0.1061278335777419 -0.008893877039326323 0.1909654684445044 -0.007612963745739974 -0.09953817489810891 
-0.007652953515545439 -0.05255462621659502 0.1545528584205557 -0.07535526831214392 -0.03850876925257709 
-0.01149575095535102 -0.009542667176888100 -0.01923040845079767 0.03008977372883818 -0.01763634678965018 
0.007282673855860398 -0.002167756000562111 -0.006692809456610448 -0.0005203978773052963 -0.003003169763510136 
-0.005083750324957470 -0.02377075828752497 0.03217220252147458 -0.02932688763569219 -0.01226932161103451 
0 0 0 0 0 
0 0 0 0 0 
0 0 0 0 0 
0 0 0 0 0 
0.1635381983422556 -0.03974244167251496 -0.02532035122906738 -0.02140888527015960 -0.07238874362007976 
0 0 0 0 0 
0 0 0 0 0 
0 0 0 0 0 
-0.09421631318744651 0.3183221873153872 0.03573076156007062 -0.002002747534477384 -0.07862196454528769 
-0.01878824939320752 0.03727779823041990 -0.02135943473921509 -0.01408576448605255 -0.008866874212601608 
-0.01366115522083775 0.07132968143295040 -0.02287454681564520 -0.01522450114948110 -0.01224988954587722 
0 0 0 0 0 
0 0 0 0 0 
-0.1018658125207877 0.2665976652961049 -0.03241256955409955 -0.09547010055317443 -0.04499102523986320 
-0.01275400456000626 0.01689456320411880 -0.008091112113450899 -0.01016941054038192 -0.005790018788573041 
0.07123699338162973 -0.05213122663877844 -0.009545719567889627 -0.03419712426999849 -0.03371660294818329 
0 0 0 0 0 
0.03276404547467840 -0.002184359210981890 -0.01126401457957602 -0.0003103614290749844 -0.01460782026644953 
0 0 0 0 0 
-0.08260694048008803 -0.04010150873605708 0.1610051623448671 -0.01900846947458461 -0.02433468652013129 
0 0 0 0 0 
0 0 0 0 0 
0 0 0 0 0 
0 0 0 0 0 
0 0 0 0 0 
0.02112227600985097 -0.002541578029631279 0.0001417271008302967 -0.0003535810598330601 -0.02574895927977808 
0 0 0 0 0 
0.003765141913381303 -0.002830005948113461 -0.003177399066512245 4.062061039265103e-06 0.001582027137304078 
-0.01429670717207315 -0.003729578766400057 0.04145465295748236 -0.003390085352362232 -0.02191573369947936 
0 0 0 0 0 
0 0 0 0 0 
0 0 0 0 0 
0.04356038007622950 -0.002643363399712334 -0.005728346806001211 -0.003581592637876674 -0.04392829806645993 
-0.5491004479822442 0.5159017629627831 -0.3390112800697732 0.0006385159151218317 -1.075809066342690 
-0.7035168934848210 -0.3684797473438322 0.4790823567699890 -0.2303720742421410 -0.2015007013488988 
-0.7382527412542345 -0.06256694949810442 0.1275666779389104 0.6077036079928316 -0.9440626679759619 
-0.006852914774284670 -0.5075203740227395 -0.1490468782658855 -0.2922137708793720 0.3245532268304504 
-0.4535118250190036 -0.1468776999603715 -0.5549459327734446 -0.2130961294550719 0.8027085339408894 
-0.2520606278763495 0.1527912144869894 -0.1830618598508777 -0.3924438616872670 0.06813068378682567 
-0.06962921558478256 -0.04298259478197050 -0.04665845113238563 -0.1931757235963256 0.1149531622521997 
0.02727203257786146 -0.05463617683018345 -0.3053022581758075 0.2515977049542089 -0.1171531366481708 
0 0 0 0 0 
-0.08279030216588680 -0.03072316173428330 -0.2459032439374501 -0.04486145424853810 0.2554076344073947 
0.9699760157800220 -0.9150902722167764 -0.4524727981544577 -0.6882301548205018 -0.1287766920330737 
-0.03190277293210644 -0.01338587145048980 0.1333060779534774 -0.05671149672886192 -0.04640073250903042 
0 0 0 0 0 
0 0 0 0 0 
0 0 0 0 0 
0 0 0 0 0 
0 0 0 0 0 
-0.04236072003960631 0.1121196308255162 -0.01398732848566784 -0.04698601129874840 -0.05186288056702455 
-0.01707935465078191 -0.007190895495543914 0.1042557915100047 -0.08524916127319969 -0.01521221673618005 
0.04152444492402259 -0.3359251291927016 -0.1012157670742138 -0.1625035678470691 0.2101147556103189 
0 0 0 0 0 
-0.002858836474514370 0.06806310535953157 -0.02835770128049268 -0.01159683610355466 -0.06680486955787808 
0.03002951303953240 -0.8483231854663670 0.3999130451889478 -0.4272607351918055 0.4063765618622728 
1.197888463060336 -0.7405876835134642 -0.2533805866483772 -0.4707608650263855 -0.5948765071976657 
-0.04354852784547392 -0.03829162117550701 0.3309235127010706 -0.01762181570757569 -0.09724144654878324 
-0.09476038156737833 -0.07991973219671224 -0.06366183069840477 0.06959835670843250 -0.04935894685373508 
-0.05939085344172453 -0.1832064232555434 -0.1571231547651248 -0.09689655297246890 0.4966917338668176 
-0.7105874383220627 0.06217982277647134 0.4737713960624891 -0.1431824194039820 0.06494956471242605 
-0.02147919433663140 0.4303606193037899 -0.02490737806523427 -0.1092085935100971 -0.1533870739414328 
-0.2114528125640338 0.8683682257765457 -0.8107900460267908 0.01121340944968559 -0.5304013992368207 
-0.1830575100181406 -0.1555784565527939 -0.03623580688939326 -0.08693229325793900 0.2419101442515969 
0.09563964173346370 -0.09508572085483308 -0.03805661048430270 -0.06956897143445254 -0.04384293970356591 
-0.1471356342830523 0.2083201820124514 -0.1292430252667934 -0.1307875906959178 0.3982775928187363 
-0.2200663318959536 0.5913628546612161 -0.2231188392533424 -0.3301585298862181 -0.2626941247792943 
0 0 0 0 0 
-0.01868573068765398 0.2062812763574277 -0.02233114096882331 -0.1321334824904556 -0.08936162858015184 
0 0 0 0 0 
0.2375129702873144 -0.007954183691993265 -0.01801268205180788 -0.01479530521100186 -0.1184047157002721 
-0.04072933641477634 -0.3424392250491336 0.2549765533019673 0.4243895331627170 -0.1210841336989635 
0.1612904886244410 -0.01583143908038999 -0.01392192201049734 -0.01950951458110304 -0.1961740398537309 
-0.02916495761350694 -0.03531459460169226 -0.03824538382573465 0.2940451706750032 -0.1767093931471778 
0 0 0 0 0 
0.5358398699996073 -0.3282759699473763 -0.5512954962048241 -0.2992004202700552 -0.05248301943323191 
0.2830905580546808 -0.2605693581355370 0.4452593375110941 -0.2473947805295186 -0.4117471498444900 
0.6235246112859210 -0.6315305743830791 -0.3810050782757060 -0.07685998354527306 0.4618979277086814 
-0.01234210644821884 0.1684290025743622 -0.03599305775676323 -0.03748688173900454 -0.05727259063834556 
-0.07894097030000777 -0.04154907145214744 -0.1267861694714912 -0.2160088856503058 0.3505222176824119 
-0.1111264672085306 -0.05535058581296418 -0.2105579653019265 -0.09130009717446429 0.2911894840825748 
-0.06861819646683792 -0.05149252302342307 -0.3916627659005855 -0.1787404709618792 0.4487261574786342 
0 0 0 0 0 
0 0 0 0 0 
-0.4252669746725888 -0.02375760950466038 -0.1245845586111975 -0.06132660779590730 0.5042587063261016 
-0.2487422775863412 -0.06718032388130200 -0.1064409450940736 -0.1060067200645071 0.3424060371063976 
0.1419243722537751 -0.08345844941051332 -0.2769359479826093 0.1162529286142226 0.1747513561144820 
-0.1702432348004058 0.2041911529102903 -0.1891688694434033 -0.2828850789731165 0.5511228018642695 
-0.01787030639821801 -0.1495761216413374 -0.1923843385795310 -0.2102162204733031 0.3581951069682348 
0.2603954507882622 -0.03474196051868584 0.0006692492962232085 -0.009405172062944864 -0.2389020106160469 
0 0 0 0 0 
-0.3232630754700309 0.3294525446744799 -0.2097987197812626 -0.4138339083378907 0.1470654417683613 
-0.07382350428284724 -0.04599245917450712 -0.02470150399944638 0.3872706331210998 -0.1718751200203263 
-0.3719924421584932 -0.07124704875014677 0.02432645063887309 -0.05653330747124196 0.2138426296109847 
-0.003198797054770964 -0.09576914377633484 0.2959798794809638 -0.01658670131895945 -0.06688412367359166 
0 0 0 0 0 
-0.04123320544465359 -0.1457590827194724 -0.2499377280828354 -0.05834434877079273 0.2893024729562367 
-0.6974755445552191 -0.01147957537628547 -0.05407630333243053 -0.03083652013615063 0.6220123358971476 
-0.08307550001690542 0.3370196003920339 -0.02277929208259254 -0.01439315804565106 -0.06373907767555063 
-0.06419638481997375 -0.1228967698789511 -0.3423369375730813 0.6097066771340455 -0.08806218173919615 
-0.4962334584093674 -1.168622890492299 1.865579333460041 -0.04530160079406691 -0.4720131762568397 
0 0 0 0 0 
-0.03996555099387212 -0.03046845120763055 0.2637256660766164 -0.02910575892417659 -0.1102180043850314 
-0.07505807840400919 -0.1222820289494278 -0.3133545718328890 0.3596338132385601 -0.05047649312545348 
0 0 0 0 0 
0 0 0 0 0 
0 0 0 0 0 
0.3382272305729120 -0.01532700744132700 -0.05356181877909243 -0.1194826566478685 -0.1327503950746105 
0 0 0 0 0 
-0.02748019098332449 -0.1462180817717020 0.5598398868539944 -0.2248361452154997 -0.02910206609870425 
0.1096451926368583 -0.004851548254013238 -0.01010545685139619 -0.02117445352879366 -0.1318173712817001 
-0.02761078158793903 0.2597110048609864 -0.1467920948923620 -0.06225721930341953 -0.02153597054704714 
-0.04689130863867316 0.2418176281982417 -0.05315884819825327 -0.01347846480098279 -0.008347816511514310 
-0.1781847882018656 0.2466672915058673 -0.06964931902212763 -0.001531092003532578 -0.005917691375303645 
0 0 0 0 0 
0 0 0 0 0 
0 0 0 0 0 
0 0 0 0 0 
0 0 0 0 0 
-0.01744129123819066 -0.1601981382664938 0.4916766175251521 -0.2263943668089498 -0.03907155701399086 
0 0 0 0 0 
0 0 0 0 0 
-0.09607524237325407 0.5767502942678037 -0.3824184056013393 -0.1292499318025663 -0.07337311964184202 
0 0 0 0 0 
0 0 0 0 0 
0 0 0 0 0 
0 0 0 0 0 
-0.03274522712835059 -0.2925438158283117 -0.006659014643056061 0.1942926709015210 -0.03258091946071943 
-0.006392706363766801 0.4428701075723598 -0.05899514823921338 -0.1814124242281955 -0.04563066949866259 
0 0 0 0 0 
-0.09423151148532086 -0.1759385937739838 0.3557061656868281 -0.05816944546408027 -0.03473045645731943 
0.1003798573508185 -0.02428759296834797 -0.02190586969633816 -0.003847919699022766 -0.03714860726222119 
0 0 0 0 0 
-0.03978300254442364 -0.1557558373716803 -0.09893758464121237 0.3210207504079414 -0.05514186666426716 
-0.05884308965975103 0.02105105665924793 0.04854981533908710 -0.06440733833220774 -0.04459522410324482 
-0.01469738746561462 -0.3018456352245554 -0.02847381296186018 0.3721100716285826 -0.02012253577795890 
0 0 0 0 0 
0 0 0 0 0 
0 0 0 0 0 
0 0 0 0 0 
0 0 0 0 0 
0 0 0 0 0 
0 0 0 0 0 
0 0 0 0 0 
0 0 0 0 0 
0 0 0 0 0 
-0.09088467431018397 -0.2571030269972421 -0.1572480186576430 0.4367100250141759 -0.1451075561091634 
0 0 0 0 0 
0 0 0 0 0 
0 0 0 0 0 
0 0 0 0 0 
0 0 0 0 0 
-0.1298397127773008 0.7065269748786112 -0.2133290847353631 -0.2454184766303101 -0.1421303335452224 
0 0 0 0 0 
0 0 0 0 0 
0 0 0 0 0 
0.01015695393867082 -0.02824241548361142 -0.01305984828101622 -0.0009915523775386090 -0.0002086817500498359 
0 0 0 0 0 
0 0 0 0 0 
-0.02020755779112356 -0.04164709966849948 0.1131072709758272 -0.1259219204287595 -0.01510059875431674 
0 0 0 0 0 
0 0 0 0 0 
0 0 0 0 0 
0 0 0 0 0 
0.01632156480218939 -0.01872101010444363 -0.01535249754273329 -0.001203052639371164 0.0005975091206035816 
0 0 0 0 0 
0 0 0 0 0 
0 0 0 0 0 
0 0 0 0 0 
-0.02946491965185625 -0.1141567591449230 -0.1538963728636313 0.2804555287081065 -0.03131216983738831 
0 0 0 0 0 
0 0 0 0 0 
0 0 0 0 0 
0 0 0 0 0 
0 0 0 0 0 
0 0 0 0 0 
0 0 0 0 0 
0 0 0 0 0 
0 0 0 0 0 
0 0 0 0 0 
-0.06480552462563932 -0.03055772538483670 0.2517017733065091 -0.1160331130702132 -0.008775123612043136 
0 0 0 0 0 
-0.01990291087838937 -0.07792812415548953 -0.1015344238241619 0.1690349270484864 -0.04323561587619995 
-0.1254641728992314 -0.2060575689390815 0.5229751599626133 -0.1768801717301569 -0.05940052820514064 
-0.06140443232700463 -0.1739902757549084 0.1159378977689562 0.1900014056826548 -0.05223591333967861 
-0.1039515449106498 -0.2654819259907036 0.3524728638000761 0.09368148277620403 -0.07475915062084783 
0 0 0 0 0 
0 0 0 0 0 
-0.01883366429511240 -0.03675204767889324 0.1240255548019269 -0.02867788031666243 -0.02059146809996421 
0 0 0 0 0 
0 0 0 0 0 
0 0 0 0 0 
-0.02486693958516584 -0.06595270651274888 -0.07365259415189826 0.1267206537327325 -0.04730305175035515 
0 0 0 0 0 
-0.01245367715746778 0.1658642776922891 -0.08034793614636816 -0.02335783046841043 -0.006058077755019048 
0 0 0 0 0 
0 0 0 0 0 
-0.03187620878689406 -0.01415080798491295 -0.1323052088910303 0.09641701184847652 -0.02334574961458448 
0.1068362203829571 -0.003524452624024133 -0.04852352178042206 -0.03756858629557011 -0.03960498704242918 
-0.02204376160046013 -0.04808535144300372 -0.01670405951523530 0.07568609962383861 -0.04488972465299111 
0 0 0 0 0 
0.03746697164018724 0.1569799950153997 -0.1210944723942025 -0.02611901009953517 -0.1032233885679316 
-0.03943814470553574 -0.03557602942568244 -0.03421676321830059 0.08197694262848314 -0.03056978475440697 
-0.1408307414718937 -0.3218213307484257 -0.4518798873874111 0.9234330470834350 -0.1655664156841650 
0 0 0 0 0 
0 0 0 0 0 
0 0 0 0 0 
0 0 0 0 0 
0 0 0 0 0 
-0.003309293816974032 -0.06774200405802054 -0.1104133682573570 0.1410570226899114 -0.01143265145108789 
0 0 0 0 0 
0 0 0 0 0 
0 0 0 0 0 
-0.1703118235829272 -0.01693690076390833 0.2947428550954883 -0.0006872909718056213 -0.01899505967975344 
0 0 0 0 0 
0 0 0 0 0 
0 0 0 0 0 
-0.04860610056482311 -0.01879376460547907 -0.07252716526502598 0.1348742472113309 -0.009679860291074538 
0 0 0 0 0 
0 0 0 0 0 
0 0 0 0 0 
-0.005871488180442140 -0.07295024695260591 0.1059873198568539 -0.04534914509725342 -0.03705630152627722 
0.2687499277868449 -0.02376331995170987 0.02134814542633998 -0.04904083473904559 -0.09501465419919433 
-0.01589792176962016 -0.01272656625896814 0.03822626522248634 -0.02171265724917671 -0.07986042238327050 
0 0 0 0 0 
0 0 0 0 0 
0 0 0 0 0 
-0.02459036099440944 -0.03018587829515023 -0.02434164492580428 0.08657422585045906 -0.06443806683289836 
-0.02341635539971200 -0.03063996754500825 -0.03465711078900550 0.07121748444877230 -0.03701447920583588 
-0.04397397423581453 0.2406128073646990 -0.06549705618551434 -0.09022345823905359 -0.02398022919784867 
0 0 0 0 0 
-0.02154573322760961 -0.1484164916431107 -0.1093019393264810 0.08960850490222043 -0.02016219233827324 
-0.005173042725104025 0.1243956641240390 -0.08962750167964029 -0.1000998109605899 -0.007680837236525346 
-0.004716093759354159 0.1196229638119589 -0.1048548957894041 -0.07962375207566008 -0.02091649012029457 
0 0 0 0 0 
-0.03708248791637318 0.3352674993629715 -0.01370929216544439 -0.2684716329792190 -0.02165920942380559 
-0.01145905261068081 -0.09501244986303078 -0.05834825292137646 0.1722651506374908 -0.01300442326234965 
0 0 0 0 0 
0.3426702301115825 -0.1091299609487057 -0.02851928819620498 -0.009866588874100583 -0.09101221682767532 
-0.04428134284978059 -0.2384180162474976 -0.02116182399013692 0.3697586908560063 -0.03629989359902806 
-0.02269318190366989 0.2069895347484930 -0.07406925545563070 -0.1282579565788145 -0.06383863561868450 
-0.1662125773686267 0.1998816739633086 -0.04771695884369253 -0.02495017615428426 -0.01716913523879695 
0 0 0 0 0 
0 0 0 0 0 
0 0 0 0 0 
0 0 0 0 0 
0.08680443786147762 0.2032708587884002 0.3093471984326908 -0.3412785030012860 -0.1212733529688849 
-0.04303254781401484 -0.1236776199663836 0.2359618540806630 -0.05529042661450758 -0.02077356246266170 
0 0 0 0 0 
0.004063809440806873 -0.001125797608012705 -0.01955879184893904 -0.0007733468786948413 -0.009607969951213784 
0 0 0 0 0 
0 0 0 0 0 
0 0 0 0 0 
-0.04540175394095765 -0.08342892975325152 -0.1495363906645951 0.2702142548337147 -0.03392026814776237 
0 0 0 0 0 
0 0 0 0 0 
0.1292921333513046 -0.01196171602326029 -0.02183261388834648 -0.02420464583568760 -0.02710901192762927 
-0.1234502175729457 -0.07972818111963685 -0.05048061116161668 0.2723439736920655 -0.01626842156465853 
0.2362947954278076 -0.01051534054559745 -0.07327636827586877 -0.04194822493404260 -0.1194264975482661 
-0.01357688976958047 0.4263808076668983 -0.05107612431814502 -0.2763544740635412 -0.03377728761584670 
-0.01641730391956753 0.2624028293718883 -0.1196398025228442 -0.04481937615978728 -0.01597364156519975 
0 0 0 0 0 
0 0 0 0 0 
-0.04404683259982541 -0.1285212301662961 0.3566406915445001 -0.07880017162990008 -0.02343281509400163 
-0.04088551919520651 0.1068489639634573 -0.05461442446849236 -0.1051305940849732 -0.04142900643906040 
0 0 0 0 0 
0 0 0 0 0 
-0.02125979648125518 0.1983297903410329 -0.1256371519995956 -0.03278260397349601 -0.009470099249910569 
0 0 0 0 0 
0 0 0 0 0 
-0.05405662253429538 0.3316615807685135 -0.07290443308463670 -0.002379827181438867 -0.07397843632153278 
0 0 0 0 0 
-0.1018658125207877 0.2665976652961049 -0.03241256955409955 -0.09547010055317443 -0.04499102523986320 
-0.03147383256102717 0.1578130000206729 -0.08892072178918350 -0.03550637423212892 -0.01382419718290904 
0 0 0 0 0 
0.2824000417347310 -0.05697138589554682 -0.01516461445023315 -0.05757178326009251 -0.1195417766378649 
0.2082700718237167 -0.004244076209114938 -0.05471283296091039 -0.004595253532978028 -0.1245847699507979 
0 0 0 0 0 
0 0 0 0 0 
0 0 0 0 0 
0.1107871058955239 -0.03892164607149690 -0.008833693761775178 -0.01667894557262461 -0.02133973990123914 
0 0 0 0 0 
0 0 0 0 0 
0 0 0 0 0 
0.04152444492402259 -0.3359251291927016 -0.1012157670742138 -0.1625035678470691 0.2101147556103189 
1.020765287091686 -0.5116629027646455 -0.8389433764955918 -0.1478001479424845 -0.3667419411571176 
-0.4755671689309516 0.9526546664146887 -0.4149404510771123 -0.5704240806275090 -0.1597753022157742 
-0.1909673022589318 -0.7371994346986470 0.3177495726189711 -0.1288119866900302 -0.5411315322672734 
-0.3616986093783998 0.4382039613720090 -0.01885719256993879 -1.052301476312559 -0.7793737837258289 
-0.6744416807605759 -0.3330998849349446 0.2576284924136282 0.1522840756240871 0.1167756648326799 
0.01682812338367843 -0.5180998430935116 -0.4196495890787128 0.6033463558957273 0.4142595657794522 
-0.3823645035676198 -0.5031270394232005 -0.4457019408403070 0.3234748978746437 0.3892947085561463 
0.09488852597675716 -0.2919822964427114 0.2684349396011405 -0.2031802986765638 0.01236899235654847 
-0.3401028187023336 -0.05043768719853212 0.3104973518338504 0.4041330393275362 -0.5270716570847699 
-0.3232630754700309 0.3294525446744799 -0.2097987197812626 -0.4138339083378907 0.1470654417683613 
-0.3719924421584932 -0.07124704875014677 0.02432645063887309 -0.05653330747124196 0.2138426296109847 
0.03746697164018724 0.1569799950153997 -0.1210944723942025 -0.02611901009953517 -0.1032233885679316 
-0.04088551919520651 0.1068489639634573 -0.05461442446849236 -0.1051305940849732 -0.04142900643906040 
0.1739697122297128 0.1688470047866028 -0.5182696190587435 0.3604170784931425 0.2005767636950594 
-0.1698076465756223 0.4056551702421997 -0.4152052201422977 -0.4535719343153772 0.1923438369481392 
-0.06350396976774308 0.1657444979501653 0.2839724606119150 -0.4452735761654388 -0.1319456748195812 
0.5313338477626467 -0.07124168435711670 -0.2193358701300404 -0.1020809205933227 -0.1730127897874779 
-0.4160827469024701 -0.02395471391471652 -0.003758963657789839 -0.001163289312384156 0.3373844317101285 
-0.07291488478165511 -0.3718201633651788 -0.02569272185214053 -0.1506516976448548 0.2806338920300022 
0 0 0 0 0 
-0.2733627214532766 -0.2448858768380877 0.07342041418109428 -0.5023694854431044 0.2304793276566102 
-0.002858836474514370 0.06806310535953157 -0.02835770128049268 -0.01159683610355466 -0.06680486955787808 
-0.1731684986862500 -0.05039659338831408 0.07544240829379727 0.1186415748791934 -0.08011006708593164 
0.04428842314459824 0.1400357520762091 -0.08547822600194248 -0.02144579313316523 -0.1070529438010829 
-0.008870337457701966 0.02981922568389797 0.02519522644980209 -0.01571574584012893 -0.08468704329584358 
-0.001011670804586827 -0.02510131797735306 0.02428208984537117 -0.003003974419713031 -0.03452619520167880 
-0.05188187370825531 -0.1479384979616682 0.4082559554025082 0.08063428500969277 -0.2938253119899265 
0 0 0 0 0 
0.3356538820414236 -0.07435905423098575 -0.1461941370671306 -0.02867158420158850 -0.1293707672732863 
-0.04354852784547392 -0.03829162117550701 0.3309235127010706 -0.01762181570757569 -0.09724144654878324 
0.2885150102252362 -0.02691941878687415 -0.09203941885245125 -0.006032962971726877 -0.06093214064124611 
0.1576740359132345 0.06178542775464587 -0.09123614587989969 0.1708784268093767 -0.2614136922058429 
-0.1834772576846980 -0.1182854209090242 -0.07200853542300348 -0.01758354805519584 0.3710588303386680 
-0.1834772576846980 -0.1182854209090242 -0.07200853542300348 -0.01758354805519584 0.3710588303386680 
-0.06194194743407115 0.2686946389317380 -0.4158494574765841 -0.1190270511555553 0.4771497016437476 
-0.1413040636860929 -0.1567605357711466 -0.05368643370293520 -0.09101025646211436 0.2142292630810549 
0.004063809440806873 -0.001125797608012705 -0.01955879184893904 -0.0007733468786948413 -0.009607969951213784 
-0.0006071887386924360 0.02312757706784593 -0.01811230170722157 -0.006180886332152048 -0.01661897361318955 
0.3326628300469992 -0.5282300356746901 -0.5837485087646619 -0.2828169761720711 0.1331485035193742 
-0.2566995867105175 0.005590040242947151 -0.2413998789147282 0.2576316587880863 0.09216551786536000 
0.09563964173346370 -0.09508572085483308 -0.03805661048430270 -0.06956897143445254 -0.04384293970356591 
0 0 0 0 0 
-0.001062546164003999 0.01722633510532847 -0.007270269751100842 -0.008053877425217933 -0.02591444096458017 
-0.004930059354680833 0.1074020448205660 0.0001140178266458972 -0.2196581278574890 -0.003433812278283537 
0 0 0 0 0 
0 0 0 0 0 
-0.006011500983187593 -0.03824387967563360 0.05355292773029478 -0.004118909736574273 -0.01788217373796549 
0.1612904886244410 -0.01583143908038999 -0.01392192201049734 -0.01950951458110304 -0.1961740398537309 
-0.02916495761350694 -0.03531459460169226 -0.03824538382573465 0.2940451706750032 -0.1767093931471778 
-0.02916495761350694 -0.03531459460169226 -0.03824538382573465 0.2940451706750032 -0.1767093931471778 
-0.02768469807010878 -0.0001031219772842950 0.03869626508435111 0.0002967528639986731 -0.008674470892432822 
-0.1441338987939674 -0.01117642443878648 -0.1158188995175594 -0.005213217974660714 0.2276850089627760 
0.003591620733669371 -0.01966176136474464 0.08816117059399126 -0.006768034563136664 -0.01939827839448219 
0 0 0 0 0 
0 0 0 0 0 
0 0 0 0 0 
0 0 0 0 0 
0 0 0 0 0 
-0.1635594208357161 -0.005630182224485638 -0.1147691407702374 -0.005447223993897564 0.2484392262210134 
-0.02806094672099244 -0.04715106524921225 -0.3770920550503920 -0.04462589747294427 0.4472033724888664 
-0.4508483555858129 -0.2462040497476231 0.3848580312135871 0.07654044089974553 -0.09722058592181710 
-0.005710841702538751 -0.05065680505278425 0.2603254663636942 -0.007709469983330559 -0.1691114068086673 
0.04476832462172942 -0.02763152402719908 -0.003181860227006353 -7.691278234837890e-05 -0.01761486345446936 
0.04476832462172942 -0.02763152402719908 -0.003181860227006353 -7.691278234837890e-05 -0.01761486345446936 
-0.005256556598917883 -0.07851660606217142 0.1880519963567189 -0.03992639925817610 -0.03510517261222791 
-0.002085992624321186 -0.03328134527645471 0.1986148150261101 -0.003682367356603243 -0.1005796936580203 
0.06623557697609432 0.1697885764673479 0.2125504108083391 -0.1057475676831097 -0.3671832834370648 
0.01942552204174868 -0.005546242214300837 -0.001049758747321903 0.0002340060192368495 -0.02075421725823732 
0.2796247739533274 -0.02108618398606331 -0.009005497730028329 -0.01528811124895392 -0.2777555154744974 
0.2796247739533274 -0.02108618398606331 -0.009005497730028329 -0.01528811124895392 -0.2777555154744974 
-0.1549053992732743 -0.4610067032896902 -0.06583726853720555 -0.07791324587090628 0.9138515152234046 
0.08955708793771448 0.03726957849566161 0.05299686953777084 -0.05011687704548601 -0.1720800646457730 
0.1556511778068645 -0.03982835331545934 -0.009126822755804436 -0.004141633782496847 -0.1263883826631023 
0.1556511778068645 -0.03982835331545934 -0.009126822755804436 -0.004141633782496847 -0.1263883826631023 
0.1556511778068645 -0.03982835331545934 -0.009126822755804436 -0.004141633782496847 -0.1263883826631023 
0.1864457568384355 0.3708207228234667 -0.1828711715989362 -0.05958058970415853 -0.2819196016755977 
-0.01234210644821884 0.1684290025743622 -0.03599305775676323 -0.03748688173900454 -0.05727259063834556 
-0.01545356959230960 0.1166983270445033 0.01112501092645738 -0.04971405738620539 -0.06540113604913039 
-0.01948616822210108 0.1139222217189104 -0.02620751594404393 -0.009553925937190011 -0.02196837462957678 
0.2471863793320255 0.03804307242198184 0.04537504651188769 -0.06810318082865666 -0.1495869320162241 
-0.01948616822210108 0.1139222217189104 -0.02620751594404393 -0.009553925937190011 -0.02196837462957678 
-0.02057808071161451 0.007169043932291452 0.04890400217561315 -0.01429647861744281 -0.09093533952989430 
-0.01518622420821500 -0.05261456447681533 -0.5464288550627029 -0.01184883023797806 0.5061096005899297 
0 0 0 0 0 
0 0 0 0 0 
0.1032904059139429 -0.002209157426742425 -0.01335141302343641 0.0001979130981121994 -0.04752467571479164 
1.239480035426755 -0.6545370031459609 -0.4070206037855388 0.2820542658376009 -0.6483440829801193 
0.02446683998507597 -0.002362126942939386 0.0004824226306469163 5.083811446586570e-05 -0.03943126230808292 
0.05733659413414168 -0.02091161531321227 -0.008341858180870590 -0.004788530155728318 -0.05673004532411193 
-0.3754797604353786 -0.03305329631813157 -0.1252304605890316 -0.06099633051196167 0.4744429441759831 
-0.2487422775863412 -0.06718032388130200 -0.1064409450940736 -0.1060067200645071 0.3424060371063976 
-0.1203204587012835 -0.09778717625234624 -0.05084885723931645 -0.1389439112166145 0.1895146571857903 
0.04978721423721019 -0.009295686813471192 -0.0006459019778340537 0.0003302772839456323 -0.02981576215011848 
-0.07515968520579600 0.01378317553861437 -0.2463400944195636 0.1464949656256353 0.2980796486853767 
-0.2537855396869090 -0.04350156239637199 -0.02338321689296606 -0.1114419105898777 0.2369311551614744 
-1.551706126967583 -0.01307485246929461 -0.02111579669552105 -0.01528747040970639 1.175914402700953 
0.1614999631869135 -0.01731871044364030 -0.2281646392101978 -0.03377664295087374 0.1913974354085851 
-0.0008691857259657786 -0.2271738296749025 -0.08855650883207843 -0.3327385381379381 0.6568876898131090 
-0.0008691857259657786 -0.2271738296749025 -0.08855650883207843 -0.3327385381379381 0.6568876898131090 
-0.01787030639821801 -0.1495761216413374 -0.1923843385795310 -0.2102162204733031 0.3581951069682348 
0.2603954507882622 -0.03474196051868584 0.0006692492962232085 -0.009405172062944864 -0.2389020106160469 
0 0 0 0 0 
0 0 0 0 0 
0.1157118246812479 -0.005875595747080509 -0.003263359315771469 -0.0002706473882235395 -0.05996230565615308 
-1.062159427029950 -0.02455408185435020 -0.006101357789919987 0.0004341533676139129 0.9789475165653015 
-0.05416162911813004 -0.2452406742003150 -0.1394824450978038 -0.1419332788811326 0.4728911847219570 
0.1339185580846190 -0.002482581057058842 -0.0005621626992605316 0.0003743241372155017 -0.1817699225733448 
0.04091715159136303 -0.02130041210505584 -0.01371087483659361 -0.001243985105000661 -0.04367831247422152 
0.03902557291287783 -0.006834749579037064 -0.0005920930484608804 -0.0006677728992910388 -0.05380082478683177 
0.02347560279605363 -0.008202684002326820 -0.007443489663927563 -0.007230211447501899 -0.01320846171401749 
-0.1724449255463158 -0.02028253097137121 0.3697681660633036 -0.1774764860827835 -0.2558897118279672 
0.03278029332665182 -0.3214520390861626 -0.05262191637780734 0.3928269255235941 -0.1039522724312485 
0.01115236248228876 -0.003716191617762395 -0.002889089454205078 -0.0006450213547225967 -0.002145322390530727 
0.1112471155335801 -0.08667718189258265 0.1596103567691427 -0.01264595886077340 -0.07723999619481024 
0.06231152198770720 -0.006467389632729784 -0.01136825840826001 -0.007510841006870916 -0.06025964353738221 
-0.1765740852875109 -0.1917045142945946 0.1326317738271632 -0.06553861326864734 0.2598705834958697 
-0.3489324918161662 -0.06563765258198058 -0.1335917930721201 -0.05498473342274114 0.3698778600032985 
0.06285727000106041 0.04717677982720386 0.1632912152980202 -0.08048514415183587 -0.1191903200210483 
-0.003198797054770964 -0.09576914377633484 0.2959798794809638 -0.01658670131895945 -0.06688412367359166 
0.01872000629970159 -0.003564831068400653 -0.001527589735403033 -0.0001851882919533830 -0.01226866169725198 
0 0 0 0 0 
-0.05432969182817972 -0.02575123570552248 -0.2154201704860466 -0.05712232486496853 0.1679341514570709 
-0.04123320544465359 -0.1457590827194724 -0.2499377280828354 -0.05834434877079273 0.2893024729562367 
-0.1243087054615590 0.1912605176725616 -0.2727170201654279 -0.07273750681644380 0.2255633952806860 
-0.08307550001690542 0.3370196003920339 -0.02277929208259254 -0.01439315804565106 -0.06373907767555063 
-0.1456701551464986 -0.02665886039960106 0.05851290675627513 0.1364311760073520 -0.04818989508638980 
-0.009347969684492408 -0.05243003678315387 -0.1849565844052896 0.2176019649945999 -0.01727044520374247 
-0.06182616076200016 -0.07447706146852466 0.09319625944712015 0.01135062171078220 -0.06591256100479072 
-0.02460902358950551 -0.05394131214444896 0.3528361905146831 -0.1678576430759392 -0.03164582091388252 
0 0 0 0 0 
0.03407305652801018 -0.001162752864121994 -0.005405648188159573 -0.0004917223768809878 -0.02426370548096187 
0.03407305652801018 -0.001162752864121994 -0.005405648188159573 -0.0004917223768809878 -0.02426370548096187 
-0.08896976677083215 -0.01993578986039905 0.06665983311981252 -0.008327370401326323 -0.05471062876458404 
0.02391703047255416 -0.003817916528066481 -0.002684783871267257 -5.369035602605956e-05 -0.008566180162640692 
-0.1534386361784473 -0.006762394215672009 -0.2642752223069014 -0.007449833363685550 0.2719227911417800 
-0.09187375325939504 -0.003911131267655719 0.07252893773110043 -0.008865793201454890 -0.01768431600856251 
-0.06079507425907501 -0.0006175392138569984 0.03883904363686162 -0.0002100134141291993 -0.005303666399072289 
-0.03996555099387212 -0.03046845120763055 0.2637256660766164 -0.02910575892417659 -0.1102180043850314 
-0.04700220586988911 -0.01444305052349293 -0.2777267210670675 -0.01327200071073610 0.2027919660100555 
-0.1773556666510014 -0.002944477687605529 -0.2615904384356341 -0.007396143007659489 0.2804889713044207 
0.01449548538786574 -0.004582379652473934 -0.003772396614762698 -0.006687757565317982 -0.01420377577352857 
0 0 0 0 0 
-0.01028379169899131 -0.07166071961955355 0.3865545217530303 -0.1951400296082172 -0.04821308616393227 
-0.004031392082975109 -0.02831021975897340 0.08056567695188399 -0.04895435372498948 -0.02595502075021675 
0 0 0 0 0 
0.003330035998375644 -0.03688297319281260 -0.03251408091821090 0.1727703622782293 -0.02771593357056010 
0.07441473713471668 -0.01645566240356384 -0.01039206524902934 -0.004994354991514509 -0.04916295923275523 
-0.3320635380707102 -0.01137220238863286 0.4229629315535218 -0.01158885273584881 -0.03630930590753714 
-0.3590543936409893 -0.01261265567921567 0.4293508388146033 -0.01865834767559459 -0.04007418194620228 
0 0 0 0 0 
0 0 0 0 0 
0 0 0 0 0 
0.1534922398836351 -0.04297497891811039 -0.01707097717091257 -0.01545714369018652 -0.01084066882894256 
0.1745833460905749 -0.04572873914779162 -0.02534421273600339 -0.01701045006312283 -0.02104209769701714 
-0.006252399616016196 -0.04335049986058014 0.3059888448011464 -0.1461856758832277 -0.02225806541371553 
0.1096451926368583 -0.004851548254013238 -0.01010545685139619 -0.02117445352879366 -0.1318173712817001 
0.04820613064474073 -0.001643334004279308 -0.01425807053396101 -0.006435830971739893 -0.02661945261533204 
0.01951615447143765 -0.01536071595965719 -0.003094043531905723 5.633439072928330e-05 -0.009862588693857323 
0.08689367459527306 -0.02104472532391896 -0.01064197245830786 0.0001411319230649683 -0.02867561742119491 
0.09390886396425790 0.2590039685946709 -0.1895714824511949 -0.1488065758316055 -0.07414741906952002 
-0.04689130863867316 0.2418176281982417 -0.05315884819825327 -0.01347846480098279 -0.008347816511514310 
0.1403581783622908 -0.09590154808374171 -0.03404996584979910 -0.01755796139502170 -0.04662109741470642 
0 0 0 0 0 
0 0 0 0 0 
0 0 0 0 0 
0 0 0 0 0 
0 0 0 0 0 
0 0 0 0 0 
0 0 0 0 0 
0 0 0 0 0 
0 0 0 0 0 
0.1047146509028258 -0.01705072701914963 -0.01589694292794993 -0.007258768981492325 -0.02812266487463185 
0 0 0 0 0 
0 0 0 0 0 
0 0 0 0 0 
0 0 0 0 0 
0 0 0 0 0 
-0.003912279862211855 0.05108263899316399 -0.07767183977118251 -0.009964749949131137 -0.01280614061968935 
0.05877606313881041 0.04974142085770875 -0.09656751819446198 -0.01262461437024495 -0.02867292064961331 
0.01802542159495715 -0.003839327581039135 0.0004191620070152381 -0.0005806433057934865 -0.009423385727842484 
0.001499780190483602 -0.1686320590914308 0.4819130310201394 -0.2268601673056410 -0.04915775208815484 
0.02511227244489151 -0.001663007467579187 -0.008871325342788516 -0.003075445711951940 -0.01413566081408836 
0 0 0 0 0 
-0.2311275137346240 0.06144490278749127 0.2963123827541300 -0.02243997839521135 -0.07354735335921839 
0.02512568076549992 0.08569047154923064 -0.1267167151195851 -0.01144268899083593 -0.03287380536490674 
0 0 0 0 0 
0 0 0 0 0 
0 0 0 0 0 
-0.1781847882018656 0.2466672915058673 -0.06964931902212763 -0.001531092003532578 -0.005917691375303645 
-0.1781847882018656 0.2466672915058673 -0.06964931902212763 -0.001531092003532578 -0.005917691375303645 
0.02609966259187854 -0.01546787830083544 -0.002116199880880268 0.0006419286176150992 -0.01062575245250933 
0.02609966259187854 -0.01546787830083544 -0.002116199880880268 0.0006419286176150992 -0.01062575245250933 
0.04601778904403665 -0.004045167240694011 -0.005229506829376426 -0.003110258052485120 -0.04746633037544353 
0 0 0 0 0 
0 0 0 0 0 
0 0 0 0 0 
0 0 0 0 0 
0 0 0 0 0 
0 0 0 0 0 
0 0 0 0 0 
0.02788901660773695 -0.01028415664273678 -0.007945481709731585 -0.0008270988859207531 -0.01236344603423224 
0.02788901660773695 -0.01028415664273678 -0.007945481709731585 -0.0008270988859207531 -0.01236344603423224 
0.04862118828996306 -0.003960788311210848 -0.005963233625577577 -0.003071578180399469 -0.04485068107243021 
-0.08875196016207436 0.7044965077973981 0.001141045064972155 -0.1870422293506798 -0.1385698836359910 
-0.006392706363766801 0.4428701075723598 -0.05899514823921338 -0.1814124242281955 -0.04563066949866259 
0.01784740092378528 -0.01015727801115292 -0.006157855453036850 -0.0008367933126855210 -0.01292399943647592 
0.01784740092378528 -0.01015727801115292 -0.006157855453036850 -0.0008367933126855210 -0.01292399943647592 
0.3233830413232667 -0.05325307315727518 -0.1684021255099459 -0.1170749783724226 -0.1084686661662374 
-0.02093772079910481 0.03621354871155128 -0.01494593006906699 -0.01511499823582499 -0.005627379273752151 
0.7967159817132772 -0.07803583929150179 -0.5823253420503886 -0.01309448437813133 -0.1320511334800946 
-0.01162457100523282 -0.1358370850379267 0.1947010033419611 -0.03916097598949565 -0.01039576993718814 
0.1003798573508185 -0.02428759296834797 -0.02190586969633816 -0.003847919699022766 -0.03714860726222119 
-0.09271281921164444 -0.2492222466045685 0.09824941572996030 0.3017484598078369 -0.06448192511184282 
0.04137691644160597 -0.02727890952960908 -0.001820551064290853 0.0002907456410128353 -0.03428150023766231 
0.02186076197016832 -0.01191819356995189 0.001273492467614871 0.0002344112502835523 -0.02441891154380500 
0.04920245238265496 -0.04580568106903966 -0.01223937703078546 -0.0006680492374841411 -0.01026057325511512 
-0.005807974014973225 0.01570130425731457 -0.01171704859065196 -0.02423621824952711 -0.003465323953516267 
-0.005807974014973225 0.01570130425731457 -0.01171704859065196 -0.02423621824952711 -0.003465323953516267 
0 0 0 0 0 
-0.07431107088852311 0.1999573371025152 -0.04706894031614066 -0.04923117092002851 -0.05389777129282544 
0 0 0 0 0 
-0.01469738746561462 -0.3018456352245554 -0.02847381296186018 0.3721100716285826 -0.02012253577795890 
-0.04072399134287003 -0.008974931583404554 0.1261080662882562 -0.003573389080426539 -0.07155623238867277 
-0.01311532451884226 -0.004625211036124319 0.06164296454006694 -0.02067900313559449 -0.04836449093319493 
-0.03854075620320688 -0.005742324197260076 0.03456867985708557 -0.002886087058296720 -0.004374464025871657 
-0.03854075620320688 -0.005742324197260076 0.03456867985708557 -0.002886087058296720 -0.004374464025871657 
0.06414629886079776 -0.01672609352654583 -0.008609077939322446 -0.003835891172742495 -0.04137069742921659 
0.2099506848125299 -0.06237328865690103 0.02178912782486603 -0.01616856803374673 -0.1442150350526935 
-0.01996240244219486 0.1852629049919108 -0.03871959411380181 -0.04217456268022514 -0.02358191037124394 
0 0 0 0 0 
0.05928720520452542 -0.04051257721856887 0.0007786220780382595 -0.002064243583573962 -0.04571408314926226 
-0.01291735948688115 -0.02538960777094592 0.06289704708071762 -0.007559737588789546 -0.01831077657640122 
0.01220974547619313 -0.01147278373125974 -0.002701368122294421 3.712033421578056e-05 -0.004894470562180391 
-0.06890812381367087 -0.01143962081956529 0.1792467314892665 -0.005642181429883005 -0.02970198340288462 
0.03226245018450052 -0.002093361848605045 -0.01108845569636166 -0.0001645730122905645 -0.02420130299721048 
0 0 0 0 0 
0.04756581942646312 -0.007530602242116618 -0.004713582227854269 -0.004349657353814037 -0.03471493406645718 
0.01733201811387236 -0.007278106048508932 -0.006605478104204973 -0.003732722474821573 -0.009450503016299428 
0.004063809440806873 -0.001125797608012705 -0.01955879184893904 -0.0007733468786948413 -0.009607969951213784 
0.01166797485205226 -0.005714121061553460 -0.005013780056907105 5.021370913997397e-05 -0.005725588857969391 
-0.005334492090256538 0.04700189349882813 -0.05425520131364423 -0.01166284316189557 -0.006355356434017324 
0.02233942225728100 0.01644361513887660 -0.01034349491717640 -0.01318360960359983 -0.02771328392095396 
0 0 0 0 0 
-0.03974180103184603 -0.001638633337333216 0.07020078229476240 -0.0001757574323372786 -0.01042843957000981 
-0.02080186906997698 0.04546097858878315 -0.01330460803331993 -0.01853395388766864 -0.005748583856512643 
0.01290377710180353 0.04325333746108841 -0.02238813319447459 -0.01864468171920900 -0.02650935244595997 
-0.03726918356050096 -0.01170429038063886 0.1008612536705516 -0.0005076135104892584 -0.004319992316287970 
-0.03726918356050096 -0.01170429038063886 0.1008612536705516 -0.0005076135104892584 -0.004319992316287970 
0 0 0 0 0 
0 0 0 0 0 
0 0 0 0 0 
0 0 0 0 0 
0 0 0 0 0 
0 0 0 0 0 
0 0 0 0 0 
-0.005047937236981598 0.01019332261900502 -0.03589505377344329 -0.002763004551970455 0.0003437905475642922 
-0.005047937236981598 0.01019332261900502 -0.03589505377344329 -0.002763004551970455 0.0003437905475642922 
-0.04840596719483912 0.1450571433534579 -0.06561873635444311 -0.02517510059759561 -0.02278832968437345 
0 0 0 0 0 
0 0 0 0 0 
0 0 0 0 0 
-0.01262554475466966 -0.03657664509591863 0.04109948705148174 -0.01944727430816224 -0.01441855222758311 
-0.01262554475466966 -0.03657664509591863 0.04109948705148174 -0.01944727430816224 -0.01441855222758311 
0 0 0 0 0 
-0.02099674918974769 0.08082996888455660 -0.06310473524584856 -0.03848963435441770 -0.03293681063645911 
-0.007962593779892096 -0.02053717410741960 0.05856510126841928 -0.002316448383024838 -0.02778205898191500 
-0.05123724349948781 -0.0003736700524650713 0.06904545959621630 -0.0001729637926040533 -0.02181563657329728 
0.1245108726659385 -0.06839271924141029 0.003359981357256810 -0.01395228368889397 -0.07696636464502500 
-0.04557881864267517 -0.003198106509870215 0.06448996014776279 0.0005210579638012144 -0.002634017094676278 
-0.04557881864267517 -0.003198106509870215 0.06448996014776279 0.0005210579638012144 -0.002634017094676278 
0 0 0 0 0 
0 0 0 0 0 
-0.02545997435469417 -0.007403317494488254 0.003015297130878020 3.421827144909793e-05 -0.003415199506484153 
0.07827841078311437 -0.02497779079837763 -0.01292485888431810 -0.01760164043321038 -0.07934621194308089 
-0.1353493086163455 -0.007708165768272715 0.08603919357828767 -0.004316113782069331 -0.01060828418141828 
-0.02898903763958618 -0.0001208575952345128 0.02503852472726492 -0.0001292716593443807 -0.01204318301983994 
-0.02127067895946031 -0.002089194559731197 0.03613667994408929 -0.002528644613315317 -0.01758214789322906 
0.08126154636825017 -0.01793420639000105 -0.04153126277838876 -0.002870185261925827 -0.02792212399855385 
-0.05790671796868949 -0.005007726571339301 0.02846636302417722 -0.003707714459928698 -0.01331523069238855 
-0.02581466591126670 -0.001239406240660910 0.01383163785767208 -0.002203035768242176 -0.01016325984007117 
0 0 0 0 0 
-0.02768469807010878 -0.0001031219772842950 0.03869626508435111 0.0002967528639986731 -0.008674470892432822 
-0.1164409219017135 -0.09325790803740774 0.3922660536322537 -0.03000647583871454 -0.05997484818403196 
-0.02336836141400006 -0.001727862336920213 0.009097264527616881 -0.003672386034693680 -0.005170185123205068 
0 0 0 0 0 
0 0 0 0 0 
-0.05405662253429538 0.3316615807685135 -0.07290443308463670 -0.002379827181438867 -0.07397843632153278 
-0.03365610307185579 -0.004091316182036982 0.05152233384517642 -0.0008923239933992528 -0.007795906643258429 
-0.02492365155047772 0.07797586414345939 0.008252375186423100 -0.2055456725044196 -0.03601708887461131 
0.1210377764127301 0.2811594609021211 -0.1341410040127522 -0.3269113413508815 -0.02632492388233401 
0 0 0 0 0 
0 0 0 0 0 
0 0 0 0 0 
-0.004282487323159328 -0.1329213561842932 0.08984754909051564 -0.006577142867324689 -0.02694924440073766 
0 0 0 0 0 
0 0 0 0 0 
0 0 0 0 0 
0 0 0 0 0 
0 0 0 0 0 
0.01632156480218939 -0.01872101010444363 -0.01535249754273329 -0.001203052639371164 0.0005975091206035816 
0.01471560334082110 -0.0005140651003439820 -0.009379316531678483 1.845182006908171e-05 -0.01339257441697662 
-0.01311532451884226 -0.004625211036124319 0.06164296454006694 -0.02067900313559449 -0.04836449093319493 
0.04090842870245896 -0.003525896631546568 -0.006539431570266468 0.0001505449992816710 -0.01091737402146551 
-0.03602467079317296 -0.002423264668922797 0.07041936806542169 -0.003484681811592858 -0.02035897747559552 
0 0 0 0 0 
0 0 0 0 0 
0.1772816626137147 -0.03631010039139281 -0.2246374246886925 -0.02767694104179029 -0.01416409926183512 
0 0 0 0 0 
0 0 0 0 0 
0 0 0 0 0 
-0.08101498690727697 -0.002473304123616221 0.05906166911907492 -0.001603839628620607 -0.003895394338194322 
-0.01418786296213468 -0.001719924545098441 0.02526019470601053 -0.002026212899260894 -0.02477149748813944 
0 0 0 0 0 
0 0 0 0 0 
0 0 0 0 0 
0 0 0 0 0 
0 0 0 0 0 
0 0 0 0 0 
0 0 0 0 0 
0.009520926578769927 -0.007751689014180998 -0.005080262296550408 0.0003258180303892576 -0.0008343473360460357 
-0.02527789183064332 0.1829161344141928 -0.07530709359414857 0.04230547973993405 -0.08100701485496468 
0.04942873161041746 -0.009028943424763756 -0.01920170433151530 -0.008991465678948474 -0.01029358307894983 
-0.03919036306839194 -0.0003276359090989365 0.04799130928767039 -0.0002809317508343703 -0.01443583750139374 
-0.009354931791064768 -0.001497059758218261 0.03931270188465615 -0.001886426049054537 -0.04433371458405156 
-0.08121014134911073 -0.09639851803489423 0.2202910801063750 -0.04056684633939657 -0.01513183031387811 
0 0 0 0 0 
0 0 0 0 0 
-0.005153995979611236 0.3125141639270858 -0.03959319043276238 -0.2913452761127485 -0.01837161398492629 
0 0 0 0 0 
-0.03767948811817632 -0.002470750842051976 0.02471086260715208 -0.005375970952546582 -0.008766165939701127 
0.1908370733540593 -0.06560282022645972 -0.02565222858886593 -0.002033580104040545 -0.02360455349737977 
0 0 0 0 0 
0 0 0 0 0 
0.5273641646074605 -0.007510028850862910 -0.4448338188213971 -0.01714792875516761 -0.02021678546046999 
0 0 0 0 0 
0 0 0 0 0 
0 0 0 0 0 
0.06294414535061695 -0.003650770706885112 -0.008826730832790406 -0.008234058988856490 -0.04601261001031294 
0.1155877951815272 -0.01004825390922475 -0.06910632304196496 -0.004880585127115298 -0.03777249399997926 
0.2530361619576385 -0.04748911085455242 -0.1377131433003848 -0.03407405875550962 -0.1425121045236471 
0.01509649426913495 -0.002246818037695137 0.0004701565299196232 -0.0002174517720752980 -0.01669306848392708 
0 0 0 0 0 
0 0 0 0 0 
-0.01357688976958047 0.4263808076668983 -0.05107612431814502 -0.2763544740635412 -0.03377728761584670 
0 0 0 0 0 
0.02265880653224767 -0.1026635367040285 0.1328147229125137 -0.08178240141439522 -0.08602764869984668 
0 0 0 0 0 
0 0 0 0 0 
0 0 0 0 0 
0 0 0 0 0 
0.1720632904749095 -0.1617623736641849 -0.1336628685491167 0.2466756240465135 -0.1882363988111379 
-0.008424476538531235 0.03868825432107307 -0.02574544248011462 -0.01281979595813344 -0.002504970284821720 
0.2595260390145971 -0.03533392152474461 -0.01115081362450847 -0.02193450635255706 -0.02863800033432753 
-0.06503975062802626 -0.003101841960177790 0.1038251189218139 -0.009565454171453774 -0.08972334425085927 
0.03535071302784722 -0.02596874893307008 -0.02330982726499515 -0.002140089224560165 -0.009328170082166281 
-0.04700166373459071 -0.0001998444737453939 0.01712937389526482 0.0005040763923339679 0.0003415889260103026 
0.1753703819050030 -0.05712245692097649 -0.05367411570503367 -0.03913310606914881 -0.09821186584611055 
0 0 0 0 0 
-0.08268161375701451 0.1502035000973394 -0.01890855080913712 -0.03718344609489838 -0.03708987711477621 
0 0 0 0 0 
0 0 0 0 0 
0 0 0 0 0 
0.001711982201751260 0.03652451818219746 -0.1645553211106099 -0.01179075644660949 -0.004687846207267794 
0 0 0 0 0 
0 0 0 0 0 
0 0 0 0 0 
-0.1326920058415101 0.1833315929823767 -0.03318392478505910 -0.02024252240046771 -0.02184565832885359 
0 0 0 0 0 
0 0 0 0 0 
0 0 0 0 0 
0.01859022503676729 -0.004869376681496613 -0.02888331241285005 -0.01592461091165118 -0.003805509092132680 
-0.02324094157946574 -0.01843993676020882 0.09877942562372725 -0.1282473666563893 -0.01166029071421775 
-0.007021160981418424 -0.02448050851496769 -0.05923747091254595 0.07190765842027058 -0.01444309771415985 
0.04054578524868364 -0.02536377439809038 -0.01462555993418188 -0.001683418924919297 -0.01544106205023932 
-0.01793562409189792 -0.02801067885055012 0.009478630562487003 -0.005564546717332216 0.002021709331418483 
-0.01538158084111306 -0.1300334520466278 0.5081523735331028 -0.06924159447806540 -0.1100080284328561 
0 0 0 0 0 
-0.01245367715746778 0.1658642776922891 -0.08034793614636816 -0.02335783046841043 -0.006058077755019048 
-0.01245367715746778 0.1658642776922891 -0.08034793614636816 -0.02335783046841043 -0.006058077755019048 
0.1359466534084733 -0.05984902766591044 -0.01282508856731288 -0.002237325948264291 -0.03100469472648566 
0 0 0 0 0 
-0.03603176952465384 -0.01329868708439082 0.05887127940562935 -0.02250722093228705 -0.007826419785491840 
0.02279841317872293 -0.01040544017531887 -0.05648609183981627 -0.007747524784358253 -0.002263286292021932 
0.02279841317872293 -0.01040544017531887 -0.05648609183981627 -0.007747524784358253 -0.002263286292021932 
-0.005647899265973319 0.1367610277355651 -0.09822622654578604 -0.01732360869656196 -0.01061428705237577 
-0.005647899265973319 0.1367610277355651 -0.09822622654578604 -0.01732360869656196 -0.01061428705237577 
0 0 0 0 0 
0 0 0 0 0 
-0.02108643097697167 0.04692995835751634 -0.1080692292707937 -0.004043231662251240 -0.002424559915245862 
0 0 0 0 0 
0 0 0 0 0 
0 0 0 0 0 
0 0 0 0 0 
0.02966128893052062 -0.007807269448509240 -0.0005018881108932961 -0.0001069276566149399 -0.01001256598320819 
0.1262477873506232 -0.05047490264810480 -0.04790128656756315 -0.03393063160643040 -0.01633112487159627 
-0.1088981800133502 -0.007910643329119409 0.1615490380735984 -0.01205706949159617 -0.02087925625571528 
-0.03651211997360034 -0.001772410358114432 0.05286371749053623 0.0001879692343238483 -0.01150735009624585 
-0.03651211997360034 -0.001772410358114432 0.05286371749053623 0.0001879692343238483 -0.01150735009624585 
0 0 0 0 0 
0 0 0 0 0 
0 0 0 0 0 
0.08090148532460488 -0.003503314792742373 -0.001104741856138766 0.0003809360182657885 -0.09470255195668303 
0.2717385586786641 -0.06910613501920210 -0.02675697044500469 -0.001652644085774757 -0.1183071054540628 
0.07189977674450768 -0.01163539350305750 -0.02132819430297353 -0.001577343742151282 -0.05430142764302692 
0.01429401917485386 -0.01375903066852139 -0.0004578077807601954 0.0003870978728418497 -0.008101284778962027 
0.01429401917485386 -0.01375903066852139 -0.0004578077807601954 0.0003870978728418497 -0.008101284778962027 
0 0 0 0 0 
0 0 0 0 0 
0.04062332506850633 -0.002507225496675787 -0.01811883404473058 -0.006430435596572227 -0.01932007579640324 
0.02686967556006959 -0.01022951583947064 -0.03632257235819283 -0.002963228076969210 -0.004967277101885366 
0.02686967556006959 -0.01022951583947064 -0.03632257235819283 -0.002963228076969210 -0.004967277101885366 
0.08119896838911085 -0.02300794174765007 -0.03887324394543831 -0.002771442553285409 -0.02136020776380352 
0.03299824954354598 -0.002764267853029941 -0.001794695102293724 -0.001349595348374110 -0.06716046791508906 
0.03299824954354598 -0.002764267853029941 -0.001794695102293724 -0.001349595348374110 -0.06716046791508906 
0.03226245018450052 -0.002093361848605045 -0.01108845569636166 -0.0001645730122905645 -0.02420130299721048 
0.04175344633204770 -0.001182079218352622 -0.01745062681354195 -0.004077963204175365 -0.02768088117054204 
0.03989683039132600 -0.002502951148277987 -0.01784466287951022 -0.006423564499104475 -0.01901902556609990 
-0.01059634684138418 -0.04510079854219410 0.05841525653645058 -0.003754948126153162 -0.01337371077319399 
-0.007503057367789352 -0.1408111707458099 0.06070828494685902 -0.03778676238396237 -0.01237320623567543 
-0.002743493718807328 -0.1115565866541286 0.02974492457579399 -0.003600365621354715 -0.0008771024243254722 
-0.008207027800379768 -0.1035097051026891 0.2231401947672616 -0.07994319760709634 -0.007187782040022627 
-0.008749059737302091 -0.02025229347358215 0.02809003840655112 -0.006949198545045221 -0.01041364771726805 
-0.01862744593305004 0.1786036277532390 -0.1006633191606994 -0.1161332950942925 -0.02349103032796603 
-0.01436836009389625 -0.05431430506765581 0.09046019040253590 -0.009357603432961893 -0.03628390897305742 
0 0 0 0 0 
0 0 0 0 0 
-0.01436836009389625 -0.05431430506765581 0.09046019040253590 -0.009357603432961893 -0.03628390897305742 
0.04654616203748133 -0.002590580355128686 -0.01021279754492454 -0.003161290737939630 -0.03233077915575910 
0.009763176758278817 -0.2572619324606966 -0.2289913497264888 0.4832151974997088 -0.07915790230742820 
0.01279413491667624 -0.005130846474852112 9.650865239406795e-05 -0.0008903755391821264 -0.01345193551183670 
-0.006576728800738538 -0.04755256245687192 -0.02212344634617378 0.08109146338878476 -0.02475869385378467 
0 0 0 0 0 
0 0 0 0 0 
-0.008323366115297805 -0.007269397691033174 0.01454845236097371 -0.007154868436603306 -0.007571360238206296 
-0.01897422643390173 -0.03647408542694709 0.1827277946142948 -0.06749545071641747 -0.04076538414304740 
0 0 0 0 0 
0 0 0 0 0 
0 0 0 0 0 
0.008819215761366805 -0.002895818400606467 0.0004679735500829180 -0.001142036079611295 -0.009629914073105022 
0.02966128893052062 -0.007807269448509240 -0.0005018881108932961 -0.0001069276566149399 -0.01001256598320819 
0 0 0 0 0 
0 0 0 0 0 
0 0 0 0 0 
-0.01366115522083775 0.07132968143295040 -0.02287454681564520 -0.01522450114948110 -0.01224988954587722 
0 0 0 0 0 
0 0 0 0 0 
0 0 0 0 0 
-0.003869372213531825 0.03505566881315890 -0.01593368492687039 -0.03117853662369416 -0.01399966934712748 
0 0 0 0 0 
0 0 0 0 0 
-0.02195383619340786 0.06388841815009429 -0.02939635685679181 -0.01112898840479722 -0.004766134767743516 
0.04092360124349520 -0.003099609286750829 -0.002191766333078892 0.0002347471320412217 -0.02356955994929240 
-0.03684799898492617 0.1679262579175707 -0.04041255987889731 -0.04622329972812968 -0.02086385612559883 
0 0 0 0 0 
0 0 0 0 0 
0 0 0 0 0 
0 0 0 0 0 
0 0 0 0 0 
-0.1703118235829272 -0.01693690076390833 0.2947428550954883 -0.0006872909718056213 -0.01899505967975344 
-0.1703118235829272 -0.01693690076390833 0.2947428550954883 -0.0006872909718056213 -0.01899505967975344 
0 0 0 0 0 
0.06105552657619992 -0.02932082988800777 -0.01763669523674482 0.0001900012637289718 -0.03371736816606973 
0.01166797485205226 -0.005714121061553460 -0.005013780056907105 5.021370913997397e-05 -0.005725588857969391 
0.01078343237070115 -0.009728915404164193 -0.003757887138152456 0.0004138496684728385 -0.006059772547246766 
0 0 0 0 0 
0 0 0 0 0 
0 0 0 0 0 
0.02154168937989654 -0.007203473020742861 -0.01411407676438680 -0.0004698581208848709 -0.003756788432494457 
-0.01131181802954502 -0.1185247218257029 0.1627705869670476 0.04967795643372604 -0.06889528485905722 
0.02015470526730263 -0.01648431683528710 -0.006823199824020571 -0.0003605865354202343 -0.004715248912934782 
-0.04860610056482311 -0.01879376460547907 -0.07252716526502598 0.1348742472113309 -0.009679860291074538 
0 0 0 0 0 
-0.1394835744089431 0.2088028466579430 -0.07122389981882300 -0.01718979238398803 -0.04348982847161392 
0.1634341701328113 -0.02751615332073383 -0.02905888391492440 -0.01024286401264473 -0.1028148573453674 
0.02222105968554403 -0.004702969808691360 -0.007907182746618786 0.0004425478936597453 -0.008625513109198991 
0.02879072349702994 -0.01849698703469090 -0.01437700796127042 4.434224122708687e-05 -0.009729648134026391 
0 0 0 0 0 
0.01814492470678177 -0.007416331278112399 -0.01076501051925751 -0.0007162262379566743 -0.007252322300198225 
0.05173459435899950 -0.01608974532945987 -0.01559556146443364 -0.002021460014445537 -0.02861138674230179 
-0.005871488180442140 -0.07295024695260591 0.1059873198568539 -0.04534914509725342 -0.03705630152627722 
0.2687499277868449 -0.02376331995170987 0.02134814542633998 -0.04904083473904559 -0.09501465419919433 
0.01583785173351608 -0.004733559553876871 -0.001454518364345043 0.0001722424540986150 -0.01437768429637662 
0 0 0 0 0 
-0.02982976910085157 -0.06764699088774492 0.1841120484407277 -0.08528519162050999 -0.01974199682651216 
0.002162079512669425 -0.002743409666790707 -0.006006762867285097 9.872366544181059e-05 0.002333915215364611 
0.04711387715160310 -0.01166270979735031 -0.05892153365878496 -0.0006944521337446230 -0.004106098380844055 
-0.008087210934269750 0.3214501720157041 -0.1682441326584782 -0.04905378149898004 -0.02711950240351319 
0 0 0 0 0 
0 0 0 0 0 
0 0 0 0 0 
0.2362947954278076 -0.01051534054559745 -0.07327636827586877 -0.04194822493404260 -0.1194264975482661 
0.09417865606499419 -0.01085400417864255 -0.01058037726914417 -0.007517123407521375 -0.1081245776126433 
0.05327684863437013 -0.01725873136351289 -0.009742992251320604 0.0002185830139444585 -0.01601582716488047 
0.08907769717131399 -0.01540197234772335 -0.008461950474322346 -0.001851497206627500 -0.03841567307303282 
0 0 0 0 0 
0 0 0 0 0 
0 0 0 0 0 
-0.08957840196814629 -0.03160901735064154 -0.04875470591425087 0.3362769210565615 -0.004802185775929837 
0.004878525707153795 -0.007467255103159761 -0.003675216494715637 -0.0004475954235702209 -0.0009205544442428826 
0.004878525707153795 -0.007467255103159761 -0.003675216494715637 -0.0004475954235702209 -0.0009205544442428826 
0.04071046745371075 -0.002168356877673498 -0.02157659254978948 -0.007462281165924655 -0.01808870174633817 
0.005189431412477095 -0.001740795738135244 -0.007239541393422306 -0.002483985173870946 -0.004380697676916902 
0.01078354862094142 -0.003026175603569753 -0.01006413768239132 -0.001274227828054907 -0.004204507838660918 
0.01078354862094142 -0.003026175603569753 -0.01006413768239132 -0.001274227828054907 -0.004204507838660918 
-0.01897422643390173 -0.03647408542694709 0.1827277946142948 -0.06749545071641747 -0.04076538414304740 
0.01640268787505254 -0.0008018827356576655 -0.01532583015398877 -0.002115926262984670 -0.005107159550332601 
-0.002036231752861556 -0.01549897882042437 0.07516956575719037 -0.06514728575395266 -0.006057371164096679 
-0.1219965257037540 -0.02123534863322307 0.4264332184816641 -0.002469498585419132 -0.09438113447811741 
0.01043136436499925 -0.01422624677534233 -0.003880214286594853 0.0001743538201895638 -0.0001779963425613001 
-0.008791751164117886 0.02541653253177383 -0.02930787228165797 -0.01040624257139976 -0.01537951293206626 
-0.04397397423581453 0.2406128073646990 -0.06549705618551434 -0.09022345823905359 -0.02398022919784867 
0 0 0 0 0 
0.3643869352115617 0.05052128513806629 -0.2068818803692180 -0.2569216844998621 -0.05796933586949860 
-0.01576560203879329 -0.6421138405614213 -0.04016151459517305 0.7757231007802299 -0.01346165912800708 
0 0 0 0 0 
-0.009206798108555387 0.06861883249450063 -0.03741866472398794 -0.03167667182204636 -0.007461230465068566 
-0.1324278900687533 -0.007009101857880730 0.4303134327682590 -0.002643852405608695 -0.09420313813555613 
-0.003599071370316169 0.01410618319546616 -0.01048097842608643 -0.01377495195532991 -0.007603217478653248 
0 0 0 0 0 
-0.1436958293970223 0.1632414817754035 0.04344173858366608 -0.01159295669424201 -0.02130498860759665 
-0.1177645572392304 0.1666792036874534 -0.02442666309816782 -0.007866593600329196 -0.006061774130830979 
-0.1177645572392304 0.1666792036874534 -0.02442666309816782 -0.007866593600329196 -0.006061774130830979 
-0.1177645572392304 0.1666792036874534 -0.02442666309816782 -0.007866593600329196 -0.006061774130830979 
-0.004716093759354159 0.1196229638119589 -0.1048548957894041 -0.07962375207566008 -0.02091649012029457 
0 0 0 0 0 
-0.3346610619046472 0.3595065733642915 -0.03388376156461909 -0.001822959242210244 -0.01039425409990800 
0 0 0 0 0 
-0.01145905261068081 -0.09501244986303078 -0.05834825292137646 0.1722651506374908 -0.01300442326234965 
-0.01145905261068081 -0.09501244986303078 -0.05834825292137646 0.1722651506374908 -0.01300442326234965 
0.05652985736724767 -0.01968600125465856 -0.01946411450970126 -0.0003833037644963055 -0.002905135597954044 
-0.001670126209381046 0.02118226040499968 -0.01405774055167826 -0.02781355426378827 -0.01064607890863684 
0 0 0 0 0 
-0.002317794198771065 0.01749204102229298 -0.01950175969057636 -0.004371177189009842 -0.001170479080950607 
0 0 0 0 0 
0.3426702301115825 -0.1091299609487057 -0.02851928819620498 -0.009866588874100583 -0.09101221682767532 
0 0 0 0 0 
-0.1662125773686267 0.1998816739633086 -0.04771695884369253 -0.02495017615428426 -0.01716913523879695 
-0.1662125773686267 0.1998816739633086 -0.04771695884369253 -0.02495017615428426 -0.01716913523879695 
0 0 0 0 0 
-0.2211652876434893 0.2435575494874009 -0.01073465145417346 -0.006251342869281893 -0.02728644528013706 
0 0 0 0 0 
-0.002173796696999260 0.01269337041341177 -0.007938057455891523 -0.02650591606595412 -0.004169203417384774 
-0.01938793423027617 0.01871562309166259 -0.03230642203406772 -0.004111058518678608 -0.01153572734804545 
0 0 0 0 0 
0 0 0 0 0 
0 0 0 0 0 
0 0 0 0 0 
-0.007767072563969146 0.05192844191418958 -0.02407189642196085 -0.02475582511313185 -0.01280673385786679 
-0.007767072563969146 0.05192844191418958 -0.02407189642196085 -0.02475582511313185 -0.01280673385786679 
-0.02305995034232699 -0.005609396168166185 0.1579182437109932 -0.001548574048500828 -0.1560352303923138 
0 0 0 0 0 
0 0 0 0 0 
-0.04880557227196487 -0.004969709107428657 0.05015009140368885 -0.0006446024968143788 -0.06057064283488955 
-0.07475147932181508 -0.0008331804431704957 0.05184615110745107 0.0002027836966731541 -0.003189010100093167 
0 0 0 0 0 
0 0 0 0 0 
0.07301910717547894 -0.008724242678644006 -0.01317278339729462 -0.003632374284047645 -0.02017532532443875 
0 0 0 0 0 
0 0 0 0 0 
0 0 0 0 0 
0 0 0 0 0 
0 0 0 0 0 
-0.02551002961734544 -0.004191588891305969 0.03089554903801229 -0.001889044267947016 -0.007444950141674386 
-0.02551002961734544 -0.004191588891305969 0.03089554903801229 -0.001889044267947016 -0.007444950141674386 
-0.08295796035536958 -0.0008698607764251682 0.09252622250690420 -0.0006864401185581579 -0.02446956462866371 
0 0 0 0 0 
-0.01659586853175678 -0.004554934682720712 0.1169143807290547 -0.004390024709373689 -0.09660475821738522 
0 0 0 0 0 
0 0 0 0 0 
0.03507604345074900 -0.002148412591126802 -0.02383394054645957 -0.007610459191396780 -0.01551570329289549 
0 0 0 0 0 
-0.008147962873412181 -0.09408874687911849 0.1877713262666159 -0.01998029880113819 -0.03348526405626154 
0.6097094675357932 -0.01889256119546960 -0.2770842968928652 -0.004162177809045688 -0.1773591964414628 
0 0 0 0 0 
0.03118985967337197 -0.01279996224431432 -0.01481914829462058 -0.001882216871548429 -0.01388095745246195 
-0.004327522698320056 -0.05115871041942038 0.04468548541640145 -0.003786374570623863 -0.01406767236961337 
-0.006357943243211015 0.01868426341857196 -0.008970416994437286 -0.02031278717076849 -0.009946137258510896 
0 0 0 0 0 
0.08757740968283546 -0.009356222083948349 -0.01474551012451647 -0.007168098820975249 -0.03598252417134251 
0.1082048046939065 -0.03596120927352636 -0.06905773059524566 -0.01014904680446696 -0.04348892184049549 
0.01894107142867426 -0.008433920824937048 -0.009763586505012634 -0.0004658004966912572 -0.01008619507416398 
0 0 0 0 0 
0.05782625193002978 -0.007885148943903677 -0.005909401874623714 -0.003424193528624669 -0.09403496794769647 
0.02115424205904909 -0.006961971239340174 -0.01673113893136961 -0.002238181447569969 -0.007115272554387487 
0.01585815367071311 -0.008892801151106192 -0.01992065936682380 -0.001344229286266901 -0.003819419214703952 
0 0 0 0 0 
0 0 0 0 0 
0 0 0 0 0 
0.04419308093830833 -0.01446979319575870 -0.005164968727515526 -0.001700551052821406 -0.04918125716834522 
0 0 0 0 0 
-0.1326920058415101 0.1833315929823767 -0.03318392478505910 -0.02024252240046771 -0.02184565832885359 
0.08731796099113905 0.4280326365071084 -0.2016517684995615 -0.07582997641385336 -0.04609863608624062 
-0.02421809331738913 -0.1485329700450659 0.3455620427245487 -0.08029748896028123 -0.03289811552057959 
0 0 0 0 0 
-0.05466684162356101 0.2519787036992631 -0.1664668620474118 -0.05128347915005391 -0.01953147793733862 
-0.01938793423027617 0.01871562309166259 -0.03230642203406772 -0.004111058518678608 -0.01153572734804545 
-0.01938793423027617 0.01871562309166259 -0.03230642203406772 -0.004111058518678608 -0.01153572734804545 
0.01582924788757806 -0.03902824191774657 0.0003949237339432215 0.0003604581575332479 -0.004678348105090412 
-0.02203351572736748 0.1026105067588887 -0.1195969382485315 -0.03126394159451214 -0.03639948767030196 
0 0 0 0 0 
0.006484086937733016 -0.02522440607929104 0.0005633785938595395 0.0001884942707654862 -0.0009076950420559562 
0.02138642719688230 -0.01087024517796057 -0.03147097470323020 -0.002092004196699204 -0.001774876410039988 
0 0 0 0 0 
0.03552120789560138 -0.04270529221879214 -0.003625963649455756 -0.0004129295672866189 -0.005757874351233508 
-0.09743932623118827 -0.08286409233583181 0.3776146280835708 -0.02733483678657869 -0.04934167326542435 
0 0 0 0 0 
0 0 0 0 0 
-0.02935894090327315 -0.1402360755149325 0.4071215016031515 -0.1598702482137146 -0.02212646477891406 
-0.03050339437255728 0.07297386335879907 -0.04764560867683071 -0.01682230936604686 -0.01187407171208981 
-0.03050339437255728 0.07297386335879907 -0.04764560867683071 -0.01682230936604686 -0.01187407171208981 
0 0 0 0 0 
0 0 0 0 0 
0 0 0 0 0 
0.01706699664218234 -0.004042437736756252 -0.002949467417322973 -0.0002328865223145038 -0.01141114328317469 
0 0 0 0 0 
0.007282673855860398 -0.002167756000562111 -0.006692809456610448 -0.0005203978773052963 -0.003003169763510136 
-0.004480803989024348 -0.03740581227662980 -0.09368463564693386 0.09242772839374785 -0.02172363251579237 
0.04608802994502694 -0.004020505648644281 -0.06196130681076775 -0.008714286661486834 -0.01073697660311001 
0 0 0 0 0 
-0.1061278335777419 -0.008893877039326323 0.1909654684445044 -0.007612963745739974 -0.09953817489810891 
-0.02153518469238992 -0.1121681719336041 0.2375003637154180 -0.1138914194722276 -0.05514018069534523 
