solver_type L2R_LR
nr_class 5
label 5 1 3 2 4
nr_feature 4587
bias 1.000000000000000
w
-0.4822300901365700 -0.4906050871103718 -1.257820840491090 -0.5985402697734523 2.021740900637976 
-0.1943381895763045 -0.1678131907701380 -0.6215667111154789 -0.2641272352081572 0.8814232062571173 
-0.05355784166665778 -0.001099412586144216 0.1787743437654994 -0.02773060100792391 -0.04561849557800015 
-0.02366943823572670 -0.009993800941276767 0.05406554567736332 -0.0007754041635893343 -0.004943749389494483 
-0.4095604126523006 -0.1637193574472466 -0.4311760468986884 0.1264829051444502 0.8025907160944206 
-0.1368145004217315 0.2726147849801980 -1.359757398108747 -0.1200184716537066 1.145568769505239 
-0.02396435278144855 -0.001537837803552873 0.05070082197948186 -0.001720288294960778 -0.03949778196136953 
-0.5016018581391349 -0.5549069757688969 -0.9354941766156590 -0.1873813705847011 1.497764452232526 
-1.159308969148312 -0.8810800172823046 -1.377940881629898 -0.7592435434226102 2.287833410609215 
0.7903502456126705 0.2039714516426047 0.3445298109946692 -0.3206085317677428 -0.9967957428894139 
-0.3217125514368765 0.2392133471662243 0.08831669595614022 -0.03400516256238977 -0.1111373110330192 
-0.002234765134995681 -0.02083071413452779 0.02581768790688307 -0.001693641454498307 -0.01966639605357310 
0.08706551862329155 -0.06137067397907067 0.1803360021974426 0.04936369756577884 -0.2468379602134319 
-0.2685932494170912 0.1090845559406313 0.4631411729286667 0.1035269220515329 -0.4616882021490145 
0 0 0 0 0 
-0.02133072677882683 -0.01400800555405132 0.08967743181665880 -0.001026974789069329 -0.04929760627141150 
-0.05018177863196104 -0.1881319007110146 0.3977584024925387 -0.04068488308101069 -0.09065523988738583 
0 0 0 0 0 
-0.05431537962105969 -0.05107810050420534 -0.06316825900394290 0.3650981901198234 -0.1002423770815862 
-0.01903817807463375 -0.01575663371277582 0.1102903694688016 -0.009049181214855210 -0.09918841663147651 
0.1750993360402659 0.2168254182442508 -0.1450250548847051 -0.06378685487343726 -0.04246239903609110 
-0.4240461308426111 0.1105015388014349 0.2093331049047462 0.008369689283375252 -0.4466924874182092 
-0.02722688997400748 -0.01224241779770299 0.03008108992844248 0.0007634657843681092 -0.005847860054497057 
0.8881097248486056 -0.03582949241205399 -0.01334194144473886 -0.4495168492422445 -0.3728925007007116 
0.3530353385632582 -0.1175487585933883 0.1157640565247527 -0.2079893623286274 -0.1138986485801568 
0.4065653490559665 -0.4541803397456680 0.4426083613079491 -0.03866721298722013 -0.7517505175576261 
-0.4484493239450756 0.7018716351985370 -0.3944028521202898 -0.2407203371440407 -0.2076570683497812 
-0.005112650512431406 -0.02075224408284038 0.02823427842855512 0.0004336487720406073 -0.001083218877036504 
-0.2747515137068516 0.02639317585000714 0.3111444640463543 0.1207347806831993 -0.2459966803378528 
-0.008886222442431065 -0.02427006545778532 0.1067709352541302 -0.01292170136081074 -0.07359192480790186 
-0.5729098201816532 0.6160831252664827 0.3270990107463918 0.4448395556556479 -1.182095797453961 
-0.0001158538042119808 0.04930007418573081 -0.06199035605492428 -3.615876900430574e-05 -0.004458070255496875 
-0.003239378655810152 -0.003212969760763050 0.01076383508671240 -1.808890393495280e-05 -0.008729246552748381 
-0.02053904939418959 -0.02421798175907026 0.03458601537422058 -0.001560256451104219 -0.01052926745338714 
-0.08251448347795978 -0.1464727500209349 0.2286050995511963 0.02493746982651621 -0.2024598882048772 
-0.1041872700372494 0.2846135061174626 -0.1258547707955071 -0.003978378444884304 -0.1808788606959190 
0.1069842399800064 -0.1061715531680582 0.004137354900366427 0.2289798413418675 -0.4012344562516263 
-0.04514409682663096 -0.03381639619497943 0.1949532744483108 -0.002655690091077343 -0.08142270276197389 
0.04246957142958657 -0.1532657776302168 0.06440915631910546 0.1140574371523850 -0.05406076036724714 
-0.2229774656505695 0.3591381297943587 -0.002376908809559805 -0.03271111947312770 -0.1553069358132493 
0.08076669764329161 0.06646226496915102 0.3839445425549217 -0.3775587714163163 -0.3262727744596525 
-0.01525374737977486 -0.001548076134370103 0.03771731427955709 -0.001745729830573318 -0.05123671454485746 
-0.03122163336982724 -0.01933173167319051 0.03352230687729620 0.0007739452464761349 -0.001324442699369987 
-0.2924143559329225 -0.2308892357056299 -0.02557457347134168 0.7180185996037677 -0.1292002273376402 
-0.2639132376172140 -0.007328391465095353 0.1699830375007314 0.3138903889637363 -0.2558572138168266 
0.7384787506726403 -0.02908808268525916 -0.2980729864623324 0.2025881103523832 -1.033677886001567 
-0.1800858420636708 -0.04788105021569632 0.3073357194366828 0.1485917110681490 -0.2606485617853304 
-0.02873544425457069 -0.1797060348747138 0.04870925282052420 0.2832176595800872 -0.2269522388932072 
0.3732921162658406 -0.2157027125417738 0.4441311687491556 -0.3203602293425814 -0.2752682698017755 
0.2189562464044417 -0.09790727199166893 0.09685489563025859 -0.06890180667872496 -0.06036995242522019 
0.9768368195791322 -0.2827673186856085 -0.09902622994272645 -0.02462919366784175 -0.5186040810498502 
-0.02909645138473314 0.4030790058339734 0.05194081919072980 -0.4797856160569588 -0.05149733183525232 
-0.6138918405869548 -0.6983024437374127 0.8715155810890032 0.3766690209495626 -0.1747033830690059 
-0.9526843333309002 0.5646862927230835 -0.5279174412970391 -0.4534131476483664 0.7405495672822850 
-0.4814253826296771 0.5006139627022981 -0.1803787742470716 0.1743629841862113 -0.4161759657639709 
-1.155989038469941 -0.8108265150912590 0.3055091836820615 0.4343801570426465 0.2121843821060624 
0.7230221204113395 -1.075313125554581 -0.3622029077527125 -0.3137713269707840 0.3637335703596528 
0.3756658869645101 -1.273704273406220 -0.1909898357964698 0.08920268007908530 0.7260304406371304 
-0.7821028937332846 0.5406438716648934 0.2244387666502753 -0.1166246020064499 -1.055730569029485 
0.4917220582682763 -0.2709413056789217 -0.07010031065704438 -0.08604919381575407 -0.07980511814593728 
0.8086064562225990 -0.3128243044937867 -0.1268095536619349 -0.1022561166063259 -0.4232420751115216 
0.7217377035735513 -0.5060797102055287 -0.07219869158736304 -0.2542204492877382 -0.3479611520303275 
-1.908286038732125 2.769826233147609 -0.9088756905420854 -0.8165704164932476 -0.5905776771509857 
0.9261413614657006 -0.4089167068654411 -0.3909614091276565 -0.4687197076056057 -0.2053714202998724 
0.2822207519878749 -0.2257723221157277 -0.1175815255563538 0.09752922033117276 -0.1115374097676077 
-0.02665071469873421 -0.04040629274029359 -0.3792569535393442 -0.02708499937457038 0.3288978659978030 
0.2505420208779230 -0.02282390778256575 -0.03379939679334432 -0.01027350058755961 -0.07464754673895548 
0.2744123412288749 -0.04799980974804913 -0.003084623798747937 -0.04900090127172314 -0.1141886541807333 
0 0 0 0 0 
-0.03795973201329184 0.08534860702298214 0.2393680330305646 -0.1445088511339768 -0.1486759203357597 
-0.04357833219022381 0.1845145581945106 -0.09984390294622102 -0.02284289623323158 -0.07287840565578418 
-0.1172265205969243 -0.4651507717243504 0.01752232780636454 -0.05288645661437322 0.4544519420196951 
-0.02822206634194788 -0.06521738568837783 0.5723765148275200 -0.03686754135759066 -0.5573775612490259 
-0.3765748547888290 0.4614057438536872 -0.1140383345609356 0.05371642723974977 -0.02364223096145247 
-0.05619122972554008 -0.3088015033216623 -0.02916084109126993 -0.06064690944442710 0.2792909525843956 
0.03475929430055683 -0.003561909964539677 -0.002014853453489010 -0.005740115711410842 -0.04911156234377594 
0.4241570479002187 -0.2224912343142449 0.002268372952730255 -0.06939137484710148 -0.2545412800940373 
0 0 0 0 0 
-0.002881576659285441 0.08395979964302092 -0.0004491827578765298 -0.1146768778145896 -0.1055244353004005 
0 0 0 0 0 
-0.0008633115204485320 0.04757049179930773 -0.01085009158344605 -0.002218354346107526 -0.03744593213061897 
-0.03897297025586284 -0.2415538523484898 -0.1464415165063267 -0.03716924543485532 0.3854596541127308 
-0.06768169855924544 -0.02854619101031052 -0.01058374268653036 0.2256138598700737 -0.06427439379959946 
-0.007658751807486463 -0.04089477604381304 0.1965915503442727 -0.01358947220344946 -0.1457310708527836 
-0.01857754304678511 -0.1138180440545733 0.4533353082280903 -0.002182967814217531 -0.1321440915315897 
-0.3302272081267597 -0.2052143615228955 -0.01231392705765458 -0.05582611821498348 0.6897351249255850 
-0.1887699658525994 -0.3927920926937390 -0.06284443333880532 -0.1356615750408907 0.3693208848348267 
-0.1882239667785135 -0.2676664617004478 -0.02177750869843224 -0.06205148925254501 0.3888909313966418 
0.2443791777181806 -0.01606837965778224 -0.2583380093749905 -0.004236282572996557 -0.02542135799262150 
0 0 0 0 0 
0 0 0 0 0 
-0.03979359252147820 -0.02147390256739588 -0.4894848559465976 -0.009143805245754658 0.5713263783178574 
-0.08694985675820285 -0.07926725438686891 -0.08946327469569328 -0.1176935867172431 0.2196760258302024 
0 0 0 0 0 
-0.06828519178315363 -0.05638125234871572 -0.1286882950216936 -0.1369345059087030 0.1617994679724874 
-0.003813933479624275 -0.03587948400000784 0.2440024968808734 -0.009924449170491914 -0.1516670169052196 
-0.005156066334813344 0.001362758699910299 0.02720644530864920 -0.0002247632508726326 -0.02755401882416196 
0 0 0 0 0 
-0.02615222506443068 -0.02265945693140491 0.07423669434812577 -0.003543537552346343 -0.01485231002105412 
0.04824407034753055 -0.01781011564471743 0.05938266214302354 -0.008646595678551618 -0.07528520139401475 
0 0 0 0 0 
-0.08330530592470008 -0.03544707600063789 0.1551498826692814 -0.01174187500427685 -0.09326234554529816 
0.1926347623953200 -0.06298005104710468 0.09144996770611255 -0.09320826358477372 -0.1959651314792357 
-0.1049623070715271 0.09732723702478423 -0.1135593075772271 -0.2300171144865147 0.2797628384427076 
-0.1413805094114947 0.04469610440449659 0.005399241894275366 0.3915978805798627 -0.1351238738568082 
-0.05581897817456972 0.6660042943428914 -0.1334518963300401 -0.4186475248765930 -0.1326815808456996 
-0.03770953524607022 -0.02527231334624051 -0.4806583683828780 -0.01234731260578947 0.5034703360513866 
-0.1534006486211948 -0.2049390613697854 0.01857074559655340 -0.1445170269457444 0.4314356148513159 
-0.002540894131622899 0.0007369123063186793 0.01677472300473201 -0.0003992386684733861 -0.03850195611608168 
-0.1473632878276238 -0.1489644606932260 -0.5127299734294946 -0.04443057064980681 0.7670075217606959 
-0.1188524824007188 0.2841956357542343 -0.001155909163932465 -0.1098953480174405 -0.05111375150041789 
0 0 0 0 0 
-0.003788648474756285 -0.0007016322324564402 0.08346730456426897 -0.001278610310252362 -0.02977390927983126 
0 0 0 0 0 
-0.02092979550958990 -0.01193967016174067 0.08778571943598380 -0.01009040680552675 -0.06107345943821035 
-0.05725247648899365 -0.09540551045612226 0.3114998440495777 -0.02998437452032023 -0.09303165299490075 
0.1585703405070615 -0.04862703568894455 0.1235516241861156 -0.09464446895573017 -0.1376118839776630 
0 0 0 0 0 
0.1055787110871833 -0.008545187836275024 -0.002817862389444603 -0.03074275581552455 -0.06479163178929664 
-0.1179927954669528 -0.004099182895787828 0.05080200846374250 0.2946563008162345 -0.3579840405795631 
0 0 0 0 0 
0.2148384258568890 -0.05003992244686709 -0.01468459809351170 -0.01283497142732434 -0.04887970114480018 
0 0 0 0 0 
0.03851170881297363 -0.009995204723931644 -0.006332569518910870 -0.01409490436197715 -0.03967440970784554 
0 0 0 0 0 
0 0 0 0 0 
-0.001559800215370990 -0.002564139544916313 0.04849524833686247 -0.002459259761108963 -0.1118733464095921 
0 0 0 0 0 
-0.006301203377919435 -0.01841970886978227 0.1534650616780133 -0.01840361892449408 -0.1115219258777734 
0 0 0 0 0 
0 0 0 0 0 
-0.6173529393428151 -0.2362286064767795 0.003949340637603944 -0.1688778177176470 0.6294474206952830 
-0.09533175311289337 -0.2225114877369022 -0.007511736272805881 -0.06857656710247545 0.1650541632642343 
-0.2079045130135227 0.03134605171215857 -0.2942877822347130 -0.04825453671931136 0.6310154989513588 
-0.03344377880990978 -0.03943343303086164 -0.1927460723897828 -0.06859860749909574 0.2751058211627886 
0 0 0 0 0 
0.01523975659434165 -0.003454840857229303 -4.672762259572355e-05 -0.005332270880784438 -0.03538064460692902 
0 0 0 0 0 
0.06463908799192443 -0.03433029498357382 -0.02216133931376117 -0.1768413159598394 0.01865224981552019 
0.1836873491774765 0.001364946489080831 -0.01156783775524162 -0.02015603030200408 -0.1415275907032718 
-0.1439102936703147 -0.02576965472580588 -1.038354575354417 -0.1772057874061414 0.7150616946093623 
-0.05239757354769332 -0.1160106552439721 -0.04053456760145242 -0.08589781356258291 0.1293302423745518 
-0.06416350857096542 -0.1693481504178588 -0.09890290552395055 -0.05256209464498437 0.2406421965303517 
-0.04264361831657313 -0.01784014454621114 0.4400439958750089 -0.001510599404623483 -0.3411852849062692 
-0.2857303353358027 -0.04588737379399256 -0.005403999558328617 0.6436873453106003 -0.3783456115246975 
-0.2191421780140576 -0.01697881094452267 -0.07377141111422280 -0.06063663677066596 0.2123308890142764 
-0.03238775250014716 0.2694744841691259 -0.2163042781637678 -0.009911796915297007 0.1463729916639609 
-0.2751381636413226 -0.06197791293041736 0.02536952743105657 -0.05744465914666291 0.3077625195206117 
-0.09102520342313945 -0.05960283481703066 -0.07138703683032835 -0.09533879356095987 0.1384605159600816 
0.1149433989867525 -0.004349380445136007 -0.002197849744275282 -0.007216990037073566 -0.1104000107980090 
-0.01062252593866401 0.08602972344431571 -0.05237545047546015 -0.06568015517253853 -0.01600684895708031 
-0.007374093254276007 -0.008804854747994854 0.1098672017964752 -0.0007169306928617127 -0.07642937041575360 
-0.06694259719901599 -0.03478816392024372 -0.4007534086617614 0.0001690496445056382 0.4143746900978866 
0.1671413421016288 -0.02885299996352748 0.0002815431189695655 -0.003716907304417295 -0.1447484611855930 
-0.01497236031196163 -0.06805703708849867 -0.1031778959476159 -0.005350737203827012 0.1509639805525274 
-0.2345769902500709 -0.003372248579864000 -0.04354613761792200 -0.1446346936146035 0.5075211386627200 
-0.08045490746453350 -0.1266873136972010 -0.01255008798017664 -0.01860393680224232 0.1881668163388820 
-0.1211600803345682 -0.007284397313228523 -0.1221781936674214 -0.1598777989666100 0.1738806302099320 
-0.3142257878650036 -0.08813777488971486 -0.006764320631662284 -0.04168951062652474 0.3890843681250081 
0.1630433366837059 -0.02559728649980552 -0.007918154646773020 -0.01029148271731129 -0.1002343581767537 
-0.4410411804590970 -0.04379917349644702 -0.02157897500208763 -0.1343725711212042 0.4763088529005465 
-0.3533673861022730 -0.03533770190419010 0.1334002369963969 -0.02217909150174018 0.1641191990071773 
-0.007049311923269092 -0.01071098831607563 0.3109279586176620 -0.003439446786528269 -0.2235999821093398 
0 0 0 0 0 
0 0 0 0 0 
0.04829151690614645 -0.0007553859074809737 -0.0004297420171371752 -0.01181333908494745 -0.09250741472551441 
0 0 0 0 0 
0 0 0 0 0 
0 0 0 0 0 
1.102768053146990 -0.2306251994962274 -0.2717542403410965 -0.4133487925016049 -0.2590428979885319 
-0.1514907256740592 -0.1074823010943847 -0.008028020229432217 0.2712613195128935 -0.02059838779320147 
0 0 0 0 0 
0.1298286353654575 -0.1150389818466357 -0.04247367578048358 -0.05635480012304181 -0.01711402662132880 
-0.02630106162102979 0.08544187510720931 -0.1142446301416522 -0.0007857378287584708 0.005843360713148071 
0.7927850410238007 -0.1341435970396582 -0.2018694167029365 -0.2257835700087118 -0.05740403318638425 
0.2032528870288078 -0.06815488846090659 -0.02766721997905289 -0.02027132570733616 -0.03715630252068134 
-0.02766903363709298 -0.006342417443564287 0.03321867859095908 -0.0005177448581265029 -0.01060794190791425 
-0.1816603653632022 -0.04745274416595970 -0.1155358647938536 0.3189957128988035 -0.01987695330777169 
-0.05703747610775948 0.1266533241573213 -0.07804913847713920 -0.04360804391708172 -0.01236304186046875 
0 0 0 0 0 
0 0 0 0 0 
0 0 0 0 0 
0 0 0 0 0 
0.01367156541189866 -0.01564266791847026 -0.002373958062724408 -0.008728359847816131 -0.003734547125179714 
-0.03599187120760344 -0.01106397457626282 0.2001839630919034 -0.01968201580065560 -0.1262712825965568 
0.08099860650557644 -0.08078759185590881 -0.001571248609450883 -0.006016201048858857 -0.01011728644324216 
-0.003736797073139734 0.08986917864932192 -0.2833701385085273 -0.008622799635561338 -0.004912382413999269 
-0.02139368741818569 0.09941480569857836 -0.09658411675060434 -0.01792052337769658 -0.05321748188006896 
-0.4168653308443689 -0.2051198558606572 -0.1255363750990546 1.084820658610108 -0.1215483971932988 
0.005655985914968508 -0.006576089820102782 -0.002484107217698680 -0.005758126683708880 -0.001450557830691544 
0 0 0 0 0 
0.1115172616858296 -0.01824474702086981 -0.04618927690100129 -0.02556597138350278 -0.02015485588469955 
0 0 0 0 0 
0.01147083401300761 -0.007696419232504866 -0.01198623375993001 -0.007744437045854731 -0.002004339893095509 
0.01718663950572411 -0.02964485090013638 -0.02514600966785989 -0.006833488109438186 -0.004839569231281342 
0 0 0 0 0 
0 0 0 0 0 
0.03777800564645403 -0.01099628070524768 -0.03190904545858975 -0.02491115883861210 -0.009637113882710761 
-0.01043801445918520 0.4444121742490871 -0.3429129568960628 -0.01110349070250558 -0.08674279880644670 
0 0 0 0 0 
0 0 0 0 0 
0.03352516134793651 -0.01442457366701479 -0.01182583380956936 -0.03312406711161302 -0.003323454891442149 
0 0 0 0 0 
-0.03717332294115245 -0.09540046381098968 0.2623390896741594 -0.006229299810772443 -0.06204999451570649 
-0.1928118479578274 -0.1022587722496988 -0.02194619506471902 0.2509157292243966 -0.01652508622668695 
0.1127006392466208 -0.05526200697832434 -0.01098792244352396 -0.08663058573423768 -0.03545993230593643 
0 0 0 0 0 
0 0 0 0 0 
0 0 0 0 0 
-0.03636590132550616 0.4056757349698699 -0.01037924606015606 -0.1793238932920329 -0.02404743160246284 
-0.1463693290279035 0.1200529697162643 -0.01258392941795580 -0.01854400713788199 -0.001251114908946477 
-0.1483914877549658 -0.1866939933360320 0.7279579883557042 -0.1367089279730302 -0.1556794434603485 
0 0 0 0 0 
0.3090733395907201 -0.02038524459285331 -0.02935009527125561 -0.07596572897252621 -0.08171260361128026 
0 0 0 0 0 
0.1426320940502848 -0.08923154326920430 -0.03656318123605751 -0.03395329621648125 -0.01730206407754767 
-0.003490454192949423 0.02872983503783002 -0.03017790217341883 -0.0009880281523719067 -0.002341848186102268 
-0.01135014249002932 -0.005096191465672473 0.02252613934470613 -0.001113315341746614 -0.007264248116077276 
-0.04406452851316867 0.07299387066958014 -0.02068973777741572 -0.03658485997164510 -0.003272950438549838 
0 0 0 0 0 
0 0 0 0 0 
0.3014027414913094 -0.05629685736028357 -0.04101700657099967 -0.2125571112871842 -0.01971092240935934 
0 0 0 0 0 
0.2631020984528169 -0.004500272121022712 -0.1014703930417266 -0.09915539179884726 -0.05554688083688266 
0 0 0 0 0 
0 0 0 0 0 
-0.2507744057542506 0.2200248459553228 -0.002536084121844006 -0.004735713148178652 -0.008800787912120455 
0 0 0 0 0 
-0.04114021522058495 -0.03029881173515136 0.08075087551787839 -0.009466991621741440 -0.02697993502714014 
-0.09611625257754240 0.1104180477590613 -0.01493864349383970 -0.05929310289237606 -0.03411770597471307 
0 0 0 0 0 
-0.005091139979092671 -0.01940050556113289 0.08141588671342334 -0.01217554015240161 -0.05823851792210114 
-0.02139975945502974 -0.007858266079887257 0.02474061731100821 0.0006580297691779488 -0.008768284892503059 
0.03091993996796406 -0.03368965889526457 -0.01688185805361285 -0.01632582066676738 -0.005090465397359897 
0 0 0 0 0 
-0.004505849382685377 -0.006444639867370866 0.01284515293230212 0.0003707957562579802 -0.004391616570189416 
0 0 0 0 0 
0 0 0 0 0 
0 0 0 0 0 
-0.07664864766227998 0.01458681478823579 0.1470631137117486 -0.02446598470917433 -0.02223005784070208 
-0.1831503173760197 0.1367504969924524 0.2325311005695025 -0.1312702526288511 -0.1547911261976048 
0.04670982229099262 -0.03353976454841641 -0.005732815835388757 -0.01141046411759197 -0.02330850950494023 
-0.1704194797542294 -0.05961671856587686 0.09578346242170498 -0.006962001952252528 -0.01457157164126998 
0.5336212669948625 -0.06715386324752773 -0.09607820623813967 -0.3222416294125158 -0.04500914110898237 
0 0 0 0 0 
0 0 0 0 0 
0 0 0 0 0 
0 0 0 0 0 
0.01404622548693037 -0.009331446705019484 -0.0009724167686781682 -0.01380975254816473 -0.008385165485115021 
0 0 0 0 0 
0 0 0 0 0 
0 0 0 0 0 
0 0 0 0 0 
0 0 0 0 0 
-0.04942368307141116 0.2200752072229826 -0.04829385635804954 -0.02216317066398860 -0.01705027272059594 
0.07021708329766630 -0.008367271580981130 -0.02736475143618678 -0.03474444821385860 -0.01828963216137770 
0 0 0 0 0 
0 0 0 0 0 
0 0 0 0 0 
0 0 0 0 0 
-0.05253987161459129 -0.05902767490842313 0.2233413786551217 -0.05906497110557098 -0.1228309014250402 
-0.09066874225857542 -0.08885477495223752 -0.05242377908660779 0.2873582372410102 -0.04113251125709872 
0 0 0 0 0 
0 0 0 0 0 
0 0 0 0 0 
0 0 0 0 0 
-0.04226703302118399 0.1209939604500536 -0.02186547560859736 -0.01683316750403914 -0.003156181588733016 
0 0 0 0 0 
0 0 0 0 0 
0 0 0 0 0 
-0.09019996714154907 0.1248633616916622 -0.005828876247123185 -0.01867150049054441 -0.008046385101932930 
-0.01037754575095369 -0.006872729267800725 0.02017972811791050 0.0006340527289742451 -0.002682246751933175 
0 0 0 0 0 
-0.03786856687147168 -0.01919326192050010 0.1142176040338497 -0.006198368901336733 -0.06551953014415632 
0.1582363621564381 -0.04612040739736040 -0.009714267153144260 -0.04185817984489206 -0.03586440600398991 
-0.04240083206333359 0.06372138394816938 -0.004391816336421007 -0.005250674050286270 -0.005194637246865597 
0 0 0 0 0 
0 0 0 0 0 
0 0 0 0 0 
-0.005943520541839808 -0.04940956156829861 0.06010175524225960 -0.03372135345498759 -0.01395705277814350 
0 0 0 0 0 
-0.4200992928848995 -0.3363260734923440 -0.02991953981286889 0.8222634043644456 -0.02286503173202201 
-0.004412791407217306 -0.02603585367835338 0.05203462856784416 -0.001328314603913968 -0.01158399478075626 
-0.003272856871016737 0.0001244571497116083 0.02885625513366635 -0.0005233298370754063 -0.03346051293178428 
0 0 0 0 0 
-0.01491675890297240 -0.0003895796588107101 0.02825378051895235 -0.0001428367379572512 -0.01051089882333399 
0 0 0 0 0 
0 0 0 0 0 
-0.001543818629780921 -0.1873154424691174 0.2841964419655500 -0.01821366029400111 -0.03670800443847981 
0 0 0 0 0 
-0.04863796000218011 -0.0008164582418972726 0.1135619605269887 -0.02247122278700958 -0.05394723544890601 
-0.1076804586173950 0.1714323539668834 -0.1274037765251741 0.2267938700436767 -0.1174171942022218 
0 0 0 0 0 
0 0 0 0 0 
-0.008302734709040782 -0.009034854194392192 0.04464326689091751 -0.006754833911468103 -0.02832475215151205 
0.4502872470016568 -0.01544636304606513 -0.3328771965256042 -0.002560808929402587 -0.08165377328411333 
-0.1018494361835932 0.2607642697609151 -0.005983103051989912 -0.03881289089080394 -0.02366529225497788 
0 0 0 0 0 
0 0 0 0 0 
0 0 0 0 0 
0 0 0 0 0 
0 0 0 0 0 
0.2849435682603299 -0.03964716468965813 -0.1575454666599199 -0.02530203978544842 -0.01378946657437516 
0 0 0 0 0 
-0.001872122163233815 -0.01173724180592943 0.01864440721768762 -0.0006806595017065158 -0.005133738898247016 
-0.006622097913597341 -0.006626999992191153 0.03789644105839331 0.0003070866505440850 -0.005396857565816456 
-0.0001624625218257401 0.08883164605024418 -0.1522201876101118 -0.0004371814057170561 -0.008147783116684088 
-0.004936004059015688 0.08774980003670471 -0.08859663726489826 -0.0006881840879737688 -0.002584209367447772 
-0.04879756912727695 0.09847677521195647 0.006385269179412201 -0.04453052547708100 -0.07509321146304339 
-0.001787592018440900 -0.4387184716994277 0.3084414256651324 -0.01657259975143479 -0.01588041940578841 
-0.0007365145294127213 0.001977020627366836 -0.01452495779419195 -0.008635863503280921 -0.006869767320839759 
0.1858678685636312 0.01787240731413823 -0.01601214598142581 -0.06887697706469657 -0.01707164701663129 
-0.05446574456109016 0.05444805646398262 -0.002148543233452077 -0.01322670807689110 -0.005499990512470890 
-0.01179286564735977 -0.02350119948740741 -0.004343144363750103 0.02990424563346683 -0.008850860021869003 
0 0 0 0 0 
0 0 0 0 0 
-0.01066131613851833 -0.1111151281227351 -0.01908050088604296 0.1461580341173779 -0.004556477216301617 
0 0 0 0 0 
0 0 0 0 0 
-0.02930679241669305 -0.01662807720871343 0.1556880020371788 -0.02876090499160265 -0.006620416304807093 
-0.5060915044891218 -0.2501188971982154 -0.3803584677791294 0.9880953393028511 -0.1743228699446823 
0.2731650236696299 -0.1439535599466764 -0.02643291430420907 -0.05438284960817463 -0.01921795769540488 
0.02757427461444472 -0.02045480622354103 -0.01618308453304632 -0.01084473822067390 -0.01043426725473636 
0 0 0 0 0 
0 0 0 0 0 
-0.009360840946291004 0.03524214116900237 0.001302269294485560 -0.002044204708798526 -0.01528990294383934 
0 0 0 0 0 
0.3279200161234045 -0.02277780177821545 -0.1791933063076541 -0.02734532800129063 -0.08659851440106164 
-0.02733175042280349 0.07245601057102997 -0.02010262620650397 -0.03509336214187158 -0.009383454733305204 
0.07262127453137755 -0.02981669924033872 -0.01354366205029098 -0.02711117714221401 -0.02237093482875845 
0 0 0 0 0 
0 0 0 0 0 
0 0 0 0 0 
0 0 0 0 0 
0 0 0 0 0 
-0.1832765927389955 0.4526596909173494 -0.02076461719113273 -0.2296425665015622 -0.009947432929207953 
0 0 0 0 0 
0.06347837681086713 -0.08111917056189528 -0.006947982596270811 -0.01532113100007554 -0.02333442250765140 
0 0 0 0 0 
-0.002741566749354408 -0.001095454604317241 0.02183197126675065 -0.0008760435883814995 -0.01527325247805886 
0 0 0 0 0 
0 0 0 0 0 
0.09145288881462578 -0.1128210336712426 -0.02397813882006442 -0.01125398093733123 -0.02008007086025253 
0 0 0 0 0 
0.03771767604794039 -0.008042340167337160 -0.01873317470020144 -0.02813363122208510 -0.01477127190503412 
-0.03082086247937478 -0.01715304910477729 0.2201819917106672 -0.005521206159563493 -0.1362612877073659 
0.3072647647678409 -0.03335476822416487 -0.1434776593547837 -0.001517144208749327 -0.04006264823295292 
-0.002893619613673526 -0.005882460591684131 0.02815795289001926 -0.003047382390507325 -0.03479048898147547 
-0.003952352227103368 0.02503629498797711 -0.01887428515999368 -0.0008056453518505235 -0.004520840840903448 
0 0 0 0 0 
0 0 0 0 0 
0 0 0 0 0 
0 0 0 0 0 
0.3884708332116991 -0.08991858369707470 -0.009328739848961367 -0.1991709135063177 -0.006059246401480074 
-0.02243458832781913 -0.3257677277777532 0.3886705494920188 -0.006809925588509415 -0.01960860910032328 
-0.003876886444194090 0.001144556409062003 0.009795680864602991 -0.001137014192338028 -0.01159602715316928 
0.3465379996652697 -0.04085901154273774 -0.07736787033608686 -0.09376228124320670 -0.1412664003808967 
0.6817960906338225 -0.1247243363835732 -0.2320448089173426 -0.1967572166047816 -0.1448890884203589 
-0.01239612933336627 -0.01033711223991449 0.1681073861272105 -0.001370627995141690 -0.1550501807786377 
-0.1249280113336854 -0.05023609896288968 -0.004062185592933578 0.1928162304776769 -0.007588858885301305 
-0.05353960619750958 -0.005261120677023223 0.03552783339687355 0.0004284908207849571 -0.003353172307891595 
0.2694510384000756 -0.07753425021406016 -0.1354402901720016 -0.06638474180117510 -0.01889447408382730 
0.08855829046385946 -0.07395093840837620 0.1554977279800182 -0.04179814954897197 -0.1642801311129890 
0 0 0 0 0 
-0.3685556419853486 -0.03447487436984897 -0.02215042492241059 0.4044230343012844 -0.01621958873995470 
0 0 0 0 0 
0 0 0 0 0 
0 0 0 0 0 
0 0 0 0 0 
0.1576739219532728 -0.02481617662725170 -0.01189070307818302 -0.04361638382500555 -0.02260650938842915 
-0.07194678352095285 0.1026949466487603 -0.03792756073589732 -0.03475873323357982 -0.02261253580825419 
0 0 0 0 0 
-0.005200427295016566 0.09370096654964220 -0.1046998807115854 -0.005833729718279099 -0.002797303599448471 
0 0 0 0 0 
0.04222407335928861 -0.02387818201058714 -0.03317053518443302 -0.01309405558995686 -0.007226148889970184 
-0.1013150400850027 -0.05147641737358736 -0.05008607210460859 0.2090053351413832 -0.01314028934379860 
0 0 0 0 0 
0 0 0 0 0 
0.01616110121195978 -0.003853798592264181 -0.01312839298556478 -0.009974090823105313 -0.003177492739599942 
0 0 0 0 0 
-0.0005331800068609561 0.06676387259813779 -0.09508797170623745 -0.0001698008876455695 -0.002155692129919667 
0 0 0 0 0 
-0.004983282451641433 0.04309546867253082 -0.04194132060345841 -0.003280109446153622 -0.0002521190858659960 
-0.01150176333630119 -0.03180532051297225 0.09918816454629566 -0.01205618192557638 -0.04632290009900140 
0 0 0 0 0 
0 0 0 0 0 
0 0 0 0 0 
0 0 0 0 0 
0.01521066587343802 -0.03032118172812415 -0.008287545636683016 -0.004964975014310333 -0.005810029023978982 
-0.005804368758864909 0.04564821711110879 -0.01195802201847553 -0.001823192904484923 -0.01812467941208465 
-4.894773159831939e-05 0.07218299972500694 -0.1493603265768251 -0.0001536166489302386 -0.008069917284051192 
-0.01869243116576682 -0.02535908015747335 0.04014904079299346 0.0004964769266548328 -0.008868625497522820 
-0.03376440417265268 0.02754279305584568 0.02986800667697853 -0.02533231276638021 -0.04719322676537466 
0.07362199142990115 0.06903883912538542 -0.008900411375452240 -0.2616579514278497 -0.03907008547619253 
0 0 0 0 0 
0 0 0 0 0 
-0.02896661982886008 -0.008003123752779008 0.05249453649946252 -0.01467490730343498 -0.1018857344408332 
-0.0008509324401266856 0.001581581229347994 -0.01178686848451380 -0.007981166168070290 -0.01078914275660024 
-0.001337239833616467 0.02641966184250848 -0.04655083791581027 -0.005831237000294166 -0.008175989588357883 
-0.01410395741109331 -0.07855903165096817 0.09576295641270699 -0.002251674891979120 -0.01633851913712630 
0 0 0 0 0 
-0.05561869047757011 -0.006098860824188068 0.01827637387028290 -0.0004791743264814754 0.0005076794483338367 
0.0004130331672304033 0.02970132139067183 -0.04657905595172220 0.0001340452186651670 -0.001125647629301815 
-0.002406453907879014 0.01211461877763211 -0.01397699597766486 -0.001462629384537118 0.0002934968301389405 
-0.0008741277435423524 0.007455962326654329 -0.01755178095361521 -0.004199034514231844 -0.002637510041868580 
-0.0007794099760788472 0.006509187014754141 -0.01597878538774571 -0.004012887082838264 -0.001422810717776410 
0 0 0 0 0 
0.3303421703436215 -0.1048952855115877 -0.003687819540822435 -0.09297068662942802 -0.02544107352933539 
-0.04650723312465845 0.1737407053134469 -0.01308751302410134 -0.1152472288874175 -0.03665406472331540 
-0.3471887917072197 0.5173982689349411 -0.1140182262321177 -0.2292097920701937 -0.05879966303039986 
0 0 0 0 0 
0 0 0 0 0 
0 0 0 0 0 
-0.01183614983752084 -0.03987480683651820 0.09017279349591245 -0.006751456628584748 -0.05006316983674126 
-0.001894969175770139 0.02416876787016422 -0.02682902021563743 -0.03400742184540578 -0.01655394995910123 
-0.005112650512431406 -0.02075224408284038 0.02823427842855512 0.0004336487720406073 -0.001083218877036504 
-0.001224508057327522 0.03311259176346582 -0.05141737056261966 -0.003380435342976242 -0.003723860480146863 
-0.02560414145055500 -0.1651646435224624 0.1936328162035926 -0.02299557845893983 -0.03171316707448657 
-0.1271457724078062 -0.1092112794189253 -0.03238789154429803 0.2757684945887899 -0.02449936296341547 
0 0 0 0 0 
0 0 0 0 0 
-0.0008407036115603409 0.01830996114310038 -0.03113385073276235 -0.001387075286313149 -0.008004449791662274 
0 0 0 0 0 
0 0 0 0 0 
0 0 0 0 0 
0 0 0 0 0 
-0.003302056702328808 -0.006366579775041495 0.04019693550084275 -0.01177126379935884 -0.02733519467732097 
0 0 0 0 0 
0 0 0 0 0 
0 0 0 0 0 
0 0 0 0 0 
0 0 0 0 0 
-4.851807965200027e-05 0.04497023450583249 -0.08656923267062168 -0.0002099506595050871 -0.004162960987892476 
-0.1168394851280402 0.1320911403655977 -0.04094792273033875 0.1274051688318625 -0.1004308239552978 
-0.009604297598870382 0.1218840367416492 -0.04778690348523122 -0.002173314523154629 -0.004731628261992249 
0 0 0 0 0 
-0.001080739509607727 0.01478091209914273 -0.03408266458007968 -0.005811561548040359 -0.002517829605445910 
0 0 0 0 0 
0 0 0 0 0 
-0.008694221326135220 -0.4179086308099626 0.5662907600789975 -0.01370704729037871 -0.005817299350916380 
0 0 0 0 0 
0 0 0 0 0 
0 0 0 0 0 
0 0 0 0 0 
0 0 0 0 0 
-0.01458067397302125 -0.007382569129984642 0.06566647730749622 -0.006931717651841319 -0.04729405774009002 
-0.003060974765888549 0.0001472293565360980 0.01207970127817846 -0.0005822394788593220 -0.01235168623244134 
-0.2216587085371362 1.138348826915762 -0.1154264771518972 -0.7697114029055735 -0.1186882979551124 
0 0 0 0 0 
-0.6846991039105128 0.1779933207800992 -0.05863969007001887 0.7341655135623106 -0.04364217583479543 
-0.04850191369073163 -0.05378483217204533 0.5507777433063311 -0.1309057196890026 -0.3128988839804329 
-0.004088706364567959 -0.004144392840951734 0.01877421161624586 -0.0008557497379689952 -0.005568760751671503 
0 0 0 0 0 
0.01827416391104794 -0.01348107334008805 -0.003440192009892941 -0.008408854796203513 -0.0009205116541885650 
-0.001842170005677396 0.03471918383782398 -0.1141012755673955 -0.01163872732682635 -0.02421425029267787 
0.04567567470048487 -0.02098060214230762 -0.01718227068099744 -0.02093770218362723 -0.001945709797585802 
-0.02631978077945431 -0.04418235721110458 0.1579850446901281 -0.02497049169747389 -0.08209402791815597 
-0.1106651216714192 0.3913770090154560 -0.2242844396296071 -0.1087918049567392 -0.04278077278770127 
-0.1476658749777638 -0.02266539821181450 -0.1030394942338921 0.2058475598511625 -0.07645861286152063 
0 0 0 0 0 
0 0 0 0 0 
0 0 0 0 0 
0 0 0 0 0 
0 0 0 0 0 
-0.01124687333625984 0.1123355833716935 -0.2389800984597381 -0.01715880908138927 0.003464887139169572 
0 0 0 0 0 
0 0 0 0 0 
-0.03857961804129591 0.09657479315600202 -0.02981796770997900 -0.1224054880762898 -0.004798700869785505 
-0.1648982710261862 0.4070730126188668 -0.01323232033288109 -0.07601246026685776 -0.02064086512678066 
-0.0009676155542892490 0.02051695294492680 -0.04943159847320957 -0.004553178598235726 0.0001634402508881691 
-0.004022641964644605 -0.03570199657658511 0.06199218780882271 -0.003453302542502467 -0.006975153074942741 
0 0 0 0 0 
0 0 0 0 0 
0.02355875197207045 -0.004581071665502326 -0.01225171827327957 -0.02845871223462763 -0.0003902502864450187 
0.2190269726668229 -0.03410873286419923 -0.01199866024546419 -0.02708209988443624 -0.01632987207860023 
-0.07380898025129905 0.07380801263793887 -0.03146382699345335 -0.04103562672497147 -0.007724646498169799 
0 0 0 0 0 
0 0 0 0 0 
-0.2149416833641518 0.1088048425683852 -0.06184776797313478 0.4241698437341962 -0.04965875376933647 
0 0 0 0 0 
0 0 0 0 0 
0 0 0 0 0 
-0.1370320720708768 -0.2259623709920230 -0.06936122926004580 0.2937681374086636 -0.01268467973457376 
-0.02326741370950251 -0.003778692635460568 0.01980637711787739 0.0002955576610601134 -0.004165237584910867 
0.1669470774406749 -0.08904006265107241 -0.01153035457161850 -0.1122376909192602 -0.04697414987497928 
-0.0001158538042119808 0.04930007418573081 -0.06199035605492428 -3.615876900430574e-05 -0.004458070255496875 
0 0 0 0 0 
0 0 0 0 0 
0 0 0 0 0 
-0.001447752574763339 -0.01230534235078774 0.02821144781631794 -0.006439926870850323 -0.02277949595045333 
-0.004819192061019678 -0.02929222699106777 0.06202857508023504 -0.009908943469512023 -0.04556029610521656 
-0.001289808225840921 -0.003380820210666014 0.01418981453077594 -0.002556289286045776 -0.02677068185871170 
-0.001172021686088236 0.002667735021573136 -0.01523243895253001 -0.009841065582805703 -0.01115595249932102 
0.3300358685594920 -0.03669309857779490 -0.03650590534672673 -0.1247835698660585 -0.03244766721364861 
-0.09309253708138908 0.06845921022418150 -0.01015437625999654 -0.01431279467994160 -0.008443424236556554 
-0.009666930607877955 0.08832566279117070 -0.1023152979657740 -0.005398255062581150 -0.01269305950647994 
0 0 0 0 0 
-0.06140832644327277 0.06942101636506455 -0.01053508162643164 -0.01301944374715049 -0.02162168511597728 
-0.03336515074052587 -0.2253829248922508 -0.05219853596348530 0.2750256179174809 -0.06028580460979912 
0.03679561566534131 -0.02114686852907204 -0.002955725065199580 -0.02561772117500770 -0.01320109549281945 
0.09908384215809810 -0.01152012661384562 -0.03127542030350300 -0.05477290176987471 -0.01850485041778938 
-0.04665335074743338 -0.001199109706117632 0.1752132439376700 -0.05541051852403322 -0.07903031947822137 
0 0 0 0 0 
-0.05894331523662372 -0.04005179145273353 -0.004812403953860480 0.08661013572507438 -0.006808505000652543 
-0.005214652033611751 -0.002160677260751064 0.02897270705627435 -0.0004490295761627884 -0.007106973232827710 
0 0 0 0 0 
0 0 0 0 0 
0 0 0 0 0 
0 0 0 0 0 
0.02826898395254961 -0.01466945547259754 -0.001731076543748368 -0.02392176476134264 -0.01064931426787370 
0 0 0 0 0 
0 0 0 0 0 
0.1378408777832427 -0.01573411923967149 -0.06781044740958257 -0.04960426433823477 -0.04564925031484590 
0 0 0 0 0 
0 0 0 0 0 
0 0 0 0 0 
0 0 0 0 0 
0 0 0 0 0 
-0.01295498684253273 0.2652345742472610 -0.1769488735933321 -0.0006082658004704975 -0.02108947647278020 
0 0 0 0 0 
0 0 0 0 0 
0 0 0 0 0 
-0.009029512234279308 -0.003569833390097506 0.009171004978586448 0.0003073302373737701 -0.002753079844656429 
-0.01266050942989796 -0.01659501807874077 0.1556505211491250 -0.004707503099941275 -0.06354639621844231 
0 0 0 0 0 
0 0 0 0 0 
0 0 0 0 0 
0 0 0 0 0 
0.008714803624420158 -0.04686513415890941 0.05371787184843838 -0.003082692778023215 -0.01778759926767468 
0 0 0 0 0 
0 0 0 0 0 
-0.04305563925736301 0.01784608756056339 0.03875963850493332 -0.01189106061914321 -0.01783482317979107 
0 0 0 0 0 
-0.01683033370058404 -0.07007668649563403 0.1469880269724811 -0.03257024727184159 -0.02580706101889168 
0 0 0 0 0 
0 0 0 0 0 
-0.01286037272699250 0.009596525283150543 -0.004366663655343096 -0.003794217986975325 -0.007427534614328709 
-0.09539677468933566 0.3989482252486228 -0.03503441427362847 -0.1118306628996146 -0.07906124047144887 
0 0 0 0 0 
0 0 0 0 0 
-0.01441978606460664 -0.003252798914735428 0.05221436950565436 -0.001714394310391831 -0.03815804204148504 
-0.03825273857565922 0.3021072234571355 -0.04796473252725837 -0.1182084628263717 -0.03847071791732894 
-0.001194061840631902 0.002021178940661425 -0.01717885831790300 -0.006149413077641056 -0.008039481110019848 
0 0 0 0 0 
0 0 0 0 0 
0 0 0 0 0 
-0.005337206646023162 0.01581264765738067 -0.04276877848786933 -0.02539962677775541 -0.03596004127281412 
0 0 0 0 0 
0 0 0 0 0 
0 0 0 0 0 
0 0 0 0 0 
0 0 0 0 0 
0 0 0 0 0 
0.1929095474374450 -0.08149415984263667 0.01645050689155063 -0.1302176984036368 -0.01279906495515626 
-0.02474013870448549 -0.003363775124589736 0.01360055310689859 0.0003541863123056981 -4.102698053605990e-06 
0 0 0 0 0 
-0.03521241665985114 -0.06511283592909223 -0.03028878473096227 0.07501237706485066 -0.01532973745669846 
-0.06364945393714090 -0.04304641211102365 -0.02488639243282095 0.3932421691778520 -0.009741680037959240 
-0.01201661750923975 -0.0007101518964503580 0.02865140630937530 0.0001640773713031194 -0.005892186755285389 
-0.002258524728316415 -0.003536897745065960 0.04288069617967416 -0.001915537843508046 -0.02259354769041793 
-0.02709381789548410 -0.08088481811080006 -0.02920144297437245 0.09103581855349066 -0.01759157016984975 
-0.1021812929330607 -0.06634316652871240 -0.07207257949507911 0.3861492990253645 -0.02479948670982915 
0.01092372331811448 -0.03246095892338057 -0.003833070969832112 -0.006535595551300819 -0.005625214537637111 
0 0 0 0 0 
0.2959661020622916 -0.1306298577690057 -0.01230675187786345 -0.01809863673659904 -0.2065975539252426 
-0.03478068396378908 -0.008660419507702890 0.2990297315385099 -0.03147797166594271 -0.1243972860376149 
0 0 0 0 0 
0.05931636924238691 -0.02653425290088698 -0.009905602508000898 -0.02692183631996484 -0.007222333186465640 
0.1478784638140968 -0.06932256254615575 -0.008473805273622440 -0.08026109584567150 -0.001523741879605728 
-0.002664132613579489 0.01799971056691441 -0.01936930977724494 -0.007879940772980591 0.0003896589090803173 
0.05016945077754666 -0.06971344997032403 -0.004561349473399926 -0.02683207360711664 -0.009285559878426383 
0 0 0 0 0 
-0.01095111770284442 -0.008393503807637622 0.08052421330067563 -0.001280503065899819 -0.008247202753574150 
0 0 0 0 0 
0.1233172786321514 -0.01266367798471082 -0.01948116009413046 -0.08381813609677029 -0.03021053129067146 
0 0 0 0 0 
0 0 0 0 0 
0 0 0 0 0 
-0.2165526545210260 -0.02829037892224088 0.3542151132006507 -0.008538257035736501 -0.05588179683190499 
0 0 0 0 0 
-0.02737931722768269 -0.06387158031711926 0.2347615216675908 -0.03126422775929134 -0.04542239575947759 
-0.1135509268987309 -0.006872657837923703 -0.006827296898310405 0.1484388046973501 -0.003793156861481307 
0 0 0 0 0 
-0.1086839122743076 0.3408104965257909 -0.03551736575276331 -0.04455783262070758 -0.03811937808211963 
-0.003431400976623373 0.01370720405360623 -0.02858772461003565 -0.004990515309102002 -0.006422284315268076 
0 0 0 0 0 
-0.001459126722097590 -0.01572009553341870 0.03655100926485790 -0.007438210065339453 -0.02449256264409559 
0 0 0 0 0 
-0.04899582091217745 0.1494550932092508 -0.005046250477780625 -0.02208758890392053 -0.04061610745533460 
-0.07013153321076038 -0.1507460557005605 -0.04663986123216916 0.2692849908406892 -0.02872833485608707 
-0.002262484306694113 0.04001325963502790 -0.08163417920805002 -0.002561961580173863 -0.01966707065779354 
-0.003426137397817442 -0.006477660498170187 0.009214405539027372 -0.001617138556811080 -0.005016828833492871 
0 0 0 0 0 
-0.06938771754776507 -0.05236839237576282 -0.001687743001985867 0.1146258358210006 -0.01147805687358220 
-0.01832597348379660 -0.02554188551775987 0.1523674387780296 -0.02472981081337927 -0.01502693512252761 
-0.04608639129650688 0.08729638319973383 -0.02998811258738987 -0.01460519057023381 -0.004518129037145547 
-0.005209129303631443 -0.01305945427126715 0.03999647154486029 -0.007317579246180967 -0.02957203368591048 
0 0 0 0 0 
-0.07696791079164028 -0.07120504778051084 -0.08423216378805650 0.2985964993145219 -0.01394814895798327 
-0.02122307363555155 -0.03245768507435799 0.1046446981259584 -0.01582912084624649 -0.1007081095841849 
0 0 0 0 0 
0 0 0 0 0 
0.4237792892915943 -0.08708857913346085 -0.009663222303062737 -0.2290011965036156 -0.01788759903679783 
0 0 0 0 0 
0 0 0 0 0 
-0.008483577594050697 -0.008751181541576614 0.04584592027388760 -0.003295731097476289 -0.01319123238012776 
0.03292028017182590 -0.006798521227213781 -0.01984867432366490 -0.03555119044096670 -0.01306663454155222 
0.2031119442528605 -0.05040596303194528 -0.1655362630897486 -0.01274491674608158 -0.01726707219782614 
-0.06636615840746427 -0.005052669723147709 0.06955778758336574 -0.001552437249819146 -0.01585590580422296 
-0.09927811391311442 0.3212480954132312 -0.04841978384528781 -0.07529988896673613 -0.01581651498768481 
0 0 0 0 0 
0.2587148822248925 -0.1444661956617469 -0.04071926683906740 -0.08770982585121676 -0.01306782843848057 
0 0 0 0 0 
0.01257356497969287 -0.01203273228974526 -0.01334316793949525 -0.01442568809949843 -0.006788770919084260 
0.07124706058197645 -0.09019876610416412 -0.01446849557111130 -0.01687611096952941 -0.03848515985703244 
-0.05920844450250867 -0.01562564837723594 0.2488750944398261 -0.01884799166347412 -0.07745753332972617 
0.09197436723865465 -0.04708411701647695 -0.04146485402497366 -0.09809896949960925 -0.03246516833909380 
0 0 0 0 0 
0 0 0 0 0 
0.3161452778891181 -0.2899563864032644 -0.03793592480467994 0.3435903770731280 -0.04015462474806123 
0.04711091237201994 -0.08356154542139047 -0.006085444969851879 -0.004853568976655023 -0.01347964020048672 
-0.1473252674422165 0.4206864893679961 -0.02981504667684137 -0.1410243253743053 -0.01854273739011513 
-0.02752476534663760 -0.02710245877305930 0.1044772969861487 -0.02642067205960386 -0.01303666247219365 
0 0 0 0 0 
0 0 0 0 0 
0 0 0 0 0 
-0.4250945425710530 0.1200092185638191 0.05815176337098679 -0.2927387728356076 -0.06025066757025759 
0.6229848492197421 -0.3173744917755766 -1.001310343665467 0.07629017692220498 -1.130366512789095 
-0.05308445030934739 -0.3299093970986208 0.1163974164872930 0.2611921169404123 -0.1971991367773885 
-0.6267068843660250 0.6777920614803703 -0.4677852316141553 -0.2001451767133954 -0.3731589986192150 
-0.8417733634969613 -0.4088841845240686 1.364170927101294 -0.6923543410467444 -0.5925832235376636 
0.2029101775554132 -0.02481954336003923 -1.027011703828825 0.4882985109138520 -0.6993512304532350 
-0.06600680551724761 -0.3795700798818378 -0.2554662807357185 -0.1523012386153338 0.5775625667841929 
-0.01857754304678511 -0.1138180440545733 0.4533353082280903 -0.002182967814217531 -0.1321440915315897 
-0.1727912091158060 -0.2347113426617027 -0.3227439146869284 -0.2721900077789218 0.6241120893675429 
0.1169856929862279 -0.1820541047286291 -0.07676800996394843 -0.2222115490088322 0.1577564592307651 
0 0 0 0 0 
-0.2191421780140576 -0.01697881094452267 -0.07377141111422280 -0.06063663677066596 0.2123308890142764 
-0.2121852837577077 -0.06688723213025918 -0.1935652304977497 -0.2552165925275698 0.3123411461700136 
-0.01062252593866401 0.08602972344431571 -0.05237545047546015 -0.06568015517253853 -0.01600684895708031 
0 0 0 0 0 
0 0 0 0 0 
0 0 0 0 0 
0.1378408777832427 -0.01573411923967149 -0.06781044740958257 -0.04960426433823477 -0.04564925031484590 
0 0 0 0 0 
-0.02665071469873421 -0.04040629274029359 -0.3792569535393442 -0.02708499937457038 0.3288978659978030 
-0.3083067004013278 0.06203692244862249 0.08996884112990960 -0.1561614606734098 0.1181934152971025 
0.2744123412288749 -0.04799980974804913 -0.003084623798747937 -0.04900090127172314 -0.1141886541807333 
0 0 0 0 0 
0.03928529700829465 0.3218670726042519 -0.5528729339858702 -0.2830447463668805 0.1981126751667622 
-0.2278596349476447 0.1609211458621935 0.2276205158739335 -0.2459371902520302 -0.2485313918044513 
-0.4856343196471260 -0.3270333021038964 0.9759279384917002 -0.5632276397273060 -0.3882547235695794 
-0.1481560881213450 0.8604266578400629 -0.01462279854991300 -0.2066170254926797 -0.2402734409766195 
-0.05619122972554008 -0.3088015033216623 -0.02916084109126993 -0.06064690944442710 0.2792909525843956 
1.163340909896304 -0.7245166350460156 -0.2537909788310716 0.02429942125301388 -0.9763615318791607 
0 0 0 0 0 
-0.06768169855924544 -0.02854619101031052 -0.01058374268653036 0.2256138598700737 -0.06427439379959946 
0.1641996814806861 0.04812066550117398 -0.3654965618082512 -0.5713145581768222 -2.558913456156969e-05 
-1.027894916859211 -0.1633816729185693 -0.09724889728880120 0.4280442261529424 0.7448631785695580 
0.2097800025410458 -0.3691678870592073 -0.2046185314530856 -0.2943285362101442 0.6277780715487964 
-0.007299732959172858 -0.07778933422436136 -0.5472376280728232 -0.02685639516069429 0.4174135651520793 
-0.2354363791344244 0.1161171824120801 -0.08860148544932714 -0.1471240528643399 0.2834804838690513 
-0.1242836116309473 0.3896090979593507 -0.09770982212135801 -0.1700089933819727 -0.1407276878843175 
-0.1640037368991573 -0.1326584175573645 -0.2033855205832330 -0.2521528908112914 0.3824099210015776 
0.4237792892915943 -0.08708857913346085 -0.009663222303062737 -0.2290011965036156 -0.01788759903679783 
-0.4112596292767030 0.2802533798363162 -0.1448893786756192 0.2383223293759177 -0.09765632009374091 
0 0 0 0 0 
-0.3120259345958960 -0.4305993869759579 0.7074251437129029 -0.1615437785837458 -0.1726787713158478 
-0.1049623070715271 0.09732723702478423 -0.1135593075772271 -0.2300171144865147 0.2797628384427076 
-0.06184783188763986 -0.2411169934253429 0.2626538642777696 0.1100832788295384 -0.04703760513694902 
0.3601789054360493 -0.1401119681056350 -0.1554868511656838 -0.006642829361425903 -0.07150040105128494 
-0.2256152059339756 -0.1588608379541506 -0.009419621069763748 -0.1123100958068239 0.4580907400163730 
-1.078261958497740 1.986513687898226 -0.5172595182370852 0.1129478881346314 -0.6554031571945862 
0.06264868989948420 -0.4214635464193062 -0.1268978001381470 0.3748120208343112 -0.09815531545167260 
0 0 0 0 0 
0 0 0 0 0 
0 0 0 0 0 
0.6493959802215491 -0.2957574823061734 -0.08199101373522740 -0.1296655776407596 -0.1024116275343664 
0 0 0 0 0 
0 0 0 0 0 
-0.006301203377919435 -0.01841970886978227 0.1534650616780133 -0.01840361892449408 -0.1115219258777734 
0 0 0 0 0 
-0.3299832227905502 -0.3082825713766318 0.4576788778788196 -0.05809925420939407 0.4469855086292351 
0.2005490291969065 -0.01268692731983686 3.802527524435564e-05 -0.04951010035942269 -0.1674493271216136 
-0.2452722131544259 0.08515077969991225 -0.1179047074837707 -0.2200494980143467 0.2441254660796556 
-0.06416350857096542 -0.1693481504178588 -0.09890290552395055 -0.05256209464498437 0.2406421965303517 
0 0 0 0 0 
-0.07919621918071480 -0.01657445075362003 -0.001713774909369512 0.2007453734350621 -0.1017936154002154 
0.1592566664742866 -0.1024302259325901 0.02074382167607351 -0.01780646875435817 -0.1169896011797299 
-0.8514440715662018 0.6887601038414123 0.2884796376124024 -0.3583441561122894 -0.3100820132756890 
-0.4361919780491727 -0.1373439595902935 -0.1782744192655200 -0.3231164293834558 0.8695685852115340 
-0.1357810781472446 -0.05695501645928806 -0.04145169407082545 -0.08627154346447914 0.2412530923513564 
-0.1289690488657304 -0.01397881734003961 -0.001649824163983240 0.2690548430418174 -0.1863556015472242 
-0.08461437921262663 -0.02604509401640855 0.3088875581326862 0.1704476820471926 -0.3137963766865977 
0 0 0 0 0 
0.6529763377960707 -0.2649631469187646 -0.3645284948234475 -0.4143368579974311 -0.1861534626044675 
0 0 0 0 0 
-0.02766903363709298 -0.006342417443564287 0.03321867859095908 -0.0005177448581265029 -0.01060794190791425 
-0.1884704389909790 -0.2043059104810799 0.1234936060499514 0.3026611537258762 -0.04591669762992028 
0 0 0 0 0 
0 0 0 0 0 
0.3014027414913094 -0.05629685736028357 -0.04101700657099967 -0.2125571112871842 -0.01971092240935934 
0.08099860650557644 -0.08078759185590881 -0.001571248609450883 -0.006016201048858857 -0.01011728644324216 
0 0 0 0 0 
0 0 0 0 0 
0 0 0 0 0 
0 0 0 0 0 
0 0 0 0 0 
0.2984851749491818 -0.2376264954749471 0.03297915650195794 -0.09974946181452082 -0.1569894068605957 
-0.08535747563389696 -0.2293850078427013 0.4083252450247788 0.06459532810229678 -0.03850623647468647 
0 0 0 0 0 
-0.009500265683620220 -0.4188484616058751 -0.08941578739138493 0.3509918147141414 -0.04556404367558651 
0 0 0 0 0 
-0.1391881709682395 0.1883893441597809 -0.005970116966241310 -0.01845414685922444 -0.03786804621847577 
0 0 0 0 0 
0 0 0 0 0 
0 0 0 0 0 
0 0 0 0 0 
0 0 0 0 0 
0 0 0 0 0 
0.04670982229099262 -0.03353976454841641 -0.005732815835388757 -0.01141046411759197 -0.02330850950494023 
-0.04199749948408919 0.2461774110701904 -0.08730745397641436 -0.02908699650177074 -0.05911120147166362 
-0.09099083362192062 -0.03060453400197995 -0.07315945895398558 0.1691909533941076 -0.02424369685000324 
0 0 0 0 0 
0.3459041757479129 -0.03944646271979613 -0.05715812404514932 -0.1725650729854308 -0.01955515861040162 
0 0 0 0 0 
-0.1135081839458024 -0.01969799155365989 0.1630610460606093 -0.03654152086912831 -0.05205916560821850 
0 0 0 0 0 
0 0 0 0 0 
-0.01936394500531511 -0.02896270933946200 0.1380521365216773 -0.02053593945667837 -0.01461008515832325 
-0.01645148932249560 -0.04268525033813413 0.1563479515186934 -0.05054875155784178 -0.08744946811540910 
-0.09066874225857542 -0.08885477495223752 -0.05242377908660779 0.2873582372410102 -0.04113251125709872 
0 0 0 0 0 
0.1582363621564381 -0.04612040739736040 -0.009714267153144260 -0.04185817984489206 -0.03586440600398991 
0 0 0 0 0 
0 0 0 0 0 
0 0 0 0 0 
0 0 0 0 0 
0 0 0 0 0 
0 0 0 0 0 
-0.04863796000218011 -0.0008164582418972726 0.1135619605269887 -0.02247122278700958 -0.05394723544890601 
0 0 0 0 0 
-0.03876359343023142 -0.04001191268980816 -0.1013369711963637 0.3651100033672627 -0.07984733810868776 
-0.002262484306694113 0.04001325963502790 -0.08163417920805002 -0.002561961580173863 -0.01966707065779354 
0 0 0 0 0 
0 0 0 0 0 
0.2849435682603299 -0.03964716468965813 -0.1575454666599199 -0.02530203978544842 -0.01378946657437516 
-0.09679362328458177 -0.4288398561651646 -0.06490841089772019 0.5468678713201313 -0.03751284807244712 
0 0 0 0 0 
-0.02677125270578676 0.1123803988555802 -0.06109492969775393 -0.03700760733973010 -0.02668712383545755 
0 0 0 0 0 
0 0 0 0 0 
0 0 0 0 0 
-0.01443645862984104 -0.1164945311315161 0.2442174770831525 -0.1186046924780318 -0.02948265404019735 
-0.04008394577777550 0.1803177028414866 -0.002812342034074086 -0.1101095752620985 -0.01272500065580534 
-0.002607815995225797 -0.01987877389163561 0.04857834587637225 -0.02169698516010786 -0.04236868060771235 
0.2731650236696299 -0.1439535599466764 -0.02643291430420907 -0.05438284960817463 -0.01921795769540488 
0.2161577703683918 -0.02941901956573523 -0.03888856923415751 -0.008430384508313437 -0.01320646178720975 
0.3072647647678409 -0.03335476822416487 -0.1434776593547837 -0.001517144208749327 -0.04006264823295292 
0 0 0 0 0 
0 0 0 0 0 
0 0 0 0 0 
0 0 0 0 0 
0 0 0 0 0 
-0.1832765927389955 0.4526596909173494 -0.02076461719113273 -0.2296425665015622 -0.009947432929207953 
0 0 0 0 0 
0 0 0 0 0 
0 0 0 0 0 
0 0 0 0 0 
0 0 0 0 0 
0 0 0 0 0 
0 0 0 0 0 
0.3884708332116991 -0.08991858369707470 -0.009328739848961367 -0.1991709135063177 -0.006059246401480074 
0 0 0 0 0 
-0.01239612933336627 -0.01033711223991449 0.1681073861272105 -0.001370627995141690 -0.1550501807786377 
0 0 0 0 0 
-0.1833046922021264 -0.1040729962909075 -0.04469874925767559 0.3088539161600234 -0.01503356203675097 
-0.3519472677426269 -0.01855641523864883 -0.01160690949980812 0.3718826100683823 -0.01591856931571567 
0 0 0 0 0 
0 0 0 0 0 
0 0 0 0 0 
0 0 0 0 0 
0 0 0 0 0 
0 0 0 0 0 
0 0 0 0 0 
0 0 0 0 0 
0 0 0 0 0 
0 0 0 0 0 
0 0 0 0 0 
0 0 0 0 0 
0 0 0 0 0 
0.7325217631323493 -0.1962685818829098 -0.1044367264878719 -0.3295513751537169 -0.1126904516691179 
0 0 0 0 0 
0 0 0 0 0 
-0.05561869047757011 -0.006098860824188068 0.01827637387028290 -0.0004791743264814754 0.0005076794483338367 
0 0 0 0 0 
0 0 0 0 0 
-0.04650723312465845 0.1737407053134469 -0.01308751302410134 -0.1152472288874175 -0.03665406472331540 
0 0 0 0 0 
0 0 0 0 0 
0 0 0 0 0 
0 0 0 0 0 
-0.01502582252307790 -0.009247471536848460 0.03944492252434825 -0.001181766768011194 -0.0003923455512592254 
0 0 0 0 0 
0 0 0 0 0 
0 0 0 0 0 
-0.1271457724078062 -0.1092112794189253 -0.03238789154429803 0.2757684945887899 -0.02449936296341547 
0 0 0 0 0 
0 0 0 0 0 
0 0 0 0 0 
0 0 0 0 0 
0 0 0 0 0 
0 0 0 0 0 
0 0 0 0 0 
0 0 0 0 0 
0 0 0 0 0 
0 0 0 0 0 
-0.02542486662850044 0.2859634907668576 -0.05374263397034815 -0.1271136558858345 -0.01229636041820425 
-0.1009570168860214 -0.09516123937764508 -0.01904094470020197 0.1541217405201222 -0.01577089834896451 
-0.1977901988495498 0.5370593143063161 -0.1000315990369720 -0.1862427260422891 -0.06151928266553799 
-0.1604922429028191 0.1655994000503808 -0.06912647228634000 0.1157094546318958 -0.05747256425856277 
0 0 0 0 0 
0 0 0 0 0 
-0.02733175042280349 0.07245601057102997 -0.02010262620650397 -0.03509336214187158 -0.009383454733305204 
0 0 0 0 0 
0 0 0 0 0 
0 0 0 0 0 
-0.07221463162322346 -0.08841827068301103 -0.02445782942715560 0.1272344666914686 -0.01843319848168935 
0 0 0 0 0 
0.2190269726668229 -0.03410873286419923 -0.01199866024546419 -0.02708209988443624 -0.01632987207860023 
0 0 0 0 0 
0 0 0 0 0 
-0.02946774540737334 -0.1287305311313531 -0.05577102374138791 0.1061271449847184 -0.008882632274072530 
-0.005943520541839808 -0.04940956156829861 0.06010175524225960 -0.03372135345498759 -0.01395705277814350 
0 0 0 0 0 
-0.05233681859612750 -0.03925730004568864 -0.03955276703284862 0.06512477360702384 -0.01520222201552065 
-0.1791163789972648 -0.1730673031090403 -0.07761058755350321 0.5703094087193341 -0.03524548179102988 
0 0 0 0 0 
0 0 0 0 0 
0 0 0 0 0 
0 0 0 0 0 
0 0 0 0 0 
-0.1191563884693696 -0.05964483611596154 -0.003121783408560958 0.1384375725867578 -0.009363187366504237 
0 0 0 0 0 
0 0 0 0 0 
0 0 0 0 0 
-0.01295498684253273 0.2652345742472610 -0.1769488735933321 -0.0006082658004704975 -0.02108947647278020 
0 0 0 0 0 
0 0 0 0 0 
0 0 0 0 0 
-0.01383363516934713 -0.09016658543814479 -0.05074159618669867 0.1338527817690619 -0.005964382812896323 
0 0 0 0 0 
0 0 0 0 0 
0 0 0 0 0 
-0.07372800679320750 0.08644365761162748 -0.009217204426489871 -0.04446077758120885 -0.01885680846688068 
-0.01011093657618896 -0.1097894568881745 0.1758514928193731 -0.06929939912007253 -0.02574217068791631 
-0.005337206646023162 0.01581264765738067 -0.04276877848786933 -0.02539962677775541 -0.03596004127281412 
0 0 0 0 0 
0 0 0 0 0 
0 0 0 0 0 
-0.03521241665985114 -0.06511283592909223 -0.03028878473096227 0.07501237706485066 -0.01532973745669846 
-0.02709381789548410 -0.08088481811080006 -0.02920144297437245 0.09103581855349066 -0.01759157016984975 
0.2277938791279558 -0.04380604348282437 -0.03312838965526410 -0.07229400937215885 -0.06023045536219067 
0 0 0 0 0 
-0.1958596554205324 -0.06638637718157550 -0.01272756993267951 0.07119541091843290 -0.01889891149186595 
0.1124737664997954 -0.05285161705528678 -0.001511174768209889 -0.1057980622227497 -0.01246324704806137 
0.1469294418023860 -0.06896785529075268 -0.002959772694696798 -0.08014786949289067 -0.04156370052923824 
0 0 0 0 0 
0.3868204762721983 -0.01427665704496842 -0.06269004715482683 -0.2997620550943302 -0.01534048030507352 
-0.1075643266635034 -0.09723183986066991 -0.01359020551865788 0.1876409924239452 -0.003802047460501235 
0 0 0 0 0 
-0.09165817948814870 -0.02610488401632483 0.3810238709665849 -0.01036181408391661 -0.1321234382345854 
-0.1964300457493766 -0.02232148277058945 -0.04115173082716270 0.3859288740818787 -0.04313136235482620 
0.1233172786321514 -0.01266367798471082 -0.01948116009413046 -0.08381813609677029 -0.03021053129067146 
0.3279200161234045 -0.02277780177821545 -0.1791933063076541 -0.02734532800129063 -0.08659851440106164 
0 0 0 0 0 
0 0 0 0 0 
0 0 0 0 0 
0.2395576748006613 0.2946737114970956 -0.005323879376489349 -0.3052994009777186 -0.04529967503188735 
-0.1086839122743076 0.3408104965257909 -0.03551736575276331 -0.04455783262070758 -0.03811937808211963 
0 0 0 0 0 
-0.0006616742356025611 -0.02370709420262410 0.002965874854018164 -0.0008029230887046051 -0.004743460510734060 
0 0 0 0 0 
0 0 0 0 0 
0 0 0 0 0 
-0.07013153321076038 -0.1507460557005605 -0.04663986123216916 0.2692849908406892 -0.02872833485608707 
0 0 0 0 0 
0 0 0 0 0 
-0.01832597348379660 -0.02554188551775987 0.1523674387780296 -0.02472981081337927 -0.01502693512252761 
-0.07696791079164028 -0.07120504778051084 -0.08423216378805650 0.2985964993145219 -0.01394814895798327 
-0.007105584551938533 -0.06551094076500788 0.1221914931110870 -0.06408147880684784 -0.03309149166433550 
0.2359562124814392 -0.06828633004835614 -0.005793913469914867 -0.05953081421724515 -0.01484932311066858 
0 0 0 0 0 
0 0 0 0 0 
-0.09927811391311442 0.3212480954132312 -0.04841978384528781 -0.07529988896673613 -0.01581651498768481 
0.09197436723865465 -0.04708411701647695 -0.04146485402497366 -0.09809896949960925 -0.03246516833909380 
0 0 0 0 0 
0 0 0 0 0 
0.1541064314304302 -0.1078131208846424 -0.02488281970828033 -0.02603822965275765 -0.006256912165829341 
0 0 0 0 0 
-0.8329445351246398 -0.8336340363867716 0.5633687115555124 -0.1951114420079298 0.3242058681860345 
-0.3083067004013278 0.06203692244862249 0.08996884112990960 -0.1561614606734098 0.1181934152971025 
-0.7082978161114493 0.4648053021459609 -0.2952767915914509 -0.2450840185501117 -0.5862570903423677 
0.2426215992551503 -0.1928334660454467 -0.5174093540644729 -1.038226186605783 -0.2768977170673004 
-0.03002080792664848 0.3364807495825237 -0.3183832914111712 0.4779921455392809 -0.9321158741874858 
-0.3238234232390049 0.08103829245453391 0.2274485693555114 -0.1252708802595569 0.07984157722925375 
0.1641996814806861 0.04812066550117398 -0.3654965618082512 -0.5713145581768222 -2.558913456156969e-05 
0.05429435940275944 -0.005102988907805909 -0.09281548590115356 -0.2478235832408728 0.1627732372629776 
0.1447877468989252 -0.5184287275348624 -0.1870250826062433 0.5148589243457613 -0.3104604252686668 
1.039161209087606 -0.3405856090176271 -0.4286310399871242 -0.5179958427201068 -0.2528789651872889 
-0.5745288625585403 -0.6969490390797332 0.1724762222150837 0.5329468273942726 0.5507356764289391 
-0.5221175222845064 0.3952124453098823 -0.2716783124575163 0.2323701081894694 -0.1875886842033258 
0 0 0 0 0 
0.09197436723865465 -0.04708411701647695 -0.04146485402497366 -0.09809896949960925 -0.03246516833909380 
0 0 0 0 0 
-0.002262484306694113 0.04001325963502790 -0.08163417920805002 -0.002561961580173863 -0.01966707065779354 
-0.03904684403210049 -0.05074340498020808 -0.2111495674121337 -0.02845562736971207 0.1738476852191653 
-0.02665071469873421 -0.04040629274029359 -0.3792569535393442 -0.02708499937457038 0.3288978659978030 
0.5950510912195207 -0.5022148332924066 0.3318341984923527 0.1782671662567182 -0.5264154210527678 
0.2505420208779230 -0.02282390778256575 -0.03379939679334432 -0.01027350058755961 -0.07464754673895548 
0.2505420208779230 -0.02282390778256575 -0.03379939679334432 -0.01027350058755961 -0.07464754673895548 
0.2505420208779230 -0.02282390778256575 -0.03379939679334432 -0.01027350058755961 -0.07464754673895548 
0.2505420208779230 -0.02282390778256575 -0.03379939679334432 -0.01027350058755961 -0.07464754673895548 
-0.2064788830618007 -0.01893647068614059 0.3274849535505298 -0.1189261753953143 0.1174094483659621 
-0.1174851135320026 0.1754286457403532 -0.1309996679636889 0.1778502854125929 -0.1185150046510262 
0.2505420208779230 -0.02282390778256575 -0.03379939679334432 -0.01027350058755961 -0.07464754673895548 
0.2283710212491448 -0.1482931341976962 -0.05913653634286498 -0.05342833951044129 -0.004777978243791274 
0.2744123412288749 -0.04799980974804913 -0.003084623798747937 -0.04900090127172314 -0.1141886541807333 
-0.001344076936558231 0.1227335853055600 -0.03433977197461911 0.0002356278133974181 -0.01012752195015471 
0.5843279491456274 0.06559544774095369 0.3615073679171576 -0.4429567844593715 -0.8275554276501527 
-0.2423483143303559 0.3340083428755531 0.1710567390335611 -0.4319539841253839 -0.4833544830805822 
-0.03085651556920070 -0.008421488353113519 0.4834015269340196 -0.01044021776986408 -0.2259089652187175 
0.06877809643647365 0.05630821394608220 -0.4647017569933779 -0.02716012627520863 0.4381613913744447 
5.135571483665504e-05 0.1031533037135368 -0.02258357341991092 -5.756078373606702e-05 -0.05713346262770432 
-0.05975960918972872 -0.01640843661899878 -0.4303911599877202 -0.1781188900556303 0.2815357354726106 
-0.03665577608317202 0.2743570562407874 -0.001394786485565865 -0.1196861462935084 -0.05846933902922186 
-0.03665577608317202 0.2743570562407874 -0.001394786485565865 -0.1196861462935084 -0.05846933902922186 
-0.005616432150794369 0.007372242752975682 -0.8971433001460762 -0.01864266704883054 0.6492191843436534 
0.09231212774123333 0.03311536977069558 0.1395001877893591 -0.3385721489895393 -0.3129139763915985 
-0.4126891288706009 0.2993744065594921 -0.4032286304655243 0.3766118256565367 -0.1894281204575046 
-0.08616876260007460 0.1555340663857185 0.1890461746405264 -0.009757824320514589 -0.1084629834387102 
-0.03231847030576775 -0.02394319678810090 0.1864497723101482 -0.03038287388600319 -0.01747968994972842 
0.2166834392832149 -0.2774715672912030 0.3249561341708981 -0.07937925877258496 -0.1315831972398071 
-0.07513441071266685 0.1803938666294055 -0.002848766004191071 0.09239301409286156 -0.1577566703449348 
-0.07513441071266685 0.1803938666294055 -0.002848766004191071 0.09239301409286156 -0.1577566703449348 
0 0 0 0 0 
0.08088875991225940 0.0006470469861187377 -0.003319701461097828 -0.2051126776853643 0.0008546941726883259 
-0.3666218198685660 0.1937272444305759 0.05972918878932440 -0.1128563336884851 0.1089168833707298 
-0.0008633115204485320 0.04757049179930773 -0.01085009158344605 -0.002218354346107526 -0.03744593213061897 
-0.4414279782646531 -0.4622903750580005 0.9072266362246194 -0.1550941128035432 -0.3285533120602353 
-0.06768169855924544 -0.02854619101031052 -0.01058374268653036 0.2256138598700737 -0.06427439379959946 
0.04447047966600354 0.08381097371439085 -0.09807451409630007 -0.002130308433947464 0.02555141636164588 
-0.001871024199209318 -0.01665062204936535 0.1453970508868397 -0.005770848598260727 -0.1135425696531330 
0.05286429514648639 -0.3384504390881899 0.6480841670745433 -0.1549311440853732 -0.07560945864209122 
-0.1330768190474826 -0.1666288464303523 -0.01615273399890906 -0.08867294076039155 0.2366063661880882 
-0.03751960522921671 -0.1571268670541348 -0.01813275759178595 -0.1225222443728262 0.1477702681038206 
0 0 0 0 0 
0 0 0 0 0 
0.02224646081656521 -0.006067472130823072 -0.006330283646612487 -0.01942329605956641 -0.007884157458624289 
-0.09600913488385499 0.4300594542682197 -0.5598966508804754 -0.05955161104532585 0.3180662273831602 
-0.1341678630443268 -0.07049002170891856 0.02742197500452451 -0.1304044930049072 0.2580258907330108 
-0.001894969175770139 0.02416876787016422 -0.02682902021563743 -0.03400742184540578 -0.01655394995910123 
-0.0005022313875981464 0.1000322118761254 -0.007807363416441039 0.0001410692945808674 -0.04370391111106934 
0.1598302829764633 -0.06035221339856176 -0.4991482185044355 -0.04567194601452015 0.4616567470560193 
0 0 0 0 0 
0 0 0 0 0 
0 0 0 0 0 
-0.02136445286270958 -0.0006380479126759965 -0.6893901327217684 -0.001825131975501272 0.6782343209849213 
-0.1585979788597539 0.1869421842260380 -0.09322677321673335 -0.2886028422290238 0.1789855938588547 
0 0 0 0 0 
-0.7379448528739703 -0.5390470970069986 0.5923986738046760 0.3939554616135423 0.1954697569566082 
-0.005156066334813344 0.001362758699910299 0.02720644530864920 -0.0002247632508726326 -0.02755401882416196 
0.09373615019739996 -0.1842724142827136 0.06735425415923575 -0.02304264626264961 -0.1008703740354988 
-0.02203840045454907 -0.004193873625035670 0.09990550937021593 -0.001487722930652182 -0.08604084859937634 
-0.05355784166665778 -0.001099412586144216 0.1787743437654994 -0.02773060100792391 -0.04561849557800015 
-0.02366943823572670 -0.009993800941276767 0.05406554567736332 -0.0007754041635893343 -0.004943749389494483 
-0.004674764150176872 -0.0005422703340399633 0.07651804710854708 -0.0009604823363770560 -0.06864146757336650 
0 0 0 0 0 
-0.001762004325508498 -0.003104732507153012 0.01575070569818944 -0.002373186433889441 -0.02619340951769424 
-0.06331728805021536 0.07490564162730746 0.007024800424333387 -0.007812046570301119 -0.1168467207860864 
-0.001762004325508498 -0.003104732507153012 0.01575070569818944 -0.002373186433889441 -0.02619340951769424 
0.2862381939921802 -0.2689223708919450 0.4922580978364057 -0.2160311543155055 -0.2219406460671308 
-0.1049623070715271 0.09732723702478423 -0.1135593075772271 -0.2300171144865147 0.2797628384427076 
-0.1049623070715271 0.09732723702478423 -0.1135593075772271 -0.2300171144865147 0.2797628384427076 
-0.05087230525047615 -0.07098529192622784 0.01475164910376004 0.4217510751050953 -0.1301806814587514 
-0.07957159518055298 0.2585561613538207 -0.1179057165158992 0.2931921294606582 -0.1981849156777553 
-0.1662187973703038 -0.1517971829114084 0.08152509903488242 0.2308561255559573 0.03343734572196114 
-0.02549571955274154 -0.02220263363986674 -0.5044412162580929 -0.01251363938101097 0.5067830365934061 
-0.02549571955274154 -0.02220263363986674 -0.5044412162580929 -0.01251363938101097 0.5067830365934061 
-0.2386601050525849 -0.1651827733460899 -0.01796369716823268 -0.04438386453590755 0.4107149084633737 
-0.2256152059339756 -0.1588608379541506 -0.009419621069763748 -0.1123100958068239 0.4580907400163730 
-0.002540894131622899 0.0007369123063186793 0.01677472300473201 -0.0003992386684733861 -0.03850195611608168 
-0.004083632062379660 -0.005982504375216163 0.02824639585390749 -0.001224762298897337 -0.01496153354717142 
-0.001231380749728830 -0.001619708933726760 0.07638260342580296 -0.003096997390290173 -0.08616220999360934 
-0.01101029748857788 -0.006629326018924731 -1.516604704825569 -0.008517396413149048 1.296829451977519 
-0.1188524824007188 0.2841956357542343 -0.001155909163932465 -0.1098953480174405 -0.05111375150041789 
0 0 0 0 0 
-0.003163072057678486 -0.004249892522655152 0.07453591131648597 -0.0003271169128646422 -0.07037302169203041 
-0.003788648474756285 -0.0007016322324564402 0.08346730456426897 -0.001278610310252362 -0.02977390927983126 
-0.003788648474756285 -0.0007016322324564402 0.08346730456426897 -0.001278610310252362 -0.02977390927983126 
-0.06670561693714101 -0.6023477049758165 0.7490747256384658 -0.01650420689625722 -0.1205926347426591 
-0.1917089727467771 -0.1307537843898098 0.2245342826374374 0.2743017722526207 -0.1848099223195736 
0.01554881858321151 -0.1116241970744669 0.07532360055459757 -0.01336008512799238 -0.03351098492922358 
-0.04913365258559455 -0.1286202520894443 0.3362472505158501 -0.09515624704925092 -0.1971656928840089 
-0.01295873146775053 -0.001338871833464890 0.01439834931342710 0.0001472186985460187 -0.004909337671293518 
0.2084091976457829 -0.02043055661892074 0.0004213587170792863 -0.08664828889472727 -0.06368519993143505 
0.2264514486661148 -0.1248680054788918 0.09662785283253585 -0.02655230715479563 -0.1916659009850450 
-0.001014854669001639 -0.003506207965769879 0.07100500972701622 -0.003934072298159438 -0.1030743669036653 
0 0 0 0 0 
0 0 0 0 0 
0 0 0 0 0 
-0.02960501303710039 -0.1282836283796546 -0.1717545924324881 -0.03538765202637363 0.2319463630847077 
0 0 0 0 0 
-0.3208965249733459 -0.1169169899134520 0.0002771069544567160 -0.07490189058190108 0.2863377331779808 
-0.02960501303710039 -0.1282836283796546 -0.1717545924324881 -0.03538765202637363 0.2319463630847077 
-0.1766359251317885 -0.01530776641750687 -0.2854709598246329 -0.03955820499447477 0.6356571017955847 
-0.1031303727601259 0.01661438616743984 -0.6328750877449894 -0.01073804642422991 0.5351843952487196 
-0.1012882027544485 -0.01810479767038415 -0.5187738121775939 0.0009006809025964386 0.5593986455413975 
-0.2154578078638928 -0.2000992084192363 0.002100985073696354 -0.09999212818460480 0.3329924010740601 
0.01523975659434165 -0.003454840857229303 -4.672762259572355e-05 -0.005332270880784438 -0.03538064460692902 
0.2276738763885811 -0.1357654227884967 0.05489449200532902 -0.1647197373217251 -0.07146777956201052 
0.1781607834125716 0.01128746282759693 -0.005683413792105470 -0.06434242567058990 -0.1827102246294460 
0.2034553186080750 -0.02471086444360614 -0.006320733941534680 -0.01088983755298565 -0.1331546249051904 
-0.08256575306618487 -0.06550799639248123 -0.4381121540775607 -0.01501158038885063 0.5113913684437236 
-0.05303658865723072 -0.04085887497466584 -0.07753033546527202 -0.01751161827786447 0.1227999181069328 
-0.05303658865723072 -0.04085887497466584 -0.07753033546527202 -0.01751161827786447 0.1227999181069328 
-0.05303658865723072 -0.04085887497466584 -0.07753033546527202 -0.01751161827786447 0.1227999181069328 
-0.05303658865723072 -0.04085887497466584 -0.07753033546527202 -0.01751161827786447 0.1227999181069328 
-0.06416350857096542 -0.1693481504178588 -0.09890290552395055 -0.05256209464498437 0.2406421965303517 
-0.06416350857096542 -0.1693481504178588 -0.09890290552395055 -0.05256209464498437 0.2406421965303517 
-0.1012414300821521 -0.1961495078717939 0.2053669493664828 -0.09486386390664746 -0.02495215885459369 
-0.1405652841773314 0.2241428482468009 0.1700332098314148 -0.1591586289125039 0.1809422879453939 
-0.2729033985063269 -0.04114719879588957 -0.0004481604758265027 -0.05575101769216460 0.3274289155741849 
-0.2729033985063269 -0.04114719879588957 -0.0004481604758265027 -0.05575101769216460 0.3274289155741849 
0.01063760362919179 0.0006481378631129509 -0.001765207294819319 -0.004612232240223580 -0.02392632130530484 
-0.007374093254276007 -0.008804854747994854 0.1098672017964752 -0.0007169306928617127 -0.07642937041575360 
-0.01368267796411189 -0.01400796936357239 -0.2885907422591035 0.001385251411349215 0.3200047860817144 
0.1671413421016288 -0.02885299996352748 0.0002815431189695655 -0.003716907304417295 -0.1447484611855930 
-0.009152428638810273 -0.009002212829611283 -0.2025415857769689 0.0007628401329477590 0.1174875342477270 
-0.009152428638810273 -0.009002212829611283 -0.2025415857769689 0.0007628401329477590 0.1174875342477270 
0.2474463436737087 -0.1134317160486031 -0.2355420558600015 -0.3411161057062582 0.5095374857308146 
-0.02036487850858058 0.2675425688991479 -0.3752825517019444 -0.02280692219685341 0.1095077331529988 
-0.01497236031196163 -0.06805703708849867 -0.1031778959476159 -0.005350737203827012 0.1509639805525274 
-0.01497236031196163 -0.06805703708849867 -0.1031778959476159 -0.005350737203827012 0.1509639805525274 
-0.01497236031196163 -0.06805703708849867 -0.1031778959476159 -0.005350737203827012 0.1509639805525274 
-0.01497236031196163 -0.06805703708849867 -0.1031778959476159 -0.005350737203827012 0.1509639805525274 
-0.3142257878650036 -0.08813777488971486 -0.006764320631662284 -0.04168951062652474 0.3890843681250081 
0 0 0 0 0 
-0.3533673861022730 -0.03533770190419010 0.1334002369963969 -0.02217909150174018 0.1641191990071773 
0.1141359525964336 -0.1929143778076723 0.004951746111397527 0.1421594308586679 -0.2382409184700938 
0 0 0 0 0 
-0.007049311923269092 -0.01071098831607563 0.3109279586176620 -0.003439446786528269 -0.2235999821093398 
-0.1197536043786847 -0.09085234042906792 0.2821610265794877 0.1345738148709054 -0.3097702205803359 
0 0 0 0 0 
0 0 0 0 0 
0 0 0 0 0 
0.2443791777181806 -0.01606837965778224 -0.2583380093749905 -0.004236282572996557 -0.02542135799262150 
-0.1640272218716160 0.1489529177922997 -0.04455828588276579 0.08266340734694297 -0.08411748707385887 
0 0 0 0 0 
-0.01747694167825008 -0.005444672180995327 0.01700028702611114 0.0003329410040494489 -0.0007502259110717825 
0 0 0 0 0 
0 0 0 0 0 
0.09524349057392653 -0.1051607768537026 -0.01090774033720342 -0.03217496041509449 -0.007530736342928638 
-0.06412635705010847 0.07944755456673090 -0.07075143642412186 -0.001443255026679076 -0.008950515858769034 
0.2032528870288078 -0.06815488846090659 -0.02766721997905289 -0.02027132570733616 -0.03715630252068134 
0 0 0 0 0 
-0.1847060396129904 -0.05434067790760807 -0.07315348520763965 0.3170889963578829 -0.02673025930419444 
-0.1060881875408913 0.1643949290981110 0.1906096869985172 -0.09163444813966348 -0.04185625930983340 
0 0 0 0 0 
0 0 0 0 0 
0 0 0 0 0 
0 0 0 0 0 
0 0 0 0 0 
-0.02739926322148069 0.03616418979429430 -0.008659358418221928 -0.01302159575458587 -0.01002667696860700 
-0.001311113770805342 -0.05577268444690128 0.1106411019048730 -0.01339118173158254 -0.05588920391012119 
0 0 0 0 0 
-0.007365696789065689 -0.008776333950329942 0.02538372393429164 -0.001585376370153665 -0.01385391862973032 
-0.1065722669511945 -0.1504290657838361 0.3911707155087931 -0.04346376126799924 -0.1632711176162768 
0.008768688357800784 -0.002990089178220121 -0.01476604913415387 -0.002475201814654778 -0.0009344271988879133 
0.008768688357800784 -0.002990089178220121 -0.01476604913415387 -0.002475201814654778 -0.0009344271988879133 
-0.03043871160227783 -0.03176251244103619 0.09536652153808746 -0.01312143577313756 -0.09458752360699203 
-0.007123337467758818 0.02030094140912158 -0.02563408102503154 -0.003721906478786732 -0.0001480156306075150 
-0.007365696789065690 -0.008776333950329942 0.02538372393429164 -0.001585376370153665 -0.01385391862973032 
-0.1404281094125139 0.04318143542460381 -0.006477242502626049 -0.008119944769291022 -0.002390066010175551 
0.4009357378284026 -0.1540528212352972 0.08668441935928156 -0.1382620422078214 -0.06035021471171496 
0.005655985914968508 -0.006576089820102782 -0.002484107217698680 -0.005758126683708880 -0.001450557830691544 
-0.09619345026862465 0.2541881799408123 -0.008467210269688594 -0.04457101757451282 -0.02511585008566943 
0.1115172616858296 -0.01824474702086981 -0.04618927690100129 -0.02556597138350278 -0.02015485588469955 
-0.007994796036470760 -0.004291686827006070 0.01850351482720478 0.0003280758028150975 -0.005007640206738055 
0 0 0 0 0 
0.01105381025619586 -0.005286228660048154 -0.002532431053987919 -0.01536416638168787 -0.004824500800937800 
0 0 0 0 0 
-0.0006568055203777503 0.01850272760294314 -0.02702893257562623 -0.001597408598685361 -0.008979987389745194 
0 0 0 0 0 
-0.01707929853841861 0.02567516757924504 -0.02134022897907864 -0.01786885215515776 -0.007070780866739588 
0 0 0 0 0 
0 0 0 0 0 
0 0 0 0 0 
0 0 0 0 0 
0 0 0 0 0 
-0.03213233179950913 -0.09319846646379373 0.2456970434395576 -0.006095431192629506 -0.03272763586754793 
-0.03213233179950913 -0.09319846646379373 0.2456970434395576 -0.006095431192629506 -0.03272763586754793 
-0.03213233179950913 -0.09319846646379373 0.2456970434395576 -0.006095431192629506 -0.03272763586754793 
-0.1963441713994894 -0.09649095789966490 -0.01980191712880165 0.2405885177153047 -0.02395933225036835 
-0.07222280603937807 -0.04789804359816965 0.2063037492449179 -0.01520265707874746 -0.02400352499250891 
-0.07675739906872896 0.07859816268031274 0.01198021809772865 -0.02581870872195781 -0.02325224247155310 
-0.07222280603937807 -0.04789804359816965 0.2063037492449179 -0.01520265707874746 -0.02400352499250891 
0 0 0 0 0 
0 0 0 0 0 
-0.02053008723809062 0.01936700137360584 -0.03228803016897924 -0.01011306371533969 -0.01182219530319241 
0 0 0 0 0 
-0.08417681530159680 0.3992526610814033 -0.1085142726697281 -0.03071904542851904 -0.01666768724633962 
0 0 0 0 0 
0 0 0 0 0 
0.3514538788180061 -0.07314129891119892 -0.02467841617049595 -0.04664265927058030 -0.07329720418591382 
0.2575346188988698 0.02221864254578726 -0.08375023878604444 -0.05894929834423299 -0.1280797608833658 
0 0 0 0 0 
0 0 0 0 0 
-0.003490454192949423 0.02872983503783002 -0.03017790217341883 -0.0009880281523719067 -0.002341848186102268 
-0.005316300831475171 0.01598814040474831 -0.02242045142827650 -0.002996002004698140 0.0003218597153827429 
-0.01135014249002932 -0.005096191465672473 0.02252613934470613 -0.001113315341746614 -0.007264248116077276 
0 0 0 0 0 
0 0 0 0 0 
0 0 0 0 0 
0 0 0 0 0 
0 0 0 0 0 
0.3014027414913094 -0.05629685736028357 -0.04101700657099967 -0.2125571112871842 -0.01971092240935934 
0.3014027414913094 -0.05629685736028357 -0.04101700657099967 -0.2125571112871842 -0.01971092240935934 
-0.02163310078356984 -0.006469666127496909 0.04384274436633376 -0.002320486119622210 -0.02066289962479001 
0 0 0 0 0 
-0.01201661750923975 -0.0007101518964503580 0.02865140630937530 0.0001640773713031194 -0.005892186755285389 
0 0 0 0 0 
0.2631020984528169 -0.004500272121022712 -0.1014703930417266 -0.09915539179884726 -0.05554688083688266 
-0.2705423751848491 0.2461006568880098 -0.007783187935550948 -0.01400190589719709 -0.01717375371020185 
-0.006560271550307837 -0.005332030080621497 0.04842646510962118 -0.003983226016487383 -0.08161810237508454 
-0.01976796943059851 0.02607581093268697 -0.005247103813706941 -0.009266192749018432 -0.008372965798081394 
-0.008435228715010904 -0.01215742317943298 0.01934346142481483 0.0003355823420558431 -0.003190901828382972 
-0.05839797107290399 -0.03835819595020491 0.08442158248938529 0.002995519124969254 -0.02851242219254132 
-0.001607604076729545 -0.003925861943533972 0.02737807766334617 -0.002747806898728045 -0.01866661309406609 
0 0 0 0 0 
-0.02158677764226726 -0.01496027128754070 0.06073450063505326 -0.001311460627785238 -0.02402600257249841 
0 0 0 0 0 
-0.002234765134995681 -0.02083071413452779 0.02581768790688307 -0.001693641454498307 -0.01966639605357310 
-0.002234765134995681 -0.02083071413452779 0.02581768790688307 -0.001693641454498307 -0.01966639605357310 
0 0 0 0 0 
0 0 0 0 0 
0 0 0 0 0 
0 0 0 0 0 
-0.01621387402358553 -0.008257333585066756 0.01529637754556882 0.0003631906542737652 -0.001327842838951542 
0 0 0 0 0 
0.04670982229099262 -0.03353976454841641 -0.005732815835388757 -0.01141046411759197 -0.02330850950494023 
0.01947940521429173 -0.009564040401766607 -0.01350561210631915 -0.01620239640794492 -0.02816351894328726 
-0.05960445385291083 0.05105215197229414 -0.002587505514723193 -0.004953182369576863 -0.004450705411952140 
0 0 0 0 0 
-0.04199749948408919 0.2461774110701904 -0.08730745397641436 -0.02908699650177074 -0.05911120147166362 
-0.03660498128747024 -0.08942219491745610 0.1847972017779141 -0.01163081150874435 -0.01765495407213501 
0 0 0 0 0 
-0.001178670935762615 -0.01452692096177792 0.03670827647505718 -0.005923465645276419 -0.02554719089524482 
-0.0006616742356025611 -0.02370709420262410 0.002965874854018164 -0.0008029230887046051 -0.004743460510734060 
0.009419800108745120 -0.006433361573281320 -6.026164610624472e-05 -0.006568925776564184 -0.005334460146510013 
-0.1135081839458024 -0.01969799155365989 0.1630610460606093 -0.03654152086912831 -0.05205916560821850 
0.004626425378185245 -0.002898085131738164 -0.0009121551225719235 -0.007240826771600548 -0.003050705338605007 
0 0 0 0 0 
-0.02723041707670089 0.02397572414664980 -0.007772796270930392 -0.004791932290352950 -0.004855009438347034 
-0.01645148932249560 -0.04268525033813413 0.1563479515186934 -0.05054875155784178 -0.08744946811540910 
-0.09066874225857542 -0.08885477495223752 -0.05242377908660779 0.2873582372410102 -0.04113251125709872 
-0.09066874225857542 -0.08885477495223752 -0.05242377908660779 0.2873582372410102 -0.04113251125709872 
0.0004130331672304033 0.02970132139067183 -0.04657905595172220 0.0001340452186651670 -0.001125647629301815 
-0.01037754575095369 -0.006872729267800725 0.02017972811791050 0.0006340527289742451 -0.002682246751933175 
-0.006069281076062954 -0.01158742577130562 0.07065205338871033 -0.008080476343591164 -0.02221025903992553 
0 0 0 0 0 
0 0 0 0 0 
0 0 0 0 0 
0 0 0 0 0 
0 0 0 0 0 
0 0 0 0 0 
0 0 0 0 0 
-0.09019996714154907 0.1248633616916622 -0.005828876247123185 -0.01867150049054441 -0.008046385101932930 
-0.1108904298588171 -0.006889458444405684 0.06525796233044760 2.255672736194549e-05 -0.001484090656627142 
-0.1108904298588171 -0.006889458444405684 0.06525796233044760 2.255672736194549e-05 -0.001484090656627142 
-0.05914782080144207 0.04649932087251098 -0.003014906073861417 -0.007381006957354006 -0.001137620378944800 
-0.01037754575095369 -0.006872729267800725 0.02017972811791050 0.0006340527289742451 -0.002682246751933175 
-0.01269015141856225 -0.05336898438258177 0.2417731916249543 -0.01567729679823736 -0.1896921179274063 
-0.01269015141856225 -0.05336898438258177 0.2417731916249543 -0.01567729679823736 -0.1896921179274063 
0 0 0 0 0 
-0.03205324684089351 -0.01722018257336820 0.08907231509689334 -0.005852582006736066 -0.05213967596949276 
-0.03205324684089351 -0.01722018257336820 0.08907231509689334 -0.005852582006736066 -0.05213967596949276 
0.1037706175953480 0.008327649066622223 -0.01186281038659634 -0.05508488792178316 -0.04136439651646080 
0.1582363621564381 -0.04612040739736040 -0.009714267153144260 -0.04185817984489206 -0.03586440600398991 
0.1115862347860112 -0.03163550179554186 -0.003434032844397303 -0.01371843371104579 -0.02906725830635532 
0.1115862347860112 -0.03163550179554186 -0.003434032844397303 -0.01371843371104579 -0.02906725830635532 
-0.008150292418306143 -0.01024363619007055 -0.01484392496161598 -0.01389846101391662 -0.02610181206168103 
0 0 0 0 0 
0 0 0 0 0 
0 0 0 0 0 
-0.003141111004837698 -0.01374288304495223 0.03256739616404009 -0.0003608082140366712 -0.005326194516293222 
-0.003272856871016737 0.0001244571497116083 0.02885625513366635 -0.0005233298370754063 -0.03346051293178428 
-0.02284860480541829 -0.01010913775123004 0.08718412177212878 -0.006584865625289990 -0.06711730916097375 
-0.01491675890297240 -0.0003895796588107101 0.02825378051895235 -0.0001428367379572512 -0.01051089882333399 
0 0 0 0 0 
-0.01491675890297240 -0.0003895796588107101 0.02825378051895235 -0.0001428367379572512 -0.01051089882333399 
0.2015719384553645 -0.1705057479598472 -0.03590974873133096 0.3071196267917781 -0.04679319402396620 
0 0 0 0 0 
0 0 0 0 0 
-0.001543818629780921 -0.1873154424691174 0.2841964419655500 -0.01821366029400111 -0.03670800443847981 
0 0 0 0 0 
0 0 0 0 0 
0 0 0 0 0 
-0.04863796000218011 -0.0008164582418972726 0.1135619605269887 -0.02247122278700958 -0.05394723544890601 
0 0 0 0 0 
0 0 0 0 0 
-0.008419511153035008 -0.004838481961292497 0.01235207583107844 0.0003469628373074739 -0.005242599360541055 
-0.01298798656016064 -0.005041591320446662 0.03005149668974092 -0.001323820717162342 -0.02690993000375152 
0 0 0 0 0 
-0.004097707021891510 -0.003201180678125628 0.01438040494703269 -0.0001642897530731414 -0.007261052850287875 
-0.008036432085651435 -0.0002636042292809386 0.02675628445008876 -0.001147019910744072 -0.03281122922685906 
-0.008302734709040782 -0.009034854194392192 0.04464326689091751 -0.006754833911468103 -0.02832475215151205 
0.2050364854941930 0.3857302925903131 -0.2474527549207384 -0.2002491075736255 -0.4046211553556790 
-0.3516463034377472 -0.05590272987015235 0.1476408244622463 0.3788249608454401 -0.1775617442853572 
-0.003847532432897015 -0.002309081387077666 0.02643082217112761 -0.0001694865216305054 -0.02193614072187579 
0 0 0 0 0 
0 0 0 0 0 
0 0 0 0 0 
0 0 0 0 0 
0.2849435682603299 -0.03964716468965813 -0.1575454666599199 -0.02530203978544842 -0.01378946657437516 
0.2849435682603299 -0.03964716468965813 -0.1575454666599199 -0.02530203978544842 -0.01378946657437516 
-0.02273516909610205 -0.004383713898655276 -0.08386406562703277 0.1313202958940273 -0.05515086522680079 
-0.04850826724875889 -0.2079177328163156 -0.007539207776286967 0.2427326274173301 -0.01245280749500266 
-0.05010221077700881 0.2290432085727411 -0.02138024112980797 -0.1267413076930928 -0.02433990402219441 
0 0 0 0 0 
-0.001872122163233815 -0.01173724180592943 0.01864440721768762 -0.0006806595017065158 -0.005133738898247016 
-0.001872122163233815 -0.01173724180592943 0.01864440721768762 -0.0006806595017065158 -0.005133738898247016 
-0.006622097913597341 -0.006626999992191153 0.03789644105839331 0.0003070866505440850 -0.005396857565816456 
-0.006622097913597341 -0.006626999992191153 0.03789644105839331 0.0003070866505440850 -0.005396857565816456 
-0.0003501832528363081 0.04259444727659456 -0.07553093814697301 -0.0001448223998704098 -0.001762958703441726 
-0.02677125270578676 0.1123803988555802 -0.06109492969775393 -0.03700760733973010 -0.02668712383545755 
0 0 0 0 0 
-0.004853515914204167 -0.008624946371921365 0.02181287770477325 -0.006081518735278228 -0.01795671282649672 
0 0 0 0 0 
-0.03156417632377551 0.08589173577142029 -0.0009511564869659952 -0.06079968024968221 -0.02796543131554228 
0 0 0 0 0 
-0.02479075781614810 -0.05135815698855236 0.02456905278494942 0.07594760600350098 -0.02344001789797617 
-0.006058446447373639 0.3394508707638541 -0.2947541756657713 -0.02466025669048447 -0.04054568612443014 
0 0 0 0 0 
0 0 0 0 0 
0 0 0 0 0 
-0.02930679241669305 -0.01662807720871343 0.1556880020371788 -0.02876090499160265 -0.006620416304807093 
-0.04008394577777550 0.1803177028414866 -0.002812342034074086 -0.1101095752620985 -0.01272500065580534 
-0.002607815995225797 -0.01987877389163561 0.04857834587637225 -0.02169698516010786 -0.04236868060771235 
-0.001123666903006479 -0.01775044828428605 0.03409330684192684 -0.006544820525258331 -0.01855136896430481 
0 0 0 0 0 
-0.02722688997400748 -0.01224241779770299 0.03008108992844248 0.0007634657843681092 -0.005847860054497057 
0.2161577703683918 -0.02941901956573523 -0.03888856923415751 -0.008430384508313437 -0.01320646178720975 
-0.06965081152082488 -0.03459092827938353 0.3090073901138461 -0.01491346929567420 -0.1869159734950558 
0 0 0 0 0 
0 0 0 0 0 
0 0 0 0 0 
0 0 0 0 0 
0 0 0 0 0 
0 0 0 0 0 
0 0 0 0 0 
0 0 0 0 0 
0 0 0 0 0 
0 0 0 0 0 
0 0 0 0 0 
0 0 0 0 0 
0 0 0 0 0 
0 0 0 0 0 
0 0 0 0 0 
0.05772084252464983 -0.06917778611498424 -0.004279741629042724 -0.006852283525065618 -0.02165479730197106 
0.05506670130011732 -0.08981294848889099 0.03636829352423554 -0.009195489764186002 -0.02517157206487395 
-0.002741566749354408 -0.001095454604317241 0.02183197126675065 -0.0008760435883814995 -0.01527325247805886 
-0.1884890434213067 0.4452504874055080 -0.002300107549881349 -0.2307109413823835 -0.02491061476462384 
-0.002482786828703986 -0.01266565599012815 0.02017114867076246 -0.002768133388757010 -0.009908560631559631 
0 0 0 0 0 
0.07641585551201440 0.1553255765996647 -0.2133237260427714 -0.01763477694876910 -0.03085739936203265 
0.09008438807451369 -0.1278878678739210 -0.002633986164519966 -0.01236407724071331 -0.02353844917229238 
0 0 0 0 0 
0 0 0 0 0 
0 0 0 0 0 
0.3072647647678409 -0.03335476822416487 -0.1434776593547837 -0.001517144208749327 -0.04006264823295292 
0.3072647647678409 -0.03335476822416487 -0.1434776593547837 -0.001517144208749327 -0.04006264823295292 
-0.01747694167825008 -0.005444672180995327 0.01700028702611114 0.0003329410040494489 -0.0007502259110717825 
-0.002893619613673526 -0.005882460591684131 0.02815795289001926 -0.003047382390507325 -0.03479048898147547 
0 0 0 0 0 
0 0 0 0 0 
0 0 0 0 0 
0 0 0 0 0 
0 0 0 0 0 
0 0 0 0 0 
0 0 0 0 0 
-0.006109315105700222 -0.005876412117812898 0.02925044143912988 -0.001542872284596605 -0.01861949648827432 
-0.006109315105700222 -0.005876412117812898 0.02925044143912988 -0.001542872284596605 -0.01861949648827432 
-0.002834804901792342 -0.006557341002828083 0.03140193997654167 -0.002996494224440194 -0.03444754510123090 
0.3884708332116991 -0.08991858369707470 -0.009328739848961367 -0.1991709135063177 -0.006059246401480074 
-0.006120813349024728 -0.003869289002993200 0.01928217504191213 -0.001564640926814996 -0.01923164569662426 
-0.006120813349024728 -0.003869289002993200 0.01928217504191213 -0.001564640926814996 -0.01923164569662426 
0.03940336937397858 -0.01007033990023100 -0.02316901354971129 -0.02233422587038071 -0.006147257691063097 
-0.06436455886390238 0.1789959741590085 -0.01921150088634228 -0.01172407165030136 -0.02284021072344819 
-0.2417674964617256 0.08185504140270808 -0.04501010832327233 0.3202213993095393 -0.1080196828405991 
-0.01015626179198570 0.0003480969030858773 0.01027451512657123 -0.0001397723397941012 -0.004185934664002858 
-0.06385180332709238 -0.01101736903543838 0.07353750402068249 0.0007190188271634199 -0.009514700806977170 
0.01105381025619586 -0.005286228660048154 -0.002532431053987919 -0.01536416638168787 -0.004824500800937800 
0 0 0 0 0 
-0.3519472677426269 -0.01855641523864883 -0.01160690949980812 0.3718826100683823 -0.01591856931571567 
-0.003049422412211140 0.03537885398090318 -0.02392073872288253 -0.0008199851166866089 -0.0004429248510910491 
-0.001894969175770139 0.02416876787016422 -0.02682902021563743 -0.03400742184540578 -0.01655394995910123 
-0.002481725467650605 0.02893665913880328 -0.02047181549802004 -0.003376570130670160 -0.001409279012953033 
-0.002481725467650605 0.02893665913880328 -0.02047181549802004 -0.003376570130670160 -0.001409279012953033 
-0.01322546823634640 -0.008380323095765233 0.05428178345465023 -0.004527782484552500 -0.04875845131534267 
-0.03654927327618392 0.009610156655119701 0.1269442214312672 -0.01709774358729699 -0.09079973941258998 
0.1576739219532728 -0.02481617662725170 -0.01189070307818302 -0.04361638382500555 -0.02260650938842915 
0 0 0 0 0 
-0.01202904658830827 0.02720917937192066 -0.01975183853178601 -0.009096339503356192 -0.005949247472543685 
-0.01504019339647469 -0.003232310104614956 0.01296798349951777 0.0003184432517162915 -0.001485346487347963 
-0.005200427295016566 0.09370096654964220 -0.1046998807115854 -0.005833729718279099 -0.002797303599448471 
-0.001271680402379608 -0.01229297063340115 0.01946723240380406 -0.0009675063898772969 -0.006257800264463041 
-0.007515928746879331 -0.003773709404795563 0.04117138216358306 -0.004983152976853195 -0.03363573337397653 
-0.006089624344873187 -0.005762058958595150 0.02975557085623366 -0.003722266026217315 -0.02127540427645730 
-0.0006616742356025611 -0.02370709420262410 0.002965874854018164 -0.0008029230887046051 -0.004743460510734060 
-0.009029512234279308 -0.003569833390097506 0.009171004978586448 0.0003073302373737701 -0.002753079844656429 
0.05717351980095964 -0.03801608004682503 -0.003820549222590154 -0.009421842524643564 -0.01305704363632660 
0.01266364680322311 -0.008148565001154654 0.005439161054543817 -0.01019657024924691 -0.008390091313158616 
0 0 0 0 0 
-0.0005331800068609561 0.06676387259813779 -0.09508797170623745 -0.0001698008876455695 -0.002155692129919667 
0.04523704739059595 -0.01317436500839726 -0.02044972687495425 -0.01448478845177709 -0.004381297183961831 
0.04258173217085703 -0.02311497316121249 -0.001159554935686306 -0.01486781296630023 -0.01282033331724885 
-0.004585820806179379 0.04515535276011014 -0.01306569911792525 -0.0005433616881033590 -0.0008212506640060458 
-0.004585820806179379 0.04515535276011014 -0.01306569911792525 -0.0005433616881033590 -0.0008212506640060458 
0 0 0 0 0 
0 0 0 0 0 
0 0 0 0 0 
0 0 0 0 0 
0 0 0 0 0 
0 0 0 0 0 
0.006806052621367012 -0.01008931774579083 -0.0007585105505157597 -0.001917278939423288 -0.004420340285640307 
0.006806052621367012 -0.01008931774579083 -0.0007585105505157597 -0.001917278939423288 -0.004420340285640307 
0.1167626188575124 -0.06805263191259190 -0.03684804820380790 -0.01691967492280096 -0.01195627409375505 
0 0 0 0 0 
-0.03268731985594369 0.05151004313018984 -0.01040292593318092 -0.02087046143987068 -0.01180827889736348 
-0.03268731985594369 0.05151004313018984 -0.01040292593318092 -0.02087046143987068 -0.01180827889736348 
0 0 0 0 0 
0.05200628153877933 -0.05146805025719619 -0.01124327070188260 -0.03058269618931803 -0.01901112451679844 
-0.005804368758864909 0.04564821711110879 -0.01195802201847553 -0.001823192904484923 -0.01812467941208465 
-4.894773159831939e-05 0.07218299972500694 -0.1493603265768251 -0.0001536166489302386 -0.008069917284051192 
-0.09504585229177187 -0.02480401720053688 0.1133288638460188 -0.009276691418957305 -0.05759214961810120 
-0.001098835845439986 0.05849159579834780 -0.06993281127302683 0.0003093389022911505 0.001082905264776815 
-0.001098835845439986 0.05849159579834780 -0.06993281127302683 0.0003093389022911505 0.001082905264776815 
0 0 0 0 0 
0 0 0 0 0 
-0.01032013975217807 -0.0004479863920683015 -0.01024332241472313 0.0004097012639375924 -0.008224768359293590 
0 0 0 0 0 
-0.004821484278070262 0.07725749121756784 -0.1266571794192186 -0.004804265994087498 -0.0009705841816898021 
5.679289738889839e-05 0.02202960628831662 -0.04634683944462038 -0.0001289944857820942 -0.003943781840651631 
-0.001007044012259605 0.01774189445595828 -0.02696367633202973 -0.002462008096258341 -0.003883777207125815 
-0.002736649729235876 0.02079238616418231 -0.03356415756144539 -0.004831858288572944 -0.003998715551093124 
-0.0003301958213568615 0.008677767386550208 -0.01958716158378053 -0.003369228904035826 -0.004292212381232068 
0 0 0 0 0 
0.0004130331672304033 0.02970132139067183 -0.04657905595172220 0.0001340452186651670 -0.001125647629301815 
-0.09289468774355568 0.4112305670471347 -0.09726826063002483 -0.03340589440516807 -0.03122116850894897 
-0.0007794099760788472 0.006509187014754141 -0.01597878538774571 -0.004012887082838264 -0.001422810717776410 
0 0 0 0 0 
0 0 0 0 0 
0 0 0 0 0 
-0.003049422412211140 0.03537885398090318 -0.02392073872288253 -0.0008199851166866089 -0.0004429248510910491 
0.1004222086777276 0.1047728500226942 -0.01604728571879814 -0.1953950983803081 -0.07821776525255364 
0 0 0 0 0 
0 0 0 0 0 
-0.1002447197999802 0.05448142367916842 -0.002541625987708729 -0.006912066904729067 -0.02627743379515337 
0 0 0 0 0 
0 0 0 0 0 
0 0 0 0 0 
0 0 0 0 0 
0 0 0 0 0 
-0.01502582252307790 -0.009247471536848460 0.03944492252434825 -0.001181766768011194 -0.0003923455512592254 
-0.0006644461348351909 -0.009064438281966819 0.01407973273035864 -0.0002931707500580883 -0.009294736769030386 
-0.005112650512431406 -0.02075224408284038 0.02823427842855512 0.0004336487720406073 -0.001083218877036504 
-0.001224508057327522 0.03311259176346582 -0.05141737056261966 -0.003380435342976242 -0.003723860480146863 
0 0 0 0 0 
0 0 0 0 0 
-0.02560414145055500 -0.1651646435224624 0.1936328162035926 -0.02299557845893983 -0.03171316707448657 
0 0 0 0 0 
-0.001904221474431473 0.04349192081324235 -0.06363276083803479 -0.001795930741167408 0.001100551962627129 
-0.0008407036115603409 0.01830996114310038 -0.03113385073276235 -0.001387075286313149 -0.008004449791662274 
0 0 0 0 0 
0 0 0 0 0 
0 0 0 0 0 
0 0 0 0 0 
0 0 0 0 0 
0 0 0 0 0 
0 0 0 0 0 
0 0 0 0 0 
0.1953741199503101 -0.01449783204969996 -0.01395971303302224 -0.07822160155777733 -0.02800538397969160 
-0.008726300669492938 -0.008874423766817050 0.07019795722469287 -0.01055093796614846 -0.01642490173454757 
-4.851807965200027e-05 0.04497023450583249 -0.08656923267062168 -0.0002099506595050871 -0.004162960987892476 
-0.03990439906383618 0.2388152769459256 -0.03540991467191466 -0.05675494086210717 -0.08998482887409708 
0 0 0 0 0 
0 0 0 0 0 
0.3512592554488957 -0.07747649081124845 -0.001286903692910029 -0.2481596834895957 -0.01559532531335409 
0 0 0 0 0 
-0.001080739509607727 0.01478091209914273 -0.03408266458007968 -0.005811561548040359 -0.002517829605445910 
0 0 0 0 0 
0 0 0 0 0 
0 0 0 0 0 
-0.008694221326135220 -0.4179086308099626 0.5662907600789975 -0.01370704729037871 -0.005817299350916380 
0 0 0 0 0 
0 0 0 0 0 
0 0 0 0 0 
-0.003697833378906188 -0.009212515712788213 0.05335809854734375 -0.006351192017655092 -0.03629303475426690 
-0.002127414297636328 -0.01520477910153320 0.04133313542860799 -0.005988269864296322 -0.02494720382119362 
-0.05370088947994313 -0.05545669396061995 0.1336354642907843 -0.02088034488431132 -0.1178300266044747 
-0.003060974765888549 0.0001472293565360980 0.01207970127817846 -0.0005822394788593220 -0.01235168623244134 
0 0 0 0 0 
0 0 0 0 0 
0.4237792892915943 -0.08708857913346085 -0.009663222303062737 -0.2290011965036156 -0.01788759903679783 
0 0 0 0 0 
-0.07509322872294964 0.07257185237965016 0.003290997157252893 -0.1267332668266888 -0.04570955030589775 
0 0 0 0 0 
0 0 0 0 0 
0 0 0 0 0 
0.01827416391104794 -0.01348107334008805 -0.003440192009892941 -0.008408854796203513 -0.0009205116541885650 
-0.01973093948499329 -0.007752742899129117 0.09737537763666075 -0.01990915580916481 -0.02531051466174841 
-0.009191151382931313 -0.01165398136210171 0.04187818314850912 0.0001397899850762111 -0.01779600332889946 
-0.0004814565774448787 0.01754878847855286 -0.07603244831341574 0.0002928134660990055 0.002119742587556150 
-0.05632614402624168 -0.03876733719560692 0.2393507127386080 -0.02636923002633476 -0.1255434130296216 
0.09036532101475740 -0.03150490933169689 -0.1010183220924218 -0.03829203019443352 -0.004843442479550315 
0 0 0 0 0 
0 0 0 0 0 
0 0 0 0 0 
0 0 0 0 0 
0 0 0 0 0 
0.2031119442528605 -0.05040596303194528 -0.1655362630897486 -0.01274491674608158 -0.01726707219782614 
0 0 0 0 0 
0 0 0 0 0 
0 0 0 0 0 
-0.006651331932758187 -0.02158075165415163 0.05544392924474337 -0.01208459031147307 -0.01105499643594033 
-0.03857961804129591 0.09657479315600202 -0.02981796770997900 -0.1224054880762898 -0.004798700869785505 
-0.02865196858345341 -0.06172793272658943 -0.006870587108345556 0.06725101110530916 -0.004733315840104631 
-0.01427273329169018 0.02022720050086793 -0.006816588694576738 -0.02204761770586962 0.0004256185169072826 
-0.1648982710261862 0.4070730126188668 -0.01323232033288109 -0.07601246026685776 -0.02064086512678066 
0 0 0 0 0 
0.2190269726668229 -0.03410873286419923 -0.01199866024546419 -0.02708209988443624 -0.01632987207860023 
0.2190269726668229 -0.03410873286419923 -0.01199866024546419 -0.02708209988443624 -0.01632987207860023 
-0.04410749059609383 -0.01177798172706006 0.09037891937431115 -0.001979041899791336 -0.02311763023155480 
0 0 0 0 0 
-0.006305297828987953 0.03072340078877574 -0.02869782534301865 -0.03741999091165621 -0.003674405235671278 
-0.008127265515009035 -0.02888223351797357 0.05995489406251511 -0.009997520754953010 -0.01414892988867848 
-0.008127265515009035 -0.02888223351797357 0.05995489406251511 -0.009997520754953010 -0.01414892988867848 
0.09227321956989888 -0.07114089973467583 -0.004088882814022730 -0.02925210207816231 -0.005313185120808165 
0 0 0 0 0 
0 0 0 0 0 
0.03040339483000277 -0.08225767924920130 -0.007472144817227439 -0.002684156664131182 -0.002500052138780602 
0 0 0 0 0 
0 0 0 0 0 
0 0 0 0 0 
0 0 0 0 0 
-0.005214652033611751 -0.002160677260751064 0.02897270705627435 -0.0004490295761627884 -0.007106973232827710 
-0.05253151906534194 -0.02634624219824243 0.1349656814319817 -0.03654326242949035 -0.02540870245451429 
